svm_type epsilon_svr
kernel_type rbf
gamma 0.1
nr_class 2
total_sv 20081
rho -6.10892
SV
10 1:0.5 2:-0.092714295 3:-1.0062638 
10 1:0.5 2:0.08211957 3:-0.95116283 
10 1:0.5 2:0.25695344 3:-0.89606188 
10 1:0.5 2:0.4317873 3:-0.84096093 
10 1:0.5 2:0.60662117 3:-0.78585998 
10 1:0.5 2:0.78229299 3:-0.73372998 
10 1:0.5 2:0.96015175 3:-0.68935367 
8.087428116543066 1:0.5 2:1.4011475 3:0.35051026 
-10 1:0.5 2:1.304669 3:1.4360719 
-10 1:0.5 2:0.25694939 3:1.6200709 
-10 1:0.5 2:0.07531254 3:1.5953515 
-10 1:0.5 2:-0.10632431 3:1.5706321 
-10 1:0.5 2:-0.28796116 3:1.5459127 
-10 1:0.5 2:-0.45048328 3:1.4809789 
-10 1:0.5 2:-0.58434001 3:1.3557376 
-10 1:0.5 2:-0.71819675 3:1.2304964 
-10 1:0.5 2:-0.85205348 3:1.1052551 
-10 1:0.5 2:-0.98591022 3:0.98001387 
-10 1:0.5 2:-1.1020037 3:0.84412798 
-10 1:0.5 2:-1.1493239 3:0.66702974 
-10 1:0.5 2:-1.1966442 3:0.48993149 
-10 1:0.5 2:-1.2439645 3:0.31283325 
-10 1:0.5 2:-1.2661296 3:0.13243224 
10 1:0.5 2:-1.026424 3:-0.90968628 
5.002868834951061 1:0.5 2:-0.9246012 3:-1.0621169 
10 1:0.5 2:-0.75060598 3:-1.1099804 
10 1:0.5 2:-0.57197123 3:-1.1511219 
10 1:0.5 2:-0.39333648 3:-1.1922633 
10 1:0.5 2:-0.2394682 3:-1.1161104 
10 1:1 2:0.54255288 3:0.92593748 
10 1:1 2:0.73528025 3:0.91323568 
10 1:1 2:0.92800761 3:0.90053388 
10 1:1 2:1.120735 3:0.88783208 
10 1:1 2:1.3134623 3:0.87513028 
10 1:1 2:1.4458569 3:0.75867796 
-10 1:1 2:1.6585761 3:0.43623229 
-10 1:1 2:1.7241711 3:0.26563686 
-10 1:1 2:1.6989062 3:0.074150935 
-10 1:1 2:1.6736414 3:-0.11733499 
-10 1:1 2:1.6483765 3:-0.30882091 
-10 1:1 2:1.6201632 3:-0.49900847 
-10 1:1 2:1.4959661 3:-0.64692818 
-10 1:1 2:1.3717689 3:-0.79484788 
-10 1:1 2:1.2475718 3:-0.94276759 
-10 1:1 2:1.1233746 3:-1.0906873 
-10 1:1 2:0.94969189 3:-1.1738217 
-10 1:1 2:0.77431033 3:-1.254732 
-10 1:1 2:0.59892876 3:-1.3356423 
-10 1:1 2:0.4235472 3:-1.4165526 
-10 1:1 2:0.24448226 3:-1.4853515 
-10 1:1 2:0.053749523 3:-1.515785 
-10 1:1 2:-0.13698321 3:-1.5462184 
-10 1:1 2:-0.32771595 3:-1.5766519 
-10 1:1 2:-0.52001555 3:-1.5873214 
-10 1:1 2:-0.71316102 3:-1.5873214 
-10 1:1 2:-0.89350637 3:-1.5566471 
-10 1:1 2:-1.0293622 3:-1.4193577 
-10 1:1 2:-1.1652181 3:-1.2820684 
-10 1:1 2:-1.2263066 3:-1.1028261 
-10 1:1 2:-1.2726904 3:-0.9153329 
-10 1:1 2:-1.295677 3:-0.72498852 
-10 1:1 2:-1.295677 3:-0.53184305 
10 1:1 2:-1.2196507 3:0.033398433 
10 1:1 2:-1.1418926 3:0.21020017 
10 1:1 2:-1.0641345 3:0.3870019 
10 1:1 2:-0.94627487 3:0.53723953 
10 1:1 2:-0.81380587 3:0.67779962 
10 1:1 2:-0.68067639 3:0.81723563 
10 1:1 2:-0.49341457 3:0.86454507 
10 1:1 2:-0.30615275 3:0.9118545 
10 1:1 2:-0.12356145 3:0.97400723 
10 1:1 2:0.049616617 3:1.0593212 
10 1:1 2:0.22200585 3:1.1464253 
10 1:1 2:0.39439508 3:1.2335294 
10 1:1 2:0.5494799 3:1.2821395 
10 1:1 2:0.59876064 3:1.0953868 
10 1:1.5 2:-0.282351 3:-1.082687 
1.014560306291467 1:1.5 2:-0.09585822 3:-1.101794 
-10 1:1.5 2:0.27712734 3:-1.140008 
-10 1:1.5 2:0.45551388 3:-1.0906521 
-10 1:1.5 2:0.63238781 3:-1.0285212 
-10 1:1.5 2:0.80926174 3:-0.96639034 
-10 1:1.5 2:0.98613567 3:-0.90425945 
10 1:1.5 2:1.1142766 3:-0.55492977 
10 1:1.5 2:1.1759842 3:-0.37790772 
10 1:1.5 2:1.2376918 3:-0.20088568 
10 1:1.5 2:1.3106593 3:-0.030319027 
10 1:1.5 2:1.4322473 3:0.11237288 
-10 1:1.5 2:1.6476214 3:0.40799533 
-10 1:1.5 2:1.6476214 3:0.59546435 
-7.445740996718583 1:1.5 2:1.6476214 3:0.78293337 
-10 1:1.5 2:1.6476214 3:0.9704024 
-10 1:1.5 2:1.6393865 3:1.1573771 
-10 1:1.5 2:1.6169588 3:1.3434997 
-10 1:1.5 2:1.5945312 3:1.5296223 
-10 1:1.5 2:1.5011805 3:1.6555594 
-10 1:1.5 2:1.321187 3:1.707971 
-10 1:1.5 2:1.1411936 3:1.7603826 
-10 1:1.5 2:0.96120006 3:1.8127943 
-10 1:1.5 2:0.7815896 3:1.7593864 
-10 1:1.5 2:0.60198024 3:1.7056731 
-10 1:1.5 2:0.42237089 3:1.6519599 
-10 1:1.5 2:0.24276154 3:1.5982466 
-10 1:1.5 2:-0.11645717 3:1.4908201 
-6.422708135582921 1:1.5 2:-0.28526464 3:1.4181416 
10 1:1.5 2:-0.56090603 3:1.1639756 
10 1:1.5 2:-0.67396215 3:1.0149102 
10 1:1.5 2:-0.7838007 3:0.86298877 
10 1:1.5 2:-0.88640724 3:0.70632825 
10 1:1.5 2:-0.98185389 3:0.54497593 
10 1:1.5 2:-1.0773005 3:0.38362361 
10 1:1.5 2:-1.1727472 3:0.22227129 
10 1:1.5 2:-1.2309815 3:0.050736695 
10 1:1.5 2:-1.2309815 3:-0.13673233 
10 1:1.5 2:-1.2043515 3:-0.31997829 
10 1:1.5 2:-1.1463514 3:-0.49824948 
10 1:1.5 2:-1.0145578 3:-0.6215611 
10 1:1.5 2:-0.86288018 3:-0.73090788 
10 1:1.5 2:-0.72994793 3:-0.85462369 
10 1:1.5 2:-0.54955193 3:-0.90170999 
10 1:1.5 2:-0.37171324 3:-0.91788704 
10 1:2 2:-0.13902862 3:-0.96975599 
10 1:2 2:0.044275419 3:-0.94922111 
10 1:2 2:0.22757946 3:-0.92868623 
10 1:2 2:0.40502808 3:-0.8916241 
10 1:2 2:0.56037498 3:-0.79217868 
10 1:2 2:0.71572189 3:-0.69273327 
10 1:2 2:0.8710688 3:-0.59328786 
10 1:2 2:1.0264157 3:-0.49384244 
10 1:2 2:1.1218524 3:-0.34854099 
10 1:2 2:1.1772782 3:-0.1726148 
10 1:2 2:1.2327041 3:0.0033113881 
10 1:2 2:1.28813 3:0.17923758 
10 1:2 2:1.3435559 3:0.35516376 
10 1:2 2:1.3970943 3:0.53151371 
10 1:2 2:1.4221894 3:0.71424927 
10 1:2 2:1.4472845 3:0.89698483 
10 1:2 2:1.4723797 3:1.0797204 
-10 1:2 2:1.4974748 3:1.262456 
-10 1:2 2:1.3736681 3:1.3978695 
-10 1:2 2:1.247683 3:1.5325907 
-10 1:2 2:1.121239 3:1.6659973 
-10 1:2 2:0.93878295 3:1.6389445 
-10 1:2 2:0.75632693 3:1.6118917 
-10 1:2 2:-0.82806591 3:1.1618643 
-10 1:2 2:-0.99812014 3:1.0904247 
-10 1:2 2:-1.1398581 3:0.99391779 
-10 1:2 2:-1.1901475 3:0.81645504 
-10 1:2 2:-1.2404369 3:0.63899229 
-10 1:2 2:-1.3913051 3:0.10660403 
-10 1:2 2:-1.4415945 3:-0.07085872 
-10 1:2 2:-1.4599455 3:-0.25101641 
-10 1:2 2:-1.4401039 3:-0.43439678 
-10 1:2 2:-1.4202622 3:-0.61777714 
-10 1:2 2:-1.3974629 3:-0.79817248 
-10 1:2 2:-1.2139068 3:-0.81631641 
10 1:2 2:-0.84679457 3:-0.85260427 
10 1:2 2:-0.66246933 3:-0.85514847 
10 1:2 2:-0.47801866 3:-0.85514847 
10 1:2 2:-0.2999539 3:-0.87961663 
-10 1:2.5 2:-0.013873732 3:-1.1700247 
-10 1:2.5 2:0.17184431 3:-1.1345093 
-10 1:2.5 2:0.35756235 3:-1.0989938 
-10 1:2.5 2:0.54328039 3:-1.0634784 
-10 1:2.5 2:0.72899843 3:-1.027963 
-10 1:2.5 2:0.90007037 3:-0.96425141 
-10 1:2.5 2:1.0359206 3:-0.83273239 
-10 1:2.5 2:1.1717708 3:-0.70121336 
-10 1:2.5 2:1.3076211 3:-0.56969434 
10 1:2.5 2:1.3952193 3:-0.22192433 
10 1:2.5 2:1.4067621 3:-0.033193566 
10 1:2.5 2:1.418305 3:0.15553719 
10 1:2.5 2:1.4298478 3:0.34426795 
10 1:2.5 2:1.4413907 3:0.53299871 
10 1:2.5 2:1.4428681 3:0.72203699 
10 1:2.5 2:1.4428681 3:0.9111204 
-10 1:2.5 2:1.0425572 3:1.4652994 
-10 1:2.5 2:0.89039062 3:1.5775396 
-10 1:2.5 2:0.73333554 3:1.6631692 
-10 1:2.5 2:0.55121238 3:1.6123392 
-10 1:2.5 2:0.36908923 3:1.5615092 
10 1:2.5 2:0.0048429067 3:1.4598491 
10 1:2.5 2:-0.17728025 3:1.4090191 
10 1:2.5 2:-0.35940341 3:1.358189 
-10 1:2.5 2:-0.73034555 3:1.2862894 
-10 1:2.5 2:-0.91668918 3:1.2542178 
-10 1:2.5 2:-1.0898044 3:1.2059819 
-10 1:2.5 2:-1.1581012 3:1.0296638 
-10 1:2.5 2:-1.226398 3:0.85334561 
-10 1:2.5 2:-1.2946947 3:0.67702746 
-10 1:2.5 2:-1.3452555 3:0.49676364 
-10 1:2.5 2:-1.38394 3:-0.069165979 
-10 1:2.5 2:-1.3968349 3:-0.25780919 
-10 1:2.5 2:-1.3629881 3:-0.42691146 
10 1:2.5 2:-1.0560794 3:-0.63325742 
10 1:2.5 2:-0.87158772 3:-0.67467416 
10 1:2.5 2:-0.68709602 3:-0.7160909 
10 1:2.5 2:-0.50260431 3:-0.75750765 
10 1:2.5 2:-0.31995575 3:-0.80579618 
10 1:2.5 2:-0.13950137 3:-0.86226522 
10 1:2.5 2:-0.035699278 3:-0.98220518 
10 1:3 2:-0.3917889 3:-1.0312165 
10 1:3 2:-0.2116439 3:-1.0169443 
10 1:3 2:-0.031498901 3:-1.0026721 
10 1:3 2:0.1486461 3:-0.9883999 
10 1:3 2:0.3287911 3:-0.97412769 
10 1:3 2:0.5089361 3:-0.95985548 
10 1:3 2:0.68385921 3:-0.92283723 
10 1:3 2:0.8521911 3:-0.85710831 
10 1:3 2:1.020523 3:-0.79137938 
-10 1:3 2:1.5511402 3:-0.10850765 
-10 1:3 2:1.6380798 3:0.049914014 
-10 1:3 2:1.6816903 3:0.21300253 
-10 1:3 2:1.6304797 3:0.38630398 
-10 1:3 2:1.4256373 3:1.0795097 
-10 1:3 2:1.329827 3:1.2075827 
10 1:3 2:0.80715423 3:1.3502455 
10 1:3 2:0.62712124 3:1.3658673 
10 1:3 2:0.44708825 3:1.381489 
10 1:3 2:0.26705525 3:1.3971108 
10 1:3 2:0.087022263 3:1.4127325 
10 1:3 2:-0.093033073 3:1.4278383 
-10 1:3 2:-0.45445204 3:1.4278383 
10 1:3 2:-0.70890896 3:1.2012488 
10 1:3 2:-0.82375816 3:1.0617297 
10 1:3 2:-0.93860737 3:0.9222106 
10 1:3 2:-1.0534566 3:0.78269151 
10 1:3 2:-1.1683058 3:0.64317241 
-10 1:3 2:-1.3520735 3:-0.028190741 
-10 1:3 2:-1.3685333 3:-0.20814905 
-10 1:3 2:-1.3849931 3:-0.38810736 
-10 1:3 2:-1.3246482 3:-0.53824633 
-10 1:3 2:-1.1910678 3:-0.65995168 
-10 1:3 2:-1.0574874 3:-0.78165703 
-10 1:3 2:-0.91395529 3:-0.88585502 
0.7364483175805623 1:3 2:-0.56667019 3:-0.98569235 
10 1:3.5 2:-0.56607092 3:-0.98117664 
2.177105938247985 1:3.5 2:-0.4098601 3:-1.0766399 
-10 1:3.5 2:-0.097438462 3:-1.2675664 
-10 1:3.5 2:0.06052425 3:-1.340287 
-10 1:3.5 2:0.22951273 3:-1.2698744 
-3.831657256071068 1:3.5 2:0.39850122 3:-1.1994617 
-10 1:3.5 2:1.0829655 3:-0.94437528 
-10 1:3.5 2:1.2614108 3:-0.90348111 
-10 1:3.5 2:1.3562832 3:-0.77511539 
-10 1:3.5 2:1.4052655 3:-0.59871873 
-10 1:3.5 2:1.4542479 3:-0.42232207 
-10 1:3.5 2:1.6011948 3:0.10686791 
-10 1:3.5 2:1.5884626 3:0.28828058 
-9.929252247212894 1:3.5 2:1.5686092 3:0.47027204 
-10 1:3.5 2:1.5487559 3:0.6522635 
-10 1:3.5 2:1.5289025 3:0.83425497 
10 1:3.5 2:1.2104423 3:0.98309777 
10 1:3.5 2:1.0394213 3:1.048419 
10 1:3.5 2:0.86840026 3:1.1137403 
10 1:3.5 2:0.69557163 3:1.1739615 
10 1:3.5 2:0.52158708 3:1.2309213 
10 1:3.5 2:0.34760253 3:1.2878812 
10 1:3.5 2:0.17361798 3:1.3448411 
10 1:3.5 2:-0.00036656583 3:1.4018009 
-10 1:3.5 2:-0.36139787 3:1.4586998 
-10 1:3.5 2:-0.54282794 3:1.4831576 
-10 1:3.5 2:-0.724258 3:1.5076153 
-10 1:3.5 2:-0.84555031 3:1.3721247 
-10 1:3.5 2:-0.96592511 3:1.2341937 
-10 1:3.5 2:-1.056212 3:1.082687 
10 1:3.5 2:-1.1037373 3:0.71964221 
10 1:3.5 2:-1.1275 3:0.5381198 
10 1:3.5 2:-1.1512627 3:0.35659739 
10 1:3.5 2:-1.1642273 3:0.17504187 
10 1:3.5 2:-1.1415785 3:-0.006622874 
10 1:3.5 2:-1.1189296 3:-0.18828762 
10 1:3.5 2:-1.0962808 3:-0.36995236 
-10 1:3.5 2:-1.0234673 3:-0.72857491 
10 1:3.5 2:-0.7350594 3:-0.91076398 
-10 1:4 2:-0.93528127 3:-0.98242687 
-10 1:4 2:-0.78928399 3:-1.0877599 
-10 1:4 2:-0.64328671 3:-1.1930928 
-10 1:4 2:-0.49728943 3:-1.2984258 
-10 1:4 2:-0.34180154 3:-1.365443 
-10 1:4 2:-0.16351886 3:-1.3404324 
-10 1:4 2:0.014763816 3:-1.3154218 
-10 1:4 2:0.19304649 3:-1.2904112 
-10 1:4 2:1.0490476 3:-1.0177775 
-10 1:4 2:1.1960719 3:-0.92641657 
-10 1:4 2:1.3078477 3:-0.78529106 
-10 1:4 2:1.4196235 3:-0.64416555 
-10 1:4 2:1.5313994 3:-0.50304004 
-10 1:4 2:1.6172506 3:-0.35231233 
-10 1:4 2:1.6243744 3:-0.17242488 
-10 1:4 2:1.6314982 3:0.0074625689 
-10 1:4 2:1.638622 3:0.18735002 
-10 1:4 2:1.6457459 3:0.36723747 
-10 1:4 2:1.6528697 3:0.54712492 
-10 1:4 2:1.5219522 3:0.64580203 
10 1:4 2:1.3612546 3:0.72695928 
10 1:4 2:1.1978308 3:0.80206951 
10 1:4 2:1.0306042 3:0.86874415 
10 1:4 2:0.86337762 3:0.93541879 
10 1:4 2:0.69615102 3:1.0020934 
10 1:4 2:0.52988883 3:1.0702768 
10 1:4 2:0.39916823 3:1.1940603 
10 1:4 2:0.26844764 3:1.3178439 
10 1:4 2:0.10512513 3:1.3597829 
10 1:4 2:-0.074903327 3:1.3597829 
10 1:4 2:-0.25493178 3:1.3597829 
10 1:4 2:-0.5868676 3:1.2625581 
10 1:4 2:-0.73909964 3:1.1664558 
10 1:4 2:-0.85165723 3:1.0262003 
10 1:4 2:-0.96343304 3:0.88507479 
10 1:4 2:-1.0539994 3:0.73570165 
10 1:4 2:-1.0669285 3:0.55613806 
10 1:4 2:-1.0798576 3:0.37657447 
10 1:4 2:-1.0927867 3:0.19701088 
10 1:4 2:-1.1057158 3:0.017447294 
10 1:4 2:-1.1186449 3:-0.1621163 
-10 1:4 2:-1.1285212 3:-0.5218181 
-10 1:4 2:-1.1285212 3:-0.70184655 
-10 1:4 2:-1.0619418 3:-0.85449195 
-10 1:4.5 2:-1.0537941 3:-1.2300113 
-10 1:4.5 2:-0.93856624 3:-1.082468 
10 1:4.5 2:-0.69545023 3:-0.81064954 
10 1:4.5 2:-0.50898141 3:-0.79403989 
10 1:4.5 2:-0.32251258 3:-0.77743024 
10 1:4.5 2:-0.13604375 3:-0.76082059 
10 1:4.5 2:0.050425072 3:-0.74421095 
10 1:4.5 2:0.23673292 3:-0.72617373 
10 1:4.5 2:0.42221797 3:-0.70083997 
10 1:4.5 2:0.60770302 3:-0.67550621 
10 1:4.5 2:0.79318807 3:-0.65017245 
10 1:4.5 2:0.97138186 3:-0.59403053 
10 1:4.5 2:1.1485459 3:-0.53353738 
10 1:4.5 2:1.3126153 3:-0.45917726 
10 1:4.5 2:1.3831514 3:-0.28576689 
2.947373002559571 1:4.5 2:1.4536876 3:-0.11235653 
-10 1:4.5 2:1.4348428 3:0.80990622 
-10 1:4.5 2:1.4177808 3:0.9963342 
-10 1:4.5 2:1.4007188 3:1.1827622 
-10 1:4.5 2:1.3679074 3:1.3542697 
-10 1:4.5 2:1.1826731 3:1.3813763 
-10 1:4.5 2:0.99743888 3:1.408483 
-10 1:4.5 2:0.81217496 3:1.4353259 
-10 1:4.5 2:0.62554633 3:1.4500316 
-10 1:4.5 2:0.4389177 3:1.4647374 
-10 1:4.5 2:0.25228908 3:1.4794431 
-10 1:4.5 2:0.065660448 3:1.4941489 
-10 1:4.5 2:-0.12096818 3:1.5088546 
-10 1:4.5 2:-0.30381088 3:1.4955064 
-10 1:4.5 2:-0.47986522 3:1.431856 
-10 1:4.5 2:-0.65591956 3:1.3682056 
-10 1:4.5 2:-0.8319739 3:1.3045552 
-10 1:4.5 2:-0.94026926 3:1.1878759 
-10 1:4.5 2:-0.95974396 3:1.0016845 
10 1:4.5 2:-0.97921867 3:0.81549305 
10 1:4.5 2:-0.99869337 3:0.62930164 
10 1:4.5 2:-1.0181681 3:0.44311024 
10 1:4.5 2:-1.0376428 3:0.25691883 
10 1:4.5 2:-1.0499244 3:0.070789328 
10 1:4.5 2:-1.0272482 3:-0.11503934 
10 1:4.5 2:-1.004572 3:-0.300868 
10 1:4.5 2:-0.98189577 3:-0.48669666 
-10 1:4.5 2:-1.0084417 3:-0.85835399 
-10 1:4.5 2:-1.0311179 3:-1.0441827 
-10 1:5 2:-1.1926442 3:-0.19174125 
4.79626145313851 1:5 2:-1.0190085 3:-0.50253254 
10 1:5 2:-0.93219067 3:-0.65792818 
10 1:5 2:-0.84537283 3:-0.81332383 
-10 1:5 2:-0.18211745 3:-1.3438527 
-10 1:5 2:-0.020830315 3:-1.4191628 
-10 1:5 2:0.14045682 3:-1.4944728 
-10 1:5 2:0.30174395 3:-1.5697829 
-10 1:5 2:0.46777896 3:-1.5106451 
-10 1:5 2:0.63397668 3:-1.4468998 
-10 1:5 2:0.8001744 3:-1.3831545 
-10 1:5 2:0.9380055 3:-1.2866577 
-10 1:5 2:1.0248233 3:-1.131262 
-10 1:5 2:1.1116412 3:-0.97586638 
-10 1:5 2:1.198459 3:-0.82047074 
2.919958022978728 1:5 2:1.312701 3:-0.4902271 
10 1:5 2:1.3346323 3:-0.3135801 
10 1:5 2:1.3565636 3:-0.1369331 
10 1:5 2:1.3780388 3:0.039694243 
10 1:5 2:1.3409837 3:0.21379783 
10 1:5 2:1.3039286 3:0.38790142 
10 1:5 2:1.2668734 3:0.56200501 
10 1:5 2:1.2298183 3:0.7361086 
10 1:5 2:1.1476935 3:0.87714242 
10 1:5 2:0.99273155 3:0.96473203 
10 1:5 2:0.8377696 3:1.0523216 
10 1:5 2:0.68280766 3:1.1399112 
10 1:5 2:0.52784571 3:1.2275008 
10 1:5 2:0.37165602 3:1.3125687 
10 1:5 2:0.20713518 3:1.3805249 
-10 1:5 2:-0.12190651 3:1.5164372 
-10 1:5 2:-0.28071188 3:1.4713967 
-10 1:5 2:-0.90800841 3:1.1345564 
-10 1:5 2:-1.0339656 3:1.0259414 
-10 1:5 2:-1.0797301 3:0.85392173 
-10 1:5 2:-1.1254946 3:0.6819021 
-10 1:5 2:-1.1712592 3:0.50988247 
-10 1:5 2:-1.2170237 3:0.33786284 
-10 1:5 2:-1.2256509 3:0.16273179 
-10 1:5 2:-1.2091475 3:-0.014504728 
-10 1:5.5 2:-1.1109477 3:-0.57538279 
10 1:5.5 2:-0.8532357 3:-0.85534466 
10 1:5.5 2:-0.72437972 3:-0.9953256 
10 1:5.5 2:-0.26825811 3:-1.15683 
10 1:5.5 2:-0.086550367 3:-1.1004312 
10 1:5.5 2:0.095157378 3:-1.0440324 
10 1:5.5 2:0.28275026 3:-1.0750859 
10 1:5.5 2:0.47037617 3:-1.1066302 
-10 1:5.5 2:1.0025865 3:-0.97476797 
-10 1:5.5 2:1.1750683 3:-0.89446513 
-10 1:5.5 2:1.2708899 3:-0.75733812 
10 1:5.5 2:1.3242462 3:-0.38057929 
10 1:5.5 2:1.3504265 3:-0.19214411 
10 1:5.5 2:1.3660907 3:-0.0025309227 
10 1:5.5 2:1.3817549 3:0.18708226 
10 1:5.5 2:1.3899942 3:0.37547132 
10 1:5.5 2:1.3142906 3:0.5500207 
10 1:5.5 2:1.238587 3:0.72457008 
10 1:5.5 2:1.1628833 3:0.89911946 
10 1:5.5 2:1.0871797 3:1.0736688 
-10 1:5.5 2:0.8597359 3:1.3772033 
-10 1:5.5 2:0.74151316 3:1.5262735 
-10 1:5.5 2:0.57806404 3:1.5607751 
-10 1:5.5 2:0.38989455 3:1.5326545 
10 1:5.5 2:-0.17461392 3:1.4482926 
-10 1:5.5 2:-0.5509529 3:1.3920513 
-10 1:5.5 2:-0.72478416 3:1.3149733 
-10 1:5.5 2:-0.8983939 3:1.237139 
-10 1:5.5 2:-0.98518734 3:1.0951626 
-10 1:5.5 2:-1.0085847 3:0.90634765 
10 1:5.5 2:-1.0594491 3:0.52925003 
10 1:5.5 2:-1.0854002 3:0.34076908 
6.168100040125009 1:5.5 2:-1.1113513 3:0.15228812 
-10 1:5.5 2:-1.1632534 3:-0.22467378 
-10 1:5.5 2:-1.1892045 3:-0.41315473 
-10 1:5.5 2:-1.2151556 3:-0.60163568 
-10 1:5.5 2:-1.2411066 3:-0.79011663 
-10 1:5.5 2:-1.1954428 3:-0.7458501 
-10 1:6 2:-1.024546 3:-0.91707032 
10 1:6 2:-0.67827912 3:-1.0082014 
10 1:6 2:-0.50514567 3:-1.053767 
10 1:6 2:-0.33201221 3:-1.0993325 
10 1:6 2:-0.15880344 3:-1.144595 
10 1:6 2:0.015519052 3:-1.1853759 
2.432126826442672 1:6 2:0.18984155 3:-1.2261568 
-10 1:6 2:0.36416405 3:-1.2669377 
-10 1:6 2:0.52249999 3:-1.2456668 
10 1:6 2:0.92125007 3:-0.88585976 
10 1:6 2:1.0541668 3:-0.76592408 
-10 1:6 2:1.4547299 3:-0.18295306 
-10 1:6 2:1.5094745 3:-0.016621979 
-0.3718116289179934 1:6 2:1.5225215 3:0.16193107 
-10 1:6 2:1.5355684 3:0.34048412 
-10 1:6 2:1.5486153 3:0.51903716 
-10 1:6 2:1.5616623 3:0.69759021 
-10 1:6 2:1.5747092 3:0.87614326 
-10 1:6 2:1.4338174 3:0.9816684 
-10 1:6 2:1.2872763 3:1.0845135 
-10 1:6 2:0.14564378 3:1.5534001 
-9.325153020545814 1:6 2:-0.032571031 3:1.5363445 
-10 1:6 2:-0.21078584 3:1.5192889 
-10 1:6 2:-0.38900066 3:1.5022334 
-10 1:6 2:-0.56721547 3:1.4851778 
-10 1:6 2:-0.65199794 3:1.3438473 
10 1:6 2:-0.71788417 3:1.1773828 
10 1:6 2:-0.7837704 3:1.0109184 
10 1:6 2:-0.84965662 3:0.8444539 
10 1:6 2:-0.91554285 3:0.67798944 
10 1:6 2:-0.96313231 3:0.5067975 
10 1:6 2:-0.98613048 3:0.32925174 
10 1:6 2:-1.0091286 3:0.15170598 
10 1:6 2:-1.0321268 3:-0.025839779 
10 1:6 2:-1.055125 3:-0.20338554 
10 1:6 2:-1.0601586 3:-0.38208997 
10 1:6 2:-1.0601586 3:-0.56111905 
-10 1:6.5 2:-0.99200882 3:-1.2308442 
-10 1:6.5 2:-0.81629453 3:-1.2308442 
-10 1:6.5 2:-0.64058024 3:-1.2308442 
-10 1:6.5 2:0.23799119 3:-1.2308442 
-10 1:6.5 2:0.41370548 3:-1.2308442 
-10 1:6.5 2:0.56369155 3:-1.1501413 
-10 1:6.5 2:1.4228355 3:-0.29130909 
-10 1:6.5 2:1.4969223 3:-0.13893869 
-10 1:6.5 2:1.5084798 3:0.036395096 
4.281109120018441 1:6.5 2:1.4802639 3:0.37902101 
10 1:6.5 2:1.4156394 3:0.54241989 
10 1:6.5 2:1.351015 3:0.70581876 
10 1:6.5 2:1.2863906 3:0.86921764 
10 1:6.5 2:1.1492394 3:0.97323001 
10 1:6.5 2:1.0017997 3:1.0688178 
10 1:6.5 2:0.84982774 3:1.1522683 
10 1:6.5 2:0.67582177 3:1.1767107 
10 1:6.5 2:0.50181579 3:1.2011531 
10 1:6.5 2:0.32780982 3:1.2255955 
10 1:6.5 2:0.15380384 3:1.2500379 
10 1:6.5 2:-0.021806112 3:1.2515307 
10 1:6.5 2:-0.1975204 3:1.2515307 
10 1:6.5 2:-0.37323469 3:1.2515307 
10 1:6.5 2:-0.54865586 3:1.2483735 
10 1:6.5 2:-0.98278569 3:0.79909418 
10 1:6.5 2:-1.0233562 3:0.62812767 
10 1:6.5 2:-1.0639266 3:0.45716116 
10 1:6.5 2:-1.1044971 3:0.28619465 
10 1:6.5 2:-1.1450675 3:0.11522813 
-2.502268179946808 1:6.5 2:-1.2067736 3:-0.22897926 
-10 1:6.5 2:-1.2067736 3:-0.40469355 
-10 1:6.5 2:-1.2067736 3:-0.58040784 
-10 1:6.5 2:-1.2067736 3:-0.75612212 
-10 1:6.5 2:-1.1539192 3:-0.91893546 
-10 1:6.5 2:-1.072964 3:-1.0748898 
10 1:7 2:-0.015405413 3:-0.99033104 
10 1:7 2:0.16719029 3:-0.99033104 
10 1:7 2:0.34978599 3:-0.99033104 
10 1:7 2:0.5323817 3:-0.99033104 
10 1:7 2:0.97983526 3:-0.76890795 
10 1:7 2:1.1002207 3:-0.63161797 
10 1:7 2:1.2206061 3:-0.49432798 
-10 1:7 2:1.4394264 3:-0.20823317 
-10 1:7 2:1.5284833 3:0.14593293 
-10 1:7 2:1.5730118 3:0.32301598 
-10 1:7 2:1.6175402 3:0.50009903 
-10 1:7 2:1.6620687 3:0.67718208 
-10 1:7 2:1.6205001 3:0.85244723 
-10 1:7 2:1.5685366 3:1.0274929 
-10 1:7 2:1.5165731 3:1.2025386 
-10 1:7 2:1.4596648 3:1.3717056 
-10 1:7 2:1.2783054 3:1.3929185 
-10 1:7 2:1.0969461 3:1.4141314 
-10 1:7 2:0.9155868 3:1.4353443 
-10 1:7 2:0.73422748 3:1.4565572 
-1.068184046967325 1:7 2:0.55286816 3:1.4777701 
-10 1:7 2:0.0088104949 3:1.5415749 
-10 1:7 2:-0.17231664 3:1.5646866 
-10 1:7 2:-0.35344378 3:1.5877983 
-10 1:7 2:-0.49907207 3:1.5098025 
-10 1:7 2:-0.62599632 3:1.378534 
-10 1:7 2:-0.75292057 3:1.2472655 
-10 1:7 2:-0.87984482 3:1.1159969 
-10 1:7 2:-1.0067691 3:0.9847284 
-10 1:7 2:-1.1336933 3:0.85345988 
-10 1:7 2:-1.1808684 3:0.68842942 
-10 1:7 2:-1.1867785 3:0.50592939 
-10 1:7 2:-1.1926887 3:0.32342936 
-10 1:7 2:-1.2163293 3:-0.40657076 
10 1:7 2:-0.91116005 3:-0.8246534 
10 1:7 2:-0.72980073 3:-0.84586631 
10 1:7 2:-0.54844141 3:-0.86707921 
10 1:7 2:-0.36925603 3:-0.90002873 
10 1:7 2:-0.19233072 3:-0.94517989 
-10 1:7.5 2:-1.1634302 3:-0.70166509 
-10 1:7.5 2:-1.0444869 3:-0.83516072 
-10 1:7.5 2:-0.92554365 3:-0.96865636 
-10 1:7.5 2:-0.80660038 3:-1.102152 
-10 1:7.5 2:-0.68765711 3:-1.2356476 
-10 1:7.5 2:-0.53901397 3:-1.2716196 
-10 1:7.5 2:-0.36585232 3:-1.2270816 
10 1:7.5 2:0.15363262 3:-1.0934677 
10 1:7.5 2:0.32679427 3:-1.0489298 
10 1:7.5 2:0.49995591 3:-1.0043918 
-1.146141373628863 1:7.5 2:0.6780511 3:-0.9988409 
-10 1:7.5 2:0.85684871 3:-0.9988409 
-10 1:7.5 2:1.0235323 3:-0.97343914 
-10 1:7.5 2:1.1360706 3:-0.83450136 
-10 1:7.5 2:1.2486089 3:-0.69556358 
-10 1:7.5 2:1.3611473 3:-0.55662579 
-10 1:7.5 2:1.4736856 3:-0.41768801 
-10 1:7.5 2:1.4772343 3:-0.24283467 
10 1:7.5 2:1.4614507 3:0.11441205 
10 1:7.5 2:1.4535589 3:0.29303541 
10 1:7.5 2:1.4456671 3:0.47165877 
10 1:7.5 2:1.3251353 3:0.77659605 
10 1:7.5 2:1.1870838 3:0.89021992 
10 1:7.5 2:1.0490324 3:1.0038438 
10 1:7.5 2:0.89920814 3:1.0928316 
10 1:7.5 2:0.72407946 3:1.1288667 
10 1:7.5 2:0.54895077 3:1.1649019 
10 1:7.5 2:0.37382209 3:1.200937 
10 1:7.5 2:0.1986934 3:1.2369721 
10 1:7.5 2:0.023564718 3:1.2730072 
10 1:7.5 2:-0.15457112 3:1.2795069 
10 1:7.5 2:-0.33336873 3:1.2795069 
-10 1:7.5 2:-0.68226232 3:1.35661 
-10 1:7.5 2:-0.79902739 3:1.3010012 
-10 1:7.5 2:-0.8451985 3:1.1282679 
10 1:7.5 2:-0.93754072 3:0.78280113 
10 1:7.5 2:-0.98371183 3:0.61006777 
10 1:7.5 2:-1.0298829 3:0.4373344 
10 1:7.5 2:-1.076054 3:0.26460104 
10 1:7.5 2:-1.1222252 3:0.091867678 
10 1:7.5 2:-1.1683963 3:-0.080865685 
-10 1:7.5 2:-1.2607385 3:-0.42633241 
-10 1:7.5 2:-1.3069096 3:-0.59906577 
10 1:8 2:-0.20990524 3:-1.0784383 
-10 1:8 2:0.1341077 3:-1.1873907 
-10 1:8 2:0.30611418 3:-1.2418668 
-10 1:8 2:0.47812065 3:-1.296343 
-10 1:8 2:0.61652392 3:-1.2462722 
-10 1:8 2:0.7245784 3:-1.1017796 
-10 1:8 2:0.83263289 3:-0.95728698 
10 1:8 2:1.0487419 3:-0.66830181 
10 1:8 2:1.1567963 3:-0.52380923 
10 1:8 2:1.2648508 3:-0.37931664 
10 1:8 2:1.3729053 3:-0.23482405 
-10 1:8 2:1.5224845 3:0.07267136 
10 1:8 2:1.405203 3:0.59549773 
10 1:8 2:1.3370576 3:0.76256086 
10 1:8 2:1.2689122 3:0.92962398 
-10 1:8 2:1.1326215 3:1.2637502 
-10 1:8 2:0.97136199 3:1.3335723 
-10 1:8 2:0.63164293 3:1.4552542 
-10 1:8 2:0.46178341 3:1.5160952 
-10 1:8 2:0.29192388 3:1.5769361 
-10 1:8 2:0.12206435 3:1.637777 
-10 1:8 2:-0.045754171 3:1.6648861 
-10 1:8 2:-0.2070388 3:1.5840087 
-10 1:8 2:-0.36832342 3:1.5031314 
-10 1:8 2:-0.52960805 3:1.422254 
-10 1:8 2:-0.69089267 3:1.3413766 
-10 1:8 2:-0.8521773 3:1.2604993 
-10 1:8 2:-0.99152033 3:1.1606312 
-10 1:8 2:-1.048427 3:0.98941346 
-10 1:8 2:-1.1053337 3:0.81819575 
-10 1:8 2:-1.1622404 3:0.64697803 
-10 1:8 2:-1.2191471 3:0.47576032 
-10 1:8 2:-1.2760538 3:0.3045426 
-10 1:8 2:-1.2933792 3:0.1291427 
-10 1:8 2:-1.2735116 3:-0.050187047 
-10 1:8 2:-1.253644 3:-0.22951679 
-10 1:8 2:-1.2337764 3:-0.40884653 
-10 1:8 2:-1.1533129 3:-0.54757929 
10 1:8 2:-0.99502284 3:-0.634171 
10 1:8 2:-0.83673275 3:-0.72076272 
10 1:8 2:-0.67953127 3:-0.8092984 
10 1:8 2:-0.52298926 3:-0.89901171 
10 1:8 2:-0.36644725 3:-0.98872502 
-10 1:8.5 2:-0.771886 3:-1.0965204 
10 1:8.5 2:-0.43387529 3:-1.0192793 
10 1:8.5 2:-0.26486993 3:-0.98065877 
10 1:8.5 2:-0.095864578 3:-0.94203822 
10 1:8.5 2:0.073140778 3:-0.90341767 
10 1:8.5 2:0.24214613 3:-0.86479713 
10 1:8.5 2:0.41115149 3:-0.82617658 
10 1:8.5 2:0.58015685 3:-0.78755603 
10 1:8.5 2:0.7491622 3:-0.74893548 
10 1:8.5 2:0.91967568 3:-0.71812373 
-10 1:8.5 2:1.2621403 3:-0.66394449 
-10 1:8.5 2:1.3800982 3:-0.58546148 
-10 1:8.5 2:1.4010175 3:-0.41336634 
10 1:8.5 2:1.4428562 3:-0.069176054 
10 1:8.5 2:1.4637756 3:0.10291909 
10 1:8.5 2:1.4846949 3:0.27501423 
-10 1:8.5 2:1.5265336 3:0.61920452 
-10 1:8.5 2:1.547453 3:0.79129966 
-10 1:8.5 2:1.4216126 3:0.90904862 
-9.965529820943019 1:8.5 2:1.2936525 3:1.0260127 
10 1:8.5 2:1.0073709 3:1.2111836 
10 1:8.5 2:0.84595292 3:1.2744179 
10 1:8.5 2:0.68453492 3:1.3376523 
10 1:8.5 2:0.52311691 3:1.4008867 
10 1:8.5 2:0.36169891 3:1.464121 
10 1:8.5 2:0.050288928 3:1.4126876 
10 1:8.5 2:-0.10171356 3:1.3293233 
10 1:8.5 2:-0.25371605 3:1.2459591 
10 1:8.5 2:-0.40571854 3:1.1625948 
10 1:8.5 2:-0.54965699 3:1.0661162 
10 1:8.5 2:-0.69264452 3:0.96809103 
10 1:8.5 2:-0.83563204 3:0.87006591 
10 1:8.5 2:-0.97861957 3:0.77204079 
10 1:8.5 2:-1.0851157 3:0.4779158 
10 1:8.5 2:-1.0903816 3:0.30463386 
10 1:8.5 2:-1.0956475 3:0.13135193 
10 1:8.5 2:-1.1009134 3:-0.041929998 
10 1:8.5 2:-1.1061793 3:-0.21521193 
10 1:8.5 2:-1.1114452 3:-0.38849386 
-10 1:8.5 2:-1.121977 3:-0.73505772 
-10 1:8.5 2:-1.0284812 3:-0.88075113 
-10 1:8.5 2:-0.92606237 3:-1.0172487 
-10 1:9 2:-0.93639177 3:-1.1777581 
-10 1:9 2:-0.75789176 3:-1.200237 
-10 1:9 2:-0.57939175 3:-1.2227159 
-10 1:9 2:-0.40089173 3:-1.2451949 
-10 1:9 2:-0.22239172 3:-1.2676738 
-10 1:9 2:-0.043891704 3:-1.2901528 
-10 1:9 2:0.12206187 3:-1.2338671 
-10 1:9 2:0.28474358 3:-1.1570412 
-10 1:9 2:0.44742529 3:-1.0802153 
10 1:9 2:0.92599263 3:-0.83184951 
-10 1:9 2:1.3683739 3:-0.53432722 
10 1:9 2:1.4057494 3:-0.18537535 
10 1:9 2:1.4057494 3:-0.0054654915 
10 1:9 2:1.4057494 3:0.17444437 
10 1:9 2:1.4057494 3:0.35435423 
10 1:9 2:1.3968893 3:0.53133873 
10 1:9 2:1.2897649 3:0.67587912 
10 1:9 2:1.1826406 3:0.82041951 
10 1:9 2:1.1036434 3:0.98036173 
10 1:9 2:1.0395663 3:1.1484739 
-10 1:9 2:0.89442603 3:1.4689727 
-10 1:9 2:0.73174432 3:1.5457986 
-10 1:9 2:0.56906261 3:1.6226245 
-10 1:9 2:0.39473292 3:1.5974442 
10 1:9 2:-0.13270722 3:1.4829238 
10 1:9 2:-0.3085206 3:1.4447503 
4.294303118183017 1:9 2:-0.77552488 3:1.2019591 
10 1:9 2:-0.9490647 3:0.90842714 
10 1:9 2:-0.99337252 3:0.73405864 
10 1:9 2:-1.0376803 3:0.55969013 
10 1:9 2:-1.0819882 3:0.38532163 
10 1:9 2:-1.122276 3:0.21045037 
10 1:9 2:-1.122276 3:0.030540507 
10 1:9 2:-1.1183532 3:-0.14905979 
10 1:9 2:-1.0901344 3:-0.32674282 
10 1:9 2:-1.0619157 3:-0.50442585 
10 1:9 2:-0.99929058 3:-0.66909056 
-10 1:9 2:-0.91744936 3:-0.99884818 
10 1:9.5 2:-0.13472663 3:-0.95767728 
10 1:9.5 2:0.045652659 3:-0.9245544 
10 1:9.5 2:0.22603195 3:-0.89143153 
10 1:9.5 2:0.40641125 3:-0.85830865 
10 1:9.5 2:0.58679054 3:-0.82518577 
10 1:9.5 2:0.76716983 3:-0.7920629 
10 1:9.5 2:0.94754913 3:-0.75894002 
-10 1:9.5 2:1.1264227 3:-0.78668312 
-10 1:9.5 2:1.2912765 3:-0.74641691 
-10 1:9.5 2:1.4449504 3:-0.64791015 
-10 1:9.5 2:1.4631299 3:-0.46541817 
-5.574532658633482 1:9.5 2:1.4813093 3:-0.28292619 
10 1:9.5 2:1.4778652 3:0.44414656 
0.8766868942837043 1:9.5 2:1.4458839 3:0.62473176 
-10 1:9.5 2:1.3439686 3:0.97531657 
-10 1:9.5 2:1.2778684 3:1.1463855 
-10 1:9.5 2:1.2117681 3:1.3174544 
-10 1:9.5 2:1.0641446 3:1.4125987 
-10 1:9.5 2:0.89820268 3:1.4906826 
-10 1:9.5 2:0.7289687 3:1.5555101 
-10 1:9.5 2:0.54577615 3:1.5641303 
-10 1:9.5 2:-0.0038014797 3:1.5899906 
-10 1:9.5 2:-0.18699402 3:1.5986107 
-10 1:9.5 2:-0.36928567 3:1.5959328 
-10 1:9.5 2:-0.5487973 3:1.558391 
-10 1:9.5 2:-0.68371807 3:1.4390571 
-10 1:9.5 2:-0.8125263 3:1.3085111 
-10 1:9.5 2:-0.93737456 3:1.1748075 
-10 1:9.5 2:-1.134557 3:0.86552719 
-10 1:9.5 2:-1.2331483 3:0.71088702 
-10 1:9.5 2:-1.3317395 3:0.55624685 
-10 1:9.5 2:-1.4071311 3:0.39800631 
-10 1:9.5 2:-1.3600458 3:0.2207585 
-10 1:9.5 2:-1.3129604 3:0.043510696 
10 1:9.5 2:-0.49556871 3:-1.0089332 
10 1:9.5 2:-0.31324748 3:-0.99967872 
10 1:10 2:-0.3086956 3:-1.0282096 
10 1:10 2:-0.12636717 3:-1.0141221 
10 1:10 2:0.055961253 3:-1.0000346 
10 1:10 2:0.23828968 3:-0.98594703 
10 1:10 2:0.42061811 3:-0.97185951 
10 1:10 2:0.60216689 3:-0.94996463 
-10 1:10 2:0.96519435 3:-0.90547286 
-10 1:10 2:1.1467081 3:-0.88322698 
-10 1:10 2:1.3282218 3:-0.8609811 
-10 1:10 2:1.4443582 3:-0.77134648 
-10 1:10 2:1.4903279 3:-0.59434678 
-10 1:10 2:1.5362977 3:-0.41734707 
-10 1:10 2:1.5822675 3:-0.24034737 
-10 1:10 2:1.6016935 3:-0.063031833 
-10 1:10 2:1.5599483 3:0.11501157 
10 1:10 2:1.4764579 3:0.47109837 
-10 1:10 2:1.3551341 3:1.0061274 
-10 1:10 2:1.2902439 3:1.1706625 
-10 1:10 2:1.1589353 3:1.2979424 
-10 1:10 2:1.0276267 3:1.4252223 
-10 1:10 2:0.86657228 3:1.4881179 
-10 1:10 2:0.68453834 3:1.5056038 
10 1:10 2:0.32047046 3:1.5405757 
10 1:10 2:0.13843652 3:1.5580616 
-10 1:10 2:-0.22544257 3:1.5943232 
-10 1:10 2:-0.40485048 3:1.629748 
-10 1:10 2:-0.55991969 3:1.5876522 
-10 1:10 2:-0.68688318 3:1.4560377 
-10 1:10 2:-0.81384668 3:1.3244232 
10 1:10 2:-1.0041527 3:1.0159565 
10 1:10 2:-1.0867758 3:0.85281381 
10 1:10 2:-1.169399 3:0.68967116 
10 1:10 2:-1.1878831 3:0.50846609 
10 1:10 2:-1.2025366 3:0.32618228 
10 1:10 2:-1.1868353 3:0.1448025 
10 1:10 2:-1.1613598 3:-0.036286187 
10 1:10 2:-1.12795 3:-0.21549461 
10 1:10 2:-1.069451 3:-0.38875736 
10 1:10 2:-1.0109521 3:-0.56202012 
10 1:10 2:-0.95245308 3:-0.73528288 
10 1:10 2:-0.8194261 3:-0.85918495 
10 1:10 2:-0.66327035 3:-0.94775269 
10 1:10 2:-0.48594481 3:-0.98321148 
-10 1:10.5 2:-0.089465773 3:-1.1240327 
-10 1:10.5 2:0.092052346 3:-1.1065284 
-10 1:10.5 2:0.27357047 3:-1.0890241 
-10 1:10.5 2:0.45173338 3:-1.0567991 
-6.079607674019369 1:10.5 2:0.96525855 3:-0.86814876 
-10 1:10.5 2:1.1358129 3:-0.80361677 
10 1:10.5 2:1.26114 3:-0.4688644 
10 1:10.5 2:1.3173574 3:-0.29538578 
10 1:10.5 2:1.3735748 3:-0.12190715 
10 1:10.5 2:1.4297922 3:0.051571472 
10 1:10.5 2:1.4398442 3:0.22737444 
10 1:10.5 2:1.4013356 3:0.40562234 
10 1:10.5 2:1.3628269 3:0.58387024 
10 1:10.5 2:1.3243183 3:0.76211815 
-10 1:10.5 2:1.2284873 3:1.1131279 
-10 1:10.5 2:1.1651535 3:1.2841368 
-10 1:10.5 2:1.0033783 3:1.3336615 
10 1:10.5 2:0.82295563 3:1.3601737 
10 1:10.5 2:0.64253299 3:1.386686 
10 1:10.5 2:0.46151421 3:1.4050409 
10 1:10.5 2:0.27915405 3:1.4050409 
10 1:10.5 2:0.096793886 3:1.4050409 
10 1:10.5 2:-0.085566276 3:1.4050409 
10 1:10.5 2:-0.26671716 3:1.3861533 
10 1:10.5 2:-0.44758836 3:1.3628974 
10 1:10.5 2:-0.62228957 3:1.3125083 
10 1:10.5 2:-0.79543167 3:1.2552628 
-7.415568827419805 1:10.5 2:-0.96857376 3:1.1980174 
-10 1:10.5 2:-1.1417159 3:1.1407719 
-10 1:10.5 2:-1.314858 3:1.0835264 
-10 1:10.5 2:-1.3209008 3:0.91552722 
-10 1:10.5 2:-1.3061752 3:0.73376258 
-10 1:10.5 2:-1.3090782 3:0.55160257 
-10 1:10.5 2:-1.3156401 3:0.36936051 
-10 1:10.5 2:-1.3287639 3:0.0048763795 
-10 1:10.5 2:-1.3262096 3:-0.1765578 
-10 1:10.5 2:-1.2877009 3:-0.3548057 
-10 1:10.5 2:-1.2491923 3:-0.5330536 
-10 1:10.5 2:-1.1761655 3:-0.69937729 
-10 1:10.5 2:-1.0964419 3:-0.86338757 
-10 1:10.5 2:-0.97351515 3:-0.98720161 
-10 1:10.5 2:-0.81534564 3:-1.0776034 
-10 1:10.5 2:-0.63511813 3:-1.1054111 
-10 1:10.5 2:-0.4541861 3:-1.1240327 
-10 1:10.5 2:-0.27182594 3:-1.1240327 
-10 1:11 2:-0.45671282 3:-1.1190678 
-7.548889671515827 1:11 2:-0.28213877 3:-1.0817332 
10 1:11 2:0.06700934 3:-1.0070641 
10 1:11 2:0.24158339 3:-0.9697295 
10 1:11 2:0.41606706 3:-0.93198129 
10 1:11 2:0.59030292 3:-0.89309895 
10 1:11 2:0.76453877 3:-0.85421661 
-10 1:11 2:1.1130105 3:-0.77645194 
-10 1:11 2:1.2593578 3:-0.68178638 
-10 1:11 2:1.3950153 3:-0.56573899 
-10 1:11 2:1.4409442 3:-0.4064849 
-10 1:11 2:1.3808592 3:0.83151481 
10 1:11 2:0.75586651 3:1.3788514 
10 1:11 2:0.57829692 3:1.3972636 
10 1:11 2:0.40072733 3:1.4156759 
10 1:11 2:0.22315774 3:1.4340881 
10 1:11 2:0.045588144 3:1.4525003 
10 1:11 2:-0.13198145 3:1.4709125 
10 1:11 2:-0.30754596 3:1.4419157 
10 1:11 2:-0.48195915 3:1.4049206 
10 1:11 2:-0.65086615 3:1.3471244 
-10 1:11 2:-0.97728626 3:1.2209356 
10 1:11 2:-1.0226968 3:1.0482861 
10 1:11 2:-1.0681073 3:0.87563658 
10 1:11 2:-1.1135178 3:0.70298707 
10 1:11 2:-1.1589283 3:0.53033756 
10 1:11 2:-1.2043389 3:0.35768804 
10 1:11 2:-1.2497494 3:0.18503853 
9.697459964015383 1:11 2:-1.282927 3:0.010807154 
-10 1:11 2:-1.282927 3:-0.34623609 
-10 1:11 2:-1.2261729 3:-0.50938798 
-10 1:11 2:-1.1360878 3:-0.66351341 
-10 1:11 2:-1.0460027 3:-0.81763883 
-10 1:11 2:-0.92981174 3:-0.94995152 
-10 1:11 2:-0.79415418 3:-1.0659989 
-10 1:11 2:-0.63523444 3:-1.1190678 
10 1:11.5 2:-0.30956201 3:-0.79205386 
10 1:11.5 2:-0.12261092 3:-0.8267062 
10 1:11.5 2:0.064340163 3:-0.86135854 
10 1:11.5 2:0.25129125 3:-0.89601088 
10 1:11.5 2:0.43824233 3:-0.93066322 
10 1:11.5 2:0.77876417 3:-0.82167885 
10 1:11.5 2:0.94051633 3:-0.72174022 
10 1:11.5 2:1.0948109 3:-0.6155084 
10 1:11.5 2:1.1661282 3:-0.43925478 
10 1:11.5 2:1.1938136 3:-0.2520464 
10 1:11.5 2:1.214211 3:-0.063008208 
10 1:11.5 2:1.2346084 3:0.12602999 
10 1:11.5 2:1.2550058 3:0.31506818 
10 1:11.5 2:1.2637414 3:0.50473372 
10 1:11.5 2:1.2637414 3:0.69486917 
10 1:11.5 2:1.2637414 3:0.88500463 
-10 1:11.5 2:1.2637414 3:1.0751401 
-10 1:11.5 2:1.2637414 3:1.2652756 
-10 1:11.5 2:1.2637414 3:1.455411 
-10 1:11.5 2:1.0949515 3:1.4909985 
-10 1:11.5 2:0.90555236 3:1.5077157 
-10 1:11.5 2:0.71615324 3:1.5244329 
-10 1:11.5 2:-0.4215817 3:1.5637344 
-10 1:11.5 2:-0.61153227 3:1.5553515 
-10 1:11.5 2:-0.80148284 3:1.5469686 
-10 1:11.5 2:-0.99143341 3:1.5385856 
-10 1:11.5 2:-1.181384 3:1.5302027 
-10 1:11.5 2:-1.1995678 3:1.3428843 
-10 1:11.5 2:-1.215706 3:1.1534349 
-10 1:11.5 2:-1.2318442 3:0.9639856 
10 1:11.5 2:-1.2676407 3:0.39529768 
10 1:11.5 2:-1.2617256 3:0.20525426 
10 1:11.5 2:-1.2558104 3:0.015210831 
10 1:11.5 2:-1.2498953 3:-0.17483259 
-10 1:11.5 2:-1.2380649 3:-0.55491945 
-10 1:11.5 2:-1.2321498 3:-0.74496287 
-10 1:11.5 2:-1.2003377 3:-0.92229117 
-10 1:11.5 2:-1.0429555 3:-0.99344383 
-10 1:11.5 2:-0.8596071 3:-0.94309634 
10 1:11.5 2:-0.67625874 3:-0.89274885 
10 1:11.5 2:-0.49291037 3:-0.84240135 
-10 1:12 2:-0.7021677 3:-1.0240126 
-10 1:12 2:-0.52359186 3:-1.0157321 
-10 1:12 2:0.54786321 3:-0.96604904 
-10 1:12 2:0.72329048 3:-0.93522535 
-10 1:12 2:0.89730135 3:-0.89426053 
-10 1:12 2:1.0713122 3:-0.85329572 
-10 1:12 2:1.1893525 3:-0.73251841 
-10 1:12 2:1.2871478 3:-0.58287219 
10 1:12 2:1.3153282 3:-0.23372833 
10 1:12 2:1.3153282 3:-0.054960608 
10 1:12 2:1.3153282 3:0.12380712 
10 1:12 2:1.3153282 3:0.30257484 
10 1:12 2:1.2926975 3:0.47905533 
10 1:12 2:1.2569276 3:0.65420786 
10 1:12 2:1.2211576 3:0.82936039 
10 1:12 2:1.1853877 3:1.0045129 
-10 1:12 2:1.0994655 3:1.3403716 
10 1:12 2:0.74884559 3:1.4103522 
10 1:12 2:0.57353565 3:1.4453426 
10 1:12 2:0.39822571 3:1.4803329 
10 1:12 2:0.22291576 3:1.5153232 
10 1:12 2:0.045567681 3:1.4992812 
10 1:12 2:-0.13197434 3:1.4783832 
10 1:12 2:-0.30951637 3:1.4574851 
10 1:12 2:-0.48705839 3:1.436587 
10 1:12 2:-0.66460042 3:1.415689 
5.94998361495094 1:12 2:-0.93943834 3:1.2359885 
10 1:12 2:-1.0453297 3:1.0919576 
10 1:12 2:-1.1768726 3:0.77757365 
10 1:12 2:-1.1768726 3:0.59880592 
10 1:12 2:-1.1768726 3:0.4200382 
10 1:12 2:-1.1768726 3:0.24127048 
10 1:12 2:-1.1768726 3:0.062502751 
10 1:12 2:-1.1768726 3:-0.11626497 
10 1:12 2:-1.1650205 3:-0.29443839 
10 1:12 2:-1.1471374 3:-0.47230939 
-10 1:12 2:-1.1292542 3:-0.65018039 
-10 1:12 2:-1.1113711 3:-0.82805139 
-10 1:12 2:-1.0555894 3:-0.96993201 
-10 1:12 2:-0.87887855 3:-0.99697229 
-10 1:12.5 2:0.13537879 3:-1.0284609 
-10 1:12.5 2:0.32211042 3:-1.0465743 
-10 1:12.5 2:0.50884206 3:-1.0646878 
-10 1:12.5 2:0.69138165 3:-1.023528 
-10 1:12.5 2:0.87370519 3:-0.97931342 
-10 1:12.5 2:1.0560287 3:-0.93509887 
-10 1:12.5 2:1.225527 3:-0.8704066 
-10 1:12.5 2:1.3448936 3:-0.72567097 
-10 1:12.5 2:1.4324096 3:-0.56836067 
-10 1:12.5 2:1.4441083 3:-0.38111768 
-10 1:12.5 2:1.4558071 3:-0.19387468 
-10 1:12.5 2:1.4660265 3:-0.0066531286 
-10 1:12.5 2:1.4489066 3:0.18017222 
-10 1:12.5 2:1.3975469 3:0.74064825 
-10 1:12.5 2:1.0583841 3:1.4036795 
-1.30923785223678 1:12.5 2:0.73139089 3:1.5816266 
-10 1:12.5 2:0.56421307 3:1.666764 
-10 1:12.5 2:0.39703525 3:1.7519014 
-10 1:12.5 2:0.2234119 3:1.7950582 
-10 1:12.5 2:0.03839321 3:1.7639957 
-10 1:12.5 2:-0.14662548 3:1.7329331 
-10 1:12.5 2:-0.33164418 3:1.7018705 
-10 1:12.5 2:-0.51666287 3:1.670808 
-10 1:12.5 2:-0.70008511 3:1.6368069 
-10 1:12.5 2:-0.8268333 3:1.4984896 
10 1:12.5 2:-1.2039215 3:0.87958601 
10 1:12.5 2:-1.2386082 3:0.69522434 
10 1:12.5 2:-1.2703769 3:0.5103256 
10 1:12.5 2:-1.3021457 3:0.32542685 
10 1:12.5 2:-1.3339144 3:0.14052811 
-10 1:12.5 2:-1.3798287 3:-0.23077236 
-10 1:12.5 2:-1.3798287 3:-0.41838046 
10 1:12.5 2:-1.0670212 3:-0.57943984 
10 1:12.5 2:-0.89211763 3:-0.64730408 
10 1:12.5 2:-0.71646627 3:-0.71317855 
10 1:12.5 2:-0.54016036 3:-0.77731141 
10 1:12.5 2:-0.36385444 3:-0.84144427 
10 1:12.5 2:-0.19268082 3:-0.88696517 
10 1:13 2:0.31974198 3:-0.91599977 
10 1:13 2:0.49090134 3:-0.84692424 
10 1:13 2:0.66206071 3:-0.77784872 
10 1:13 2:0.83322008 3:-0.70877319 
10 1:13 2:1.0043794 3:-0.63969767 
-8.705979360148694 1:13 2:1.298748 3:-0.42665128 
-10 1:13 2:1.4331203 3:-0.30011649 
-10 1:13 2:1.4828918 3:-0.13145979 
-10 1:13 2:1.5028767 3:0.052027442 
-10 1:13 2:1.5228615 3:0.23551467 
-10 1:13 2:1.5428464 3:0.4190019 
-10 1:13 2:1.5176231 3:0.60128053 
-10 1:13 2:1.4878631 3:0.78343788 
-10 1:13 2:1.4581031 3:0.96559523 
-10 1:13 2:1.4233905 3:1.1452559 
-10 1:13 2:1.2946461 3:1.2775125 
-10 1:13 2:1.1659016 3:1.4097691 
-10 1:13 2:1.0371571 3:1.5420258 
-10 1:13 2:0.86802158 3:1.6010139 
-10 1:13 2:0.68745763 3:1.6392712 
-10 1:13 2:0.50689368 3:1.6775285 
-10 1:13 2:0.32632974 3:1.7157857 
-10 1:13 2:0.14525143 3:1.7153592 
2.081741658587777 1:13 2:-0.73507403 3:1.4898985 
10 1:13 2:-0.87703701 3:1.3719431 
10 1:13 2:-1.019 3:1.2539877 
10 1:13 2:-1.160963 3:1.1360323 
10 1:13 2:-1.2975928 3:0.82671548 
10 1:13 2:-1.3062944 3:0.64234835 
10 1:13 2:-1.3149961 3:0.45798122 
10 1:13 2:-1.3236977 3:0.27361409 
10 1:13 2:-1.3121392 3:0.089868395 
10 1:13 2:-1.2921543 3:-0.093618834 
10 1:13 2:-1.2721695 3:-0.27710606 
10 1:13 2:-1.2521846 3:-0.46059329 
10 1:13 2:-0.77912009 3:-0.91599977 
10 1:13 2:-0.59454773 3:-0.91599977 
10 1:13 2:-0.41219652 3:-0.93823648 
10 1:13 2:-0.23080383 3:-0.9700692 
10 1:13 2:-0.04687169 3:-0.95915356 
10 1:13 2:0.13643514 3:-0.93757667 
10 1:13.5 2:0.81645471 3:0.77398423 
10 1:13.5 2:0.73566619 3:0.94436045 
10 1:13.5 2:0.6226265 3:1.0767578 
10 1:13.5 2:0.44141118 3:1.1288716 
10 1:13.5 2:0.26019586 3:1.1809854 
10 1:13.5 2:0.07708502 3:1.2254833 
10 1:13.5 2:-0.10741665 3:1.2643932 
10 1:13.5 2:-0.29191831 3:1.303303 
10 1:13.5 2:-0.47641998 3:1.3422129 
10 1:13.5 2:-0.66392647 3:1.3609333 
10 1:13.5 2:-0.8517626 3:1.3774387 
-10 1:13.5 2:-1.2274349 3:1.4104496 
-10 1:13.5 2:-1.3788044 3:1.3366449 
-10 1:13.5 2:-1.502514 3:1.1943396 
-10 1:13.5 2:-1.6262235 3:1.0520343 
-10 1:13.5 2:-1.749933 3:0.90972903 
-10 1:13.5 2:-1.8057744 3:0.74204805 
-10 1:13.5 2:-1.8057744 3:0.55348813 
-10 1:13.5 2:-1.8057744 3:0.36492822 
-10 1:13.5 2:-1.8057744 3:0.1763683 
-10 1:13.5 2:-1.8057744 3:-0.012191614 
-10 1:13.5 2:-1.8057744 3:-0.20075153 
-10 1:13.5 2:-1.8057744 3:-0.38931145 
-10 1:13.5 2:-1.8057744 3:-0.57787136 
-10 1:13.5 2:-1.7299247 3:-0.73618441 
-10 1:13.5 2:-1.6001725 3:-0.87300261 
-10 1:13.5 2:-1.4704204 3:-1.0098208 
-10 1:13.5 2:-1.3174006 3:-1.1080022 
-10 1:13.5 2:-1.1357828 3:-1.1586956 
-10 1:13.5 2:-0.95416499 3:-1.209389 
-10 1:13.5 2:-0.7725472 3:-1.2600824 
-10 1:13.5 2:-0.59077483 3:-1.3102061 
-10 1:13.5 2:-0.40844385 3:-1.3582712 
-10 1:13.5 2:-0.22611286 3:-1.4063363 
-10 1:13.5 2:-0.043397817 3:-1.4327832 
-10 1:13.5 2:0.14052537 3:-1.3912248 
-10 1:13.5 2:0.32444856 3:-1.3496664 
-10 1:13.5 2:0.50837175 3:-1.3081079 
-10 1:13.5 2:0.65707585 3:-1.1986636 
-10 1:13.5 2:0.79696522 3:-1.0722286 
10 1:13.5 2:0.90687641 3:-0.72739319 
10 1:13.5 2:0.90687641 3:-0.53883328 
10 1:13.5 2:0.90687641 3:-0.35027336 
10 1:13.5 2:0.90687641 3:-0.16171344 
10 1:13.5 2:0.90687641 3:0.026846473 
10 1:13.5 2:0.90476917 3:0.21524088 
10 1:13.5 2:0.87533102 3:0.40148867 
10 1:13.5 2:0.84589286 3:0.58773645 
10 1:14 2:0.26066604 3:-0.71880209 
10 1:14 2:0.45126534 3:-0.73434995 
10 1:14 2:0.64186465 3:-0.7498978 
10 1:14 2:0.83246395 3:-0.76544565 
-10 1:14 2:1.1967925 3:-0.70157034 
-10 1:14 2:1.3703767 3:-0.62133106 
-10 1:14 2:1.4352415 3:-0.46783746 
-10 1:14 2:1.4444243 3:-0.27682566 
-10 1:14 2:1.453607 3:-0.085813862 
-10 1:14 2:1.4627897 3:0.10519794 
-10 1:14 2:1.4719724 3:0.29620974 
-10 1:14 2:1.4398287 3:0.48332834 
-10 1:14 2:1.3951352 3:0.66926466 
-10 1:14 2:1.3504416 3:0.85520098 
-10 1:14 2:1.305748 3:1.0411373 
-10 1:14 2:1.1836088 3:1.1781664 
-1.754747932365308 1:14 2:0.88625474 3:1.4187072 
-10 1:14 2:0.73275792 3:1.5276658 
-10 1:14 2:0.54302729 3:1.5515847 
-10 1:14 2:0.16356603 3:1.5994227 
-10 1:14 2:-0.026164595 3:1.6233417 
-10 1:14 2:-0.21589523 3:1.6472607 
-10 1:14 2:-0.4064747 3:1.6361946 
-10 1:14 2:-0.59714209 3:1.6215053 
-10 1:14 2:-0.78780948 3:1.6068159 
-10 1:14 2:-0.97847687 3:1.5921266 
-10 1:14 2:-1.1041979 3:1.4762501 
-10 1:14 2:-1.1969592 3:1.3090223 
3.712193908877181 1:14 2:-1.4580583 3:0.43090213 
10 1:14 2:-1.439344 3:0.24058763 
10 1:14 2:-1.4206298 3:0.05027314 
10 1:14 2:-1.4019155 3:-0.14004135 
10 1:14 2:-1.3832013 3:-0.33035585 
10 1:14 2:-1.364487 3:-0.52067034 
10 1:14 2:-1.2985993 3:-0.69584083 
10 1:14 2:-1.2030405 3:-0.86148605 
10 1:14 2:-1.0394465 3:-0.92970296 
10 1:14 2:-0.85102397 3:-0.96236481 
10 1:14 2:-0.66433442 3:-0.93259275 
10 1:14 2:-0.47801379 3:-0.88952941 
10 1:14 2:-0.29169316 3:-0.84646607 
10 1:14 2:-0.10080478 3:-0.84344986 
10 1:14 2:0.079983907 3:-0.78144231 
-10 1:14.5 2:1.2006905 3:-0.7344863 
-10 1:14.5 2:1.312493 3:-0.61468137 
-9.587305753007572 1:14.5 2:1.3036235 3:-0.42888304 
10 1:14.5 2:1.2858843 3:-0.057286374 
10 1:14.5 2:1.2770148 3:0.12851196 
10 1:14.5 2:1.2562013 3:0.31291994 
10 1:14.5 2:1.2221556 3:0.4957876 
10 1:14.5 2:1.18811 3:0.67865526 
-10 1:14.5 2:0.72118003 3:1.4598111 
-10 1:14.5 2:0.53952274 3:1.4900292 
-10 1:14.5 2:0.35531238 3:1.5158406 
-10 1:14.5 2:0.17110201 3:1.5416521 
-10 1:14.5 2:-0.013108349 3:1.5674635 
-10 1:14.5 2:-0.19731871 3:1.5932749 
-10 1:14.5 2:-0.37865187 3:1.5724217 
-10 1:14.5 2:-0.55829609 3:1.5241761 
-10 1:14.5 2:-0.73794031 3:1.4759304 
-10 1:14.5 2:-0.91758454 3:1.4276848 
-10 1:14.5 2:-1.0749599 3:1.3454388 
-10 1:14.5 2:-1.1909731 3:1.2000406 
-10 1:14.5 2:-1.3069862 3:1.0546424 
-10 1:14.5 2:-1.4192487 3:0.90779232 
-10 1:14.5 2:-1.431374 3:0.72217802 
-10 1:14.5 2:-1.4920004 3:-0.20589345 
-10 1:14.5 2:-1.5041256 3:-0.39150775 
10 1:14.5 2:-1.0535618 3:-0.90363523 
10 1:14.5 2:-0.8695161 3:-0.9305958 
10 1:14.5 2:-0.68632461 3:-0.9255164 
10 1:14.5 2:-0.50397691 3:-0.88878763 
10 1:14.5 2:-0.3216292 3:-0.85205885 
10 1:14.5 2:-0.13928149 3:-0.81533007 
10 1:14.5 2:0.045830802 3:-0.80632771 
10 1:14.5 2:0.23184072 3:-0.80632771 
10 1:14.5 2:0.41785063 3:-0.80632771 
10 1:14.5 2:0.57218681 3:-0.89612524 
10 1:15 2:0.049447937 3:1.2288799 
10 1:15 2:-0.12712349 3:1.2150927 
10 1:15 2:-0.30369491 3:1.2013055 
10 1:15 2:-0.48026633 3:1.1875183 
10 1:15 2:-0.64054572 3:1.1264654 
10 1:15 2:-0.78811074 3:1.028526 
10 1:15 2:-0.93567576 3:0.93058666 
10 1:15 2:-1.0832408 3:0.83264729 
10 1:15 2:-1.1749641 3:0.6890772 
10 1:15 2:-1.2415392 3:0.52495739 
-10 1:15 2:-1.3267 3:-0.5088983 
-10 1:15 2:-1.3133952 3:-0.68550673 
-10 1:15 2:-1.2642753 3:-0.85254482 
-10 1:15 2:-1.1877122 3:-1.0122497 
-10 1:15 2:-1.111149 3:-1.1719545 
-10 1:15 2:-1.0065875 3:-1.2989784 
-10 1:15 2:-0.83702676 3:-1.350132 
-10 1:15 2:-0.66746598 3:-1.4012857 
-10 1:15 2:-0.4979052 3:-1.4524393 
-10 1:15 2:-0.32834442 3:-1.503593 
-10 1:15 2:-0.15613596 3:-1.4969482 
-10 1:15 2:0.017391457 3:-1.4615111 
-10 1:15 2:0.19091887 3:-1.4260739 
-10 1:15 2:0.36444628 3:-1.3906368 
-10 1:15 2:0.5379737 3:-1.3551996 
-10 1:15 2:0.69797961 3:-1.2931823 
-10 1:15 2:0.82880137 3:-1.1737954 
-10 1:15 2:0.95962312 3:-1.0544086 
-10 1:15 2:1.0904449 3:-0.93502171 
-10 1:15 2:1.2212666 3:-0.81563485 
-10 1:15 2:1.256741 3:-0.6439614 
10 1:15 2:1.2427059 3:0.5609638 
10 1:15 2:1.1441605 3:0.7081248 
10 1:15 2:1.043043 3:0.85205006 
10 1:15 2:0.87744386 3:0.91485503 
10 1:15 2:0.71184467 3:0.97766 
10 1:15 2:0.54624549 3:1.040465 
10 1:15 2:0.3806463 3:1.1032699 
10 1:15 2:0.21504712 3:1.1660749 
-10 1:15.5 2:-0.96747098 3:-1.1684211 
-10 1:15.5 2:-0.79025451 3:-1.1598491 
-10 1:15.5 2:-0.61303805 3:-1.1512772 
10 1:15.5 2:-0.25860512 3:-1.1341334 
10 1:15.5 2:-0.082144593 3:-1.1214603 
10 1:15.5 2:0.086481605 3:-1.0662846 
10 1:15.5 2:0.2551078 3:-1.0111089 
10 1:15.5 2:0.423734 3:-0.95593323 
10 1:15.5 2:0.5942338 3:-0.90869707 
10 1:15.5 2:0.76973716 3:-0.88266397 
10 1:15.5 2:0.94524053 3:-0.85663086 
-10 1:15.5 2:1.2156005 3:0.88340416 
-10 1:15.5 2:1.1696268 3:1.0525094 
-10 1:15.5 2:1.0737687 3:1.2018091 
-10 1:15.5 2:0.96123374 3:1.3303832 
-10 1:15.5 2:0.79488011 3:1.3920729 
10 1:15.5 2:0.4414553 3:1.4 
10 1:15.5 2:0.26403164 3:1.4 
10 1:15.5 2:0.086607987 3:1.4 
10 1:15.5 2:-0.089718745 3:1.3821846 
10 1:15.5 2:-0.26580224 3:1.3604186 
10 1:15.5 2:-0.44188573 3:1.3386526 
10 1:15.5 2:-0.75517011 3:1.2066188 
10 1:15.5 2:-0.89030689 3:1.0916527 
10 1:15.5 2:-1.0254437 3:0.97668657 
-10 1:15.5 2:-1.2702492 3:0.73498355 
6.51738647459181 1:15.5 2:-1.1836757 3:-0.31446757 
10 1:15.5 2:-1.1236455 3:-0.48142724 
-10 1:15.5 2:-1.0683819 3:-0.83168024 
-10 1:15.5 2:-1.0402035 3:-1.0065905 
-10 1:16 2:-0.92262971 3:-1.1807856 
-10 1:16 2:-0.7433785 3:-1.1411957 
-10 1:16 2:-0.56412728 3:-1.1016058 
10 1:16 2:-0.38487606 3:-1.0620159 
10 1:16 2:-0.2038581 3:-1.0386174 
10 1:16 2:-0.020286978 3:-1.0386174 
10 1:16 2:0.16328415 3:-1.0386174 
10 1:16 2:0.34685527 3:-1.0386174 
10 1:16 2:0.53042639 3:-1.0386174 
10 1:16 2:0.71399752 3:-1.0386174 
-10 1:16 2:0.89756864 3:-1.0386174 
-10 1:16 2:1.0811398 3:-1.0386174 
-10 1:16 2:1.2647109 3:-1.0386174 
-10 1:16 2:1.3187893 3:-0.86871701 
-10 1:16 2:1.3371666 3:-0.68606808 
-10 1:16 2:1.3498606 3:-0.503277 
0.1042968980793106 1:16 2:1.3314138 3:-0.13659847 
10 1:16 2:1.3221904 3:0.046740794 
10 1:16 2:1.312967 3:0.23008006 
10 1:16 2:1.2958163 3:0.41270828 
-10 1:16 2:1.2251632 3:0.95887066 
-10 1:16 2:1.2016121 3:1.1409248 
-10 1:16 2:1.1754977 3:1.3224301 
-10 1:16 2:1.1224512 3:1.4981698 
-10 1:16 2:1.0081932 3:1.5914936 
-10 1:16 2:0.82462208 3:1.5914936 
-10 1:16 2:0.64105096 3:1.5914936 
-10 1:16 2:0.45747984 3:1.5914936 
10 1:16 2:-0.057743172 3:1.4775936 
10 1:16 2:-0.2088231 3:1.3733189 
10 1:16 2:-0.35990304 3:1.2690442 
10 1:16 2:-0.50876045 3:1.1616522 
10 1:16 2:-0.65659017 3:1.0528187 
10 1:16 2:-0.80176643 3:0.94130014 
10 1:16 2:-0.91234161 3:0.79476862 
10 1:16 2:-1.0113335 3:0.64356615 
10 1:16 2:-1.0333378 3:0.46131861 
10 1:16 2:-1.0513687 3:0.27883206 
10 1:16 2:-1.0513687 3:0.095260935 
10 1:16 2:-1.0513687 3:-0.088310189 
10 1:16 2:-1.0493492 3:-0.27174645 
10 1:16 2:-1.024941 3:-0.45368765 
10 1:16 2:-1.0005329 3:-0.63562884 
-10 1:16 2:-0.9761247 3:-0.81757004 
-10 1:16 2:-0.95002465 3:-0.9992701 
10 1:16.5 2:0.14880271 3:-1.0438634 
10 1:16.5 2:0.33027261 3:-1.0286314 
10 1:16.5 2:0.5117425 3:-1.0133994 
10 1:16.5 2:0.69321239 3:-0.99816735 
-10 1:16.5 2:1.379807 3:-0.49263221 
-10 1:16.5 2:1.379807 3:-0.31052417 
-10 1:16.5 2:1.379807 3:-0.12841614 
10 1:16.5 2:1.2712662 3:0.40393335 
10 1:16.5 2:1.225138 3:0.5801024 
10 1:16.5 2:1.1790099 3:0.75627145 
10 1:16.5 2:1.0151923 3:1.0760579 
10 1:16.5 2:0.91271038 3:1.226593 
-10 1:16.5 2:0.70774661 3:1.5276631 
10 1:16.5 2:0.36790484 3:1.5737432 
10 1:16.5 2:0.18579681 3:1.5737432 
10 1:16.5 2:0.0036887742 3:1.5737432 
10 1:16.5 2:-0.17841926 3:1.5737432 
10 1:16.5 2:-0.3605273 3:1.5737432 
-6.050429228452352 1:16.5 2:-0.54263533 3:1.5737432 
-10 1:16.5 2:-0.72334086 3:1.5616456 
-10 1:16.5 2:-0.90061866 3:1.5199813 
-10 1:16.5 2:-1.0778965 3:1.4783169 
-10 1:16.5 2:-1.2551742 3:1.4366525 
-10 1:16.5 2:-1.2759052 3:1.2577212 
-10 1:16.5 2:-1.2940463 3:1.076519 
-10 1:16.5 2:-1.3121874 3:0.89531679 
-10 1:16.5 2:-1.3303285 3:0.7141146 
-10 1:16.5 2:-1.3484696 3:0.5329124 
-10 1:16.5 2:-1.3666108 3:0.3517102 
-10 1:16.5 2:-1.3518223 3:0.17298522 
-10 1:16.5 2:-1.306776 3:-0.0034635431 
-10 1:16.5 2:-1.2617297 3:-0.1799123 
-10 1:16.5 2:-1.2166833 3:-0.35636106 
9.974355970976607 1:16.5 2:-1.0085755 3:-0.64819177 
10 1:16.5 2:-0.86597219 3:-0.75760428 
10 1:16.5 2:-0.70896057 3:-0.84985767 
10 1:16.5 2:-0.55194895 3:-0.94211106 
10 1:16.5 2:-0.39493733 3:-1.0343644 
10 1:16.5 2:-0.21541336 3:-1.0438634 
10 1:16.5 2:-0.033305323 3:-1.0438634 
-10 1:17 2:-0.75305306 3:-1.1707493 
-10 1:17 2:-0.57112151 3:-1.1707493 
-10 1:17 2:-0.38918995 3:-1.1707493 
-10 1:17 2:-0.2072584 3:-1.1707493 
-0.7599654928692886 1:17 2:-0.026947548 3:-1.1584194 
10 1:17 2:0.14880404 3:-1.1114037 
10 1:17 2:0.32455563 3:-1.0643881 
10 1:17 2:0.50030721 3:-1.0173725 
10 1:17 2:0.67206478 3:-0.9575363 
10 1:17 2:0.84342232 3:-0.89641606 
10 1:17 2:1.0147799 3:-0.83529583 
10 1:17 2:1.2416561 3:-0.39463351 
10 1:17 2:1.2416561 3:-0.21270195 
10 1:17 2:1.2416561 3:-0.030770399 
10 1:17 2:1.2286966 3:0.15065377 
10 1:17 2:1.2144727 3:0.33202844 
-10 1:17 2:1.072162 3:1.0432384 
-10 1:17 2:1.0069857 3:1.2126507 
-10 1:17 2:0.93493091 3:1.3797052 
-0.173229688172033 1:17 2:0.77961321 3:1.4602292 
8.357137327587187 1:17 2:0.60991021 3:1.5258035 
10 1:17 2:0.44020721 3:1.5913778 
10 1:17 2:0.27050422 3:1.656952 
-10 1:17 2:-0.068901773 3:1.7881005 
-10 1:17 2:-0.23860477 3:1.795793 
-10 1:17 2:-0.40830777 3:1.7302188 
-10 1:17 2:-0.57801076 3:1.6646445 
-10 1:17 2:-0.74771376 3:1.5990703 
-10 1:17 2:-0.91741675 3:1.533496 
-10 1:17 2:-1.0401224 3:1.4113999 
-10 1:17 2:-1.1355615 3:1.2565113 
-10 1:17 2:-1.2095016 3:1.0947539 
-10 1:17 2:-1.2215476 3:0.91322155 
10 1:17 2:-1.23893 3:0.36934269 
10 1:17 2:-1.213039 3:0.18926286 
10 1:17 2:-1.187148 3:0.0091830225 
10 1:17 2:-1.161257 3:-0.17089681 
10 1:17 2:-1.1021655 3:-0.34293873 
10 1:17 2:-1.0560222 3:-0.5183121 
-10 1:17 2:-0.93445209 3:-0.85532773 
-10 1:17 2:-0.84375258 3:-1.0130385 
-10 1:17.5 2:-0.77716756 3:-1.0170621 
6.455427808648294 1:17.5 2:-0.41841955 3:-1.0471364 
10 1:17.5 2:-0.23904554 3:-1.0621736 
10 1:17.5 2:-0.059671538 3:-1.0772107 
10 1:17.5 2:0.12007301 3:-1.0833922 
10 1:17.5 2:0.3000762 3:-1.0833922 
-10 1:17.5 2:0.99453458 3:-0.96928487 
-10 1:17.5 2:1.1573444 3:-0.89251176 
-10 1:17.5 2:1.2272918 3:-0.77616221 
10 1:17.5 2:1.2272918 3:-0.41615582 
10 1:17.5 2:1.2272918 3:-0.23615263 
10 1:17.5 2:1.2272918 3:-0.056149435 
-10 1:17.5 2:1.2204459 3:0.30346933 
-10 1:17.5 2:1.200127 3:0.48232204 
-10 1:17.5 2:1.1798081 3:0.66117475 
-10 1:17.5 2:1.1485385 3:0.83831988 
-10 1:17.5 2:1.1134387 3:1.0148678 
-10 1:17.5 2:1.0783388 3:1.1914156 
-10 1:17.5 2:0.95458398 3:1.3045923 
-10 1:17.5 2:0.79890063 3:1.3949463 
10 1:17.5 2:0.48753392 3:1.5756543 
10 1:17.5 2:0.32466795 3:1.6260881 
10 1:17.5 2:0.14725411 3:1.5956664 
10 1:17.5 2:-0.030159732 3:1.5652447 
10 1:17.5 2:-0.20757357 3:1.534823 
10 1:17.5 2:-0.38498741 3:1.5044013 
10 1:17.5 2:-0.56240125 3:1.4739796 
-10 1:17.5 2:-0.90121496 3:1.367826 
-10 1:17.5 2:-1.0583441 3:1.2800104 
-10 1:17.5 2:-1.2154733 3:1.1921948 
-10 1:17.5 2:-1.2628688 3:1.034003 
-10 1:17.5 2:-1.2771385 3:0.85456627 
-10 1:17.5 2:-1.2914081 3:0.67512958 
-10 1:17.5 2:-1.3021456 3:0.49589958 
10 1:17.5 2:-1.2670457 3:0.31935171 
10 1:17.5 2:-1.2319459 3:0.14280384 
10 1:17.5 2:-1.196846 3:-0.033744032 
10 1:17.5 2:-1.1617462 3:-0.2102919 
10 1:17.5 2:-1.1089608 3:-0.3816131 
10 1:17.5 2:-1.042452 3:-0.54887855 
10 1:17.5 2:-0.97041049 3:-0.71331589 
10 1:17.5 2:-0.87378903 3:-0.865189 
-10 1:18 2:-1.1992814 3:-1.0349835 
-10 1:18 2:-1.0194522 3:-1.0466861 
-10 1:18 2:-0.83962307 3:-1.0583887 
-10 1:18 2:-0.65979389 3:-1.0700913 
-10 1:18 2:-0.4799647 3:-1.0817939 
-1.700037496383444 1:18 2:-0.1214141 3:-1.1161562 
-10 1:18 2:0.057118518 3:-1.1406836 
-10 1:18 2:0.23565113 3:-1.165211 
-10 1:18 2:0.41418374 3:-1.1897383 
-10 1:18 2:0.59271636 3:-1.2142657 
-10 1:18 2:0.76715719 3:-1.1720576 
-10 1:18 2:0.94135606 3:-1.1259031 
-10 1:18 2:1.1155549 3:-1.0797485 
-10 1:18 2:1.2879211 3:-1.0307652 
-10 1:18 2:1.378821 3:-0.88396342 
-10 1:18 2:1.360695 3:-0.70466777 
-10 1:18 2:1.3425689 3:-0.52537212 
-10 1:18 2:1.2918381 3:-0.35607751 
10 1:18 2:1.1207871 3:-0.038833943 
10 1:18 2:1.0375887 3:0.12074514 
10 1:18 2:0.9867428 3:0.29363292 
10 1:18 2:0.93589692 3:0.46652069 
10 1:18 2:0.88505105 3:0.63940846 
10 1:18 2:0.82836841 3:0.81010277 
10 1:18 2:0.75276721 3:0.97368744 
10 1:18 2:0.67716601 3:1.1372721 
10 1:18 2:0.56237279 3:1.2716684 
10 1:18 2:0.42730009 3:1.3909616 
10 1:18 2:0.28620237 3:1.4922641 
10 1:18 2:0.10652851 3:1.4783793 
10 1:18 2:-0.073145357 3:1.4644945 
10 1:18 2:-0.25281922 3:1.4506096 
10 1:18 2:-0.43249308 3:1.4367248 
10 1:18 2:-0.60617883 3:1.3914431 
-10 1:18 2:-0.7783505 3:1.3382228 
10 1:18 2:-0.89012311 3:1.0386515 
10 1:18 2:-0.9177308 3:0.8612128 
10 1:18 2:-0.97674936 3:0.69094157 
10 1:18 2:-1.0357679 3:0.52067033 
10 1:18 2:-1.0947865 3:0.35039909 
10 1:18 2:-1.1538051 3:0.18012785 
10 1:18 2:-1.2100448 3:0.009001599 
10 1:18 2:-1.2569527 3:-0.16499591 
10 1:18 2:-1.3038606 3:-0.33899343 
-10 1:18 2:-1.3400051 3:-0.51299094 
-10 1:18 2:-1.2930972 3:-0.68698846 
-10 1:18 2:-1.2461893 3:-0.86098597 
-10 1:18.5 2:-1.2669629 3:-0.97495273 
-10 1:18.5 2:-1.0805185 3:-0.97495273 
10 1:18.5 2:-0.70762987 3:-0.97495273 
10 1:18.5 2:-0.52118554 3:-0.97495273 
10 1:18.5 2:-0.33538437 3:-0.96052879 
10 1:18.5 2:-0.14967998 3:-0.94393458 
10 1:18.5 2:0.036024414 3:-0.92734038 
10 1:18.5 2:0.22172881 3:-0.91074618 
10 1:18.5 2:0.40796742 3:-0.90613254 
10 1:18.5 2:0.59441175 3:-0.90613254 
10 1:18.5 2:0.78085608 3:-0.90613254 
-10 1:18.5 2:1.1537447 3:-0.90613254 
-10 1:18.5 2:1.2501353 3:-0.82372257 
-10 1:18.5 2:1.2336408 3:-0.63800929 
-10 1:18.5 2:1.2171464 3:-0.45229601 
10 1:18.5 2:1.056018 3:-0.11817515 
10 1:18.5 2:0.98914422 3:0.053776897 
10 1:18.5 2:0.9565359 3:0.23734755 
10 1:18.5 2:0.92392757 3:0.42091821 
10 1:18.5 2:0.88420898 3:0.60302958 
10 1:18.5 2:0.84187588 3:0.78460435 
6.77190797048567 1:18.5 2:0.79954278 3:0.96617912 
-10 1:18.5 2:0.72251943 3:1.3310113 
-10 1:18.5 2:0.68468477 3:1.5135764 
-10 1:18.5 2:0.6468501 3:1.6961416 
-10 1:18.5 2:0.58358327 3:1.8531231 
-10 1:18.5 2:0.40079677 3:1.8898734 
-10 1:18.5 2:0.22936493 3:1.8801137 
-10 1:18.5 2:0.084076174 3:1.7632691 
10 1:18.5 2:-0.20650135 3:1.5295799 
10 1:18.5 2:-0.35179011 3:1.4127352 
10 1:18.5 2:-0.49707887 3:1.2958906 
10 1:18.5 2:-0.63488158 3:1.1709908 
10 1:18.5 2:-0.75938157 3:1.0322734 
10 1:18.5 2:-0.87994997 3:0.89005963 
10 1:18.5 2:-1.0005184 3:0.74784588 
-10 1:18.5 2:-1.2416551 3:0.46341837 
-10 1:18.5 2:-1.353697 3:0.3176959 
-10 1:18.5 2:-1.3681429 3:0.13181205 
0.02646409106157864 1:18.5 2:-1.3588511 3:-0.42325221 
-10 1:18.5 2:-1.295598 3:-0.79072049 
-10 1:19 2:-1.2768825 3:-1.0316511 
-10 1:19 2:-1.0895247 3:-1.0316511 
-10 1:19 2:-0.90216682 3:-1.0316511 
-5.452005514503072 1:19 2:-0.71480898 3:-1.0316511 
10 1:19 2:-0.34219862 3:-0.99259328 
10 1:19 2:-0.15592635 3:-0.97245368 
10 1:19 2:0.030208215 3:-0.95113138 
10 1:19 2:0.2161249 3:-0.92793773 
10 1:19 2:0.40204159 3:-0.90474409 
10 1:19 2:0.58726346 3:-0.87730071 
10 1:19 2:0.77088614 3:-0.84007608 
-10 1:19 2:1.1391886 3:-0.77114864 
-10 1:19 2:1.3242539 3:-0.74549968 
-10 1:19 2:1.2475744 3:-0.57670018 
-10 1:19 2:1.1740086 3:-0.40458341 
10 1:19 2:0.98722038 3:0.12554563 
10 1:19 2:0.92495764 3:0.30225531 
10 1:19 2:0.86269489 3:0.47896498 
10 1:19 2:0.825693 3:0.66160882 
10 1:19 2:0.80276161 3:0.84755804 
-10 1:19 2:0.75689884 3:1.2194565 
-10 1:19 2:0.75219987 3:1.4065257 
-10 1:19 2:0.75219987 3:1.5938835 
-10 1:19 2:0.72928353 3:1.758325 
-10 1:19 2:0.54192569 3:1.758325 
-10 1:19 2:0.35456785 3:1.758325 
-10 1:19 2:0.16721001 3:1.758325 
-10 1:19 2:-0.01652881 3:1.7460965 
-10 1:19 2:-0.17371001 3:1.6441306 
-10 1:19 2:-0.33089122 3:1.5421648 
-10 1:19 2:-0.47867614 3:1.4290418 
-10 1:19 2:-0.60589295 3:1.291496 
-10 1:19 2:-0.72480765 3:1.1479141 
10 1:19 2:-0.99964341 3:0.65761626 
10 1:19 2:-1.0912553 3:0.49418366 
10 1:19 2:-1.185679 3:0.33240503 
-10 1:19 2:-1.4806832 3:-0.14602908 
-10 1:19 2:-1.4974349 3:-0.32863747 
-10 1:19 2:-1.4974349 3:-0.51599531 
-10 1:19 2:-1.3524007 3:-0.86018689 
10 1:19.5 2:-1.1499808 3:-0.87806908 
10 1:19.5 2:-0.95134611 3:-0.85326795 
10 1:19.5 2:-0.75271144 3:-0.82846681 
10 1:19.5 2:-0.55407676 3:-0.80366568 
10 1:19.5 2:-0.35544209 3:-0.77886455 
10 1:19.5 2:-0.15832254 3:-0.79762829 
10 1:19.5 2:0.038109179 3:-0.83616927 
10 1:19.5 2:0.2353814 3:-0.87014021 
-10 1:19.5 2:1.024544 3:-0.80011696 
-10 1:19.5 2:1.22225 3:-0.77112092 
-10 1:19.5 2:1.3725903 3:-0.73622751 
-10 1:19.5 2:1.3041126 3:-0.54812748 
-10 1:19.5 2:1.1898355 3:-0.38611134 
6.994113915736301 1:19.5 2:1.0629896 3:-0.23125352 
10 1:19.5 2:0.93614371 3:-0.076395703 
10 1:19.5 2:0.83968261 3:0.093599251 
10 1:19.5 2:0.79247027 3:0.288129 
10 1:19.5 2:0.74751121 3:0.48316642 
10 1:19.5 2:0.70674152 3:0.67914769 
10 1:19.5 2:0.66597184 3:0.87512897 
10 1:19.5 2:0.65820236 3:1.0751464 
10 1:19.5 2:0.65053699 3:1.2751766 
-10 1:19.5 2:0.63520627 3:1.6752369 
-10 1:19.5 2:0.6275409 3:1.8752671 
-10 1:19.5 2:0.61987554 3:2.0752973 
-10 1:19.5 2:0.48810274 3:2.0560671 
-10 1:19.5 2:0.31265822 3:1.9596822 
-10 1:19.5 2:0.13747133 3:1.8629771 
-10 1:19.5 2:0.0057632142 3:1.712233 
-10 1:19.5 2:-0.12594491 3:1.5614888 
10 1:19.5 2:-0.38936115 3:1.2600005 
10 1:19.5 2:-0.52106927 3:1.1092564 
10 1:19.5 2:-0.65277739 3:0.95851221 
10 1:19.5 2:-0.77822542 3:0.80277045 
10 1:19.5 2:-0.89605137 3:0.64094377 
10 1:19.5 2:-1.0138773 3:0.47911709 
10 1:19.5 2:-1.1317033 3:0.31729041 
2.70427649603008 1:19.5 2:-1.2495292 3:0.15546373 
-10 1:19.5 2:-1.4851811 3:-0.16818963 
-10 1:19.5 2:-1.5684539 3:-0.34661964 
-10 1:19.5 2:-1.6211797 3:-0.53972795 
-10 1:19.5 2:-1.6739055 3:-0.73283626 
-10 1:19.5 2:-1.5349588 3:-0.82974706 
-10 1:20 2:-1.5827291 3:-0.87036546 
10 1:20 2:0.035788043 3:-0.87291428 
0.6644847258286942 1:20 2:0.21677327 3:-0.87036546 
-10 1:20 2:0.7603042 3:-0.87036546 
-10 1:20 2:0.94148118 3:-0.87036546 
-10 1:20 2:1.1226582 3:-0.87036546 
-10 1:20 2:1.1219483 3:-0.69069303 
10 1:20 2:1.0777493 3:-0.14896217 
10 1:20 2:1.0587616 3:0.031107191 
10 1:20 2:1.0306 3:0.21008211 
10 1:20 2:1.0024384 3:0.38905703 
10 1:20 2:0.97427681 3:0.56803195 
10 1:20 2:0.94611522 3:0.74700687 
10 1:20 2:0.91795363 3:0.92598179 
10 1:20 2:0.89850894 3:1.1056383 
10 1:20 2:0.85328905 3:1.2803117 
10 1:20 2:0.80223083 3:1.4541454 
10 1:20 2:0.67983333 3:1.5721438 
10 1:20 2:0.52335796 3:1.6634705 
10 1:20 2:0.21597496 3:1.6263306 
10 1:20 2:0.06432424 3:1.5271986 
10 1:20 2:-0.087326478 3:1.4280665 
10 1:20 2:-0.2389772 3:1.3289345 
9.960382068706537 1:20 2:-0.39062791 3:1.2298025 
-10 1:20 2:-0.69392935 3:1.0315385 
-10 1:20 2:-0.84558007 3:0.93240646 
-10 1:20 2:-0.99723079 3:0.83327444 
-10 1:20 2:-1.0932494 3:0.68502595 
-10 1:20 2:-1.1476361 3:0.51220468 
-10 1:20 2:-1.2020227 3:0.33938342 
10 1:20 2:-1.4195692 3:-0.35190166 
-10 1:20.5 2:-1.2541263 3:-0.99878927 
-10 1:20.5 2:-1.0631122 3:-1.0239287 
-10 1:20.5 2:-0.87209806 3:-1.0490681 
-10 1:20.5 2:-0.68147416 3:-1.0668445 
-10 1:20.5 2:-0.49418748 3:-1.021655 
-10 1:20.5 2:-0.30690081 3:-0.97646549 
-10 1:20.5 2:-0.11961413 3:-0.93127598 
-10 1:20.5 2:0.64636374 3:-0.85321674 
-10 1:20.5 2:0.83902507 3:-0.85321674 
-10 1:20.5 2:1.0242899 3:-0.89538667 
-10 1:20.5 2:1.1482024 3:-0.83112937 
-10 1:20.5 2:1.2219662 3:-0.65314822 
-10 1:20.5 2:1.2714352 3:-0.46873226 
-10 1:20.5 2:1.2954429 3:-0.27757259 
-10 1:20.5 2:1.3194507 3:-0.086412923 
-10 1:20.5 2:1.3434584 3:0.10474674 
-10 1:20.5 2:1.3629241 3:0.2962956 
-10 1:20.5 2:1.3717867 3:0.48875299 
-10 1:20.5 2:1.3806493 3:0.68121037 
-10 1:20.5 2:1.3895119 3:0.87366776 
-10 1:20.5 2:1.3983745 3:1.0661251 
-10 1:20.5 2:1.4072371 3:1.2585825 
-10 1:20.5 2:1.410543 3:1.4511678 
-10 1:20.5 2:1.410543 3:1.6438291 
-10 1:20.5 2:1.3413056 3:1.7623156 
-10 1:20.5 2:1.1491004 3:1.7490652 
10 1:20.5 2:0.76469012 3:1.7225645 
10 1:20.5 2:0.57248497 3:1.7093141 
10 1:20.5 2:0.38027982 3:1.6960638 
10 1:20.5 2:0.20280322 3:1.6248455 
10 1:20.5 2:0.027584582 3:1.5447404 
-10 1:20.5 2:-0.3228527 3:1.3845303 
-10 1:20.5 2:-0.49807133 3:1.3044253 
-10 1:20.5 2:-0.62664595 3:1.1819629 
-10 1:20.5 2:-0.68954047 3:0.99985674 
10 1:20.5 2:-0.80877363 3:0.63395795 
10 1:20.5 2:-0.84155837 3:0.44410655 
10 1:20.5 2:-0.87434312 3:0.25425516 
10 1:20.5 2:-0.90712787 3:0.064403769 
10 1:20.5 2:-0.93991261 3:-0.12544762 
10 1:20.5 2:-0.99127831 3:-0.31051941 
10 1:20.5 2:-1.0844999 3:-0.44625656 
10 1:20.5 2:-1.1410421 3:-0.63043413 
10 1:21 2:-0.62911556 3:-0.84933262 
10 1:21 2:-0.44761769 3:-0.84933262 
10 1:21 2:-0.26611982 3:-0.84933262 
10 1:21 2:-0.084621947 3:-0.84933262 
10 1:21 2:0.096875923 3:-0.84933262 
-10 1:21 2:0.82286741 3:-0.84933262 
-10 1:21 2:1.0043653 3:-0.84933262 
-10 1:21 2:1.1031252 3:-0.74376678 
10 1:21 2:1.1929391 3:-0.20724026 
10 1:21 2:1.211118 3:-0.026655086 
10 1:21 2:1.2292969 3:0.15393009 
10 1:21 2:1.2474758 3:0.33451526 
10 1:21 2:1.2656547 3:0.51510043 
1.814880509545253 1:21 2:1.2838337 3:0.6956856 
-10 1:21 2:1.3383704 3:1.2374411 
-10 1:21 2:1.3565494 3:1.4180263 
10 1:21 2:0.92953442 3:1.6539908 
10 1:21 2:0.74835052 3:1.6433198 
10 1:21 2:0.56716661 3:1.6326488 
10 1:21 2:0.38598271 3:1.6219778 
10 1:21 2:0.2047988 3:1.6113068 
-10 1:21 2:-0.15756901 3:1.5899649 
-10 1:21 2:-0.30838847 3:1.489793 
-10 1:21 2:-0.45866211 3:1.3880123 
-10 1:21 2:-0.60893576 3:1.2862316 
-10 1:21 2:-0.75920941 3:1.1844509 
-10 1:21 2:-0.88345456 3:1.0574406 
-10 1:21 2:-0.98050287 3:0.9040682 
-10 1:21 2:-1.0775512 3:0.75069577 
-10 1:21 2:-1.1737067 3:0.5970389 
-10 1:21 2:-1.1832638 3:0.41579283 
-10 1:21 2:-1.192821 3:0.23454676 
10 1:21 2:-1.2119353 3:-0.12794538 
10 1:21 2:-1.2214924 3:-0.30919145 
10 1:21 2:-1.2266287 3:-0.4902298 
5.801502376550767 1:21 2:-1.200119 3:-0.66978121 
-10 1:21.5 2:-1.5256654 3:-0.97004294 
-10 1:21.5 2:-1.3345426 3:-0.97004294 
-10 1:21.5 2:-1.1446138 3:-0.95647301 
-10 1:21.5 2:-0.95642746 3:-0.92309848 
10 1:21.5 2:-0.5938714 3:-0.8083596 
10 1:21.5 2:-0.41405971 3:-0.74589706 
10 1:21.5 2:-0.22587341 3:-0.71252254 
10 1:21.5 2:-0.03768712 3:-0.67914802 
10 1:21.5 2:0.15049917 3:-0.64577349 
10 1:21.5 2:0.33868547 3:-0.61239897 
10 1:21.5 2:0.52606266 3:-0.64520093 
10 1:21.5 2:0.71337673 3:-0.68316646 
-10 1:21.5 2:1.0885155 3:-0.75400718 
-10 1:21.5 2:1.2627753 3:-0.74064678 
-5.898583659767556 1:21.5 2:1.2190626 3:-0.55458995 
10 1:21.5 2:1.1753499 3:-0.36853313 
10 1:21.5 2:1.1476886 3:-0.17965738 
10 1:21.5 2:1.1253905 3:0.010160253 
10 1:21.5 2:1.1030924 3:0.19997789 
10 1:21.5 2:1.0807942 3:0.38979552 
10 1:21.5 2:1.0628902 3:0.57987036 
10 1:21.5 2:1.0628902 3:0.7709932 
10 1:21.5 2:1.0628902 3:0.96211604 
10 1:21.5 2:1.0628902 3:1.1532389 
10 1:21.5 2:1.0603289 3:1.3440289 
10 1:21.5 2:1.0114903 3:1.5288065 
-10 1:21.5 2:0.9138131 3:1.8983615 
-10 1:21.5 2:0.74226333 3:1.8507176 
-10 1:21.5 2:0.5621358 3:1.786827 
6.560112775369346 1:21.5 2:-0.11541722 3:1.4408605 
10 1:21.5 2:-0.54138492 3:1.0745483 
10 1:21.5 2:-0.65149226 3:0.91832953 
10 1:21.5 2:-0.76159959 3:0.76211073 
10 1:21.5 2:-0.87170692 3:0.60589192 
10 1:21.5 2:-0.98181426 3:0.44967312 
-10 1:21.5 2:-1.4053276 3:-0.60723369 
-10 1:21.5 2:-1.4654965 3:-0.78863832 
-10 1:22 2:-1.226773 3:-1.2789479 
-10 1:22 2:-1.0458318 3:-1.2244008 
-10 1:22 2:-0.86489055 3:-1.1698537 
-10 1:22 2:-0.68394934 3:-1.1153066 
-10 1:22 2:-0.50300812 3:-1.0607594 
10 1:22 2:-0.13606809 3:-0.97357525 
10 1:22 2:0.050474623 3:-0.94329445 
10 1:22 2:0.23701734 3:-0.91301366 
10 1:22 2:0.41884192 3:-0.86229335 
10 1:22 2:0.59978313 3:-0.80774623 
10 1:22 2:0.78072435 3:-0.75319911 
10 1:22 2:0.96166557 3:-0.698652 
-10 1:22 2:1.3295418 3:-0.63020621 
-10 1:22 2:1.4522181 3:-0.56389814 
-10 1:22 2:1.4522181 3:-0.37491372 
-10 1:22 2:1.4522181 3:-0.1859293 
-10 1:22 2:1.4522181 3:0.003055125 
-10 1:22 2:1.4522181 3:0.19203955 
-10 1:22 2:1.4522181 3:0.38102397 
-10 1:22 2:1.4522181 3:0.57000839 
-10 1:22 2:1.3225621 3:1.1218111 
-10 1:22 2:1.2789906 3:1.3057041 
-10 1:22 2:1.235419 3:1.4895971 
-10 1:22 2:1.1424814 3:1.6535598 
-10 1:22 2:1.046166 3:1.8161589 
-10 1:22 2:0.90337887 3:1.8142307 
-10 1:22 2:0.73622894 3:1.7260489 
-10 1:22 2:0.56907902 3:1.6378672 
10 1:22 2:0.24839268 3:1.4425355 
10 1:22 2:0.11135233 3:1.3124007 
10 1:22 2:-0.02568802 3:1.182266 
10 1:22 2:-0.16272837 3:1.0521312 
10 1:22 2:-0.29976872 3:0.92199646 
10 1:22 2:-0.43680907 3:0.7918617 
10 1:22 2:-0.57267445 3:0.6607076 
10 1:22 2:-0.68216552 3:0.50667248 
10 1:22 2:-0.79165658 3:0.35263736 
10 1:22 2:-0.84565235 3:0.17720938 
10 1:22 2:-0.86788582 3:-0.010462634 
10 1:22 2:-0.92282763 3:-0.18884927 
10 1:22 2:-0.95231396 3:-0.37551922 
10 1:22 2:-0.99905122 3:-0.55812574 
-10 1:22 2:-1.1129121 3:-0.91853682 
-10 1:22 2:-1.1698425 3:-1.0987424 
-10 1:22.5 2:-1.2067716 3:-0.84191317 
-10 1:22.5 2:-1.0410009 3:-0.90879577 
-10 1:22.5 2:-0.37601173 3:-1.1665062 
-10 1:22.5 2:-0.19725713 3:-1.1665062 
-10 1:22.5 2:-0.018502533 3:-1.1665062 
-10 1:22.5 2:0.16025207 3:-1.1665062 
-10 1:22.5 2:0.33900666 3:-1.1665062 
-10 1:22.5 2:0.51776126 3:-1.1665062 
-10 1:22.5 2:0.69019309 3:-1.1448638 
-10 1:22.5 2:0.84083371 3:-1.0486318 
-10 1:22.5 2:0.99147433 3:-0.95239969 
10 1:22.5 2:1.2838774 3:-0.31745523 
10 1:22.5 2:1.3145086 3:-0.14134467 
10 1:22.5 2:1.3372485 3:0.035654819 
10 1:22.5 2:1.3465631 3:0.21416656 
10 1:22.5 2:1.3558778 3:0.39267831 
-10 1:22.5 2:1.3745072 3:0.7497018 
-10 1:22.5 2:1.3193762 3:0.91704101 
-10 1:22.5 2:1.2505161 3:1.0820001 
-10 1:22.5 2:1.1465882 3:1.2118669 
-10 1:22.5 2:0.3215536 3:1.5555937 
-10 1:22.5 2:0.15018643 3:1.5925345 
-10 1:22.5 2:-0.028568172 3:1.5925345 
-10 1:22.5 2:-0.20732277 3:1.5925345 
-10 1:22.5 2:-0.36670274 3:1.5299252 
-10 1:22.5 2:-0.51421382 3:1.4289614 
-10 1:22.5 2:-0.66172491 3:1.3279976 
-10 1:22.5 2:-0.809236 3:1.2270338 
-10 1:22.5 2:-0.90944355 3:1.087581 
-10 1:22.5 2:-0.97830359 3:0.92262191 
10 1:22.5 2:-1.0609089 3:0.57831061 
10 1:22.5 2:-1.0814984 3:0.40074575 
10 1:22.5 2:-1.1020879 3:0.22318089 
10 1:22.5 2:-1.1228431 3:0.045637989 
10 1:22.5 2:-1.1492014 3:-0.1311626 
10 1:22.5 2:-1.1755597 3:-0.30796319 
10 1:22.5 2:-1.2019179 3:-0.48476378 
-10 1:23 2:-1.3397814 3:-0.3041896 
10 1:23 2:-1.2010868 3:-0.40930014 
10 1:23 2:-1.0623921 3:-0.51441069 
10 1:23 2:-0.92369751 3:-0.61952123 
10 1:23 2:-0.78500288 3:-0.72463178 
10 1:23 2:-0.64630825 3:-0.82974233 
10 1:23 2:-0.50761363 3:-0.93485287 
10 1:23 2:-0.35199217 3:-1.0125023 
10 1:23 2:-0.19576965 3:-1.0891766 
10 1:23 2:-0.03954713 3:-1.1658509 
-9.225121524476657 1:23 2:0.11667539 3:-1.2425253 
-10 1:23 2:0.27714751 3:-1.3008959 
-10 1:23 2:0.45117172 3:-1.3008959 
-10 1:23 2:0.62519594 3:-1.3008959 
-10 1:23 2:0.79269172 3:-1.2710894 
-10 1:23 2:0.94400805 3:-1.1891145 
-10 1:23 2:1.0608189 3:-1.0601197 
-10 1:23 2:1.1703939 3:-0.92858337 
10 1:23 2:1.1494205 3:-0.58116746 
10 1:23 2:1.1389338 3:-0.4074595 
10 1:23 2:1.1284471 3:-0.23375154 
10 1:23 2:1.1149489 3:-0.060297955 
10 1:23 2:1.0961491 3:0.11270781 
10 1:23 2:1.0773493 3:0.28571357 
10 1:23 2:1.0585495 3:0.45871933 
10 1:23 2:1.0397497 3:0.6317251 
10 1:23 2:1.0129227 3:0.80222155 
10 1:23 2:0.92984146 3:0.9551331 
10 1:23 2:0.82883909 3:1.0932102 
10 1:23 2:0.69414 3:1.2033945 
10 1:23 2:0.5594409 3:1.3135788 
10 1:23 2:0.24914743 3:1.401322 
10 1:23 2:0.075787757 3:1.3861282 
10 1:23 2:-0.097571912 3:1.3709344 
10 1:23 2:-0.27093158 3:1.3557406 
-10 1:23 2:-0.61603648 3:1.3195612 
-10 1:23 2:-0.77225899 3:1.2428868 
-10 1:23 2:-0.92848151 3:1.1662125 
-10 1:23 2:-1.084704 3:1.0895382 
-10 1:23 2:-1.2409266 3:1.0128639 
-10 1:23 2:-1.3702903 3:0.90819391 
-10 1:23 2:-1.3833828 3:0.73904492 
-10 1:23 2:-1.3761159 3:0.5651725 
-10 1:23 2:-1.368849 3:0.39130008 
-10 1:23 2:-1.3615821 3:0.21742766 
-10 1:23 2:-1.3543152 3:0.04355524 
-10 1:23 2:-1.3470483 3:-0.13031718 
-10 1:23.5 2:-0.56242595 3:-1.1857424 
-10 1:23.5 2:-0.41526142 3:-1.2860234 
-10 1:23.5 2:-0.2680969 3:-1.3863044 
-10 1:23.5 2:-0.098549394 3:-1.3996658 
-10 1:23.5 2:0.078746531 3:-1.3829378 
-10 1:23.5 2:0.25604246 3:-1.3662098 
-10 1:23.5 2:0.43333838 3:-1.3494818 
-10 1:23.5 2:0.6106343 3:-1.3327539 
-10 1:23.5 2:0.75587752 3:-1.2470493 
-2.967766018000878 1:23.5 2:0.88298773 3:-1.1223229 
-10 1:23.5 2:1.38065 3:-0.61648975 
-10 1:23.5 2:1.4413186 3:-0.44905921 
-10 1:23.5 2:1.5019873 3:-0.28162866 
-10 1:23.5 2:1.5626559 3:-0.11419812 
-10 1:23.5 2:1.6233246 3:0.053232415 
-10 1:23.5 2:1.6288876 3:0.22470853 
-10 1:23.5 2:1.5933215 3:0.39920415 
-10 1:23.5 2:1.5577554 3:0.57369976 
-10 1:23.5 2:1.5221892 3:0.74819538 
-10 1:23.5 2:1.4122314 3:0.87243996 
-10 1:23.5 2:1.2636324 3:0.97058276 
-10 1:23.5 2:1.1150334 3:1.0687256 
-8.790301028630934 1:23.5 2:0.6692364 3:1.363154 
10 1:23.5 2:0.32787617 3:1.3715231 
10 1:23.5 2:0.1511175 3:1.3498427 
10 1:23.5 2:-0.025641173 3:1.3281622 
10 1:23.5 2:-0.19692043 3:1.2830332 
10 1:23.5 2:-0.36498253 3:1.2241367 
10 1:23.5 2:-0.53304463 3:1.1652401 
10 1:23.5 2:-0.6951267 3:1.0920641 
10 1:23.5 2:-0.85500442 3:1.0136244 
10 1:23.5 2:-0.94776655 3:0.88236785 
10 1:23.5 2:-0.98641971 3:0.70852999 
10 1:23.5 2:-1.0250729 3:0.53469212 
10 1:23.5 2:-1.063726 3:0.36085426 
10 1:23.5 2:-1.1023792 3:0.1870164 
10 1:23.5 2:-1.1352004 3:0.012537977 
10 1:23.5 2:-1.1352004 3:-0.16554535 
10 1:23.5 2:-1.1352004 3:-0.34362867 
10 1:23.5 2:-1.111884 3:-0.51578492 
10 1:23.5 2:-1.026841 3:-0.67225011 
10 1:23.5 2:-0.94179801 3:-0.82871531 
10 1:24 2:-0.52674013 3:-0.94323901 
10 1:24 2:-0.35264391 3:-0.99343699 
10 1:24 2:-0.1785477 3:-1.043635 
10 1:24 2:-0.00445148 3:-1.093833 
10 1:24 2:0.16964474 3:-1.1440309 
10 1:24 2:0.34306096 3:-1.1376318 
10 1:24 2:0.51590089 3:-1.0832655 
10 1:24 2:0.68874081 3:-1.0288992 
10 1:24 2:0.86158073 3:-0.97453297 
10 1:24 2:1.0276815 3:-0.90482601 
10 1:24 2:1.1846418 3:-0.81431184 
10 1:24 2:1.2687866 3:-0.66224875 
10 1:24 2:1.3318985 3:-0.49240698 
10 1:24 2:1.3950103 3:-0.32256521 
10 1:24 2:1.3970879 3:-0.14588451 
10 1:24 2:1.3731309 3:0.033713362 
10 1:24 2:1.349174 3:0.21331124 
10 1:24 2:1.3252171 3:0.39290911 
10 1:24 2:1.3012602 3:0.57250699 
-3.147972254332903 1:24 2:1.0858971 3:1.0646059 
-10 1:24 2:0.99957069 3:1.2239078 
-10 1:24 2:0.86620773 3:1.3277777 
-10 1:24 2:0.69497892 3:1.3870231 
-10 1:24 2:0.5237501 3:1.4462686 
-10 1:24 2:0.35252129 3:1.505514 
-10 1:24 2:0.17411212 3:1.5063467 
-10 1:24 2:-0.0063676614 3:1.4903348 
-10 1:24 2:-0.18684744 3:1.4743229 
-10 1:24 2:-0.36732722 3:1.4583111 
-10 1:24 2:-0.54413165 3:1.4321332 
-10 1:24 2:-0.69312477 3:1.3290295 
-10 1:24 2:-0.8421179 3:1.2259257 
-4.564531796139436 1:24 2:-0.93085785 3:1.0691388 
-10 1:24 2:-1.2720356 3:0.42971169 
-10 1:24 2:-1.3573301 3:0.26985491 
-10 1:24 2:-1.3848311 3:0.092180693 
-10 1:24 2:-1.4043542 3:-0.08795309 
-10 1:24 2:-1.4238772 3:-0.26808687 
-10 1:24 2:-1.3955318 3:-0.44196591 
-10 1:24 2:-1.33038 3:-0.61103564 
-10 1:24 2:-1.2652282 3:-0.78010537 
-10 1:24 2:-1.2000764 3:-0.9491751 
-10 1:24 2:-1.0667266 3:-1.0055177 
-10 1:24 2:-0.88673108 3:-0.98475816 
10 1:24 2:-0.70673561 3:-0.96399859 
-10 1:24.5 2:-1.2969742 3:-0.26069362 
10 1:24.5 2:-1.1644714 3:0.067465919 
10 1:24.5 2:-1.09822 3:0.23154569 
10 1:24.5 2:-1.0319687 3:0.39562546 
10 1:24.5 2:-0.96571728 3:0.55970523 
10 1:24.5 2:-0.89946591 3:0.723785 
10 1:24.5 2:-0.83321453 3:0.88786477 
10 1:24.5 2:-0.76696316 3:1.0519445 
-10 1:24.5 2:-0.25850036 3:1.4826725 
-10 1:24.5 2:-0.099935768 3:1.5612135 
-10 1:24.5 2:0.058628822 3:1.5258109 
10 1:24.5 2:0.21719341 3:1.4472699 
10 1:24.5 2:0.375758 3:1.368729 
10 1:24.5 2:0.53432259 3:1.290188 
10 1:24.5 2:0.66616067 3:1.1742339 
10 1:24.5 2:0.79186977 3:1.0497002 
10 1:24.5 2:0.91757886 3:0.92516656 
10 1:24.5 2:1.043288 3:0.80063287 
10 1:24.5 2:1.1689971 3:0.67609919 
10 1:24.5 2:1.2350709 3:0.51404058 
10 1:24.5 2:1.2929441 3:0.34682186 
10 1:24.5 2:1.3508174 3:0.17960313 
10 1:24.5 2:1.4086906 3:0.012384409 
10 1:24.5 2:1.4479898 3:-0.15941382 
-10 1:24.5 2:1.500972 3:-0.50932602 
-10 1:24.5 2:1.5274632 3:-0.68428212 
-10 1:24.5 2:1.5539543 3:-0.85923822 
-10 1:24.5 2:1.3998431 3:-0.91210533 
10 1:24.5 2:1.0553944 3:-0.99335011 
10 1:24.5 2:0.88316998 3:-1.0339725 
10 1:24.5 2:0.7109456 3:-1.0745949 
10 1:24.5 2:0.53872122 3:-1.1152173 
10 1:24.5 2:0.36649684 3:-1.1558397 
10 1:24.5 2:0.19427246 3:-1.1964621 
10 1:24.5 2:0.022048075 3:-1.2370845 
-10 1:24.5 2:-0.32130993 3:-1.2709756 
10 1:24.5 2:-0.59422687 3:-1.0456714 
10 1:24.5 2:-0.73068534 3:-0.93301922 
10 1:24.5 2:-0.86714381 3:-0.8203671 
10 1:24.5 2:-0.98487663 3:-0.69010937 
-10 1:24.5 2:-1.1929416 3:-0.4038322 
10 1:25 2:-1.1297293 3:0.026737586 
10 1:25 2:-1.1014971 3:0.20634437 
10 1:25 2:-1.0732648 3:0.38595116 
10 1:25 2:-1.0450325 3:0.56555795 
10 1:25 2:-1.0168003 3:0.74516474 
-10 1:25 2:-0.98856801 3:0.92477153 
-10 1:25 2:-0.88555442 3:1.0596274 
-10 1:25 2:-0.45074447 3:1.3889315 
-8.359965954628109 1:25 2:-0.27966704 3:1.4501545 
-10 1:25 2:-0.1082463 3:1.5107399 
-10 1:25 2:0.063797542 3:1.532091 
10 1:25 2:0.41031393 3:1.4218684 
10 1:25 2:0.58357212 3:1.366757 
10 1:25 2:0.75683031 3:1.3116457 
10 1:25 2:0.9128127 3:1.2184996 
-10 1:25 2:1.2238081 3:1.0300732 
-10 1:25 2:1.3434789 3:0.90046408 
-10 1:25 2:1.4358038 3:0.74383785 
-10 1:25 2:1.5281287 3:0.58721161 
-10 1:25 2:1.6204536 3:0.43058538 
-10 1:25 2:1.6640135 3:0.26228778 
-10 1:25 2:1.6526044 3:0.080833945 
-10 1:25 2:1.6411954 3:-0.10061989 
-10 1:25 2:1.6297863 3:-0.28207372 
-10 1:25 2:1.6183773 3:-0.46352755 
-10 1:25 2:1.6069683 3:-0.64498138 
-10 1:25 2:1.5955592 3:-0.82643521 
-10 1:25 2:1.4665318 3:-0.93989168 
-10 1:25 2:1.3149769 3:-1.0403246 
-10 1:25 2:1.163422 3:-1.1407574 
-10 1:25 2:1.011867 3:-1.2411903 
-10 1:25 2:0.83605063 3:-1.2768734 
-10 1:25 2:0.65581459 3:-1.3007613 
-10 1:25 2:0.47557855 3:-1.3246491 
10 1:25 2:-0.047768551 3:-1.1997613 
10 1:25 2:-0.22102674 3:-1.14465 
10 1:25 2:-0.39126985 3:-1.0834781 
10 1:25 2:-0.53973599 3:-0.97853307 
10 1:25 2:-0.68454749 3:-0.86871583 
10 1:25 2:-0.82685016 3:-0.75555396 
10 1:25 2:-0.96096293 3:-0.63348075 
10 1:25 2:-1.1297293 3:-0.15507457 
10 1:25.5 2:-1.0593238 3:-0.47734379 
10 1:25.5 2:-1.1267014 3:-0.31100271 
-10 1:25.5 2:-1.2614565 3:0.021679461 
-10 1:25.5 2:-1.2823946 3:0.19413247 
-10 1:25.5 2:-1.2603504 3:0.37224241 
-10 1:25.5 2:-1.2383062 3:0.55035234 
-10 1:25.5 2:-1.2076902 3:0.72486229 
-10 1:25.5 2:-1.09595 3:0.86530167 
-10 1:25.5 2:-0.98420978 3:1.0057411 
-10 1:25.5 2:-0.87246956 3:1.1461804 
-10 1:25.5 2:-0.7202477 3:1.230903 
-10 1:25.5 2:0.12397971 3:1.5245168 
-8.765816780680472 1:25.5 2:0.30344864 3:1.5245168 
-10 1:25.5 2:0.48291757 3:1.5245168 
-10 1:25.5 2:0.66238649 3:1.5245168 
10 1:25.5 2:0.89952547 3:1.2578414 
10 1:25.5 2:1.0170423 3:1.1221988 
10 1:25.5 2:1.1345591 3:0.98655632 
10 1:25.5 2:1.237876 3:0.84096713 
10 1:25.5 2:1.3252012 3:0.68417617 
10 1:25.5 2:1.4125264 3:0.52738522 
10 1:25.5 2:1.4803818 3:0.19175179 
10 1:25.5 2:1.4623005 3:0.013196025 
10 1:25.5 2:1.4442192 3:-0.16535974 
10 1:25.5 2:1.4261379 3:-0.34391551 
10 1:25.5 2:1.3306366 3:-0.49140588 
10 1:25.5 2:1.2202809 3:-0.63293577 
10 1:25.5 2:1.1099252 3:-0.77446567 
10 1:25.5 2:0.99956947 3:-0.91599556 
10 1:25.5 2:0.88696199 3:-1.0549783 
10 1:25.5 2:0.73296646 3:-1.1471438 
10 1:25.5 2:0.56445447 3:-1.193518 
10 1:25.5 2:0.38548567 3:-1.206907 
10 1:25.5 2:0.20651687 3:-1.220296 
-10 1:25.5 2:-0.15142072 3:-1.247074 
-10 1:25.5 2:-0.33006705 3:-1.2430708 
-10 1:25.5 2:-0.50841653 3:-1.2230568 
-10 1:25.5 2:-0.68676601 3:-1.2030428 
-10 1:25.5 2:-0.84750847 3:-1.1623559 
-10 1:25.5 2:-0.89565437 3:-0.98946554 
-10 1:25.5 2:-0.94380027 3:-0.81657521 
10 1:26 2:-1.1058513 3:0.049951875 
10 1:26 2:-1.0270013 3:0.21209579 
10 1:26 2:-0.94815122 3:0.3742397 
10 1:26 2:-0.86532846 3:0.53399458 
10 1:26 2:-0.75907444 3:0.67965878 
10 1:26 2:-0.65282041 3:0.82532298 
10 1:26 2:-0.54656638 3:0.97098719 
10 1:26 2:-0.4000246 3:1.0718176 
10 1:26 2:-0.2438719 3:1.1619525 
10 1:26 2:-0.087719206 3:1.2520875 
10 1:26 2:0.068433493 3:1.3422225 
10 1:26 2:0.22458619 3:1.4323575 
-10 1:26 2:0.38073889 3:1.5224924 
-10 1:26 2:0.55178125 3:1.5425009 
-10 1:26 2:0.73108671 3:1.5235924 
-10 1:26 2:0.91039216 3:1.5046839 
-10 1:26 2:1.0896976 3:1.4857754 
-10 1:26 2:1.1607575 3:1.3231149 
-10 1:26 2:1.2284743 3:1.1560149 
-10 1:26 2:1.2961911 3:0.98891494 
10 1:26 2:1.3645026 3:0.63907527 
10 1:26 2:1.3776196 3:0.45925335 
10 1:26 2:1.3907366 3:0.27943144 
10 1:26 2:1.3936922 3:0.099650456 
10 1:26 2:1.3791268 3:-0.08005994 
10 1:26 2:1.3645614 3:-0.25977034 
10 1:26 2:1.3499959 3:-0.43948073 
10 1:26 2:1.3354305 3:-0.61919113 
10 1:26 2:1.3208651 3:-0.79890152 
-10 1:26 2:1.3062997 3:-0.97861192 
-10 1:26 2:1.2276738 3:-1.1085282 
-10 1:26 2:1.0571132 3:-1.1669838 
-10 1:26 2:0.88655255 3:-1.2254394 
-10 1:26 2:0.71599195 3:-1.283895 
-10 1:26 2:0.54543134 3:-1.3423506 
-10 1:26 2:0.36889387 3:-1.3724626 
-10 1:26 2:0.18925238 3:-1.3878546 
-10 1:26 2:0.0096108869 3:-1.4032465 
-10 1:26 2:-0.1700306 3:-1.4186385 
-10 1:26 2:-0.34452802 3:-1.4160261 
-10 1:26 2:-0.48892243 3:-1.3080528 
-10 1:26 2:-0.63331684 3:-1.2000795 
-10 1:26 2:-0.77771124 3:-1.0921062 
-10 1:26 2:-0.89843353 3:-0.96653639 
10 1:26 2:-1.083698 3:-0.45835708 
10 1:26 2:-1.1341997 3:-0.28527456 
-10 1:26.5 2:-1.4270306 3:-0.27334308 
-10 1:26.5 2:-1.3578881 3:-0.10123609 
-10 1:26.5 2:-1.2887455 3:0.070870907 
-10 1:26.5 2:-0.94303277 3:0.93140587 
-10 1:26.5 2:-0.51158109 3:1.2797747 
-10 1:26.5 2:-0.36576143 3:1.3943964 
-10 1:26.5 2:-0.20303578 3:1.4693436 
-10 1:26.5 2:-0.019359966 3:1.4951255 
-10 1:26.5 2:0.16431584 3:1.5209074 
-10 1:26.5 2:0.34971965 3:1.5219473 
-10 1:26.5 2:0.53519609 3:1.5219473 
-10 1:26.5 2:0.72067253 3:1.5219473 
-10 1:26.5 2:0.90614897 3:1.5219473 
-10 1:26.5 2:1.0459253 3:1.4357134 
-10 1:26.5 2:1.1500627 3:1.2822309 
-10 1:26.5 2:1.2530924 3:1.1280941 
-10 1:26.5 2:1.3372112 3:0.96278974 
-10 1:26.5 2:1.4213301 3:0.7974854 
-10 1:26.5 2:1.505449 3:0.63218106 
-10 1:26.5 2:1.544507 3:0.45551835 
10 1:26.5 2:1.5530851 3:0.08466467 
10 1:26.5 2:1.5573741 3:-0.10076217 
-10 1:26.5 2:1.5702412 3:-0.65704269 
-10 1:26.5 2:1.5745302 3:-0.84246953 
-10 1:26.5 2:1.4209986 3:-0.93924472 
-10 1:26.5 2:1.2604151 3:-1.0320586 
-10 1:26.5 2:1.0998315 3:-1.1248725 
10 1:26.5 2:0.7645465 3:-1.059414 
10 1:26.5 2:0.58479115 3:-1.0174561 
10 1:26.5 2:0.40220545 3:-0.98483749 
10 1:26.5 2:0.21961975 3:-0.95221892 
10 1:26.5 2:0.03703405 3:-0.91960035 
10 1:26.5 2:-0.147992 3:-0.91451821 
10 1:26.5 2:-0.33346843 3:-0.91451821 
10 1:26.5 2:-0.51783489 3:-0.91120876 
10 1:26.5 2:-0.66580177 3:-0.79937267 
10 1:26.5 2:-0.81376865 3:-0.68753658 
10 1:26.5 2:-0.96195498 3:-0.57599452 
10 1:26.5 2:-1.1112681 3:-0.46596226 
-10 1:26.5 2:-1.263004 3:-0.35941499 
-10 1:27 2:-1.4688093 3:-0.37164707 
-10 1:27 2:-1.4409318 3:-0.1816665 
-10 1:27 2:-1.4130543 3:0.0083140774 
-10 1:27 2:-1.3851768 3:0.19829465 
-10 1:27 2:-1.3572993 3:0.38827523 
-10 1:27 2:-1.3294218 3:0.5782558 
-10 1:27 2:-1.3015443 3:0.76823638 
-10 1:27 2:-1.2736668 3:0.95821695 
-10 1:27 2:-1.2184048 3:1.1243645 
-10 1:27 2:-1.0340901 3:1.1781963 
-10 1:27 2:-0.84977539 3:1.2320281 
-10 1:27 2:-0.66227654 3:1.2636 
10 1:27 2:-0.27824647 3:1.2636 
10 1:27 2:-0.086231434 3:1.2636 
10 1:27 2:0.095007538 3:1.2138289 
10 1:27 2:0.26982628 3:1.1344049 
10 1:27 2:0.45402586 3:1.08283 
10 1:27 2:0.64128198 3:1.0408729 
10 1:27 2:0.83006409 3:1.0759598 
10 1:27 2:1.0188462 3:1.1110466 
4.756114822069585 1:27 2:1.1998056 3:1.0554644 
-10 1:27 2:1.3797884 3:0.98856156 
-10 1:27 2:1.4892429 3:0.84817033 
-10 1:27 2:1.5634849 3:0.67108873 
-10 1:27 2:1.637727 3:0.49400714 
-10 1:27 2:1.6506687 3:0.30622768 
-10 1:27 2:1.6407954 3:0.11446665 
-10 1:27 2:1.6309222 3:-0.077294383 
-10 1:27 2:1.6210489 3:-0.26905541 
-10 1:27 2:1.6111757 3:-0.46081644 
-10 1:27 2:1.6013024 3:-0.65257747 
-10 1:27 2:1.5914292 3:-0.84433851 
-10 1:27 2:1.5198728 3:-0.99130563 
-10 1:27 2:1.3405796 3:-1.0600349 
-10 1:27 2:1.1612864 3:-1.1287642 
-10 1:27 2:0.98079743 3:-1.1854123 
-10 1:27 2:0.7915099 3:-1.1531632 
10 1:27 2:0.4107125 3:-1.1149412 
10 1:27 2:0.21869746 3:-1.1149412 
10 1:27 2:0.026682427 3:-1.1149412 
10 1:27 2:-0.16533261 3:-1.1149412 
10 1:27 2:-0.52306664 3:-1.0237541 
10 1:27 2:-0.68559767 3:-0.92151206 
10 1:27 2:-0.8481287 3:-0.81927 
0.5638187026996788 1:27 2:-1.0173289 3:-0.7288765 
-10 1:27 2:-1.3201686 3:-0.4932025 
-10 1:27.5 2:-1.2760286 3:-0.6983912 
10 1:27.5 2:-1.2429758 3:-0.34950666 
10 1:27.5 2:-1.2264495 3:-0.17506439 
10 1:27.5 2:-1.2099231 3:-0.00062212284 
10 1:27.5 2:-1.1933967 3:0.17382015 
10 1:27.5 2:-1.1551351 3:0.34263534 
10 1:27.5 2:-1.0849354 3:0.503182 
10 1:27.5 2:-1.0147358 3:0.66372867 
10 1:27.5 2:-0.9445361 3:0.82427533 
-10 1:27.5 2:-0.79209009 3:1.1336364 
-10 1:27.5 2:-0.6334556 3:1.2080563 
-10 1:27.5 2:-0.47482111 3:1.2824762 
-0.4945274795841553 1:27.5 2:-0.31618662 3:1.3568962 
-10 1:27.5 2:-0.15755212 3:1.4313161 
10 1:27.5 2:0.36421252 3:1.4488364 
10 1:27.5 2:0.69831504 3:1.3828511 
10 1:27.5 2:0.85328045 3:1.3010651 
10 1:27.5 2:0.99682801 3:1.2032716 
10 1:27.5 2:1.1246117 3:1.0833777 
10 1:27.5 2:1.2332704 3:0.95158856 
10 1:27.5 2:1.2843145 3:0.78396481 
10 1:27.5 2:1.3353586 3:0.61634106 
10 1:27.5 2:1.3633834 3:0.44476618 
10 1:27.5 2:1.3711572 3:0.26971534 
10 1:27.5 2:1.3789309 3:0.09466451 
10 1:27.5 2:1.3867047 3:-0.080386325 
10 1:27.5 2:1.3944785 3:-0.25543716 
10 1:27.5 2:1.4022522 3:-0.43048799 
10 1:27.5 2:1.3408978 3:-0.58272013 
10 1:27.5 2:1.2304407 3:-0.71874384 
10 1:27.5 2:1.1199835 3:-0.85476755 
10 1:27.5 2:0.82009097 3:-0.98032754 
10 1:27.5 2:0.64574634 3:-0.99785396 
10 1:27.5 2:0.47140171 3:-1.0153804 
10 1:27.5 2:0.29690975 3:-1.0312993 
10 1:27.5 2:0.12228379 3:-1.0457562 
10 1:27.5 2:-0.052342169 3:-1.060213 
10 1:27.5 2:-0.22696813 3:-1.0746698 
-10 1:27.5 2:-0.57683111 3:-1.0887962 
-10 1:27.5 2:-0.75205447 3:-1.0887962 
-10 1:27.5 2:-0.92302931 3:-1.0580224 
-10 1:27.5 2:-1.0730452 3:-0.98406695 
-10 1:27.5 2:-1.1745369 3:-0.84122907 
10 1:28 2:-1.0705755 3:0.62570553 
10 1:28 2:-0.9563286 3:0.76720995 
10 1:28 2:-0.84208174 3:0.90871436 
10 1:28 2:-0.72783489 3:1.0502188 
6.911045341281717 1:28 2:0.068017618 3:1.437985 
10 1:28 2:0.2490654 3:1.4552345 
-10 1:28 2:1.1212941 3:1.2897489 
-10 1:28 2:1.213463 3:1.133755 
-1.845188201876346 1:28 2:1.3043194 3:0.97620833 
-10 1:28 2:1.392573 3:0.81779387 
10 1:28 2:1.436304 3:0.45669696 
10 1:28 2:1.4581695 3:0.2761485 
10 1:28 2:1.480035 3:0.095600048 
-10 1:28 2:1.5456315 3:-0.44604532 
-10 1:28 2:1.4893304 3:-0.61064329 
-10 1:28 2:1.398474 3:-0.76818998 
-10 1:28 2:1.3076176 3:-0.92573667 
-10 1:28 2:1.1520382 3:-0.99536559 
-10 1:28 2:0.9746138 3:-1.0353211 
-10 1:28 2:0.79718944 3:-1.0752765 
-10 1:28 2:0.61785906 3:-1.0980925 
3.477380015240506 1:28 2:0.25412374 3:-1.0980925 
10 1:28 2:0.072256087 3:-1.0980925 
10 1:28 2:-0.10961157 3:-1.0980925 
-10 1:28 2:-0.98531113 3:-0.91098486 
-10 1:28 2:-1.1358458 3:-0.81090707 
-10 1:28 2:-1.2818184 3:-0.7024274 
-10 1:28 2:-1.3230301 3:-0.52617481 
-10 1:28 2:-1.4012482 3:-0.1709491 
-10 1:28 2:-1.4403572 3:0.0066637596 
10 1:28 2:-1.1672924 3:0.47168709 
10 1:28.5 2:-1.2106224 3:-0.37558609 
10 1:28.5 2:-1.1814284 3:-0.20062725 
10 1:28.5 2:-1.1522344 3:-0.025668418 
10 1:28.5 2:-1.1230404 3:0.14929042 
10 1:28.5 2:-1.0938464 3:0.32424925 
10 1:28.5 2:-1.0646524 3:0.49920809 
10 1:28.5 2:-1.0354583 3:0.67416692 
10 1:28.5 2:-0.94906307 3:0.82402761 
10 1:28.5 2:-0.8400841 3:0.96397927 
-10 1:28.5 2:-0.62212614 3:1.2438826 
-10 1:28.5 2:-0.47486556 3:1.3378095 
-10 1:28.5 2:-0.3174043 3:1.4194724 
-10 1:28.5 2:-0.15994304 3:1.5011354 
-10 1:28.5 2:-0.002481782 3:1.5827983 
-10 1:28.5 2:0.15497948 3:1.6644612 
-10 1:28.5 2:0.32230965 3:1.6499775 
-10 1:28.5 2:0.49307722 3:1.6020054 
-10 1:28.5 2:0.66384478 3:1.5540333 
-10 1:28.5 2:0.83461235 3:1.5060612 
-10 1:28.5 2:0.99483295 3:1.4353048 
-10 1:28.5 2:1.1419062 3:1.3361467 
-10 1:28.5 2:1.249197 3:1.2098737 
-10 1:28.5 2:1.2877187 3:1.0367294 
5.89618828043134 1:28.5 2:1.4032836 3:0.51729634 
10 1:28.5 2:1.4264412 3:0.34188536 
10 1:28.5 2:1.4395597 3:0.16499333 
9.454429860810906 1:28.5 2:1.4526782 3:-0.0118987 
-10 1:28.5 2:1.4789152 3:-0.36568276 
-8.990042421830649 1:28.5 2:1.3799049 3:-0.51008363 
10 1:28.5 2:0.99075891 3:-0.82212035 
10 1:28.5 2:0.81641227 3:-0.85477205 
10 1:28.5 2:0.64206563 3:-0.88742374 
10 1:28.5 2:0.46771899 3:-0.92007543 
10 1:28.5 2:0.29445502 3:-0.95798438 
10 1:28.5 2:0.12139374 3:-0.99687755 
10 1:28.5 2:-0.051667537 3:-1.0357707 
10 1:28.5 2:-0.22606396 3:-1.0626338 
10 1:28.5 2:-0.40344176 3:-1.0626338 
-10 1:28.5 2:-0.75581597 3:-1.0411768 
-10 1:28.5 2:-0.92887725 3:-1.0022836 
-10 1:28.5 2:-1.0421694 3:-0.88035292 
6.343436879704484 1:28.5 2:-1.0983204 3:-0.71209731 
10 1:28.5 2:-1.1544714 3:-0.5438417 
-10 1:29 2:-1.2383012 3:-0.91749735 
-10 1:29 2:-1.0864765 3:-1.0095046 
-10 1:29 2:-0.93465177 3:-1.1015118 
-10 1:29 2:-0.78282704 3:-1.193519 
-10 1:29 2:-0.62334375 3:-1.2622396 
-10 1:29 2:-0.44654502 3:-1.2783109 
-10 1:29 2:-0.26974629 3:-1.2943821 
-10 1:29 2:-0.092947555 3:-1.3104534 
-10 1:29 2:0.083685099 3:-1.3228028 
-10 1:29 2:0.25834971 3:-1.2910483 
-10 1:29 2:0.43301433 3:-1.2592937 
-10 1:29 2:0.59004254 3:-1.1776143 
-10 1:29 2:0.74589632 3:-1.0926104 
-10 1:29 2:0.90175011 3:-1.0076064 
-10 1:29 2:1.0576039 3:-0.92260241 
-10 1:29 2:1.1713749 3:-0.78733363 
-10 1:29 2:1.2824571 3:-0.64885323 
-10 1:29 2:1.3935393 3:-0.51037283 
-10 1:29 2:1.5030952 3:-0.3713559 
-10 1:29 2:1.5030952 3:-0.19382822 
-10 1:29 2:1.5030952 3:-0.016300536 
-10 1:29 2:1.5030952 3:0.16122714 
-10 1:29 2:1.5030952 3:0.33875482 
-10 1:29 2:1.5030952 3:0.5162825 
-10 1:29 2:1.4855557 3:0.69247798 
-10 1:29 2:1.4587423 3:0.86796905 
-10 1:29 2:1.3909986 3:1.0164968 
-10 1:29 2:1.240342 3:1.1104046 
10 1:29 2:0.92752673 3:1.2629204 
10 1:29 2:0.75046661 3:1.2757964 
10 1:29 2:0.5734065 3:1.2886724 
10 1:29 2:0.39634638 3:1.3015484 
10 1:29 2:0.21928626 3:1.3144244 
10 1:29 2:0.042408718 3:1.3214992 
10 1:29 2:-0.13349133 3:1.2975149 
10 1:29 2:-0.30939139 3:1.2735305 
10 1:29 2:-0.46718238 3:1.2149447 
10 1:29 2:-0.57934093 3:1.0782076 
10 1:29 2:-0.67191843 3:0.92672994 
10 1:29 2:-0.76449594 3:0.77525228 
10 1:29 2:-0.83293815 3:0.61292173 
10 1:29 2:-0.88481903 3:0.44314408 
10 1:29 2:-0.93806761 3:0.2738163 
10 1:29 2:-0.99710068 3:0.10639117 
10 1:29 2:-1.0561338 3:-0.061033957 
10 1:29 2:-1.1151668 3:-0.22845908 
10 1:29 2:-1.1741999 3:-0.39588421 
-10 1:29 2:-1.2383012 3:-0.73996967 
10 1:29.5 2:-1.0453529 3:-0.72745452 
8.864790582536274 1:29.5 2:-1.1342905 3:-0.57080466 
-10 1:29.5 2:-1.3121658 3:-0.25750495 
-10 1:29.5 2:-1.4011034 3:-0.10085509 
-10 1:29.5 2:-1.490041 3:0.055794767 
-10 1:29.5 2:-1.4997305 3:0.22305655 
-10 1:29.5 2:-1.4551403 3:0.39758678 
-10 1:29.5 2:-1.4105502 3:0.57211701 
-10 1:29.5 2:-1.3659601 3:0.74664724 
-10 1:29.5 2:-1.3213699 3:0.92117746 
-10 1:29.5 2:-1.2229958 3:1.0548783 
-10 1:29.5 2:-1.0668752 3:1.1447418 
-10 1:29.5 2:-0.91075459 3:1.2346052 
-10 1:29.5 2:-0.75463401 3:1.3244687 
-10 1:29.5 2:-0.59851343 3:1.4143322 
-10 1:29.5 2:-0.44239284 3:1.5041956 
-10 1:29.5 2:-0.27959832 3:1.5690861 
10 1:29.5 2:0.26081052 3:1.5690861 
4.053874782077808 1:29.5 2:0.4409468 3:1.5690861 
10 1:29.5 2:0.58529717 3:1.4707325 
10 1:29.5 2:0.7233143 3:1.3549726 
10 1:29.5 2:0.86133142 3:1.2392127 
10 1:29.5 2:0.99821177 3:1.1221114 
10 1:29.5 2:1.1350445 3:1.0049539 
-10 1:29.5 2:1.2718773 3:0.88779639 
-10 1:29.5 2:1.3354767 3:0.73177567 
-10 1:29.5 2:1.4167719 3:0.015831282 
-10 1:29.5 2:1.4346288 3:-0.16260708 
10 1:29.5 2:1.2361623 3:-0.46056842 
10 1:29.5 2:1.0928188 3:-0.56966352 
10 1:29.5 2:0.94947542 3:-0.67875863 
10 1:29.5 2:0.80613199 3:-0.78785373 
10 1:29.5 2:0.64289765 3:-0.8552656 
10 1:29.5 2:0.46792099 3:-0.89807036 
10 1:29.5 2:0.29292686 3:-0.94080088 
10 1:29.5 2:0.11721481 3:-0.98047903 
10 1:29.5 2:-0.058497236 3:-1.0201572 
10 1:29.5 2:-0.23420929 3:-1.0598353 
10 1:29.5 2:-0.40992134 3:-1.0995135 
-10 1:29.5 2:-0.76934556 3:-1.1071217 
-10 1:29.5 2:-0.9118251 3:-1.0586346 
10 1:30 2:-1.180799 3:-0.1393302 
10 1:30 2:-1.1402681 3:0.033561291 
10 1:30 2:-1.0997371 3:0.20645278 
10 1:30 2:-1.0592062 3:0.37934427 
10 1:30 2:-1.0186753 3:0.55223576 
10 1:30 2:-0.77139144 3:0.98960621 
10 1:30 2:-0.6303193 3:1.097462 
10 1:30 2:-0.48924716 3:1.2053178 
10 1:30 2:-0.34817502 3:1.3131736 
10 1:30 2:-0.20710288 3:1.4210294 
3.356462391840344 1:30 2:-0.066030747 3:1.5288852 
-10 1:30 2:0.21611353 3:1.7445969 
-10 1:30 2:0.35718567 3:1.8524527 
-10 1:30 2:0.4982578 3:1.9603085 
-10 1:30 2:0.65243198 3:1.8722613 
-10 1:30 2:0.80661032 3:1.7841519 
-10 1:30 2:0.93746601 3:1.678297 
-10 1:30 2:0.98126752 3:1.506205 
-10 1:30 2:1.025069 3:1.3341131 
10 1:30 2:1.1126721 3:0.98992909 
10 1:30 2:1.1564736 3:0.8178371 
10 1:30 2:1.2002751 3:0.64574512 
10 1:30 2:1.2408712 3:0.47325161 
10 1:30 2:1.2408712 3:0.29567283 
10 1:30 2:1.2408712 3:0.11809405 
10 1:30 2:1.2365606 3:-0.059313566 
10 1:30 2:1.2224807 3:-0.23633328 
10 1:30 2:1.2084007 3:-0.41335299 
10 1:30 2:1.133263 3:-0.56109908 
10 1:30 2:1.0040637 3:-0.68292588 
10 1:30 2:0.87486441 3:-0.80475268 
10 1:30 2:0.74566513 3:-0.92657948 
9.031376768144792 1:30 2:0.61646585 3:-1.0484063 
10 1:30 2:0.43922991 3:-1.0492696 
10 1:30 2:0.26165113 3:-1.0492696 
10 1:30 2:0.08407235 3:-1.0492696 
10 1:30 2:-0.09350643 3:-1.0492696 
10 1:30 2:-0.27108521 3:-1.0492696 
10 1:30 2:-0.44622322 3:-1.0287886 
10 1:30 2:-0.61882866 3:-0.9870563 
10 1:30 2:-0.79143409 3:-0.94532398 
-10 1:30 2:-1.1107939 3:-0.83336446 
-10 1:30 2:-1.1476392 3:-0.6596502 
-10 1:30.5 2:-1.2214551 3:0 
10 1:30.5 2:-1.0800584 3:0.33162799 
10 1:30.5 2:-1.0093601 3:0.49744199 
10 1:30.5 2:-0.93866173 3:0.66325598 
-10 1:30.5 2:-0.7265667 3:1.160698 
-10 1:30.5 2:-0.65586836 3:1.326512 
-10 1:30.5 2:-0.58517002 3:1.492326 
-10 1:30.5 2:-0.50203111 3:1.6378537 
-10 1:30.5 2:-0.32218537 3:1.6256863 
-10 1:30.5 2:-0.14233963 3:1.6135188 
10 1:30.5 2:0.39719758 3:1.5770164 
10 1:30.5 2:0.54856347 3:1.4820218 
10 1:30.5 2:0.69597413 3:1.3788922 
10 1:30.5 2:0.81368263 3:1.2423739 
10 1:30.5 2:0.93139112 3:1.1058556 
10 1:30.5 2:1.034569 3:0.96048111 
10 1:30.5 2:1.1019634 3:0.79329698 
10 1:30.5 2:1.1693578 3:0.62611285 
10 1:30.5 2:1.2367522 3:0.45892872 
10 1:30.5 2:1.2962329 3:0.28995542 
10 1:30.5 2:1.3073134 3:0.11003944 
10 1:30.5 2:1.3183939 3:-0.069876539 
2.574136019798732 1:30.5 2:1.3294744 3:-0.24979252 
-10 1:30.5 2:1.3405549 3:-0.4297085 
-10 1:30.5 2:1.3412709 3:-0.60994333 
-10 1:30.5 2:1.3412709 3:-0.7902002 
-10 1:30.5 2:1.2077866 3:-0.88986044 
-10 1:30.5 2:1.0482667 3:-0.97380066 
-10 1:30.5 2:0.88874691 3:-1.0577409 
-10 1:30.5 2:0.72922707 3:-1.1416811 
-10 1:30.5 2:0.56970724 3:-1.2256213 
-10 1:30.5 2:0.39817922 3:-1.2609543 
-10 1:30.5 2:0.21792236 3:-1.2609543 
-10 1:30.5 2:0.037665495 3:-1.2609543 
-10 1:30.5 2:-0.14259137 3:-1.2609543 
-10 1:30.5 2:-0.32284823 3:-1.2609543 
-10 1:30.5 2:-0.50142484 3:-1.2515478 
-10 1:30.5 2:-0.67053435 3:-1.1891417 
-10 1:30.5 2:-0.83964386 3:-1.1267357 
-10 1:30.5 2:-0.99294457 3:-1.0506676 
-10 1:30.5 2:-1.0301856 3:-0.8742997 
10 1:30.5 2:-1.08167 3:-0.5191623 
10 1:30.5 2:-1.1125983 3:-0.34368639 
10 1:31 2:-1.1439471 3:-0.23085199 
10 1:31 2:-1.1439471 3:-0.053785133 
10 1:31 2:-1.1113427 3:0.1163686 
10 1:31 2:-1.0394861 3:0.2781997 
10 1:31 2:-0.96762954 3:0.4400308 
10 1:31 2:-0.89577297 3:0.6018619 
10 1:31 2:-0.82391639 3:0.763693 
10 1:31 2:-0.75205982 3:0.9255241 
10 1:31 2:-0.52097537 3:1.1714938 
10 1:31 2:-0.36865132 3:1.2617715 
10 1:31 2:-0.21632727 3:1.3520492 
10 1:31 2:-0.064003229 3:1.4423268 
-10 1:31 2:0.39296891 3:1.7131598 
-10 1:31 2:0.56540837 3:1.6837654 
-10 1:31 2:0.73887678 3:1.6482495 
-10 1:31 2:0.9123452 3:1.6127336 
-10 1:31 2:1.0427861 3:1.5328539 
-10 1:31 2:1.0835891 3:1.3605524 
6.187121041794982 1:31 2:1.1651951 3:1.0159495 
10 1:31 2:1.2059981 3:0.8436481 
10 1:31 2:1.2468011 3:0.67134666 
10 1:31 2:1.2785831 3:0.49725123 
10 1:31 2:1.3068072 3:0.32244829 
10 1:31 2:1.3350313 3:0.14764534 
10 1:31 2:1.3632555 3:-0.027157609 
-10 1:31 2:1.405245 3:-0.37873205 
-10 1:31 2:1.4247804 3:-0.55471795 
-10 1:31 2:1.3100553 3:-0.65234733 
10 1:31 2:0.98438534 3:-0.79145077 
10 1:31 2:0.82155036 3:-0.86100249 
10 1:31 2:0.65871538 3:-0.9305542 
10 1:31 2:0.4958804 3:-1.0001059 
10 1:31 2:0.33304542 3:-1.0696576 
10 1:31 2:0.17021044 3:-1.1392094 
-10 1:31 2:-0.15545952 3:-1.2783128 
-10 1:31 2:-0.31923901 3:-1.2871676 
-0.273193960697186 1:31 2:-0.46595694 3:-1.1880388 
10 1:31 2:-0.75939279 3:-0.98978116 
10 1:31 2:-0.88616075 3:-0.87237577 
10 1:31 2:-0.97208954 3:-0.71755679 
10 1:31 2:-1.0580183 3:-0.56273782 
10 1:31.5 2:-0.22994233 3:1.0896474 
10 1:31.5 2:-0.055890224 3:1.1544402 
10 1:31.5 2:0.11816188 3:1.2192331 
10 1:31.5 2:0.29221399 3:1.284026 
10 1:31.5 2:0.46626609 3:1.3488188 
10 1:31.5 2:0.64031819 3:1.4136117 
-10 1:31.5 2:0.98496282 3:1.5345369 
-10 1:31.5 2:1.0664696 3:1.367657 
-10 1:31.5 2:1.1479763 3:1.2007771 
-10 1:31.5 2:1.3924965 3:0.70013735 
-10 1:31.5 2:1.4681516 3:0.5316265 
-10 1:31.5 2:1.4847153 3:0.3466457 
-10 1:31.5 2:1.501279 3:0.16166491 
-10 1:31.5 2:1.5178427 3:-0.023315881 
-10 1:31.5 2:1.5344064 3:-0.20829667 
-10 1:31.5 2:1.5261814 3:-0.38721493 
-10 1:31.5 2:1.4261131 3:-0.54367132 
-10 1:31.5 2:1.3260449 3:-0.70012771 
-10 1:31.5 2:1.2259767 3:-0.8565841 
-10 1:31.5 2:1.1136924 3:-0.99885506 
-10 1:31.5 2:0.94412159 3:-1.0746046 
-10 1:31.5 2:0.7745508 3:-1.1503542 
-10 1:31.5 2:0.59263066 3:-1.1777114 
-10 1:31.5 2:0.40749786 3:-1.1924795 
-10 1:31.5 2:-0.14790054 3:-1.2367838 
-10 1:31.5 2:-0.33303334 3:-1.2515519 
-10 1:31.5 2:-0.51856843 3:-1.2562177 
-10 1:31.5 2:-0.70428932 3:-1.2562177 
-10 1:31.5 2:-0.81678501 3:-1.113689 
4.539538717087504 1:31.5 2:-1.0886299 3:-0.63495205 
10 1:31.5 2:-1.1417475 3:-0.45698923 
-10 1:31.5 2:-1.2479828 3:-0.10106359 
-10 1:31.5 2:-1.2802195 3:0.079948994 
-10 1:31.5 2:-1.2802195 3:0.26566989 
-10 1:31.5 2:-1.194187 3:0.42859955 
-10 1:31.5 2:-1.1022396 3:0.58996226 
-10 1:31.5 2:-1.0102922 3:0.75132498 
-10 1:31.5 2:-0.91834478 3:0.9126877 
-10 1:31.5 2:-0.82639738 3:1.0740504 
-10 1:31.5 2:-0.73444999 3:1.2354131 
-10 1:31.5 2:-0.57804654 3:1.2192331 
10 1:31.5 2:-0.40399443 3:1.1544402 
-10 1:32 2:-1.4712251 3:-0.72090381 
-10 1:32 2:-1.4231531 3:-0.54810697 
-10 1:32 2:-1.375081 3:-0.37531014 
-10 1:32 2:-1.327009 3:-0.20251331 
10 1:32 2:-1.1484873 3:0.30278627 
10 1:32 2:-1.0692235 3:0.46368041 
10 1:32 2:-0.96454101 3:0.60735158 
10 1:32 2:-0.84449449 3:0.7406126 
10 1:32 2:-0.72444796 3:0.87387362 
10 1:32 2:-0.60440144 3:1.0071346 
10 1:32 2:-0.48435492 3:1.1403957 
10 1:32 2:-0.35203905 3:1.2591313 
10 1:32 2:0.30397071 3:1.4706438 
10 1:32 2:0.48214826 3:1.4519433 
10 1:32 2:0.66008111 3:1.4293697 
-10 1:32 2:1.1505156 3:1.2452893 
-10 1:32 2:1.2719236 3:1.1132674 
-10 1:32 2:1.365151 3:0.96733707 
-10 1:32 2:1.3960969 3:0.79066783 
-10 1:32 2:1.5508263 3:-0.092678353 
-10 1:32 2:1.5817722 3:-0.26934759 
-10 1:32 2:1.4881852 3:-0.39423134 
5.47574670011709 1:32 2:1.3410941 3:-0.49686609 
10 1:32 2:1.1940031 3:-0.59950084 
10 1:32 2:1.046912 3:-0.70213558 
10 1:32 2:0.89982099 3:-0.80477033 
10 1:32 2:0.74107289 3:-0.87032751 
10 1:32 2:0.56838632 3:-0.91686616 
10 1:32 2:0.39625267 3:-0.96726136 
10 1:32 2:0.22411903 3:-1.0176566 
10 1:32 2:0.045060301 3:-1.0197512 
10 1:32 2:-0.13429874 3:-1.0197512 
10 1:32 2:-0.31300522 3:-1.0331568 
10 1:32 2:-0.49151624 3:-1.0505776 
2.349905421546155 1:32 2:-0.67002726 3:-1.0679983 
-10 1:32 2:-0.84931033 3:-1.0695591 
-10 1:32 2:-1.0068912 3:-0.99278793 
-10 1:32 2:-1.1616691 3:-0.90215989 
-10 1:32 2:-1.3164471 3:-0.81153185 
-10 1:32.5 2:-0.4191874 3:-1.248229 
-10 1:32.5 2:-0.24133369 3:-1.2742893 
-10 1:32.5 2:-0.063479982 3:-1.3003495 
-10 1:32.5 2:0.11437373 3:-1.3264098 
-10 1:32.5 2:0.29222743 3:-1.3524701 
-10 1:32.5 2:0.43994819 3:-1.2635885 
10 1:32.5 2:0.7243361 3:-1.0436617 
10 1:32.5 2:0.86653006 3:-0.93369823 
10 1:32.5 2:1.008724 3:-0.82373479 
10 1:32.5 2:1.1344641 3:-0.69548119 
10 1:32.5 2:1.2588036 3:-0.56567065 
10 1:32.5 2:1.383143 3:-0.43586011 
-10 1:32.5 2:1.5591133 3:-0.13604668 
-10 1:32.5 2:1.4088154 3:0.92908084 
-10 1:32.5 2:1.4088154 3:1.1088337 
-10 1:32.5 2:1.3115602 3:1.213457 
-10 1:32.5 2:1.1376339 3:1.2588518 
4.572435698116104 1:32.5 2:0.78978108 3:1.3496415 
10 1:32.5 2:0.61013761 3:1.3504935 
10 1:32.5 2:0.43038478 3:1.3504935 
10 1:32.5 2:0.25063195 3:1.3504935 
10 1:32.5 2:0.072671634 3:1.3322889 
10 1:32.5 2:-0.10362915 3:1.2972302 
10 1:32.5 2:-0.27992993 3:1.2621715 
10 1:32.5 2:-0.44937207 3:1.2072472 
-8.423385158283651 1:32.5 2:-1.0472203 3:0.81763938 
-10 1:32.5 2:-1.1477533 3:0.6756652 
10 1:32.5 2:-1.1917245 3:0.31969057 
10 1:32.5 2:-1.2100756 3:0.14087694 
10 1:32.5 2:-1.2284268 3:-0.037936696 
10 1:32.5 2:-1.1972757 3:-0.20999661 
10 1:32.5 2:-1.1316948 3:-0.37735917 
10 1:32.5 2:-1.0661139 3:-0.54472173 
10 1:32.5 2:-1.0006843 3:-0.71214108 
10 1:32.5 2:-0.93991906 3:-0.88131161 
10 1:33 2:0.519391 3:-0.87767071 
10 1:33 2:0.71110433 3:-0.84866415 
10 1:33 2:0.90281766 3:-0.81965759 
10 1:33 2:1.094531 3:-0.79065102 
10 1:33 2:1.2396825 3:-0.67964124 
10 1:33 2:1.3628254 3:-0.52987073 
-10 1:33 2:1.5838407 3:-0.22522862 
10 1:33 2:1.4176335 3:0.33220624 
10 1:33 2:1.3814481 3:0.52173629 
-10 1:33 2:1.3456296 3:0.90786912 
-10 1:33 2:1.3277203 3:1.1009355 
-10 1:33 2:1.2234035 3:1.2560475 
-10 1:33 2:1.0933427 3:1.3998514 
-10 1:33 2:0.96328184 3:1.5436553 
-10 1:33 2:0.80762647 3:1.641341 
-10 1:33 2:0.61678702 3:1.6756293 
-10 1:33 2:0.42594757 3:1.7099175 
-10 1:33 2:0.23510812 3:1.7442058 
-10 1:33 2:0.0449403 3:1.7612479 
-10 1:33 2:-0.14265458 3:1.712222 
-10 1:33 2:-0.33024947 3:1.6631961 
-10 1:33 2:-0.51784435 3:1.6141701 
-10 1:33 2:-0.69919854 3:1.5505413 
-10 1:33 2:-0.86428466 3:1.4488459 
-10 1:33 2:-1.0293708 3:1.3471505 
-10 1:33 2:-1.1944569 3:1.2454551 
-10 1:33 2:-1.3571184 3:1.1424055 
-10 1:33 2:-1.3571184 3:0.94851022 
-10 1:33 2:-1.3571184 3:0.75461494 
-10 1:33 2:-1.3577375 3:0.56074895 
-10 1:33 2:-1.3760502 3:0.36772039 
-8.032659210595531 1:33 2:-1.4493011 3:-0.40439388 
-10 1:33 2:-1.42297 3:-0.59203528 
-10 1:33 2:-1.3592661 3:-0.77516693 
10 1:33 2:-1.1697601 3:-0.781341 
10 1:33 2:-0.97586479 3:-0.781341 
10 1:33 2:-0.7819695 3:-0.781341 
10 1:33 2:-0.5979978 3:-0.83162738 
10 1:33 2:-0.41318878 3:-0.87767071 
10 1:33 2:-0.21929349 3:-0.87767071 
10 1:33 2:-0.025398202 3:-0.87767071 
10 1:33 2:0.16130234 3:-0.83150001 
10 1:33 2:0.34453009 3:-0.79389097 
-4.589929961741156 1:33.5 2:-1.3116488 3:0.62616831 
-10 1:33.5 2:-1.4464781 3:0.49691339 
-10 1:33.5 2:-1.4580359 3:0.3109903 
-10 1:33.5 2:-1.468356 3:0.12449828 
-10 1:33.5 2:-1.4786762 3:-0.061993743 
-10 1:33.5 2:-1.4889964 3:-0.24848576 
-10 1:33.5 2:-1.4993165 3:-0.43497778 
-10 1:33.5 2:-1.5096367 3:-0.6214698 
-10 1:33.5 2:-1.5199568 3:-0.80796182 
-10 1:33.5 2:-1.530277 3:-0.99445384 
-10 1:33.5 2:-1.3777307 3:-1.0893147 
-10 1:33.5 2:-1.2129802 3:-1.1773093 
-10 1:33.5 2:-1.0482297 3:-1.2653039 
-10 1:33.5 2:-0.87550598 3:-1.3289693 
-10 1:33.5 2:-0.69063028 3:-1.3555541 
-10 1:33.5 2:-0.50575457 3:-1.3821389 
-10 1:33.5 2:-0.32087887 3:-1.4087237 
-10 1:33.5 2:-0.13600316 3:-1.4353086 
-10 1:33.5 2:0.048872542 3:-1.4618934 
-10 1:33.5 2:0.23478903 3:-1.4739282 
-10 1:33.5 2:0.42156638 3:-1.4739282 
-10 1:33.5 2:0.60834373 3:-1.4739282 
-10 1:33.5 2:0.79512108 3:-1.4739282 
-10 1:33.5 2:0.98189843 3:-1.4739282 
-10 1:33.5 2:1.146324 3:-1.4393166 
-10 1:33.5 2:1.2231623 3:-1.2690766 
-10 1:33.5 2:1.3000007 3:-1.0988367 
-10 1:33.5 2:1.376839 3:-0.92859668 
-10 1:33.5 2:1.4536774 3:-0.75835671 
-10 1:33.5 2:1.4911452 3:-0.58419406 
10 1:33.5 2:1.4076702 3:-0.22008552 
10 1:33.5 2:1.3659326 3:-0.038031251 
10 1:33.5 2:1.3200121 3:0.14291552 
10 1:33.5 2:1.266194 3:0.32177131 
10 1:33.5 2:1.2092084 3:0.49795741 
10 1:33.5 2:1.0420496 3:0.58128627 
10 1:33.5 2:0.87489071 3:0.66461512 
10 1:33.5 2:0.69850294 3:0.7194818 
10 1:33.5 2:0.51425199 3:0.75009823 
10 1:33.5 2:0.33000104 3:0.78071466 
10 1:33.5 2:0.14536062 3:0.80661128 
10 1:33.5 2:-0.041416734 3:0.80661128 
10 1:33.5 2:-0.22504197 3:0.82732517 
10 1:33.5 2:-0.40336471 3:0.88288396 
10 1:33.5 2:-0.57164676 3:0.96035673 
7.61594126150195 1:33.5 2:-0.73016698 3:1.0591349 
