svm_type epsilon_svr
kernel_type rbf
gamma 0.1
nr_class 2
total_sv 20026
rho -5.95796
SV
10 1:0.53406101 2:-0.064905055 3:-1.007864 
10 1:0.51461646 2:0.10744229 3:-0.94852351 
10 1:0.4951719 2:0.27978963 3:-0.889183 
10 1:0.47572734 2:0.45213698 3:-0.82984248 
10 1:0.45628278 2:0.62448432 3:-0.77050196 
10 1:0.43682366 2:0.79774542 3:-0.71410993 
10 1:0.41732655 2:0.97339127 3:-0.66541296 
2.698666602657026 1:0.3518061 2:1.3792996 3:0.20136892 
10 1:0.34638198 2:1.3836895 3:0.38454725 
10 1:0.34095785 2:1.3880794 3:0.56772559 
-10 1:0.32998557 2:1.2583259 3:1.4670292 
-5.569697358060512 1:0.34428186 2:1.1030987 3:1.5321452 
-8.110906194494893 1:0.41460065 2:0.39150101 3:1.6544265 
-10 1:0.4340112 2:0.21156557 3:1.625281 
-10 1:0.45342175 2:0.031630127 3:1.5961355 
-10 1:0.4728323 2:-0.14830532 3:1.5669899 
-10 1:0.49224285 2:-0.32824076 3:1.5378444 
-10 1:0.51065146 2:-0.48807966 3:1.4689787 
-10 1:0.52755751 2:-0.61778079 3:1.3405466 
-10 1:0.54446356 2:-0.74748192 3:1.2121145 
-10 1:0.56136961 2:-0.87718305 3:1.0836825 
-10 1:0.57827566 2:-1.0068842 3:0.95525039 
-10 1:0.59360096 2:-1.1186343 3:0.81661519 
-10 1:0.60280611 2:-1.1608842 3:0.63847703 
-10 1:0.61201126 2:-1.2031342 3:0.46033888 
-10 1:0.62121641 2:-1.2453841 3:0.28220072 
-8.578451023347951 1:0.62789687 2:-1.2625322 3:0.10137724 
6.178626321146094 1:0.62840518 2:-0.99593246 3:-0.93418739 
10 1:0.60471109 2:-0.71624969 3:-1.1276027 
10 1:0.58721235 2:-0.53751361 3:-1.1643478 
10 1:0.5697136 2:-0.35877753 3:-1.2010929 
10 1:0.55192844 2:-0.20784753 3:-1.1212272 
10 1:0.98319677 2:0.42911295 3:0.98351592 
10 1:0.96100374 2:0.6206976 3:0.99390655 
10 1:0.93881072 2:0.81228225 3:1.0042972 
10 1:0.91661769 2:1.0038669 3:1.0146878 
10 1:0.89442466 2:1.1954515 3:1.0250784 
10 1:0.87406292 2:1.339408 3:0.92532177 
10 1:0.85449141 2:1.4628119 3:0.77803426 
-8.487462063896745 1:0.83491991 2:1.5862158 3:0.63074675 
-10 1:0.81946983 2:1.6704789 3:0.46929543 
-10 1:0.81320596 2:1.6675015 3:0.27627452 
-10 1:0.8069421 2:1.6645241 3:0.083253607 
-10 1:0.80067823 2:1.6615467 3:-0.1097673 
-10 1:0.79480631 2:1.6555119 3:-0.30185165 
-10 1:0.80169414 2:1.5499428 3:-0.46344653 
-10 1:0.80858196 2:1.4443737 3:-0.62504141 
-10 1:0.81546979 2:1.3388047 3:-0.78663629 
-10 1:0.82235761 2:1.2332356 3:-0.94823117 
-10 1:0.83786574 2:1.071423 3:-1.0514454 
-10 1:0.85366979 2:0.90767944 3:-1.1526554 
-10 1:0.86947385 2:0.74393591 3:-1.2538654 
-10 1:0.88527791 2:0.58019239 3:-1.3550754 
-10 1:0.90206979 2:0.41142702 3:-1.4447069 
-10 1:0.92199078 2:0.22675399 3:-1.4976616 
-10 1:0.94191177 2:0.042080948 3:-1.5506163 
-10 1:0.96183277 2:-0.14259209 3:-1.6035709 
-10 1:0.98286792 2:-0.33107608 3:-1.6371012 
-10 1:1.0045045 2:-0.5216174 3:-1.6601454 
-10 1:1.0261641 2:-0.70304686 3:-1.6512251 
-10 1:1.0479032 2:-0.85280617 3:-1.5312053 
-10 1:1.0696422 2:-1.0025655 3:-1.4111856 
-10 1:1.0849981 2:-1.0833739 3:-1.2406166 
-10 1:1.0990987 2:-1.1506216 3:-1.060106 
-10 1:1.1107136 2:-1.1951142 3:-0.87397465 
-10 1:1.1198865 2:-1.2172513 3:-0.68232137 
10 1:1.1382144 2:-1.2070342 3:-0.11237608 
10 1:1.1379005 2:-1.1505884 3:0.072337054 
10 1:1.1375865 2:-1.0941425 3:0.25705019 
10 1:1.1315187 2:-0.9950912 3:0.42018895 
10 1:1.1233548 2:-0.88051833 3:0.57546798 
10 1:1.1150634 2:-0.76516504 3:0.72971043 
10 1:1.0963327 2:-0.58585033 3:0.79899657 
10 1:1.077602 2:-0.40653562 3:0.8682827 
10 1:1.0600995 2:-0.2335297 3:0.95174022 
10 1:1.0447514 2:-0.072464678 3:1.0570569 
10 1:1.0295767 2:0.087616966 3:1.1640558 
10 1:1.014402 2:0.24769861 3:1.2710547 
10 1:0.99933763 2:0.39512107 3:1.3377925 
10 1:0.98494777 2:0.46514172 3:1.1583623 
10 1:1.4419738 2:-0.28496683 3:-1.0804444 
4.823314466309447 1:1.4516376 2:-0.098821136 3:-1.10047 
-10 1:1.4709653 2:0.27347025 3:-1.1405213 
-10 1:1.4828493 2:0.45171591 3:-1.0920959 
-10 1:1.4951476 2:0.62848744 3:-1.0308978 
-10 1:1.5074459 2:0.80525897 3:-0.96969965 
-10 1:1.5197442 2:0.9820305 3:-0.9085015 
10 1:1.5405339 2:1.1109572 3:-0.56008076 
10 1:1.5508889 2:1.1730681 3:-0.38350316 
10 1:1.5612439 2:1.235179 3:-0.20692557 
10 1:1.5719754 2:1.3085138 3:-0.036854773 
10 1:1.5843326 2:1.430314 3:0.10511932 
-10 1:1.607895 2:1.6461849 3:0.39943744 
-10 1:1.6298501 2:1.6477742 3:0.96141356 
-10 1:1.6366896 2:1.6400806 3:1.1482862 
-10 1:1.6427035 2:1.6182142 3:1.3343784 
-10 1:1.6487175 2:1.5963478 3:1.5204707 
-10 1:1.6484231 2:1.5034997 3:1.6467784 
-10 1:1.6404222 2:1.3239372 3:1.7000506 
-10 1:1.6324213 2:1.1443747 3:1.7533228 
-10 1:1.6244204 2:0.96481222 3:1.806595 
-10 1:1.6123099 2:0.78533311 3:1.7541269 
-10 1:1.6001875 2:0.60585424 3:1.7013536 
-10 1:1.5880651 2:0.42637538 3:1.6485804 
-10 1:1.5759428 2:0.24689651 3:1.5958071 
-10 1:1.5638204 2:0.06741764 3:1.5430338 
-10 1:1.551698 2:-0.11206123 3:1.4902605 
-10 1:1.5394382 2:-0.28080878 3:1.4184825 
10 1:1.5141302 2:-0.55673522 3:1.1658906 
10 1:1.5020004 2:-0.6700349 3:1.0175053 
10 1:1.4899387 2:-0.78013015 3:0.86624989 
10 1:1.4780957 2:-0.88301813 3:0.71022289 
10 1:1.4664691 2:-0.97877075 3:0.54947186 
10 1:1.4548426 2:-1.0745234 3:0.38872083 
10 1:1.4432161 2:-1.170276 3:0.22796979 
10 1:1.4332692 2:-1.2289035 3:0.056858062 
10 1:1.4259508 2:-1.2294333 3:-0.13046731 
10 1:1.4202837 2:-1.203363 3:-0.31370613 
10 1:1.4165618 2:-1.1459578 3:-0.49213096 
10 1:1.4191045 2:-1.0147198 3:-0.61600763 
10 1:1.4233023 2:-0.86358955 3:-0.72602967 
10 1:1.4258927 2:-0.73121583 3:-0.85031591 
10 1:1.434124 2:-0.5512364 3:-0.8982689 
10 1:1.4434192 2:-0.37372291 3:-0.91532352 
10 1:2.1185686 2:-0.24167119 3:-0.94196187 
10 1:2.1400666 2:-0.058519378 3:-0.93805004 
10 1:2.1615645 2:0.12463244 3:-0.9341382 
10 1:2.1799469 2:0.3037842 3:-0.9134416 
10 1:2.1865693 2:0.46783745 3:-0.82938967 
10 1:2.1931917 2:0.63189069 3:-0.74533773 
10 1:2.1998141 2:0.79594394 3:-0.6612858 
10 1:2.2064365 2:0.95999719 3:-0.57723387 
10 1:2.1986021 2:1.0698511 3:-0.44272953 
10 1:2.1811129 2:1.1435081 3:-0.2745308 
10 1:2.1636237 2:1.2171652 3:-0.10633207 
10 1:2.1461345 2:1.2908223 3:0.061866665 
10 1:2.1286452 2:1.3644794 3:0.2300654 
10 1:2.1108449 2:1.4363189 3:0.39884894 
10 1:2.0883557 2:1.4807697 3:0.57644516 
10 1:2.0658665 2:1.5252205 3:0.75404138 
-10 1:2.020888 2:1.614122 3:1.1092338 
-10 1:1.9852667 2:1.5064948 3:1.2534989 
-10 1:1.9494533 2:1.3966427 3:1.3972764 
-10 1:1.9137646 2:1.286196 3:1.539801 
-10 1:1.8933008 2:1.1031793 3:1.5293996 
10 1:1.8319095 2:0.55412935 3:1.4981954 
10 1:1.8114458 2:0.37111269 3:1.487794 
1.863661297587051 1:1.7756969 2:0.0099553717 3:1.4377272 
10 1:1.7631581 2:-0.16559953 3:1.3825429 
-10 1:1.7255418 2:-0.69226423 3:1.21699 
-10 1:1.713003 2:-0.86781914 3:1.1618057 
-10 1:1.7077768 2:-1.0181225 3:1.0794356 
-10 1:1.7261669 2:-1.0868748 3:0.90926814 
-10 1:1.7445571 2:-1.1556271 3:0.73910065 
-10 1:1.7997275 2:-1.361884 3:0.22859819 
-10 1:1.8181177 2:-1.4306363 3:0.058430703 
-10 1:1.8411402 2:-1.4681524 3:-0.11722824 
-10 1:1.8697024 2:-1.4683152 3:-0.299454 
-10 1:1.8982645 2:-1.468478 3:-0.48167977 
-10 1:1.9267984 2:-1.4654 3:-0.66123095 
-10 1:1.9537972 2:-1.2861648 3:-0.69540475 
-10 1:1.9807959 2:-1.1069295 3:-0.72957855 
10 1:2.0077947 2:-0.92769428 3:-0.76375235 
10 1:2.0326908 2:-0.74601988 3:-0.78264307 
10 1:2.057244 2:-0.56394766 3:-0.79904124 
10 1:2.0844058 2:-0.39081405 3:-0.83895042 
-10 1:2.4200309 2:0.012222575 3:-1.1673071 
-10 1:2.4377625 2:0.19648958 3:-1.128787 
-10 1:2.4554941 2:0.38075658 3:-1.0902669 
-10 1:2.4732257 2:0.56502359 3:-1.0517468 
-10 1:2.4909573 2:0.74929059 3:-1.0132267 
-10 1:2.5093788 2:0.91833588 3:-0.94682559 
-10 1:2.5294594 2:1.0507752 3:-0.81337469 
-10 1:2.5696205 2:1.3156538 3:-0.54647289 
10 1:2.6002843 2:1.3951985 3:-0.19811991 
10 1:2.6139523 2:1.4024988 3:-0.0096724905 
10 1:2.6276202 2:1.4097991 3:0.17877493 
10 1:2.6412881 2:1.4170994 3:0.36722235 
10 1:2.6549561 2:1.4243997 3:0.55566977 
10 1:2.6678134 2:1.4216635 3:0.74425624 
10 1:2.6805517 2:1.4174541 3:0.93286311 
-10 1:2.69329 2:1.4132448 3:1.12147 
-10 1:2.6948361 2:1.3144781 3:1.2601319 
-10 1:2.6898297 2:1.1603539 3:1.369554 
-10 1:2.6848233 2:1.0062297 3:1.4789761 
-10 1:2.6798169 2:0.85210545 3:1.5883982 
-10 1:2.6726141 2:0.69370257 3:1.6711954 
-10 1:2.6541477 2:0.5133586 3:1.6174592 
-10 1:2.6356812 2:0.33301462 3:1.563723 
10 1:2.5802819 2:-0.2080173 3:1.4025144 
10 1:2.5618155 2:-0.38836128 3:1.3487782 
-10 1:2.5263346 2:-0.75638376 3:1.2708797 
-10 1:2.5087833 2:-0.9413508 3:1.2357843 
-10 1:2.4912356 2:-1.1127767 3:1.1847858 
-10 1:2.4737164 2:-1.1769054 3:1.0077741 
-10 1:2.4561972 2:-1.2410341 3:0.8307625 
-10 1:2.4386781 2:-1.3051628 3:0.65375086 
-10 1:2.4223579 2:-1.3515308 3:0.47309899 
-5.05814839231587 1:2.4085842 2:-1.3601802 3:0.28471637 
-10 1:2.3810368 2:-1.3774791 3:-0.092048855 
-10 1:2.3672631 2:-1.3861286 3:-0.28043147 
-10 1:2.3586664 2:-1.3486376 3:-0.44854366 
-10 1:2.3621948 2:-1.2030803 3:-0.56918006 
8.915060012137156 1:2.3701136 2:-1.0382266 3:-0.6492563 
10 1:2.3825611 2:-0.85346892 3:-0.68749493 
10 1:2.3950086 2:-0.66871123 3:-0.72573356 
10 1:2.4074561 2:-0.48395354 3:-0.76397219 
10 1:2.4192884 2:-0.30087947 3:-0.80909601 
10 1:2.4303884 2:-0.11980965 3:-0.86241627 
10 1:2.4308814 2:-0.013706582 3:-0.98032455 
10 1:3.1175788 2:-0.46902376 3:-0.991513 
10 1:3.1028834 2:-0.28891511 3:-0.99242732 
10 1:3.0881879 2:-0.10880647 3:-0.99334163 
10 1:3.0734924 2:0.071302175 3:-0.99425595 
10 1:3.0587969 2:0.25141082 3:-0.99517027 
10 1:3.0441014 2:0.43151946 3:-0.99608459 
10 1:3.0278494 2:0.60819752 3:-0.97396722 
10 1:3.0096326 2:0.78054541 3:-0.92277863 
-10 1:2.973199 2:1.1252412 3:-0.82040143 
-6.927734031383181 1:2.9534647 2:1.237033 3:-0.68797063 
-10 1:2.8932729 2:1.53294 3:-0.23772708 
-10 1:2.8732089 2:1.6315757 3:-0.087645896 
-10 1:2.8559862 2:1.6875171 3:0.070700805 
-10 1:2.8449813 2:1.6500267 3:0.24713572 
-7.772237208433839 1:2.7971642 2:1.414761 3:1.0881199 
10 1:2.8060028 2:1.245631 3:1.1511503 
10 1:2.8148413 2:1.076501 3:1.2141808 
10 1:2.8240445 2:0.9064225 3:1.2736164 
10 1:2.8361726 2:0.72873597 3:1.3042158 
10 1:2.8483007 2:0.55104944 3:1.3348152 
10 1:2.8604287 2:0.37336291 3:1.3654146 
10 1:2.8725568 2:0.19567637 3:1.396014 
10 1:2.8847308 2:0.01792775 3:1.4261027 
-10 1:2.9117627 2:-0.34120487 3:1.4563798 
10 1:2.9501913 2:-0.61156752 3:1.2526192 
10 1:2.9707246 2:-0.73647505 3:1.1236525 
10 1:2.9912578 2:-0.86138258 3:0.99468578 
10 1:3.0117911 2:-0.98629012 3:0.86571908 
10 1:3.0323244 2:-1.1111976 3:0.73675238 
-10 1:3.10354 2:-1.3456995 3:0.0852646 
-10 1:3.1201761 2:-1.3759659 3:-0.092113803 
-10 1:3.1368122 2:-1.4062324 3:-0.26949221 
-10 1:3.1451511 2:-1.357875 3:-0.42368444 
-10 1:3.1455785 2:-1.2345475 3:-0.55576796 
-10 1:3.1460059 2:-1.11122 3:-0.68785149 
-10 1:3.1441902 2:-0.97665043 3:-0.80337818 
10 1:3.1267619 2:-0.63927971 3:-0.93164231 
10 1:3.5396674 2:-0.67942892 3:-0.9055091 
10 1:3.5560263 2:-0.53605086 3:-1.0181597 
-10 1:3.5887441 2:-0.24929473 3:-1.243461 
-10 1:3.6035109 2:-0.10144022 3:-1.333802 
-10 1:3.6082582 2:0.074587454 3:-1.2837344 
-10 1:3.6344786 2:0.95996362 3:-1.060681 
-10 1:3.6419861 2:1.1418116 3:-1.0409329 
-10 1:3.6380279 2:1.2513368 3:-0.92488509 
-10 1:3.6277737 2:1.3211494 3:-0.75595873 
-10 1:3.6175194 2:1.3909619 3:-0.58703238 
-10 1:3.6072652 2:1.4607744 3:-0.41810602 
-10 1:3.597011 2:1.5305869 3:-0.24917967 
-10 1:3.5867568 2:1.6003994 3:-0.080253313 
-10 1:3.5724777 2:1.6096285 3:0.1008091 
-10 1:3.5577341 2:1.6118668 3:0.28327188 
-10 1:3.5429905 2:1.6141051 3:0.46573466 
-10 1:3.5282469 2:1.6163435 3:0.64819744 
10 1:3.4983096 2:1.3185311 3:0.83254111 
10 1:3.4833219 2:1.1568384 3:0.91707456 
10 1:3.4683342 2:0.99514576 3:1.001608 
10 1:3.4536199 2:0.83104656 3:1.0813029 
10 1:3.4390803 2:0.66540847 3:1.1579036 
10 1:3.4245407 2:0.49977038 3:1.2345043 
10 1:3.4100011 2:0.33413228 3:1.3111051 
10 1:3.3954615 2:0.16849419 3:1.3877058 
10 1:3.3824178 2:-0.005666122 3:1.4406877 
-10 1:3.369861 2:-0.1826013 3:1.4859792 
-10 1:3.3573043 2:-0.35953647 3:1.5312707 
-10 1:3.3447476 2:-0.53647165 3:1.5765623 
-10 1:3.3476741 2:-0.67304945 3:1.4565311 
-10 1:3.3508369 2:-0.80901151 3:1.3339776 
-10 1:3.3567918 2:-0.91677782 3:1.1944894 
10 1:3.3810485 2:-1.007629 3:0.84062798 
10 1:3.3931768 2:-1.0530546 3:0.66369729 
10 1:3.4053052 2:-1.0984801 3:0.4867666 
10 1:3.4180748 2:-1.1332039 3:0.3085485 
10 1:3.4329594 2:-1.1326313 3:0.12608434 
10 1:3.447844 2:-1.1320587 3:-0.056379818 
10 1:3.4627286 2:-1.131486 3:-0.23884398 
6.578922956121792 1:3.4781302 2:-1.1196387 3:-0.42071606 
-10 1:3.4937747 2:-1.102493 3:-0.6023099 
10 1:3.5244204 2:-0.8384931 3:-0.81617175 
-10 1:3.8217285 2:-0.83884461 3:-1.0509389 
-10 1:3.8210775 2:-0.68407626 3:-1.1428986 
-10 1:3.8204265 2:-0.5293079 3:-1.2348582 
-10 1:3.8197755 2:-0.37453955 3:-1.3268179 
-10 1:3.8240542 2:-0.21386985 3:-1.3800601 
-10 1:3.8401731 2:-0.03902613 3:-1.3403096 
-10 1:3.856292 2:0.13581759 3:-1.3005592 
10 1:3.9089565 2:0.64488937 3:-1.1359637 
10 1:3.9281703 2:0.80862668 3:-1.0636368 
-9.015232463998025 1:3.9665978 2:1.1361013 3:-0.9189832 
-10 1:3.9876778 2:1.273775 3:-0.81619918 
-10 1:4.0115939 2:1.3718415 3:-0.66713132 
-10 1:4.03551 2:1.469908 3:-0.51806347 
-10 1:4.0594261 2:1.5679745 3:-0.36899562 
-10 1:4.0824559 2:1.6393972 3:-0.21260603 
-10 1:4.1027937 2:1.6299083 3:-0.033981906 
-10 1:4.1231316 2:1.6204195 3:0.14464222 
-10 1:4.1434695 2:1.6109307 3:0.32326634 
-10 1:4.1638074 2:1.6014418 3:0.50189046 
-10 1:4.1841452 2:1.591953 3:0.68051458 
-10 1:4.185194 2:1.4527814 3:0.76715593 
9.246521454595097 1:4.1820814 2:1.2856328 3:0.83395343 
10 1:4.1780988 2:1.1163325 3:0.8945372 
10 1:4.1729024 2:0.94403038 3:0.94645279 
10 1:4.1677059 2:0.77172828 3:0.99836837 
10 1:4.1625095 2:0.59942618 3:1.050284 
10 1:4.1575515 2:0.42794341 3:1.1037738 
10 1:4.161379 2:0.28665518 3:1.2152782 
10 1:4.1652065 2:0.14536695 3:1.3267826 
10 1:4.1575796 2:-0.02077782 3:1.3545471 
10 1:4.1440832 2:-0.19965963 3:1.3394014 
10 1:4.1305868 2:-0.37854143 3:1.3242557 
10 1:4.0949988 2:-0.69940885 3:1.2001121 
10 1:4.0491275 2:-0.94074387 3:0.94392508 
10 1:3.9812398 2:-1.1113522 3:0.46061948 
10 1:3.9605024 2:-1.1076615 3:0.28182748 
10 1:3.939765 2:-1.1039708 3:0.10303547 
10 1:3.9190275 2:-1.10028 3:-0.075756537 
10 1:3.8982901 2:-1.0965893 3:-0.25454854 
-10 1:3.8579501 2:-1.0732749 3:-0.61135669 
-10 1:3.8381308 2:-1.0566947 3:-0.78952103 
-10 1:3.8263174 2:-0.976481 3:-0.93498457 
-10 1:4.4162098 2:-0.99059051 3:-1.2787179 
-10 1:4.4251694 2:-0.88287794 3:-1.1258643 
10 1:4.4446858 2:-0.6537898 3:-0.84279472 
10 1:4.4626328 2:-0.46919355 3:-0.81732645 
10 1:4.4805798 2:-0.2845973 3:-0.79185818 
10 1:4.4985269 2:-0.10000106 3:-0.76638991 
10 1:4.5164739 2:0.084595192 3:-0.74092165 
10 1:4.5343831 2:0.26896529 3:-0.71403518 
10 1:4.5520987 2:0.45217952 3:-0.67990005 
10 1:4.5698143 2:0.63539376 3:-0.64576492 
10 1:4.5875299 2:0.81860799 3:-0.6116298 
10 1:4.6040554 2:0.9931472 3:-0.54707046 
10 1:4.6204129 2:1.1664612 3:-0.4782141 
10 1:4.6352768 2:1.3261158 3:-0.39613082 
10 1:4.6394717 2:1.388203 3:-0.21956898 
-10 1:4.6320716 2:1.4144375 3:0.69186436 
-10 1:4.6275122 2:1.388842 3:0.87725741 
-10 1:4.6229529 2:1.3632464 3:1.0626505 
-10 1:4.6183936 2:1.3376508 3:1.2480435 
-10 1:4.6125283 2:1.2970902 3:1.4177841 
-10 1:4.5940232 2:1.1116964 3:1.4360387 
-10 1:4.5755182 2:0.92630271 3:1.4542932 
-10 1:4.5570144 2:0.74089172 3:1.4722831 
-10 1:4.5385657 2:0.55468622 3:1.4780852 
-10 1:4.520117 2:0.36848073 3:1.4838873 
-10 1:4.5016683 2:0.18227524 3:1.4896895 
-10 1:4.4832196 2:-0.0039302455 3:1.4954916 
-10 1:4.4647709 2:-0.19013574 3:1.5012937 
-10 1:4.4471273 2:-0.37127837 3:1.4792556 
-10 1:4.4309271 2:-0.54334304 3:1.4072986 
-10 1:4.4147269 2:-0.71540771 3:1.3353417 
-10 1:4.3985268 2:-0.88747237 3:1.2633847 
-10 1:4.389765 2:-0.98972291 3:1.1416883 
-10 1:4.3907535 2:-1.0004588 3:0.95479188 
10 1:4.3927307 2:-1.0219307 3:0.58099907 
10 1:4.3937193 2:-1.0326666 3:0.39410266 
10 1:4.3947079 2:-1.0434026 3:0.20720626 
10 1:4.3963978 2:-1.0469909 3:0.020714169 
10 1:4.4014959 2:-1.0158421 3:-0.16381297 
10 1:4.406594 2:-0.98469332 3:-0.34834011 
10 1:4.4116922 2:-0.95354452 3:-0.53286725 
-10 1:4.414869 2:-0.96271989 3:-0.90534487 
-10 1:4.4155394 2:-0.9766552 3:-1.0920314 
-10 1:4.8463179 2:-1.1979059 3:-0.023833916 
10 1:4.8166448 2:-0.99956213 3:-0.51875364 
10 1:4.8067537 2:-0.93344753 3:-0.68372689 
-7.190452879150073 1:4.7883692 2:-0.79477885 3:-1.0083737 
-10 1:4.8129167 2:-0.34659913 3:-1.2976809 
-10 1:4.8210992 2:-0.19720588 3:-1.3941167 
-10 1:4.8292817 2:-0.047812641 3:-1.4905524 
-10 1:4.8374643 2:0.1015806 3:-1.5869881 
-10 1:4.8628974 2:0.2723878 3:-1.5517324 
-10 1:4.8889217 2:0.44392885 3:-1.5119637 
-10 1:4.9149459 2:0.61546989 3:-1.472195 
-10 1:4.9419589 2:0.76316491 3:-1.3962639 
-10 1:4.9707499 2:0.86797628 3:-1.2553001 
-10 1:4.9995409 2:0.97278765 3:-1.1143363 
-10 1:5.0283319 2:1.077599 3:-0.97337244 
-10 1:5.0571229 2:1.1824104 3:-0.83240862 
10 1:5.1062434 2:1.2747604 3:-0.49322822 
10 1:5.1306166 2:1.3183439 3:-0.32237279 
10 1:5.1549377 2:1.3614759 3:-0.15147367 
10 1:5.1725738 2:1.3466768 3:0.025034398 
10 1:5.1902099 2:1.3318776 3:0.20154247 
10 1:5.207846 2:1.3170785 3:0.37805053 
10 1:5.2254821 2:1.3022793 3:0.5545586 
10 1:5.2340964 2:1.2389964 3:0.70474539 
10 1:5.2281307 2:1.0973585 3:0.81239426 
10 1:5.2221651 2:0.95572069 3:0.92004313 
10 1:5.2161994 2:0.81408286 3:1.027692 
10 1:5.2102337 2:0.67244503 3:1.1353409 
10 1:5.2038205 2:0.52928463 3:1.2406772 
10 1:5.1943707 2:0.3757925 3:1.330321 
10 1:5.184921 2:0.22230038 3:1.4199648 
-10 1:5.1754712 2:0.068808248 3:1.5096086 
-10 1:5.0423752 2:-0.75257414 3:1.2423905 
-10 1:5.0151464 2:-0.8900894 3:1.1528885 
-10 1:4.9887549 2:-0.95655798 3:0.98988375 
-10 1:4.9623634 2:-1.0230265 3:0.82687896 
-10 1:4.9359719 2:-1.0894951 3:0.66387417 
-10 1:4.9095804 2:-1.1559637 3:0.50086938 
-10 1:4.886844 2:-1.1862619 3:0.32966662 
-10 1:4.866581 2:-1.1920839 3:0.15291635 
-10 1:5.6258251 2:-1.1680315 3:-0.43027965 
10 1:5.5713076 2:-0.95284752 3:-0.73933922 
10 1:5.5440488 2:-0.84525555 3:-0.893869 
10 1:5.4680212 2:-0.41934964 3:-1.110559 
10 1:5.4451308 2:-0.23339224 3:-1.0774772 
10 1:5.4222403 2:-0.047434852 3:-1.0443955 
10 1:5.3931387 2:0.13250214 3:-1.0985359 
10 1:5.3640023 2:0.31240533 3:-1.1531659 
-3.313538016872438 1:5.2949159 2:0.85256711 3:-1.0892301 
-10 1:5.2748275 2:1.0326936 3:-1.0313558 
-10 1:5.2693355 2:1.1452419 3:-0.90770983 
10 1:5.2924302 2:1.2995498 3:-0.35868702 
10 1:5.3017758 2:1.3405021 3:-0.17312277 
10 1:5.3111213 2:1.3814545 3:0.01244149 
10 1:5.3214684 2:1.4149541 3:0.19772246 
10 1:5.3431385 2:1.3641952 3:0.37980066 
10 1:5.3648085 2:1.3134363 3:0.56187886 
10 1:5.3864786 2:1.2626774 3:0.74395706 
10 1:5.4081486 2:1.2119185 3:0.92603526 
-10 1:5.4597218 2:1.0296231 3:1.2546269 
-10 1:5.4859957 2:0.93369396 3:1.4168175 
-10 1:5.5118079 2:0.77791967 3:1.4713526 
-10 1:5.5373677 2:0.5894345 3:1.467044 
10 1:5.5884874 2:0.21246417 3:1.4584268 
10 1:5.6140472 2:0.023979001 3:1.4541182 
2.682644588981463 1:5.639607 2:-0.16450617 3:1.4498096 
-10 1:5.6856484 2:-0.5340073 3:1.3909845 
-10 1:5.7060515 2:-0.71490788 3:1.3356923 
-10 1:5.7099375 2:-0.819249 3:1.206123 
10 1:5.6938186 2:-0.91758009 3:0.8388904 
10 1:5.6860339 2:-0.96847649 3:0.65573068 
10 1:5.6782492 2:-1.0193729 3:0.47257097 
10 1:5.6704645 2:-1.0702693 3:0.28941125 
10 1:5.6626798 2:-1.1211657 3:0.10625153 
-10 1:5.6471105 2:-1.2229584 3:-0.26006791 
-10 1:5.6393258 2:-1.2738548 3:-0.44322763 
-10 1:5.6315411 2:-1.3247512 3:-0.62638735 
-10 1:5.6276323 2:-1.27396 3:-0.5883126 
-10 1:5.9465574 2:-0.90662594 3:-1.0324175 
10 1:5.9331392 2:-0.55205336 3:-1.0804163 
10 1:5.9264301 2:-0.37476707 3:-1.1044157 
10 1:5.919721 2:-0.19748078 3:-1.1284151 
10 1:5.9130343 2:-0.020156138 3:-1.1521055 
10 1:5.9066792 2:0.15773562 3:-1.1712248 
-10 1:5.893969 2:0.51351912 3:-1.2094635 
-10 1:5.8927737 2:0.66809517 3:-1.1691207 
10 1:5.9067912 2:0.90310143 3:-0.8993408 
10 1:5.9137999 2:1.0206046 3:-0.76445083 
10 1:5.9208086 2:1.1381077 3:-0.62956086 
-10 1:5.9593182 2:1.4656198 3:-0.0038141893 
-10 1:5.9713829 2:1.4999752 3:0.16746672 
-7.516537343135882 1:5.9851615 2:1.4914829 3:0.34576267 
-10 1:5.99894 2:1.4829906 3:0.52405862 
-10 1:6.0127185 2:1.4744983 3:0.70235457 
-10 1:6.0264971 2:1.466006 3:0.88065052 
-10 1:6.0402756 2:1.4575137 3:1.0589465 
-10 1:6.0511076 2:1.3050239 3:1.1462137 
-10 1:6.0618314 2:1.1472496 3:1.2301403 
-10 1:6.0725552 2:0.98947526 3:1.3140669 
-10 1:6.083279 2:0.83170094 3:1.3979936 
-10 1:6.1133416 2:0.13399111 3:1.5406087 
-10 1:6.1192909 2:-0.041990834 3:1.5550789 
-10 1:6.1211768 2:-0.21680051 3:1.5164858 
-10 1:6.1230627 2:-0.39161019 3:1.4778926 
-10 1:6.1249487 2:-0.56641987 3:1.4392995 
-10 1:6.1268346 2:-0.74122955 3:1.4007063 
-10 1:6.1172756 2:-0.80839602 3:1.2505076 
10 1:6.0935284 2:-0.89918834 3:0.90496671 
10 1:6.0816548 2:-0.94458449 3:0.73219629 
10 1:6.0697811 2:-0.98998065 3:0.55942587 
10 1:6.0572054 2:-1.0166517 3:0.38420618 
10 1:6.043686 2:-1.0181558 3:0.20569462 
10 1:6.0301665 2:-1.0196599 3:0.027183066 
10 1:6.0166471 2:-1.0211641 3:-0.15132849 
10 1:6.0031277 2:-1.0226682 3:-0.32984005 
10 1:5.9891923 2:-1.0062054 3:-0.50730946 
10 1:5.9751403 2:-0.98470836 3:-0.68448686 
-10 1:6.3364149 2:-1.1647041 3:-1.056297 
-10 1:6.3372484 2:-0.99101968 3:-1.0829156 
-10 1:6.3380818 2:-0.81733529 3:-1.1095342 
9.217890119549018 1:6.3405822 2:-0.29628212 3:-1.1893899 
-10 1:6.3430825 2:0.22477105 3:-1.2692457 
-10 1:6.3542112 2:0.38509896 3:-1.2128552 
-10 1:6.3680185 2:0.54195185 3:-1.1348677 
-2.61235705408129 1:6.3818258 2:0.69880474 3:-1.0568803 
-10 1:6.395633 2:0.85565763 3:-0.97889286 
-10 1:6.4130005 2:0.98909472 3:-0.86861436 
-10 1:6.4317157 2:1.1136677 3:-0.74611203 
-10 1:6.4504309 2:1.2382407 3:-0.62360969 
-10 1:6.4691461 2:1.3628137 3:-0.50110735 
-10 1:6.4891657 2:1.4588419 3:-0.36296467 
-10 1:6.511853 2:1.4964988 3:-0.19283895 
-10 1:6.5345402 2:1.5341556 3:-0.022713227 
-10 1:6.555946 2:1.5198714 3:0.1473054 
10 1:6.6183019 2:1.4015796 3:0.65720575 
10 1:6.6310775 2:1.2815749 3:0.77994392 
10 1:6.6427168 2:1.1501399 3:0.89598223 
10 1:6.6527679 2:1.0124092 3:1.0008091 
10 1:6.6550977 2:0.84407039 3:1.0511294 
10 1:6.6574274 2:0.67573157 3:1.1014496 
10 1:6.6597571 2:0.50739276 3:1.1517699 
10 1:6.6620869 2:0.33905395 3:1.2020901 
10 1:6.6614466 2:0.16569604 3:1.2301563 
10 1:6.6606131 2:-0.0079883503 3:1.2567748 
10 1:6.6597797 2:-0.18167274 3:1.2833934 
10 1:6.6585401 2:-0.35553978 3:1.3068726 
10 1:6.6535454 2:-0.53109549 3:1.3013267 
10 1:6.6200136 2:-0.76977093 3:1.0847935 
10 1:6.5984871 2:-0.85187423 3:0.93221768 
10 1:6.576226 2:-0.9175555 3:0.77076824 
10 1:6.5539648 2:-0.98323678 3:0.60931879 
10 1:6.5317037 2:-1.0489181 3:0.44786935 
10 1:6.5094426 2:-1.1145993 3:0.28641991 
-6.448531719397662 1:6.4647189 2:-1.2270918 3:-0.041652651 
-10 1:6.4420374 2:-1.2533817 3:-0.21390219 
-10 1:6.4193558 2:-1.2796715 3:-0.38615172 
-10 1:6.3966743 2:-1.3059614 3:-0.55840126 
-10 1:6.3759087 2:-1.2780771 3:-0.72601103 
-10 1:6.3561618 2:-1.2213906 3:-0.89115403 
10 1:6.8841296 2:0.06391151 3:-0.98157132 
10 1:6.9112797 2:0.2441176 3:-0.97017702 
10 1:6.9384297 2:0.4243237 3:-0.95878272 
10 1:6.9655798 2:0.60452979 3:-0.94738842 
10 1:7.0575061 2:1.0284386 3:-0.7002169 
10 1:7.0911517 2:1.1362808 3:-0.55676228 
10 1:7.1247974 2:1.2441229 3:-0.41330766 
-10 1:7.2709365 2:1.5266209 3:0.41800405 
-10 1:7.2978668 2:1.5564199 3:0.59612752 
-10 1:7.3247971 2:1.5862188 3:0.77425099 
-10 1:7.3387172 2:1.5311927 3:0.94520178 
-10 1:7.3510666 2:1.4659252 3:1.1152866 
-10 1:7.3634159 2:1.4006578 3:1.2853714 
-10 1:7.3743558 2:1.3309798 3:1.4493267 
-10 1:7.3498225 2:1.1502993 3:1.4590142 
-10 1:7.3252891 2:0.96961873 3:1.4687018 
-10 1:7.3007558 2:0.78893819 3:1.4783893 
-10 1:7.2762225 2:0.60825765 3:1.4880768 
-3.834972813698387 1:7.2026225 2:0.066216021 3:1.5171394 
-10 1:7.1781112 2:-0.11445775 3:1.5269926 
-10 1:7.1538302 2:-0.29506084 3:1.5385748 
-10 1:7.1295491 2:-0.47566392 3:1.550157 
-10 1:7.0989505 2:-0.61315548 3:1.4638394 
-10 1:7.0650232 2:-0.72793194 3:1.3259391 
-10 1:7.0310959 2:-0.8427084 3:1.1880388 
-10 1:6.9971686 2:-0.95748486 3:1.0501385 
-10 1:6.9632413 2:-1.0722613 3:0.91223815 
-10 1:6.929314 2:-1.1870378 3:0.77433785 
-10 1:6.9033724 2:-1.2204116 3:0.60798351 
-10 1:6.881563 2:-1.2116649 3:0.42690609 
10 1:6.8161346 2:-1.1854247 3:-0.11632618 
10 1:6.7943251 2:-1.176678 3:-0.29740361 
10 1:6.7602394 2:-0.98529136 3:-0.77944827 
10 1:6.7699417 2:-0.8333561 3:-0.87341667 
10 1:6.7944751 2:-0.65267555 3:-0.88310421 
10 1:6.8190084 2:-0.47199501 3:-0.89279174 
10 1:6.8418724 2:-0.29252235 3:-0.91423634 
10 1:6.863001 2:-0.11430542 3:-0.94790383 
-10 1:7.431161 2:-1.184855 3:-0.66127424 
-10 1:7.4221421 2:-1.0701928 3:-0.79816778 
-10 1:7.4131233 2:-0.95553071 3:-0.93506133 
-10 1:7.4041045 2:-0.84086858 3:-1.0719549 
-10 1:7.3950856 2:-0.72620645 3:-1.2088484 
-10 1:7.3940527 2:-0.57878714 3:-1.2495331 
-10 1:7.3996124 2:-0.40432538 3:-1.2107934 
-9.741344105668434 1:7.4051721 2:-0.22986362 3:-1.1720536 
10 1:7.4162916 2:0.11905989 3:-1.094574 
10 1:7.4218513 2:0.29352165 3:-1.0558343 
10 1:7.4274111 2:0.46798341 3:-1.0170945 
-10 1:7.4321225 2:0.82483628 3:-1.0231865 
-10 1:7.4361074 2:0.99222042 3:-1.0033038 
-10 1:7.4483262 2:1.1090721 3:-0.86852625 
-10 1:7.4605449 2:1.2259237 3:-0.73374874 
-10 1:7.4727637 2:1.3427754 3:-0.59897124 
-10 1:7.4849825 2:1.4596271 3:-0.46419373 
-10 1:7.498705 2:1.4686873 3:-0.29007915 
-2.94587267640887 1:7.5125853 2:1.4664327 3:-0.11183539 
10 1:7.5403461 2:1.4619236 3:0.24465213 
10 1:7.5766393 2:1.3488254 3:0.7306718 
10 1:7.5838744 2:1.21444 3:0.84838671 
10 1:7.5911096 2:1.0800546 3:0.96610163 
10 1:7.5962762 2:0.93312667 3:1.0596517 
10 1:7.5969967 2:0.75923976 3:1.1012619 
10 1:7.5977171 2:0.58535285 3:1.1428721 
10 1:7.5984376 2:0.41146594 3:1.1844823 
10 1:7.5991581 2:0.23757902 3:1.2260925 
10 1:7.5998786 2:0.063692114 3:1.2677027 
10 1:7.5982523 2:-0.11413148 3:1.2799807 
10 1:7.5961095 2:-0.29282139 3:1.2858038 
-10 1:7.5979606 2:-0.63907356 3:1.3739947 
-10 1:7.5922106 2:-0.7575218 3:1.3223868 
-10 1:7.5781431 2:-0.80911188 3:1.1517727 
10 1:7.5500082 2:-0.91229204 3:0.81054464 
10 1:7.5359407 2:-0.96388212 3:0.63993058 
10 1:7.5218733 2:-1.0154722 3:0.46931653 
10 1:7.5078058 2:-1.0670623 3:0.29870247 
10 1:7.4937384 2:-1.1186524 3:0.12808841 
10 1:7.4796709 2:-1.1702424 3:-0.042525641 
-10 1:7.451536 2:-1.2734226 3:-0.38375375 
-10 1:7.4374685 2:-1.3250127 3:-0.55436781 
10 1:7.9942585 2:-0.28397342 3:-1.0613273 
-10 1:8.0136426 2:0.051137648 3:-1.1937673 
-10 1:8.0233346 2:0.21869318 3:-1.2599872 
-10 1:8.0330266 2:0.38624871 3:-1.3262072 
-10 1:8.0403261 2:0.52759104 3:-1.285814 
-10 1:8.0454646 2:0.64525887 3:-1.1491327 
-10 1:8.0506032 2:0.7629267 3:-1.0124515 
10 1:8.0608803 2:0.99826236 3:-0.73908907 
10 1:8.0660188 2:1.1159302 3:-0.60240785 
10 1:8.0711574 2:1.233598 3:-0.46572663 
10 1:8.0762959 2:1.3512658 3:-0.32904541 
-10 1:8.0814345 2:1.4689337 3:-0.19236419 
-10 1:8.0828379 2:1.5216155 3:-0.032624153 
10 1:8.0736477 2:1.4410932 3:0.49703052 
10 1:8.0690346 2:1.384813 3:0.6683931 
10 1:8.0644215 2:1.3285328 3:0.83975568 
-10 1:8.0551952 2:1.2159723 3:1.1824808 
-10 1:8.0460091 2:1.0601876 3:1.2632675 
-10 1:8.0171836 2:0.56526264 3:1.4805308 
-10 1:8.0075751 2:0.40028766 3:1.5529518 
-10 1:7.9979666 2:0.23531269 3:1.6253729 
-10 1:7.9886489 2:0.07002854 3:1.6640031 
-10 1:7.9802625 2:-0.096245363 3:1.5944579 
-10 1:7.971876 2:-0.26251927 3:1.5249127 
-10 1:7.9634896 2:-0.42879317 3:1.4553675 
-10 1:7.9551031 2:-0.59506707 3:1.3858223 
-10 1:7.9467167 2:-0.76134097 3:1.3162771 
-10 1:7.9396306 2:-0.90707719 3:1.2262723 
-10 1:7.93743 2:-0.97565168 3:1.0593994 
-10 1:7.9352294 2:-1.0442262 3:0.89252645 
-10 1:7.9330289 2:-1.1128006 3:0.72565351 
-10 1:7.9308283 2:-1.1813751 3:0.55878057 
-10 1:7.9286277 2:-1.2499496 3:0.39190764 
-10 1:7.928613 2:-1.2793869 3:0.21812979 
-10 1:7.9306523 2:-1.2720486 3:0.037863685 
-10 1:7.9326916 2:-1.2647104 3:-0.14240242 
-10 1:7.9347309 2:-1.2573721 3:-0.32266853 
-10 1:7.9398668 2:-1.1868545 3:-0.46662002 
10 1:7.9489797 2:-1.035192 3:-0.56393055 
10 1:7.9580927 2:-0.88352962 3:-0.66124109 
10 1:7.9671565 2:-0.73308656 3:-0.76041571 
10 1:7.9761905 2:-0.58338218 3:-0.86071956 
10 1:7.9852245 2:-0.4336778 3:-0.96102342 
-10 1:8.3920544 2:-0.7880586 3:-1.0795723 
-10 1:8.4042559 2:-0.61875955 3:-1.0443117 
10 1:8.4164574 2:-0.44946051 3:-1.009051 
10 1:8.4286589 2:-0.28016146 3:-0.97379039 
10 1:8.4408604 2:-0.11086241 3:-0.93852974 
10 1:8.453062 2:0.058436631 3:-0.90326909 
10 1:8.4652635 2:0.22773568 3:-0.86800844 
10 1:8.477465 2:0.39703472 3:-0.83274779 
10 1:8.4896665 2:0.56633377 3:-0.79748714 
10 1:8.501868 2:0.73563281 3:-0.76222649 
10 1:8.5137157 2:0.90631117 3:-0.73479043 
10 1:8.5253948 2:1.077647 3:-0.71108401 
-10 1:8.5370738 2:1.2489828 3:-0.68737759 
-10 1:8.5485141 2:1.3679762 3:-0.61132939 
-10 1:8.5595197 2:1.3916288 3:-0.43994156 
10 1:8.5815309 2:1.438934 3:-0.09716589 
10 1:8.5925365 2:1.4625865 3:0.074221944 
10 1:8.6035421 2:1.4862391 3:0.24560978 
-10 1:8.6255533 2:1.5335443 3:0.58838545 
-10 1:8.6365589 2:1.5571969 3:0.75977328 
-10 1:8.6357881 2:1.4334993 3:0.87976882 
-0.6871853989745594 1:8.6348472 2:1.3076735 3:0.99902211 
10 1:8.6284001 2:1.0249336 3:1.1894479 
10 1:8.6224283 2:0.86484887 3:1.255717 
10 1:8.6164566 2:0.70476418 3:1.321986 
10 1:8.6104848 2:0.54467948 3:1.3882551 
10 1:8.604513 2:0.38459478 3:1.4545241 
10 1:8.5968839 2:0.22601212 3:1.489505 
10 1:8.5831501 2:0.072961654 3:1.4092473 
10 1:8.5694164 2:-0.080088813 3:1.3289896 
10 1:8.5556826 2:-0.23313928 3:1.2487319 
10 1:8.5419489 2:-0.38618975 3:1.1684742 
10 1:8.5279485 2:-0.53140325 3:1.0749679 
10 1:8.5139167 2:-0.6756926 3:0.97989923 
10 1:8.4998849 2:-0.81998196 3:0.88483059 
10 1:8.485853 2:-0.96427132 3:0.78976195 
10 1:8.4628536 2:-1.0753011 3:0.49822405 
10 1:8.4527078 2:-1.0833498 3:0.32534653 
10 1:8.4425619 2:-1.0913985 3:0.15246901 
10 1:8.4324161 2:-1.0994473 3:-0.020408514 
10 1:8.4222703 2:-1.107496 3:-0.19328604 
10 1:8.4121244 2:-1.1155447 3:-0.36616356 
-9.987071958401735 1:8.4019786 2:-1.1235934 3:-0.53904108 
-10 1:8.3918328 2:-1.1316421 3:-0.7119186 
-10 1:8.389102 2:-1.0406767 3:-0.85917976 
-10 1:8.3874216 2:-0.94065724 3:-0.99743496 
-10 1:9.3074057 2:-0.89925657 3:-1.166526 
-10 1:9.2833327 2:-0.7223437 3:-1.1886593 
-10 1:9.2592596 2:-0.54543083 3:-1.2107926 
-10 1:9.2351866 2:-0.36851796 3:-1.2329259 
-10 1:9.2111135 2:-0.19160509 3:-1.2550592 
-10 1:9.1870405 2:-0.01469222 3:-1.2771925 
-10 1:9.15387 2:0.14806958 3:-1.2213626 
-10 1:9.118327 2:0.30714107 3:-1.1452015 
-10 1:9.0827841 2:0.46621255 3:-1.0690403 
10 1:9.0115059 2:0.78257726 3:-0.91349439 
10 1:8.9750997 2:0.93366227 3:-0.82285521 
5.666764833275239 1:8.9386935 2:1.0847473 3:-0.73221602 
-10 1:8.866061 2:1.3642561 3:-0.52803273 
10 1:8.811583 2:1.3934357 3:-0.18256923 
10 1:8.7864337 2:1.3894354 3:-0.0044707505 
10 1:8.7612844 2:1.3854352 3:0.17362773 
10 1:8.7361351 2:1.3814349 3:0.3517262 
10 1:8.7127456 2:1.3687432 3:0.52692285 
10 1:8.7088734 2:1.2596574 3:0.66993635 
10 1:8.7050013 2:1.1505716 3:0.81294986 
10 1:8.6946877 2:1.0689418 3:0.97122893 
10 1:8.6809572 2:1.001876 3:1.1376056 
-10 1:8.6582842 2:0.85130637 3:1.4547805 
-10 1:8.6723484 2:0.68881847 3:1.5307242 
-10 1:8.6864126 2:0.52633056 3:1.6066678 
-10 1:8.7165121 2:0.35459895 3:1.5816246 
10 1:8.8129379 2:-0.1641282 3:1.4679046 
10 1:8.8450798 2:-0.33703725 3:1.4299979 
10 1:9.0177134 2:-0.95816728 3:0.89864641 
10 1:9.0488435 2:-0.99808001 3:0.72600388 
10 1:9.0799737 2:-1.0379927 3:0.55336135 
10 1:9.1111039 2:-1.0779055 3:0.38071882 
10 1:9.1416914 2:-1.1138341 3:0.20758128 
10 1:9.1668408 2:-1.1098338 3:0.0294828 
10 1:9.1913487 2:-1.1019635 3:-0.14830661 
10 1:9.2118843 2:-1.0701239 3:-0.32418181 
10 1:9.2324199 2:-1.0382843 3:-0.50005701 
10 1:9.2458899 2:-0.97273012 3:-0.66302197 
10 1:9.2524095 2:-0.87401145 3:-0.81328733 
-10 1:9.2795081 2:-0.88451365 3:-0.98940479 
10 1:9.4915909 2:-0.2301225 3:-0.93929226 
10 1:9.4997409 2:-0.047509744 3:-0.9244608 
10 1:9.5078908 2:0.13510302 3:-0.90962933 
10 1:9.5160408 2:0.31771578 3:-0.89479786 
10 1:9.5241907 2:0.50032854 3:-0.8799664 
10 1:9.5323407 2:0.6829413 3:-0.86513493 
10 1:9.5404906 2:0.86555406 3:-0.85030347 
-10 1:9.5484217 2:1.0405553 3:-0.89587855 
-10 1:9.5558951 2:1.2084545 3:-0.87237998 
-10 1:9.5630134 2:1.3710926 3:-0.7898124 
-10 1:9.5642806 2:1.4074959 3:-0.61007088 
-10 1:9.5655479 2:1.4438991 3:-0.43032935 
-10 1:9.5650673 2:1.4823139 3:0.65849857 
-10 1:9.5625367 2:1.433801 3:0.8353429 
-10 1:9.5600061 2:1.3852882 3:1.0121872 
-10 1:9.5574755 2:1.3367754 3:1.1890316 
-10 1:9.5511097 2:1.1996061 3:1.2985267 
-10 1:9.5438823 2:1.0425156 3:1.3928884 
-10 1:9.5364746 2:0.88082109 3:1.4743917 
-10 1:9.5283027 2:0.69960586 3:1.5013746 
-10 1:9.4956151 2:-0.025255064 3:1.609306 
-10 1:9.4874554 2:-0.20670992 3:1.6249575 
-10 1:9.4793333 2:-0.38890424 3:1.6056423 
-10 1:9.4730019 2:-0.53499544 3:1.5004688 
-10 1:9.466916 2:-0.6761376 3:1.3835258 
-10 1:9.4609994 2:-0.81366103 3:1.2630433 
-7.407277914524336 1:9.4514107 2:-1.0407192 3:0.97514077 
-10 1:9.4466163 2:-1.1542483 3:0.83118949 
-10 1:9.4418219 2:-1.2677775 3:0.68723821 
-10 1:9.4380562 2:-1.3586093 3:0.53737379 
-10 1:9.439721 2:-1.3296169 3:0.35629237 
-10 1:9.4413857 2:-1.3006244 3:0.17521096 
-10 1:9.4431553 2:-1.2692739 3:-0.0054324631 
-2.861491266434044 1:9.4540066 2:-1.058476 3:-0.70228906 
0.7137561565796916 1:9.4673199 2:-0.77055844 3:-0.9082455 
10 1:9.4753246 2:-0.59392506 3:-0.95403291 
10 1:9.483502 2:-0.41178008 3:-0.96314407 
10 1:10.073708 2:-0.26356579 3:-1.0380791 
10 1:10.051655 2:-0.083226345 3:-1.0172598 
10 1:10.029601 2:0.097113097 3:-0.99644047 
10 1:10.007548 2:0.27745254 3:-0.97562116 
10 1:9.9854941 2:0.45779198 3:-0.95480185 
10 1:9.96325 2:0.63703314 3:-0.92621595 
10 1:9.9409974 2:0.81622492 3:-0.89728087 
-10 1:9.9187447 2:0.9954167 3:-0.86834579 
-10 1:9.8964921 2:1.1746085 3:-0.83941071 
-10 1:9.8742395 2:1.3538003 3:-0.81047563 
-10 1:9.8572713 2:1.4653157 3:-0.71667583 
-10 1:9.8454302 2:1.5035719 3:-0.53824274 
-10 1:9.833589 2:1.541828 3:-0.35980964 
-10 1:9.8217479 2:1.5800841 3:-0.18137655 
-10 1:9.8130316 2:1.5919877 3:-0.0036112451 
-3.842175358004023 1:9.8115168 2:1.5431606 3:0.17261511 
10 1:9.8084871 2:1.4455063 3:0.52506781 
10 1:9.8068791 2:1.3974028 3:0.70149038 
-10 1:9.8034479 2:1.3028691 3:1.0547892 
-10 1:9.8051569 2:1.2316367 3:1.2166706 
-10 1:9.8160629 2:1.0960462 3:1.3388934 
-10 1:9.8269688 2:0.96045578 3:1.4611161 
-10 1:9.8437209 2:0.79802553 3:1.5179508 
-10 1:9.8645963 2:0.61666545 3:1.5286678 
-10 1:9.9689039 2:-0.29000124 3:1.5835476 
-10 1:9.9888194 2:-0.46950142 3:1.6122735 
-10 1:10.008666 2:-0.62162682 3:1.5644982 
-10 1:10.028434 2:-0.74214052 3:1.4283813 
-10 1:10.048201 2:-0.86265422 3:1.2922645 
10 1:10.097528 2:-1.1138729 3:0.81126362 
10 1:10.121944 2:-1.1998836 3:0.46369487 
10 1:10.130276 2:-1.2068448 3:0.28114562 
10 1:10.134989 2:-1.1837224 3:0.10062333 
10 1:10.138536 2:-1.1509131 3:-0.079246279 
10 1:10.141078 2:-1.1103087 3:-0.25694461 
10 1:10.140441 2:-1.0450555 3:-0.42777706 
10 1:10.139803 2:-0.97980231 3:-0.5986095 
10 1:10.139165 2:-0.91454909 3:-0.76944194 
10 1:10.127934 2:-0.7773939 3:-0.88822837 
10 1:10.11269 2:-0.61875719 3:-0.97087757 
10 1:10.093022 2:-0.44132195 3:-0.9997145 
-10 1:10.491479 2:-0.077135402 3:-1.1249139 
-10 1:10.464507 2:0.10212454 3:-1.1050744 
-10 1:10.437534 2:0.28138448 3:-1.085235 
-10 1:10.411355 2:0.45717965 3:-1.0507218 
-10 1:10.313367 2:1.1308661 3:-0.78878451 
10 1:10.301055 2:1.251389 3:-0.45249794 
10 1:10.295989 2:1.3052169 3:-0.27833677 
10 1:10.290922 2:1.3590449 3:-0.10417559 
10 1:10.285856 2:1.4128728 3:0.069985582 
10 1:10.287781 2:1.4210415 3:0.24587557 
10 1:10.297062 2:1.381182 3:0.42358408 
10 1:10.306343 2:1.3413225 3:0.60129259 
10 1:10.315624 2:1.301463 3:0.7790011 
10 1:10.324905 2:1.2616035 3:0.95670961 
-0.7087503165017838 1:10.33691 2:1.2032012 3:1.1286909 
-10 1:10.349785 2:1.1388741 3:1.2988423 
-10 1:10.375097 2:0.97845648 3:1.34627 
10 1:10.402765 2:0.79983679 3:1.3704507 
10 1:10.430434 2:0.6212171 3:1.3946313 
10 1:10.458032 2:0.44209014 3:1.4106489 
10 1:10.485473 2:0.26182178 3:1.4082987 
10 1:10.512915 2:0.081553423 3:1.4059485 
10 1:10.540356 2:-0.098714937 3:1.4035983 
10 1:10.567246 2:-0.27759794 3:1.3823807 
10 1:10.594008 2:-0.45616054 3:1.3567994 
10 1:10.619311 2:-0.62835105 3:1.304171 
10 1:10.644246 2:-0.79893138 3:1.244708 
-10 1:10.66918 2:-0.96951171 3:1.185245 
-10 1:10.694115 2:-1.140092 3:1.125782 
-10 1:10.71905 2:-1.3106724 3:1.066319 
-10 1:10.716673 2:-1.3149564 3:0.89828255 
-10 1:10.710902 2:-1.2985717 3:0.71675165 
-10 1:10.707776 2:-1.2996094 3:0.53459829 
-10 1:10.7052 2:-1.3042633 3:0.35231574 
-7.287339604647271 1:10.700046 2:-1.3135711 3:-0.012249371 
-10 1:10.696113 2:-1.3092214 3:-0.19360675 
-10 1:10.686832 2:-1.2693619 3:-0.37131526 
-10 1:10.677551 2:-1.2295024 3:-0.54902377 
-10 1:10.663309 2:-1.1556406 3:-0.71436609 
-10 1:10.648105 2:-1.075182 3:-0.87730925 
-10 1:10.627185 2:-0.95242018 3:-0.99950911 
-10 1:10.601616 2:-0.79515583 3:-1.0878506 
-10 1:10.573952 2:-0.616716 3:-1.1133289 
-10 1:10.546361 2:-0.43767212 3:-1.1296142 
-10 1:10.51892 2:-0.25740376 3:-1.127264 
-10 1:10.997569 2:-0.58467447 3:-1.0578512 
10 1:10.945615 2:-0.23323052 3:-1.0222448 
10 1:10.919638 2:-0.057508551 3:-1.0044416 
10 1:10.893661 2:0.11821342 3:-0.98663844 
10 1:10.867727 2:0.29389739 3:-0.96841578 
10 1:10.841912 2:0.46947714 3:-0.94904304 
-10 1:10.790282 2:0.82063666 3:-0.91029755 
-10 1:10.764467 2:0.99621641 3:-0.89092481 
-10 1:10.747057 2:1.1512785 3:-0.81326043 
-10 1:10.732869 2:1.2984761 3:-0.71325274 
-10 1:10.736333 2:1.3629886 3:-0.56061767 
-5.126443617391987 1:10.747626 2:1.3908303 3:-0.38464244 
10 1:10.770211 2:1.4465138 3:-0.032691967 
-10 1:10.831478 2:1.4555387 3:0.67171158 
-10 1:10.856702 2:1.3843062 3:0.82961175 
-10 1:10.91246 2:1.199069 3:1.1297085 
-10 1:10.941102 2:1.0815891 3:1.2445054 
10 1:10.971411 2:0.90975042 3:1.2822255 
10 1:11.00172 2:0.73791171 3:1.3199456 
10 1:11.032028 2:0.56607299 3:1.3576657 
10 1:11.062337 2:0.39423428 3:1.3953857 
10 1:11.092646 2:0.22239557 3:1.4331058 
10 1:11.122955 2:0.050556852 3:1.4708259 
10 1:11.149668 2:-0.12511612 3:1.4613866 
10 1:11.175642 2:-0.30063887 3:1.4439018 
10 1:11.199282 2:-0.47330808 3:1.4052177 
10 1:11.222922 2:-0.6459773 3:1.3665336 
10 1:11.239497 2:-0.87441534 3:1.1501528 
10 1:11.235025 2:-0.94005846 3:0.98419815 
10 1:11.230553 2:-1.0057016 3:0.81824348 
10 1:11.226081 2:-1.0713447 3:0.65228881 
10 1:11.221609 2:-1.1369878 3:0.48633414 
10 1:11.217137 2:-1.202631 3:0.32037947 
10 1:11.210556 2:-1.2564743 3:0.15151591 
-10 1:11.185949 2:-1.3001553 3:-0.20198993 
-10 1:11.165424 2:-1.2644731 3:-0.3697548 
-10 1:11.14007 2:-1.1950085 3:-0.53224109 
-10 1:11.114715 2:-1.125544 3:-0.69472738 
-10 1:11.086595 2:-1.0278163 3:-0.83848246 
-10 1:11.056412 2:-0.90901339 3:-0.96827008 
-10 1:11.026764 2:-0.75969913 3:-1.0382564 
10 1:11.436849 2:-0.3391335 3:-0.77728914 
10 1:11.414203 2:-0.15454171 3:-0.81684287 
10 1:11.391556 2:0.030050091 3:-0.8563966 
10 1:11.36891 2:0.21464189 3:-0.89595033 
10 1:11.346263 2:0.39923368 3:-0.93550406 
10 1:11.325406 2:0.74224112 3:-0.83679442 
10 1:11.321207 2:0.90707246 3:-0.74211345 
10 1:11.318492 2:1.0647339 3:-0.64098222 
10 1:11.332304 2:1.1426187 3:-0.46808142 
10 1:11.351741 2:1.1775353 3:-0.28310439 
10 1:11.372117 2:1.2052747 3:-0.096110223 
10 1:11.392493 2:1.2330142 3:0.090883946 
10 1:11.41287 2:1.2607536 3:0.27787811 
10 1:11.434477 2:1.2769179 3:0.46581738 
10 1:11.457006 2:1.2844116 3:0.65446459 
10 1:11.479536 2:1.2919052 3:0.8431118 
-10 1:11.502065 2:1.2993989 3:1.031759 
-10 1:11.524594 2:1.3068926 3:1.2204062 
-10 1:11.547123 2:1.3143863 3:1.4090534 
-10 1:11.56808 2:1.147896 3:1.4490325 
-10 1:11.588844 2:0.96016233 3:1.4708592 
-10 1:11.609608 2:0.77242864 3:1.4926859 
-4.736592279658246 1:11.727098 2:-0.3577108 3:1.563159 
-10 1:11.744942 2:-0.54698226 3:1.5600974 
-10 1:11.762787 2:-0.73625372 3:1.5570357 
-10 1:11.780632 2:-0.92552518 3:1.553974 
-10 1:11.798476 2:-1.1147966 3:1.5509123 
-10 1:11.778084 2:-1.1402664 3:1.3655631 
-10 1:11.757237 2:-1.1637855 3:1.1780432 
-10 1:11.736389 2:-1.1873046 3:0.99052326 
10 1:11.672555 2:-1.2453242 3:0.42727707 
10 1:11.64945 2:-1.2469305 3:0.23855752 
10 1:11.626345 2:-1.2485369 3:0.049837957 
4.155115073038553 1:11.60324 2:-1.2501432 3:-0.1388816 
-10 1:11.55703 2:-1.2533559 3:-0.51632072 
-10 1:11.533925 2:-1.2549622 3:-0.70504027 
-10 1:11.509758 2:-1.230308 3:-0.88186076 
-10 1:11.485719 2:-1.0765666 3:-0.95681099 
-10 1:11.473502 2:-0.89220829 3:-0.91193053 
10 1:11.461284 2:-0.70785003 3:-0.86705006 
10 1:11.449067 2:-0.52349176 3:-0.8221696 
-10 1:11.788981 2:-0.53730049 3:-1.0992818 
-10 1:11.819591 2:-0.36395405 3:-1.0681059 
-10 1:11.850201 2:-0.19060761 3:-1.03693 
-1.001047471687198 1:12.035396 2:0.84311227 3:-0.82807269 
-10 1:12.068232 2:1.0072394 3:-0.76528735 
-10 1:12.101068 2:1.1713666 3:-0.70250202 
-10 1:12.131844 2:1.2691679 3:-0.56830677 
-10 1:12.161877 2:1.3429785 3:-0.40828191 
10 1:12.198514 2:1.3197064 3:-0.060702099 
10 1:12.21486 2:1.2936869 3:0.1154049 
10 1:12.231207 2:1.2676675 3:0.29151191 
10 1:12.247553 2:1.241648 3:0.46761891 
10 1:12.259908 2:1.1938407 3:0.63855559 
10 1:12.269944 2:1.1333836 3:0.80649041 
10 1:12.27998 2:1.0729264 3:0.97442524 
10 1:12.290016 2:1.0124693 3:1.1423601 
10 1:12.300053 2:0.95201214 3:1.3102949 
4.4696106343472 1:12.280256 2:0.70314733 3:1.4740163 
10 1:12.254149 2:0.52669518 3:1.4858882 
10 1:12.228042 2:0.35024302 3:1.49776 
10 1:12.201934 2:0.17379086 3:1.5096319 
10 1:12.175827 2:-0.0026613008 3:1.5215038 
10 1:12.144712 2:-0.17367797 3:1.4828401 
10 1:12.113122 2:-0.34417741 3:1.4393677 
10 1:12.081531 2:-0.51467686 3:1.3958953 
10 1:12.04994 2:-0.68517631 3:1.3524229 
-10 1:11.986844 2:-1.0156235 3:1.2520345 
-10 1:11.894227 2:-1.2632481 3:0.78542408 
10 1:11.858015 2:-1.2375075 3:0.4381931 
10 1:11.841669 2:-1.2114881 3:0.26208609 
10 1:11.825322 2:-1.1854686 3:0.085979092 
10 1:11.808975 2:-1.1594491 3:-0.090127911 
10 1:11.792629 2:-1.1334297 3:-0.26623491 
10 1:11.778318 2:-1.0959117 3:-0.4402287 
-10 1:11.751768 2:-1.0091736 3:-0.78606563 
-10 1:11.738493 2:-0.96580449 3:-0.9589841 
-10 1:11.734844 2:-0.89062923 3:-1.0915627 
-10 1:11.761913 2:-0.71396486 3:-1.0954222 
-10 1:12.526188 2:0.15946914 3:-1.0246673 
-10 1:12.512071 2:0.34600709 3:-1.0388486 
-10 1:12.497955 2:0.53254505 3:-1.0530299 
-10 1:12.482043 2:0.71349045 3:-1.0080809 
-10 1:12.466039 2:0.89414763 3:-0.96008447 
-10 1:12.450035 2:1.0748048 3:-0.91208809 
-10 1:12.434311 2:1.242191 3:-0.84390192 
-10 1:12.419679 2:1.3577034 3:-0.69679786 
-10 1:12.407115 2:1.4411718 3:-0.53779864 
-10 1:12.399473 2:1.4483628 3:-0.35048422 
-10 1:12.391831 2:1.4555538 3:-0.16316981 
-10 1:12.384307 2:1.4612708 3:0.02409216 
-10 1:12.36595 2:1.0213374 3:1.4245678 
-10 1:12.375259 2:0.85984291 3:1.5139404 
-10 1:12.385425 2:0.6911937 3:1.5954934 
-10 1:12.395591 2:0.5225445 3:1.6770464 
-10 1:12.405757 2:0.35389529 3:1.7585994 
-10 1:12.417939 2:0.17982402 3:1.7980757 
-10 1:12.433685 2:-0.0038331497 3:1.7631626 
-10 1:12.44943 2:-0.18749032 3:1.7282495 
-10 1:12.465175 2:-0.37114749 3:1.6933363 
-10 1:12.480921 2:-0.55480467 3:1.6584232 
-10 1:12.496645 2:-0.73680061 3:1.6206078 
-10 1:12.51163 2:-0.85982298 3:1.4797613 
10 1:12.563652 2:-1.220877 3:0.85352581 
10 1:12.573008 2:-1.2510476 3:0.66860805 
10 1:12.582153 2:-1.2782973 3:0.48321489 
10 1:12.591298 2:-1.3055469 3:0.29782173 
-10 1:12.617394 2:-1.3696959 3:-0.2594898 
-10 1:12.624124 2:-1.3652186 3:-0.44692368 
10 1:12.605165 2:-1.049616 3:-0.60127467 
10 1:12.593768 2:-0.87367922 3:-0.66540858 
10 1:12.582241 2:-0.69704459 3:-0.72753888 
10 1:12.5706 2:-0.51979915 3:-0.78791546 
10 1:12.558958 2:-0.34255371 3:-0.84829205 
10 1:12.547055 2:-0.17086754 3:-0.89018157 
10 1:12.964175 2:0.21662685 3:-0.94502903 
10 1:12.952667 2:0.39389253 3:-0.89491511 
10 1:12.941159 2:0.57115822 3:-0.8448012 
10 1:12.929651 2:0.7484239 3:-0.79468728 
-0.9557997927007609 1:12.899644 2:1.2408883 3:-0.56471464 
-10 1:12.891601 2:1.3879782 3:-0.45350838 
-10 1:12.890291 2:1.4558067 3:-0.29127438 
-10 1:12.891353 2:1.4957284 3:-0.11107425 
-10 1:12.892414 2:1.5356501 3:0.06912588 
-10 1:12.893476 2:1.5755718 3:0.24932601 
-10 1:12.89781 2:1.5705395 3:0.43322164 
-10 1:12.902473 2:1.560996 3:0.61748812 
-10 1:12.907136 2:1.5514524 3:0.80175459 
-10 1:12.912125 2:1.5367251 3:0.98407607 
-10 1:12.923307 2:1.4235749 3:1.1294686 
-10 1:12.934488 2:1.3104248 3:1.274861 
-10 1:12.94567 2:1.1972746 3:1.4202535 
-10 1:12.958786 2:1.0360496 3:1.4972007 
-10 1:12.97245 2:0.86122194 3:1.5547816 
-10 1:12.986114 2:0.68639431 3:1.6123625 
-10 1:12.999777 2:0.51156669 3:1.6699435 
-10 1:13.012948 2:0.33198988 3:1.689133 
-5.294117484786823 1:13.063948 2:-0.40253093 3:1.6348238 
10 1:13.082629 2:-0.71919166 3:1.4585464 
10 1:13.091342 2:-0.87286717 3:1.3566892 
10 1:13.100055 2:-1.0265427 3:1.2548321 
10 1:13.105757 2:-1.1959013 3:0.9622064 
10 1:13.103862 2:-1.2247327 3:0.77990962 
10 1:13.101968 2:-1.2535641 3:0.59761283 
10 1:13.100073 2:-1.2823955 3:0.41531604 
10 1:13.096713 2:-1.2910718 3:0.23144242 
10 1:13.092743 2:-1.2913656 3:0.046912989 
10 1:13.088773 2:-1.2916594 3:-0.13761644 
10 1:13.084803 2:-1.2919531 3:-0.32214588 
10 1:13.044136 2:-0.87283981 3:-0.82600627 
10 1:13.030705 2:-0.68984557 3:-0.84599814 
10 1:13.017131 2:-0.51149033 3:-0.88785011 
10 1:13.003495 2:-0.33513701 3:-0.93913558 
10 1:12.990261 2:-0.15158131 3:-0.94820924 
10 1:12.977218 2:0.03252277 3:-0.94661914 
10 1:13.363815 2:0.75065307 3:0.82681535 
10 1:13.37025 2:0.65853829 3:0.99121824 
10 1:13.382275 2:0.53730649 3:1.1155777 
10 1:13.406118 2:0.35452427 3:1.1552894 
10 1:13.429961 2:0.17174206 3:1.195001 
10 1:13.454286 2:-0.012362613 3:1.2269918 
10 1:13.478964 2:-0.19743764 3:1.2533173 
10 1:13.503643 2:-0.38251267 3:1.2796429 
10 1:13.528322 2:-0.5675877 3:1.3059684 
10 1:13.553996 2:-0.75417289 3:1.3119624 
10 1:13.57978 2:-0.94092375 3:1.3157259 
-10 1:13.631347 2:-1.3144255 3:1.3232528 
-10 1:13.654609 2:-1.4586291 3:1.2394429 
-10 1:13.675957 2:-1.5705604 3:1.0892082 
-10 1:13.697305 2:-1.6824917 3:0.93897346 
-10 1:13.718654 2:-1.7944231 3:0.78873876 
-10 1:13.73124 2:-1.8374763 3:0.61779086 
-10 1:13.736616 2:-1.8238572 3:0.42980028 
-10 1:13.741992 2:-1.8102381 3:0.24180969 
-10 1:13.747368 2:-1.796619 3:0.05381911 
-10 1:13.752744 2:-1.7829998 3:-0.13417147 
-10 1:13.75812 2:-1.7693807 3:-0.32216206 
-10 1:13.763496 2:-1.7557616 3:-0.51015264 
-10 1:13.768872 2:-1.7421425 3:-0.69814322 
-10 1:13.762784 2:-1.6557779 3:-0.85085308 
-10 1:13.748549 2:-1.5177169 3:-0.97849078 
-10 1:13.734314 2:-1.379656 3:-1.1061285 
-10 1:13.715726 2:-1.2214001 3:-1.1936739 
-10 1:13.691786 2:-1.0383229 3:-1.2319423 
-10 1:13.667846 2:-0.8552457 3:-1.2702106 
-10 1:13.643907 2:-0.67216849 3:-1.308479 
-10 1:13.619929 2:-0.48897972 3:-1.346169 
-10 1:13.595815 2:-0.3053878 3:-1.3817688 
-10 1:13.571701 2:-0.12179587 3:-1.4173686 
-10 1:13.546916 2:0.06061403 3:-1.4313895 
-10 1:13.520024 2:0.23930561 3:-1.3775288 
-10 1:13.493132 2:0.41799719 3:-1.3236681 
-10 1:13.46624 2:0.59668877 3:-1.2698075 
-10 1:13.442335 2:0.73568508 3:-1.1506456 
-10 1:13.419177 2:0.86474635 3:-1.01514 
10 1:13.393983 2:0.94841848 3:-0.66391903 
10 1:13.388607 2:0.93479936 3:-0.47592845 
10 1:13.383231 2:0.92118023 3:-0.28793787 
10 1:13.377855 2:0.90756111 3:-0.099947283 
10 1:13.372479 2:0.89394199 3:0.0880433 
10 1:13.367402 2:0.87825314 3:0.27572649 
10 1:13.366206 2:0.83571978 3:0.45942278 
10 1:13.365011 2:0.79318642 3:0.64311907 
10 1:13.968349 2:0.21437552 3:-0.73325617 
10 1:13.957823 2:0.40335741 3:-0.76054861 
10 1:13.947297 2:0.5923393 3:-0.78784105 
10 1:13.936771 2:0.78132119 3:-0.81513348 
-4.812907159317474 1:13.918966 2:1.1484724 3:-0.77392357 
-10 1:13.911715 2:1.3265489 3:-0.70459803 
-10 1:13.91206 2:1.4008971 3:-0.55546739 
-10 1:13.916297 2:1.4221196 3:-0.36546346 
-10 1:13.920533 2:1.443342 3:-0.17545954 
-10 1:13.92477 2:1.4645645 3:0.01454438 
-10 1:13.929006 2:1.4857869 3:0.2045483 
-10 1:13.935345 2:1.4655746 3:0.39322227 
-10 1:13.942323 2:1.4327796 3:0.58149236 
-10 1:13.9493 2:1.3999845 3:0.76976245 
-10 1:13.956278 2:1.3671894 3:0.95803253 
-10 1:13.966166 2:1.2541161 3:1.1022949 
-8.245328243360396 1:13.977052 2:1.1135344 3:1.2314773 
-10 1:13.998801 2:0.82685249 3:1.4788544 
-10 1:14.009488 2:0.63926536 3:1.514445 
-10 1:14.020175 2:0.45167824 3:1.5500356 
-10 1:14.030862 2:0.26409111 3:1.5856262 
-10 1:14.041549 2:0.076503988 3:1.6212167 
-10 1:14.052236 2:-0.11108314 3:1.6568073 
-10 1:14.062102 2:-0.30172705 3:1.6575459 
-10 1:14.071884 2:-0.49268753 3:1.6546751 
-10 1:14.081666 2:-0.68364801 3:1.6518043 
-10 1:14.091447 2:-0.87460849 3:1.6489334 
-10 1:14.09527 2:-1.0072331 3:1.5410945 
-10 1:14.096069 2:-1.1102529 3:1.3799855 
-10 1:14.096868 2:-1.2132726 3:1.2188765 
3.400195009079836 1:14.08824 2:-1.4259719 3:0.52002744 
10 1:14.082537 2:-1.4193462 3:0.32899498 
10 1:14.076833 2:-1.4127206 3:0.13796252 
10 1:14.071129 2:-1.4060949 3:-0.053069941 
10 1:14.065426 2:-1.3994693 3:-0.2441024 
10 1:14.032309 2:-1.0947332 3:-0.86331445 
10 1:14.021476 2:-0.90900235 3:-0.90754689 
10 1:14.012279 2:-0.72105335 3:-0.88938224 
10 1:14.00343 2:-0.53263215 3:-0.85793414 
10 1:13.994582 2:-0.34421095 3:-0.82648604 
10 1:13.984499 2:-0.15376786 3:-0.83527507 
10 1:13.976414 2:0.030336941 3:-0.78458452 
-10 1:14.439089 2:1.1305303 3:-0.83625287 
-10 1:14.428233 2:1.2518981 3:-0.72668542 
10 1:14.414676 2:1.2731312 3:-0.1692246 
10 1:14.410157 2:1.2802089 3:0.016595681 
10 1:14.406484 2:1.2752968 3:0.20207312 
10 1:14.403747 2:1.2571014 3:0.38717074 
10 1:14.401011 2:1.2389061 3:0.57226836 
10 1:14.400078 2:1.1438785 3:0.92202436 
10 1:14.403735 2:1.0431348 3:1.0783478 
-10 1:14.411048 2:0.84164739 3:1.3909947 
-10 1:14.445968 2:0.30192931 3:1.5204888 
-10 1:14.457706 2:0.12105182 3:1.5622648 
-10 1:14.469444 2:-0.059825682 3:1.6040408 
-10 1:14.482274 2:-0.24183522 3:1.59909 
-10 1:14.495743 2:-0.42450927 3:1.5667103 
-10 1:14.509213 2:-0.60718332 3:1.5343305 
-10 1:14.522683 2:-0.78985738 3:1.5019508 
-10 1:14.535584 2:-0.95330693 3:1.4337657 
-10 1:14.54743 2:-1.0810489 3:1.2990758 
-10 1:14.559275 2:-1.2087909 3:1.164386 
-10 1:14.570907 2:-1.3329293 3:1.0279229 
-10 1:14.606503 2:-1.5005008 3:-0.074910502 
-10 1:14.612436 2:-1.5284294 3:-0.25871607 
-10 1:14.611128 2:-1.4566443 3:-0.43001753 
10 1:14.596094 2:-1.1244243 3:-0.80807491 
10 1:14.584399 2:-0.94380874 3:-0.85098104 
10 1:14.571878 2:-0.7613015 3:-0.86190232 
10 1:14.558543 2:-0.57692563 3:-0.84122867 
10 1:14.545208 2:-0.39254975 3:-0.82055502 
10 1:14.531873 2:-0.20817387 3:-0.79988137 
10 1:14.519115 2:-0.02342199 3:-0.80706311 
10 1:14.506544 2:0.16145197 3:-0.82328909 
10 1:14.493973 2:0.34632593 3:-0.83951507 
10 1:14.486017 2:0.49203835 3:-0.9424123 
10 1:14.887496 2:0.029471913 3:1.2243631 
10 1:14.91033 2:-0.14554607 3:1.2097051 
10 1:14.933164 2:-0.32056405 3:1.195047 
10 1:14.955999 2:-0.49558204 3:1.1803889 
10 1:14.98093 2:-0.65367706 3:1.118734 
10 1:15.007499 2:-0.79856535 3:1.0204026 
10 1:15.034067 2:-0.94345363 3:0.92207123 
10 1:15.060635 2:-1.0883419 3:0.82373985 
10 1:15.084312 2:-1.1770823 3:0.68024744 
10 1:15.106687 2:-1.2405367 3:0.51641686 
-10 1:15.206676 2:-1.3085627 3:-0.51386698 
-10 1:15.220343 2:-1.2925412 3:-0.68971942 
-10 1:15.228791 2:-1.2411277 3:-0.85585119 
-10 1:15.233241 2:-1.1625953 3:-1.0145345 
-10 1:15.237691 2:-1.0840628 3:-1.1732179 
-10 1:15.235879 2:-0.97826478 3:-1.2992006 
-10 1:15.219529 2:-0.80916858 3:-1.3492677 
-10 1:15.20318 2:-0.64007238 3:-1.3993348 
-10 1:15.18683 2:-0.47097619 3:-1.4494018 
-10 1:15.17048 2:-0.30187999 3:-1.4994689 
-10 1:15.148799 2:-0.13107808 3:-1.4919483 
-10 1:15.124463 2:0.040573528 3:-1.4557403 
-10 1:15.100126 2:0.21222514 3:-1.4195323 
-10 1:15.07579 2:0.38387675 3:-1.3833244 
-10 1:15.051453 2:0.55552836 3:-1.3471164 
-10 1:15.026472 2:0.7133366 3:-1.2845023 
-10 1:15.000098 2:0.84126594 3:-1.1648944 
-10 1:14.973723 2:0.96919529 3:-1.0452866 
-10 1:14.947349 2:1.0971246 3:-0.9256787 
-10 1:14.920975 2:1.225054 3:-0.80607084 
-10 1:14.901757 2:1.257522 3:-0.63487881 
10 1:14.799109 2:1.2243724 3:0.56529037 
10 1:14.798439 2:1.1242238 3:0.71136351 
10 1:14.798365 2:1.0215742 3:0.85420002 
10 1:14.81322 2:0.85622379 3:0.91589388 
10 1:14.828075 2:0.69087341 3:0.97758773 
10 1:14.842931 2:0.52552304 3:1.0392816 
10 1:14.857786 2:0.36017266 3:1.1009754 
10 1:14.872641 2:0.19482229 3:1.1626693 
-10 1:15.583478 2:-0.83405192 3:-1.2643562 
-10 1:15.59243 2:-0.65920658 3:-1.235579 
-10 1:15.601382 2:-0.48436125 3:-1.2068019 
10 1:15.619286 2:-0.13467057 3:-1.1492475 
10 1:15.627711 2:0.038984504 3:-1.1165084 
10 1:15.630681 2:0.20030414 3:-1.0427093 
10 1:15.633651 2:0.36162377 3:-0.9689102 
10 1:15.636621 2:0.5229434 3:-0.89511108 
10 1:15.640633 2:0.68697409 3:-0.82893501 
10 1:15.647428 2:0.85824483 3:-0.78311675 
10 1:15.654223 2:1.0295156 3:-0.73729849 
0.9976850633450199 1:15.553759 2:1.315252 3:0.3377786 
10 1:15.531345 2:1.2641301 3:0.50619275 
10 1:15.508931 2:1.2130082 3:0.67460689 
10 1:15.486517 2:1.1618864 3:0.84302104 
-10 1:15.418558 2:0.93589342 3:1.3095018 
-10 1:15.39706 2:0.81046928 3:1.4235282 
-10 1:15.380428 2:0.63885102 3:1.4653577 
10 1:15.349648 2:0.11149578 3:1.4123298 
10 1:15.339673 2:-0.064475768 3:1.391991 
10 1:15.331862 2:-0.2374458 3:1.3541908 
10 1:15.32453 2:-0.40975026 3:1.3125185 
10 1:15.317199 2:-0.58205471 3:1.2708462 
10 1:15.315165 2:-0.87859319 3:1.1045908 
10 1:15.321134 2:-1.0002754 3:0.9756064 
10 1:15.327102 2:-1.1219576 3:0.84662198 
-10 1:15.341859 2:-1.338798 3:0.57995263 
10 1:15.470559 2:-1.1402109 3:-0.44612832 
10 1:15.493634 2:-1.0627387 3:-0.60406732 
-10 1:15.53807 2:-0.97030647 3:-0.94349767 
-10 1:15.560294 2:-0.92357151 3:-1.1129367 
-10 1:16.051172 2:-1.0775013 3:-1.040131 
-10 1:16.026948 2:-0.89614508 3:-1.0252498 
10 1:15.978499 2:-0.53343257 3:-0.99548724 
10 1:15.952788 2:-0.35273337 3:-0.99681218 
10 1:15.92493 2:-0.1729837 3:-1.0215571 
10 1:15.897071 2:0.0067659611 3:-1.0463019 
10 1:15.869212 2:0.18651563 3:-1.0710468 
10 1:15.841354 2:0.36626529 3:-1.0957917 
-10 1:15.785636 2:0.72576462 3:-1.1452814 
-10 1:15.757778 2:0.90551428 3:-1.1700263 
-10 1:15.729919 2:1.0852639 3:-1.1947712 
-10 1:15.734496 2:1.1632643 3:-1.0345038 
-10 1:15.74545 2:1.2081862 3:-0.85685138 
-10 1:15.757277 2:1.2475641 3:-0.67829268 
10 1:15.787667 2:1.2835592 3:-0.3141852 
10 1:15.802862 2:1.3015567 3:-0.13213146 
10 1:15.818057 2:1.3195543 3:0.049922277 
-10 1:15.868946 2:1.3372421 3:0.59777866 
-10 1:15.886218 2:1.3410208 3:0.78049631 
-10 1:15.903491 2:1.3447995 3:0.96321397 
-10 1:15.921111 2:1.3459874 3:1.145736 
-10 1:15.942384 2:1.3199538 3:1.3262021 
-10 1:15.966746 2:1.2218326 3:1.4336404 
-10 1:15.994605 2:1.0420829 3:1.4583853 
-10 1:16.022464 2:0.86233328 3:1.4831301 
-10 1:16.050322 2:0.68258361 3:1.507875 
10 1:16.119942 2:0.16129437 3:1.4649967 
10 1:16.135024 2:-0.00201327 3:1.3825254 
10 1:16.150106 2:-0.16532091 3:1.3000541 
10 1:16.164616 2:-0.32691187 3:1.2142089 
10 1:16.178862 2:-0.48770904 3:1.1268036 
10 1:16.192502 2:-0.64630383 3:1.0363926 
10 1:16.198258 2:-0.77617967 3:0.90678739 
10 1:16.201904 2:-0.89540193 3:0.77101429 
10 1:16.19153 2:-0.9438162 3:0.59424663 
10 1:16.180536 2:-0.98837501 3:0.41670766 
10 1:16.166723 2:-1.0154381 3:0.23566855 
10 1:16.152911 2:-1.0425013 3:0.054629437 
10 1:16.138802 2:-1.067567 3:-0.1265489 
10 1:16.121408 2:-1.0704898 3:-0.30927072 
10 1:16.104014 2:-1.0734126 3:-0.49199254 
-10 1:16.08662 2:-1.0763353 3:-0.67471435 
-10 1:16.068987 2:-1.0775659 3:-0.85742641 
10 1:16.391795 2:0.19107946 3:-1.0312969 
10 1:16.405445 2:0.37143144 3:-1.0100795 
10 1:16.419095 2:0.55178342 3:-0.988862 
10 1:16.432745 2:0.7321354 3:-0.96764455 
9.893875700168721 1:16.446395 2:0.91248738 3:-0.9464271 
-10 1:16.511584 2:1.2842602 3:-0.5843914 
-10 1:16.535015 2:1.3961859 3:-0.44271065 
-10 1:16.555599 2:1.3887396 3:-0.26192288 
-10 1:16.576182 2:1.3812934 3:-0.081135115 
-10 1:16.595458 2:1.3576927 3:0.097024187 
10 1:16.646098 2:1.1980757 3:0.61705113 
5.686430598736526 1:16.662978 2:1.14487 3:0.79039345 
10 1:16.688355 2:0.96842345 3:1.1023586 
10 1:16.698633 2:0.86006591 3:1.2483597 
-7.857824794540885 1:16.71919 2:0.64335082 3:1.540362 
10 1:16.70206 2:0.30255204 3:1.5746923 
10 1:16.69009 2:0.12094084 3:1.568575 
10 1:16.67812 2:-0.060670365 3:1.5624576 
10 1:16.666149 2:-0.24228157 3:1.5563403 
-10 1:16.642209 2:-0.60550397 3:1.5441057 
-10 1:16.628964 2:-0.78522184 3:1.5260256 
-10 1:16.612602 2:-0.96031236 3:1.4787082 
-10 1:16.59624 2:-1.1354029 3:1.4313909 
-10 1:16.579878 2:-1.3104934 3:1.3840735 
-10 1:16.558291 2:-1.3238514 3:1.205743 
-10 1:16.536617 2:-1.3345338 3:1.0252451 
-10 1:16.514944 2:-1.3452162 3:0.84474726 
-10 1:16.493271 2:-1.3558986 3:0.66424937 
-10 1:16.471597 2:-1.3665811 3:0.48375148 
-10 1:16.449924 2:-1.3772635 3:0.3032536 
-10 1:16.430695 2:-1.3552074 3:0.12632112 
-10 1:16.413712 2:-1.3030692 3:-0.047335216 
5.393933197487864 1:16.360441 2:-0.97931984 3:-0.67737217 
10 1:16.357448 2:-0.8326318 3:-0.78120116 
10 1:16.357341 2:-0.67227637 3:-0.86751143 
10 1:16.357235 2:-0.51192095 3:-0.95382171 
10 1:16.357128 2:-0.35156553 3:-1.040132 
10 1:16.367855 2:-0.17214294 3:-1.0435315 
10 1:16.379825 2:0.0094682619 3:-1.0374142 
-10 1:17.161881 2:-0.67711069 3:-1.2054287 
-10 1:17.157893 2:-0.49556447 3:-1.1942861 
-10 1:17.153906 2:-0.31401824 3:-1.1831434 
-10 1:17.149918 2:-0.13247202 3:-1.1720007 
10 1:17.134745 2:0.21906758 3:-1.0914275 
10 1:17.125055 2:0.39146124 3:-1.0341072 
10 1:17.115365 2:0.5638549 3:-0.97678693 
10 1:17.10417 2:0.73144884 3:-0.907016 
10 1:17.092825 2:0.89856206 3:-0.83599807 
10 1:17.081479 2:1.0656753 3:-0.76498014 
10 1:16.999197 2:1.2525337 3:-0.13457587 
10 1:16.976606 2:1.2409803 3:0.045577551 
10 1:16.954362 2:1.216527 3:0.22443483 
10 1:16.932152 2:1.1908152 3:0.40316564 
10 1:16.909942 2:1.1651034 3:0.58189645 
10 1:16.888701 2:1.1169807 3:0.75547667 
-10 1:16.808186 2:0.84533375 3:1.4234818 
-10 1:16.783899 2:-0.008799785 3:1.7118647 
-10 1:16.779476 2:-0.18230758 3:1.7664043 
-10 1:16.78224 2:-0.35213965 3:1.7636279 
-10 1:16.794103 2:-0.51731898 3:1.6883008 
-10 1:16.805965 2:-0.68249831 3:1.6129737 
-10 1:16.817827 2:-0.84767763 3:1.5376466 
-10 1:16.829689 2:-1.012857 3:1.4623195 
-10 1:16.847539 2:-1.1275491 3:1.3339014 
-10 1:16.868864 2:-1.21295 3:1.1746813 
-10 1:16.890571 2:-1.2764612 3:1.0099763 
-10 1:16.913376 2:-1.2769537 3:0.82948041 
10 1:16.981292 2:-1.2597607 3:0.28985262 
10 1:17.003086 2:-1.2224887 3:0.11311856 
10 1:17.02488 2:-1.1852168 3:-0.063615507 
10 1:17.046673 2:-1.1479448 3:-0.24034957 
10 1:17.066741 2:-1.0780531 3:-0.40709087 
10 1:17.087506 2:-1.0208705 3:-0.57792407 
-10 1:17.12669 2:-0.87815608 3:-0.90420008 
-10 1:17.144285 2:-0.77763338 3:-1.0548144 
-10 1:17.443225 2:-0.62699821 3:-1.114475 
-10 1:17.442814 2:-0.44728924 3:-1.1041957 
10 1:17.441992 2:-0.087871288 3:-1.083637 
10 1:17.441581 2:0.091837688 3:-1.0733577 
10 1:17.44165 2:0.27067285 3:-1.0542712 
10 1:17.442055 2:0.44889806 3:-1.0290371 
10 1:17.442459 2:0.62712327 3:-1.003803 
10 1:17.442863 2:0.80534847 3:-0.97856882 
-10 1:17.454307 2:1.2709558 3:-0.72014368 
-10 1:17.460759 2:1.3239114 3:-0.59530809 
-10 1:17.470499 2:1.2986925 3:-0.41734658 
-3.927912314848052 1:17.480238 2:1.2734736 3:-0.23938506 
-10 1:17.509457 2:1.1978169 3:0.29449948 
-10 1:17.51916 2:1.1658742 3:0.47111808 
-10 1:17.528791 2:1.1206983 3:0.64509371 
-10 1:17.538423 2:1.0755224 3:0.81906934 
-10 1:17.547937 2:1.0197432 3:0.98982162 
-10 1:17.557411 2:0.96025524 3:1.1594465 
-10 1:17.566885 2:0.90076731 3:1.3290713 
-10 1:17.572731 2:0.76237853 3:1.4236154 
10 1:17.586667 2:-0.077757106 3:1.5982107 
10 1:17.584623 2:-0.24915638 3:1.543263 
10 1:17.582579 2:-0.42055566 3:1.4883152 
10 1:17.580534 2:-0.59195494 3:1.4333674 
-10 1:17.576446 2:-0.9347535 3:1.3234719 
-10 1:17.571986 2:-1.0839489 3:1.2259727 
-10 1:17.566882 2:-1.2272229 3:1.1171257 
-10 1:17.561777 2:-1.3704968 3:1.0082787 
-10 1:17.553112 2:-1.3952611 3:0.84523686 
-10 1:17.543371 2:-1.3842503 3:0.665835 
-10 1:17.53363 2:-1.3732395 3:0.48643313 
-10 1:17.523908 2:-1.3587603 3:0.30773079 
10 1:17.514435 2:-1.2992724 3:0.13810595 
10 1:17.504961 2:-1.2397845 3:-0.031518885 
10 1:17.495487 2:-1.1802965 3:-0.20114372 
10 1:17.486014 2:-1.1208086 3:-0.37076856 
10 1:17.476863 2:-1.0445421 3:-0.53274673 
10 1:17.467962 2:-0.95525599 3:-0.6887913 
10 1:17.459226 2:-0.86088797 3:-0.84126421 
-10 1:17.79098 2:-1.2519095 3:-0.94789244 
-10 1:17.813737 2:-1.0747886 3:-0.97209576 
-10 1:17.836493 2:-0.89766762 3:-0.99629908 
-10 1:17.85925 2:-0.72054669 3:-1.0205024 
-10 1:17.970669 2:0.1590726 3:-1.1777451 
-10 1:17.992597 2:0.33409662 3:-1.2146399 
-10 1:18.014525 2:0.50912064 3:-1.2515347 
-10 1:18.039355 2:0.68433602 3:-1.2216319 
-10 1:18.064357 2:0.85956271 3:-1.1877791 
-10 1:18.089358 2:1.0347894 3:-1.1539262 
-10 1:18.114267 2:1.2083831 3:-1.1171262 
-10 1:18.133626 2:1.3076133 3:-0.9771542 
-10 1:18.140495 2:1.3010725 3:-0.79719442 
-10 1:18.147364 2:1.2945317 3:-0.61723464 
-10 1:18.149483 2:1.2551073 3:-0.44496886 
10 1:18.143585 2:1.1060738 3:-0.11685889 
10 1:18.140987 2:1.0339195 3:0.047987915 
10 1:18.143276 2:0.99460947 3:0.22384287 
10 1:18.145565 2:0.95529944 3:0.39969783 
10 1:18.147854 2:0.91598941 3:0.57555279 
10 1:18.149273 2:0.87076709 3:0.74962863 
10 1:18.147868 2:0.80638139 3:0.91793785 
10 1:18.146463 2:0.74199569 3:1.0862471 
10 1:18.138466 2:0.63699246 3:1.2281985 
10 1:18.127057 2:0.51097211 3:1.3565115 
10 1:18.113941 2:0.37784999 3:1.4673142 
10 1:18.089888 2:0.1992576 3:1.4660048 
10 1:18.065836 2:0.020665211 3:1.4646955 
10 1:18.041783 2:-0.15792718 3:1.4633862 
10 1:18.01773 2:-0.33651957 3:1.4620768 
10 1:17.99284 2:-0.51118332 3:1.4290581 
-1.472090867126962 1:17.967739 2:-0.68485372 3:1.3880217 
10 1:17.93781 2:-0.81443102 3:1.0972468 
10 1:17.925096 2:-0.85300632 3:0.92232689 
10 1:17.908671 2:-0.92219406 3:0.7567408 
10 1:17.892245 2:-0.9913818 3:0.5911547 
10 1:17.87582 2:-1.0605695 3:0.42556861 
10 1:17.859395 2:-1.1297573 3:0.25998251 
10 1:17.843287 2:-1.1962508 3:0.093350483 
10 1:17.828243 2:-1.2536969 3:-0.076793925 
1.150881797904821 1:17.813199 2:-1.3111429 3:-0.24693833 
-10 1:17.799553 2:-1.3579433 3:-0.41783329 
-10 1:17.796696 2:-1.3225987 3:-0.59451967 
-10 1:17.793838 2:-1.2872541 3:-0.77120606 
-10 1:18.464384 2:-1.2715854 3:-0.96826123 
-10 1:18.482118 2:-1.0859868 3:-0.96869292 
10 1:18.517584 2:-0.71478965 3:-0.9695563 
10 1:18.535317 2:-0.52919106 3:-0.96998799 
10 1:18.551733 2:-0.34407931 3:-0.95604984 
10 1:18.567951 2:-0.15904081 3:-0.93994958 
10 1:18.584169 2:0.025997692 3:-0.92384932 
10 1:18.600387 2:0.21103619 3:-0.90774905 
10 1:18.617699 2:0.39647906 3:-0.90358441 
10 1:18.635433 2:0.58207765 3:-0.9040161 
10 1:18.653166 2:0.76767623 3:-0.90444778 
-10 1:18.688632 2:1.1388734 3:-0.90531116 
-10 1:18.690625 2:1.2357032 3:-0.82344203 
-10 1:18.672886 2:1.2212589 3:-0.6384064 
-10 1:18.655147 2:1.2068145 3:-0.45337077 
10 1:18.61073 2:1.0499708 3:-0.12016472 
10 1:18.589398 2:0.98522926 3:0.051279369 
10 1:18.570313 2:0.95472133 3:0.23421795 
10 1:18.551228 2:0.9242134 3:0.41715652 
10 1:18.531594 2:0.88661194 3:0.5986579 
10 1:18.511758 2:0.84640212 3:0.7796308 
-10 1:18.45283 2:0.73339875 3:1.3242079 
-10 1:18.433336 2:0.6976775 3:1.506157 
-10 1:18.413841 2:0.66195624 3:1.688106 
-10 1:18.394156 2:0.60064608 3:1.8446289 
-10 1:18.37357 2:0.41907961 3:1.8816608 
-10 1:18.358115 2:0.24832162 3:1.8723357 
-10 1:18.35447 2:0.10244914 3:1.7562778 
10 1:18.347179 2:-0.18929581 3:1.5241622 
10 1:18.343534 2:-0.33516829 3:1.4081043 
10 1:18.339889 2:-0.48104077 3:1.2920465 
10 1:18.337657 2:-0.61954684 3:1.1679471 
10 1:18.337894 2:-0.74495749 3:1.0300527 
10 1:18.338808 2:-0.86649156 3:0.88866628 
10 1:18.339723 2:-0.98802564 3:0.74727985 
10 1:18.340638 2:-1.1095597 3:0.60589343 
-10 1:18.343585 2:-1.3441773 3:0.31960565 
-10 1:18.44562 2:-1.2981311 3:-0.78467282 
-10 1:19.059769 2:-1.276995 3:-1.0297787 
-10 1:19.037241 2:-1.0909968 3:-1.0294207 
-10 1:19.014713 2:-0.90499864 3:-1.0290626 
10 1:18.950933 2:-0.34873901 3:-0.98909798 
10 1:18.930366 2:-0.16363542 3:-0.96868658 
10 1:18.909923 2:0.021342216 3:-0.9470977 
10 1:18.889676 2:0.20612057 3:-0.9236457 
10 1:18.86943 2:0.39089893 3:-0.90019371 
10 1:18.849653 2:0.57502615 3:-0.87251108 
10 1:18.830957 2:0.75765469 3:-0.83509115 
-10 1:18.792937 2:1.123911 3:-0.76574799 
-10 1:18.773016 2:1.3078665 3:-0.73985258 
-10 1:18.797578 2:1.233278 3:-0.57190524 
-10 1:18.822066 2:1.1618108 3:-0.40064855 
10 1:18.86916 2:1.041402 3:-0.04894454 
10 1:18.892707 2:0.98119752 3:0.12690746 
10 1:18.916254 2:0.92099309 3:0.30275947 
10 1:18.939801 2:0.86078866 3:0.47861147 
10 1:18.96085 2:0.82571571 3:0.6604211 
10 1:18.980508 2:0.8046412 3:0.84554918 
-10 1:19.019823 2:0.7624922 3:1.2158054 
-10 1:19.03739 2:0.75952799 3:1.4020836 
-10 1:19.054418 2:0.76123127 3:1.5886582 
-10 1:19.072119 2:0.73997617 3:1.7523685 
-10 1:19.094647 2:0.55397798 3:1.7520105 
-10 1:19.117175 2:0.36797978 3:1.7516524 
-10 1:19.139703 2:0.18198159 3:1.7512943 
-10 1:19.160684 2:-0.00053501806 3:1.7387658 
-10 1:19.170316 2:-0.15750254 3:1.6369258 
-10 1:19.179948 2:-0.31447007 3:1.5350858 
-10 1:19.187436 2:-0.46221093 3:1.4221532 
-10 1:19.190232 2:-0.58975497 3:1.2849393 
-10 1:19.19148 2:-0.70911202 3:1.1417304 
-3.295934115478199 1:19.187642 2:-0.80154489 3:0.97880587 
10 1:19.179965 2:-0.98641064 3:0.65295688 
10 1:19.176127 2:-1.0788435 3:0.49003239 
10 1:19.172777 2:-1.1740527 3:0.32874958 
-10 1:19.164765 2:-1.4712655 3:-0.14824834 
-0.9242498137032715 1:19.150182 2:-1.4895558 3:-0.33012539 
-10 1:19.084433 2:-1.3504064 3:-0.85917563 
10 1:19.570521 2:-1.2217462 3:-0.77189641 
10 1:19.557917 2:-1.0220881 3:-0.76492288 
10 1:19.545313 2:-0.8224301 3:-0.75794934 
10 1:19.532709 2:-0.62277206 3:-0.75097581 
10 1:19.520105 2:-0.42311402 3:-0.74400227 
10 1:19.507452 2:-0.22886719 3:-0.78028276 
10 1:19.494778 2:-0.037076901 3:-0.83619937 
10 1:19.482064 2:0.15595848 3:-0.88763937 
-0.5271384801098747 1:19.444382 2:0.74749598 3:-0.90445567 
-10 1:19.431894 2:0.94663113 3:-0.88832907 
-10 1:19.419363 2:1.1457422 3:-0.87709466 
-10 1:19.409877 2:1.2983023 3:-0.8557594 
-10 1:19.414878 2:1.2470998 3:-0.66230624 
-10 1:19.422717 2:1.1480366 3:-0.49074435 
10 1:19.431335 2:1.0358386 3:-0.32519019 
10 1:19.439953 2:0.92364068 3:-0.15963603 
10 1:19.446681 2:0.84300094 3:0.018282477 
10 1:19.450346 2:0.81351181 3:0.21624155 
10 1:19.453867 2:0.78630787 3:0.41450514 
10 1:19.457125 2:0.76335261 3:0.6133349 
10 1:19.460383 2:0.74039734 3:0.81216466 
10 1:19.461546 2:0.75060476 3:1.0120691 
10 1:19.462702 2:0.7609168 3:1.211977 
-10 1:19.465016 2:0.78154089 3:1.6117927 
-10 1:19.466172 2:0.79185293 3:1.8117006 
-10 1:19.467329 2:0.80216497 3:2.0116084 
-10 1:19.475681 2:0.66946432 3:2.0042162 
-10 1:19.486565 2:0.48643943 3:1.9238778 
-10 1:19.497432 2:0.30364193 3:1.8431975 
-10 1:19.505342 2:0.15921638 3:1.7048157 
10 1:19.521161 2:-0.12963471 3:1.4280521 
10 1:19.52907 2:-0.27406025 3:1.2896702 
10 1:19.53698 2:-0.4184858 3:1.1512884 
10 1:19.54489 2:-0.56291134 3:1.0129066 
10 1:19.552383 2:-0.7015626 3:0.86898859 
10 1:19.559368 2:-0.83318329 3:0.71832997 
10 1:19.566354 2:-0.96480398 3:0.56767135 
-10 1:19.587312 2:-1.3596661 3:0.11569549 
-10 1:19.594298 2:-1.4912867 3:-0.034963131 
-10 1:19.599022 2:-1.5900513 3:-0.20524192 
-10 1:19.601745 2:-1.6597693 3:-0.39286607 
-10 1:19.604469 2:-1.7294872 3:-0.58049023 
-10 1:19.595271 2:-1.600067 3:-0.68941095 
-10 1:20.018258 2:-1.4321605 3:-1.1005228 
-10 1:20.023482 2:-1.2510796 3:-1.1032644 
-10 1:20.028705 2:-1.0699987 3:-1.106006 
-10 1:20.033136 2:-0.88989568 3:-1.0943345 
-10 1:20.036688 2:-0.71087712 3:-1.0666789 
-10 1:20.04024 2:-0.53185855 3:-1.0390233 
-10 1:20.043792 2:-0.35283998 3:-1.0113677 
-4.731026852418919 1:20.04618 2:-0.17834265 3:-0.96417026 
10 1:20.050135 2:0.16746055 3:-0.85598108 
10 1:20.053539 2:0.34590394 3:-0.82583943 
10 1:20.057091 2:0.5249225 3:-0.79818384 
-10 1:20.067747 2:1.0619782 3:-0.71521707 
-10 1:20.071299 2:1.2409968 3:-0.68756148 
-10 1:20.061111 2:1.2131054 3:-0.51035835 
10 1:20.029566 2:1.0874523 3:0.01750727 
10 1:20.018996 2:1.0414408 3:0.19231211 
10 1:20.008309 2:0.98653028 3:0.36463654 
10 1:19.997621 2:0.93161976 3:0.53696097 
10 1:19.986934 2:0.87670924 3:0.7092854 
10 1:19.976246 2:0.82179872 3:0.88160984 
10 1:19.965559 2:0.7668882 3:1.0539343 
10 1:19.955004 2:0.72048759 3:1.2282619 
10 1:19.944226 2:0.64937295 3:1.3937375 
10 1:19.93338 2:0.57261659 3:1.5574932 
10 1:19.924298 2:0.43382044 3:1.6552579 
-10 1:19.909495 2:0.10213034 3:1.7589053 
-10 1:19.912136 2:-0.032711989 3:1.6379274 
-3.20969113676659 1:19.914776 2:-0.16755432 3:1.5169494 
-10 1:19.920057 2:-0.43723898 3:1.2749935 
-10 1:19.922698 2:-0.57208131 3:1.1540155 
-10 1:19.925338 2:-0.70692365 3:1.0330375 
-10 1:19.927979 2:-0.84176598 3:0.91205954 
-10 1:19.93062 2:-0.97660831 3:0.79108156 
-10 1:19.93326 2:-1.1114506 3:0.67010359 
-10 1:19.939773 2:-1.1838908 3:0.50914646 
-10 1:19.948494 2:-1.2114763 3:0.33029432 
10 1:19.965935 2:-1.2666474 3:-0.027409963 
10 1:19.974655 2:-1.2942329 3:-0.2062621 
10 1:19.983376 2:-1.3218184 3:-0.38511424 
10 1:19.992096 2:-1.349404 3:-0.56396638 
-10 1:20.009537 2:-1.404575 3:-0.92167066 
-10 1:20.451784 2:-1.3705501 3:-0.8304701 
-10 1:20.537454 2:-0.8167277 3:-0.96649743 
-2.029530926266625 1:20.666407 2:0.32805999 3:-0.90470837 
-10 1:20.690992 2:0.51846683 3:-0.91677655 
-10 1:20.717033 2:0.70793807 3:-0.94003302 
-10 1:20.747197 2:0.88434302 3:-1.0038517 
-10 1:20.756142 2:1.0150299 3:-0.95564137 
-10 1:20.744497 2:1.1120191 3:-0.78958151 
-10 1:20.728786 2:1.1859995 3:-0.61426326 
-10 1:20.708815 2:1.2358667 3:-0.42924216 
-8.383367309259121 1:20.688844 2:1.2857338 3:-0.24422107 
-10 1:20.668872 2:1.335601 3:-0.059199967 
-10 1:20.64824 2:1.3810547 3:0.126752 
-10 1:20.626064 2:1.4162057 3:0.31487702 
-10 1:20.603888 2:1.4513568 3:0.50300203 
-10 1:20.581712 2:1.4865078 3:0.69112704 
-10 1:20.559536 2:1.5216588 3:0.87925206 
-10 1:20.53736 2:1.5568098 3:1.0673771 
-10 1:20.514417 2:1.5865136 3:1.2562986 
-10 1:20.491018 2:1.6129768 3:1.4456939 
-10 1:20.467269 2:1.5611607 3:1.5705295 
-10 1:20.442899 2:1.370318 3:1.5807052 
10 1:20.394157 2:0.98863279 3:1.6010565 
10 1:20.369786 2:0.79779017 3:1.6112321 
10 1:20.345415 2:0.60694755 3:1.6214078 
10 1:20.330075 2:0.42262737 3:1.5728203 
10 1:20.31612 2:0.2393071 3:1.5152241 
10 1:20.302164 2:0.055986839 3:1.4576279 
10 1:20.288209 2:-0.12733342 3:1.4000317 
10 1:20.298978 2:-0.62765324 3:0.8947156 
10 1:20.313685 2:-0.70830402 3:0.72083941 
10 1:20.332311 2:-0.76662313 3:0.53816389 
10 1:20.350937 2:-0.82494224 3:0.35548838 
10 1:20.369563 2:-0.88326135 3:0.17281286 
10 1:20.388189 2:-0.94158047 3:-0.009862657 
10 1:20.403723 2:-1.0175164 3:-0.18559665 
10 1:20.407607 2:-1.1278387 3:-0.30777985 
10 1:20.422333 2:-1.2087425 3:-0.48200993 
-4.445306613215968 1:20.994847 2:-1.1797953 3:-0.84070257 
10 1:21.006857 2:-0.63544797 3:-0.8445775 
10 1:21.01086 2:-0.45399885 3:-0.84586914 
10 1:21.014863 2:-0.27254974 3:-0.84716078 
10 1:21.018867 2:-0.091100617 3:-0.84845242 
10 1:21.02287 2:0.090348502 3:-0.84974406 
-10 1:21.038883 2:0.81614498 3:-0.85491062 
-10 1:21.042886 2:0.9975941 3:-0.85620226 
-10 1:21.042488 2:1.0971355 3:-0.75137381 
10 1:21.031371 2:1.1910323 3:-0.21566205 
10 1:21.027364 2:1.2105886 3:-0.035265355 
10 1:21.023357 2:1.230145 3:0.14513134 
10 1:21.019349 2:1.2497014 3:0.32552803 
10 1:21.015342 2:1.2692577 3:0.50592473 
10 1:21.011335 2:1.2888141 3:0.68632142 
-10 1:20.995306 2:1.3670396 3:1.4079082 
10 1:20.983863 2:1.1231625 3:1.6562124 
10 1:20.980127 2:0.94194557 3:1.6468343 
10 1:20.976391 2:0.76072865 3:1.6374562 
10 1:20.972655 2:0.57951173 3:1.6280782 
10 1:20.968919 2:0.39829481 3:1.6187001 
10 1:20.965184 2:0.21707789 3:1.609322 
-10 1:20.957712 2:-0.14535595 3:1.5905658 
-10 1:20.956831 2:-0.29690169 3:1.4915001 
-10 1:20.956001 2:-0.44791407 3:1.3908221 
-10 1:20.955171 2:-0.59892646 3:1.2901442 
-10 1:20.954341 2:-0.74993884 3:1.1894662 
-10 1:20.954701 2:-0.87512285 3:1.0633817 
-10 1:20.956304 2:-0.97331911 3:0.91075011 
-10 1:20.957907 2:-1.0715154 3:0.75811852 
-10 1:20.959537 2:-1.1688213 3:0.60519625 
-10 1:20.963751 2:-1.1797632 3:0.42407751 
-10 1:20.967965 2:-1.1907052 3:0.24295878 
10 1:20.976392 2:-1.2125891 3:-0.11927869 
10 1:20.980605 2:-1.2235311 3:-0.30039743 
10 1:20.984912 2:-1.2300518 3:-0.48133997 
-10 1:21.64123 2:-1.5832637 3:-0.86137595 
-10 1:21.614172 2:-1.3945043 3:-0.87424817 
-10 1:21.588329 2:-1.2058544 3:-0.87355275 
10 1:21.541317 2:-0.83084004 3:-0.822868 
10 1:21.521775 2:-0.65024725 3:-0.76343491 
10 1:21.501133 2:-0.46773541 3:-0.7134635 
10 1:21.477063 2:-0.27924542 3:-0.69296685 
10 1:21.452993 2:-0.090755425 3:-0.67247019 
10 1:21.428924 2:0.097734567 3:-0.65197354 
10 1:21.404854 2:0.28622456 3:-0.63147688 
10 1:21.375798 2:0.46869905 3:-0.67669886 
10 1:21.346354 2:0.65070417 3:-0.72704868 
-10 1:21.287785 2:1.01562 3:-0.82272339 
-10 1:21.264145 2:1.188778 3:-0.82118091 
-10 1:21.284673 2:1.160272 3:-0.63331408 
10 1:21.305201 2:1.1317659 3:-0.44544724 
10 1:21.323673 2:1.1193349 3:-0.25585973 
10 1:21.341459 2:1.112275 3:-0.065697295 
10 1:21.359246 2:1.1052151 3:0.12446514 
10 1:21.377032 2:1.0981553 3:0.31462758 
10 1:21.394216 2:1.0954554 3:0.50474971 
10 1:21.408945 2:1.1105208 3:0.69470761 
10 1:21.423675 2:1.1255862 3:0.88466551 
10 1:21.438405 2:1.1406516 3:1.0746234 
10 1:21.453472 2:1.1531612 3:1.2644231 
10 1:21.474627 2:1.1194917 3:1.4513636 
-10 1:21.516937 2:1.0521528 3:1.8252447 
-10 1:21.537552 2:0.87896882 3:1.7894452 
9.66642488922678 1:21.596455 2:0.33780956 3:1.6152378 
10 1:21.611921 2:0.16869822 3:1.5275446 
10 1:21.627387 2:-0.00041312041 3:1.4398515 
10 1:21.642854 2:-0.16952446 3:1.3521583 
10 1:21.655912 2:-0.32892839 3:1.2523121 
10 1:21.659461 2:-0.44998822 3:1.1044613 
10 1:21.663009 2:-0.57104805 3:0.95661042 
10 1:21.666557 2:-0.69210788 3:0.80875959 
10 1:21.670105 2:-0.8131677 3:0.66090877 
10 1:21.673654 2:-0.93422753 3:0.51305794 
10 1:21.677202 2:-1.0552874 3:0.36520711 
0.9821098205073623 1:21.674006 2:-1.1409182 3:0.19610312 
-10 1:21.657618 2:-1.362091 3:-0.33263641 
-10 1:21.652155 2:-1.4358152 3:-0.50888293 
-10 1:21.646692 2:-1.5095395 3:-0.68512944 
-10 1:21.995825 2:-1.0438238 3:-1.4321641 
-10 1:21.985682 2:-0.8723213 3:-1.3534297 
-10 1:21.975538 2:-0.70081877 3:-1.2746952 
-10 1:21.965395 2:-0.52931625 3:-1.1959608 
-10 1:21.955252 2:-0.35781372 3:-1.1172264 
10 1:21.932802 2:-0.006948557 3:-0.98071374 
10 1:21.920262 2:0.17325939 3:-0.92518928 
10 1:21.907723 2:0.35346733 3:-0.86966482 
10 1:21.897202 2:0.5263427 3:-0.7945906 
10 1:21.887058 2:0.69784523 3:-0.71585615 
10 1:21.876915 2:0.86934775 3:-0.63712171 
10 1:21.866772 2:1.0408503 3:-0.55838726 
-10 1:21.842743 2:1.3950916 3:-0.44026252 
-10 1:21.838219 2:1.5075314 3:-0.35790318 
-10 1:21.853383 2:1.4828035 3:-0.17115815 
-10 1:21.868547 2:1.4580755 3:0.015586883 
-10 1:21.88371 2:1.4333476 3:0.20233191 
-10 1:22.002132 2:1.0918763 3:1.46577 
-10 1:22.020383 2:1.0247972 3:1.6415038 
-10 1:22.040997 2:0.91158767 3:1.7907682 
-10 1:22.061773 2:0.7952218 3:1.9382215 
-10 1:22.073076 2:0.6545031 3:1.916719 
-10 1:22.079414 2:0.50101742 3:1.8066414 
-10 1:22.085751 2:0.34753174 3:1.6965637 
-10 1:22.092089 2:0.19404607 3:1.586486 
10 1:22.096368 2:-0.061786965 3:1.3121321 
10 1:22.096923 2:-0.18005662 3:1.164731 
10 1:22.097478 2:-0.29832628 3:1.0173298 
10 1:22.098034 2:-0.41659594 3:0.86992872 
10 1:22.098589 2:-0.5348656 3:0.7225276 
10 1:22.098968 2:-0.65184185 3:0.57428047 
10 1:22.095395 2:-0.73978535 3:0.40704325 
10 1:22.091822 2:-0.82772884 3:0.23980603 
10 1:22.082079 2:-0.85808371 3:0.059046034 
10 1:22.068805 2:-0.85547816 3:-0.12945362 
10 1:22.058901 2:-0.88637991 3:-0.31326707 
10 1:22.046289 2:-0.8910661 3:-0.50177196 
10 1:22.035388 2:-0.91331549 3:-0.68862924 
-10 1:22.015606 2:-0.97856966 3:-1.0603967 
-10 1:22.005715 2:-1.0111967 3:-1.2462804 
-10 1:22.76425 2:-1.189889 3:-0.82428858 
-10 1:22.752333 2:-1.0248642 3:-0.8919496 
-2.675129103965721 1:22.613177 2:0.34635607 3:-1.1588316 
-10 1:22.590693 2:0.52368474 3:-1.16032 
-10 1:22.566113 2:0.69455455 3:-1.1403082 
-10 1:22.534311 2:0.84316412 3:-1.0461964 
-10 1:22.502509 2:0.99177369 3:-0.95208464 
-10 1:22.470868 2:1.0931546 3:-0.81470036 
4.959498262403298 1:22.380916 2:1.2763719 3:-0.32528873 
10 1:22.353539 2:1.305241 3:-0.15101803 
10 1:22.327036 2:1.3262739 3:0.024199297 
10 1:22.302019 2:1.3339758 3:0.20102706 
-10 1:22.22697 2:1.3570813 3:0.73151036 
-10 1:22.211551 2:1.3009478 3:0.89780274 
-1.968594851738768 1:22.198178 2:1.2312154 3:1.0618507 
10 1:22.205475 2:0.96271408 3:1.2609149 
10 1:22.217047 2:0.79843093 3:1.3304155 
10 1:22.22862 2:0.63414779 3:1.3999162 
0.641147969722496 1:22.240192 2:0.46986464 3:1.4694168 
-10 1:22.268384 2:0.13526294 3:1.5769529 
-10 1:22.290868 2:-0.042065728 3:1.5784413 
-10 1:22.313352 2:-0.2193944 3:1.5799297 
-10 1:22.341763 2:-0.37696338 3:1.5192108 
-10 1:22.373803 2:-0.5224276 3:1.4203839 
-10 1:22.405844 2:-0.66789182 3:1.3215569 
-10 1:22.437884 2:-0.81335605 3:1.2227299 
-10 1:22.469116 2:-0.91156235 3:1.0853664 
-10 1:22.499812 2:-0.97845137 3:0.92246516 
10 1:22.556194 2:-1.0574303 3:0.58194013 
10 1:22.582503 2:-1.0763252 3:0.40614461 
10 1:22.608811 2:-1.0952201 3:0.23034908 
10 1:22.635137 2:-1.1142795 3:0.054576704 
10 1:22.662069 2:-1.1389038 3:-0.12041339 
10 1:22.689001 2:-1.163528 3:-0.29540349 
9.084663105990114 1:22.715932 2:-1.1881522 3:-0.47039358 
10 1:22.769354 2:-1.1441145 3:-0.49793634 
10 1:22.78272 2:-0.9980507 3:-0.59159074 
10 1:22.796086 2:-0.85198687 3:-0.68524514 
10 1:22.809451 2:-0.70592303 3:-0.77889954 
10 1:22.822817 2:-0.5598592 3:-0.87255393 
10 1:22.836182 2:-0.41379537 3:-0.96620833 
10 1:22.854687 2:-0.25359333 3:-1.0313263 
10 1:22.873374 2:-0.092889257 3:-1.095431 
1.243570036594243 1:22.892062 2:0.067814818 3:-1.1595356 
-10 1:22.910749 2:0.22851889 3:-1.2236403 
-10 1:22.93172 2:0.39172808 3:-1.2692628 
-10 1:22.959974 2:0.56292613 3:-1.2559452 
-10 1:22.988228 2:0.73412418 3:-1.2426276 
-10 1:23.018018 2:0.89617139 3:-1.2002419 
-10 1:23.049723 2:1.0375265 3:-1.107344 
-10 1:23.079921 2:1.1406324 3:-0.97044363 
-10 1:23.109165 2:1.2363874 3:-0.8315758 
10 1:23.136011 2:1.1839528 3:-0.4885487 
10 1:23.149434 2:1.1577355 3:-0.31703515 
10 1:23.162858 2:1.1315182 3:-0.1455216 
10 1:23.17577 2:1.1023616 3:0.025509153 
10 1:23.187782 2:1.0680305 3:0.19568996 
10 1:23.199794 2:1.0336995 3:0.36587076 
10 1:23.211807 2:0.99936836 3:0.53605156 
10 1:23.223819 2:0.96503727 3:0.70623237 
10 1:23.23431 2:0.92303897 3:0.87330967 
10 1:23.234136 2:0.8273098 3:1.018638 
10 1:23.22976 2:0.7153084 3:1.1478793 
10 1:23.217485 2:0.57271077 3:1.2468725 
10 1:23.20521 2:0.43011314 3:1.3458658 
10 1:23.162472 2:0.116827 3:1.4091601 
10 1:23.133003 2:-0.052326491 3:1.3808213 
10 1:23.103534 2:-0.22147998 3:1.3524825 
-7.045771756102002 1:23.044595 2:-0.55978696 3:1.2958049 
-10 1:23.014884 2:-0.72682205 3:1.2618442 
-10 1:22.982844 2:-0.87348889 3:1.173829 
-10 1:22.950803 2:-1.0201557 3:1.0858138 
-10 1:22.918763 2:-1.1668226 3:0.99779854 
-10 1:22.886722 2:-1.3134894 3:0.90978333 
-10 1:22.856605 2:-1.431171 3:0.7960522 
-10 1:22.839751 2:-1.4285674 3:0.62725663 
-10 1:22.82579 2:-1.4055025 3:0.45533353 
-10 1:22.81183 2:-1.3824377 3:0.28341044 
-10 1:22.79787 2:-1.3593729 3:0.11148734 
-10 1:22.78391 2:-1.336308 3:-0.060435753 
-10 1:23.313741 2:-0.40927577 3:-1.232927 
-10 1:23.313175 2:-0.25106343 3:-1.3146717 
-10 1:23.312609 2:-0.092851081 3:-1.3964165 
-10 1:23.324227 2:0.076702037 3:-1.3899629 
-10 1:23.340062 2:0.25018104 3:-1.3529772 
-10 1:23.355898 2:0.42366005 3:-1.3159915 
-10 1:23.371733 2:0.59713905 3:-1.2790059 
-10 1:23.387569 2:0.77061806 3:-1.2420202 
-10 1:23.409188 2:0.9037688 3:-1.1408058 
-10 1:23.533637 2:1.4439132 3:-0.44747869 
-10 1:23.558475 2:1.4831399 3:-0.27555431 
-10 1:23.583314 2:1.5223666 3:-0.10362992 
-10 1:23.608152 2:1.5615934 3:0.068294465 
-10 1:23.63299 2:1.6008201 3:0.24021885 
-10 1:23.654017 2:1.5849764 3:0.40975311 
-10 1:23.672199 2:1.5280297 3:0.57750344 
-10 1:23.69038 2:1.4710831 3:0.74525377 
-10 1:23.708562 2:1.4141364 3:0.9130041 
-10 1:23.714908 2:1.2897829 3:1.0226553 
-10 1:23.715105 2:1.1304163 3:1.1021282 
-10 1:23.715302 2:0.9710498 3:1.181601 
10 1:23.690278 2:0.15388628 3:1.3887735 
10 1:23.67389 2:-0.018444032 3:1.3469722 
10 1:23.657501 2:-0.19077435 3:1.3051708 
10 1:23.638724 2:-0.354759 3:1.2409083 
10 1:23.618545 2:-0.51384363 3:1.1634581 
10 1:23.598365 2:-0.67292825 3:1.0860079 
10 1:23.576937 2:-0.82431322 3:0.9951852 
1.111390945383534 1:23.555049 2:-0.97285997 3:0.89943324 
10 1:23.532052 2:-1.0483707 3:0.75942478 
10 1:23.508161 2:-1.0649994 3:0.58373646 
10 1:23.48427 2:-1.0816281 3:0.40804815 
10 1:23.460379 2:-1.0982568 3:0.23235983 
10 1:23.436488 2:-1.1148855 3:0.05667152 
10 1:23.412975 2:-1.1256595 3:-0.11897304 
10 1:23.391589 2:-1.1034844 3:-0.29437133 
10 1:23.370203 2:-1.0813093 3:-0.46976963 
10 1:23.351347 2:-1.0367839 3:-0.63663294 
10 1:23.339189 2:-0.93308942 3:-0.78090113 
10 1:23.327031 2:-0.82939494 3:-0.92516932 
10 1:23.952517 2:-0.51352294 3:-0.94931266 
10 1:23.970345 2:-0.33976469 3:-0.99747447 
10 1:23.988173 2:-0.16600645 3:-1.0456363 
10 1:24.006001 2:0.0077517975 3:-1.0937981 
10 1:24.023829 2:0.18151004 3:-1.1419599 
10 1:24.041255 2:0.35396156 3:-1.133537 
10 1:24.058341 2:0.52530561 3:-1.0771575 
10 1:24.075426 2:0.69664966 3:-1.020778 
10 1:24.092511 2:0.86799371 3:-0.96439854 
10 1:24.108827 2:1.0324625 3:-0.89275825 
10 1:24.1241 2:1.1876062 3:-0.8004191 
10 1:24.131677 2:1.2696242 3:-0.64738588 
10 1:24.137031 2:1.3305197 3:-0.4768209 
10 1:24.142385 2:1.3914151 3:-0.30625592 
10 1:24.141552 2:1.3915145 3:-0.129565 
10 1:24.138081 2:1.3656811 3:0.049738975 
10 1:24.134609 2:1.3398477 3:0.22904295 
10 1:24.131138 2:1.3140143 3:0.40834692 
10 1:24.127666 2:1.2881809 3:0.58765089 
-10 1:24.103077 2:1.0684477 3:1.0771969 
-10 1:24.093444 2:0.98079208 3:1.2354784 
-10 1:24.079402 2:0.84695957 3:1.3377833 
-10 1:24.061809 2:0.6759532 3:1.3950253 
-10 1:24.044216 2:0.50494684 3:1.4522674 
-10 1:24.026623 2:0.33394048 3:1.5095094 
-10 1:24.008652 2:0.15644121 3:1.5082595 
-9.667744945037331 1:23.990571 2:-0.022930432 3:1.4901422 
-10 1:23.972491 2:-0.20230207 3:1.4720249 
-10 1:23.95441 2:-0.38167371 3:1.4539075 
-10 1:23.93676 2:-0.55727574 3:1.425668 
-10 1:23.922363 2:-0.70435313 3:1.3208333 
-10 1:23.907967 2:-0.85143053 3:1.2159985 
-10 1:23.899955 2:-0.9379674 3:1.0581882 
-10 1:23.869367 2:-1.2702671 3:0.41482935 
-10 1:23.86172 2:-1.353342 3:0.25398964 
-10 1:23.859998 2:-1.3787229 3:0.076008512 
-10 1:23.859095 2:-1.3961395 3:-0.10433886 
-10 1:23.858191 2:-1.4135561 3:-0.28468623 
-10 1:23.86207 2:-1.3834205 3:-0.4582206 
-10 1:23.869628 2:-1.3167217 3:-0.6265164 
-10 1:23.877186 2:-1.2500229 3:-0.79481221 
-10 1:23.884744 2:-1.1833241 3:-0.96310801 
-10 1:23.898505 2:-1.0500338 3:-1.0178896 
-10 1:23.916509 2:-0.87119686 3:-0.99503063 
10 1:23.934513 2:-0.6923599 3:-0.97217165 
-10 1:24.411542 2:-1.2598387 3:-0.39380798 
10 1:24.436003 2:-1.1634063 3:-0.054178575 
10 1:24.448233 2:-1.1151902 3:0.11563613 
10 1:24.460464 2:-1.066974 3:0.28545083 
10 1:24.472694 2:-1.0187578 3:0.45526553 
10 1:24.484924 2:-0.97054164 3:0.62508024 
10 1:24.497155 2:-0.92232546 3:0.79489494 
10 1:24.509385 2:-0.87410928 3:0.96470964 
-10 1:24.534465 2:-0.71342938 3:1.2563321 
-10 1:24.547667 2:-0.56440053 3:1.3508177 
-10 1:24.560869 2:-0.41537168 3:1.4453033 
-10 1:24.574071 2:-0.26634283 3:1.5397889 
-10 1:24.581444 2:-0.10511702 3:1.5211356 
10 1:24.586611 2:0.060726481 3:1.4596486 
10 1:24.591778 2:0.22656999 3:1.3981616 
10 1:24.596945 2:0.39241349 3:1.3366746 
10 1:24.59865 2:0.53572552 3:1.2352578 
10 1:24.599561 2:0.67387058 3:1.1246842 
10 1:24.600472 2:0.81201563 3:1.0141105 
10 1:24.601383 2:0.95016069 3:0.90353688 
10 1:24.602294 2:1.0883057 3:0.79296325 
10 1:24.597832 2:1.1712567 3:0.63892441 
10 1:24.59263 2:1.2466179 3:0.4789086 
10 1:24.587429 2:1.321979 3:0.31889279 
10 1:24.582227 2:1.3973401 3:0.15887698 
10 1:24.575716 2:1.4547496 3:-0.0076186986 
-10 1:24.560886 2:1.5448107 3:-0.34954666 
-10 1:24.553471 2:1.5898413 3:-0.52051065 
-10 1:24.546056 2:1.6348718 3:-0.69147463 
-10 1:24.534425 2:1.4875165 3:-0.76000427 
-7.648235677619224 1:24.522372 2:1.3208661 3:-0.81826043 
10 1:24.510319 2:1.1542157 3:-0.87651658 
10 1:24.498265 2:0.98756533 3:-0.93477273 
10 1:24.486212 2:0.82091494 3:-0.99302889 
10 1:24.474158 2:0.65426456 3:-1.051285 
10 1:24.462105 2:0.48761418 3:-1.1095412 
10 1:24.450051 2:0.32096379 3:-1.1677973 
10 1:24.437998 2:0.15431341 3:-1.2260535 
-10 1:24.416376 2:-0.18297328 3:-1.2954331 
10 1:24.412093 2:-0.47806546 3:-1.1001182 
10 1:24.409952 2:-0.62561155 3:-1.0024607 
10 1:24.40781 2:-0.77315763 3:-0.90480322 
-10 1:24.410246 2:-1.1412244 3:-0.52511065 
10 1:24.93104 2:-1.1273986 3:0.034931984 
10 1:24.947741 2:-1.0988497 3:0.21371038 
10 1:24.964441 2:-1.0703008 3:0.39248878 
10 1:24.981141 2:-1.0417519 3:0.57126718 
10 1:24.997842 2:-1.013203 3:0.75004558 
-10 1:25.014542 2:-0.98465406 3:0.92882399 
-3.029537331579482 1:25.032236 2:-0.88156749 3:1.0624577 
10 1:25.137642 2:0.23964974 3:1.4701316 
10 1:25.14398 2:0.4124444 3:1.41394 
10 1:25.150318 2:0.58523906 3:1.3577485 
10 1:25.156656 2:0.75803373 3:1.3015569 
10 1:25.158746 2:0.91350829 3:1.2075888 
-10 1:25.162686 2:1.2234855 3:1.017533 
-10 1:25.159459 2:1.3426458 3:0.88749439 
-10 1:25.152263 2:1.4344591 3:0.73073273 
-10 1:25.145068 2:1.5262723 3:0.57397107 
-10 1:25.137873 2:1.6180855 3:0.41720941 
-10 1:25.126636 2:1.6612078 3:0.24917445 
-10 1:25.110842 2:1.6494444 3:0.068431996 
-10 1:25.095048 2:1.637681 3:-0.11231046 
-10 1:25.079254 2:1.6259176 3:-0.29305292 
-10 1:25.06346 2:1.6141542 3:-0.47379538 
-10 1:25.047666 2:1.6023908 3:-0.65453783 
-10 1:25.031872 2:1.5906274 3:-0.83528029 
-10 1:25.014317 2:1.4616239 3:-0.94739783 
-10 1:24.996424 2:1.3101653 3:-1.0463716 
-10 1:24.978531 2:1.1587067 3:-1.1453453 
-10 1:24.960638 2:1.0072482 3:-1.2443191 
-10 1:24.946596 2:0.83171163 3:-1.2785891 
-10 1:24.933255 2:0.6517889 3:-1.3010722 
-10 1:24.919914 2:0.47186616 3:-1.3235554 
-10 1:24.909991 2:0.29542205 3:-1.3076438 
10 1:24.897315 2:-0.050167275 3:-1.1952607 
10 1:24.890977 2:-0.22296194 3:-1.1390691 
10 1:24.885333 2:-0.39273499 3:-1.0768601 
10 1:24.884697 2:-0.5406839 3:-0.97118901 
10 1:24.884696 2:-0.6849754 3:-0.86068942 
10 1:24.885132 2:-0.82675616 3:-0.74687516 
10 1:24.886823 2:-0.96034499 3:-0.62424047 
10 1:24.915935 2:-1.1277767 3:-0.14625124 
9.803223740396007 1:25.4315 2:-0.99044991 3:-0.60360636 
-10 1:25.437833 2:-1.2530078 3:-0.13360094 
-10 1:25.44246 2:-1.2952601 3:0.034838314 
-10 1:25.449415 2:-1.2956153 3:0.21417206 
-10 1:25.45637 2:-1.2959705 3:0.3935058 
-10 1:25.463635 2:-1.2873809 3:0.57032353 
-10 1:25.473823 2:-1.1941367 3:0.7233295 
-10 1:25.48401 2:-1.1008926 3:0.87633547 
-10 1:25.494198 2:-1.0076484 3:1.0293414 
-10 1:25.504572 2:-0.86733433 3:1.1320729 
-10 1:25.556309 2:-0.06717412 3:1.5270362 
-10 1:25.574201 2:0.28859068 3:1.5711685 
-10 1:25.583147 2:0.46647308 3:1.5932347 
-7.866456640357724 1:25.584801 2:0.60137332 3:1.4780033 
7.989017579726722 1:25.586199 2:0.7347615 3:1.3579419 
10 1:25.587596 2:0.86814968 3:1.2378805 
10 1:25.588994 2:1.0015379 3:1.1178192 
10 1:25.589357 2:1.1220917 3:0.98614821 
10 1:25.588554 2:1.2281917 3:0.84140277 
10 1:25.580098 2:1.4433898 3:0.37216825 
10 1:25.573325 2:1.4477285 3:0.19287964 
10 1:25.566553 2:1.4520671 3:0.013591033 
10 1:25.55978 2:1.4564058 3:-0.16569757 
10 1:25.55017 2:1.380136 3:-0.32369906 
10 1:25.540016 2:1.2884001 3:-0.47761621 
10 1:25.529861 2:1.1966641 3:-0.63153337 
10 1:25.519706 2:1.1049281 3:-0.78545052 
10 1:25.509523 2:1.0106427 3:-0.93711865 
10 1:25.498816 2:0.8694986 3:-1.047449 
10 1:25.488892 2:0.70825764 3:-1.1141552 
10 1:25.47953 2:0.53254012 3:-1.1494372 
10 1:25.470169 2:0.3568226 3:-1.1847191 
-1.679939988792019 1:25.451446 2:0.0053875634 3:-1.2552829 
-10 1:25.442673 2:-0.17217858 3:-1.2732782 
-10 1:25.434441 2:-0.35144652 3:-1.2753598 
-10 1:25.426209 2:-0.53071446 3:-1.2774414 
-10 1:25.419534 2:-0.69510828 3:-1.2568578 
-10 1:25.422819 2:-0.76438239 3:-1.0913301 
-10 1:25.426104 2:-0.8336565 3:-0.92580248 
10 1:26.210631 2:-1.1380044 3:-0.27692066 
10 1:26.180527 2:-1.0869404 3:-0.10664375 
10 1:26.150424 2:-1.0358763 3:0.06363316 
10 1:26.12032 2:-0.98481225 3:0.23391007 
10 1:26.089798 2:-0.92949089 3:0.40240095 
10 1:26.056806 2:-0.84905971 3:0.56035768 
10 1:26.023814 2:-0.76862853 3:0.71831441 
10 1:25.990822 2:-0.68819734 3:0.87627114 
10 1:25.955726 2:-0.56130467 3:0.99588628 
10 1:25.920128 2:-0.4233283 3:1.1063548 
10 1:25.88453 2:-0.28535192 3:1.2168233 
10 1:25.848932 2:-0.14737554 3:1.3272918 
10 1:25.813335 2:-0.009399161 3:1.4377602 
-10 1:25.777737 2:0.12857722 3:1.5482287 
-10 1:25.74693 2:0.29226969 3:1.5919503 
-10 1:25.718783 2:0.47023344 3:1.5986304 
-10 1:25.690636 2:0.64819719 3:1.6053105 
-10 1:25.662489 2:0.82616094 3:1.6119906 
-10 1:25.66747 2:0.92144523 3:1.462311 
-10 1:25.673473 2:1.0141761 3:1.3078023 
-10 1:25.679477 2:1.1069069 3:1.1532936 
10 1:25.704384 2:1.2293733 3:0.81947347 
10 1:25.72088 2:1.2708612 3:0.64478919 
10 1:25.737376 2:1.3123492 3:0.4701049 
10 1:25.755575 2:1.3439162 3:0.29403029 
10 1:25.776709 2:1.3583768 3:0.11555836 
10 1:25.797842 2:1.3728374 3:-0.062913573 
10 1:25.818976 2:1.387298 3:-0.2413855 
10 1:25.84011 2:1.4017586 3:-0.41985743 
10 1:25.861244 2:1.4162193 3:-0.59832937 
-10 1:25.909092 2:1.3746927 3:-0.91540885 
-7.802082786895519 1:26.013262 2:0.90342764 3:-1.1596006 
-10 1:26.047986 2:0.74633927 3:-1.2409979 
-10 1:26.080765 2:0.57889722 3:-1.2954116 
-10 1:26.112536 2:0.40607809 3:-1.3358117 
-10 1:26.144306 2:0.23325896 3:-1.3762119 
-10 1:26.176076 2:0.060439835 3:-1.416612 
-10 1:26.205111 2:-0.11023277 3:-1.4386132 
-10 1:26.218133 2:-0.26834396 3:-1.3529438 
-10 1:26.231155 2:-0.42645514 3:-1.2672744 
-10 1:26.244178 2:-0.58456633 3:-1.1816049 
-10 1:26.251395 2:-0.72238826 3:-1.0753285 
10 1:26.229664 2:-0.98422714 3:-0.60253112 
10 1:26.220148 2:-1.0611158 3:-0.43972589 
-10 1:26.570269 2:-1.3728358 3:-0.47065577 
-10 1:26.553038 2:-1.3290885 3:-0.29123798 
-10 1:26.535806 2:-1.2853411 3:-0.11182019 
-10 1:26.449646 2:-1.0666045 3:0.78526875 
-10 1:26.390547 2:-0.56176719 3:1.3230874 
-10 1:26.378724 2:-0.41149593 3:1.4199145 
-10 1:26.370497 2:-0.23344827 3:1.471226 
-10 1:26.362271 2:-0.055400615 3:1.5225375 
-10 1:26.356142 2:0.12790305 3:1.5497009 
-10 1:26.350101 2:0.31142763 3:1.5758494 
-10 1:26.34406 2:0.49495221 3:1.6019979 
-10 1:26.338019 2:0.67847679 3:1.6281465 
-10 1:26.340972 2:0.82914182 3:1.5628393 
-10 1:26.350939 2:0.95418161 3:1.4262113 
-10 1:26.361 2:1.078219 3:1.2887821 
-10 1:26.372648 2:1.1851452 3:1.1376775 
-10 1:26.384296 2:1.2920715 3:0.98657288 
-10 1:26.395944 2:1.3989977 3:0.83546825 
-10 1:26.410048 2:1.4629653 3:0.66681339 
-10 1:26.490046 2:1.6170682 3:-0.24416979 
-10 1:26.506046 2:1.6478888 3:-0.42636642 
-10 1:26.522045 2:1.6787094 3:-0.60856306 
-10 1:26.535469 2:1.540664 3:-0.72561288 
-10 1:26.548777 2:1.3950731 3:-0.8397517 
10 1:26.568233 2:1.0871695 3:-0.9858407 
10 1:26.567309 2:0.90834358 3:-0.93662735 
10 1:26.569511 2:0.72446617 3:-0.92060549 
10 1:26.572619 2:0.53912678 3:-0.91418975 
10 1:26.575727 2:0.35378739 3:-0.90777402 
10 1:26.578834 2:0.168448 3:-0.90135828 
10 1:26.584418 2:-0.015359335 3:-0.9224331 
10 1:26.590459 2:-0.19888392 3:-0.94858161 
10 1:26.596176 2:-0.38178453 3:-0.97131104 
10 1:26.591261 2:-0.54422343 3:-0.88191888 
10 1:26.586346 2:-0.70666233 3:-0.79252673 
10 1:26.581464 2:-0.86927623 3:-0.70345539 
10 1:26.57675 2:-1.0327887 3:-0.61603131 
-10 1:26.572419 2:-1.1981989 3:-0.53238445 
-10 1:26.923146 2:-1.494955 3:-0.23393463 
-10 1:26.946014 2:-1.450523 3:-0.048536074 
-10 1:26.968882 2:-1.406091 3:0.13686248 
-10 1:26.99175 2:-1.361659 3:0.32226104 
-10 1:27.014618 2:-1.3172271 3:0.50765959 
-10 1:27.037486 2:-1.2727951 3:0.69305815 
-10 1:27.060354 2:-1.2283631 3:0.8784567 
-10 1:27.083222 2:-1.1839312 3:1.0638553 
-10 1:27.103923 2:-1.1143277 3:1.2231843 
-10 1:27.114409 2:-0.92610039 3:1.2596577 
-10 1:27.124895 2:-0.73787312 3:1.2961311 
-10 1:27.132849 2:-0.54842984 3:1.3102943 
10 1:27.137209 2:-0.35726185 3:1.2928142 
10 1:27.14157 2:-0.16609386 3:1.275334 
10 1:27.145931 2:0.025074137 3:1.2578539 
10 1:27.144222 2:0.20114445 3:1.1921192 
10 1:27.138897 2:0.36821976 3:1.097635 
10 1:27.137044 2:0.54707927 3:1.0298465 
10 1:27.136386 2:0.72982614 3:0.97129381 
10 1:27.14478 2:0.92085557 3:0.98881732 
10 1:27.153173 2:1.111885 3:1.0063408 
-10 1:27.147035 2:1.4604826 3:0.8523152 
-10 1:27.13309 2:1.55713 3:0.70347034 
-10 1:27.114051 2:1.6154994 3:0.52153549 
-10 1:27.095011 2:1.6738688 3:0.33960063 
-10 1:27.073328 2:1.6702693 3:0.15266352 
-10 1:27.05066 2:1.6436058 3:-0.03613536 
-10 1:26.982658 2:1.5636155 3:-0.60253199 
-10 1:26.95999 2:1.536952 3:-0.79133086 
-10 1:26.937323 2:1.5102886 3:-0.98012974 
-10 1:26.918497 2:1.4261464 3:-1.1190013 
-10 1:26.906381 2:1.2416107 3:-1.1706691 
-10 1:26.894265 2:1.057075 3:-1.2223368 
-10 1:26.883536 2:0.87240935 3:-1.2619446 
-10 1:26.883012 2:0.68678781 3:-1.2128106 
10 1:26.874476 2:0.11985756 3:-1.1228537 
10 1:26.870115 2:-0.071310434 3:-1.1053735 
3.245425428149334 1:26.865755 2:-0.26247843 3:-1.0878934 
10 1:26.868303 2:-0.61062951 3:-0.96512102 
10 1:26.876578 2:-0.76346824 3:-0.84918302 
10 1:26.884853 2:-0.91630697 3:-0.73324502 
-10 1:26.901444 2:-1.2203265 3:-0.50149272 
-10 1:26.912295 2:-1.3576407 3:-0.36771368 
-10 1:27.539357 2:-1.2331532 3:-0.77057341 
-9.839823669116718 1:27.552455 2:-1.2259336 3:-0.59598953 
10 1:27.565554 2:-1.218714 3:-0.42140565 
10 1:27.578653 2:-1.2114944 3:-0.24682177 
10 1:27.591751 2:-1.2042748 3:-0.072237892 
10 1:27.60485 2:-1.1970551 3:0.10234599 
10 1:27.615836 2:-1.1679034 3:0.27261634 
10 1:27.623719 2:-1.1065244 3:0.43654834 
10 1:27.631602 2:-1.0451453 3:0.60048033 
10 1:27.639485 2:-0.98376627 3:0.76441232 
-10 1:27.653371 2:-0.84839664 3:1.0813134 
-10 1:27.647458 2:-0.69443608 3:1.1647664 
-10 1:27.629718 2:-0.23255442 3:1.4151255 
10 1:27.542305 2:0.78047856 3:1.3453332 
10 1:27.523367 2:0.92853432 3:1.2565057 
10 1:27.503807 2:1.0620688 3:1.1447507 
10 1:27.48472 2:1.1771963 3:1.0200254 
10 1:27.467055 2:1.2368728 3:0.85622707 
10 1:27.449391 2:1.2965493 3:0.6924287 
10 1:27.433148 2:1.3335224 3:0.52333556 
10 1:27.418155 2:1.3505223 3:0.34958443 
10 1:27.403163 2:1.3675223 3:0.1758333 
10 1:27.388171 2:1.3845222 3:0.0020821655 
10 1:27.373178 2:1.4015221 3:-0.17166897 
10 1:27.358186 2:1.4185221 3:-0.3454201 
10 1:27.350316 2:1.3655073 3:-0.50055387 
10 1:27.347505 2:1.2627601 3:-0.64246347 
10 1:27.344694 2:1.1600128 3:-0.78437307 
10 1:27.345332 2:1.0407638 3:-0.89932003 
10 1:27.357118 2:0.86815572 3:-0.92708235 
10 1:27.368904 2:0.6955476 3:-0.95484467 
10 1:27.380691 2:0.52293948 3:-0.98260699 
10 1:27.39262 2:0.35009966 3:-1.0087783 
10 1:27.404681 2:0.1770491 3:-1.0335024 
10 1:27.416741 2:0.0039985389 3:-1.0582264 
10 1:27.428801 2:-0.16905202 3:-1.0829505 
-10 1:27.454184 2:-0.51654378 3:-1.1177186 
-10 1:27.467479 2:-0.69095391 3:-1.1280905 
-10 1:27.482984 2:-0.86276353 3:-1.1075847 
-10 1:27.500451 2:-1.0159963 3:-1.0428639 
-10 1:27.519904 2:-1.1245748 3:-0.90671865 
10 1:28.059868 2:-1.1057009 3:0.5581045 
10 1:28.026969 2:-1.0030166 3:0.7045608 
10 1:27.99407 2:-0.90033227 3:0.8510171 
8.182296877324653 1:27.961171 2:-0.79764796 3:0.9974734 
-10 1:27.703872 2:0.8416898 3:1.3924012 
-10 1:27.689719 2:1.0150944 3:1.339426 
-10 1:27.697564 2:1.1177948 3:1.1903613 
10 1:27.734571 2:1.3532291 3:0.71065919 
10 1:27.754703 2:1.3881452 3:0.53331363 
10 1:27.774834 2:1.4230612 3:0.35596808 
10 1:27.794965 2:1.4579772 3:0.17862253 
10 1:27.815097 2:1.4928933 3:0.0012769739 
0.8386491965738319 1:27.835228 2:1.5278093 3:-0.17606858 
-10 1:27.855359 2:1.5627253 3:-0.35341413 
-10 1:27.883646 2:1.5190961 3:-0.51942204 
-10 1:27.915539 2:1.440744 3:-0.68041787 
-10 1:27.947432 2:1.3623919 3:-0.8414137 
-10 1:27.976568 2:1.213511 3:-0.91912272 
-10 1:28.004774 2:1.0408256 3:-0.96872131 
-6.454580028868705 1:28.03298 2:0.86814027 3:-1.0183199 
10 1:28.106652 2:0.33226672 3:-1.0717323 
10 1:28.130352 2:0.15224595 3:-1.0820617 
10 1:28.154052 2:-0.027774817 3:-1.0923912 
-10 1:28.24435 2:-0.90833632 3:-0.95705249 
-10 1:28.251229 2:-1.0646992 3:-0.86661154 
-10 1:28.256443 2:-1.2171641 3:-0.76760084 
-10 1:28.23938 2:-1.2709141 3:-0.59560329 
-10 1:28.221869 2:-1.3226828 3:-0.42214083 
-10 1:28.204358 2:-1.3744514 3:-0.24867836 
-10 1:28.186848 2:-1.4262201 3:-0.075215894 
-10 1:28.156489 2:-1.3589383 3:0.08458822 
10 1:28.092075 2:-1.1901133 3:0.40026574 
10 1:28.552678 2:-1.2444719 3:-0.23491755 
10 1:28.556324 2:-1.1952769 3:-0.06453725 
10 1:28.559969 2:-1.146082 3:0.10584305 
10 1:28.563615 2:-1.096887 3:0.27622335 
10 1:28.567261 2:-1.047692 3:0.44660364 
10 1:28.570907 2:-0.99849704 3:0.61698394 
10 1:28.574553 2:-0.94930206 3:0.78736424 
10 1:28.574441 2:-0.84626093 3:0.92630625 
10 1:28.572844 2:-0.72196073 3:1.0528361 
10 1:28.571247 2:-0.59766053 3:1.1793659 
-10 1:28.547035 2:0.18057099 3:1.5717629 
-10 1:28.541155 2:0.34622926 3:1.6348949 
-10 1:28.531907 2:0.51056002 3:1.601443 
-10 1:28.521485 2:0.6744284 3:1.5343504 
-10 1:28.511063 2:0.83829679 3:1.4672578 
-10 1:28.500641 2:1.0021652 3:1.4001652 
-10 1:28.490099 2:1.1529353 3:1.3116534 
-10 1:28.479409 2:1.2873779 3:1.1964414 
-10 1:28.470012 2:1.3792173 3:1.0588427 
-10 1:28.462851 2:1.3974118 3:0.88254595 
-10 1:28.45569 2:1.4156063 3:0.70624915 
4.845699911220913 1:28.441367 2:1.4519953 3:0.35365555 
10 1:28.434949 2:1.4546853 3:0.17685948 
10 1:28.429015 2:1.4472443 3:-0.00026282934 
10 1:28.423082 2:1.4398033 3:-0.17738514 
-10 1:28.411215 2:1.4249214 3:-0.53162975 
-10 1:28.415197 2:1.0645897 3:-0.91661823 
10 1:28.43164 2:0.71110489 3:-0.94171173 
10 1:28.439862 2:0.53436251 3:-0.95425847 
10 1:28.448083 2:0.35762013 3:-0.96680522 
10 1:28.456092 2:0.18134391 3:-0.98469503 
10 1:28.464061 2:0.005154963 3:-1.0035851 
10 1:28.47203 2:-0.17103399 3:-1.0224752 
10 1:28.480425 2:-0.34715637 3:-1.0292691 
10 1:28.489774 2:-0.52313011 3:-1.0090521 
10 1:28.499123 2:-0.69910385 3:-0.98883519 
-10 1:28.519257 2:-1.0374276 3:-0.88924606 
10 1:28.544732 2:-1.2082223 3:-0.4083699 
-10 1:29.110508 2:-1.1280881 3:-1.0442205 
-10 1:29.114236 2:-0.96697314 3:-1.1186795 
-10 1:29.117964 2:-0.80585815 3:-1.1931385 
-10 1:29.121691 2:-0.64474316 3:-1.2675974 
-10 1:29.123247 2:-0.47861513 3:-1.3181593 
-10 1:29.119894 2:-0.30115301 3:-1.3146914 
-10 1:29.116541 2:-0.12369088 3:-1.3112234 
-10 1:29.113188 2:0.05377125 3:-1.3077555 
-10 1:29.109525 2:0.23065335 3:-1.3006205 
-10 1:29.102188 2:0.40066204 3:-1.2500311 
-10 1:29.094851 2:0.57067074 3:-1.1994416 
-10 1:29.083767 2:0.71758863 3:-1.1013516 
-10 1:29.072433 2:0.86296887 3:-1.0000985 
-10 1:29.061098 2:1.0083491 3:-0.89884534 
-10 1:29.049764 2:1.1537293 3:-0.7975922 
-10 1:29.035305 2:1.2516906 3:-0.65118178 
-10 1:29.020646 2:1.346622 3:-0.50188608 
-10 1:29.005986 2:1.4415535 3:-0.35259037 
-10 1:28.991323 2:1.5349085 3:-0.20293074 
-10 1:28.976324 2:1.5151129 3:-0.027148872 
-10 1:28.961326 2:1.4953172 3:0.14863299 
-10 1:28.946328 2:1.4755215 3:0.32441486 
-10 1:28.93133 2:1.4557258 3:0.50019673 
-10 1:28.916332 2:1.4359302 3:0.6759786 
-10 1:28.901914 2:1.3988555 3:0.84851863 
-10 1:28.887802 2:1.3526447 3:1.0193446 
-10 1:28.877059 2:1.2687715 3:1.1589854 
-10 1:28.87314 2:1.1086053 3:1.2354544 
10 1:28.86859 2:0.78078032 3:1.3521787 
10 1:28.87222 2:0.60341477 3:1.3455183 
