svm_type epsilon_svr
kernel_type rbf
gamma 0.1
nr_class 2
total_sv 15194
rho -8.02118
SV
-10 1:0.35795203 2:0.30878103 3:-0.93525545 
-10 1:0.36348666 2:0.49352559 3:-0.91145065 
-10 1:0.3728196 2:0.66688485 3:-0.86243655 
-10 1:0.39279834 2:0.80833376 3:-0.74276656 
-10 1:0.41277709 2:0.94978268 3:-0.62309657 
-10 1:0.43395069 2:1.0794599 3:-0.49497045 
-7.938791971389533 1:0.4610393 2:1.1508625 3:-0.324983 
10 1:0.51521653 2:1.2936676 3:0.0149919 
10 1:0.5432618 2:1.3424783 3:0.19259517 
10 1:0.57133379 2:1.3906578 3:0.37041123 
10 1:0.59940578 2:1.4388373 3:0.54822729 
8.306141197464465 1:0.62742906 2:1.4730501 3:0.72662624 
10 1:0.65521653 2:1.4396599 3:0.90784655 
-10 1:0.71079146 2:1.3728795 3:1.2702872 
-10 1:0.73857893 2:1.3394893 3:1.4515075 
-10 1:0.74948772 2:1.1952869 3:1.5310689 
-10 1:0.75487969 2:1.0148653 3:1.5774029 
-10 1:0.76027165 2:0.83444376 3:1.6237369 
10 1:0.76173793 2:0.28642852 3:1.6683763 
10 1:0.75675172 2:0.10124419 3:1.648134 
10 1:0.7517655 2:-0.083940149 3:1.6278917 
10 1:0.74677929 2:-0.26912448 3:1.6076494 
10 1:0.74179307 2:-0.45430882 3:1.5874071 
10 1:0.73680686 2:-0.63949315 3:1.5671648 
10 1:0.73182064 2:-0.82467749 3:1.5469225 
-10 1:0.72683442 2:-1.0098618 3:1.5266802 
-10 1:0.71320896 2:-1.1539881 3:1.4481258 
-10 1:0.68686238 2:-1.2376573 3:1.2837081 
-10 1:0.66051581 2:-1.3213265 3:1.1192904 
10 1:0.60412581 2:-1.354808 3:0.75803536 
10 1:0.57553106 2:-1.3570742 3:0.57390211 
10 1:0.5469363 2:-1.3593403 3:0.38976885 
10 1:0.51834155 2:-1.3616064 3:0.2056356 
10 1:0.49030163 2:-1.3415946 3:0.023647463 
10 1:0.46272827 2:-1.3028498 3:-0.15653688 
10 1:0.43515491 2:-1.2641049 3:-0.33672122 
-10 1:0.40758155 2:-1.22536 3:-0.51690556 
-9.240055350824303 1:0.35895572 2:-0.79860558 3:-0.85767791 
10 1:0.35097345 2:-0.4344851 3:-0.93250107 
10 1:0.35079642 2:-0.24859053 3:-0.94557893 
10 1:1.057709 2:0.65114647 3:-0.74953737 
10 1:1.0508655 2:0.795379 3:-0.63032364 
10 1:1.0440221 2:0.93961153 3:-0.51110991 
-10 1:1.0295683 2:1.2137885 3:-0.26349302 
10 1:1.0176326 2:1.2631522 3:-0.083263893 
10 1:1.0056969 2:1.3125159 3:0.096965234 
10 1:0.99376125 2:1.3618795 3:0.27719436 
10 1:0.98182557 2:1.4112432 3:0.45742349 
10 1:0.96901931 2:1.3964348 3:0.6415163 
10 1:0.95604702 2:1.3693887 3:0.82634593 
10 1:0.94307474 2:1.3423425 3:1.0111756 
10 1:0.9315464 2:1.273805 3:1.1693368 
10 1:0.92311168 2:1.1163739 3:1.2703619 
10 1:0.91467695 2:0.95894281 3:1.371387 
10 1:0.90624222 2:0.80151173 3:1.4724122 
10 1:0.89780749 2:0.64408065 3:1.5734373 
-10 1:0.88157088 2:0.32636511 3:1.7658993 
-10 1:0.87974671 2:0.13912812 3:1.7667671 
-9.539440959156112 1:0.87792254 2:-0.048108864 3:1.7676348 
-10 1:0.87609837 2:-0.23534585 3:1.7685026 
-10 1:0.8742742 2:-0.42258283 3:1.7693703 
-10 1:0.87245004 2:-0.60981982 3:1.7702381 
-10 1:0.87107199 2:-0.79430369 3:1.7649991 
-10 1:0.87957367 2:-0.91781838 3:1.6245227 
-10 1:0.88807534 2:-1.0413331 3:1.4840464 
-10 1:0.90507868 2:-1.2883624 3:1.2030936 
-10 1:0.91358035 2:-1.4118771 3:1.0626172 
-10 1:0.92456115 2:-1.4701185 3:0.89505009 
-10 1:0.93726242 2:-1.483061 3:0.70868234 
-10 1:0.9499637 2:-1.4960035 3:0.52231459 
-10 1:0.96266498 2:-1.508946 3:0.33594685 
-10 1:0.97536625 2:-1.5218886 3:0.1495791 
-10 1:0.98809066 2:-1.5167188 3:-0.03464414 
-10 1:1.0008801 2:-1.4606442 3:-0.21284022 
-10 1:1.0136695 2:-1.4045696 3:-0.3910363 
-10 1:1.0264589 2:-1.3484951 3:-0.56923238 
-10 1:1.0392483 2:-1.2924205 3:-0.74742846 
-10 1:1.0478688 2:-1.1462494 3:-0.85269598 
-10 1:1.0557022 2:-0.98306656 3:-0.94419328 
-10 1:1.0591152 2:-0.80410306 3:-0.96928604 
10 1:1.0602675 2:-0.61706886 3:-0.9604175 
10 1:1.0614199 2:-0.43003467 3:-0.95154895 
10 1:1.0625722 2:-0.24300047 3:-0.94268041 
10 1:1.0638965 2:-0.055877201 3:-0.9362989 
10 1:1.0651958 2:0.13078884 3:-0.92961604 
10 1:1.0607241 2:0.296198 3:-0.84197141 
10 1:1.0569563 2:0.46447231 3:-0.76416477 
-10 1:1.6917206 2:0.52024849 3:-1.0028323 
-10 1:1.678995 2:0.64867475 3:-0.86634251 
-10 1:1.5922096 2:1.3653782 3:-0.0038029937 
-10 1:1.5759469 2:1.475544 3:0.14747072 
-10 1:1.5541194 2:1.5409613 3:0.31513035 
-10 1:1.5264437 2:1.559352 3:0.50001016 
-10 1:1.4987681 2:1.5777427 3:0.68488997 
-10 1:1.4710925 2:1.5961333 3:0.86976978 
-10 1:1.4433543 2:1.6003788 3:1.0489795 
-10 1:1.4149755 2:1.4595944 3:1.1700543 
-10 1:1.3865966 2:1.3188101 3:1.2911291 
-10 1:1.3582177 2:1.1780257 3:1.4122039 
-10 1:1.3318716 2:1.0292451 3:1.5168477 
-10 1:1.314573 2:0.84487484 3:1.5483605 
-10 1:1.2972744 2:0.66050454 3:1.5798732 
-10 1:1.2280799 2:-0.076976672 3:1.705924 
-10 1:1.2107813 2:-0.26134697 3:1.7374368 
-10 1:1.1934827 2:-0.44571728 3:1.7689495 
-10 1:1.1913236 2:-0.61775637 3:1.7089347 
-10 1:1.1927613 2:-0.78686587 3:1.6271752 
-10 1:1.194199 2:-0.95597538 3:1.5454157 
-10 1:1.198434 2:-1.1101337 3:1.4521833 
10 1:1.2243205 2:-1.1485642 3:1.2701457 
10 1:1.2502071 2:-1.1869946 3:1.0881081 
10 1:1.2760936 2:-1.2254251 3:0.90607053 
10 1:1.3019802 2:-1.2638555 3:0.72403293 
10 1:1.3279448 2:-1.3014548 3:0.54185303 
10 1:1.3547054 2:-1.3305739 3:0.35822119 
10 1:1.3814661 2:-1.3596929 3:0.17458935 
10 1:1.4082267 2:-1.388812 3:-0.0090424852 
10 1:1.4374597 2:-1.3716223 3:-0.18861403 
10 1:1.4688474 2:-1.3140727 3:-0.36464686 
10 1:1.524619 2:-1.1137762 3:-0.63536401 
10 1:1.5463129 2:-0.93830712 3:-0.69880435 
10 1:1.5680068 2:-0.76283803 3:-0.76224468 
10 1:1.5865955 2:-0.58142288 3:-0.80327575 
10 1:1.6032311 2:-0.39626783 3:-0.83021203 
10 1:1.6198668 2:-0.21111278 3:-0.8571483 
10 1:1.6365024 2:-0.025957723 3:-0.88408457 
10 1:1.6531381 2:0.15919733 3:-0.91102084 
9.892126011300979 1:1.6709541 2:0.34229476 3:-0.94638829 
-10 1:2.1494372 2:0.81630846 3:-0.86524686 
-10 1:2.1511554 2:0.88910983 3:-0.7006974 
10 1:2.1528735 2:0.9619112 3:-0.53614793 
10 1:2.1545917 2:1.0347126 3:-0.37159847 
10 1:2.1543895 2:1.094364 3:-0.20324988 
10 1:2.1493631 2:1.1209801 3:-0.025357113 
10 1:2.1443367 2:1.1475962 3:0.15253565 
10 1:2.1393103 2:1.1742123 3:0.33042842 
10 1:2.1342839 2:1.2008284 3:0.50832119 
10 1:2.1249175 2:1.1944985 3:0.68592081 
10 1:2.1127606 2:1.1669846 3:0.86333194 
10 1:2.0989088 2:1.1221339 3:1.0283273 
10 1:2.0741208 2:0.96541723 3:1.1132094 
10 1:2.0493329 2:0.80870056 3:1.1980914 
10 1:2.024545 2:0.6519839 3:1.2829735 
10 1:1.999757 2:0.49526723 3:1.3678555 
10 1:1.974955 2:0.33137499 3:1.4332858 
10 1:1.9501327 2:0.15708992 3:1.4705427 
10 1:1.9253103 2:-0.017195155 3:1.5077997 
10 1:1.900488 2:-0.19148023 3:1.5450567 
8.191030797446034 1:1.8339591 2:-0.70643935 3:1.5132731 
-10 1:1.7753926 2:-1.2134783 3:1.3374972 
-10 1:1.7648471 2:-1.3312338 3:1.2330447 
-10 1:1.7682796 2:-1.3691735 3:1.0571803 
-10 1:1.7717121 2:-1.4071132 3:0.88131577 
-10 1:1.7751446 2:-1.4450528 3:0.70545128 
-10 1:1.7795215 2:-1.4760682 3:0.5289781 
-3.237843626734493 1:1.7980861 2:-1.4661597 3:0.16970766 
-10 1:1.8073685 2:-1.4612054 3:-0.009927558 
-10 1:1.8166508 2:-1.4562512 3:-0.18956278 
-10 1:1.8287015 2:-1.4278829 3:-0.36241067 
-10 1:1.847895 2:-1.3391017 3:-0.51774585 
-10 1:1.8670886 2:-1.2503205 3:-0.67308103 
-10 1:1.8862821 2:-1.1615392 3:-0.82841621 
-10 1:1.9089432 2:-1.0266645 3:-0.92911588 
-10 1:1.9339971 2:-0.85998146 3:-0.99211269 
-10 1:1.9590511 2:-0.69329846 3:-1.0551095 
-10 1:1.984065 2:-0.52628258 3:-1.1163579 
-10 1:2.0077146 2:-0.3479074 3:-1.1179421 
-10 1:2.0313642 2:-0.16953222 3:-1.1195264 
-10 1:2.0550138 2:0.0088429552 3:-1.1211107 
-10 1:2.0786634 2:0.18721814 3:-1.1226949 
-10 1:2.1006161 2:0.36326622 3:-1.0953504 
-10 1:2.1222536 2:0.53888216 3:-1.0626338 
-10 1:2.1403183 2:0.69811098 3:-1.0006194 
-10 1:2.4783665 2:0.59516236 3:-0.95531212 
10 1:2.52361 2:0.83362897 3:-0.68462998 
10 1:2.5462318 2:0.95286228 3:-0.54928892 
10 1:2.5688535 2:1.0720956 3:-0.41394785 
5.890109218608156 1:2.5914141 2:1.1900737 3:-0.2778866 
10 1:2.6109109 2:1.2451952 3:-0.10576158 
10 1:2.6304077 2:1.3003167 3:0.066363439 
10 1:2.6499044 2:1.3554382 3:0.23848846 
-10 1:2.688898 2:1.4656813 3:0.5827385 
-10 1:2.7083948 2:1.5208028 3:0.75486352 
-10 1:2.716705 2:1.4807597 3:0.90222317 
-10 1:2.7139849 2:1.3468793 3:1.0251629 
-10 1:2.7112647 2:1.2129989 3:1.1481025 
-10 1:2.6994627 2:1.0438104 3:1.2020811 
10 1:2.6717756 2:0.68955945 3:1.2790343 
10 1:2.6579321 2:0.51243397 3:1.317511 
10 1:2.6440886 2:0.33530849 3:1.3559876 
10 1:2.6298789 2:0.15756739 3:1.3907432 
10 1:2.6145533 2:-0.022049962 3:1.4141582 
10 1:2.5992278 2:-0.20166732 3:1.4375732 
10 1:2.5839022 2:-0.38128467 3:1.4609882 
10 1:2.5685766 2:-0.56090203 3:1.4844032 
10 1:2.5325503 2:-0.8856997 3:1.4259782 
10 1:2.5097325 2:-1.0173166 3:1.3026824 
10 1:2.4869147 2:-1.1489335 3:1.1793865 
10 1:2.4640969 2:-1.2805504 3:1.0560907 
10 1:2.4462962 2:-1.3161711 3:0.88181284 
10 1:2.428956 2:-1.3429779 3:0.70285405 
10 1:2.4116159 2:-1.3697846 3:0.52389526 
10 1:2.3942758 2:-1.3965913 3:0.34493648 
-10 1:2.3595955 2:-1.4502048 3:-0.012981104 
-10 1:2.3457565 2:-1.4397337 3:-0.19291472 
-10 1:2.3328367 2:-1.4194768 3:-0.37310424 
-10 1:2.3199168 2:-1.3992199 3:-0.55329376 
-10 1:2.3171547 2:-1.3143247 3:-0.68563712 
-10 1:2.3272487 2:-1.1476207 3:-0.75742445 
-10 1:2.3373428 2:-0.98091669 3:-0.82921178 
0.8379709276554941 1:2.3718439 2:-0.46961393 3:-1.0064676 
-10 1:2.4384676 2:0.2492581 3:-1.0360966 
-10 1:2.4565752 2:0.42990919 3:-1.0269954 
-10 1:3.0814011 2:0.6316782 3:-0.97841841 
-10 1:3.0614879 2:0.75703572 3:-0.84467182 
-10 1:3.0415746 2:0.88239324 3:-0.71092524 
-10 1:2.9813008 2:1.2429169 3:-0.2989619 
-4.188778499734262 1:2.9598786 2:1.3243521 3:-0.1349235 
-10 1:2.9384563 2:1.4057872 3:0.029114889 
-10 1:2.9170341 2:1.4872224 3:0.19315328 
-10 1:2.8956119 2:1.5686576 3:0.35719168 
-10 1:2.8780295 2:1.5296676 3:0.53175787 
-10 1:2.8608924 2:1.4767111 3:0.70754504 
-10 1:2.8437553 2:1.4237547 3:0.8833322 
-10 1:2.8304592 2:1.3416283 3:1.0352041 
-10 1:2.8278843 2:1.1780822 3:1.120323 
-10 1:2.8201595 2:0.6874438 3:1.3756797 
-10 1:2.8212893 2:0.51240183 3:1.431454 
-10 1:2.8233294 2:0.33453484 3:1.480017 
-10 1:2.8253696 2:0.15666786 3:1.52858 
-10 1:2.8274098 2:-0.021199119 3:1.577143 
-10 1:2.82945 2:-0.1990661 3:1.6257061 
-10 1:2.8314902 2:-0.37693308 3:1.6742691 
-10 1:2.8377197 2:-0.55639811 3:1.6853462 
-10 1:2.8487403 2:-0.73769068 3:1.653554 
-10 1:2.859761 2:-0.91898324 3:1.6217618 
-10 1:2.8707816 2:-1.1002758 3:1.5899696 
-10 1:2.8895789 2:-1.1875153 3:1.4519862 
10 1:2.9325645 2:-1.2967939 3:1.1024047 
10 1:2.9540573 2:-1.3514333 3:0.92761401 
10 1:2.9755251 2:-1.4051622 3:0.75270698 
10 1:2.9952423 2:-1.3951114 3:0.56965123 
10 1:3.0149595 2:-1.3850605 3:0.38659549 
10 1:3.0346767 2:-1.3750096 3:0.20353974 
10 1:3.0543939 2:-1.3649587 3:0.020483997 
10 1:3.0736701 2:-1.3469508 3:-0.16156514 
-10 1:3.110016 2:-1.2711157 3:-0.52062613 
10 1:3.11619 2:-0.96805438 3:-0.69110741 
10 1:3.1167002 2:-0.7971181 3:-0.76024295 
10 1:3.1170209 2:-0.62560384 3:-0.82787359 
10 1:3.116763 2:-0.45232476 3:-0.89090921 
10 1:3.116505 2:-0.27904569 3:-0.95394482 
10 1:3.1150839 2:-0.1034319 3:-1.0072859 
10 1:3.1076777 2:0.080009059 3:-1.009166 
-10 1:3.0899842 2:0.44769094 3:-0.98703299 
-10 1:3.6263084 2:0.80243083 3:-0.81404558 
-10 1:3.6183606 2:0.90039765 3:-0.66233651 
10 1:3.602465 2:1.0963313 3:-0.35891837 
10 1:3.5945172 2:1.1942981 3:-0.20720929 
10 1:3.5817635 2:1.2421985 3:-0.037748825 
10 1:3.5664718 2:1.2636591 3:0.14108606 
10 1:3.5511801 2:1.2851196 3:0.31992095 
10 1:3.5358884 2:1.3065802 3:0.49875584 
10 1:3.5205967 2:1.3280407 3:0.67759074 
10 1:3.5052422 2:1.3481585 3:0.85619172 
-10 1:3.4652535 2:1.1900317 3:1.1788402 
-10 1:3.4455028 2:1.1072508 3:1.3350294 
-10 1:3.4320407 2:0.92855096 3:1.3587241 
-10 1:3.4185786 2:0.74985109 3:1.3824187 
2.708240470480181 1:3.4051165 2:0.57115122 3:1.4061134 
10 1:3.3916544 2:0.39245135 3:1.429808 
10 1:3.3781923 2:0.21375148 3:1.4535027 
10 1:3.3647302 2:0.035051605 3:1.4771973 
10 1:3.3534153 2:-0.14400551 3:1.4775785 
10 1:3.3440065 2:-0.32337974 3:1.4572642 
10 1:3.3345976 2:-0.50275397 3:1.43695 
10 1:3.3251888 2:-0.6821282 3:1.4166357 
10 1:3.31578 2:-0.86150243 3:1.3963215 
10 1:3.3063712 2:-1.0408767 3:1.3760072 
-10 1:3.2884833 2:-1.3960341 3:1.3278192 
-10 1:3.292169 2:-1.5248324 3:1.201037 
-10 1:3.3053842 2:-1.5491344 3:1.0425913 
-10 1:3.3239983 2:-1.5142327 3:0.86620625 
10 1:3.3612266 2:-1.4444293 3:0.51343611 
10 1:3.3798408 2:-1.4095276 3:0.33705104 
10 1:3.3985432 2:-1.3718637 3:0.1615869 
10 1:3.4184973 2:-1.2950413 3:-0.00082140819 
10 1:3.4384514 2:-1.2182189 3:-0.16322971 
10 1:3.4584056 2:-1.1413965 3:-0.32563802 
10 1:3.4783597 2:-1.064574 3:-0.48804633 
10 1:3.4982986 2:-0.98116192 3:-0.64583117 
10 1:3.5181379 2:-0.85451956 3:-0.77328478 
10 1:3.5379772 2:-0.7278772 3:-0.90073839 
-10 1:3.6043782 2:0.12628427 3:-1.0360648 
-10 1:3.6143346 2:0.3061699 3:-1.0212885 
-10 1:3.6201332 2:0.47580764 3:-0.96877268 
-10 1:3.6229536 2:0.63810486 3:-0.88922417 
-10 1:4.0269877 2:0.81503947 3:-0.75614827 
-10 1:4.0507844 2:0.94696586 3:-0.62012777 
-10 1:4.0745811 2:1.0788923 3:-0.48410727 
-10 1:4.0983777 2:1.2108187 3:-0.34808677 
-10 1:4.1221744 2:1.342745 3:-0.21206626 
-10 1:4.1431337 2:1.4296549 3:-0.052195201 
-10 1:4.1609094 2:1.4660552 3:0.13443672 
-10 1:4.1964608 2:1.5388558 3:0.50770055 
-10 1:4.2131213 2:1.5654989 3:0.69284786 
-10 1:4.2222182 2:1.28774 3:1.1938659 
-10 1:4.2252505 2:1.1951537 3:1.3608719 
-10 1:4.2166598 2:1.0434353 3:1.4541842 
-10 1:4.2020759 2:0.86122594 3:1.5094967 
-10 1:4.1874919 2:0.67901653 3:1.5648091 
-10 1:4.1729079 2:0.49680713 3:1.6201216 
-10 1:4.158324 2:0.31459772 3:1.6754341 
-10 1:4.141583 2:0.12858573 3:1.7072591 
-10 1:4.1226544 2:-0.06128285 3:1.7152631 
-10 1:4.1037258 2:-0.25115142 3:1.7232671 
-10 1:4.0847972 2:-0.44102 3:1.731271 
-10 1:4.0658686 2:-0.63088857 3:1.739275 
-10 1:4.0444386 2:-0.81269733 3:1.7029806 
-10 1:4.0209894 2:-0.98800026 3:1.6309289 
-10 1:3.9975403 2:-1.1633032 3:1.5588771 
-10 1:3.9740912 2:-1.3386061 3:1.4868254 
-10 1:3.9541548 2:-1.4327628 3:1.3504757 
-10 1:3.9370396 2:-1.4617513 3:1.1624885 
-10 1:3.9199244 2:-1.4907397 3:0.97450139 
-10 1:3.9028092 2:-1.5197282 3:0.78651424 
-10 1:3.8865612 2:-1.5400266 3:0.59817215 
-10 1:3.8362654 2:-1.4739516 3:-0.16121136 
-10 1:3.8305368 2:-1.403528 3:-0.33375834 
10 1:3.8359643 2:-1.0431704 3:-0.75459706 
10 1:3.8469911 2:-0.8730513 3:-0.84068042 
10 1:3.8629258 2:-0.69276446 3:-0.87539728 
10 1:3.8833138 2:-0.50325116 3:-0.86350318 
10 1:3.9037019 2:-0.31373787 3:-0.85160908 
10 1:3.9240899 2:-0.12422457 3:-0.83971497 
10 1:3.943661 2:0.06574367 3:-0.83931014 
10 1:3.963224 2:0.25571639 3:-0.83901846 
10 1:3.982787 2:0.44568911 3:-0.83872678 
-10 1:4.0046295 2:0.63090254 3:-0.80160299 
10 1:4.5500785 2:0.8947073 3:-0.45113246 
10 1:4.5799367 2:0.99235984 3:-0.29324819 
10 1:4.6097948 2:1.0900124 3:-0.13536392 
10 1:4.639653 2:1.1876649 3:0.022520351 
10 1:4.6684953 2:1.2715669 3:0.18524738 
10 1:4.6925645 2:1.2908592 3:0.37072906 
10 1:4.7166337 2:1.3101516 3:0.55621074 
10 1:4.7407028 2:1.3294439 3:0.74169241 
10 1:4.7547218 2:1.283467 3:0.9057659 
10 1:4.755969 2:1.1545463 3:1.042634 
10 1:4.7572162 2:1.0256257 3:1.1795022 
10 1:4.7584635 2:0.8967051 3:1.3163703 
10 1:4.7597107 2:0.76778448 3:1.4532385 
10 1:4.7464185 2:0.59631249 3:1.5083266 
10 1:4.7285508 2:0.41145001 3:1.5376793 
10 1:4.7106831 2:0.22658754 3:1.567032 
10 1:4.6928155 2:0.041725058 3:1.5963847 
10 1:4.6749478 2:-0.14313742 3:1.6257374 
10 1:4.6536914 2:-0.32885795 3:1.6271559 
10 1:4.6306862 2:-0.5150213 3:1.6141583 
10 1:4.607681 2:-0.70118465 3:1.6011606 
-10 1:4.5616705 2:-1.0735114 3:1.5751654 
-10 1:4.5386653 2:-1.2596747 3:1.5621678 
-10 1:4.5118452 2:-1.3274786 3:1.400844 
-10 1:4.4846001 2:-1.3820978 3:1.2229974 
-10 1:4.402865 2:-1.5459554 3:0.68945753 
-2.113468372503462 1:4.3807297 2:-1.5494764 3:0.50494888 
-10 1:4.3189495 2:-1.5137821 3:-0.054607968 
-10 1:4.2983561 2:-1.5018839 3:-0.24112692 
-10 1:4.2779228 2:-1.4888885 3:-0.42736116 
-10 1:4.2679179 2:-1.404421 3:-0.59505167 
-10 1:4.257913 2:-1.3199534 3:-0.76274217 
-10 1:4.2479081 2:-1.2354859 3:-0.93043268 
-10 1:4.2547744 2:-1.0917272 3:-1.0129402 
-10 1:4.2735946 2:-0.90595837 3:-1.0350921 
-10 1:4.2924148 2:-0.72018953 3:-1.057244 
-10 1:4.3112351 2:-0.53442068 3:-1.0793959 
-10 1:4.3322708 2:-0.34958358 3:-1.0818227 
-0.1286254557209374 1:4.3826669 2:0.016589622 3:-1.0125602 
10 1:4.4393569 2:0.34290942 3:-0.85081767 
-10 1:4.4899963 2:0.68930623 3:-0.76011846 
10 1:4.9890028 2:0.52577594 3:-0.6777833 
10 1:5.0133526 2:0.67975781 3:-0.57357964 
10 1:5.0377024 2:0.83373969 3:-0.46937598 
-10 1:5.086326 2:1.1266007 3:-0.24580194 
-10 1:5.1586322 2:1.4407975 3:0.21518374 
-10 1:5.1810566 2:1.5238364 3:0.37341026 
10 1:5.1942224 2:1.4871491 3:0.55682902 
10 1:5.2073881 2:1.4504619 3:0.74024779 
10 1:5.2205538 2:1.4137746 3:0.92366655 
10 1:5.2260784 2:1.3287973 3:1.0743523 
10 1:5.2201163 2:1.1712284 3:1.1758325 
10 1:5.2141543 2:1.0136594 3:1.2773126 
10 1:5.2081922 2:0.85609052 3:1.3787928 
10 1:5.2022302 2:0.6985216 3:1.4802729 
10 1:5.1872276 2:0.51429215 3:1.510741 
10 1:5.1721199 2:0.32975263 3:1.5403832 
10 1:5.1570122 2:0.14521312 3:1.5700254 
10 1:5.1419044 2:-0.039326387 3:1.5996676 
10 1:5.1267967 2:-0.2238659 3:1.6293098 
-10 1:5.0965813 2:-0.59294492 3:1.6885942 
10 1:5.0499968 2:-0.91132118 3:1.5144403 
10 1:5.025736 2:-1.0675096 3:1.4135526 
10 1:5.0022697 2:-1.1870376 3:1.2825455 
10 1:4.9799184 2:-1.2550986 3:1.1092543 
10 1:4.9575672 2:-1.3231596 3:0.93596303 
10 1:4.9352159 2:-1.3912207 3:0.76267179 
10 1:4.9128647 2:-1.4592817 3:0.58938055 
-10 1:4.8272453 2:-1.4830445 3:-0.32547879 
-10 1:4.8118524 2:-1.466834 3:-0.51165616 
-10 1:4.8069241 2:-1.3714856 3:-0.6667831 
-10 1:4.8048226 2:-1.2547601 3:-0.81352258 
-10 1:4.8027212 2:-1.1380346 3:-0.96026206 
-10 1:4.8006197 2:-1.0213091 3:-1.1070015 
-10 1:4.8173416 2:-0.84251423 3:-1.1128345 
-10 1:4.836317 2:-0.65628886 3:-1.1017991 
-10 1:4.8552923 2:-0.47006349 3:-1.0907636 
-10 1:4.874985 2:-0.28509182 3:-1.0705239 
-10 1:4.8959154 2:-0.10228311 3:-1.0344042 
-10 1:4.9168457 2:0.080525591 3:-0.99828449 
-9.117657152899289 1:4.9399529 2:0.23064997 3:-0.90363706 
10 1:4.9644814 2:0.37748408 3:-0.78989914 
-10 1:5.410135 2:0.55880744 3:-0.74400455 
-10 1:5.4324219 2:0.69420997 3:-0.61777366 
-10 1:5.4547087 2:0.82961251 3:-0.49154278 
-8.595252028911203 1:5.4769956 2:0.96501505 3:-0.3653119 
-10 1:5.5739105 2:1.4260323 3:0.21078883 
10 1:5.6274737 2:1.4888274 3:0.57003384 
10 1:5.6544878 2:1.5116035 3:0.75310833 
-10 1:5.7047789 2:1.5079154 3:1.1037339 
-10 1:5.7361317 2:1.2547125 3:1.375698 
-10 1:5.7518082 2:1.1281111 3:1.51168 
-10 1:5.7560887 2:0.96418792 3:1.576328 
-10 1:5.753998 2:0.77939872 3:1.6010942 
-10 1:5.7519073 2:0.59460951 3:1.6258604 
-10 1:5.7498166 2:0.4098203 3:1.6506266 
-10 1:5.7477259 2:0.2250311 3:1.6753929 
-10 1:5.7434666 2:0.041041455 3:1.6849034 
10 1:5.7203008 2:-0.32153744 3:1.6008853 
10 1:5.708718 2:-0.50282689 3:1.5588763 
10 1:5.6971351 2:-0.68411633 3:1.5168672 
2.286924402516837 1:5.6829127 2:-0.85473423 3:1.4542272 
10 1:5.6613091 2:-0.99550859 3:1.3338916 
10 1:5.6397054 2:-1.136283 3:1.2135561 
-10 1:5.5964981 2:-1.4178317 3:0.97288495 
-10 1:5.5716482 2:-1.4729054 3:0.81173683 
10 1:5.5182453 2:-1.4852859 3:0.44288185 
10 1:5.4915438 2:-1.4914761 3:0.25845436 
10 1:5.4652579 2:-1.488446 3:0.074956608 
10 1:5.4408713 2:-1.4432816 3:-0.10429255 
10 1:5.4164847 2:-1.3981173 3:-0.2835417 
10 1:5.392098 2:-1.3529529 3:-0.46279086 
10 1:5.3523707 2:-1.1851303 3:-0.77484766 
10 1:5.3390562 2:-1.0451145 3:-0.89725307 
10 1:5.3340619 2:-0.87612577 3:-0.96794382 
10 1:5.3380696 2:-0.69201166 3:-0.97923111 
10 1:5.3445095 2:-0.50574156 3:-0.97405771 
10 1:5.3509495 2:-0.31947146 3:-0.96888431 
10 1:5.3573894 2:-0.13320136 3:-0.9637109 
-10 1:5.3752362 2:0.23561532 3:-0.91802025 
-10 1:5.3902536 2:0.40871558 3:-0.85037732 
10 1:6.0268639 2:0.41715369 3:-0.61047559 
10 1:6.0028999 2:0.58870402 3:-0.52024787 
10 1:5.9789359 2:0.76025435 3:-0.43002016 
-10 1:5.9306697 2:1.0979022 3:-0.24171082 
-10 1:5.9050895 2:1.2433968 3:-0.11395401 
-10 1:5.8795093 2:1.3888914 3:0.013802809 
-10 1:5.8539291 2:1.534386 3:0.14155963 
-10 1:5.8283488 2:1.6798806 3:0.26931644 
-10 1:5.805049 2:1.7503581 3:0.43753726 
-10 1:5.7831093 2:1.7760878 3:0.6298949 
-10 1:5.7611697 2:1.8018175 3:0.82225253 
-10 1:5.741578 2:1.8092736 3:1.0069943 
-10 1:5.7431115 2:1.6523172 3:1.1232147 
-10 1:5.744645 2:1.4953608 3:1.239435 
-10 1:5.7461786 2:1.3384044 3:1.3556554 
-10 1:5.7477121 2:1.181448 3:1.4718757 
-10 1:5.7492456 2:1.0244916 3:1.588096 
-10 1:5.7635088 2:0.8327022 3:1.609342 
-10 1:5.7786376 2:0.63854439 3:1.6241304 
-10 1:5.7937663 2:0.44438659 3:1.6389188 
-10 1:5.8096776 2:0.25028632 3:1.6460308 
-10 1:5.9001538 2:-0.71941214 3:1.574479 
-10 1:5.918249 2:-0.91335184 3:1.5601686 
-10 1:5.9400532 2:-1.0482783 3:1.4603881 
-10 1:5.965122 2:-1.1312578 3:1.2853715 
10 1:5.9896865 2:-1.2024502 3:1.1054214 
10 1:6.0139703 2:-1.267083 3:0.92272569 
10 1:6.038254 2:-1.3317157 3:0.74002993 
10 1:6.0625378 2:-1.3963484 3:0.55733418 
10 1:6.0868215 2:-1.4609812 3:0.37463842 
-10 1:6.1665684 2:-1.4842265 3:-0.38327943 
-10 1:6.1831852 2:-1.4523176 3:-0.57192073 
10 1:6.18174 2:-1.2957554 3:-0.68867265 
10 1:6.1802948 2:-1.1391932 3:-0.80542457 
10 1:6.1788496 2:-0.98263097 3:-0.9221765 
10 1:6.1693189 2:-0.79986795 3:-0.98201006 
10 1:6.1566231 2:-0.60936637 3:-1.0174582 
10 1:6.1387863 2:-0.41522305 3:-1.0058372 
10 1:6.1192461 2:-0.22649425 3:-0.97308747 
10 1:6.0958913 2:-0.049891294 3:-0.89302014 
10 1:6.0740751 2:0.090630735 3:-0.79779801 
10 1:6.0525722 2:0.27653808 3:-0.74355887 
10 1:6.4725771 2:0.54323048 3:-0.62528483 
10 1:6.4634098 2:0.69270447 3:-0.51338598 
10 1:6.4542425 2:0.84217846 3:-0.40148713 
-10 1:6.4359078 2:1.1411264 3:-0.17768943 
10 1:6.4247006 2:1.3042987 3:0.15455495 
10 1:6.4194097 2:1.3799271 3:0.32543564 
10 1:6.4141188 2:1.4555556 3:0.49631634 
10 1:6.4118913 2:1.4767843 3:0.6742501 
10 1:6.412538 2:1.4469769 3:0.85880081 
10 1:6.4131847 2:1.4171695 3:1.0433515 
-10 1:6.4148591 2:1.3514978 3:1.406236 
-10 1:6.4252654 2:1.1665714 3:1.4315702 
10 1:6.4460779 2:0.79671873 3:1.4822386 
10 1:6.4565617 2:0.61108502 3:1.5010708 
10 1:6.4670879 2:0.4250639 3:1.5163421 
10 1:6.4776142 2:0.23904279 3:1.5316133 
10 1:6.4881404 2:0.053021676 3:1.5468846 
10 1:6.4986666 2:-0.13299944 3:1.5621558 
10 1:6.5193373 2:-0.4873037 3:1.4823294 
10 1:6.5295587 2:-0.65916086 3:1.4094699 
10 1:6.5397802 2:-0.83101802 3:1.3366104 
-10 1:6.560223 2:-1.1747323 3:1.1908915 
-10 1:6.5674225 2:-1.2887727 3:1.0695634 
10 1:6.5742201 2:-1.3714203 3:0.7049888 
10 1:6.5776189 2:-1.4127441 3:0.5227015 
10 1:6.5810177 2:-1.4540679 3:0.3404142 
10 1:6.5844165 2:-1.4953917 3:0.1581269 
10 1:6.5852084 2:-1.490899 3:-0.025418259 
10 1:6.5844687 2:-1.4594879 3:-0.20970245 
10 1:6.583729 2:-1.4280768 3:-0.39398664 
-10 1:6.5805964 2:-1.3373709 3:-0.75163188 
-10 1:6.5756814 2:-1.235541 3:-0.90833025 
-10 1:6.5707664 2:-1.1337111 3:-1.0650286 
-10 1:6.563093 2:-0.99115272 3:-1.1456123 
-10 1:6.5524346 2:-0.80452181 3:-1.1438316 
-10 1:6.5417762 2:-0.61789091 3:-1.1420509 
-10 1:6.5098431 2:-0.067330708 3:-1.0508427 
10 1:6.4912394 2:0.23761548 3:-0.83986037 
10 1:6.4819082 2:0.39042298 3:-0.7325726 
10 1:6.9059897 2:0.64989568 3:-0.54132833 
10 1:6.8911998 2:0.78287266 3:-0.41026365 
10 1:6.8764099 2:0.91584965 3:-0.27919897 
10 1:6.86162 2:1.0488266 3:-0.14813429 
10 1:6.8468301 2:1.1818036 3:-0.017069604 
10 1:6.8373934 2:1.276487 3:0.13576595 
10 1:6.8352071 2:1.3193052 3:0.31808817 
10 1:6.8330208 2:1.3621235 3:0.50041039 
10 1:6.8308345 2:1.4049417 3:0.68273261 
10 1:6.8333842 2:1.4105917 3:0.86117335 
10 1:6.8466146 2:1.3324203 3:1.0308606 
10 1:6.859845 2:1.254249 3:1.2005479 
-10 1:6.891422 2:1.0498775 3:1.4803184 
-1.040334784858721 1:6.9155915 2:0.86901748 3:1.5225686 
-10 1:6.9397609 2:0.68815751 3:1.5648188 
-10 1:6.9639303 2:0.50729754 3:1.607069 
-10 1:6.9880997 2:0.32643757 3:1.6493192 
-10 1:7.0113775 2:0.14470811 3:1.6369545 
-10 1:7.0342493 2:-0.03741735 3:1.5997151 
-10 1:7.1028645 2:-0.58379374 3:1.4879971 
-10 1:7.1257362 2:-0.7659192 3:1.4507577 
-10 1:7.1483833 2:-0.94668098 3:1.4108945 
-10 1:7.163297 2:-1.0804917 3:1.2806953 
-10 1:7.1782106 2:-1.2143024 3:1.150496 
-10 1:7.1931243 2:-1.3481131 3:1.0202968 
-10 1:7.2080379 2:-1.4819239 3:0.89009752 
-10 1:7.2090003 2:-1.514394 3:0.71400763 
-10 1:7.2066147 2:-1.5225443 3:0.52690485 
-10 1:7.2042292 2:-1.5306946 3:0.33980206 
-10 1:7.199458 2:-1.5469952 3:-0.034403513 
-10 1:7.1970724 2:-1.5551455 3:-0.2215063 
-10 1:7.1852399 2:-1.48826 3:-0.3945609 
-8.002710576771014 1:7.1725803 2:-1.4148055 3:-0.56638567 
-10 1:7.1599207 2:-1.3413511 3:-0.73821044 
-10 1:7.1472611 2:-1.2678967 3:-0.91003521 
-10 1:7.1254193 2:-1.1110182 3:-0.99439774 
-10 1:7.0061101 2:-0.20934735 3:-1.140491 
-10 1:6.9823997 2:-0.02498383 3:-1.1331239 
-10 1:6.9611478 2:0.1487873 3:-1.0665542 
10 1:6.9370811 2:0.37500381 3:-0.78411477 
10 1:6.9238885 2:0.49645788 3:-0.64723417 
-10 1:7.348687 2:0.75428971 3:-0.96584986 
-10 1:7.3705081 2:0.85917451 3:-0.82144701 
-10 1:7.3923292 2:0.96405931 3:-0.67704415 
-10 1:7.4141503 2:1.0689441 3:-0.53264129 
-10 1:7.4359714 2:1.1738289 3:-0.38823843 
-10 1:7.4577925 2:1.2787137 3:-0.24383558 
-10 1:7.4834516 2:1.3353089 3:-0.075632089 
-10 1:7.5093418 2:1.3889975 3:0.094004003 
-2.358473861019812 1:7.5870123 2:1.5500631 3:0.60291228 
10 1:7.6303398 2:1.3774403 3:0.88051576 
10 1:7.6509466 2:1.2561145 3:1.0116057 
10 1:7.6715533 2:1.1347887 3:1.1426957 
10 1:7.6841993 2:0.98048802 3:1.2212312 
10 1:7.6923839 2:0.80770781 3:1.2703146 
10 1:7.7005685 2:0.6349276 3:1.319398 
10 1:7.7087532 2:0.4621474 3:1.3684814 
10 1:7.7169378 2:0.28936719 3:1.4175647 
10 1:7.7181933 2:0.11185446 3:1.4214783 
10 1:7.7168177 2:-0.067455361 3:1.4082396 
10 1:7.715442 2:-0.24676518 3:1.3950009 
10 1:7.7140664 2:-0.42607499 3:1.3817621 
10 1:7.7126907 2:-0.60538481 3:1.3685234 
2.300438576318768 1:7.6971746 2:-0.89763636 3:1.2606323 
10 1:7.6711604 2:-0.94884291 3:1.0902495 
10 1:7.6453646 2:-1.0033543 3:0.92120704 
10 1:7.6215677 2:-1.0881271 3:0.76443828 
10 1:7.5977709 2:-1.1729 3:0.60766953 
10 1:7.573974 2:-1.2576728 3:0.45090077 
10 1:7.5487347 2:-1.315058 3:0.28540841 
10 1:7.5217341 2:-1.3390014 3:0.10926401 
10 1:7.4947335 2:-1.3629448 3:-0.066880381 
10 1:7.4677329 2:-1.3868882 3:-0.24302478 
10 1:7.4418025 2:-1.3824343 3:-0.41153055 
10 1:7.4198797 2:-1.2716343 3:-0.55143016 
10 1:7.3979569 2:-1.1608342 3:-0.69132976 
10 1:7.3760341 2:-1.0500341 3:-0.83122936 
10 1:7.3563158 2:-0.92775772 3:-0.9565196 
10 1:7.3447302 2:-0.76314344 3:-1.0279134 
10 1:7.3331446 2:-0.59852916 3:-1.0993073 
-10 1:7.3135823 2:-0.26379194 3:-1.2184956 
-10 1:7.3118546 2:-0.084130816 3:-1.2254282 
-10 1:7.3101269 2:0.09553031 3:-1.2323608 
-10 1:7.3157781 2:0.26547344 3:-1.1915447 
-10 1:7.3267477 2:0.4284122 3:-1.1163131 
-10 1:7.3377174 2:0.59135095 3:-1.0410815 
10 1:7.935689 2:0.60062449 3:-0.59957305 
10 1:7.9569006 2:0.73477744 3:-0.47333364 
10 1:7.9781121 2:0.86893039 3:-0.34709423 
10 1:7.9993237 2:1.0030833 3:-0.22085483 
10 1:8.0205352 2:1.1372363 3:-0.094615418 
10 1:8.0417467 2:1.2713892 3:0.031623991 
10 1:8.0665501 2:1.3162025 3:0.20335916 
10 1:8.0921624 2:1.3408927 3:0.38534195 
10 1:8.1177747 2:1.3655829 3:0.56732474 
10 1:8.1416574 2:1.3458007 3:0.74623125 
10 1:8.1643111 2:1.2944208 3:0.92295207 
10 1:8.1869648 2:1.2430409 3:1.0996729 
10 1:8.1989386 2:1.1141023 3:1.2149878 
10 1:8.206255 2:0.95134155 3:1.3035243 
10 1:8.2135714 2:0.78858077 3:1.3920609 
10 1:8.2192755 2:0.62219942 3:1.4695866 
10 1:8.2172351 2:0.43842714 3:1.4942222 
10 1:8.2151948 2:0.25465486 3:1.5188579 
-1.661461795346596 1:8.1443233 2:-0.98254913 3:1.2668928 
-10 1:8.0801549 2:-1.3773888 3:0.88263084 
-10 1:8.0585143 2:-1.5076068 3:0.75240684 
-10 1:8.0368737 2:-1.6378248 3:0.62218285 
-10 1:8.0133294 2:-1.6949199 3:0.46229836 
-10 1:7.9882555 2:-1.6932603 3:0.27858152 
-10 1:7.9631816 2:-1.6916007 3:0.094864681 
-10 1:7.9381078 2:-1.6899411 3:-0.088852159 
-10 1:7.9130339 2:-1.6882815 3:-0.272569 
-10 1:7.8925324 2:-1.6281743 3:-0.43542961 
-10 1:7.8765496 2:-1.5103056 3:-0.57767888 
-10 1:7.8605668 2:-1.3924369 3:-0.71992815 
-10 1:7.844584 2:-1.2745682 3:-0.86217742 
-10 1:7.8308501 2:-1.1451971 3:-0.99045706 
-10 1:7.8238939 2:-0.98115929 3:-1.0766345 
-10 1:7.8169377 2:-0.8171215 3:-1.1628119 
-10 1:7.8122505 2:-0.65044115 3:-1.2329651 
-10 1:7.8215498 2:-0.46747193 3:-1.2043449 
10 1:7.8694705 2:0.22390999 3:-1.002728 
10 1:7.8911843 2:0.35342625 3:-0.87181814 
10 1:7.912898 2:0.4829425 3:-0.7409083 
10 1:8.4243084 2:0.59629258 3:-0.88994639 
10 1:8.4222493 2:0.73155114 3:-0.7574367 
10 1:8.4201902 2:0.8668097 3:-0.62492701 
10 1:8.418131 2:1.0020683 3:-0.49241732 
-10 1:8.4191615 2:1.3297312 3:-0.038224128 
-10 1:8.421831 2:1.4137444 3:0.13145966 
-10 1:8.4245005 2:1.4977576 3:0.30114344 
-10 1:8.4271701 2:1.5817709 3:0.47082723 
-10 1:8.4298701 2:1.6653481 3:0.64061219 
-10 1:8.4384151 2:1.665405 3:0.82978121 
-10 1:8.44696 2:1.6654619 3:1.0189502 
-10 1:8.455505 2:1.6655188 3:1.2081192 
-10 1:8.4665938 2:1.5917289 3:1.3563592 
-10 1:8.4806473 2:1.4318801 3:1.4569018 
-10 1:8.4947008 2:1.2720313 3:1.5574443 
-10 1:8.5087542 2:1.1121826 3:1.6579869 
-10 1:8.5209728 2:0.92963626 3:1.6880417 
-10 1:8.5326957 2:0.74095878 3:1.6990561 
-10 1:8.5444187 2:0.55228129 3:1.7100704 
-10 1:8.5561416 2:0.36360381 3:1.7210847 
-10 1:8.5678645 2:0.17492632 3:1.7320991 
-10 1:8.5795875 2:-0.013751163 3:1.7431134 
-10 1:8.5913104 2:-0.20242865 3:1.7541277 
-10 1:8.5987726 2:-0.37810496 3:1.6879725 
-10 1:8.6058439 2:-0.55258839 3:1.6147368 
-10 1:8.6129152 2:-0.72707181 3:1.5415011 
-10 1:8.6199865 2:-0.90155524 3:1.4682654 
-10 1:8.6270578 2:-1.0760387 3:1.3950297 
-10 1:8.6263983 2:-1.1812689 3:1.2418935 
-10 1:8.6248218 2:-1.2782836 3:1.0792786 
10 1:8.6064416 2:-1.5048975 3:0.37418658 
10 1:8.5895806 2:-1.4960298 3:0.012738405 
10 1:8.5760262 2:-1.3833221 3:-0.13882414 
10 1:8.5624719 2:-1.2706145 3:-0.29038668 
10 1:8.5489175 2:-1.1579069 3:-0.44194923 
10 1:8.5353293 2:-1.0429779 3:-0.59133465 
10 1:8.5214823 2:-0.88488666 3:-0.68962348 
10 1:8.5083042 2:-0.70352786 3:-0.74247478 
10 1:8.4955587 2:-0.51999309 3:-0.78288722 
10 1:8.483481 2:-0.33328916 3:-0.80435153 
10 1:8.4701718 2:-0.15343529 3:-0.86208703 
10 1:8.4575761 2:0.030387846 3:-0.89880517 
10 1:8.4458532 2:0.21906533 3:-0.9098195 
10 1:8.4349337 2:0.40768884 3:-0.90312469 
10 1:9.0063125 2:0.57684463 3:-0.90476223 
10 1:9.0262268 2:0.72906384 3:-0.80780532 
-6.129725367362333 1:9.0660554 2:1.0335022 3:-0.6138915 
-10 1:9.0832127 2:1.1355789 3:-0.47891095 
-10 1:9.097567 2:1.186673 3:-0.30526977 
-10 1:9.1119212 2:1.237767 3:-0.13162859 
-10 1:9.1262755 2:1.2888611 3:0.042012591 
-10 1:9.1406297 2:1.3399552 3:0.21565377 
-10 1:9.1549839 2:1.3910493 3:0.38929495 
-10 1:9.1670928 2:1.418685 3:0.56314596 
-10 1:9.1717896 2:1.3688818 3:0.73768961 
-10 1:9.1764863 2:1.3190786 3:0.91223327 
-10 1:9.181183 2:1.2692754 3:1.0867769 
-10 1:9.1858797 2:1.2194721 3:1.2613206 
-10 1:9.1712139 2:1.047341 3:1.2961564 
8.197920308069822 1:9.1397601 2:0.68967174 3:1.3505161 
10 1:9.1240332 2:0.5108371 3:1.377696 
10 1:9.1083063 2:0.33200247 3:1.4048759 
10 1:9.0925795 2:0.15316783 3:1.4320557 
10 1:9.0759872 2:-0.026717073 3:1.445174 
10 1:9.0586927 2:-0.20745415 3:1.4468827 
10 1:9.0413982 2:-0.38819122 3:1.4485914 
-5.712337224752461 1:9.0068092 2:-0.74966536 3:1.4520089 
10 1:8.9691717 2:-1.02034 3:1.2386488 
10 1:8.950031 2:-1.1460891 3:1.1090776 
10 1:8.9308904 2:-1.2718382 3:0.97950634 
10 1:8.9125942 2:-1.3853626 3:0.84383583 
10 1:8.9003329 2:-1.4115284 3:0.66457924 
10 1:8.8880716 2:-1.4376941 3:0.48532266 
10 1:8.8758102 2:-1.4638598 3:0.30606607 
10 1:8.8635489 2:-1.4900255 3:0.12680949 
7.970651366335824 1:8.8498668 2:-1.4411133 3:-0.21145644 
10 1:8.8505031 2:-1.346823 3:-0.36662358 
-10 1:8.9002922 2:-0.39571489 3:-1.133937 
10 1:8.9868078 2:0.44176441 3:-1.0245153 
10 1:9.3715794 2:-1.2789297 3:-0.16498877 
10 1:9.3764479 2:-1.1230223 3:-0.25909066 
10 1:9.3813163 2:-0.96711481 3:-0.35319254 
10 1:9.3861848 2:-0.81120734 3:-0.44729443 
10 1:9.3910533 2:-0.65529988 3:-0.54139631 
10 1:9.3959217 2:-0.49939242 3:-0.6354982 
10 1:9.4007902 2:-0.34348495 3:-0.72960008 
10 1:9.4056586 2:-0.18757749 3:-0.82370196 
10 1:9.3991462 2:-0.095482813 3:-0.97869586 
-10 1:9.3842823 2:0.078394835 3:-1.2985234 
-10 1:9.3768504 2:0.16533366 3:-1.4584371 
-10 1:9.3846527 2:0.31179537 3:-1.5126493 
-10 1:9.4013575 2:0.49304063 3:-1.5050923 
-10 1:9.4180623 2:0.67428589 3:-1.4975352 
-10 1:9.4347671 2:0.85553115 3:-1.4899782 
-10 1:9.4540579 2:1.0319482 3:-1.4505285 
-10 1:9.4720686 2:1.0468718 3:-1.2737627 
-10 1:9.4900278 2:1.0566598 3:-1.0927443 
-10 1:9.507987 2:1.0664478 3:-0.91172591 
-10 1:9.5247434 2:1.0627732 3:-0.73086714 
-10 1:9.5403027 2:1.0457011 3:-0.55016724 
10 1:9.6016404 2:0.96815648 3:0.17175529 
10 1:9.6169015 2:0.94801579 3:0.35216442 
10 1:9.6331434 2:0.93870367 3:0.53284293 
-10 1:9.6816091 2:0.92457 3:1.0592294 
-10 1:9.6170102 2:-0.38462846 3:1.5982991 
-10 1:9.5989373 2:-0.54563005 3:1.5573435 
10 1:9.5531661 2:-0.84022328 3:1.3479066 
10 1:9.5303359 2:-0.98422628 3:1.240698 
10 1:9.5089172 2:-1.0443515 3:1.070075 
10 1:9.4874986 2:-1.1044767 3:0.89945202 
10 1:9.4663028 2:-1.1608571 3:0.72769056 
10 1:9.4459189 2:-1.2035952 3:0.55178161 
10 1:9.4255351 2:-1.2463333 3:0.37587266 
10 1:9.406439 2:-1.2719607 3:0.1976133 
10 1:9.3890092 2:-1.2754452 3:0.016312261 
-10 1:10.020677 2:0.91825074 3:1.0202417 
10 1:9.9770658 2:0.54328315 3:1.1184197 
10 1:9.9552603 2:0.35579935 3:1.1675087 
10 1:9.9334549 2:0.16831556 3:1.2165977 
10 1:9.9116494 2:-0.019168241 3:1.2656867 
10 1:9.889844 2:-0.20665204 3:1.3147757 
10 1:9.8680386 2:-0.39413583 3:1.3638647 
10 1:9.8489294 2:-0.58224328 3:1.3725867 
10 1:9.8334594 2:-0.7711925 3:1.3268236 
10 1:9.8179895 2:-0.96014172 3:1.2810606 
10 1:9.8025195 2:-1.1490909 3:1.2352976 
-10 1:9.7715796 2:-1.5269894 3:1.1437715 
-10 1:9.7709663 2:-1.6279415 3:1.0073089 
-10 1:9.7788148 2:-1.6787736 3:0.81918687 
-5.651353273763577 1:9.7866633 2:-1.7296057 3:0.63106488 
-10 1:9.7945118 2:-1.7804378 3:0.44294289 
-10 1:9.8032395 2:-1.822754 3:0.25421965 
-10 1:9.8185573 2:-1.8012391 3:0.060989593 
-10 1:9.8338751 2:-1.7797241 3:-0.13224046 
-10 1:9.8491929 2:-1.7582091 3:-0.32547051 
-10 1:9.8645107 2:-1.7366942 3:-0.51870057 
-10 1:9.8840411 2:-1.6409748 3:-0.66669052 
-10 1:9.9072388 2:-1.4806564 3:-0.77529646 
-10 1:9.9304364 2:-1.3203379 3:-0.8839024 
-10 1:9.9536341 2:-1.1600195 3:-0.99250833 
-10 1:9.9768318 2:-0.99970108 3:-1.1011143 
-10 1:9.9998129 2:-0.83534692 3:-1.2007348 
-10 1:10.02152 2:-0.64726558 3:-1.2475278 
-10 1:10.043228 2:-0.45918424 3:-1.2943207 
-10 1:10.064935 2:-0.27110289 3:-1.3411136 
-10 1:10.086615 2:-0.08292142 3:-1.3873593 
-10 1:10.107014 2:0.10991825 3:-1.4081468 
-10 1:10.127413 2:0.30275792 3:-1.4289342 
-10 1:10.147812 2:0.4955976 3:-1.4497216 
-10 1:10.146262 2:0.59298111 3:-1.2867272 
-2.376728249562069 1:10.142453 2:0.67551313 3:-1.1120724 
10 1:10.120356 2:0.71956007 3:-0.72514464 
10 1:10.113222 2:0.77627977 3:-0.53900665 
10 1:10.104735 2:0.81989122 3:-0.35194064 
10 1:10.089533 2:0.79964878 3:-0.15856404 
10 1:10.07433 2:0.77940634 3:0.034812554 
10 1:10.05897 2:0.75731132 3:0.2278226 
10 1:10.041053 2:0.70509523 3:0.41487296 
10 1:10.023136 2:0.65287914 3:0.60192331 
10 1:10.007589 2:0.62628326 3:0.79118699 
10 1:9.9965404 2:0.64830674 3:0.98465087 
-10 1:10.266587 2:1.1764764 3:-0.72600694 
-10 1:10.299402 2:1.0949548 3:-0.56282257 
-10 1:10.332217 2:1.0134332 3:-0.3996382 
9.383239589292184 1:10.396122 2:0.88335863 3:-0.060953124 
10 1:10.426896 2:0.8408419 3:0.11680254 
10 1:10.457669 2:0.79832518 3:0.29455821 
10 1:10.488443 2:0.75580845 3:0.47231387 
10 1:10.519216 2:0.71329172 3:0.65006954 
3.199357431573903 1:10.546186 2:0.71273199 3:0.83259747 
-10 1:10.598825 2:0.72597218 3:1.1992866 
-10 1:10.625144 2:0.73259228 3:1.3826312 
-10 1:10.651038 2:0.64281013 3:1.4928535 
-10 1:10.676542 2:0.46432318 3:1.5357921 
-10 1:10.702046 2:0.28583622 3:1.5787308 
-10 1:10.727549 2:0.10734926 3:1.6216694 
-10 1:10.753053 2:-0.071137693 3:1.664608 
-10 1:10.778557 2:-0.24962465 3:1.7075466 
-10 1:10.797117 2:-0.42740055 3:1.703907 
-10 1:10.808197 2:-0.60441041 3:1.6500879 
-10 1:10.819278 2:-0.78142027 3:1.5962688 
-10 1:10.830358 2:-0.95843013 3:1.5424496 
-10 1:10.841438 2:-1.13544 3:1.4886305 
-10 1:10.852518 2:-1.3124499 3:1.4348114 
-10 1:10.848105 2:-1.4302461 3:1.3190479 
-10 1:10.829278 2:-1.4929537 3:1.1456551 
-10 1:10.810451 2:-1.5556613 3:0.97226225 
-10 1:10.790641 2:-1.6103982 3:0.79800899 
10 1:10.704132 2:-1.555059 3:0.25154798 
10 1:10.675296 2:-1.5366126 3:0.069394308 
10 1:10.517969 2:-1.0944038 3:-0.6755373 
10 1:10.491024 2:-0.91959775 3:-0.73093226 
10 1:10.464079 2:-0.74479175 3:-0.78632721 
10 1:10.437135 2:-0.56998574 3:-0.84172217 
10 1:10.41019 2:-0.39517974 3:-0.89711713 
10 1:10.383245 2:-0.22037373 3:-0.95251209 
10 1:10.35695 2:-0.044861454 3:-1.002983 
10 1:10.338624 2:0.13930758 3:-0.99310103 
10 1:10.320297 2:0.32347661 3:-0.98321903 
10 1:10.311725 2:0.49422265 3:-0.91695166 
10 1:10.305221 2:0.66212175 3:-0.83872532 
-10 1:10.29209 2:0.99798948 3:-0.68306832 
-10 1:11.170437 2:1.3790352 3:-0.18074885 
-10 1:11.151335 2:1.2201122 3:-0.092119749 
10 1:11.132233 2:1.0611891 3:-0.0034906512 
10 1:11.113131 2:0.90226607 3:0.085138447 
10 1:11.098848 2:0.77974928 3:0.2092602 
10 1:11.089843 2:0.69709479 3:0.37224391 
10 1:11.080838 2:0.6144403 3:0.53522761 
10 1:11.071833 2:0.53178581 3:0.69821132 
10 1:11.062828 2:0.44913132 3:0.86119503 
10 1:11.053273 2:0.3622229 3:1.0216228 
10 1:11.041617 2:0.25908913 3:1.1723017 
-10 1:11.017992 2:0.050553626 3:1.4696123 
-1.587965341772947 1:10.995495 2:-0.13067024 3:1.4809418 
-1.469563637245433 1:10.883452 2:-1.0242277 3:1.3959915 
-10 1:10.861124 2:-1.2006144 3:1.3527974 
-10 1:10.843015 2:-1.3391495 3:1.246821 
-10 1:10.827038 2:-1.4585511 3:1.1091092 
-10 1:10.811061 2:-1.5779527 3:0.97139742 
-10 1:10.801511 2:-1.6447928 3:0.81813839 
-10 1:10.803419 2:-1.6179354 3:0.6371644 
-10 1:10.812957 2:-1.4836484 3:-0.26770554 
-10 1:10.818144 2:-1.4309515 3:-0.44132217 
-10 1:10.825702 2:-1.3595619 3:-0.60961634 
-10 1:10.833261 2:-1.2881722 3:-0.7779105 
-10 1:10.843878 2:-1.193611 3:-0.92482677 
-10 1:10.863144 2:-1.0335134 3:-1.0112799 
-10 1:10.88241 2:-0.87341586 3:-1.097733 
-10 1:10.901676 2:-0.71331831 3:-1.1841862 
-10 1:10.921198 2:-0.55172172 3:-1.2619114 
7.949218412608931 1:10.966385 2:-0.19259391 3:-1.2081388 
10 1:10.988979 2:-0.013030009 3:-1.1812525 
10 1:11.011573 2:0.1665339 3:-1.1543662 
10 1:11.034166 2:0.3460978 3:-1.1274799 
10 1:11.05676 2:0.52566171 3:-1.1005936 
10 1:11.075776 2:0.67146869 3:-0.9946109 
10 1:11.09449 2:0.81443728 3:-0.88197749 
10 1:11.113028 2:0.95589748 3:-0.76803197 
-10 1:11.153653 2:1.2527556 3:-0.31208166 
10 1:11.415534 2:-1.2335716 3:-0.038717803 
10 1:11.416683 2:-1.1365364 3:-0.18999551 
10 1:11.417833 2:-1.0395011 3:-0.34127322 
10 1:11.418982 2:-0.94246583 3:-0.49255093 
10 1:11.420131 2:-0.84543057 3:-0.64382864 
10 1:11.421281 2:-0.7483953 3:-0.79510635 
10 1:11.42243 2:-0.65136004 3:-0.94638406 
10 1:11.429337 2:-0.50164392 3:-1.0356146 
10 1:11.437867 2:-0.33707364 3:-1.1073499 
10 1:11.446398 2:-0.17250336 3:-1.1790853 
10 1:11.454928 2:-0.007933082 3:-1.2508207 
10 1:11.463459 2:0.1566372 3:-1.3225561 
-10 1:11.48052 2:0.48577776 3:-1.4660268 
-10 1:11.493191 2:0.66222234 3:-1.443934 
-10 1:11.506102 2:0.83935693 3:-1.4163889 
-10 1:11.519014 2:1.0164915 3:-1.3888437 
-10 1:11.53165 2:1.1349859 3:-1.2581233 
-10 1:11.544266 2:1.2492596 3:-1.1199768 
-10 1:11.556882 2:1.3635333 3:-0.9818302 
-10 1:11.567787 2:1.4469862 3:-0.8334286 
-10 1:11.573524 2:1.4373439 3:-0.6540513 
-10 1:11.579262 2:1.4277016 3:-0.474674 
-1.464113479943174 1:11.57694 2:1.3218787 3:-0.33968794 
10 1:11.572565 2:1.1915382 3:-0.21601771 
10 1:11.569867 2:1.0781304 3:-0.077257383 
10 1:11.56775 2:0.97058468 3:0.066727162 
10 1:11.565633 2:0.86303898 3:0.21071171 
10 1:11.565702 2:0.7808325 3:0.36816001 
10 1:11.567762 2:0.7217041 3:0.53787064 
10 1:11.569823 2:0.66257569 3:0.70758127 
10 1:11.571883 2:0.60344729 3:0.87729189 
10 1:11.573943 2:0.54431889 3:1.0470025 
10 1:11.576003 2:0.48519049 3:1.2167131 
-10 1:11.578063 2:0.42606209 3:1.3864238 
-10 1:11.572639 2:0.30794465 3:1.45753 
-10 1:11.559728 2:0.13081006 3:1.4299849 
10 1:11.533528 2:-0.22014486 3:1.3580647 
10 1:11.520313 2:-0.39460818 3:1.3169548 
10 1:11.507098 2:-0.56907151 3:1.2758449 
10 1:11.493884 2:-0.74353484 3:1.2347349 
10 1:11.467823 2:-1.0406111 3:1.0647893 
-10 1:11.429991 2:-1.3893717 3:0.66204072 
10 1:11.421721 2:-1.3253958 3:0.30875661 
10 1:11.418628 2:-1.2794837 3:0.1350194 
-10 1:12.066285 2:-1.2526208 3:-0.74663736 
-10 1:12.037014 2:-1.124655 3:-0.86660018 
-10 1:12.007742 2:-0.99668918 3:-0.986563 
-10 1:11.978471 2:-0.86872336 3:-1.1065258 
-10 1:11.949199 2:-0.74075754 3:-1.2264886 
-10 1:11.919927 2:-0.61279172 3:-1.3464515 
-10 1:11.892019 2:-0.47678064 3:-1.4460205 
-10 1:11.870976 2:-0.30022987 3:-1.4428262 
-10 1:11.849934 2:-0.12367909 3:-1.4396319 
-10 1:11.828892 2:0.05287168 3:-1.4364376 
10 1:11.774667 2:0.70306708 3:-1.2217328 
10 1:11.766821 2:0.85493582 3:-1.1295511 
-10 1:11.794528 2:1.4281138 3:-0.28170601 
-10 1:11.810757 2:1.4569165 3:-0.10970365 
-10 1:11.830058 2:1.4647346 3:0.066901854 
-10 1:11.849359 2:1.4725526 3:0.24350736 
-10 1:11.86866 2:1.4803707 3:0.42011287 
-10 1:11.887961 2:1.4881888 3:0.59671838 
-10 1:11.915157 2:1.4146721 3:0.75616874 
-10 1:11.942415 2:1.3405211 3:0.91548531 
-10 1:11.969654 2:1.264446 3:1.0725959 
-10 1:11.995954 2:1.0962951 3:1.1241396 
10 1:12.074853 2:0.59184234 3:1.2787706 
10 1:12.101153 2:0.42369143 3:1.3303143 
10 1:12.123646 2:0.25371106 3:1.3467269 
10 1:12.140198 2:0.080874788 3:1.3082976 
10 1:12.15675 2:-0.091961485 3:1.2698683 
10 1:12.173302 2:-0.26479776 3:1.231439 
10 1:12.182204 2:-0.41665576 3:1.1484829 
10 1:12.186171 2:-0.55497485 3:1.0367902 
10 1:12.186349 2:-0.67635709 3:0.90997397 
10 1:12.180759 2:-0.77194322 3:0.7601234 
10 1:12.175168 2:-0.86752934 3:0.61027284 
10 1:12.168382 2:-0.95597667 3:0.45755 
10 1:12.153125 2:-0.99381257 3:0.28446388 
10 1:12.137867 2:-1.0316485 3:0.11137775 
10 1:12.12261 2:-1.0694844 3:-0.061708381 
10 1:12.108103 2:-1.1123895 3:-0.23361215 
-10 1:12.094164 2:-1.1591332 3:-0.40462055 
-10 1:12.080224 2:-1.205877 3:-0.57562896 
10 1:12.557358 2:-0.057822743 3:-1.217142 
10 1:12.542822 2:0.11410236 3:-1.1640901 
10 1:12.528286 2:0.28602746 3:-1.1110382 
10 1:12.51375 2:0.45795256 3:-1.0579863 
10 1:12.499198 2:0.62927612 3:-1.003607 
10 1:12.484189 2:0.78263838 3:-0.90959219 
10 1:12.46918 2:0.93600063 3:-0.8155774 
10 1:12.454171 2:1.0893629 3:-0.7215626 
10 1:12.439161 2:1.2427251 3:-0.62754781 
-10 1:12.409852 2:1.5306977 3:-0.4252701 
-10 1:12.398794 2:1.5795531 3:-0.25184893 
-10 1:12.387735 2:1.6284085 3:-0.078427764 
-10 1:12.378228 2:1.6552159 3:0.095358947 
-10 1:12.373711 2:1.6110412 3:0.2703225 
-10 1:12.369195 2:1.5668665 3:0.44528605 
-10 1:12.364679 2:1.5226919 3:0.62024959 
-10 1:12.360163 2:1.4785172 3:0.79521314 
-10 1:12.356995 2:1.4190271 3:0.96423037 
-10 1:12.35615 2:1.3331537 3:1.123004 
-10 1:12.355305 2:1.2472802 3:1.2817777 
-10 1:12.35446 2:1.1614068 3:1.4405513 
-10 1:12.361697 2:1.0184222 3:1.5073419 
-10 1:12.374162 2:0.83848994 3:1.5146245 
-10 1:12.386627 2:0.65855768 3:1.5219071 
-10 1:12.399093 2:0.47862541 3:1.5291897 
-10 1:12.411558 2:0.29869315 3:1.5364723 
-10 1:12.424023 2:0.11876088 3:1.5437549 
-10 1:12.436974 2:-0.059004659 3:1.5364181 
-10 1:12.451617 2:-0.22922042 3:1.4781411 
-10 1:12.466261 2:-0.39943618 3:1.419864 
-10 1:12.480904 2:-0.56965194 3:1.361587 
-10 1:12.495547 2:-0.7398677 3:1.30331 
-10 1:12.509896 2:-0.89579991 3:1.2285712 
-10 1:12.522708 2:-0.97724983 3:1.0679916 
-10 1:12.534861 2:-1.0458261 3:0.90157375 
-10 1:12.546886 2:-1.1119113 3:0.73402623 
-10 1:12.558912 2:-1.1779965 3:0.5664787 
-10 1:12.570719 2:-1.2408304 3:0.3986213 
-10 1:12.576025 2:-1.2064364 3:0.22149721 
10 1:12.592434 2:-0.8298454 3:-0.76515009 
10 1:12.587642 2:-0.69124255 3:-0.88069368 
10 1:12.582166 2:-0.54751084 3:-0.98895873 
10 1:12.574566 2:-0.38854472 3:-1.0733957 
10 1:12.565962 2:-0.22318373 3:-1.1452688 
-10 1:13.069719 2:-0.74149839 3:-0.98741138 
-10 1:13.078916 2:-0.65537679 3:-1.1449052 
-10 1:13.085673 2:-0.53856067 3:-1.2685576 
-10 1:13.088558 2:-0.37300166 3:-1.3384697 
-10 1:13.091442 2:-0.20744265 3:-1.4083818 
-10 1:13.094326 2:-0.041883646 3:-1.478294 
-10 1:13.093614 2:0.1266456 3:-1.492055 
-10 1:13.088696 2:0.29864949 3:-1.4401292 
-10 1:13.083778 2:0.47065338 3:-1.3882035 
-10 1:13.07886 2:0.64265728 3:-1.3362777 
-10 1:13.073942 2:0.81466117 3:-1.2843519 
-10 1:13.069024 2:0.98666506 3:-1.2324261 
-10 1:13.06319 2:1.1447516 3:-1.1640194 
-10 1:13.052243 2:1.2251857 3:-1.0036562 
-10 1:13.041297 2:1.3056197 3:-0.84329305 
-10 1:13.030348 2:1.3857659 3:-0.68285311 
10 1:13.018873 2:1.3959975 3:-0.50377367 
10 1:13.007398 2:1.4062292 3:-0.32469423 
10 1:12.995923 2:1.4164608 3:-0.14561478 
10 1:12.984447 2:1.4266925 3:0.033464663 
10 1:12.972972 2:1.4369241 3:0.21254411 
10 1:12.961779 2:1.4298006 3:0.3897517 
10 1:12.95126 2:1.3812655 3:0.56249282 
10 1:12.940741 2:1.3327303 3:0.73523395 
10 1:12.930221 2:1.2841952 3:0.90797507 
10 1:12.919702 2:1.23566 3:1.0807162 
10 1:12.916182 2:1.0875222 3:1.1580619 
10 1:12.914263 2:0.91657939 3:1.213566 
10 1:12.912345 2:0.74563663 3:1.2690701 
10 1:12.910427 2:0.57469387 3:1.3245742 
10 1:12.908509 2:0.4037511 3:1.3800783 
10 1:12.906591 2:0.23280834 3:1.4355824 
10 1:12.908568 2:0.05664213 3:1.4305678 
10 1:12.91185 2:-0.12127543 3:1.405262 
10 1:12.915132 2:-0.29919299 3:1.3799563 
-10 1:12.921697 2:-0.65502811 3:1.3293448 
10 1:12.941812 2:-0.81184802 3:1.0360035 
10 1:12.953117 2:-0.87193376 3:0.86698365 
10 1:12.964482 2:-0.92703567 3:0.69627881 
10 1:12.975848 2:-0.98208697 3:0.52555686 
10 1:12.987214 2:-1.0371383 3:0.35483491 
10 1:12.998611 2:-1.0709781 3:0.18047578 
10 1:13.010051 2:-1.0759803 3:0.0011718126 
10 1:13.021491 2:-1.0809825 3:-0.17813215 
-9.962319217292702 1:13.462958 2:-0.42223379 3:-1.1433252 
-10 1:13.458691 2:-0.26687759 3:-1.228906 
-10 1:13.451601 2:0.46868283 3:-1.2631527 
-10 1:13.451635 2:0.64838121 3:-1.2215557 
-10 1:13.451669 2:0.82807959 3:-1.1799586 
-10 1:13.451703 2:1.007778 3:-1.1383616 
-10 1:13.454866 2:1.1358537 3:-1.0199454 
-10 1:13.459336 2:1.2423432 3:-0.86940692 
-10 1:13.463807 2:1.3488327 3:-0.71886848 
-10 1:13.468277 2:1.4553222 3:-0.56833003 
-0.8370634595300069 1:13.474396 2:1.4844732 3:-0.38864238 
10 1:13.487043 2:1.5236048 3:-0.022041677 
10 1:13.493366 2:1.5431706 3:0.16125867 
10 1:13.49976 2:1.5517129 3:0.34405503 
10 1:13.506438 2:1.5155854 3:0.52480907 
10 1:13.513117 2:1.4794579 3:0.70556312 
10 1:13.519796 2:1.4433304 3:0.88631716 
-10 1:13.526474 2:1.4072029 3:1.0670712 
-10 1:13.533153 2:1.3710754 3:1.2478253 
-10 1:13.536728 2:1.2062626 3:1.3117101 
10 1:13.551444 2:0.31310474 3:1.5260386 
-6.896111728010083 1:13.555656 2:-0.053995146 3:1.5621943 
-10 1:13.557762 2:-0.23754509 3:1.5802721 
-10 1:13.558321 2:-0.41063204 3:1.5569409 
-10 1:13.555899 2:-0.56356674 3:1.4538538 
-10 1:13.553477 2:-0.71650144 3:1.3507668 
-10 1:13.551055 2:-0.86943614 3:1.2476798 
-10 1:13.548634 2:-1.0223708 3:1.1445927 
-10 1:13.545266 2:-1.1345144 3:1.0239861 
10 1:13.531927 2:-1.0737918 3:0.66036249 
10 1:13.525259 2:-1.0440042 3:0.47846773 
10 1:13.518612 2:-1.0216509 3:0.29549786 
10 1:13.511965 2:-0.99929753 3:0.11252799 
10 1:13.505314 2:-0.97533296 3:-0.070208865 
10 1:13.498644 2:-0.94497168 3:-0.25202066 
10 1:13.491974 2:-0.91461039 3:-0.43383246 
10 1:13.485304 2:-0.88424911 3:-0.61564426 
10 1:13.908491 2:-0.086711436 3:-0.98509611 
10 1:13.921196 2:0.095114316 3:-0.97551295 
10 1:13.933902 2:0.27694007 3:-0.96592979 
10 1:13.946608 2:0.45876582 3:-0.95634662 
10 1:13.960663 2:0.63580292 3:-0.92768981 
10 1:13.978028 2:0.80109531 3:-0.85225277 
10 1:13.995394 2:0.96638771 3:-0.77681573 
10 1:14.012759 2:1.1316801 3:-0.70137869 
-10 1:14.04749 2:1.4622649 3:-0.55050461 
-10 1:14.065647 2:1.5225131 3:-0.38728318 
-10 1:14.08392 2:1.5675542 3:-0.21135338 
-10 1:14.102192 2:1.6125953 3:-0.035423573 
-10 1:14.120464 2:1.6576365 3:0.14050623 
-10 1:14.13492 2:1.6432477 3:0.31716698 
-10 1:14.147559 2:1.6005625 3:0.49417575 
-10 1:14.160198 2:1.5578774 3:0.67118453 
-10 1:14.172838 2:1.5151922 3:0.8481933 
10 1:14.174232 2:1.3776796 3:0.96721244 
10 1:14.175414 2:1.238369 3:1.0851321 
10 1:14.176595 2:1.0990584 3:1.2030517 
10 1:14.177776 2:0.95974777 3:1.3209713 
10 1:14.171312 2:0.64571684 3:1.4820437 
10 1:14.162561 2:0.46656606 3:1.5158417 
10 1:14.153811 2:0.28741529 3:1.5496397 
-10 1:14.13631 2:-0.070886265 3:1.6172357 
-10 1:14.127559 2:-0.25003704 3:1.6510337 
-10 1:14.112154 2:-0.41694782 3:1.5993057 
-10 1:14.094497 2:-0.5797156 3:1.5186289 
-10 1:14.07684 2:-0.74248337 3:1.437952 
-10 1:14.059183 2:-0.90525114 3:1.3572752 
-10 1:14.039816 2:-1.0047635 3:1.2095939 
-10 1:14.020203 2:-1.095143 3:1.0522384 
-10 1:14.000589 2:-1.1855225 3:0.89488302 
-10 1:13.981546 2:-1.2614195 3:0.7332239 
-10 1:13.965141 2:-1.2703361 3:0.55166055 
-10 1:13.948736 2:-1.2792528 3:0.37009719 
-10 1:13.932332 2:-1.2881694 3:0.18853384 
-10 1:13.915927 2:-1.297086 3:0.0069704871 
-10 1:13.90102 2:-1.287079 3:-0.17157559 
-10 1:13.890627 2:-1.2200721 3:-0.34103336 
-10 1:13.880234 2:-1.1530652 3:-0.51049113 
-10 1:13.869841 2:-1.0860583 3:-0.6799489 
-10 1:13.867856 2:-0.96203711 3:-0.79563741 
-10 1:13.872021 2:-0.79630601 3:-0.87199003 
10 1:13.885487 2:-0.45067485 3:-0.97640614 
10 1:13.896804 2:-0.26884279 3:-0.98275805 
-10 1:14.598857 2:-0.35069602 3:-1.1992221 
10 1:14.576965 2:-0.1786522 3:-1.154446 
10 1:14.555073 2:-0.0066083872 3:-1.1096698 
10 1:14.533181 2:0.16543543 3:-1.0648937 
10 1:14.511289 2:0.33747925 3:-1.0201176 
10 1:14.489202 2:0.50199456 3:-0.95375511 
10 1:14.467069 2:0.66469278 3:-0.88218254 
10 1:14.444935 2:0.827391 3:-0.81060997 
10 1:14.422802 2:0.99008922 3:-0.7390374 
10 1:14.400668 2:1.1527874 3:-0.66746483 
-10 1:14.316134 2:1.5791242 3:0.062187093 
-10 1:14.307622 2:1.5796511 3:0.23485963 
2.188675920321185 1:14.298087 2:1.5125511 3:0.58662605 
-10 1:14.288553 2:1.445451 3:0.93839248 
-10 1:14.283785 2:1.411901 3:1.1142757 
-10 1:14.289853 2:1.3048945 3:1.2406296 
-10 1:14.30222 2:1.1551893 3:1.3381932 
-10 1:14.314587 2:1.0054841 3:1.4357568 
-10 1:14.331117 2:0.84176004 3:1.4810656 
10 1:14.35182 2:0.66398319 3:1.4739934 
10 1:14.372523 2:0.48620634 3:1.4669211 
10 1:14.393226 2:0.30842949 3:1.4598489 
10 1:14.413929 2:0.13065265 3:1.4527767 
10 1:14.434632 2:-0.0471242 3:1.4457045 
10 1:14.456244 2:-0.2197442 3:1.4079959 
10 1:14.478229 2:-0.39024721 3:1.3577107 
10 1:14.500214 2:-0.56075022 3:1.3074254 
10 1:14.522199 2:-0.73125324 3:1.2571402 
9.332368414584479 1:14.544185 2:-0.90175625 3:1.2068549 
-10 1:14.56617 2:-1.0722593 3:1.1565696 
-10 1:14.579835 2:-1.1267552 3:1.0048807 
10 1:14.608648 2:-1.1511939 3:0.47341387 
10 1:14.614788 2:-1.1288888 3:0.29579624 
10 1:14.620928 2:-1.1065837 3:0.11817862 
10 1:14.627067 2:-1.0842786 3:-0.059439007 
10 1:14.633207 2:-1.0619735 3:-0.23705663 
10 1:14.63539 2:-1.0082774 3:-0.40726555 
-10 1:14.638076 2:-0.88755994 3:-0.74453848 
-10 1:14.631126 2:-0.77315413 3:-0.87018185 
-10 1:14.608853 2:-0.48732366 3:-1.0838263 
10 1:15.043199 2:-0.89747628 3:-0.49952217 
10 1:15.021752 2:-0.80874155 3:-0.65887461 
10 1:15.000305 2:-0.72000681 3:-0.81822706 
-10 1:14.978857 2:-0.63127207 3:-0.9775795 
-10 1:14.95741 2:-0.54253733 3:-1.1369319 
-10 1:14.936644 2:-0.3851816 3:-1.2096629 
-10 1:14.91606 2:-0.20959142 3:-1.2593763 
-10 1:14.895476 2:-0.034001228 3:-1.3090896 
-10 1:14.874891 2:0.14158896 3:-1.358803 
-10 1:14.856445 2:0.31613021 3:-1.3837343 
-10 1:14.845933 2:0.48677815 3:-1.3166834 
-10 1:14.835421 2:0.65742609 3:-1.2496325 
-10 1:14.824908 2:0.82807403 3:-1.1825817 
-10 1:14.815431 2:0.99355452 3:-1.1088557 
-10 1:14.817653 2:1.1006001 3:-0.9596467 
-10 1:14.822099 2:1.3146913 3:-0.66122859 
10 1:14.844187 2:1.3899336 3:-0.30689683 
10 1:14.856477 2:1.4177511 3:-0.12578308 
10 1:14.868767 2:1.4455686 3:0.055330658 
10 1:14.881057 2:1.4733861 3:0.2364444 
10 1:14.897343 2:1.4592261 3:0.41820958 
10 1:14.91413 2:1.4398097 3:0.60005632 
-10 1:14.947705 2:1.4009768 3:0.96374982 
-10 1:14.966564 2:1.3246769 3:1.1058521 
10 1:15.010612 2:0.99842569 3:1.2687267 
10 1:15.032636 2:0.83530009 3:1.3501641 
10 1:15.05466 2:0.6721745 3:1.4316014 
10 1:15.076684 2:0.50904891 3:1.5130387 
-10 1:15.116686 2:0.15544893 3:1.5955319 
-10 1:15.136276 2:-0.024132877 3:1.6286024 
-10 1:15.155737 2:-0.2034514 3:1.6604109 
-10 1:15.161304 2:-0.35431787 3:1.5558386 
10 1:15.172437 2:-0.6560508 3:1.346694 
-10 1:15.18357 2:-0.95778372 3:1.1375494 
-10 1:15.189137 2:-1.1086502 3:1.0329771 
-10 1:15.186328 2:-1.1976468 3:0.89725423 
-10 1:15.170828 2:-1.1928788 3:0.71432241 
-10 1:15.155328 2:-1.1881109 3:0.5313906 
-10 1:15.139827 2:-1.1833429 3:0.34845878 
-10 1:15.124327 2:-1.178575 3:0.16552697 
10 1:15.085646 2:-1.0662623 3:-0.17634962 
10 1:15.064603 2:-0.9853109 3:-0.33966605 
-10 1:15.544191 2:-0.96889844 3:-0.71057727 
-10 1:15.560001 2:-0.85937047 3:-0.85453435 
-10 1:15.575811 2:-0.7498425 3:-0.99849143 
-10 1:15.58623 2:-0.60009751 3:-1.0746151 
10 1:15.592644 2:-0.42046551 3:-1.1003287 
10 1:15.599057 2:-0.2408335 3:-1.1260423 
10 1:15.60547 2:-0.061201496 3:-1.1517559 
10 1:15.611828 2:0.1185102 3:-1.1768487 
10 1:15.617674 2:0.29895231 3:-1.196251 
10 1:15.62352 2:0.47939442 3:-1.2156533 
10 1:15.629365 2:0.65983652 3:-1.2350556 
-10 1:15.625074 2:1.1578776 3:-1.0684096 
-10 1:15.615265 2:1.2622654 3:-0.93742841 
-8.706030226242181 1:15.600408 2:1.3153825 3:-0.76443183 
10 1:15.55465 2:1.4425652 3:-0.24042954 
10 1:15.537952 2:1.4457371 3:-0.059650488 
10 1:15.521253 2:1.448909 3:0.12112857 
10 1:15.504554 2:1.4520809 3:0.30190762 
10 1:15.487855 2:1.4552528 3:0.48268667 
10 1:15.470609 2:1.4100439 3:0.6576698 
-10 1:15.436113 2:1.3192343 3:1.0075891 
-10 1:15.419226 2:1.2647934 3:1.1764632 
-10 1:15.406003 2:1.1188963 3:1.283744 
-10 1:15.39278 2:0.9729993 3:1.3910248 
-10 1:15.379556 2:0.82710225 3:1.4983056 
-10 1:15.368606 2:0.67375114 3:1.579282 
-10 1:15.36604 2:0.49290404 3:1.5632283 
10 1:15.360908 2:0.13120984 3:1.531121 
10 1:15.358342 2:-0.049637258 3:1.5150673 
10 1:15.355776 2:-0.23048436 3:1.4990137 
-10 1:15.351086 2:-0.5912597 3:1.462362 
-10 1:15.352367 2:-0.76411248 3:1.406772 
10 1:15.381787 2:-0.86963746 3:1.0641236 
10 1:15.396793 2:-0.91975015 3:0.89024573 
10 1:15.411799 2:-0.96986285 3:0.71636786 
10 1:15.426812 2:-1.0197978 3:0.54245791 
10 1:15.443192 2:-1.0348167 3:0.36224667 
10 1:15.459573 2:-1.0498356 3:0.18203544 
10 1:15.476074 2:-1.0571334 3:0.0023897548 
10 1:15.493324 2:-1.0165385 3:-0.17374791 
-10 1:15.52743 2:-0.9684159 3:-0.5297768 
-10 1:16.043118 2:-1.0225882 3:-0.36499057 
-10 1:16.012179 2:-0.96299496 3:-0.53674913 
-10 1:15.981239 2:-0.90340168 3:-0.70850768 
-10 1:15.950299 2:-0.8438084 3:-0.88026624 
-10 1:15.921438 2:-0.74156839 3:-1.0104736 
-10 1:15.895958 2:-0.57000734 3:-1.0731407 
10 1:15.870477 2:-0.39844629 3:-1.1358078 
10 1:15.844996 2:-0.22688524 3:-1.1984749 
10 1:15.819515 2:-0.055324187 3:-1.261142 
10 1:15.794034 2:0.11623686 3:-1.3238091 
-10 1:15.743073 2:0.45935896 3:-1.4491433 
-10 1:15.721838 2:0.63965797 3:-1.4773535 
-10 1:15.70145 2:0.8216968 3:-1.4987029 
-10 1:15.702565 2:0.95542785 3:-1.4051053 
-10 1:15.713573 2:1.066938 3:-1.2586336 
-10 1:15.72458 2:1.1784481 3:-1.1121619 
-10 1:15.735587 2:1.2899582 3:-0.96569015 
-10 1:15.751096 2:1.3730832 3:-0.80690731 
-10 1:15.774192 2:1.4083743 3:-0.62737805 
-10 1:15.797288 2:1.4436654 3:-0.44784878 
-10 1:15.843479 2:1.5142476 3:-0.088790262 
-10 1:15.866575 2:1.5495387 3:0.090738999 
-10 1:15.893634 2:1.5427433 3:0.27010918 
-10 1:15.923039 2:1.5110402 3:0.44938522 
-10 1:15.952444 2:1.479337 3:0.62866126 
-10 1:15.981849 2:1.4476339 3:0.80793731 
-10 1:16.011469 2:1.3650178 3:0.95592491 
10 1:16.07124 2:1.0741396 3:1.1746846 
9.431444056895103 1:16.101126 2:0.92870052 3:1.2840644 
-10 1:16.156347 2:0.62028658 3:1.4606468 
-10 1:16.217513 2:0.074170092 3:1.5246952 
-10 1:16.233308 2:-0.10503018 3:1.5166833 
-10 1:16.240945 2:-0.27918806 3:1.456514 
-10 1:16.248582 2:-0.45334593 3:1.3963447 
-10 1:16.256219 2:-0.62750381 3:1.3361754 
-10 1:16.252908 2:-0.75424289 3:1.2321644 
10 1:16.20996 2:-0.85039383 3:0.87868317 
10 1:16.188486 2:-0.8984693 3:0.70194255 
10 1:16.165096 2:-0.92944133 3:0.52319605 
10 1:16.138178 2:-0.92891059 3:0.3407549 
10 1:16.11126 2:-0.92837984 3:0.15831376 
10 1:16.084342 2:-0.92784909 3:-0.024127389 
10 1:16.058244 2:-0.93535189 3:-0.20616614 
-10 1:16.467979 2:-1.0749601 3:0.19307408 
10 1:16.500187 2:-0.96206698 3:-0.14186231 
10 1:16.516291 2:-0.90562041 3:-0.3093305 
10 1:16.532395 2:-0.84917384 3:-0.4767987 
10 1:16.548499 2:-0.79272727 3:-0.64426689 
10 1:16.563039 2:-0.6904323 3:-0.78801383 
10 1:16.57749 2:-0.58551962 3:-0.9304064 
10 1:16.591941 2:-0.48060693 3:-1.072799 
10 1:16.606392 2:-0.37569425 3:-1.2151916 
-4.915880022909936 1:16.620843 2:-0.27078157 3:-1.3575841 
10 1:16.630974 2:0.063987779 3:-1.4194521 
10 1:16.634616 2:0.24085312 3:-1.4334713 
10 1:16.638258 2:0.41771847 3:-1.4474904 
-10 1:16.645541 2:0.77144916 3:-1.4755288 
-10 1:16.643696 2:0.93682758 3:-1.4313671 
-10 1:16.638467 2:1.095122 3:-1.3513254 
-10 1:16.627141 2:1.1850322 3:-1.2147003 
-10 1:16.612261 2:1.2350914 3:-1.0451014 
10 1:16.596953 2:1.2697306 3:-0.87308281 
10 1:16.580828 2:1.2748623 3:-0.69643402 
10 1:16.564703 2:1.2799939 3:-0.51978523 
10 1:16.548578 2:1.2851255 3:-0.34313644 
10 1:16.532453 2:1.2902572 3:-0.16648765 
10 1:16.516327 2:1.2953888 3:0.01016114 
10 1:16.500202 2:1.3005204 3:0.18680993 
10 1:16.484064 2:1.3024534 3:0.36313647 
10 1:16.467754 2:1.2623202 3:0.53522497 
10 1:16.451444 2:1.222187 3:0.70731347 
10 1:16.435134 2:1.1820537 3:0.87940196 
10 1:16.418824 2:1.1419205 3:1.0514905 
10 1:16.406213 2:1.0418131 3:1.1745057 
10 1:16.3974 2:0.88014609 3:1.2471504 
10 1:16.388586 2:0.71847908 3:1.3197951 
10 1:16.379773 2:0.55681207 3:1.3924398 
10 1:16.374756 2:0.39023636 3:1.422962 
10 1:16.375574 2:0.2161143 3:1.3887277 
10 1:16.376392 2:0.041992245 3:1.3544934 
10 1:16.377211 2:-0.13212981 3:1.3202591 
10 1:16.378029 2:-0.30625187 3:1.2860248 
10 1:16.378847 2:-0.48037393 3:1.2517905 
-10 1:16.382895 2:-0.81403175 3:1.1591457 
-10 1:16.39398 2:-0.92602912 3:1.021942 
-10 1:16.405066 2:-1.0380265 3:0.88473828 
-10 1:16.420045 2:-1.0768984 3:0.71568839 
-10 1:16.435743 2:-1.1022628 3:0.54075594 
-10 1:16.451634 2:-1.1097206 3:0.36632445 
-10 1:16.945422 2:-1.0101411 3:-0.69781801 
-10 1:16.960532 2:-0.87390652 3:-0.81670935 
10 1:16.990753 2:-0.60143727 3:-1.054492 
10 1:17.005863 2:-0.46520264 3:-1.1733834 
10 1:17.02085 2:-0.30049088 3:-1.2269205 
10 1:17.035772 2:-0.12063572 3:-1.245704 
10 1:17.050693 2:0.059219446 3:-1.2644875 
10 1:17.065614 2:0.23907461 3:-1.283271 
10 1:17.080536 2:0.41892978 3:-1.3020545 
10 1:17.094765 2:0.59840938 3:-1.3026443 
10 1:17.107936 2:0.77731415 3:-1.2753872 
-10 1:17.134278 2:1.1351237 3:-1.2208728 
-10 1:17.140344 2:1.254077 3:-1.1287592 
-10 1:17.137131 2:1.2947467 3:-0.95195701 
-10 1:17.133918 2:1.3354164 3:-0.77515486 
10 1:17.126642 2:1.4068339 3:-0.41976277 
10 1:17.122021 2:1.4310839 3:-0.240002 
10 1:17.117401 2:1.4553338 3:-0.060241218 
10 1:17.11278 2:1.4795838 3:0.11951956 
-10 1:17.10354 2:1.5280837 3:0.47904111 
-10 1:17.097204 2:1.5290372 3:0.65525746 
-10 1:17.085245 2:1.453616 3:0.81985385 
-10 1:17.073286 2:1.3781948 3:0.98445024 
-10 1:17.061327 2:1.3027736 3:1.1490466 
-10 1:17.049368 2:1.2273524 3:1.313643 
-10 1:17.03596 2:1.0989567 3:1.4027973 
-10 1:17.021136 2:0.91877233 3:1.4181984 
-10 1:17.006312 2:0.738588 3:1.4335995 
-10 1:16.991487 2:0.55840367 3:1.4490005 
-10 1:16.976663 2:0.37821934 3:1.4644016 
-10 1:16.961839 2:0.19803502 3:1.4798027 
-10 1:16.947622 2:0.019575998 3:1.4822597 
-10 1:16.903091 2:-0.65922536 3:1.2292394 
10 1:16.901046 2:-0.83159566 3:0.91037824 
10 1:16.903705 2:-0.87769339 3:0.73701236 
10 1:16.907872 2:-0.90730302 3:0.55804518 
10 1:16.912047 2:-0.93682009 3:0.37906315 
10 1:16.916303 2:-0.96538282 3:0.19992801 
10 1:16.920559 2:-0.99394556 3:0.020792861 
-10 1:16.929148 2:-1.0501135 3:-0.33749765 
-10 1:16.937285 2:-1.0301273 3:-0.51765783 
10 1:17.67007 2:-0.81659648 3:-0.80666905 
10 1:17.676973 2:-0.71477749 3:-0.95551085 
-10 1:17.690778 2:-0.51113952 3:-1.2531944 
-10 1:17.686986 2:-0.37055935 3:-1.3404831 
-10 1:17.672962 2:-0.19289177 3:-1.3688766 
-10 1:17.658938 2:-0.015224177 3:-1.39727 
-10 1:17.644914 2:0.16244341 3:-1.4256635 
-10 1:17.630686 2:0.33972167 3:-1.451908 
10 1:17.580999 2:0.65384756 3:-1.2812308 
10 1:17.556156 2:0.8109105 3:-1.1958922 
-10 1:17.506469 2:1.1250364 3:-1.025215 
-10 1:17.48174 2:1.2638159 3:-0.9251623 
-10 1:17.457568 2:1.3134097 3:-0.75333439 
-10 1:17.360882 2:1.5117845 3:-0.066022743 
10 1:17.305633 2:1.4638079 3:0.46550775 
-10 1:17.270337 2:1.414324 3:0.8212886 
-10 1:17.252688 2:1.3895821 3:0.99917903 
10 1:17.264966 2:1.0718585 3:1.1635541 
10 1:17.271567 2:0.9103877 3:1.24388 
10 1:17.278169 2:0.74891693 3:1.3242059 
-10 1:17.368102 2:-0.30380274 3:1.431765 
-10 1:17.385589 2:-0.48342015 3:1.4311083 
-10 1:17.407522 2:-0.61816602 3:1.3523973 
8.14269724016143 1:17.459853 2:-0.80222188 3:1.0463591 
10 1:17.486019 2:-0.8942498 3:0.89333999 
10 1:17.532239 2:-0.98823118 3:0.5640461 
10 1:17.551527 2:-0.97889006 3:0.38485528 
10 1:17.570815 2:-0.96954894 3:0.20566445 
10 1:17.591777 2:-0.97797593 3:0.026900102 
10 1:17.613273 2:-0.9920621 3:-0.15172842 
10 1:17.634769 2:-1.0061483 3:-0.33035693 
-10 1:17.983092 2:-1.1057803 3:-0.74111743 
-10 1:17.964464 2:-1.0125358 3:-0.89208881 
-10 1:17.945835 2:-0.91929137 3:-1.0430602 
-10 1:17.927207 2:-0.82604691 3:-1.1940316 
-10 1:17.908938 2:-0.72910528 3:-1.3392995 
-10 1:17.898428 2:-0.55238247 3:-1.3614917 
-10 1:17.887918 2:-0.37565966 3:-1.383684 
-10 1:17.877408 2:-0.19893685 3:-1.4058763 
-10 1:17.866898 2:-0.022214037 3:-1.4280686 
-10 1:17.856388 2:0.15450877 3:-1.4502609 
-10 1:17.852734 2:0.32486274 3:-1.4027091 
-10 1:17.849826 2:0.49452358 3:-1.347567 
-10 1:17.846918 2:0.66418442 3:-1.2924249 
-10 1:17.84401 2:0.83384526 3:-1.2372828 
-10 1:17.845038 2:0.98016409 3:-1.1520851 
-10 1:17.854578 2:1.0760094 3:-1.0018966 
-10 1:17.864119 2:1.1718546 3:-0.85170812 
-10 1:17.873659 2:1.2676999 3:-0.70151964 
-10 1:17.883199 2:1.3635451 3:-0.55133117 
-10 1:17.892739 2:1.4593904 3:-0.40114269 
-10 1:17.905129 2:1.5192663 3:-0.23887403 
-10 1:17.920991 2:1.5353148 3:-0.061886048 
-10 1:17.936854 2:1.5513632 3:0.11510194 
-10 1:17.952716 2:1.5674116 3:0.29208992 
10 1:17.98798 2:1.4726569 3:0.61937207 
10 1:18.006665 2:1.3875629 3:0.7750763 
10 1:18.024967 2:1.2929408 3:0.92188162 
10 1:18.04104 2:1.1426599 3:1.0167037 
10 1:18.057113 2:0.99237893 3:1.1115257 
10 1:18.073185 2:0.842098 3:1.2063477 
10 1:18.086501 2:0.67435971 3:1.2629695 
10 1:18.099328 2:0.50352303 3:1.3128113 
10 1:18.112155 2:0.33268634 3:1.3626531 
10 1:18.122636 2:0.16028086 3:1.3867244 
10 1:18.128156 2:-0.015441513 3:1.3563092 
10 1:18.133676 2:-0.19116389 3:1.325894 
10 1:18.139196 2:-0.36688627 3:1.2954788 
10 1:18.138219 2:-0.51178637 3:1.2115481 
10 1:18.130852 2:-0.62637258 3:1.0749844 
10 1:18.123485 2:-0.74095879 3:0.93842071 
10 1:18.116118 2:-0.855545 3:0.80185703 
10 1:18.107531 2:-0.95753455 3:0.65868994 
10 1:18.093781 2:-1.0062699 3:0.48760593 
10 1:18.080032 2:-1.0550052 3:0.31652193 
10 1:18.066283 2:-1.1037405 3:0.14543792 
10 1:18.049935 2:-1.1080407 3:-0.030761188 
10 1:18.032937 2:-1.1012282 3:-0.20823953 
-10 1:17.999682 2:-1.103716 3:-0.56348177 
10 1:18.666238 2:0.067189189 3:-0.99835366 
10 1:18.67738 2:0.25293217 3:-0.92400989 
10 1:18.688522 2:0.43867516 3:-0.84966611 
10 1:18.699664 2:0.62441814 3:-0.77532233 
10 1:18.710807 2:0.81016112 3:-0.70097855 
10 1:18.714808 2:0.97588227 3:-0.59710767 
10 1:18.708653 2:1.1131231 3:-0.45123557 
10 1:18.702498 2:1.2503639 3:-0.30536347 
10 1:18.696342 2:1.3876048 3:-0.15949137 
-8.214808405832736 1:18.690187 2:1.5248456 3:-0.013619274 
-10 1:18.684032 2:1.6620864 3:0.13225283 
-10 1:18.661267 2:1.703105 3:0.30811002 
-10 1:18.627319 2:1.6793364 3:0.50415641 
-10 1:18.593371 2:1.6555678 3:0.70020281 
-10 1:18.559423 2:1.6317992 3:0.89624921 
-10 1:18.524321 2:1.5690163 3:1.0691809 
-10 1:18.486375 2:1.4100617 3:1.185134 
-10 1:18.448428 2:1.2511071 3:1.3010871 
-10 1:18.410482 2:1.0921526 3:1.4170402 
-10 1:18.374819 2:0.92610729 3:1.5130332 
-10 1:18.349692 2:0.72734874 3:1.5169391 
-10 1:18.324565 2:0.52859018 3:1.520845 
-10 1:18.249183 2:-0.067685485 3:1.5325628 
-10 1:18.224692 2:-0.26630272 3:1.5325525 
-10 1:18.204365 2:-0.4639963 3:1.5069464 
-10 1:18.184039 2:-0.66168989 3:1.4813404 
-10 1:18.163712 2:-0.85938347 3:1.4557343 
-10 1:18.143385 2:-1.0570771 3:1.4301283 
-10 1:18.123058 2:-1.2547706 3:1.4045222 
-10 1:18.133157 2:-1.347439 3:1.2684608 
-10 1:18.159568 2:-1.3838068 3:1.073188 
-10 1:18.185978 2:-1.4201746 3:0.87791509 
-10 1:18.213657 2:-1.4457313 3:0.68304668 
-10 1:18.24945 2:-1.4021667 3:0.49076421 
-10 1:18.285244 2:-1.3586021 3:0.29848174 
-10 1:18.321038 2:-1.3150375 3:0.10619927 
-10 1:18.356831 2:-1.2714729 3:-0.086083194 
2.289712525839689 1:18.47137 2:-1.014755 3:-0.60994713 
10 1:18.542687 2:-0.74669262 3:-0.85178471 
10 1:18.571173 2:-0.5501804 3:-0.87867447 
10 1:18.598413 2:-0.35285375 3:-0.89704782 
10 1:18.623414 2:-0.15406472 3:-0.90012892 
10 1:18.648414 2:0.044724312 3:-0.90321002 
10 1:18.664919 2:0.18664104 3:-0.89692044 
10 1:18.632121 2:-0.001494175 3:-0.83624911 
10 1:18.91162 2:0.66205914 3:-0.81793297 
10 1:18.90686 2:0.78699737 3:-0.67914613 
10 1:18.902099 2:0.91193561 3:-0.54035928 
10 1:18.897338 2:1.0368739 3:-0.40157243 
10 1:18.893545 2:1.1534044 3:-0.25621614 
10 1:18.891199 2:1.2573502 3:-0.10102664 
10 1:18.888853 2:1.361296 3:0.05416286 
10 1:18.886508 2:1.4652418 3:0.20935236 
10 1:18.893286 2:1.5479251 3:0.54542884 
10 1:18.903552 2:1.5142052 3:0.72887257 
10 1:18.913818 2:1.4804853 3:0.91231629 
-10 1:18.937802 2:1.3498122 3:1.2346266 
-10 1:18.989358 2:0.86847842 3:1.5169488 
-10 1:19.006544 2:0.70803382 3:1.6110563 
-10 1:19.021981 2:0.52551972 3:1.616958 
-10 1:19.037141 2:0.33951125 3:1.6088938 
0.8773705466980515 1:19.097422 2:-0.40336037 3:1.5701805 
10 1:19.10976 2:-0.58023626 3:1.5113866 
10 1:19.122097 2:-0.75711216 3:1.4525927 
10 1:19.134434 2:-0.93398805 3:1.3937988 
10 1:19.146772 2:-1.1108639 3:1.3350049 
10 1:19.151475 2:-1.2346296 3:1.197214 
-10 1:19.159931 2:-1.4755492 3:0.91179803 
-10 1:19.16416 2:-1.596009 3:0.76909003 
-10 1:19.16292 2:-1.6550524 3:0.61767545 
-10 1:19.149723 2:-1.5797861 3:0.44722069 
-10 1:19.136526 2:-1.5045197 3:0.27676593 
-10 1:19.073134 2:-1.167024 3:-0.59127189 
-10 1:19.060646 2:-1.1018679 3:-0.76500224 
-10 1:19.043424 2:-0.93803293 3:-0.85306762 
-10 1:19.026202 2:-0.77419794 3:-0.94113299 
-10 1:19.00898 2:-0.61036295 3:-1.0291984 
-10 1:18.993485 2:-0.42605666 3:-1.0328342 
-9.381160297635676 1:18.978145 2:-0.2399286 3:-1.0289566 
5.671740328825012 1:18.949055 2:0.12981846 3:-0.98721168 
10 1:18.936295 2:0.30830735 3:-0.93552079 
10 1:18.923957 2:0.48518324 3:-0.87672688 
-10 1:19.558582 2:0.73139554 3:-1.0465209 
-10 1:19.547331 2:0.86021021 3:-0.90474609 
-10 1:19.536081 2:0.98902488 3:-0.76297131 
-10 1:19.52483 2:1.1178395 3:-0.62119652 
-10 1:19.513425 2:1.242281 3:-0.47612231 
-10 1:19.501209 2:1.3437749 3:-0.31373504 
-10 1:19.488992 2:1.4452688 3:-0.15134777 
-10 1:19.476776 2:1.5467627 3:0.011039501 
-10 1:19.464559 2:1.6482566 3:0.17342677 
-10 1:19.452343 2:1.7497505 3:0.33581404 
-10 1:19.440597 2:1.7081509 3:0.52255256 
-10 1:19.428852 2:1.6660073 3:0.70938367 
-10 1:19.417108 2:1.6238636 3:0.89621478 
-10 1:19.405364 2:1.5817199 3:1.0830459 
-10 1:19.399284 2:1.4542607 3:1.2029824 
-10 1:19.385509 2:0.58553571 3:1.6022643 
-10 1:19.385803 2:0.39724415 3:1.6392249 
-10 1:19.386097 2:0.20895259 3:1.6761855 
-10 1:19.38639 2:0.020661032 3:1.713146 
-10 1:19.386684 2:-0.16763053 3:1.7501066 
-10 1:19.387142 2:-0.35594461 3:1.7845911 
-10 1:19.392084 2:-0.54487402 3:1.7514078 
-10 1:19.397026 2:-0.73380344 3:1.7182245 
-10 1:19.401969 2:-0.92273286 3:1.6850413 
-10 1:19.408706 2:-1.0889523 3:1.6197179 
-10 1:19.421088 2:-1.1837849 3:1.4533648 
10 1:19.469716 2:-1.4490051 3:0.77646242 
10 1:19.480878 2:-1.389057 3:0.59452419 
10 1:19.49204 2:-1.3291089 3:0.41258596 
10 1:19.503689 2:-1.2874443 3:0.22729882 
10 1:19.516208 2:-1.2784034 3:0.036036118 
10 1:19.528727 2:-1.2693625 3:-0.15522659 
10 1:19.539281 2:-1.2236132 3:-0.32485941 
10 1:19.543529 2:-1.0600197 3:-0.42505422 
10 1:19.547777 2:-0.89642617 3:-0.52524903 
10 1:19.552025 2:-0.73283266 3:-0.62544383 
10 1:19.555497 2:-0.56345204 3:-0.71518373 
10 1:19.557574 2:-0.38718291 3:-0.78533661 
10 1:19.556674 2:-0.19754796 3:-0.81343046 
10 1:19.556287 2:-0.0089970032 3:-0.8490432 
10 1:19.555901 2:0.17955396 3:-0.88465595 
-10 1:19.556501 2:0.36443811 3:-0.93437361 
-10 1:19.557682 2:0.54729019 3:-0.99244416 
-10 1:20.140766 2:0.63587183 3:-0.94676518 
-10 1:20.132349 2:0.73427944 3:-0.78541957 
10 1:20.123933 2:0.83268705 3:-0.62407396 
10 1:20.115517 2:0.93109466 3:-0.46272834 
10 1:20.1071 2:1.0295023 3:-0.30138273 
10 1:20.095873 2:1.1054833 3:-0.12860582 
10 1:20.084488 2:1.1801959 3:0.044817631 
10 1:20.073102 2:1.2549085 3:0.21824108 
10 1:20.061716 2:1.3296211 3:0.39166453 
10 1:20.05033 2:1.4043337 3:0.56508798 
10 1:20.032639 2:1.3913153 3:0.73543141 
10 1:20.00983 2:1.3070792 3:0.90327456 
10 1:19.987021 2:1.2228431 3:1.0711177 
10 1:19.964211 2:1.138607 3:1.2389608 
10 1:19.924863 2:0.86193254 3:1.4276638 
10 1:19.907956 2:0.67583333 3:1.4571349 
10 1:19.891049 2:0.48973412 3:1.486606 
10 1:19.874142 2:0.3036349 3:1.5160771 
10 1:19.85734 2:0.11741135 3:1.5443902 
10 1:19.842377 2:-0.071006797 3:1.5522652 
10 1:19.827414 2:-0.25942495 3:1.5601402 
10 1:19.812451 2:-0.44784309 3:1.5680151 
10 1:19.797488 2:-0.63626124 3:1.5758901 
-10 1:19.767563 2:-1.0130975 3:1.5916401 
-10 1:19.7526 2:-1.2015157 3:1.5995151 
-10 1:19.760475 2:-1.2866292 3:1.4538897 
-4.818957152667077 1:19.773131 2:-1.3501216 3:1.2761374 
10 1:19.852597 2:-1.4826293 3:0.36434403 
-10 1:19.911223 2:-1.4370792 3:-0.198305 
-10 1:19.930765 2:-1.4218958 3:-0.38585467 
-10 1:19.952994 2:-1.3509317 3:-0.55797821 
-10 1:19.975729 2:-1.2694862 3:-0.7272031 
-10 1:19.997968 2:-1.1817083 3:-0.88651158 
-10 1:20.012309 2:-0.99308243 3:-0.88789484 
-10 1:20.026651 2:-0.8044566 3:-0.8892781 
-10 1:20.040993 2:-0.61583077 3:-0.89066137 
10 1:20.066252 2:-0.24120729 3:-0.86053742 
10 1:20.076919 2:-0.055401408 3:-0.82663048 
10 1:20.087586 2:0.13040448 3:-0.79272353 
10 1:20.098254 2:0.31621036 3:-0.75881659 
-10 1:20.640394 2:0.44612904 3:-1.0455549 
-10 1:20.63802 2:0.60611959 3:-0.9520715 
-10 1:20.635645 2:0.76611013 3:-0.85858813 
-10 1:20.633271 2:0.92610068 3:-0.76510477 
-10 1:20.62561 2:1.0518584 3:-0.64014573 
-10 1:20.611065 2:1.1330259 3:-0.47418784 
-10 1:20.552884 2:1.457696 3:0.1896437 
-10 1:20.534258 2:1.4894583 3:0.36950606 
-10 1:20.514653 2:1.5093764 3:0.55270185 
-10 1:20.495049 2:1.5292944 3:0.73589763 
-10 1:20.474402 2:1.4755996 3:0.89505401 
-10 1:20.452763 2:1.3519282 3:1.0313584 
-10 1:20.387848 2:0.98091382 3:1.4402717 
10 1:20.360536 2:0.6272515 3:1.5229245 
10 1:20.34767 2:0.44516197 3:1.5548559 
10 1:20.334804 2:0.26307244 3:1.5867874 
10 1:20.321938 2:0.080982912 3:1.6187189 
10 1:20.313196 2:-0.1003172 3:1.6143581 
10 1:20.308709 2:-0.28080315 3:1.5725677 
10 1:20.304222 2:-0.4612891 3:1.5307773 
10 1:20.299735 2:-0.64177505 3:1.4889868 
10 1:20.295248 2:-0.822261 3:1.4471964 
10 1:20.290761 2:-1.002747 3:1.405406 
10 1:20.322832 2:-1.4366013 3:0.92416154 
10 1:20.344241 2:-1.4199985 3:0.74145663 
10 1:20.365836 2:-1.4004059 3:0.5584497 
10 1:20.387431 2:-1.3808133 3:0.37544277 
10 1:20.409026 2:-1.3612206 3:0.19243584 
10 1:20.430621 2:-1.341628 3:0.0094289085 
10 1:20.452216 2:-1.3220354 3:-0.17357802 
10 1:20.474808 2:-1.2475523 3:-0.34060766 
-10 1:20.520226 2:-1.0856668 3:-0.67090641 
-10 1:20.539193 2:-0.97609901 3:-0.789856 
10 1:20.558466 2:-0.60803897 3:-0.79456998 
10 1:20.575085 2:-0.43745604 3:-0.86504722 
10 1:20.589874 2:-0.26335053 3:-0.91767976 
10 1:20.598971 2:-0.078281482 3:-0.91477324 
10 1:20.608068 2:0.10678757 3:-0.91186672 
-10 1:20.623101 2:0.27892163 3:-0.96755252 
-10 1:20.913117 2:0.88099916 3:-0.88817462 
-10 1:20.907557 2:0.98654926 3:-0.73584802 
-10 1:20.901997 2:1.0920993 3:-0.58352141 
-10 1:20.896436 2:1.1976494 3:-0.4311948 
-10 1:20.890876 2:1.3031995 3:-0.2788682 
-10 1:20.892035 2:1.3316061 3:-0.096223916 
-10 1:20.896116 2:1.4098676 3:0.45444355 
-10 1:20.897476 2:1.4359548 3:0.63799938 
-10 1:20.906382 2:1.364178 3:0.80783588 
-10 1:20.915517 2:1.2894174 3:0.97725408 
-10 1:20.924653 2:1.2146568 3:1.1466723 
-10 1:20.935392 2:1.1139376 3:1.2912506 
-10 1:20.950116 2:0.9487444 3:1.3741333 
-10 1:20.964839 2:0.78355118 3:1.4570161 
-10 1:20.979562 2:0.61835796 3:1.5398989 
-10 1:20.994286 2:0.45316474 3:1.6227817 
-10 1:21.008748 2:0.28319436 3:1.671431 
10 1:21.036404 2:-0.080010297 3:1.6020186 
10 1:21.050231 2:-0.26161263 3:1.5673124 
10 1:21.064059 2:-0.44321496 3:1.5326063 
10 1:21.077887 2:-0.62481729 3:1.4979001 
10 1:21.090285 2:-0.79643911 3:1.4293986 
10 1:21.102598 2:-0.96745989 3:1.3588619 
10 1:21.114911 2:-1.1384807 3:1.2883252 
-10 1:21.133932 2:-1.4231572 3:1.0922918 
-10 1:21.135638 2:-1.4855951 3:0.91772454 
-10 1:21.137344 2:-1.5480331 3:0.74315731 
-10 1:21.138381 2:-1.6021306 3:0.56835306 
-10 1:21.130906 2:-1.5501694 3:0.39053492 
10 1:21.115956 2:-1.4462472 3:0.03489863 
10 1:21.108412 2:-1.3933441 3:-0.14255266 
10 1:21.09884 2:-1.3124268 3:-0.30909365 
10 1:21.089267 2:-1.2315096 3:-0.47563463 
-10 1:21.070123 2:-1.0696751 3:-0.8087166 
-10 1:21.059364 2:-0.96534735 3:-0.93898455 
-10 1:21.04453 2:-0.78062433 3:-0.94468516 
10 1:21.014917 2:-0.4112015 3:-0.95325564 
10 1:21.000374 2:-0.22660141 3:-0.94395836 
10 1:20.985831 2:-0.042001313 3:-0.93466107 
10 1:20.971288 2:0.14259878 3:-0.92536378 
10 1:20.956745 2:0.32719888 3:-0.91606649 
-10 1:20.942202 2:0.51179897 3:-0.9067692 
-10 1:20.92766 2:0.69639907 3:-0.89747191 
-10 1:21.371082 2:0.99534385 3:-0.58303512 
10 1:21.36526 2:1.0503484 3:-0.40199804 
10 1:21.359437 2:1.105353 3:-0.22096095 
10 1:21.355302 2:1.1470462 3:-0.038062734 
10 1:21.356932 2:1.1432821 3:0.15119108 
10 1:21.358561 2:1.139518 3:0.3404449 
10 1:21.36019 2:1.1357539 3:0.52969872 
10 1:21.364722 2:1.1087773 3:0.7154338 
10 1:21.372302 2:1.0574097 3:0.89747153 
10 1:21.379883 2:1.0060421 3:1.0795093 
-10 1:21.395045 2:0.90330694 3:1.4435847 
-10 1:21.410495 2:0.78613006 3:1.5570438 
-10 1:21.433725 2:0.60389702 3:1.602709 
-10 1:21.456955 2:0.42166399 3:1.6483742 
-10 1:21.480186 2:0.23943095 3:1.6940394 
-10 1:21.503416 2:0.057197914 3:1.7397045 
-10 1:21.526646 2:-0.12503512 3:1.7853697 
-10 1:21.550002 2:-0.31154773 3:1.7633565 
-10 1:21.573358 2:-0.49807596 3:1.7410961 
-10 1:21.596715 2:-0.68460419 3:1.7188358 
-10 1:21.620071 2:-0.87113242 3:1.6965754 
-10 1:21.643428 2:-1.0576607 3:1.674315 
-10 1:21.666784 2:-1.2441889 3:1.6520547 
-10 1:21.682114 2:-1.3698287 3:1.5711491 
-10 1:21.682676 2:-1.3834394 3:1.3823417 
-10 1:21.683238 2:-1.3970501 3:1.1935342 
10 1:21.684361 2:-1.4242714 3:0.81591922 
10 1:21.684923 2:-1.437882 3:0.62711174 
10 1:21.685711 2:-1.4532876 3:0.43844475 
10 1:21.686544 2:-1.469044 3:0.24980522 
10 1:21.687377 2:-1.4848004 3:0.06116569 
-10 1:21.68821 2:-1.5005569 3:-0.12747384 
-10 1:21.689043 2:-1.5163133 3:-0.31611337 
-10 1:21.689876 2:-1.5320697 3:-0.5047529 
-10 1:21.680129 2:-1.4607351 3:-0.62976518 
-10 1:21.656849 2:-1.2780111 3:-0.67339817 
10 1:21.633507 2:-1.0946475 3:-0.71413155 
10 1:21.610111 2:-0.91073781 3:-0.75238975 
10 1:21.586714 2:-0.72682816 3:-0.79064796 
10 1:21.563318 2:-0.5429185 3:-0.82890617 
10 1:21.540841 2:-0.36733487 3:-0.88847788 
10 1:21.520027 2:-0.20683663 3:-0.98666622 
10 1:21.497113 2:-0.024310947 3:-0.97453154 
10 1:21.473893 2:0.16142625 3:-0.94631219 
10 1:21.450672 2:0.34716345 3:-0.91809284 
-10 1:21.868683 2:0.96803332 3:-0.66722121 
10 1:21.907908 2:1.0823759 3:-0.3227342 
10 1:21.92752 2:1.1395472 3:-0.15049069 
10 1:21.947344 2:1.1937188 3:0.022308933 
10 1:21.970193 2:1.2049819 3:0.20306318 
10 1:21.993041 2:1.216245 3:0.38381744 
10 1:22.01589 2:1.2275082 3:0.56457169 
-10 1:22.038739 2:1.2387713 3:0.74532594 
-10 1:22.0617 2:1.2284497 3:0.91918001 
-10 1:22.085198 2:1.1146424 3:1.059952 
-10 1:22.108696 2:1.0008351 3:1.2007241 
-10 1:22.132194 2:0.88702774 3:1.3414961 
-10 1:22.15474 2:0.76949888 3:1.4735676 
-10 1:22.160904 2:0.58792019 3:1.455898 
10 1:22.167068 2:0.40634149 3:1.4382285 
10 1:22.173231 2:0.2247628 3:1.4205589 
10 1:22.179395 2:0.043184099 3:1.4028893 
10 1:22.185558 2:-0.1383946 3:1.3852198 
10 1:22.192093 2:-0.32015751 3:1.3703529 
10 1:22.199531 2:-0.50236899 3:1.3623104 
10 1:22.206969 2:-0.68458046 3:1.3542679 
10 1:22.214407 2:-0.86679194 3:1.3462254 
10 1:22.221845 2:-1.0490034 3:1.3381828 
-10 1:22.220833 2:-1.3747971 3:1.2131325 
-10 1:22.213617 2:-1.5213776 3:1.1045826 
-10 1:22.198956 2:-1.6000949 3:0.96287935 
-10 1:22.175468 2:-1.5983436 3:0.78186478 
-10 1:22.15198 2:-1.5965923 3:0.60085022 
-10 1:22.128492 2:-1.594841 3:0.41983566 
-10 1:22.105004 2:-1.5930897 3:0.23882109 
-10 1:22.081516 2:-1.5913384 3:0.057806528 
-10 1:22.057802 2:-1.5551721 3:-0.11256961 
-10 1:22.033668 2:-1.4547529 3:-0.26308384 
-10 1:21.937371 2:-1.051112 3:-0.8625588 
10 1:21.907171 2:-0.70386799 3:-0.97115763 
10 1:21.894389 2:-0.52564116 3:-1.0058777 
10 1:21.882667 2:-0.34530968 3:-1.031649 
10 1:21.870944 2:-0.1649782 3:-1.0574203 
10 1:21.860105 2:0.014908675 3:-1.0765144 
10 1:21.858574 2:0.19011501 3:-1.0253146 
10 1:21.857042 2:0.36532135 3:-0.9741148 
-10 1:21.853979 2:0.71573402 3:-0.87171517 
-10 1:21.852448 2:0.89094036 3:-0.82051536 
-10 1:22.591749 2:0.87650554 3:-0.78438644 
-10 1:22.587236 2:0.95928777 3:-0.61896565 
10 1:22.554099 2:1.2127478 3:0.23857204 
10 1:22.543113 2:1.1972743 3:0.42262961 
10 1:22.532127 2:1.1818007 3:0.60668718 
10 1:22.49371 2:0.95862728 3:1.0800254 
2.101678176039542 1:22.479312 2:0.83267705 3:1.2148087 
10 1:22.467286 2:0.65889325 3:1.2582866 
10 1:22.455707 2:0.47610304 3:1.2845729 
10 1:22.444128 2:0.29331282 3:1.3108592 
10 1:22.432549 2:0.11052261 3:1.3371455 
10 1:22.420969 2:-0.072267604 3:1.3634318 
10 1:22.40939 2:-0.25505782 3:1.3897181 
10 1:22.39875 2:-0.43887849 3:1.3978976 
10 1:22.388871 2:-0.6235339 3:1.3914096 
10 1:22.378992 2:-0.8081893 3:1.3849216 
10 1:22.369113 2:-0.9928447 3:1.3784337 
-10 1:22.349355 2:-1.3621555 3:1.3654577 
-10 1:22.348238 2:-1.4705584 3:1.2765517 
-10 1:22.357194 2:-1.4913067 3:1.0929036 
-10 1:22.366149 2:-1.512055 3:0.90925555 
10 1:22.387302 2:-1.4965962 3:0.54040266 
10 1:22.397984 2:-1.4870278 3:0.35592594 
10 1:22.408665 2:-1.4774593 3:0.17144923 
10 1:22.419347 2:-1.4678909 3:-0.013027485 
10 1:22.444657 2:-1.3500676 3:-0.35428999 
10 1:22.45843 2:-1.2631755 3:-0.51707006 
-10 1:22.485978 2:-1.0893913 3:-0.8426302 
-10 1:22.499543 2:-0.98531022 3:-0.98429265 
-10 1:22.512218 2:-0.80815319 3:-1.0361774 
-5.706038855742946 1:22.524894 2:-0.63099615 3:-1.0880621 
-10 1:22.537569 2:-0.45383911 3:-1.1399468 
-10 1:22.550241 2:-0.27667152 3:-1.1917495 
-10 1:22.56012 2:-0.092016121 3:-1.1852615 
-10 1:22.569999 2:0.092639282 3:-1.1787735 
-10 1:22.579878 2:0.27729469 3:-1.1722856 
-10 1:22.580329 2:0.41025479 3:-1.0465471 
10 1:22.580365 2:0.54093617 3:-0.91555215 
10 1:22.580401 2:0.67161755 3:-0.78455718 
10 1:22.580437 2:0.80229893 3:-0.65356221 
-10 1:23.222148 2:0.88569831 3:-0.76003941 
-10 1:23.064827 2:1.3154612 3:0.58851895 
-10 1:23.034911 2:1.2764878 3:0.75242958 
-10 1:22.930635 2:0.96061683 3:1.1857554 
-10 1:22.80549 2:0.31871914 3:1.5043347 
-10 1:22.774244 2:0.15760967 3:1.5832339 
-10 1:22.743525 2:-0.0047046871 3:1.6577923 
-10 1:22.720732 2:-0.18512387 3:1.6671251 
-10 1:22.69794 2:-0.36554306 3:1.6764579 
-10 1:22.675147 2:-0.54596224 3:1.6857907 
-10 1:22.652355 2:-0.72638143 3:1.6951235 
-10 1:22.632879 2:-0.8994896 3:1.688576 
-10 1:22.642409 2:-1.0086605 3:1.5431505 
10 1:22.661469 2:-1.2270022 3:1.2522995 
10 1:22.670999 2:-1.3361731 3:1.106874 
2.752525851262385 1:22.680529 2:-1.445344 3:0.96144849 
10 1:22.700344 2:-1.4911797 3:0.79795132 
10 1:22.729262 2:-1.4809621 3:0.61846026 
10 1:22.75818 2:-1.4707445 3:0.4389692 
10 1:22.787098 2:-1.460527 3:0.25947814 
10 1:22.816798 2:-1.4412283 3:0.081881113 
10 1:22.849769 2:-1.3839523 3:-0.087795058 
10 1:22.882741 2:-1.3266763 3:-0.25747123 
10 1:22.915713 2:-1.2694003 3:-0.4271474 
-10 1:23.083864 2:-0.67539289 3:-1.0610208 
-10 1:23.11091 2:-0.49998743 3:-1.1017529 
-10 1:23.137956 2:-0.32458197 3:-1.142485 
10 1:23.151277 2:-0.15033161 3:-1.0951927 
10 1:23.16394 2:0.023863375 3:-1.0436813 
10 1:23.176604 2:0.19805836 3:-0.9921698 
10 1:23.189793 2:0.37297437 3:-0.94351681 
10 1:23.202183 2:0.54639601 3:-0.89082969 
10 1:23.475565 2:0.82070735 3:-0.62745604 
10 1:23.495787 2:0.93068037 3:-0.48216545 
10 1:23.516009 2:1.0406534 3:-0.33687487 
10 1:23.536231 2:1.1506264 3:-0.19158429 
10 1:23.556453 2:1.2605995 3:-0.046293704 
-10 1:23.576676 2:1.3705725 3:0.09899688 
-10 1:23.595508 2:1.4100108 3:0.26415232 
-10 1:23.613197 2:1.3913325 3:0.44567531 
-10 1:23.630885 2:1.3726542 3:0.6271983 
-10 1:23.648573 2:1.3539758 3:0.80872129 
-10 1:23.665123 2:1.3266063 3:0.98324932 
-10 1:23.662397 2:1.1520831 3:1.0393439 
10 1:23.659671 2:0.97755999 3:1.0954384 
10 1:23.656945 2:0.80303686 3:1.151533 
10 1:23.65422 2:0.62851373 3:1.2076275 
10 1:23.651494 2:0.45399059 3:1.263722 
10 1:23.648647 2:0.27914963 3:1.3187906 
10 1:23.645559 2:0.10367252 3:1.3718058 
10 1:23.642472 2:-0.07180459 3:1.4248209 
10 1:23.639384 2:-0.2472817 3:1.477836 
10 1:23.63359 2:-0.42317255 3:1.5046247 
10 1:23.620307 2:-0.60020799 3:1.4588602 
10 1:23.607025 2:-0.77724343 3:1.4130957 
10 1:23.593743 2:-0.95427887 3:1.3673312 
10 1:23.580461 2:-1.1313143 3:1.3215667 
10 1:23.567178 2:-1.3083497 3:1.2758022 
10 1:23.548509 2:-1.4102281 3:1.1418346 
10 1:23.527863 2:-1.4845326 3:0.97550676 
-10 1:23.488209 2:-1.5790296 3:0.63318626 
-10 1:23.470212 2:-1.5657645 3:0.45121784 
-10 1:23.452216 2:-1.5524994 3:0.26924941 
-10 1:23.434219 2:-1.5392343 3:0.087280989 
-10 1:23.416222 2:-1.5259692 3:-0.094687435 
-10 1:23.398225 2:-1.512704 3:-0.27665586 
-10 1:23.390235 2:-1.3976586 3:-0.40918116 
-10 1:23.384376 2:-1.2609218 3:-0.53116912 
-10 1:23.360942 2:-0.71397434 3:-1.019121 
-10 1:23.355084 2:-0.57723748 3:-1.1411089 
-10 1:23.35725 2:-0.4057522 3:-1.2012311 
-10 1:23.360337 2:-0.23027509 3:-1.2542462 
-10 1:23.371251 2:-0.051018839 3:-1.23266 
-10 1:23.383405 2:0.12883668 3:-1.1992441 
-10 1:23.398666 2:0.28869916 3:-1.1260247 
10 1:23.436862 2:0.55903838 3:-0.88126532 
10 1:23.456115 2:0.6915733 3:-0.75613558 
10 1:24.145011 2:-0.18314787 3:-0.9721433 
10 1:24.141337 2:-0.00072735113 3:-1.0089301 
-10 1:24.1289 2:0.36029418 3:-1.0448487 
-10 1:24.110826 2:0.53190729 3:-0.97508974 
-3.221345030258833 1:24.090246 2:0.69191899 3:-0.8834257 
-10 1:24.068801 2:0.84792268 3:-0.78419394 
-10 1:24.047355 2:1.0039264 3:-0.68496218 
10 1:23.99363 2:1.1639025 3:-0.3566202 
10 1:23.966458 2:1.2395517 3:-0.18874253 
-10 1:23.912434 2:1.4073548 3:0.13903114 
-10 1:23.885452 2:1.4928265 3:0.30215862 
-10 1:23.861425 2:1.5125208 3:0.46691497 
-10 1:23.841848 2:1.433138 3:0.63412478 
-10 1:23.822271 2:1.3537552 3:0.80133459 
-10 1:23.802694 2:1.2743724 3:0.9685444 
-10 1:23.783117 2:1.1949896 3:1.1357542 
-10 1:23.776119 2:1.0524902 3:1.2349493 
-10 1:23.775505 2:0.87796218 3:1.2996302 
-10 1:23.774891 2:0.70343419 3:1.364311 
-10 1:23.774277 2:0.5289062 3:1.4289919 
-10 1:23.773663 2:0.35437821 3:1.4936728 
-10 1:23.773049 2:0.17985023 3:1.5583537 
-10 1:23.775222 2:0.00033213429 3:1.6048585 
-10 1:23.779312 2:-0.18262022 3:1.6388542 
-10 1:23.783403 2:-0.36557258 3:1.67285 
-10 1:23.787494 2:-0.54852494 3:1.7068457 
-10 1:23.791585 2:-0.7314773 3:1.7408414 
-10 1:23.795676 2:-0.91442966 3:1.7748372 
-10 1:23.806229 2:-1.0741957 3:1.7546865 
-10 1:23.83261 2:-1.1771619 3:1.6018925 
10 1:23.936882 2:-1.4753185 3:0.9603729 
10 1:23.961978 2:-1.4616391 3:0.77645158 
10 1:23.987075 2:-1.4479598 3:0.59253027 
10 1:24.012171 2:-1.4342804 3:0.40860895 
10 1:24.037268 2:-1.420601 3:0.22468763 
3.920476967390239 1:24.061941 2:-1.40258 3:0.042288754 
10 1:24.077867 2:-1.2948393 3:-0.1086494 
10 1:24.093793 2:-1.1870987 3:-0.25958755 
10 1:24.109719 2:-1.079358 3:-0.4105257 
10 1:24.12458 2:-0.96499848 3:-0.5561428 
10 1:24.137394 2:-0.8379239 3:-0.69153804 
10 1:24.150207 2:-0.71084932 3:-0.82693327 
10 1:24.15236 2:-0.54798891 3:-0.89856978 
10 1:24.148686 2:-0.36556839 3:-0.93535654 
-10 1:24.415368 2:0.37021089 3:-1.0485453 
-10 1:24.556115 2:1.0088455 3:-0.68820485 
-10 1:24.591302 2:1.1685042 3:-0.59811973 
-10 1:24.624053 2:1.2584129 3:-0.44952961 
-10 1:24.655744 2:1.3179698 3:-0.27548085 
-10 1:24.750818 2:1.4966404 3:0.24666543 
-10 1:24.813061 2:1.4242173 3:0.79740145 
-10 1:24.814377 2:1.3151676 3:0.9276331 
10 1:24.794394 2:0.99900875 3:1.1251718 
10 1:24.784403 2:0.8409293 3:1.2239412 
10 1:24.774411 2:0.68284986 3:1.3227105 
-2.967358731722443 1:24.76442 2:0.52477041 3:1.4214799 
-10 1:24.748993 2:0.35586738 3:1.4910701 
-10 1:24.726839 2:0.17356869 3:1.5245473 
-10 1:24.704685 2:-0.0087299991 3:1.5580245 
-10 1:24.682532 2:-0.19102869 3:1.5915017 
-10 1:24.660378 2:-0.37332738 3:1.624979 
-10 1:24.638224 2:-0.55562607 3:1.6584562 
-10 1:24.61607 2:-0.73792476 3:1.6919334 
-10 1:24.582863 2:-0.90613417 3:1.6262544 
-10 1:24.479539 2:-1.4060435 3:1.3960071 
-10 1:24.445098 2:-1.57268 3:1.319258 
-10 1:24.423235 2:-1.5756366 3:1.1571276 
10 1:24.385438 2:-1.5043807 3:0.79261242 
10 1:24.36654 2:-1.4687528 3:0.61035483 
10 1:24.347641 2:-1.4331248 3:0.42809725 
10 1:24.329353 2:-1.3942272 3:0.24685384 
10 1:24.318525 2:-1.3153974 3:0.077996109 
10 1:24.307697 2:-1.2365675 3:-0.090861623 
10 1:24.296869 2:-1.1577377 3:-0.25971936 
10 1:24.286041 2:-1.0789079 3:-0.42857709 
10 1:24.279289 2:-0.98508224 3:-0.58313876 
10 1:24.291792 2:-0.82041978 3:-0.67016903 
10 1:24.304295 2:-0.65575731 3:-0.75719931 
10 1:24.320699 2:-0.48286606 3:-0.82379339 
10 1:24.339045 2:-0.30588046 3:-0.88021911 
10 1:24.360333 2:-0.12623502 3:-0.9173163 
10 1:24.387234 2:0.058482695 3:-0.91755406 
10 1:24.414134 2:0.24320041 3:-0.91779181 
10 1:25.051466 2:1.1305115 3:-0.33079246 
10 1:25.036721 2:1.1446353 3:-0.14727603 
10 1:25.021976 2:1.1587592 3:0.036240405 
10 1:25.00723 2:1.172883 3:0.21975684 
10 1:24.992485 2:1.1870069 3:0.40327327 
10 1:24.977739 2:1.2011307 3:0.58678971 
10 1:24.962994 2:1.2152545 3:0.77030614 
10 1:24.948248 2:1.2293784 3:0.95382257 
-10 1:24.934608 2:1.1611658 3:1.1022394 
-10 1:24.921966 2:1.0186717 3:1.2189904 
-10 1:24.909324 2:0.87617763 3:1.3357415 
-10 1:24.898084 2:0.72687606 3:1.4336062 
-10 1:24.894116 2:0.54226987 3:1.4335235 
10 1:24.890149 2:0.35766369 3:1.4334409 
10 1:24.886181 2:0.1730575 3:1.4333582 
10 1:24.882213 2:-0.011548687 3:1.4332755 
10 1:24.878246 2:-0.19615487 3:1.4331929 
10 1:24.874278 2:-0.38076106 3:1.4331102 
10 1:24.870882 2:-0.56512299 3:1.4261207 
10 1:24.868027 2:-0.74925391 3:1.4125986 
10 1:24.865171 2:-0.93338483 3:1.3990766 
10 1:24.862316 2:-1.1175157 3:1.3855546 
-10 1:24.856605 2:-1.4857776 3:1.3585106 
-10 1:24.855421 2:-1.6539624 3:1.328793 
-10 1:24.870086 2:-1.6709501 3:1.145513 
-10 1:24.88475 2:-1.6879377 3:0.96223297 
-10 1:24.899415 2:-1.7049254 3:0.77895294 
-10 1:24.914512 2:-1.6843396 3:0.6002541 
-10 1:24.930067 2:-1.6241544 3:0.42638347 
-10 1:24.945621 2:-1.5639691 3:0.25251283 
-10 1:24.961175 2:-1.5037839 3:0.078642197 
-10 1:24.976729 2:-1.4435987 3:-0.095228438 
-10 1:24.992284 2:-1.3834135 3:-0.26909907 
-10 1:25.007838 2:-1.3232283 3:-0.44296971 
-10 1:25.023392 2:-1.2630431 3:-0.61684034 
-10 1:25.034575 2:-1.1142465 3:-0.71413459 
-10 1:25.045005 2:-0.95020145 3:-0.7982514 
-10 1:25.055434 2:-0.78615643 3:-0.88236822 
10 1:25.06367 2:-0.41978743 3:-0.88660622 
10 1:25.067329 2:-0.23521458 3:-0.88277719 
10 1:25.071001 2:-0.050641046 3:-0.87909118 
10 1:25.075093 2:0.13395685 3:-0.88052846 
10 1:25.079185 2:0.31855474 3:-0.88196574 
10 1:25.083277 2:0.50315263 3:-0.88340302 
10 1:25.082255 2:0.67690285 3:-0.82531479 
-10 1:25.564367 2:-0.1919459 3:-1.1473361 
-10 1:25.556014 2:-0.011185263 3:-1.1258212 
-10 1:25.547661 2:0.16957537 3:-1.1043063 
-10 1:25.539308 2:0.350336 3:-1.0827914 
-10 1:25.530241 2:0.52522375 3:-1.0420137 
-10 1:25.519634 2:0.68743723 3:-0.9596648 
-10 1:25.509026 2:0.8496507 3:-0.87731588 
-10 1:25.498419 2:1.0118642 3:-0.79496695 
-10 1:25.487305 2:1.1317968 3:-0.66779043 
-10 1:25.475854 2:1.2236066 3:-0.51079712 
-10 1:25.464402 2:1.3154164 3:-0.35380381 
-10 1:25.452951 2:1.4072262 3:-0.19681051 
-10 1:25.441874 2:1.4865587 3:-0.03721211 
2.684637364422226 1:25.425801 2:1.4427933 3:0.3242495 
10 1:25.417764 2:1.4209105 3:0.50498031 
10 1:25.411667 2:1.3624081 3:0.67632956 
10 1:25.406094 2:1.2940198 3:0.84514618 
-10 1:25.395825 2:1.1483976 3:1.1722268 
10 1:25.401145 2:0.97022108 3:1.210067 
10 1:25.406464 2:0.79204451 3:1.2479072 
10 1:25.411784 2:0.61386794 3:1.2857475 
10 1:25.417103 2:0.43569137 3:1.3235877 
10 1:25.422422 2:0.2575148 3:1.3614279 
10 1:25.427742 2:0.079338233 3:1.3992681 
10 1:25.433051 2:-0.098799441 3:1.4372924 
10 1:25.438356 2:-0.27692292 3:1.4753838 
10 1:25.443661 2:-0.4550464 3:1.5134751 
-10 1:25.45427 2:-0.81129336 3:1.5896579 
-10 1:25.46083 2:-0.97408071 3:1.5897883 
10 1:25.483919 2:-1.1778243 3:1.2884849 
10 1:25.495463 2:-1.2796961 3:1.1378332 
10 1:25.507007 2:-1.3815678 3:0.98718145 
10 1:25.517268 2:-1.4337763 3:0.82194525 
10 1:25.526057 2:-1.4290546 3:0.63999054 
10 1:25.534847 2:-1.4243328 3:0.45803582 
10 1:25.543636 2:-1.4196111 3:0.27608111 
10 1:25.550846 2:-1.3853573 3:0.10199382 
10 1:25.555231 2:-1.2982733 3:-0.058019378 
10 1:25.559615 2:-1.2111893 3:-0.21803258 
10 1:25.564 2:-1.1241053 3:-0.37804578 
10 1:25.568384 2:-1.0370213 3:-0.53805898 
10 1:25.566974 2:-0.63473992 3:-0.83827575 
10 1:25.564524 2:-0.47569459 3:-0.91861149 
-10 1:25.564445 2:-0.33382024 3:-1.0329738 
-10 1:25.97533 2:0.50084605 3:-0.97743285 
10 1:25.930449 2:0.77112325 3:-0.72852231 
10 1:25.908009 2:0.90626184 3:-0.60406704 
10 1:25.885568 2:1.0414004 3:-0.47961176 
10 1:25.863127 2:1.176539 3:-0.35515649 
-10 1:25.818246 2:1.4468162 3:-0.10624595 
-10 1:25.801802 2:1.5271817 3:0.043988061 
-10 1:25.793387 2:1.5341947 3:0.22874506 
-10 1:25.784973 2:1.5412077 3:0.41350207 
-10 1:25.776559 2:1.5482207 3:0.59825907 
-10 1:25.781855 2:1.4592929 3:0.74927235 
-10 1:25.821341 2:0.97553326 3:1.308289 
-10 1:25.832088 2:0.85002439 3:1.4409426 
-10 1:25.852445 2:0.67441586 3:1.4957365 
-10 1:25.872802 2:0.49880732 3:1.5505305 
-10 1:25.893159 2:0.32319879 3:1.6053244 
-10 1:25.913516 2:0.14759025 3:1.6601183 
-10 1:25.933873 2:-0.028018282 3:1.7149123 
-10 1:25.955293 2:-0.20198084 3:1.7383397 
-10 1:25.979928 2:-0.37096981 3:1.6669885 
-10 1:26.004563 2:-0.53995878 3:1.5956373 
-10 1:26.103102 2:-1.2159147 3:1.3102326 
-10 1:26.127737 2:-1.3849036 3:1.2388814 
-10 1:26.138784 2:-1.4216393 3:1.083395 
10 1:26.151428 2:-1.4031367 3:0.7139111 
10 1:26.15775 2:-1.3938854 3:0.52916917 
10 1:26.164072 2:-1.3846341 3:0.34442724 
10 1:26.168279 2:-1.3595535 3:0.1616174 
10 1:26.170943 2:-1.3229143 3:-0.019781636 
10 1:26.173607 2:-1.2862752 3:-0.20118067 
10 1:26.176271 2:-1.249636 3:-0.38257971 
-10 1:26.178935 2:-1.2129968 3:-0.56397874 
10 1:26.146424 2:-0.90520732 3:-0.73794187 
10 1:26.127915 2:-0.7373492 3:-0.81367975 
10 1:26.106681 2:-0.56047102 3:-0.85090589 
10 1:26.083482 2:-0.37709406 3:-0.8603852 
10 1:26.060284 2:-0.19371711 3:-0.8698645 
10 1:26.042859 2:-0.031827151 3:-0.95337272 
-10 1:26.521098 2:0.90522493 3:-0.75170325 
6.204622123540624 1:26.504772 2:0.96143932 3:-0.58000334 
10 1:26.488446 2:1.0176537 3:-0.40830343 
10 1:26.472119 2:1.0738681 3:-0.23660351 
10 1:26.455793 2:1.1300825 3:-0.064903602 
10 1:26.439467 2:1.1862969 3:0.10679631 
10 1:26.42314 2:1.2425113 3:0.27849622 
10 1:26.407473 2:1.2777418 3:0.45340332 
10 1:26.393017 2:1.2744362 3:0.63420029 
10 1:26.37856 2:1.2711305 3:0.81499726 
-10 1:26.354978 2:1.2083668 3:1.1410031 
10 1:26.355684 2:1.0453493 3:1.2205787 
10 1:26.356391 2:0.88233179 3:1.3001542 
10 1:26.357097 2:0.71931429 3:1.3797297 
10 1:26.358339 2:0.55480466 3:1.4534882 
10 1:26.365501 2:0.3737857 3:1.4628856 
10 1:26.372663 2:0.19276674 3:1.472283 
10 1:26.379824 2:0.011747778 3:1.4816804 
10 1:26.386986 2:-0.16927118 3:1.4910778 
10 1:26.394148 2:-0.35029014 3:1.5004752 
10 1:26.40131 2:-0.5313091 3:1.5098726 
-9.28398593499656 1:26.408472 2:-0.71232806 3:1.51927 
-10 1:26.46526 2:-1.3154599 3:1.1428795 
-10 1:26.48013 2:-1.4633525 3:1.0388884 
-10 1:26.494517 2:-1.5622647 3:0.91433338 
-10 1:26.507639 2:-1.5326965 3:0.73583687 
-10 1:26.520761 2:-1.5031282 3:0.55734035 
10 1:26.547004 2:-1.4439918 3:0.20034731 
10 1:26.560087 2:-1.4137974 3:0.021987347 
10 1:26.572022 2:-1.3648849 3:-0.15229003 
2.474522540172357 1:26.583956 2:-1.3159725 3:-0.32656741 
-10 1:26.595891 2:-1.26706 3:-0.50084478 
-10 1:26.607825 2:-1.2181475 3:-0.67512216 
-10 1:26.615417 2:-1.1306584 3:-0.8165244 
-10 1:26.61428 2:-0.96563868 3:-0.89185473 
-10 1:26.613143 2:-0.80061893 3:-0.96718505 
-10 1:26.612006 2:-0.63559918 3:-1.0425154 
-10 1:26.610869 2:-0.47057944 3:-1.1178457 
-10 1:26.601789 2:-0.29404213 3:-1.1010677 
-10 1:26.591448 2:-0.11567613 3:-1.0696654 
-10 1:26.57194 2:0.24305188 3:-1.0224673 
-10 1:26.561874 2:0.4192997 3:-0.99332525 
-10 1:26.548282 2:0.58127478 3:-0.91278458 
-10 1:26.53469 2:0.74324985 3:-0.83224392 
10 1:26.953604 2:0.33962398 3:-0.92133854 
10 1:26.98508 2:0.50117241 3:-0.84032365 
10 1:27.016557 2:0.66272083 3:-0.75930877 
10 1:27.04788 2:0.8149223 3:-0.66680298 
10 1:27.078543 2:0.9267297 3:-0.52463767 
10 1:27.109206 2:1.0385371 3:-0.38247237 
10 1:27.139869 2:1.1503445 3:-0.24030706 
-10 1:27.19942 2:1.3561113 3:0.051594073 
-10 1:27.264066 2:1.4164279 3:0.59478054 
-10 1:27.285614 2:1.4365335 3:0.7758427 
-10 1:27.293623 2:1.3732123 3:0.94139865 
-10 1:27.297653 2:1.2853777 3:1.1023984 
-10 1:27.301683 2:1.1975431 3:1.2633981 
-10 1:27.305713 2:1.1097085 3:1.4243979 
-10 1:27.294902 2:0.97085849 3:1.5122842 
-10 1:27.272224 2:0.79121401 3:1.5417056 
-10 1:27.249545 2:0.61156954 3:1.5711269 
-10 1:27.203882 2:0.25235802 3:1.6269007 
10 1:27.174962 2:0.074296021 3:1.5935903 
10 1:27.146041 2:-0.10376598 3:1.56028 
10 1:27.11712 2:-0.28182798 3:1.5269696 
10 1:27.088199 2:-0.45988997 3:1.4936593 
10 1:27.059278 2:-0.63795197 3:1.4603489 
-10 1:27.001436 2:-0.99407597 3:1.3937282 
-10 1:26.972961 2:-1.1418508 3:1.322698 
10 1:26.918278 2:-1.2831742 3:0.98856364 
10 1:26.890937 2:-1.3538359 3:0.82149645 
10 1:26.822976 2:-1.4516666 3:0.29822892 
10 1:26.805405 2:-1.4430231 3:0.11583206 
-10 1:26.770262 2:-1.4257359 3:-0.24896166 
-10 1:26.756487 2:-1.3961037 3:-0.42368293 
-10 1:26.757903 2:-1.2824626 3:-0.56768216 
-10 1:26.75932 2:-1.1688215 3:-0.71168138 
-10 1:26.760736 2:-1.0551805 3:-0.85568061 
-10 1:26.7678 2:-0.9251623 3:-0.96764681 
-10 1:26.792582 2:-0.7437607 3:-0.97910917 
10 1:26.842512 2:-0.38095627 3:-0.99848886 
10 1:26.86916 2:-0.1996135 3:-0.99177159 
10 1:26.897308 2:-0.019867672 3:-0.96829391 
10 1:26.925456 2:0.15987816 3:-0.94481622 
-10 1:27.572165 2:0.098736423 3:-1.0878495 
-10 1:27.417455 2:0.91990776 3:-0.68599072 
-10 1:27.386513 2:1.084142 3:-0.60561897 
-10 1:27.361613 2:1.170684 3:-0.45567448 
-10 1:27.338815 2:1.2301938 3:-0.28152295 
-10 1:27.316017 2:1.2897036 3:-0.10737142 
-10 1:27.293219 2:1.3492135 3:0.066780112 
-10 1:27.270421 2:1.4087233 3:0.24093164 
-10 1:27.222767 2:1.3342954 3:0.97652598 
-10 1:27.221478 2:1.2569591 3:1.1372056 
-10 1:27.226999 2:1.142123 3:1.2827119 
-10 1:27.23252 2:1.0272868 3:1.4282182 
-10 1:27.238042 2:0.91245067 3:1.5737246 
-10 1:27.253028 2:0.76914535 3:1.653968 
-10 1:27.281203 2:0.58616594 3:1.6432622 
-10 1:27.309378 2:0.40318653 3:1.6325565 
10 1:27.481432 2:-0.65372816 3:1.4541901 
10 1:27.512133 2:-0.80224807 3:1.3474698 
10 1:27.542833 2:-0.95076798 3:1.2407495 
10 1:27.573534 2:-1.0992879 3:1.1340292 
10 1:27.604235 2:-1.2478078 3:1.0273089 
10 1:27.626435 2:-1.3101229 3:0.86588874 
10 1:27.645429 2:-1.3399337 3:0.68384355 
10 1:27.664423 2:-1.3697445 3:0.50179835 
10 1:27.683418 2:-1.3995553 3:0.31975315 
10 1:27.702412 2:-1.4293661 3:0.13770795 
-10 1:27.740401 2:-1.4889877 3:-0.22638245 
10 1:27.72795 2:-1.253785 3:-0.51010589 
10 1:27.721308 2:-1.1337473 3:-0.65130349 
10 1:27.714587 2:-1.0134243 3:-0.79205145 
10 1:27.692382 2:-0.83683484 3:-0.84413835 
10 1:27.670178 2:-0.66024541 3:-0.89622526 
10 1:27.642722 2:-0.47893682 3:-0.89140814 
10 1:27.614085 2:-0.29656593 3:-0.87378178 
10 1:27.585448 2:-0.11419504 3:-0.85615541 
10 1:27.570039 2:0.022525826 3:-0.91880111 
10 1:28.01557 2:0.16897693 3:-0.98861053 
10 1:28.012919 2:0.34954091 3:-0.96390524 
-10 1:28.007617 2:0.71066886 3:-0.91449466 
-10 1:28.004696 2:0.87727807 3:-0.86507373 
-10 1:28.000766 2:0.99173239 3:-0.72327992 
-10 1:27.996835 2:1.1061867 3:-0.5814861 
-10 1:27.992904 2:1.220641 3:-0.43969228 
-10 1:27.989344 2:1.2620666 3:-0.26857023 
10 1:27.982488 2:1.292819 3:0.094596666 
10 1:27.979061 2:1.3081952 3:0.27618012 
10 1:27.975706 2:1.3181071 3:0.45738751 
10 1:27.973027 2:1.2779183 3:0.6351469 
10 1:27.970347 2:1.2377294 3:0.8129063 
10 1:27.967668 2:1.1975405 3:0.99066569 
-10 1:27.963857 2:1.059336 3:1.2990672 
10 1:27.965236 2:0.72731773 3:1.4495494 
-10 1:27.966905 2:0.39268836 3:1.5855384 
10 1:27.969354 2:0.21086934 3:1.5730254 
10 1:27.971803 2:0.029050321 3:1.5605123 
10 1:27.974251 2:-0.1527687 3:1.5479993 
10 1:27.9767 2:-0.33458772 3:1.5354863 
-10 1:27.981597 2:-0.69822576 3:1.5104603 
-10 1:27.984046 2:-0.88004478 3:1.4979473 
-10 1:27.987741 2:-1.0052278 3:1.3767431 
-1.916115590659573 1:27.991671 2:-1.1196821 3:1.2349493 
-10 1:28.003464 2:-1.4630451 3:0.80956784 
-10 1:28.006865 2:-1.4975182 3:0.64257674 
10 1:28.013045 2:-1.4724107 3:0.27896386 
10 1:28.016135 2:-1.4598569 3:0.097157418 
10 1:28.019225 2:-1.4473031 3:-0.084649024 
-10 1:28.027202 2:-1.15635 3:-0.73138189 
-10 1:28.028711 2:-1.0569517 3:-0.88415109 
-10 1:28.028752 2:-0.92443682 3:-0.97735037 
10 1:28.024427 2:-0.56001074 3:-0.98495582 
10 1:28.022233 2:-0.37777661 3:-0.98695931 
10 1:28.020012 2:-0.19552543 3:-0.98750972 
10 1:28.017791 2:-0.013274247 3:-0.98806012 
10 1:28.417944 2:0.56217729 3:-0.84203181 
10 1:28.412338 2:0.68237228 3:-0.70368635 
10 1:28.406731 2:0.80256728 3:-0.56534089 
10 1:28.401125 2:0.92276228 3:-0.42699543 
10 1:28.395519 2:1.0429573 3:-0.28864998 
10 1:28.395135 2:1.1159488 3:-0.12406486 
10 1:28.396883 2:1.1696746 3:0.051229826 
10 1:28.398631 2:1.2234003 3:0.22652451 
10 1:28.401269 2:1.2678125 3:0.40326482 
10 1:28.407894 2:1.2705342 3:0.58647627 
10 1:28.414519 2:1.2732559 3:0.76968773 
-0.9805224613845281 1:28.421144 2:1.2759776 3:0.95289918 
-10 1:28.430005 2:1.245343 3:1.1158428 
10 1:28.465424 2:0.91999799 3:1.2812726 
10 1:28.483133 2:0.75732547 3:1.3639876 
10 1:28.500843 2:0.59465294 3:1.4467025 
-10 1:28.584764 2:-0.29172123 3:1.562031 
-10 1:28.601211 2:-0.47432903 3:1.5633119 
-10 1:28.617657 2:-0.65693684 3:1.5645929 
-10 1:28.634104 2:-0.83954464 3:1.5658738 
-10 1:28.65055 2:-1.0221524 3:1.5671547 
-10 1:28.652901 2:-1.1132655 3:1.4116407 
-10 1:28.654774 2:-1.2012713 3:1.2508016 
-10 1:28.656646 2:-1.289277 3:1.0899625 
10 1:28.653501 2:-1.4685155 3:0.57680155 
0.0107803237788652 1:28.649929 2:-1.5038401 3:0.39692062 
-10 1:28.642784 2:-1.5744892 3:0.037158769 
-10 1:28.639212 2:-1.6098138 3:-0.14272216 
