svm_type epsilon_svr
kernel_type rbf
gamma 0.1
nr_class 2
total_sv 14782
rho -10.3023
SV
-10 1:0.94091252 2:0.33276689 3:-1.0201504 
-10 1:0.93441513 2:0.45590833 3:-0.99118813 
-10 1:0.92854029 2:0.58263178 3:-0.93991881 
-10 1:0.9236344 2:0.70844262 3:-0.86450998 
-10 1:0.91988831 2:0.82858534 3:-0.76766861 
-10 1:0.91748613 2:0.93829307 3:-0.65229902 
-10 1:0.91653628 2:1.0341947 3:-0.52103072 
6.439495155915421 1:0.91814097 2:1.1948236 3:-0.21664411 
10 1:0.92016983 2:1.2665576 3:-0.04600312 
10 1:0.92300077 2:1.3322984 3:0.13607879 
6.622994776253221 1:0.92702886 2:1.3858353 3:0.32992298 
-10 1:0.94022697 2:1.4303054 3:0.75151944 
-10 1:0.94969679 2:1.4065145 3:0.96319045 
-10 1:0.96096341 2:1.3410717 3:1.1544612 
-10 1:0.97393076 2:1.2257369 3:1.309354 
-10 1:0.98880969 2:1.0537581 3:1.4224344 
-10 1:1.006118 2:0.81987054 3:1.4988112 
10 1:1.0263867 2:0.51887425 3:1.5440517 
10 1:1.049509 2:0.15515825 3:1.5624891 
10 1:1.0728268 2:-0.22853267 3:1.55352 
-10 1:1.1069659 2:-0.84817265 3:1.4459947 
-10 1:1.11375 2:-1.0211667 3:1.3433197 
-10 1:1.1149034 2:-1.1249326 3:1.2046105 
10 1:1.1065998 2:-1.2311525 3:0.81177111 
10 1:1.099424 2:-1.2612494 3:0.57289668 
10 1:1.0911797 2:-1.2774039 3:0.32849959 
10 1:1.0825237 2:-1.2794662 3:0.096192852 
10 1:1.0737693 2:-1.2664031 3:-0.11404907 
-5.000584824845562 1:1.0466155 2:-1.1185658 3:-0.59115614 
10 1:1.0060377 2:-0.66605554 3:-0.92647245 
10 1:0.99875246 2:-0.56479203 3:-0.9540263 
10 1:0.99112055 2:-0.45548131 3:-0.97762523 
10 1:0.98346874 2:-0.34366617 3:-0.99766678 
10 1:0.97626469 2:-0.2366832 3:-1.0137453 
10 1:0.96995417 2:-0.1415251 3:-1.0254742 
10 1:0.96447872 2:-0.057274799 3:-1.0329042 
4.981072019055114 1:0.95927566 2:0.024894555 3:-1.0365232 
10 1:1.9492104 2:1.2145905 3:0.018737971 
10 1:1.936034 2:1.2561078 3:0.20604458 
10 1:1.9234533 2:1.2717637 3:0.40087748 
10 1:1.9118301 2:1.2642662 3:0.59552712 
10 1:1.9015266 2:1.2362955 3:0.782298 
10 1:1.8929434 2:1.1864702 3:0.95557168 
10 1:1.8865609 2:1.1050899 3:1.1139833 
10 1:1.8828686 2:0.98143583 3:1.2566889 
10 1:1.8823452 2:0.80522395 3:1.3827394 
10 1:1.8851546 2:0.57823448 3:1.4882718 
10 1:1.8911131 2:0.31558586 3:1.5662016 
10 1:1.9000191 2:0.033086794 3:1.6092774 
10 1:1.9116549 2:-0.25368759 3:1.6106618 
-10 1:1.9586822 2:-1.0146748 3:1.3508183 
-10 1:1.9767541 2:-1.1981067 3:1.1782727 
-10 1:1.9950869 2:-1.3370516 3:0.97180215 
-10 1:2.0130483 2:-1.4315102 3:0.74172629 
-10 1:2.0300061 2:-1.4814882 3:0.49836303 
-10 1:2.0454644 2:-1.4888035 3:0.25101518 
-10 1:2.0592739 2:-1.4598815 3:0.0064044624 
-10 1:2.0713396 2:-1.401869 3:-0.22915158 
-10 1:2.0815659 2:-1.3218974 3:-0.4493401 
-10 1:2.0898429 2:-1.2264412 3:-0.64804953 
-10 1:2.0960411 2:-1.1210861 3:-0.81944059 
-10 1:2.1000295 2:-1.0113549 3:-0.95769331 
-10 1:2.1016828 2:-0.9022866 3:-1.0574031 
-10 1:2.1009558 2:-0.79210614 3:-1.1190177 
-10 1:2.0978628 2:-0.67400157 3:-1.1473109 
-10 1:2.0924193 2:-0.54104281 3:-1.1471577 
-10 1:2.0847518 2:-0.38843152 3:-1.1238222 
-10 1:2.0756954 2:-0.22498306 3:-1.0850522 
10 1:2.0578719 2:0.07773598 3:-0.99610744 
10 1:2.0509656 2:0.1931908 3:-0.96041512 
10 1:2.0452225 2:0.28631723 3:-0.92881051 
10 1:2.0399878 2:0.36480178 3:-0.89573661 
10 1:2.0346118 2:0.43629049 3:-0.85569251 
10 1:2.0288153 2:0.50548467 3:-0.8072578 
10 1:2.0229342 2:0.57219649 3:-0.75578689 
10 1:2.0173623 2:0.63577718 3:-0.70727295 
10 1:2.0124578 2:0.69572721 3:-0.66722679 
10 1:2.0078896 2:0.75443101 3:-0.63183791 
10 1:2.0027035 2:0.81688161 3:-0.58886471 
1.365024564085753 1:1.962547 2:1.146886 3:-0.15371858 
10 1:1.9492104 2:1.2145905 3:0.018737971 
-4.813668299721329 1:3.1150293 2:1.0965963 3:-0.40273908 
-10 1:3.0953651 2:1.2192243 3:-0.21053701 
-10 1:3.0737758 2:1.3298907 3:-0.0090524664 
-10 1:3.049841 2:1.4198337 3:0.20129584 
-10 1:3.0231773 2:1.4803909 3:0.41985694 
-10 1:2.994258 2:1.5051735 3:0.64063828 
-10 1:2.9644127 2:1.4900663 3:0.85230568 
-10 1:2.9350081 2:1.4310533 3:1.0432927 
-10 1:2.9070528 2:1.3233565 3:1.2043428 
-10 1:2.8801223 2:1.1591498 3:1.3354385 
-10 1:2.853434 2:0.92984532 3:1.4388724 
-10 1:2.8262842 2:0.62796104 3:1.5167995 
-10 1:2.7997892 2:0.27144815 3:1.5682197 
-0.379666612282174 1:2.7768851 2:-0.096308745 3:1.588977 
-10 1:2.760587 2:-0.43081928 3:1.5747784 
-10 1:2.7533553 2:-0.69685032 3:1.5216956 
-10 1:2.7554306 2:-0.89619777 3:1.4272589 
-10 1:2.7664986 2:-1.0399147 3:1.2893635 
10 1:2.8127257 2:-1.2038887 3:0.88697708 
10 1:2.8429696 2:-1.2441976 3:0.65035813 
10 1:2.8737042 2:-1.2696167 3:0.41608376 
10 1:2.9023379 2:-1.2874934 3:0.2001325 
10 1:2.9287621 2:-1.2959085 3:0.0040601442 
10 1:2.9534889 2:-1.2906258 3:-0.17418325 
10 1:2.9770125 2:-1.2674474 3:-0.33653212 
10 1:3.0565932 2:-0.94052931 3:-0.78690574 
10 1:3.071568 2:-0.80294397 3:-0.84139324 
10 1:3.0844927 2:-0.65933443 3:-0.87853112 
10 1:3.0954188 2:-0.52074249 3:-0.90308904 
10 1:3.104484 2:-0.39395628 3:-0.91876996 
10 1:3.1119113 2:-0.28151025 3:-0.92821016 
10 1:3.1179278 2:-0.1857539 3:-0.93399953 
10 1:3.1228241 2:-0.10701323 3:-0.93838725 
10 1:3.1271453 2:-0.037520168 3:-0.94225966 
10 1:3.1315003 2:0.032516869 3:-0.94616239 
10 1:3.136478 2:0.11252561 3:-0.95063967 
10 1:3.1422064 2:0.20356508 3:-0.95620399 
10 1:3.1483527 2:0.29832559 3:-0.96333606 
-10 1:3.1602632 2:0.47103735 3:-0.98150055 
-10 1:3.1639747 2:0.54997234 3:-0.97716981 
-10 1:3.1639985 2:0.63459583 3:-0.94368053 
-10 1:3.1586984 2:0.73325456 3:-0.86577755 
-10 1:3.1479004 2:0.8471522 3:-0.74171405 
-10 1:3.1328933 2:0.97034941 3:-0.5832516 
-10 1:3.1150293 2:1.0965963 3:-0.40273908 
10 1:3.8516826 2:1.1408088 3:-0.15571304 
10 1:3.8422681 2:1.1636955 3:0.044025386 
10 1:3.8343036 2:1.175132 3:0.24654476 
10 1:3.8280825 2:1.1756254 3:0.44045532 
10 1:3.8238998 2:1.1656621 3:0.614402 
10 1:3.822299 2:1.1426688 3:0.76215412 
10 1:3.8243324 2:1.097806 3:0.8879752 
10 1:3.8311143 2:1.0214669 3:0.99741373 
10 1:3.8437189 2:0.90437659 3:1.0958917 
10 1:3.8620944 2:0.74646746 3:1.1853193 
10 1:3.884945 2:0.5578514 3:1.2637247 
10 1:3.9109105 2:0.34916713 3:1.3289346 
10 1:3.9386948 2:0.13060717 3:1.3786398 
10 1:3.9676837 2:-0.092368059 3:1.4090846 
-10 1:4.0284653 2:-0.54116248 3:1.3936735 
-10 1:4.0596505 2:-0.76047785 3:1.3394302 
-10 1:4.0897547 2:-0.96429585 3:1.2536525 
-10 1:4.1169688 2:-1.1396588 3:1.1384925 
-10 1:4.1394854 2:-1.2736224 3:0.99610392 
-10 1:4.1562661 2:-1.3591172 3:0.82927913 
-10 1:4.1682281 2:-1.4040121 3:0.64243323 
-10 1:4.1765944 2:-1.418515 3:0.44023546 
-2.62465603561757 1:4.184159 2:-1.2321385 3:-0.58693225 
-10 1:4.1772365 2:-1.1433177 3:-0.74477239 
-10 1:4.16722 2:-1.0372921 3:-0.87795584 
-10 1:4.1541898 2:-0.91483356 3:-0.98574483 
-10 1:4.138251 2:-0.77681797 3:-1.0677424 
-10 1:4.1196672 2:-0.62478679 3:-1.1257283 
-10 1:4.0987642 2:-0.46054314 3:-1.162338 
-10 1:4.0758682 2:-0.28589125 3:-1.1802093 
-10 1:4.0266704 2:0.078199283 3:-1.1712381 
-10 1:4.0026097 2:0.25248315 3:-1.1508606 
-10 1:3.9804707 2:0.41098834 3:-1.1242385 
-10 1:3.9610081 2:0.54859132 3:-1.0934733 
-10 1:3.9442872 2:0.66485063 3:-1.0587461 
-10 1:3.9303079 2:0.75976627 3:-1.0200569 
-10 1:3.9190403 2:0.83351698 3:-0.97721726 
-10 1:3.9098746 2:0.88973559 3:-0.92639513 
-10 1:3.9016768 2:0.93517908 3:-0.8604632 
-10 1:3.8932942 2:0.97671703 3:-0.77217538 
-10 1:3.8837168 2:1.0203656 3:-0.65517952 
10 1:3.8621806 2:1.1067793 3:-0.34242277 
10 1:3.8516826 2:1.1408088 3:-0.15571304 
10 1:5.1007678 2:1.2049279 3:-0.074976153 
10 1:5.0923137 2:1.272995 3:0.17010683 
10 1:5.0818337 2:1.3192066 3:0.42004316 
-10 1:5.0700944 2:1.3395938 3:0.65571822 
-10 1:5.0578624 2:1.3301876 3:0.85801738 
-10 1:5.0457305 2:1.2874932 3:1.0115616 
-10 1:5.0333968 2:1.210454 3:1.1201772 
-10 1:5.0202731 2:1.0987947 3:1.1938454 
-10 1:5.0057707 2:0.9522404 3:1.2425503 
-10 1:4.9894142 2:0.77138434 3:1.2755076 
10 1:4.9525533 2:0.33458537 3:1.3085304 
10 1:4.933217 2:0.096090811 3:1.3126399 
10 1:4.9140862 2:-0.14419398 3:1.310599 
10 1:4.8960382 2:-0.37783612 3:1.2988525 
10 1:4.8800853 2:-0.59653885 3:1.2712711 
10 1:4.867241 2:-0.79200654 3:1.221704 
7.124738254097488 1:4.8538915 2:-1.1890757 3:0.89644384 
10 1:4.8578533 2:-1.2614862 3:0.7244005 
10 1:4.8657749 2:-1.3075708 3:0.51973439 
10 1:4.8769085 2:-1.3305806 3:0.29103066 
10 1:4.8900367 2:-1.3345955 3:0.053990052 
10 1:4.9039285 2:-1.323719 3:-0.17548514 
-10 1:4.9301394 2:-1.2675552 3:-0.55814449 
-10 1:4.9427863 2:-1.2143023 3:-0.70585823 
-10 1:4.9559875 2:-1.1352381 3:-0.82690583 
-10 1:4.9703792 2:-1.0237795 3:-0.92320257 
-10 1:4.9859276 2:-0.88205739 3:-0.99716422 
-9.860654556384615 1:5.0017666 2:-0.72303802 3:-1.0518289 
10 1:5.0306526 2:-0.40755529 3:-1.1155604 
10 1:5.0424351 2:-0.27058282 3:-1.1298559 
10 1:5.0528278 2:-0.14372666 3:-1.1339387 
10 1:5.062407 2:-0.020260179 3:-1.1284679 
10 1:5.0717458 2:0.10650312 3:-1.1141079 
10 1:5.0810643 2:0.23839633 3:-1.092147 
10 1:5.089896 2:0.36782649 3:-1.065086 
10 1:5.097696 2:0.48611761 3:-1.0355648 
10 1:5.1125855 2:0.84847659 3:-0.78644679 
10 1:5.1120426 2:0.93248332 3:-0.6582876 
10 1:5.1102305 2:1.0259771 3:-0.49436914 
10 1:5.1066415 2:1.1198335 3:-0.29862185 
10 1:5.1007678 2:1.2049279 3:-0.074976153 
-10 1:5.8394085 2:1.4174634 3:0.056837383 
-10 1:5.8517355 2:1.4757004 3:0.25972343 
-10 1:5.8681068 2:1.4936802 3:0.45552181 
-10 1:5.8885128 2:1.4678977 3:0.6397789 
-10 1:5.9125465 2:1.3987138 3:0.80863264 
-10 1:5.9397842 2:1.2866574 3:0.95824665 
-10 1:5.9698833 2:1.1326803 3:1.0861722 
-10 1:6.156387 2:-0.12184783 3:1.506087 
-10 1:6.1906518 2:-0.39017367 3:1.5362841 
-10 1:6.2178656 2:-0.6247113 3:1.5336809 
-10 1:6.2370713 2:-0.82269343 3:1.4915707 
-10 1:6.2477189 2:-0.9847293 3:1.4033658 
-10 1:6.249307 2:-1.1114779 3:1.262937 
-10 1:6.242463 2:-1.2047401 3:1.0746991 
10 1:6.2105528 2:-1.3026274 3:0.61509044 
10 1:6.1890731 2:-1.3137635 3:0.3736495 
10 1:6.1661901 2:-1.306488 3:0.14018012 
-10 1:6.1227948 2:-1.2609444 3:-0.26318172 
-10 1:6.1039339 2:-1.2264218 3:-0.4202224 
-10 1:6.0855002 2:-1.1734575 3:-0.54985502 
-10 1:6.065944 2:-1.0917876 3:-0.65576655 
-10 1:6.0441511 2:-0.97499256 3:-0.7418026 
10 1:5.9967932 2:-0.67569953 3:-0.87232826 
10 1:5.973352 2:-0.51869795 3:-0.92594652 
10 1:5.9515252 2:-0.37128508 3:-0.97435281 
10 1:5.9324538 2:-0.24128632 3:-1.0151666 
10 1:5.9172801 2:-0.13642118 3:-1.0458578 
10 1:5.9065966 2:-0.060359711 3:-1.064703 
10 1:5.8987948 2:-0.00057416676 3:-1.0732044 
10 1:5.8917159 2:0.059512673 3:-1.0736704 
10 1:5.883271 2:0.13588969 3:-1.0684009 
10 1:5.8729745 2:0.23101399 3:-1.0594939 
10 1:5.8619439 2:0.33381096 3:-1.048846 
-10 1:5.8347689 2:0.60316462 3:-1.0026359 
-10 1:5.8289879 2:0.69496931 3:-0.94999548 
4.485139156211275 1:5.8227704 2:1.0764343 3:-0.54259803 
10 1:6.8866634 2:1.1867816 3:-0.31791976 
10 1:6.8592319 2:1.2732068 3:-0.098035694 
10 1:6.8333641 2:1.3387791 3:0.13285491 
10 1:6.8106566 2:1.3806791 3:0.3586868 
10 1:6.7927041 2:1.3960726 3:0.56343813 
10 1:6.7808471 2:1.3799715 3:0.7374972 
10 1:6.7759045 2:1.3229759 3:0.88437965 
10 1:6.7786313 2:1.2151458 3:1.0092085 
10 1:6.789746 2:1.0469287 3:1.1169989 
10 1:6.8089485 2:0.8195284 3:1.2097761 
10 1:6.8348122 2:0.54604038 3:1.2862596 
10 1:6.8658526 2:0.24017567 3:1.3449976 
10 1:6.9004995 2:-0.083746204 3:1.3847218 
10 1:6.9362767 2:-0.40495149 3:1.4061066 
10 1:6.9701622 2:-0.69877903 3:1.4109971 
-10 1:7.0209051 2:-1.1107423 3:1.3768774 
-10 1:7.0370911 2:-1.2167711 3:1.3284803 
-10 1:7.0504906 2:-1.2743117 3:1.2437251 
-10 1:7.0639076 2:-1.2990701 3:1.1102913 
10 1:7.095196 2:-1.289357 3:0.69942706 
10 1:7.110881 2:-1.2591828 3:0.4560553 
10 1:7.1248711 2:-1.2140518 3:0.21205481 
10 1:7.1363864 2:-1.1562079 3:-0.019373699 
10 1:7.1453349 2:-1.0889742 3:-0.2321542 
10 1:7.1516737 2:-1.0157506 3:-0.42071641 
10 1:7.155374 2:-0.93981056 3:-0.57985592 
-1.938376672080327 1:7.1556896 2:-0.78446117 3:-0.81348017 
-10 1:7.1529454 2:-0.70539193 3:-0.89557693 
-10 1:7.1486004 2:-0.6248627 3:-0.95954504 
-10 1:7.1422724 2:-0.53758804 3:-1.008354 
-10 1:7.1333398 2:-0.43643259 3:-1.0446736 
-10 1:7.1211807 2:-0.3142582 3:-1.0711727 
-10 1:7.1056413 2:-0.16841751 3:-1.0898162 
-10 1:7.0880569 2:-0.010543569 3:-1.1003307 
-10 1:7.0700581 2:0.14489843 3:-1.1019988 
-10 1:7.0532672 2:0.28353033 3:-1.0941261 
-10 1:7.0386999 2:0.39730725 3:-1.0776955 
-10 1:7.0263656 2:0.48869939 3:-1.0564744 
-10 1:7.0161784 2:0.56116838 3:-1.034493 
-10 1:7.0079984 2:0.6183621 3:-1.0153688 
-10 1:7.0006367 2:0.66752804 3:-0.99474984 
-10 1:6.9919562 2:0.71916954 3:-0.96107593 
-10 1:6.9797852 2:0.7839072 3:-0.90252703 
-10 1:6.9622405 2:0.87066637 3:-0.8084284 
10 1:6.9140571 2:1.0838075 3:-0.51286345 
10 1:6.8866634 2:1.1867816 3:-0.31791976 
-10 1:7.8602371 2:1.3793675 3:-0.12597459 
-10 1:7.8787908 2:1.4780959 3:0.1157841 
-10 1:7.9031809 2:1.5260167 3:0.36822829 
-10 1:7.9326893 2:1.5185947 3:0.62142987 
-10 1:7.966483 2:1.4520926 3:0.86509039 
-10 1:8.003175 2:1.3266262 3:1.0871236 
-10 1:8.0412118 2:1.1434723 3:1.2749047 
-10 1:8.0791197 2:0.90582482 3:1.4180433 
-10 1:8.1158931 2:0.62807353 3:1.5191995 
-10 1:8.1506963 2:0.32866038 3:1.5857573 
-10 1:8.1826749 2:0.025110264 3:1.6242091 
-3.270474019229796 1:8.2108449 2:-0.27160374 3:1.6346731 
-10 1:8.2341656 2:-0.55334376 3:1.6145087 
-10 1:8.2515404 2:-0.81173634 3:1.560773 
-10 1:8.2613886 2:-1.0362592 3:1.4679845 
-10 1:8.2618796 2:-1.2152835 3:1.3293547 
-10 1:8.2514462 2:-1.3384998 3:1.1393526 
-6.077856745889845 1:8.231382 2:-1.4099282 3:0.90612635 
-10 1:8.111952 2:-1.3958683 3:-0.1314221 
-10 1:8.0831458 2:-1.3383731 3:-0.33847624 
-10 1:8.0571138 2:-1.2613246 3:-0.50555743 
-10 1:8.033447 2:-1.1669544 3:-0.63803752 
-10 1:8.0117064 2:-1.0573798 3:-0.74146326 
-10 1:7.9914668 2:-0.9314172 3:-0.81862255 
7.91657683040695 1:7.9723172 2:-0.78458153 3:-0.86954437 
10 1:7.9538713 2:-0.61269517 3:-0.89428397 
10 1:7.9365096 2:-0.42577111 3:-0.89749718 
10 1:7.9215143 2:-0.25052904 3:-0.88925613 
10 1:7.9101897 2:-0.11418006 3:-0.87983564 
10 1:7.902474 2:-0.022786935 3:-0.87461839 
10 1:7.8964104 2:0.046932419 3:-0.8721989 
10 1:7.8899204 2:0.1202098 3:-0.87068298 
10 1:7.882185 2:0.20743168 3:-0.86896919 
10 1:7.8744496 2:0.29465357 3:-0.8672554 
10 1:7.868145 2:0.36574189 3:-0.86585862 
10 1:7.8639907 2:0.41258467 3:-0.86493822 
10 1:7.8613244 2:0.44264902 3:-0.8643475 
10 1:7.8593255 2:0.46519199 3:-0.86390147 
10 1:7.857262 2:0.48946328 3:-0.86264309 
10 1:7.8546065 2:0.52469571 3:-0.85783112 
10 1:7.8508612 2:0.58011667 3:-0.84646898 
-6.067451726994965 1:7.841737 2:0.77346795 3:-0.77221209 
-10 1:7.8396516 2:0.91215137 3:-0.67979353 
-10 1:7.8414007 2:1.0738401 3:-0.53533401 
-10 1:7.8479742 2:1.2376433 3:-0.34682105 
-10 1:7.8602371 2:1.3793675 3:-0.12597459 
10 1:8.8642089 2:1.246566 3:0.15366082 
10 1:8.8599913 2:1.2964351 3:0.34351335 
10 1:8.8593273 2:1.3135594 3:0.5273018 
1.580438026685325 1:8.8627788 2:1.2928219 3:0.70508189 
10 1:8.9699684 2:0.36218656 3:1.4695112 
10 1:8.9969076 2:0.11877959 3:1.5036898 
10 1:9.0251579 2:-0.13793419 3:1.5152792 
10 1:9.0542563 2:-0.40348262 3:1.508493 
10 1:9.0827969 2:-0.6653498 3:1.4784651 
-10 1:9.1303028 2:-1.108531 3:1.3072681 
-10 1:9.1456995 2:-1.258407 3:1.1482186 
-10 1:9.155398 2:-1.3590191 3:0.94506608 
10 1:9.1618081 2:-1.446984 3:0.45451862 
10 1:9.1604104 2:-1.4501175 3:0.19114348 
10 1:9.156682 2:-1.431779 3:-0.068337908 
-10 1:9.1349427 2:-1.2723074 3:-0.7091899 
-10 1:9.1240196 2:-1.181587 3:-0.855382 
-10 1:9.1104326 2:-1.0644821 3:-0.96654807 
-10 1:9.0936963 2:-0.91658786 3:-1.0429676 
10 1:9.0539567 2:-0.55838309 3:-1.1076282 
10 1:9.033761 2:-0.37435224 3:-1.1074506 
10 1:9.0151043 2:-0.20348659 3:-1.0930271 
10 1:8.9984555 2:-0.050260748 3:-1.0677304 
10 1:8.9839621 2:0.083826782 3:-1.0341013 
10 1:8.971771 2:0.19728525 3:-0.99467876 
0.9597524330791065 1:8.9618446 2:0.29029332 3:-0.95219698 
10 1:8.9535583 2:0.36833827 3:-0.91001088 
8.480402576544027 1:8.9461715 2:0.43796022 3:-0.87159855 
-10 1:8.9243956 2:0.64092697 3:-0.79611341 
-10 1:8.9178574 2:0.70188164 3:-0.77321136 
-10 1:8.9123483 2:0.75390954 3:-0.74285115 
-10 1:8.9075848 2:0.8000068 3:-0.6981535 
-10 1:8.9026713 2:0.84883915 3:-0.63075146 
-10 1:8.89669 2:0.90927659 3:-0.53222448 
10 1:8.8799705 2:1.0799792 3:-0.22754397 
10 1:8.8712823 2:1.1704339 3:-0.04019709 
10 1:8.8642089 2:1.246566 3:0.15366082 
10 1:9.9085015 2:1.1192945 3:-0.1120958 
10 1:9.9210535 2:1.2211253 3:0.047149428 
10 1:9.9362448 2:1.3038942 3:0.2170783 
7.707077082035789 1:10.09376 2:0.93050322 3:1.2852099 
10 1:10.117895 2:0.72955084 3:1.3678885 
10 1:10.141901 2:0.48972236 3:1.4276267 
10 1:10.165745 2:0.21117954 3:1.4642426 
10 1:10.188152 2:-0.089391146 3:1.4767867 
10 1:10.2071 2:-0.3853504 3:1.4638468 
10 1:10.220555 2:-0.64992212 3:1.4240046 
-4.074750610187266 1:10.226798 2:-0.86137165 3:1.3555617 
-10 1:10.225704 2:-1.0233844 3:1.2554075 
-10 1:10.217643 2:-1.1476399 3:1.1199872 
10 1:10.182378 2:-1.3256034 3:0.73349688 
10 1:10.15709 2:-1.3846387 3:0.49498981 
10 1:10.128517 2:-1.4189584 3:0.24373911 
10 1:10.098041 2:-1.4246651 3:-0.0068312117 
-10 1:9.9766712 2:-1.1715857 3:-0.84936247 
-10 1:9.9504538 2:-1.0522782 3:-0.99494489 
-10 1:9.9274427 2:-0.91729367 3:-1.1056716 
-10 1:9.9084068 2:-0.77043209 3:-1.1774427 
-10 1:9.8939352 2:-0.61559883 3:-1.2076766 
-10 1:9.8834693 2:-0.4573711 3:-1.2034858 
-10 1:9.8759991 2:-0.30059039 3:-1.1757956 
-10 1:9.8705135 2:-0.15009882 3:-1.1355399 
-10 1:9.8662258 2:-0.01072206 3:-1.0918228 
-10 1:9.8630625 2:0.11276649 3:-1.047931 
-10 1:9.8610913 2:0.21560382 3:-1.005997 
-10 1:9.8603786 2:0.29310306 3:-0.96812188 
-10 1:9.8608897 2:0.34611871 3:-0.93410772 
-10 1:9.8624211 2:0.38470562 3:-0.8999396 
10 1:9.8710975 2:0.51729789 3:-0.75482113 
10 1:9.8750449 2:0.58707262 3:-0.68347491 
10 1:9.879546 2:0.67269137 3:-0.59870762 
10 1:9.8846708 2:0.77480001 3:-0.49958904 
10 1:9.890825 2:0.88842158 3:-0.38562992 
10 1:9.8985782 2:1.0058335 3:-0.25655633 
10 1:9.9085015 2:1.1192945 3:-0.1120958 
-10 1:11.204126 2:1.0423925 3:-0.36027152 
-8.938305053134313 1:11.208443 2:1.199563 3:-0.21192143 
3.305234544658775 1:11.186981 2:1.553176 3:0.36061131 
-10 1:11.09926 2:1.554252 3:1.0337302 
-10 1:11.057698 2:1.4334636 3:1.2126361 
-10 1:11.010736 2:1.2502487 3:1.3608581 
-10 1:10.959042 2:1.0075064 3:1.4766099 
-10 1:10.905257 2:0.72146524 3:1.5584017 
-10 1:10.852873 2:0.41412238 3:1.6048724 
-10 1:10.805202 2:0.10630958 3:1.614707 
-10 1:10.763943 2:-0.19148361 3:1.5869897 
-8.62448395312806 1:10.729968 2:-0.47409276 3:1.5210102 
-10 1:10.688082 2:-0.96671211 3:1.2732229 
-10 1:10.68344 2:-1.1530926 3:1.0936551 
-10 1:10.691858 2:-1.2828291 3:0.87942819 
6.007920980470196 1:10.740581 2:-1.3907142 3:0.38172317 
10 1:10.774083 2:-1.3934016 3:0.1220237 
10 1:10.809545 2:-1.3730638 3:-0.12611418 
10 1:10.844326 2:-1.3323774 3:-0.34554615 
10 1:10.943996 2:-1.0569908 3:-0.79107561 
10 1:10.960288 2:-0.98344213 3:-0.83096697 
10 1:10.978529 2:-0.88611009 3:-0.85833617 
10 1:11.002863 2:-0.743068 3:-0.87960624 
10 1:11.032943 2:-0.55950214 3:-0.89811939 
10 1:11.062198 2:-0.37821987 3:-0.91294289 
10 1:11.08366 2:-0.24438296 3:-0.9228439 
10 1:11.094899 2:-0.17394341 3:-0.9276256 
10 1:11.100923 2:-0.13497938 3:-0.9287891 
10 1:11.107407 2:-0.091259404 3:-0.92798397 
10 1:11.11755 2:-0.022042684 3:-0.92577893 
-10 1:11.141832 2:0.15205905 3:-0.91080968 
-10 1:11.152238 2:0.23446059 3:-0.89540085 
-10 1:11.160733 2:0.30798573 3:-0.87560077 
-10 1:11.167279 2:0.37110263 3:-0.85287932 
-10 1:11.172174 2:0.42705764 3:-0.82578482 
-10 1:11.176653 2:0.49229804 3:-0.7847942 
-10 1:11.182114 2:0.58553016 3:-0.719003 
-10 1:11.189357 2:0.71803823 3:-0.62153358 
-10 1:11.197218 2:0.87647551 3:-0.49887168 
-10 1:11.204126 2:1.0423925 3:-0.36027152 
-10 1:11.956451 2:1.2757564 3:-0.15490149 
-10 1:11.946642 2:1.4744691 3:0.018452378 
-10 1:11.937939 2:1.6352961 3:0.2086626 
-10 1:11.931102 2:1.7390307 3:0.41127012 
-10 1:11.926683 2:1.772482 3:0.62109847 
-10 1:11.925176 2:1.7242722 3:0.83275503 
10 1:11.931305 2:1.3863466 3:1.2267254 
10 1:11.93742 2:1.1525027 3:1.3769766 
10 1:11.94447 2:0.91467355 3:1.4756543 
10 1:11.95263 2:0.66549188 3:1.5284677 
10 1:11.962499 2:0.38219828 3:1.5499146 
10 1:11.974489 2:0.047738148 3:1.5531281 
10 1:11.987393 2:-0.30475432 3:1.539061 
-10 1:11.999169 2:-0.61630305 3:1.5023945 
-10 1:12.007987 2:-0.83352054 3:1.4371703 
-10 1:12.014367 2:-0.96561391 3:1.3310923 
10 1:12.027504 2:-1.1615543 3:0.93391582 
10 1:12.035984 2:-1.2743547 3:0.64542184 
10 1:12.044194 2:-1.3729248 3:0.34109946 
-10 1:12.054704 2:-1.4407506 3:-0.18559052 
-10 1:12.056465 2:-1.4007326 3:-0.39453018 
-10 1:12.056057 2:-1.3142455 3:-0.57111604 
-10 1:12.053917 2:-1.1929299 3:-0.71649105 
-10 1:12.050788 2:-1.0577542 3:-0.82987735 
-0.7017042471578731 1:12.047413 2:-0.92967862 3:-0.91053354 
-10 1:12.044125 2:-0.81663471 3:-0.96149532 
-10 1:12.040771 2:-0.71121573 3:-0.99024513 
-10 1:12.037174 2:-0.60524778 3:-1.0044477 
-10 1:12.033291 2:-0.49566256 3:-1.008472 
-7.742391083296076 1:12.029263 2:-0.38647612 3:-1.0021138 
10 1:12.015907 2:-0.058352733 3:-0.90123411 
10 1:12.014471 2:-0.027791355 3:-0.87934409 
10 1:12.013288 2:-0.0028036442 3:-0.8607969 
10 1:12.011639 2:0.035318212 3:-0.84276685 
10 1:12.009134 2:0.0963936 3:-0.82275891 
10 1:12.006132 2:0.16970148 3:-0.79904213 
10 1:12.003098 2:0.24163982 3:-0.76999235 
10 1:12.000184 2:0.30700344 3:-0.73339381 
10 1:11.996685 2:0.38378564 3:-0.68539631 
10 1:11.991746 2:0.49395076 3:-0.62186989 
10 1:11.984798 2:0.65175191 3:-0.5391132 
10 1:11.976214 2:0.84585177 3:-0.43484745 
-10 1:12.876826 2:1.1041935 3:-0.26086506 
10 1:12.927878 2:1.4221349 3:0.24500758 
10 1:12.952801 2:1.476243 3:0.44012265 
10 1:12.980781 2:1.4991969 3:0.63978272 
10 1:13.009913 2:1.4887191 3:0.83003863 
10 1:13.106349 2:1.0829368 3:1.2695223 
10 1:13.127056 2:0.89782582 3:1.3136407 
10 1:13.149327 2:0.68611743 3:1.3546277 
10 1:13.172548 2:0.45288376 3:1.3909487 
10 1:13.194841 2:0.20403892 3:1.4130356 
10 1:13.214313 2:-0.054491423 3:1.41121 
10 1:13.229114 2:-0.31580635 3:1.3765874 
10 1:13.237614 2:-0.56808743 3:1.304286 
10 1:13.238252 2:-0.79796981 3:1.190683 
10 1:13.229473 2:-0.99209934 3:1.0321686 
10 1:13.21086 2:-1.1418323 3:0.83039614 
10 1:13.18491 2:-1.2505016 3:0.60040166 
10 1:13.154569 2:-1.3233159 3:0.35931674 
10 1:13.122764 2:-1.3654693 3:0.12412132 
10 1:13.09141 2:-1.3815454 3:-0.09467136 
10 1:13.061057 2:-1.3753023 3:-0.29529608 
-10 1:13.005154 2:-1.3104146 3:-0.63741997 
-10 1:12.98032 2:-1.2552908 3:-0.77591175 
-10 1:12.957811 2:-1.1826204 3:-0.88980014 
-10 1:12.937775 2:-1.0898967 3:-0.97679043 
-10 1:12.920322 2:-0.97569405 3:-1.0354247 
-10 1:12.90529 2:-0.84548727 3:-1.069589 
-10 1:12.892415 2:-0.70746549 3:-1.085271 
-10 1:12.881428 2:-0.56982374 3:-1.0884631 
-10 1:12.872146 2:-0.43936776 3:-1.0838855 
-10 1:12.864653 2:-0.31848534 3:-1.0722141 
-10 1:12.859081 2:-0.2086881 3:-1.0533222 
-10 1:12.855562 2:-0.111455 3:-1.0270904 
-10 1:12.853971 2:-0.025890031 3:-0.9938924 
-10 1:12.853761 2:0.052845964 3:-0.95492177 
-10 1:12.854345 2:0.12996393 3:-0.91144917 
-5.132826981183934 1:12.862895 2:0.80551165 3:-0.50759379 
-10 1:12.868178 2:0.9586715 3:-0.39357107 
-10 1:12.876826 2:1.1041935 3:-0.26086506 
10 1:14.113761 2:1.2133497 3:0.094207121 
10 1:14.10213 2:1.2942297 3:0.27585132 
-10 1:14.047105 2:1.3488288 3:0.82901206 
-10 1:14.023534 2:1.3019458 3:1.0003752 
-10 1:13.998207 2:1.2206395 3:1.1556409 
-10 1:13.971683 2:1.1035196 3:1.2884052 
-10 1:13.944519 2:0.94928367 3:1.3923716 
-10 1:13.917192 2:0.75906735 3:1.4642326 
-10 1:13.890097 2:0.53670174 3:1.503985 
-10 1:13.863619 2:0.28615747 3:1.5117965 
-10 1:13.838207 2:0.012190934 3:1.4880186 
-10 1:13.814948 2:-0.27210685 3:1.4349497 
-10 1:13.795313 2:-0.54862496 3:1.3560614 
-10 1:13.78078 2:-0.79918345 3:1.2548411 
-10 1:13.772669 2:-1.0082793 3:1.1337128 
-10 1:13.771506 2:-1.1739073 3:0.98973667 
-10 1:13.77757 2:-1.2983068 3:0.8182863 
-10 1:13.791137 2:-1.3837197 3:0.61474784 
-10 1:13.811842 2:-1.4327613 3:0.38000883 
-10 1:13.83769 2:-1.4489968 3:0.12894493 
-4.849265015760051 1:13.866432 2:-1.43614 3:-0.12137786 
10 1:14.021531 2:-0.92158908 3:-1.0566668 
10 1:14.041219 2:-0.78281137 3:-1.1068273 
10 1:14.05992 2:-0.63176671 3:-1.1365271 
10 1:14.078025 2:-0.4701333 3:-1.1509099 
10 1:14.095014 2:-0.30631917 3:-1.1530656 
10 1:14.110005 2:-0.15137909 3:-1.1452764 
-10 1:14.136084 2:0.17664683 3:-1.0771318 
10 1:14.136647 2:0.36550765 3:-0.9059946 
10 1:14.133843 2:0.42113401 3:-0.82847966 
10 1:14.131121 2:0.47565413 3:-0.75275468 
10 1:14.129436 2:0.53026578 3:-0.68640837 
10 1:14.128925 2:0.5890482 3:-0.62688054 
10 1:14.128985 2:0.65868691 3:-0.56243139 
10 1:14.128987 2:0.74596129 3:-0.48099036 
10 1:14.128284 2:0.85600474 3:-0.371863 
10 1:14.126085 2:0.98050747 3:-0.23559343 
10 1:14.121531 2:1.1045953 3:-0.078213671 
10 1:14.113761 2:1.2133497 3:0.094207121 
-10 1:15.162878 2:1.2416048 3:-0.42357875 
-10 1:15.176238 2:1.3523556 3:-0.22774703 
-10 1:15.186795 2:1.4416486 3:-0.02730431 
-10 1:15.193506 2:1.5011174 3:0.17022703 
-10 1:15.195325 2:1.5223957 3:0.35732458 
-10 1:15.191436 2:1.4989441 3:0.52756183 
-10 1:15.182213 2:1.4336143 3:0.68014634 
10 1:15.130028 2:1.0445503 3:1.0419399 
10 1:15.106485 2:0.86621357 3:1.1323283 
10 1:15.080345 2:0.66719871 3:1.2067408 
10 1:15.051798 2:0.44894317 3:1.2643413 
10 1:15.021184 2:0.21404167 3:1.3042113 
10 1:14.990152 2:-0.024838951 3:1.3247177 
-10 1:14.936125 2:-0.44308302 3:1.2996333 
-10 1:14.917563 2:-0.58835459 3:1.2503458 
-10 1:14.904865 2:-0.68922331 3:1.1779253 
10 1:14.888505 2:-0.82320664 3:0.98077933 
10 1:14.880615 2:-0.88863539 3:0.86448983 
10 1:14.871696 2:-0.96237099 3:0.73918802 
10 1:14.862439 2:-1.0390836 3:0.60411349 
10 1:14.853575 2:-1.1131768 3:0.45844405 
10 1:14.845831 2:-1.1790587 3:0.30147538 
10 1:14.839907 2:-1.2312418 3:0.13521431 
10 1:14.836476 2:-1.2643433 3:-0.035621227 
10 1:14.836211 2:-1.2729848 3:-0.20619539 
10 1:14.839768 2:-1.2519122 3:-0.3717069 
10 1:14.847243 2:-1.2002501 3:-0.52857359 
10 1:14.858032 2:-1.1225684 3:-0.67472915 
10 1:14.871492 2:-1.0237771 3:-0.808202 
10 1:14.886975 2:-0.90878478 3:-0.92703239 
10 1:14.903853 2:-0.7824102 3:-1.0299683 
10 1:14.921518 2:-0.64933312 3:-1.1168547 
10 1:14.939366 2:-0.51422128 3:-1.187631 
-10 1:14.973521 2:-0.25402231 3:-1.2805771 
-10 1:14.989879 2:-0.12852952 3:-1.3024971 
-10 1:15.006275 2:-0.0021023036 3:-1.3078329 
-10 1:15.023115 2:0.12839707 3:-1.2964187 
-10 1:15.040636 2:0.2648452 3:-1.2674132 
-10 1:15.05867 2:0.4060273 3:-1.2183184 
-10 1:15.076985 2:0.55026358 3:-1.146387 
-10 1:15.09535 2:0.69587408 3:-1.0488725 
-10 1:15.1135 2:0.84086461 3:-0.92443658 
-10 1:15.131065 2:0.9822603 3:-0.77613518 
-10 1:15.147654 2:1.1168956 3:-0.60787901 
-10 1:15.162878 2:1.2416048 3:-0.42357875 
10 1:15.970047 2:1.2109267 3:-0.021012082 
10 1:15.981318 2:1.3003815 3:0.14940296 
10 1:15.993155 2:1.349331 3:0.31496184 
10 1:16.005319 2:1.3666197 3:0.47524373 
10 1:16.017571 2:1.360813 3:0.62978056 
10 1:16.029742 2:1.3340498 3:0.77701697 
10 1:16.041722 2:1.2820433 3:0.91431036 
10 1:16.053409 2:1.200227 3:1.0389708 
10 1:16.064696 2:1.0855328 3:1.1487217 
10 1:16.075464 2:0.94088478 3:1.2429394 
10 1:16.085595 2:0.77070525 3:1.3214135 
10 1:16.094961 2:0.57941151 3:1.3838328 
10 1:16.103255 2:0.3713058 3:1.4275701 
10 1:16.109991 2:0.1505753 3:1.4476819 
10 1:16.114677 2:-0.078597799 3:1.4391238 
4.796360300378045 1:16.116894 2:-0.31198329 3:1.3978185 
-10 1:16.09942 2:-1.1940816 3:0.91199853 
-10 1:16.088248 2:-1.3648675 3:0.71860234 
-10 1:16.074272 2:-1.4924629 3:0.50231666 
-10 1:16.057643 2:-1.5670221 3:0.26800281 
-10 1:16.039279 2:-1.590204 3:0.026883787 
-10 1:16.020291 2:-1.5665437 3:-0.20822699 
-10 1:16.001773 2:-1.500712 3:-0.4247721 
-10 1:15.98443 2:-1.4005044 3:-0.61608182 
-10 1:15.96858 2:-1.2768407 3:-0.78137416 
-10 1:15.95452 2:-1.1407767 3:-0.92012311 
-10 1:15.942497 2:-1.0009033 3:-1.0317584 
-10 1:15.93254 2:-0.85595199 3:-1.1155329 
-10 1:15.924624 2:-0.70218958 3:-1.1706551 
-10 1:15.918716 2:-0.53630938 3:-1.1965555 
-10 1:15.914612 2:-0.3648164 3:-1.19777 
-10 1:15.911938 2:-0.20402735 3:-1.1839395 
-10 1:15.910312 2:-0.070685545 3:-1.1649269 
-10 1:15.90946 2:0.024284502 3:-1.1474803 
-0.7457317026402286 1:15.909541 2:0.093233389 3:-1.1258885 
10 1:15.913552 2:0.22512233 3:-1.0354201 
10 1:15.917488 2:0.30882958 3:-0.96026375 
10 1:15.921907 2:0.39434708 3:-0.87841015 
10 1:15.926063 2:0.46994679 3:-0.80286803 
10 1:15.929485 2:0.52920132 3:-0.74156849 
10 1:15.932797 2:0.5868857 3:-0.68213235 
10 1:15.936899 2:0.66307561 3:-0.60710282 
10 1:15.942664 2:0.77684533 3:-0.49966192 
10 1:15.950351 2:0.92423713 3:-0.35768323 
10 1:15.959605 2:1.0782613 3:-0.19373196 
10 1:15.970047 2:1.2109267 3:-0.021012082 
-10 1:17.067939 2:1.4776969 3:0.33381952 
-10 1:17.078428 2:1.5607552 3:0.61145207 
-10 1:17.0864 2:1.5983382 3:0.86224661 
-10 1:17.0915 2:1.5851628 3:1.0807143 
-10 1:17.093524 2:1.5170569 3:1.2654111 
-10 1:17.092272 2:1.3898481 3:1.4150553 
-10 1:17.087567 2:1.1993642 3:1.5293087 
-10 1:17.079241 2:0.94143267 3:1.6081743 
-10 1:17.067276 2:0.61573555 3:1.6513938 
-10 1:17.052703 2:0.24932465 3:1.6568485 
-10 1:17.037009 2:-0.11890446 3:1.6216147 
-10 1:17.021598 2:-0.45255151 3:1.5434798 
-10 1:17.007146 2:-0.73734701 3:1.4264479 
-10 1:16.993955 2:-0.97041649 3:1.277724 
-10 1:16.982294 2:-1.1495822 3:1.1043831 
-10 1:16.972129 2:-1.2791668 3:0.91181557 
3.785847882246248 1:16.948936 2:-1.4406205 3:0.26333856 
10 1:16.944287 2:-1.4135355 3:0.040688258 
10 1:16.941979 2:-1.3323594 3:-0.1753784 
10 1:16.94175 2:-1.2109334 3:-0.373525 
10 1:16.942689 2:-1.0820378 3:-0.5379505 
10 1:16.943895 2:-0.97789559 3:-0.65343637 
10 1:16.945108 2:-0.90406966 3:-0.7214246 
10 1:16.946708 2:-0.83946301 3:-0.76001769 
10 1:16.949091 2:-0.76232421 3:-0.78773924 
10 1:16.952262 2:-0.66678718 3:-0.81356691 
10 1:16.955763 2:-0.56568769 3:-0.83523991 
10 1:16.959117 2:-0.47272643 3:-0.84992931 
10 1:16.962136 2:-0.3921907 3:-0.85827002 
10 1:16.965032 2:-0.31530598 3:-0.86570339 
10 1:16.968045 2:-0.23241346 3:-0.87796584 
10 1:16.971302 2:-0.13930888 3:-0.89666313 
10 1:16.974746 2:-0.040727801 3:-0.91663103 
10 1:16.978302 2:0.057761937 3:-0.93210034 
10 1:16.981808 2:0.15015472 3:-0.94003678 
10 1:16.984929 2:0.22959473 3:-0.94271763 
10 1:16.987313 2:0.28915599 3:-0.94302572 
10 1:16.988914 2:0.32878923 3:-0.94265746 
-10 1:18.093359 2:1.195794 3:-0.22583179 
-10 1:18.08271 2:1.2401104 3:-0.034547293 
-10 1:18.069322 2:1.2648139 3:0.17753332 
-0.5232761096804969 1:18.054051 2:1.2693229 3:0.3977517 
-10 1:18.004999 2:1.1539712 3:0.98620428 
-5.999549938685471 1:17.988982 2:1.0653127 3:1.1316534 
10 1:17.942674 2:0.60235236 3:1.3628963 
10 1:17.928113 2:0.38806797 3:1.3726817 
10 1:17.91431 2:0.16038325 3:1.3594586 
10 1:17.901481 2:-0.068967195 3:1.3309241 
10 1:17.889852 2:-0.28867716 3:1.2942518 
10 1:17.879767 2:-0.49301051 3:1.2498076 
10 1:17.871656 2:-0.68012647 3:1.1931969 
10 1:17.865951 2:-0.84826417 3:1.1199275 
10 1:17.863082 2:-0.99566389 3:1.0255142 
10 1:17.86332 2:-1.1208754 3:0.90746586 
10 1:17.866556 2:-1.2231753 3:0.76797265 
10 1:17.872628 2:-1.3019443 3:0.6098961 
-10 1:17.936884 2:-1.3283597 3:-0.32354803 
-10 1:17.953473 2:-1.260447 3:-0.49609483 
-10 1:17.970223 2:-1.169747 3:-0.65004279 
-10 1:17.986878 2:-1.059616 3:-0.78483912 
-10 1:18.003197 2:-0.93362584 3:-0.90037123 
-10 1:18.018943 2:-0.79534816 3:-0.99652656 
-10 1:18.033889 2:-0.64826216 3:-1.0733112 
-10 1:18.047913 2:-0.49520192 3:-1.1315584 
-10 1:18.060931 2:-0.33872679 3:-1.1724541 
-10 1:18.072862 2:-0.18139513 3:-1.1971852 
-10 1:18.083624 2:-0.025776574 3:-1.2069323 
-10 1:18.093075 2:0.12500832 3:-1.2025664 
-10 1:18.100994 2:0.26705124 3:-1.1845148 
-10 1:18.10715 2:0.3963833 3:-1.1531711 
-8.857391700009238 1:18.111315 2:0.50903562 3:-1.1089289 
-10 1:18.100699 2:1.1334143 3:-0.38683271 
-10 1:18.093359 2:1.195794 3:-0.22583179 
10 1:19.129681 2:-0.37034496 3:-0.82617374 
10 1:19.155848 2:-0.17357215 3:-1.0052835 
10 1:19.180136 2:-0.013719408 3:-1.1704849 
-10 1:19.211914 2:0.29116125 3:-1.3910035 
-10 1:19.216615 2:0.46202343 3:-1.4293704 
-10 1:19.216364 2:0.62775916 3:-1.4353095 
-10 1:19.21381 2:0.76921472 3:-1.4251655 
-10 1:19.210811 2:0.87191005 3:-1.4103581 
-10 1:19.206064 2:0.94005983 3:-1.3826074 
-10 1:19.197475 2:0.98255244 3:-1.3287086 
-10 1:19.183049 2:1.0081293 3:-1.23609 
-10 1:19.163055 2:1.0221522 3:-1.1067482 
-10 1:19.140028 2:1.0266035 3:-0.9572473 
-10 1:19.1166 2:1.0233184 3:-0.80478499 
10 1:19.049569 2:0.97783924 3:-0.36691983 
10 1:19.02263 2:0.95169577 3:-0.1905893 
10 1:18.992263 2:0.92258485 3:0.0081669257 
10 1:18.960602 2:0.89500752 3:0.2152569 
10 1:18.929873 2:0.87355727 3:0.41601796 
10 1:18.901903 2:0.85961075 3:0.59849627 
10 1:18.876945 2:0.84167731 3:0.76157334 
10 1:18.854858 2:0.80504948 3:0.90683949 
10 1:18.835503 2:0.73532621 3:1.0358519 
7.44983790777378 1:18.818811 2:0.62515374 3:1.1494058 
10 1:18.804777 2:0.47422569 3:1.2475343 
10 1:18.793403 2:0.28254204 3:1.3302374 
-10 1:18.780136 2:-0.43501405 3:1.4492629 
-10 1:18.78606 2:-0.65042995 3:1.4205847 
-10 1:18.797627 2:-0.82907391 3:1.3535482 
-10 1:18.813339 2:-0.97302198 3:1.2579696 
-10 1:18.831648 2:-1.0848768 3:1.1440465 
-10 1:18.851214 2:-1.1680073 3:1.0206427 
-10 1:18.871538 2:-1.2288474 3:0.89128713 
10 1:18.93424 2:-1.3448023 3:0.48893963 
10 1:18.954898 2:-1.3709675 3:0.35583461 
6.492843545842546 1:18.975085 2:-1.3893953 3:0.22543444 
8.275409585214071 1:19.014394 2:-1.3670871 3:-0.031138867 
10 1:19.034706 2:-1.2817445 3:-0.16709345 
10 1:19.05633 2:-1.1160956 3:-0.31524363 
10 1:19.079497 2:-0.8801754 3:-0.47662918 
10 1:19.104016 2:-0.61683324 3:-0.64806288 
10 1:19.129681 2:-0.37034496 3:-0.82617374 
10 1:20.117214 2:-0.30398821 3:1.3922964 
10 1:20.1649 2:-0.64242616 3:1.3975398 
10 1:20.204715 2:-0.94501446 3:1.3496033 
-10 1:20.234956 2:-1.1993628 3:1.2491207 
-10 1:20.254006 2:-1.3935806 3:1.0969951 
-10 1:20.26219 2:-1.527277 3:0.9003195 
-10 1:20.261777 2:-1.6115598 3:0.67237747 
-10 1:20.255119 2:-1.6580372 3:0.42672156 
-10 1:20.243999 2:-1.6746438 3:0.17588721 
-10 1:20.227925 2:-1.6546206 3:-0.071658759 
-10 1:20.205834 2:-1.5875352 3:-0.3084667 
-10 1:20.176747 2:-1.4635779 3:-0.52717773 
-10 1:20.141579 2:-1.2872629 3:-0.72252142 
-10 1:20.103139 2:-1.0774284 3:-0.89131573 
-10 1:20.064319 2:-0.85353534 3:-1.0304694 
-10 1:20.027532 2:-0.63222326 3:-1.1384235 
-10 1:19.993285 2:-0.41884654 3:-1.2197482 
-10 1:19.961604 2:-0.21593821 3:-1.280546 
-10 1:19.932539 2:-0.026086035 3:-1.3266668 
-10 1:19.906626 2:0.14686391 3:-1.3581501 
-10 1:19.884889 2:0.29780719 3:-1.3692252 
-10 1:19.868374 2:0.42158467 3:-1.3538687 
-10 1:19.857742 2:0.51500644 3:-1.3081046 
10 1:19.850207 2:0.63149971 3:-1.1442563 
10 1:19.850779 2:0.66782108 3:-1.0386844 
10 1:19.852778 2:0.69688266 3:-0.92545453 
10 1:19.855372 2:0.72240897 3:-0.81036211 
10 1:19.857738 2:0.74806215 3:-0.69919275 
10 1:19.859383 2:0.77613773 3:-0.59512984 
10 1:19.86114 2:0.80346481 3:-0.49094804 
10 1:19.86417 2:0.82550589 3:-0.37681981 
10 1:19.869598 2:0.83785016 3:-0.24331718 
10 1:19.877644 2:0.83900061 3:-0.090202367 
10 1:19.887632 2:0.83037408 3:0.073572246 
10 1:19.898842 2:0.81351409 3:0.23865469 
10 1:19.91053 2:0.7907049 3:0.39709314 
10 1:19.921834 2:0.76719374 3:0.54653631 
10 1:19.931865 2:0.74896858 3:0.68603305 
10 1:19.939741 2:0.74189792 3:0.81448855 
-10 1:19.946547 2:0.77095591 3:1.0173775 
-10 1:19.944555 2:0.80771148 3:1.0762623 
-10 1:19.939631 2:0.85254477 3:1.1015567 
-10 1:19.937681 2:0.87031803 3:1.1116348 
-10 1:19.945886 2:0.81881519 3:1.130115 
-10 1:19.971113 2:0.65762859 3:1.1795425 
10 1:20.013082 2:0.38794442 3:1.2577773 
10 1:20.064363 2:0.052542681 3:1.3379946 
10 1:20.117214 2:-0.30398821 3:1.3922964 
10 1:20.886041 2:0.96774674 3:-0.096440769 
10 1:20.90409 2:0.93212977 3:0.12233435 
10 1:20.921376 2:0.90786772 3:0.34891647 
-10 1:20.951104 2:0.89621743 3:0.79057265 
-10 1:20.965959 2:0.87897449 3:0.99151999 
-10 1:20.984102 2:0.81997842 3:1.171316 
-10 1:21.007983 2:0.6938479 3:1.3241467 
-10 1:21.037744 2:0.49676582 3:1.4455911 
-10 1:21.07097 2:0.24875618 3:1.5327679 
-10 1:21.105113 2:-0.02892324 3:1.5828757 
-10 1:21.208699 2:-1.0556647 3:1.4161299 
10 1:21.218938 2:-1.3913386 3:0.99458793 
10 1:21.211149 2:-1.4325232 3:0.80235555 
10 1:21.199558 2:-1.4528116 3:0.58719813 
10 1:21.185175 2:-1.4536308 3:0.36234436 
10 1:21.169001 2:-1.4354276 3:0.1425745 
10 1:21.152013 2:-1.3985403 3:-0.057531438 
10 1:21.134123 2:-1.3386915 3:-0.23193427 
10 1:21.113804 2:-1.2453594 3:-0.38614869 
10 1:21.089428 2:-1.1075789 3:-0.52650952 
10 1:21.059597 2:-0.9161532 3:-0.65882355 
10 1:21.026165 2:-0.68679635 3:-0.78145898 
10 1:20.993393 2:-0.45363687 3:-0.8872852 
10 1:20.965594 2:-0.25123499 3:-0.96904269 
10 1:20.946343 2:-0.10842884 3:-1.0210874 
10 1:20.934482 2:-0.01751414 3:-1.0480922 
10 1:20.926991 2:0.043585303 3:-1.0587872 
10 1:20.920845 2:0.096978678 3:-1.0619114 
10 1:20.913629 2:0.16092682 3:-1.0633936 
10 1:20.904867 2:0.24145311 3:-1.0602259 
10 1:20.894466 2:0.34215394 3:-1.0476286 
10 1:20.882339 2:0.46652946 3:-1.0208943 
10 1:20.868838 2:0.61107666 3:-0.98060428 
-10 1:20.842113 2:0.89906867 3:-0.89763424 
-10 1:20.831183 2:1.0105318 3:-0.87463579 
-10 1:20.823254 2:1.0884089 3:-0.86311819 
-10 1:20.819191 2:1.1342941 3:-0.84686432 
-10 1:20.819857 2:1.150078 3:-0.80921719 
-10 1:20.825953 2:1.1381762 3:-0.73510821 
-10 1:20.836867 2:1.10529 3:-0.62244169 
-10 1:20.851347 2:1.0602132 3:-0.47545667 
10 1:22.042015 2:0.9838831 3:0.19059912 
10 1:22.032495 2:0.84720781 3:0.3733242 
10 1:22.023088 2:0.72145288 3:0.57828165 
10 1:22.014111 2:0.60550225 3:0.78447149 
10 1:22.005867 2:0.49805886 3:0.9713056 
10 1:21.9983 2:0.39366252 3:1.1276678 
10 1:21.990995 2:0.28268993 3:1.2519138 
4.172932648740593 1:21.967144 2:-0.16721724 3:1.4281693 
10 1:21.958473 2:-0.35382403 3:1.4319048 
10 1:21.949708 2:-0.54980856 3:1.4164267 
10 1:21.941155 2:-0.74790904 3:1.3833926 
-8.322996566299015 1:21.926445 2:-1.11489 3:1.2576734 
-10 1:21.921187 2:-1.2663112 3:1.159733 
-10 1:21.917959 2:-1.3867196 3:1.0276966 
-10 1:21.917251 2:-1.4697496 3:0.85044441 
10 1:21.924451 2:-1.5082967 3:0.34052801 
10 1:21.930971 2:-1.4775974 3:0.050613199 
-10 1:21.944614 2:-1.3702826 3:-0.44323435 
-10 1:21.951224 2:-1.2964107 3:-0.62516229 
-10 1:21.958393 2:-1.1984392 3:-0.77575136 
-10 1:21.966694 2:-1.0679587 3:-0.90546077 
-10 1:21.976124 2:-0.90592043 3:-1.016645 
-10 1:21.986106 2:-0.72263618 3:-1.103554 
-10 1:21.996038 2:-0.52882473 3:-1.1600852 
-10 1:22.005415 2:-0.3342263 3:-1.182993 
10 1:22.02935 2:0.20013326 3:-1.1428607 
10 1:22.035889 2:0.35037598 3:-1.1207469 
10 1:22.041792 2:0.48971702 3:-1.0910635 
10 1:22.047137 2:0.62232694 3:-1.0473265 
10 1:22.051971 2:0.75095564 3:-0.98496859 
5.172705202874919 1:22.056213 2:0.87267034 3:-0.90709 
-10 1:22.064503 2:1.1583107 3:-0.62980873 
-10 1:22.066131 2:1.2288518 3:-0.537503 
-10 1:22.06768 2:1.2952224 3:-0.45168142 
-10 1:22.069254 2:1.3587485 3:-0.37466059 
-10 1:22.070089 2:1.4042574 3:-0.30288449 
-10 1:22.069207 2:1.4124514 3:-0.23132893 
-10 1:22.065668 2:1.3649012 3:-0.15486063 
-10 1:22.059408 2:1.2631433 3:-0.06583656 
10 1:22.042015 2:0.9838831 3:0.19059912 
10 1:22.889937 2:-0.75062755 3:-0.8039748 
10 1:22.898185 2:-0.52158454 3:-0.99529711 
10 1:22.909917 2:-0.27254659 3:-1.1556721 
0.7805512461629418 1:22.923621 2:-0.02439813 3:-1.2807776 
-10 1:22.937787 2:0.2020372 3:-1.3663074 
-10 1:22.951525 2:0.39491288 3:-1.4103372 
-10 1:22.965218 2:0.56076656 3:-1.4158205 
-10 1:22.979401 2:0.70838696 3:-1.386308 
-10 1:22.994585 2:0.84629842 3:-1.325427 
-10 1:23.010534 2:0.9756888 3:-1.2389289 
-10 1:23.026196 2:1.0896347 3:-1.1349138 
-10 1:23.040472 2:1.1807932 3:-1.0216033 
-10 1:23.052334 2:1.2424244 3:-0.90690101 
-10 1:23.061491 2:1.2741884 3:-0.79533682 
-10 1:23.068095 2:1.2795999 3:-0.68940883 
2.423323835767182 1:23.074349 2:1.2256883 3:-0.50313274 
10 1:23.074841 2:1.1738729 3:-0.41920891 
10 1:23.074508 2:1.1107509 3:-0.33306164 
10 1:23.074075 2:1.0402916 3:-0.23793464 
10 1:23.07425 2:0.96577754 3:-0.12643536 
10 1:23.075686 2:0.88874476 3:0.010446401 
10 1:23.079025 2:0.81045595 3:0.1819742 
10 1:23.084885 2:0.73213773 3:0.3969859 
10 1:23.092699 2:0.65347946 3:0.64616197 
10 1:23.100298 2:0.57209097 3:0.89562002 
2.444658282420855 1:23.105402 2:0.48543444 3:1.1097341 
-10 1:23.105837 2:0.39076316 3:1.2550655 
-10 1:23.100971 2:0.28238703 3:1.3289899 
-10 1:23.091309 2:0.15244017 3:1.3516614 
-10 1:23.077382 2:-0.0069943083 3:1.3437684 
-10 1:23.059799 2:-0.20118551 3:1.3234619 
-1.067186488667084 1:23.018241 2:-0.64062693 3:1.2470335 
-10 1:22.996844 2:-0.84928141 3:1.1820516 
-10 1:22.976634 2:-1.0295155 3:1.0961644 
-10 1:22.958407 2:-1.1770858 3:0.99687305 
-10 1:22.942879 2:-1.2898701 3:0.8934796 
-10 1:22.930763 2:-1.3658014 3:0.79521355 
-10 1:22.922123 2:-1.4068098 3:0.70601341 
-10 1:22.915954 2:-1.4214616 3:0.62103322 
-10 1:22.911151 2:-1.4189488 3:0.53459878 
-10 1:22.906641 2:-1.4080353 3:0.44098667 
-3.656770985389322 1:22.901995 2:-1.3892098 3:0.33352282 
10 1:22.892935 2:-1.2995702 3:0.046873084 
10 1:22.888948 2:-1.2145797 3:-0.14556288 
10 1:22.886309 2:-1.0964909 3:-0.36296731 
10 1:22.886233 2:-0.94270369 3:-0.5881762 
10 1:22.889937 2:-0.75062755 3:-0.8039748 
-10 1:24.053679 2:-0.36776008 3:-1.4636215 
-10 1:24.051952 2:-0.15466068 3:-1.4962347 
-10 1:24.048946 2:0.056019756 3:-1.489565 
-10 1:24.044837 2:0.26181349 3:-1.4478742 
-10 1:24.039798 2:0.46025276 3:-1.375424 
-8.357600459529822 1:23.967459 2:1.332126 3:0.44795094 
-10 1:23.962262 2:1.2936695 3:0.61897563 
-10 1:23.957928 2:1.2421908 3:0.76931579 
-10 1:23.954559 2:1.173638 3:0.89745492 
-10 1:23.952207 2:1.0806784 3:1.0047781 
-10 1:23.950922 2:0.95592483 3:1.0927186 
-10 1:23.950746 2:0.79275572 3:1.1626147 
5.114911678822679 1:23.953361 2:0.38354132 3:1.2463037 
10 1:23.955834 2:0.16873973 3:1.2572385 
10 1:23.958871 2:-0.032171162 3:1.245772 
10 1:23.962308 2:-0.21130788 3:1.2136693 
10 1:23.96598 2:-0.36833661 3:1.1657732 
10 1:23.969721 2:-0.50325176 3:1.10706 
10 1:23.973369 2:-0.61610726 3:1.0424122 
10 1:23.976899 2:-0.70905742 3:0.97338676 
10 1:23.980461 2:-0.78686809 3:0.89740611 
10 1:23.984216 2:-0.8544684 3:0.81163421 
10 1:23.988319 2:-0.91674183 3:0.71326565 
10 1:23.992834 2:-0.97583316 3:0.60133392 
10 1:23.997668 2:-1.0296422 3:0.47772279 
10 1:24.002718 2:-1.0757035 3:0.34456122 
10 1:24.007881 2:-1.1115673 3:0.20397634 
10 1:24.013086 2:-1.1366463 3:0.057874158 
10 1:24.018323 2:-1.1539715 3:-0.092268737 
10 1:24.02359 2:-1.1669894 3:-0.24502511 
-10 1:24.034152 2:-1.1891966 3:-0.55286477 
-10 1:24.039198 2:-1.1846047 3:-0.7059547 
-10 1:24.043812 2:-1.1510711 3:-0.8575494 
-10 1:24.047781 2:-1.0743127 3:-1.0069593 
-10 1:24.050908 2:-0.94598286 3:-1.1515308 
-10 1:24.053034 2:-0.77625982 3:-1.2824814 
-10 1:24.054008 2:-0.57892507 3:-1.3898365 
-10 1:24.053679 2:-0.36776008 3:-1.4636215 
10 1:24.940341 2:0.76025716 3:-0.97092102 
10 1:24.96675 2:0.96634993 3:-0.82163973 
10 1:24.994683 2:1.1652479 3:-0.65387161 
-10 1:25.046023 2:1.4597439 3:-0.30878803 
-10 1:25.066791 2:1.5289256 3:-0.14337218 
-10 1:25.085525 2:1.5510474 3:0.026660029 
-10 1:25.103675 2:1.533826 3:0.21138015 
-10 1:25.122287 2:1.4849214 3:0.41695165 
-10 1:25.140779 2:1.4117648 3:0.63390566 
-10 1:25.158166 2:1.3217304 3:0.84886524 
-10 1:25.173442 2:1.221722 3:1.0485463 
-10 1:25.18525 2:1.1078268 3:1.2218001 
-10 1:25.191871 2:0.96531496 3:1.3596136 
-10 1:25.191575 2:0.77898655 3:1.4530663 
-10 1:25.183271 2:0.54022331 3:1.4960512 
-10 1:25.168435 2:0.266734 3:1.4937141 
-10 1:25.149185 2:-0.017190871 3:1.4540142 
-10 1:25.127629 2:-0.28757518 3:1.3849792 
-10 1:25.105653 2:-0.52767395 3:1.2962211 
-10 1:25.084921 2:-0.72797334 3:1.1989354 
-10 1:25.067086 2:-0.8792739 3:1.1043867 
-10 1:25.053114 2:-0.97700847 3:1.0195603 
-10 1:25.041212 2:-1.0351389 3:0.93432512 
-10 1:25.028902 2:-1.0722595 3:0.83427114 
-10 1:25.013795 2:-1.1063737 3:0.70556684 
-10 1:24.995601 2:-1.1419019 3:0.54768988 
-10 1:24.976129 2:-1.1696813 3:0.37342701 
10 1:24.912581 2:-1.080505 3:-0.28825186 
10 1:24.90033 2:-1.0220937 3:-0.43712716 
10 1:24.889081 2:-0.95736655 3:-0.57955254 
10 1:24.879358 2:-0.88458307 3:-0.71135739 
10 1:24.871708 2:-0.80183165 3:-0.82824486 
10 1:24.866487 2:-0.70899272 3:-0.92680835 
10 1:24.863304 2:-0.61311499 3:-1.0072023 
10 1:24.86158 2:-0.52303921 3:-1.0704715 
10 1:24.860746 2:-0.4471861 3:-1.1177593 
10 1:24.860517 2:-0.38431488 3:-1.1524812 
10 1:24.860887 2:-0.32352334 3:-1.1803247 
10 1:24.861863 2:-0.25348917 3:-1.207076 
10 1:24.863636 2:-0.16487213 3:-1.2357024 
10 1:24.867142 2:-0.056260089 3:-1.257895 
10 1:24.873496 2:0.071777062 3:-1.262526 
10 1:24.883791 2:0.21865041 3:-1.2387245 
10 1:24.898485 2:0.38333372 3:-1.1815228 
10 1:24.917402 2:0.56436349 3:-1.0918574 
10 1:24.940341 2:0.76025716 3:-0.97092102 
-10 1:26.147903 2:-0.5424359 3:-1.1950525 
-10 1:26.153793 2:-0.3967526 3:-1.2894369 
-10 1:26.156086 2:-0.24309471 3:-1.3532945 
-10 1:26.154658 2:-0.078396891 3:-1.3863614 
-10 1:26.149386 2:0.10040619 3:-1.3883738 
-10 1:26.14018 2:0.29592223 3:-1.3592428 
-10 1:26.127576 2:0.50218051 3:-1.3021659 
-10 1:26.112662 2:0.70559166 3:-1.2232585 
-10 1:26.096546 2:0.89230145 3:-1.1287374 
-10 1:26.080336 2:1.0484583 3:-1.0248184 
-10 1:26.064751 2:1.1646697 3:-0.91540479 
-10 1:26.049313 2:1.245151 3:-0.79734455 
-10 1:26.033321 2:1.2967043 3:-0.66614437 
10 1:25.996934 2:1.3399451 3:-0.34690346 
10 1:25.976177 2:1.3408984 3:-0.15816339 
10 1:25.954706 2:1.3291154 3:0.040644799 
10 1:25.933438 2:1.3046659 3:0.24115361 
10 1:25.913288 2:1.2676138 3:0.43500118 
10 1:25.895055 2:1.2163963 3:0.61535029 
10 1:25.879263 2:1.1456308 3:0.77894403 
10 1:25.866396 2:1.0493869 3:0.92303888 
10 1:25.856935 2:0.9217343 3:1.0448913 
10 1:25.851307 2:0.75782156 3:1.1419938 
10 1:25.84938 2:0.56293576 3:1.214057 
10 1:25.850719 2:0.34791895 3:1.2620069 
10 1:25.854887 2:0.12367008 3:1.2867818 
10 1:25.861446 2:-0.098926217 3:1.2893245 
10 1:25.869954 2:-0.31038396 3:1.2710101 
10 1:25.879958 2:-0.50376987 3:1.234003 
10 1:25.891009 2:-0.67242231 3:1.1805513 
-10 1:25.914501 2:-0.91031046 3:1.0331844 
-10 1:25.926554 2:-0.97905727 3:0.94266066 
10 1:25.965728 2:-1.0838657 3:0.6152701 
10 1:25.980198 2:-1.1104101 3:0.49092736 
1.800939414305175 1:25.995149 2:-1.1347562 3:0.36159752 
-10 1:26.040198 2:-1.172045 3:-0.038184382 
-10 1:26.054767 2:-1.1634352 3:-0.17325486 
-10 1:26.069249 2:-1.1380919 3:-0.31221323 
-10 1:26.08379 2:-1.0920182 3:-0.45750655 
-10 1:26.098519 2:-1.021357 3:-0.61140168 
-10 1:26.113124 2:-0.92627491 3:-0.77098184 
-10 1:26.126785 2:-0.81146843 3:-0.92749356 
-10 1:26.138659 2:-0.68187597 3:-1.0718721 
-10 1:26.147903 2:-0.5424359 3:-1.1950525 
-10 1:26.908276 2:0.37653527 3:-1.2488838 
-10 1:26.898394 2:0.55667046 3:-1.214086 
-10 1:26.88994 2:0.72602122 3:-1.1658076 
-10 1:26.883271 2:0.881986 3:-1.1005861 
-10 1:26.87876 2:1.022228 3:-1.0143131 
-10 1:26.876772 2:1.1444264 3:-0.90299485 
-10 1:26.877475 2:1.2467073 3:-0.76580791 
-10 1:26.880815 2:1.3276906 3:-0.60543418 
-10 1:26.886726 2:1.3860219 3:-0.42473697 
10 1:26.905846 2:1.4312653 3:-0.014261008 
10 1:26.918618 2:1.4194298 3:0.20890811 
10 1:26.933196 2:1.3860397 3:0.43949523 
10 1:26.949281 2:1.3315415 3:0.6724929 
-10 1:26.983779 2:1.1475447 3:1.0907799 
-10 1:27.000987 2:1.010742 3:1.2447979 
-10 1:27.017567 2:0.84179658 3:1.3481427 
-10 1:27.033636 2:0.64624273 3:1.4096807 
-3.876472395585042 1:27.049389 2:0.43064694 3:1.4410311 
-10 1:27.120847 2:-0.90221757 3:1.1526083 
-10 1:27.123001 2:-1.0563696 3:1.005633 
-10 1:27.121582 2:-1.16299 3:0.84986427 
-10 1:27.116606 2:-1.2132348 3:0.69635275 
-10 1:27.108843 2:-1.2167247 3:0.54774665 
10 1:27.089221 2:-1.150986 3:0.26261774 
10 1:27.079291 2:-1.1119735 3:0.12528447 
10 1:27.069775 2:-1.0752345 3:-0.0071107252 
10 1:27.060749 2:-1.0404403 3:-0.13274197 
10 1:27.052289 2:-1.007262 3:-0.24980497 
10 1:27.044386 2:-0.97535664 3:-0.35806405 
10 1:27.036888 2:-0.94435811 3:-0.45988795 
10 1:27.029631 2:-0.913898 3:-0.55789096 
10 1:27.02244 2:-0.88339015 3:-0.65460963 
10 1:27.014946 2:-0.84804058 3:-0.75107817 
-3.955410793579168 1:26.958414 2:-0.34602172 3:-1.1932406 
10 1:27.825778 2:0.77841977 3:-0.79918819 
10 1:27.817313 2:0.96297355 3:-0.68070838 
10 1:27.812245 2:1.1405778 3:-0.53781463 
10 1:27.811906 2:1.2952008 3:-0.37522307 
-7.148286757389421 1:27.847241 2:1.5051185 3:0.18118181 
-5.714217840830693 1:27.891454 2:1.4641817 3:0.55189023 
-10 1:27.916121 2:1.4070596 3:0.72195807 
-10 1:27.942623 2:1.3229134 3:0.88026074 
-10 1:27.971349 2:1.2080438 3:1.0264814 
-10 1:28.002608 2:1.0591847 3:1.1600168 
-6.994496357266136 1:28.167034 2:-0.079418482 3:1.4811916 
-10 1:28.192704 2:-0.32859169 3:1.4547628 
-10 1:28.212343 2:-0.55236937 3:1.3990089 
-10 1:28.224952 2:-0.74018275 3:1.3158976 
-10 1:28.231147 2:-0.89406327 3:1.2090116 
-10 1:28.231794 2:-1.0180154 3:1.0821871 
-10 1:28.227751 2:-1.1160052 3:0.93921559 
-10 1:28.219486 2:-1.190354 3:0.78200132 
-10 1:28.206941 2:-1.2411586 3:0.60989497 
-10 1:28.19002 2:-1.2683581 3:0.42206599 
-10 1:28.168687 2:-1.271982 3:0.21813053 
-10 1:28.14372 2:-1.2533374 3:0.0039979153 
-10 1:28.116504 2:-1.2146759 3:-0.20977049 
-10 1:28.088435 2:-1.1582712 3:-0.41250427 
-10 1:28.060824 2:-1.0864098 3:-0.59437802 
-10 1:28.034414 2:-1.0014619 3:-0.75096272 
-10 1:28.009725 2:-0.90582988 3:-0.87995173 
-10 1:27.987278 2:-0.80191683 3:-0.97904414 
-10 1:27.96749 2:-0.69292145 3:-1.0477444 
-10 1:27.950458 2:-0.58457273 3:-1.0912981 
-10 1:27.936213 2:-0.48310152 3:-1.1160893 
10 1:27.908626 2:-0.25561075 3:-1.1308868 
10 1:27.902168 2:-0.19213053 3:-1.1233846 
10 1:27.895618 2:-0.12372612 3:-1.1114737 
10 1:27.888399 2:-0.045278822 3:-1.0950613 
10 1:27.880209 2:0.046900889 3:-1.0730368 
10 1:27.870754 2:0.15645103 3:-1.0442527 
10 1:27.859836 2:0.28647673 3:-1.0072271 
10 1:27.848049 2:0.43573078 3:-0.95774352 
10 1:27.83637 2:0.60084074 3:-0.89025069 
10 1:27.825778 2:0.77841977 3:-0.79918819 
10 1:28.974795 2:0.19823709 3:-1.1403676 
10 1:28.958554 2:0.4135743 3:-1.0899262 
-10 1:28.926798 2:0.84018556 3:-0.94154901 
-10 1:28.913338 2:1.0255438 3:-0.83787518 
-10 1:28.9027 2:1.1770661 3:-0.71103438 
-10 1:28.894907 2:1.2945253 3:-0.5600931 
-10 1:28.889718 2:1.3811095 3:-0.38463708 
-10 1:28.886888 2:1.4400087 3:-0.18425232 
-10 1:28.88618 2:1.47414 3:0.039816796 
-3.397187570279602 1:28.887404 2:1.4846088 3:0.27530087 
-10 1:28.890386 2:1.4717812 3:0.50543292 
-10 1:28.894952 2:1.4360215 3:0.7134327 
-10 1:28.900964 2:1.3774427 3:0.88416918 
-10 1:28.908575 2:1.2939753 3:1.0168655 
-10 1:28.918088 2:1.1824259 3:1.1181358 
-10 1:28.929811 2:1.0395917 3:1.1946551 
10 1:28.960367 2:0.65623282 3:1.2950183 
10 1:28.978262 2:0.42811394 3:1.3214745 
10 1:28.997034 2:0.18691644 3:1.3321751 
10 1:29.016018 2:-0.058776527 3:1.3271232 
10 1:29.034354 2:-0.2979111 3:1.3058024 
10 1:29.051022 2:-0.5174463 3:1.2672788 
10 1:29.065002 2:-0.70428486 3:1.2106064 
10 1:29.085458 2:-1.0010106 3:0.91842321 
10 1:29.086957 2:-1.0365941 3:0.77304459 
10 1:29.087197 2:-1.0590136 3:0.59984539 
10 1:29.08669 2:-1.0744087 3:0.40309816 
10 1:29.08554 2:-1.0827593 3:0.19515614 
10 1:29.083827 2:-1.0836605 3:-0.011122241 
10 1:29.081632 2:-1.0767127 3:-0.20295773 
10 1:29.079018 2:-1.0618609 3:-0.37231943 
10 1:29.07603 2:-1.039583 3:-0.51853638 
-10 1:29.069091 2:-0.97484585 3:-0.74140305 
-10 1:29.065215 2:-0.93359803 3:-0.82023573 
-10 1:29.061101 2:-0.88765834 3:-0.88458645 
-10 1:29.056769 2:-0.83806159 3:-0.9414687 
-10 1:29.052237 2:-0.78583656 3:-0.99788544 
-10 1:29.047397 2:-0.72996325 3:-1.0572794 
-10 1:29.041826 2:-0.6643995 3:-1.1143662 
-10 1:29.035055 2:-0.58234769 3:-1.1625484 
-10 1:29.026615 2:-0.4770112 3:-1.1952296 
-10 1:29.016186 2:-0.34373536 3:-1.2077032 
-10 1:29.003914 2:-0.18454928 3:-1.2011593 
10 1:28.974795 2:0.19823709 3:-1.1403676 
10 1:30.151835 2:-0.25649918 3:-1.1892516 
-10 1:30.072847 2:0.46650664 3:-1.2546379 
-10 1:30.047041 2:0.63773362 3:-1.2005975 
-10 1:30.020613 2:0.79416662 3:-1.1233029 
-10 1:29.994355 2:0.93319397 3:-1.027476 
-10 1:29.969059 2:1.0522044 3:-0.91783959 
-10 1:29.945398 2:1.1489614 3:-0.79840221 
-10 1:29.923268 2:1.2237185 3:-0.66842733 
10 1:29.881905 2:1.3123136 3:-0.36616985 
10 1:29.861886 2:1.3287077 3:-0.18915991 
10 1:29.842376 2:1.3283091 3:0.0023636119 
10 1:29.82384 2:1.3125502 3:0.20215907 
10 1:29.80675 2:1.2828635 3:0.40396153 
10 1:29.791628 2:1.2402196 3:0.60152616 
10 1:29.779609 2:1.1802154 3:0.78884164 
10 1:29.772225 2:1.0949812 3:0.9600473 
10 1:29.771012 2:0.97658959 3:1.109285 
10 1:29.777385 2:0.81790295 3:1.2310031 
10 1:29.790756 2:0.62441962 3:1.3245533 
10 1:29.808935 2:0.4118006 3:1.3932308 
-10 1:29.850846 2:-0.0075330016 3:1.4693507 
-10 1:29.872162 2:-0.19444695 3:1.4774798 
-10 1:29.895265 2:-0.37154073 3:1.4567183 
-10 1:29.92187 2:-0.54609188 3:1.3987092 
-10 1:29.953632 2:-0.72508127 3:1.2953468 
-10 1:29.99006 2:-0.90501742 3:1.1474003 
-10 1:30.02799 2:-1.0693878 3:0.96667326 
-10 1:30.064096 2:-1.2008659 3:0.76565913 
-10 1:30.095073 2:-1.2823262 3:0.55682463 
-10 1:30.119212 2:-1.3086977 3:0.35103832 
-10 1:30.137269 2:-1.2935944 3:0.15669157 
-10 1:30.150212 2:-1.2522374 3:-0.018037334 
-10 1:30.159008 2:-1.1998094 3:-0.16500986 
10 1:30.167668 2:-1.0947634 3:-0.37169711 
10 1:30.169092 2:-1.0440325 3:-0.44449489 
10 1:30.169607 2:-0.99505635 3:-0.50636552 
10 1:30.169793 2:-0.94674532 3:-0.56424577 
10 1:30.169757 2:-0.89431185 3:-0.62472754 
10 1:30.169533 2:-0.83241212 3:-0.69435086 
10 1:30.169155 2:-0.75570287 3:-0.7796539 
10 1:30.168379 2:-0.66000795 3:-0.88308814 
10 1:30.16609 2:-0.54479302 3:-0.99435307 
10 1:30.161004 2:-0.41023209 3:-1.1006678 
10 1:30.151835 2:-0.25649918 3:-1.1892516 
-10 1:30.938503 2:-0.86774547 3:-0.91074081 
-10 1:30.927773 2:-0.70787624 3:-0.99715804 
10 1:30.91717 2:-0.51649024 3:-1.0747909 
10 1:30.906848 2:-0.30892149 3:-1.1454049 
10 1:30.896976 2:-0.10025728 3:-1.2105883 
10 1:30.887958 2:0.10009016 3:-1.2678609 
10 1:30.880438 2:0.28838365 3:-1.3106733 
-10 1:30.872437 2:0.61582102 3:-1.326638 
-10 1:30.872821 2:0.75382824 3:-1.2900845 
-10 1:30.876433 2:0.8775082 3:-1.2196594 
6.493871370650837 1:30.893766 2:1.0896352 3:-0.9705201 
10 1:30.906801 2:1.178408 3:-0.79963581 
10 1:30.922036 2:1.2548627 3:-0.60626723 
10 1:30.938921 2:1.3182602 3:-0.39692258 
10 1:30.95686 2:1.3673379 3:-0.17877219 
10 1:30.975243 2:1.4007027 3:0.040848078 
-10 1:31.011229 2:1.4127005 3:0.45834359 
-10 1:31.02845 2:1.3832342 3:0.64993249 
-10 1:31.045093 2:1.3235026 3:0.8278203 
-10 1:31.061087 2:1.2279007 3:0.98986485 
-10 1:31.076242 2:1.0883433 3:1.1320228 
-10 1:31.090344 2:0.89612521 3:1.2497754 
10 1:31.114412 2:0.34850633 3:1.3996188 
8.50250202045231 1:31.123655 2:0.053584713 3:1.4374735 
-10 1:31.130491 2:-0.19717398 3:1.4578645 
-10 1:31.13447 2:-0.37208142 3:1.4629826 
-10 1:31.134986 2:-0.48850619 3:1.4418313 
-10 1:31.131401 2:-0.57608112 3:1.3801169 
-10 1:31.123124 2:-0.66360014 3:1.2643562 
10 1:31.110795 2:-0.76056351 3:1.0997044 
10 1:31.096281 2:-0.85717776 3:0.90995492 
10 1:31.081503 2:-0.94281059 3:0.71971144 
10 1:31.067995 2:-1.0090278 3:0.54862816 
10 1:31.055752 2:-1.056188 3:0.39656085 
10 1:31.044384 2:-1.0868477 3:0.25841567 
10 1:31.033512 2:-1.1036242 3:0.12921557 
10 1:31.023017 2:-1.1105285 3:0.0066692623 
10 1:31.013044 2:-1.1129654 3:-0.10882876 
-10 1:30.995171 2:-1.1240718 3:-0.31737649 
-10 1:30.986926 2:-1.1303129 3:-0.41385316 
-10 1:30.978508 2:-1.1272298 3:-0.51013548 
-10 1:30.969434 2:-1.1069403 3:-0.60998281 
-10 1:30.95958 2:-1.0618281 3:-0.71304104 
-10 1:30.949184 2:-0.98454274 3:-0.81484253 
-10 1:30.938503 2:-0.86774547 3:-0.91074081 
-10 1:31.934314 2:-0.66080292 3:-0.99043607 
10 1:31.913931 2:-0.14262664 3:-1.2330527 
10 1:31.90564 2:0.13653361 3:-1.3256254 
-10 1:31.89537 2:0.5651655 3:-1.4328646 
-10 1:31.894094 2:0.7083735 3:-1.4381384 
-10 1:31.895724 2:0.82729976 3:-1.4043803 
-10 1:31.900496 2:0.93993548 3:-1.3266388 
-10 1:31.908384 2:1.0528798 3:-1.2046958 
10 1:31.932228 2:1.255059 3:-0.84853404 
10 1:31.947493 2:1.3313413 3:-0.62528505 
10 1:31.964183 2:1.3863116 3:-0.3837338 
-4.622936808369559 1:31.998333 2:1.4304102 3:0.10438743 
-10 1:32.014166 2:1.4180548 3:0.32776283 
-10 1:32.028833 2:1.3784854 3:0.53217225 
-10 1:32.042453 2:1.3068546 3:0.71886257 
-10 1:32.055143 2:1.198324 3:0.88907834 
6.558997186019067 1:32.093179 2:0.48473136 3:1.3644753 
-10 1:32.093823 2:-0.64057062 3:1.2728905 
10 1:32.067098 2:-0.94272473 3:0.86693618 
10 1:32.054779 2:-0.98516495 3:0.68848767 
10 1:32.041731 2:-1.0080477 3:0.50143337 
10 1:32.028614 2:-1.0171657 3:0.31465678 
10 1:32.016276 2:-1.0172632 3:0.13971449 
10 1:32.005597 2:-1.0128767 3:-0.011306773 
10 1:31.997449 2:-1.0085228 3:-0.12643966 
10 1:31.992083 2:-1.0072757 3:-0.20240233 
10 1:31.988718 2:-1.0098152 3:-0.25033341 
10 1:31.986476 2:-1.0165951 3:-0.2827312 
10 1:31.984484 2:-1.0278663 3:-0.31198073 
-10 1:31.97306 2:-1.037557 3:-0.47482596 
-10 1:31.965466 2:-1.0078584 3:-0.57982647 
-10 1:31.955966 2:-0.94452813 3:-0.70885951 
-10 1:31.945325 2:-0.83352715 3:-0.84978872 
-10 1:31.934314 2:-0.66080292 3:-0.99043607 
10 1:32.946706 2:-0.73347674 3:-0.72642618 
10 1:32.942698 2:-0.59274314 3:-0.88913895 
10 1:32.939935 2:-0.43468392 3:-1.0349548 
10 1:32.938884 2:-0.25658888 3:-1.1555084 
0.3157960211107701 1:32.940009 2:-0.055747854 3:-1.2424344 
10 1:32.9436 2:0.16787605 3:-1.2895813 
10 1:32.949055 2:0.40057569 3:-1.3021779 
10 1:32.955485 2:0.62423932 3:-1.2891007 
-10 1:32.967825 2:0.97455624 3:-1.2204696 
-10 1:32.972924 2:1.0870576 3:-1.1743115 
-10 1:32.977568 2:1.1665894 3:-1.1196161 
-10 1:32.982029 2:1.221504 3:-1.0552385 
-10 1:32.98659 2:1.2595817 3:-0.97943766 
-10 1:32.991652 2:1.2836229 3:-0.88528491 
-10 1:32.997671 2:1.2938636 3:-0.76318027 
10 1:33.005108 2:1.2905189 3:-0.60350171 
10 1:33.014354 2:1.2738522 3:-0.39808115 
10 1:33.025019 2:1.244691 3:-0.15565262 
10 1:33.036209 2:1.2042265 3:0.10414521 
10 1:33.04702 2:1.1536561 3:0.36149198 
10 1:33.056576 2:1.094012 3:0.59720576 
10 1:33.064413 2:1.0236834 3:0.80231871 
10 1:33.070397 2:0.93893384 3:0.97607771 
10 1:33.074406 2:0.83596686 3:1.1179624 
10 1:33.076318 2:0.71103558 3:1.2274425 
10 1:33.076028 2:0.5615367 3:1.3037614 
10 1:33.073453 2:0.38601052 3:1.3459365 
10 1:33.068509 2:0.18304706 3:1.352975 
10 1:33.061126 2:-0.048483835 3:1.3240189 
10 1:33.051716 2:-0.29983257 3:1.2629672 
10 1:33.041288 2:-0.54996535 3:1.1796329 
10 1:33.030887 2:-0.7770805 3:1.0841988 
-10 1:33.021553 2:-0.95958054 3:0.98677042 
-10 1:33.013785 2:-1.0881209 3:0.89281306 
-10 1:33.00725 2:-1.1723489 3:0.8005997 
-10 1:33.001546 2:-1.2235457 3:0.70778465 
-10 1:32.99627 2:-1.2529685 3:0.61204002 
-10 1:32.991196 2:-1.269004 3:0.51319467 
-10 1:32.98644 2:-1.2744633 3:0.41526611 
-10 1:32.982157 2:-1.2715167 3:0.32275311 
-10 1:32.978503 2:-1.2623301 3:0.24014214 
-10 1:32.975478 2:-1.2474794 3:0.16774655 
-10 1:32.972701 2:-1.2236433 3:0.095649991 
-10 1:32.969733 2:-1.1869142 3:0.012397379 
10 1:32.961659 2:-1.0602743 3:-0.22880798 
10 1:32.956633 2:-0.9683111 3:-0.38621509 
10 1:32.9515 2:-0.8589078 3:-0.55548728 
10 1:32.946706 2:-0.73347674 3:-0.72642618 
10 1:33.8632 2:-0.13498297 3:-1.251834 
10 1:33.831408 2:0.077503241 3:-1.2702431 
10 1:33.80163 2:0.29219332 3:-1.2699843 
10 1:33.774541 2:0.5007302 3:-1.2549587 
10 1:33.750895 2:0.69517766 3:-1.2279662 
-10 1:33.718689 2:1.0194072 3:-1.1248271 
-10 1:33.712702 2:1.1390312 3:-1.0393322 
-10 1:33.714932 2:1.2248359 3:-0.92549625 
-10 1:33.724823 2:1.2815304 3:-0.78253514 
-10 1:33.741165 2:1.3172949 3:-0.61104438 
10 1:33.788393 2:1.3577694 3:-0.18571946 
10 1:33.817251 2:1.3678871 3:0.057845936 
-10 1:33.881863 2:1.3406823 3:0.54745254 
-10 1:33.916276 2:1.2907176 3:0.76857643 
-10 1:33.951552 2:1.2097651 3:0.96202076 
-10 1:33.987585 2:1.0941892 3:1.12286 
-10 1:34.024271 2:0.94037142 3:1.2462168 
-10 1:34.061455 2:0.74538932 3:1.3275861 
-10 1:34.098178 2:0.51745762 3:1.3684238 
-10 1:34.132833 2:0.27374821 3:1.3749796 
-10 1:34.232368 2:-0.69030007 3:1.0987147 
-10 1:34.236457 2:-0.7964332 3:1.0130192 
1.653647393969116 1:34.225523 2:-0.96631122 3:0.73517825 
10 1:34.216531 2:-0.99236683 3:0.63368789 
10 1:34.205786 2:-1.0113375 3:0.52601275 
10 1:34.19331 2:-1.0255008 3:0.40977363 
10 1:34.179086 2:-1.0369536 3:0.28250035 
10 1:34.163102 2:-1.0477819 3:0.14175313 
10 1:34.145617 2:-1.0587622 3:-0.011233831 
10 1:34.127428 2:-1.0681273 3:-0.16809087 
10 1:34.109389 2:-1.0738177 3:-0.31962852 
-10 1:34.092355 2:-1.0737704 3:-0.45666959 
-10 1:34.076502 2:-1.0647786 3:-0.57421093 
-10 1:34.060345 2:-1.0408302 3:-0.67748122 
-10 1:34.04215 2:-0.99549168 3:-0.77324822 
-10 1:34.020184 2:-0.92233011 3:-0.86827829 
-10 1:33.99339 2:-0.81704043 3:-0.96625191 
-10 1:33.962834 2:-0.68195664 3:-1.0612205 
-10 1:33.929988 2:-0.52070412 3:-1.1453624 
10 1:34.823234 2:-0.10357431 3:-1.3670844 
10 1:34.798203 2:0.064706372 3:-1.3634909 
10 1:34.77577 2:0.23961308 3:-1.3343065 
10 1:34.756171 2:0.41888677 3:-1.2802857 
10 1:34.740102 2:0.59661663 3:-1.2028543 
10 1:34.728345 2:0.76621671 3:-1.1035619 
10 1:34.721681 2:0.92110104 3:-0.98395811 
10 1:34.720889 2:1.054695 3:-0.84559478 
10 1:34.726322 2:1.162819 3:-0.69046962 
10 1:34.737382 2:1.2466379 3:-0.52157531 
10 1:34.753343 2:1.3080394 3:-0.34203914 
10 1:34.773477 2:1.3489111 3:-0.15498842 
10 1:34.79706 2:1.37112 3:0.036439796 
-10 1:34.916608 2:1.2497888 3:0.75474479 
4.315533081914167 1:35.059827 2:0.70687241 3:1.1867769 
10 1:35.096243 2:0.5192107 3:1.2431549 
10 1:35.131974 2:0.31920217 3:1.2813649 
-10 1:35.197068 2:-0.09236798 3:1.3000911 
-10 1:35.223525 2:-0.28858114 3:1.2765232 
-10 1:35.243973 2:-0.4681318 3:1.2282316 
-10 1:35.257046 2:-0.62364715 3:1.1534624 
-10 1:35.262825 2:-0.75281351 3:1.0552966 
-10 1:35.26251 2:-0.85721172 3:0.94053766 
-10 1:35.257327 2:-0.9385228 3:0.81608452 
10 1:35.224153 2:-1.063174 3:0.44612273 
10 1:35.209725 2:-1.0762535 3:0.32955312 
10 1:35.194328 2:-1.082665 3:0.21329237 
10 1:35.178363 2:-1.0870577 3:0.095168323 
10 1:35.162116 2:-1.0931778 3:-0.02682182 
10 1:35.145037 2:-1.0980986 3:-0.15342943 
10 1:35.1262 2:-1.0959023 3:-0.28484497 
10 1:35.10468 2:-1.0806572 3:-0.42125626 
10 1:35.07955 2:-1.0464313 3:-0.56285113 
10 1:35.050167 2:-0.98837969 3:-0.70897394 
10 1:35.017422 2:-0.90753527 3:-0.85440702 
10 1:34.982723 2:-0.80690928 3:-0.99239736 
10 1:34.947478 2:-0.68951442 3:-1.1161908 
-10 1:36.082259 2:-0.64084954 3:-1.3532042 
-10 1:36.064133 2:-0.44968193 3:-1.4193433 
-10 1:36.04324 2:-0.23526259 3:-1.4522506 
-10 1:36.020847 2:-0.0099359842 3:-1.4548399 
-10 1:35.998221 2:0.21397479 3:-1.4300092 
-10 1:35.976282 2:0.42730203 3:-1.3783354 
-10 1:35.955243 2:0.62734001 3:-1.2956422 
-10 1:35.935228 2:0.8121742 3:-1.1771714 
-10 1:35.916372 2:0.97985222 3:-1.0184809 
-10 1:35.899033 2:1.1273707 3:-0.82391517 
-10 1:35.883817 2:1.2505641 3:-0.607532 
-10 1:35.871344 2:1.345207 3:-0.383892 
-10 1:35.862183 2:1.4074839 3:-0.16686444 
-10 1:35.856369 2:1.437928 3:0.03701422 
-9.797337685780834 1:35.853619 2:1.439692 3:0.22562401 
6.859653679272593 1:35.860961 2:1.3031043 3:0.68375147 
10 1:35.867838 2:1.2178016 3:0.80200591 
10 1:35.876593 2:1.1156071 3:0.90580116 
10 1:35.887018 2:0.99841318 3:0.99663386 
10 1:35.898881 2:0.8684302 3:1.0753824 
10 1:35.911946 2:0.72791835 3:1.1428284 
10 1:35.92598 2:0.57912514 3:1.199719 
10 1:35.940822 2:0.42375946 3:1.2453363 
10 1:35.956411 2:0.26280148 3:1.2769801 
10 1:35.972694 2:0.097179647 3:1.2918096 
10 1:35.989602 2:-0.072027863 3:1.2869743 
10 1:36.006859 2:-0.24163378 3:1.259488 
10 1:36.024035 2:-0.40689174 3:1.2062642 
10 1:36.040695 2:-0.56301882 3:1.124214 
10 1:36.056415 2:-0.70549007 3:1.0114819 
10 1:36.070826 2:-0.83142801 3:0.87408952 
10 1:36.083581 2:-0.93860312 3:0.72115642 
10 1:36.094335 2:-1.0247878 3:0.56180912 
10 1:36.102865 2:-1.0888564 3:0.40408894 
10 1:36.109345 2:-1.1331874 3:0.25258621 
10 1:36.114029 2:-1.1608541 3:0.11120682 
10 1:36.117169 2:-1.1749307 3:-0.016197283 
-4.789143968135756 1:36.121512 2:-1.1583944 3:-0.45499269 
-10 1:36.121967 2:-1.1461567 3:-0.57753775 
-10 1:36.121486 2:-1.1233804 3:-0.70839118 
-10 1:36.119327 2:-1.0827919 3:-0.84616694 
-10 1:36.114773 2:-1.0174918 3:-0.98875172 
-10 1:36.107333 2:-0.92363525 3:-1.1280921 
-10 1:36.096623 2:-0.7988689 3:-1.2532341 
-10 1:36.082259 2:-0.64084954 3:-1.3532042 
10 1:37.064273 2:0.95898964 3:-0.57355171 
10 1:37.051749 2:1.1465277 3:-0.37954541 
10 1:37.036812 2:1.3121347 3:-0.16092005 
10 1:37.020107 2:1.4416058 3:0.071335092 
-10 1:36.983974 2:1.5419374 3:0.53424043 
-10 1:36.965832 2:1.510548 3:0.74869624 
-10 1:36.948497 2:1.4336975 3:0.94332605 
-10 1:36.932602 2:1.318359 3:1.1119249 
-10 1:36.918551 2:1.1683875 3:1.2504213 
-10 1:36.906491 2:0.98419115 3:1.3571025 
-10 1:36.896557 2:0.76599939 3:1.4303777 
-10 1:36.888858 2:0.51466047 3:1.4691049 
-10 1:36.883231 2:0.23758417 3:1.4769029 
-10 1:36.875642 2:-0.63364018 3:1.378122 
-10 1:36.876168 2:-0.8949499 3:1.314294 
-10 1:36.879224 2:-1.1162659 3:1.2284004 
-10 1:36.88557 2:-1.2816621 3:1.1146363 
-10 1:36.89564 2:-1.3821884 3:0.96968709 
-10 1:36.909029 2:-1.4266307 3:0.79657042 
-10 1:36.925199 2:-1.4265523 3:0.59929559 
-10 1:36.943608 2:-1.3934563 3:0.3819499 
-10 1:36.963489 2:-1.3362712 3:0.15194952 
10 1:37.021153 2:-1.0734922 3:-0.49389396 
10 1:37.036628 2:-0.97015382 3:-0.66000561 
10 1:37.049551 2:-0.86221265 3:-0.79397006 
2.861275585250405 1:37.059716 2:-0.75068559 3:-0.89349857 
10 1:37.067014 2:-0.6362235 3:-0.95739726 
10 1:37.07195 2:-0.51714016 3:-0.99146404 
10 1:37.075272 2:-0.3908302 3:-1.0042467 
10 1:37.077727 2:-0.25468766 3:-1.0042989 
10 1:37.079856 2:-0.11061026 3:-0.99863263 
10 1:37.081541 2:0.02518295 3:-0.98935663 
10 1:37.08253 2:0.13363268 3:-0.97760727 
10 1:37.08258 2:0.19587839 3:-0.96453551 
10 1:37.081791 2:0.20752287 3:-0.9523531 
10 1:37.080843 2:0.1881823 3:-0.94503305 
10 1:37.080468 2:0.15973692 3:-0.94671441 
10 1:37.081354 2:0.14367436 3:-0.96104378 
10 1:37.083268 2:0.15389532 3:-0.9821513 
10 1:37.08515 2:0.19743811 3:-0.99555957 
10 1:37.085912 2:0.28109382 3:-0.98648104 
10 1:37.084535 2:0.41000729 3:-0.94135218 
10 1:37.080575 2:0.57587858 3:-0.85660596 
10 1:37.073874 2:0.76384255 3:-0.73355668 
10 1:37.064273 2:0.95898964 3:-0.57355171 
-10 1:38.107174 2:1.4701663 3:-0.15043879 
-2.978927227358445 1:38.115535 2:1.5656036 3:0.045547843 
10 1:38.119836 2:1.5648314 3:0.6840518 
10 1:38.113606 2:1.4621589 3:0.87838866 
10 1:38.103695 2:1.3114549 3:1.0514827 
10 1:38.090473 2:1.1180863 3:1.1992761 
10 1:38.074322 2:0.88764047 3:1.3178493 
10 1:38.056022 2:0.63077447 3:1.4064538 
10 1:38.036747 2:0.36321472 3:1.4675129 
10 1:38.017688 2:0.10090809 3:1.5035876 
10 1:37.999779 2:-0.14358894 3:1.516148 
10 1:37.982927 2:-0.37128141 3:1.5022995 
10 1:37.966781 2:-0.58656475 3:1.4580564 
10 1:37.951024 2:-0.79338489 3:1.3796134 
10 1:37.93613 2:-0.98534854 3:1.2673141 
10 1:37.92336 2:-1.1457233 3:1.1256507 
10 1:37.914011 2:-1.2573271 3:0.95929573 
10 1:37.908924 2:-1.3091655 3:0.77293036 
10 1:37.907118 2:-1.3149935 3:0.57126938 
10 1:37.90716 2:-1.2947538 3:0.35903606 
10 1:37.907657 2:-1.2677845 3:0.14106779 
10 1:37.908261 2:-1.2395252 3:-0.075173018 
-10 1:37.9126 2:-1.1446963 3:-0.46200834 
-10 1:37.917584 2:-1.0628621 3:-0.61429925 
-10 1:37.924226 2:-0.96126185 3:-0.73676778 
-10 1:37.931912 2:-0.84800522 3:-0.83180961 
-10 1:37.940039 2:-0.73108724 3:-0.9018817 
-10 1:37.948185 2:-0.61586596 3:-0.950851 
-10 1:37.956114 2:-0.50506249 3:-0.98399441 
-10 1:37.963597 2:-0.40128324 3:-1.0066502 
-10 1:37.970407 2:-0.30720428 3:-1.0233933 
-10 1:37.976315 2:-0.22578008 3:-1.0357459 
-10 1:37.981094 2:-0.16003475 3:-1.044467 
-10 1:37.984547 2:-0.11258278 3:-1.0502954 
-10 1:37.987172 2:-0.076617706 3:-1.0535045 
-10 1:37.990165 2:-0.035912129 3:-1.0539025 
-10 1:37.994752 2:0.026170971 3:-1.0512771 
-10 1:38.001841 2:0.1218445 3:-1.0443048 
-10 1:38.011067 2:0.24562495 3:-1.0272157 
-10 1:38.021749 2:0.3876047 3:-0.99312808 
-10 1:38.033219 2:0.53809407 3:-0.93537613 
-10 1:38.045144 2:0.6924162 3:-0.85225111 
-10 1:39.255778 2:1.2580964 3:-0.47149308 
-10 1:39.237409 2:1.5503943 3:0.03526853 
-10 1:39.216976 2:1.6380862 3:0.30551118 
-10 1:39.186417 2:1.6569853 3:0.57096675 
-10 1:39.146527 2:1.6024752 3:0.81961878 
-10 1:39.098895 2:1.4750246 3:1.0394522 
-10 1:39.045178 2:1.2771106 3:1.22042 
-10 1:38.987407 2:1.022934 3:1.3639685 
-10 1:38.927752 2:0.73093884 3:1.4757041 
-10 1:38.868446 2:0.41937672 3:1.5604869 
-10 1:38.812179 2:0.10509201 3:1.6178375 
-10 1:38.761834 2:-0.19567996 3:1.6449659 
-10 1:38.720176 2:-0.46790909 3:1.6385518 
-10 1:38.688908 2:-0.70703415 3:1.5907374 
-10 1:38.669188 2:-0.91388421 3:1.4913289 
-10 1:38.662018 2:-1.0886756 3:1.3321089 
10 1:38.681918 2:-1.3102556 3:0.90062204 
10 1:38.705707 2:-1.3361517 3:0.68015344 
10 1:38.735349 2:-1.3138796 3:0.47284923 
10 1:38.767222 2:-1.2704832 3:0.27397389 
10 1:38.797878 2:-1.2318013 3:0.078918032 
10 1:38.827179 2:-1.1967402 3:-0.10987857 
10 1:38.8578 2:-1.1413299 3:-0.2839886 
10 1:38.892337 2:-1.0421045 3:-0.4349617 
10 1:38.92945 2:-0.90391121 3:-0.55819337 
10 1:38.963872 2:-0.75991068 3:-0.65292489 
10 1:38.990289 2:-0.64379602 3:-0.71870714 
10 1:39.007384 2:-0.56727944 3:-0.75957107 
10 1:39.01854 2:-0.51619486 3:-0.78482209 
10 1:39.027379 2:-0.4750281 3:-0.80396873 
10 1:39.035989 2:-0.43443763 3:-0.82201684 
10 1:39.044335 2:-0.39364695 3:-0.83772444 
10 1:39.05224 2:-0.35243694 3:-0.84942037 
10 1:39.060606 2:-0.3054363 3:-0.85760942 
10 1:39.072102 2:-0.23882942 3:-0.86636265 
10 1:39.08954 2:-0.13812541 3:-0.88006113 
10 1:39.113394 2:-0.0018326516 3:-0.90059697 
10 1:39.139586 2:0.14629395 3:-0.9250283 
-10 1:39.182482 2:0.38260581 3:-0.97281501 
-10 1:39.198059 2:0.46500259 3:-0.99438985 
-10 1:39.212457 2:0.54023149 3:-1.0154774 
-10 1:39.226941 2:0.62002915 3:-1.0316041 
-10 1:39.240191 2:0.71154146 3:-1.0234782 
-10 1:39.250444 2:0.82112762 3:-0.96927173 
-10 1:39.256362 2:0.95248325 3:-0.85381742 
-10 1:39.258018 2:1.1004645 3:-0.68405239 
-10 1:39.255778 2:1.2580964 3:-0.47149308 
10 1:40.002935 2:1.0898485 3:-0.25168099 
10 1:40.036611 2:1.1682316 3:-0.045585735 
10 1:40.071228 2:1.2347857 3:0.16976102 
10 1:40.105271 2:1.2787663 3:0.38688068 
10 1:40.137224 2:1.289429 3:0.59829467 
10 1:40.16567 2:1.2578907 3:0.79672053 
10 1:40.189698 2:1.1848378 3:0.97588419 
9.199904431706003 1:40.208559 2:1.0740234 3:1.1298348 
10 1:40.228636 2:0.54992504 3:1.3948263 
10 1:40.224674 2:0.31852564 3:1.4258945 
10 1:40.217266 2:0.060874498 3:1.440415 
10 1:40.207467 2:-0.22033739 3:1.4447828 
10 1:40.19524 2:-0.50936417 3:1.4348254 
5.963668444432337 1:40.179984 2:-0.78373816 3:1.4009295 
-10 1:40.161094 2:-1.0209361 3:1.3334368 
-10 1:40.138019 2:-1.2000639 3:1.2234406 
-10 1:40.110804 2:-1.3191662 3:1.0707709 
-10 1:40.079886 2:-1.3885062 3:0.88089465 
-10 1:40.045704 2:-1.4185508 3:0.65937253 
-10 1:39.89963 2:-1.3133604 3:-0.34543339 
-10 1:39.871499 2:-1.2580752 3:-0.54766557 
-10 1:39.850018 2:-1.1953827 3:-0.70718472 
-10 1:39.834923 2:-1.1191025 3:-0.82730169 
-10 1:39.825896 2:-1.0228163 3:-0.91175616 
-10 1:39.822606 2:-0.90028017 3:-0.96430622 
-10 1:39.824398 2:-0.75142178 3:-0.98936027 
-10 1:39.830212 2:-0.58384188 3:-0.99213528 
-10 1:39.83896 2:-0.40562092 3:-0.97789877 
10 1:39.849556 2:-0.22483218 3:-0.95192205 
10 1:39.860895 2:-0.049118194 3:-0.91970529 
10 1:39.871843 2:0.11454614 3:-0.88710336 
10 1:39.881266 2:0.25924336 3:-0.86000163 
10 1:39.888032 2:0.37809092 3:-0.84426024 
10 1:39.891625 2:0.46843129 3:-0.84268607 
10 1:39.892715 2:0.53581264 3:-0.85215615 
10 1:39.892113 2:0.58672588 3:-0.86886617 
-10 1:39.889339 2:0.66453873 3:-0.9068267 
-10 1:39.889981 2:0.70189597 3:-0.9118247 
-10 1:39.89439 2:0.74405785 3:-0.89278187 
10 1:39.921212 2:0.85844645 3:-0.74157302 
10 1:39.944025 2:0.93087712 3:-0.60676594 
10 1:39.971661 2:1.0091687 3:-0.44111656 
10 1:40.002935 2:1.0898485 3:-0.25168099 
10 1:40.951559 2:1.095709 3:-0.59100319 
10 1:40.900001 2:1.2489268 3:-0.38181549 
7.143266201241412 1:40.849785 2:1.3808276 3:-0.16373609 
-10 1:40.805133 2:1.4823356 3:0.043235328 
-10 1:40.767794 2:1.5464647 3:0.23348341 
-10 1:40.737044 2:1.5683188 3:0.41577709 
-10 1:40.712051 2:1.5430927 3:0.59951074 
-10 1:40.692352 2:1.4675198 3:0.79040919 
-10 1:40.678954 2:1.3444883 3:0.97951922 
-10 1:40.673232 2:1.1784252 3:1.1542181 
-10 1:40.676528 2:0.97369978 3:1.3021413 
-10 1:40.689442 2:0.73335611 3:1.4168654 
-10 1:40.71183 2:0.45911297 3:1.4979076 
-10 1:40.871389 2:-0.7938908 3:1.4949794 
-10 1:40.909645 2:-1.0087064 3:1.4234466 
-10 1:40.942301 2:-1.1441515 3:1.3227233 
-10 1:40.973546 2:-1.2213119 3:1.1829722 
-10 1:41.007759 2:-1.2624657 3:0.99408457 
10 1:41.047834 2:-1.2859081 3:0.75233694 
10 1:41.090725 2:-1.2940041 3:0.47954764 
10 1:41.131897 2:-1.2851362 3:0.20392042 
10 1:41.166907 2:-1.2577498 3:-0.04687905 
10 1:41.193396 2:-1.2117407 3:-0.25756057 
10 1:41.214218 2:-0.87537395 3:-0.67157217 
10 1:41.206025 2:-0.77214866 3:-0.70359769 
10 1:41.198579 2:-0.67272813 3:-0.73734117 
10 1:41.192741 2:-0.57732758 3:-0.77823935 
10 1:41.186998 2:-0.48045503 3:-0.82097611 
10 1:41.179734 2:-0.37637032 3:-0.85976778 
10 1:41.169942 2:-0.26270638 3:-0.89001487 
10 1:41.159057 2:-0.15058841 3:-0.91185443 
10 1:41.149121 2:-0.054514659 3:-0.92660763 
10 1:41.142109 2:0.01167414 3:-0.93568449 
10 1:41.138388 2:0.049260845 3:-0.94253777 
10 1:41.136717 2:0.074651883 3:-0.952663 
10 1:41.135788 2:0.10491123 3:-0.97164451 
-10 1:41.129519 2:0.22772459 3:-1.0324151 
-10 1:41.119643 2:0.32612811 3:-1.0494871 
-10 1:41.102191 2:0.45116541 3:-1.0392292 
-10 1:41.076199 2:0.59927711 3:-0.99241527 
-10 1:41.042037 2:0.76192171 3:-0.90438439 
-10 1:41.828279 2:1.2147918 3:-0.54955708 
-10 1:41.811131 2:1.4726431 3:0.11519921 
-10 1:41.813319 2:1.4974145 3:0.33431636 
-10 1:41.82011 2:1.4839703 3:0.53838678 
-10 1:41.831938 2:1.4294152 3:0.7296792 
-10 1:41.849236 2:1.330906 3:0.91078918 
10 1:41.930903 2:0.78857921 3:1.3587083 
10 1:41.964295 2:0.54804387 3:1.4428636 
10 1:41.998799 2:0.29130353 3:1.4865887 
10 1:42.033282 2:0.028691574 3:1.4985422 
10 1:42.066615 2:-0.2293927 3:1.4877965 
10 1:42.097694 2:-0.47320313 3:1.461026 
10 1:42.125518 2:-0.69560607 3:1.4153118 
10 1:42.149112 2:-0.890121 3:1.3453368 
7.545210384456085 1:42.191059 2:-1.318263 3:0.78707645 
10 1:42.189491 2:-1.3426583 3:0.59504058 
10 1:42.184157 2:-1.3408435 3:0.38866025 
10 1:42.175806 2:-1.3182105 3:0.16986312 
10 1:42.165171 2:-1.2799562 3:-0.059051974 
9.596621721744279 1:42.152614 2:-1.2267982 3:-0.28724888 
-10 1:42.138123 2:-1.154974 3:-0.49535413 
-10 1:42.121671 2:-1.0605265 3:-0.66362305 
-10 1:42.103419 2:-0.94205777 3:-0.77815968 
-10 1:42.084283 2:-0.80840684 3:-0.84846277 
-10 1:42.065368 2:-0.67097182 3:-0.88987975 
-10 1:42.047756 2:-0.54091688 3:-0.91746012 
-10 1:42.031996 2:-0.42402435 3:-0.93940049 
-10 1:41.960633 2:0.1078645 3:-1.0252142 
-10 1:41.950104 2:0.18637591 3:-1.03767 
-10 1:41.937606 2:0.27957719 3:-1.0524563 
-10 1:41.922756 2:0.39074055 3:-1.0677692 
-10 1:41.906203 2:0.51716989 3:-1.0715649 
-10 1:41.888853 2:0.65467705 3:-1.0492401 
-10 1:41.871609 2:0.79902451 3:-0.98660773 
-10 1:41.855282 2:0.94483957 3:-0.87906267 
-10 1:41.840599 2:1.0856144 3:-0.73158141 
-10 1:41.828279 2:1.2147918 3:-0.54955708 
10 1:43.023423 2:1.1654247 3:-0.31914187 
10 1:42.998891 2:1.2093986 3:-0.16217873 
10 1:42.97214 2:1.2431159 3:0.010976597 
10 1:42.943174 2:1.2651657 3:0.20049634 
10 1:42.912001 2:1.2741147 3:0.40652504 
10 1:42.879316 2:1.2652157 3:0.62511485 
9.311567337437973 1:42.847216 2:1.2269357 3:0.84393722 
-10 1:42.817969 2:1.1469108 3:1.0496374 
-10 1:42.793797 2:1.0131492 3:1.2291238 
-10 1:42.775606 2:0.82398999 3:1.3766063 
-10 1:42.762847 2:0.589194 3:1.4943672 
-10 1:42.754895 2:0.31911308 3:1.5851065 
-10 1:42.751248 2:0.024858877 3:1.6506097 
-10 1:42.752693 2:-0.27439837 3:1.6829598 
-10 1:42.760791 2:-0.55463469 3:1.6683961 
-10 1:42.777118 2:-0.79175943 3:1.5930777 
-10 1:42.802753 2:-0.96738075 3:1.4472367 
10 1:42.875563 2:-1.1845215 3:0.99352217 
10 1:42.918373 2:-1.2647831 3:0.72010861 
10 1:42.962216 2:-1.3436973 3:0.43963224 
-10 1:43.039537 2:-1.4541304 3:-0.059036589 
-10 1:43.066151 2:-1.4591921 3:-0.23529866 
-10 1:43.082933 2:-1.4205916 3:-0.35230631 
-10 1:43.092913 2:-1.3423578 3:-0.42963624 
-10 1:43.099382 2:-1.2292203 3:-0.48851161 
10 1:43.112357 2:-0.92597085 3:-0.61731041 
10 1:43.119628 2:-0.7651054 3:-0.68820858 
10 1:43.126898 2:-0.62108065 3:-0.75674614 
10 1:43.133759 2:-0.50747313 3:-0.81829302 
10 1:43.139735 2:-0.41420424 3:-0.87110673 
10 1:43.144326 2:-0.32189192 3:-0.91458038 
10 1:43.147033 2:-0.21113497 3:-0.94811006 
10 1:43.147628 2:-0.071088238 3:-0.97169521 
10 1:43.146742 2:0.081885875 3:-0.98725397 
10 1:43.145181 2:0.22602905 3:-0.99708501 
10 1:43.143742 2:0.33978111 3:-1.0034582 
10 1:43.083702 2:0.97337489 3:-0.69305038 
10 1:43.065825 2:1.0485887 3:-0.58472122 
10 1:43.045733 2:1.112135 3:-0.46002764 
10 1:43.023423 2:1.1654247 3:-0.31914187 
10 1:43.965044 2:1.2152642 3:-0.19655763 
10 1:43.939627 2:1.2756656 3:0.0073388186 
-10 1:43.88996 2:1.3361134 3:0.43002778 
-10 1:43.868292 2:1.3204284 3:0.63214675 
-10 1:43.850319 2:1.2654298 3:0.81748691 
-10 1:43.836917 2:1.1686587 3:0.97919137 
-10 1:43.828924 2:1.0281003 3:1.1105249 
-10 1:43.827136 2:0.84200898 3:1.205053 
6.094864117154291 1:43.831074 2:0.61610145 3:1.2646904 
10 1:43.838851 2:0.36434528 3:1.3005822 
10 1:43.848506 2:0.10113497 3:1.3243514 
10 1:43.858209 2:-0.15950419 3:1.3465976 
10 1:43.867518 2:-0.40746271 3:1.3670661 
10 1:43.876822 2:-0.63498962 3:1.3789649 
-10 1:43.89715 2:-0.999495 3:1.3491066 
-10 1:43.909837 2:-1.1324491 3:1.2906348 
-10 1:43.925921 2:-1.2378719 3:1.1899184 
-10 1:43.946733 2:-1.3204017 3:1.0368975 
-10 1:43.972634 2:-1.3821305 3:0.82919453 
3.775445233046285 1:44.058285 2:-1.3947962 3:0.061686233 
-10 1:44.116686 2:-1.140439 3:-0.57242944 
-10 1:44.126729 2:-1.0359468 3:-0.70707154 
-10 1:44.132302 2:-0.93015164 3:-0.80192556 
-10 1:44.134567 2:-0.81814198 3:-0.86955056 
10 1:44.133766 2:-0.55678032 3:-0.9724295 
10 1:44.132056 2:-0.41034407 3:-1.0186884 
10 1:44.129569 2:-0.2658758 3:-1.0571112 
10 1:44.126302 2:-0.13371344 3:-1.0833142 
3.490250550452665 1:44.122222 2:-0.019625043 3:-1.0945645 
10 1:44.117199 2:0.085153231 3:-1.0933794 
10 1:44.111083 2:0.19226726 3:-1.0833171 
-10 1:44.086485 2:0.58700223 3:-1.0276608 
-10 1:44.078007 2:0.70891348 3:-1.0025254 
-10 1:44.070539 2:0.80002389 3:-0.97351823 
-10 1:44.06357 2:0.86062744 3:-0.93617134 
-10 1:44.055527 2:0.90522171 3:-0.88238478 
-10 1:44.044797 2:0.94881608 3:-0.80392769 
-10 1:44.029955 2:1.0047359 3:-0.69357035 
10 1:43.989196 2:1.145126 3:-0.38493295 
10 1:43.965044 2:1.2152642 3:-0.19655763 
10 1:44.918916 2:1.1981597 3:-0.24746455 
10 1:44.937133 2:1.2457989 3:-0.047600625 
10 1:44.956847 2:1.2702552 3:0.15633763 
10 1:44.976856 2:1.2725532 3:0.35308498 
-9.315167326988901 1:45.013242 2:1.2137433 3:0.68216379 
-10 1:45.02918 2:1.1473294 3:0.807802 
10 1:45.060795 2:0.90719205 3:1.007665 
10 1:45.078193 2:0.72129331 3:1.0931847 
10 1:45.096638 2:0.49671474 3:1.1713245 
10 1:45.115424 2:0.24532876 3:1.2405851 
10 1:45.133842 2:-0.020977651 3:1.2994609 
10 1:45.151149 2:-0.29012876 3:1.3461828 
10 1:45.166292 2:-0.54840601 3:1.3766829 
-10 1:45.185222 2:-0.97407433 3:1.3680029 
-10 1:45.186669 2:-1.1137363 3:1.3185608 
-10 1:45.182346 2:-1.2035083 3:1.235405 
-10 1:45.172897 2:-1.2572707 3:1.118507 
10 1:45.141243 2:-1.3123499 3:0.78384754 
10 1:45.120448 2:-1.3301611 3:0.57235054 
10 1:45.097408 2:-1.33729 3:0.34376542 
10 1:45.072944 2:-1.3282772 3:0.10860459 
10 1:45.047873 2:-1.2977875 3:-0.12271334 
10 1:45.022925 2:-1.2433465 3:-0.3419281 
-10 1:44.975959 2:-1.064279 3:-0.71973416 
-10 1:44.955208 2:-0.94075882 3:-0.86643596 
-10 1:44.936801 2:-0.79838954 3:-0.98163606 
-10 1:44.920655 2:-0.64452882 3:-1.0694906 
-10 1:44.906663 2:-0.48676859 3:-1.1345033 
-10 1:44.894721 2:-0.33263708 3:-1.1811273 
-10 1:44.884857 2:-0.18584252 3:-1.2107568 
-10 1:44.877311 2:-0.044172043 3:-1.2200453 
-10 1:44.872342 2:0.095096536 3:-1.2052388 
-10 1:44.8702 2:0.23465558 3:-1.1626356 
10 1:44.872533 2:0.50396456 3:-1.0171944 
10 1:44.874551 2:0.61705264 3:-0.94596982 
10 1:44.875428 2:0.70413588 3:-0.89773958 
-10 1:44.873318 2:0.80406186 3:-0.87286969 
-10 1:44.873045 2:0.8430221 3:-0.85780321 
-10 1:44.875279 2:0.8935286 3:-0.81295324 
-10 1:44.881135 2:0.9642214 3:-0.72349217 
10 1:44.918916 2:1.1981597 3:-0.24746455 
-10 1:46.170119 2:1.2852375 3:-0.0068620407 
-10 1:46.271709 2:1.1393566 3:0.87349039 
-10 1:46.274444 2:1.0244389 3:1.0046654 
-10 1:46.270814 2:0.87433123 3:1.1236118 
-10 1:46.260913 2:0.68595229 3:1.233987 
-10 1:46.245199 2:0.46352118 3:1.3350473 
-10 1:46.224537 2:0.21932846 3:1.421183 
-10 1:46.199813 2:-0.033917636 3:1.4865324 
-10 1:46.171845 2:-0.28391572 3:1.5251376 
-10 1:46.140736 2:-0.52267971 3:1.5300159 
-10 1:46.106159 2:-0.74482268 3:1.4935678 
-10 1:46.067781 2:-0.94499338 3:1.4081852 
-10 1:46.025696 2:-1.1179285 3:1.2694621 
-10 1:45.982159 2:-1.258808 3:1.0891384 
-5.490751338940219 1:45.940106 2:-1.3629514 3:0.88403154 
-10 1:45.902467 2:-1.4256862 3:0.67095059 
-10 1:45.871145 2:-1.445732 3:0.46247868 
10 1:45.791111 2:-1.255274 3:-0.30421157 
10 1:45.779309 2:-1.168526 3:-0.4740776 
10 1:45.771257 2:-1.0675793 3:-0.63040068 
10 1:45.767393 2:-0.95202492 3:-0.77040745 
10 1:45.767603 2:-0.82511382 3:-0.89177294 
10 1:45.771368 2:-0.69280218 3:-0.99250364 
10 1:45.778159 2:-0.56110964 3:-1.0706138 
10 1:45.78756 2:-0.43490776 3:-1.1244228 
10 1:45.799862 2:-0.31173628 3:-1.1541973 
10 1:45.815633 2:-0.18625136 3:-1.1609704 
10 1:45.835443 2:-0.053103588 3:-1.1457774 
10 1:45.859148 2:0.08944198 3:-1.1113456 
10 1:45.884335 2:0.23162656 3:-1.0657832 
10 1:45.908141 2:0.36141189 3:-1.0182655 
10 1:45.927728 2:0.46688307 3:-0.97789244 
10 1:45.942209 2:0.54510377 3:-0.94828473 
10 1:45.953929 2:0.60804464 3:-0.92396589 
10 1:45.965539 2:0.66908184 3:-0.89860173 
-10 1:45.997443 2:0.8267726 3:-0.81918296 
-10 1:46.019075 2:0.91983137 3:-0.75191736 
-10 1:46.044547 2:1.0135569 3:-0.657359 
-10 1:46.073759 2:1.1014634 3:-0.52995835 
-10 1:46.105547 2:1.1787233 3:-0.37350427 
-10 1:46.138229 2:1.2413188 3:-0.19634559 
-10 1:46.170119 2:1.2852375 3:-0.0068620407 
-10 1:46.822759 2:1.3406093 3:0.20815343 
-10 1:46.836038 2:1.3717915 3:0.4023499 
-10 1:46.854802 2:1.3598122 3:0.58743801 
-10 1:46.878779 2:1.3017319 3:0.75576993 
-10 1:46.907697 2:1.1946108 3:0.89969783 
-1.938222736320054 1:46.941079 2:1.038065 3:1.0134268 
10 1:46.9774 2:0.84485009 3:1.1006887 
10 1:47.014798 2:0.63193256 3:1.1682682 
10 1:47.051411 2:0.41628086 3:1.2229513 
10 1:47.085615 2:0.21248875 3:1.2703141 
10 1:47.117356 2:0.019363155 3:1.3078861 
10 1:47.147225 2:-0.17072911 3:1.3299148 
10 1:47.175812 2:-0.36544025 3:1.3306379 
10 1:47.203545 2:-0.57086919 3:1.3049761 
10 1:47.229415 2:-0.77959589 3:1.2537952 
10 1:47.251678 2:-0.97723945 3:1.1810219 
10 1:47.268581 2:-1.1493615 3:1.0906082 
10 1:47.278484 2:-1.2825391 3:0.98609705 
10 1:47.281039 2:-1.3751563 3:0.86627321 
10 1:47.276731 2:-1.4332139 3:0.72685204 
-10 1:47.199214 2:-1.4031707 3:-0.068761331 
-10 1:47.165351 2:-1.3148686 3:-0.29650782 
-10 1:47.125659 2:-1.1804441 3:-0.51415293 
10 1:47.037848 2:-0.81486138 3:-0.88697299 
-10 1:46.963151 2:-0.46105397 3:-1.135852 
-10 1:46.937331 2:-0.32790976 3:-1.2046 
-10 1:46.917643 2:-0.21750844 3:-1.2428669 
-10 1:46.90196 2:-0.11982889 3:-1.2578299 
-10 1:46.88817 2:-0.024921647 3:-1.2566139 
-10 1:46.875079 2:0.072863696 3:-1.2431987 
-10 1:46.862919 2:0.17251397 3:-1.2166904 
-10 1:46.852041 2:0.27244281 3:-1.1757753 
-10 1:46.842799 2:0.37106164 3:-1.1191615 
10 1:46.829435 2:0.55642254 3:-0.96913101 
10 1:46.824796 2:0.63835084 3:-0.88902178 
10 1:46.821145 2:0.70987046 3:-0.81476064 
10 1:46.818233 2:0.77142673 3:-0.74833097 
10 1:46.815895 2:0.83050927 3:-0.67959169 
10 1:46.81398 2:0.8956673 3:-0.59657796 
10 1:46.812334 2:0.97544774 3:-0.48732699 
10 1:46.811128 2:1.0733422 3:-0.34440975 
10 1:46.811545 2:1.177068 3:-0.17454419 
-10 1:46.822759 2:1.3406093 3:0.20815343 
-10 1:48.079194 2:0.44309263 3:-1.0529518 
-10 1:48.076726 2:0.53091751 3:-1.025842 
-10 1:48.073338 2:0.60901728 3:-0.98624167 
-10 1:48.068954 2:0.68415383 3:-0.93354704 
-10 1:48.063498 2:0.76306123 3:-0.86715498 
-10 1:48.056921 2:0.84835814 3:-0.78656178 
-10 1:48.049225 2:0.93423534 3:-0.69146734 
10 1:48.030511 2:1.0805622 3:-0.45674358 
10 1:48.019645 2:1.1331659 3:-0.31863476 
10 1:48.008095 2:1.1764809 3:-0.17113169 
10 1:47.996146 2:1.2156368 3:-0.018206602 
10 1:47.984058 2:1.2547514 3:0.13651896 
10 1:47.971853 2:1.2872119 3:0.29314275 
10 1:47.959407 2:1.2999426 3:0.45400269 
10 1:47.946594 2:1.2797789 3:0.62146747 
-10 1:47.909118 2:0.95250728 3:1.126345 
-10 1:47.899844 2:0.75733644 3:1.2576992 
-10 1:47.893367 2:0.52410723 3:1.3548649 
-10 1:47.889318 2:0.26169124 3:1.4221614 
-10 1:47.887094 2:-0.6009437 3:1.4994557 
-10 1:47.889791 2:-0.87086394 3:1.4795944 
-10 1:47.895234 2:-1.1051439 3:1.422089 
-10 1:47.904075 2:-1.2880305 3:1.3175848 
-10 1:47.916275 2:-1.4154545 3:1.1663497 
-10 1:47.931287 2:-1.4919838 3:0.97576572 
-10 1:47.948549 2:-1.5223886 3:0.75338118 
1.436169598697655 1:48.005438 2:-1.3931054 3:0.0075982685 
10 1:48.046623 2:-1.075101 3:-0.54490209 
10 1:48.055653 2:-0.95589518 3:-0.66881337 
10 1:48.063299 2:-0.83916504 3:-0.77463643 
0.5138091619013619 1:48.069892 2:-0.72725581 3:-0.86649578 
10 1:48.083055 2:-0.27107385 3:-1.0629884 
10 1:48.08327 2:-0.14745166 3:-1.0727222 
10 1:48.08296 2:-0.021917936 3:-1.0757421 
10 1:48.082502 2:0.1037602 3:-1.0768502 
-10 1:48.079194 2:0.44309263 3:-1.0529518 
-10 1:48.866165 2:1.1810941 3:-0.45080136 
-10 1:48.879557 2:1.2799566 3:-0.2651769 
-10 1:48.896126 2:1.3475365 3:-0.070955622 
-10 1:48.934226 2:1.4036716 3:0.31138032 
-10 1:48.95372 2:1.3981617 3:0.48485349 
-10 1:48.973602 2:1.365649 3:0.64436027 
-10 1:48.994669 2:1.2983401 3:0.79210673 
-10 1:49.017721 2:1.1884405 3:0.93029993 
-10 1:49.04336 2:1.0298945 3:1.0605014 
10 1:49.17588 2:-0.20716843 3:1.463131 
10 1:49.195562 2:-0.47606517 3:1.4677945 
10 1:49.210887 2:-0.73197662 3:1.4412906 
10 1:49.221034 2:-0.96649295 3:1.3816243 
-10 1:49.213573 2:-1.444701 3:1.0042845 
-10 1:49.196406 2:-1.4961155 3:0.8150936 
10 1:49.143976 2:-1.4413983 3:0.3743824 
10 1:49.113106 2:-1.3625271 3:0.1450921 
10 1:49.082052 2:-1.2674521 3:-0.07536921 
10 1:49.052325 2:-1.164485 3:-0.27867136 
10 1:49.024762 2:-1.056703 3:-0.45921337 
-10 1:48.97933 2:-0.83805164 3:-0.73024744 
-10 1:48.962314 2:-0.73139324 3:-0.81573092 
-10 1:48.948288 2:-0.62663048 3:-0.87528601 
10 1:48.915647 2:-0.31913047 3:-0.97264086 
10 1:48.906318 2:-0.21738319 3:-0.99149766 
10 1:48.897721 2:-0.11526852 3:-1.00346 
10 1:48.889904 2:-0.012354871 3:-1.0078296 
10 1:48.882846 2:0.090142636 3:-1.0055683 
10 1:48.876402 2:0.18781078 3:-1.0008627 
10 1:48.87041 2:0.27586891 3:-0.99826939 
10 1:48.864711 2:0.34955076 3:-1.0023318 
-10 1:48.854552 2:0.46623887 3:-1.0190401 
-10 1:48.850909 2:0.53523728 3:-1.0074582 
-10 1:48.848805 2:0.6298646 3:-0.96530951 
-10 1:48.848707 2:0.75727517 3:-0.88371871 
-10 1:48.851179 2:0.9035939 3:-0.76654573 
-10 1:48.856804 2:1.0508554 3:-0.6201276 
-10 1:48.866165 2:1.1810941 3:-0.45080136 
-10 1:50.131748 2:1.3173689 3:0.7905744 
-10 1:50.113692 2:1.2433842 3:0.94924885 
-10 1:50.091437 2:1.1218394 3:1.0687556 
-10 1:50.064359 2:0.95248975 3:1.1603886 
-10 1:50.032102 2:0.73669015 3:1.2343124 
10 1:49.995696 2:0.48401791 3:1.2948846 
10 1:49.956617 2:0.20668548 3:1.3446016 
10 1:49.916341 2:-0.083093501 3:1.3859592 
10 1:49.876428 2:-0.3729026 3:1.4202974 
10 1:49.839023 2:-0.64897734 3:1.4412728 
-10 1:49.806506 2:-0.89700331 3:1.4394077 
-10 1:49.781255 2:-1.1026645 3:1.4052152 
-10 1:49.765403 2:-1.2532763 3:1.3298837 
-10 1:49.758903 2:-1.3503539 3:1.210479 
-10 1:49.76059 2:-1.4027239 3:1.0470932 
4.450071347556706 1:49.7838 2:-1.4085866 3:0.59012174 
10 1:49.802604 2:-1.3757322 3:0.31414417 
-10 1:49.846201 2:-1.2546825 3:-0.21330202 
-10 1:49.867627 2:-1.1718971 3:-0.41414707 
-10 1:49.887908 2:-1.0759696 3:-0.56021944 
-10 1:49.907732 2:-0.96624259 3:-0.66302633 
-10 1:49.92782 2:-0.84201697 3:-0.73453188 
-8.073729284358683 1:49.948853 2:-0.70281382 3:-0.78650362 
10 1:49.970607 2:-0.55322105 3:-0.82618689 
10 1:49.991956 2:-0.40289333 3:-0.85630482 
10 1:50.011734 2:-0.26170562 3:-0.87938394 
10 1:50.028798 2:-0.1393407 3:-0.8979293 
10 1:50.04286 2:-0.038695644 3:-0.91368726 
10 1:50.05469 2:0.045769565 3:-0.9274609 
10 1:50.065125 2:0.12012237 3:-0.93999436 
10 1:50.074998 2:0.19040455 3:-0.952015 
10 1:50.084887 2:0.26111822 3:-0.96324596 
10 1:50.094972 2:0.334379 3:-0.97185385 
10 1:50.105403 2:0.4120972 3:-0.97587132 
10 1:50.116325 2:0.49616597 3:-0.97333777 
10 1:50.127654 2:0.58639851 3:-0.96310229 
-10 1:50.158535 2:0.84996603 3:-0.89110941 
-10 1:50.165925 2:0.92237082 3:-0.85049338 
-10 1:50.171208 2:0.98929373 3:-0.78345997 
10 1:50.174348 2:1.1268193 3:-0.49868171 
10 1:50.17171 2:1.2035032 3:-0.25626033 
10 1:50.166151 2:1.2744537 3:0.027470064 
10 1:50.157661 2:1.3258918 3:0.31815456 
-10 1:51.012435 2:0.12813005 3:-1.2197382 
-10 1:50.98911 2:0.28323079 3:-1.2055597 
-10 1:50.965508 2:0.43719533 3:-1.1741007 
-10 1:50.941714 2:0.58893513 3:-1.1223984 
-10 1:50.917814 2:0.73736167 3:-1.0474899 
-10 1:50.894012 2:0.88077345 3:-0.94758271 
-10 1:50.871135 2:1.0143177 3:-0.8269005 
-10 1:50.850211 2:1.1321317 3:-0.6915951 
-10 1:50.832266 2:1.2283522 3:-0.5478192 
-10 1:50.818159 2:1.298126 3:-0.40106176 
10 1:50.794582 2:1.3783268 3:0.053540039 
10 1:50.790807 2:1.3762716 3:0.21199103 
10 1:50.789635 2:1.3563228 3:0.37222231 
10 1:50.792769 2:1.3075491 3:0.53094093 
10 1:50.801918 2:1.2189787 3:0.68484347 
10 1:50.818594 2:1.0809321 3:0.83085303 
10 1:50.842019 2:0.89875127 3:0.96852657 
10 1:50.869934 2:0.68746997 3:1.0991202 
10 1:50.900056 2:0.46228332 3:1.2239185 
10 1:50.930183 2:0.23793402 3:1.3436923 
-10 1:50.98781 2:-0.18405561 3:1.5317768 
-10 1:51.015563 2:-0.37849439 3:1.5717935 
-10 1:51.042779 2:-0.55983445 3:1.5573699 
-10 1:51.06912 2:-0.72567095 3:1.4878041 
-10 1:51.093787 2:-0.87274951 3:1.3753689 
6.744291460882499 1:51.115963 2:-0.99777879 3:1.2329012 
10 1:51.134843 2:-1.0975165 3:1.0730592 
10 1:51.150039 2:-1.1704524 3:0.9021904 
10 1:51.161686 2:-1.2172298 3:0.71879625 
10 1:51.169948 2:-1.2386264 3:0.52088755 
10 1:51.174994 2:-1.2354442 3:0.30659115 
10 1:51.177025 2:-1.2099245 3:0.080994013 
10 1:51.176293 2:-1.1665404 3:-0.14002875 
-10 1:51.160247 2:-0.97501612 3:-0.61800876 
-10 1:51.151742 2:-0.90279868 3:-0.70290373 
-10 1:51.142761 2:-0.83028573 3:-0.77101939 
-10 1:51.134004 2:-0.75957767 3:-0.83745162 
-10 1:51.125692 2:-0.69053678 3:-0.91157284 
-10 1:51.116872 2:-0.61753884 3:-0.98872551 
-10 1:51.106416 2:-0.53413438 3:-1.0621417 
-10 1:51.093193 2:-0.43387507 3:-1.1250541 
-10 1:51.076494 2:-0.31285861 3:-1.1722509 
-10 1:51.056906 2:-0.17512725 3:-1.2033735 
-10 1:51.035273 2:-0.026268526 3:-1.2190074 
-10 1:51.012435 2:0.12813005 3:-1.2197382 
-10 1:51.838623 2:1.3801672 3:-0.03723828 
-10 1:51.852798 2:1.4591482 3:0.1443648 
-10 1:51.870436 2:1.4928656 3:0.31284032 
-10 1:51.891782 2:1.4841939 3:0.47265717 
-10 1:51.917079 2:1.4360077 3:0.62828428 
-10 1:51.946528 2:1.3512269 3:0.78390419 
-10 1:51.97955 2:1.2336193 3:0.93833154 
-10 1:52.014874 2:1.0877064 3:1.0856136 
-10 1:52.051205 2:0.91803567 3:1.2196318 
-10 1:52.087246 2:0.72915416 3:1.3342679 
-10 1:52.121835 2:0.52491793 3:1.423826 
-10 1:52.154211 2:0.30707422 3:1.4838983 
-10 1:52.183692 2:0.076969375 3:1.510322 
10 1:52.231216 2:-0.41397091 3:1.4460288 
10 1:52.24763 2:-0.66210265 3:1.3538335 
10 1:52.257745 2:-0.89168772 3:1.2287269 
-10 1:52.254716 2:-1.2277194 3:0.90563136 
-10 1:52.240255 2:-1.3086988 3:0.71999919 
-10 1:52.218887 2:-1.3395081 3:0.52484186 
5.516148494842777 1:52.163787 2:-1.3046134 3:0.12345333 
10 1:52.134135 2:-1.2649027 3:-0.073906186 
-10 1:52.049354 2:-1.0914495 3:-0.58483671 
-10 1:52.024322 2:-1.0083382 3:-0.70727261 
-10 1:52.001585 2:-0.9110784 3:-0.79909943 
10 1:51.962493 2:-0.68958431 3:-0.90863087 
10 1:51.94582 2:-0.57369644 3:-0.93626771 
10 1:51.930839 2:-0.45974662 3:-0.95234684 
10 1:51.917307 2:-0.3503214 3:-0.96109069 
10 1:51.904946 2:-0.24741634 3:-0.9664447 
10 1:51.893481 2:-0.15302487 3:-0.9723533 
10 1:51.882637 2:-0.069088346 3:-0.982699 
10 1:51.872237 2:0.0049872068 3:-0.99834723 
10 1:51.86224 2:0.073421208 3:-1.0158492 
10 1:51.852619 2:0.14071189 3:-1.0314242 
10 1:51.843345 2:0.2113575 3:-1.0412916 
10 1:51.834469 2:0.289798 3:-1.0410839 
10 1:51.826473 2:0.38016692 3:-1.0233456 
10 1:51.819979 2:0.48649732 3:-0.97960935 
10 1:51.815606 2:0.61282224 3:-0.90140722 
10 1:51.813967 2:0.76285025 3:-0.78063273 
10 1:51.815409 2:0.93095669 3:-0.61957803 
10 1:51.819978 2:1.1010079 3:-0.43224384 
10 1:51.827706 2:1.2563095 3:-0.23325548 
-10 1:51.838623 2:1.3801672 3:-0.03723828 
10 1:52.804979 2:1.2949714 3:0.039906763 
-10 1:52.853921 2:1.40888 3:0.55573823 
-10 1:52.875553 2:1.3869779 3:0.69717636 
-1.180978970074018 1:52.900838 2:1.3299831 3:0.82487512 
10 1:52.963377 2:1.1077898 3:1.0434092 
10 1:53.000764 2:0.94371916 3:1.1366199 
10 1:53.04231 2:0.74512486 3:1.220712 
10 1:53.087483 2:0.51514054 3:1.2953059 
10 1:53.133935 2:0.26464768 3:1.3552358 
10 1:53.178971 2:0.0060004514 3:1.3944257 
10 1:53.219898 2:-0.24844696 3:1.4067998 
-10 1:53.280264 2:-0.70079254 3:1.3327322 
-10 1:53.297829 2:-0.88591067 3:1.2470879 
-10 1:53.306326 2:-1.0371481 3:1.1317492 
-10 1:53.30527 2:-1.1496503 3:0.9887718 
-10 1:53.29491 2:-1.2221971 3:0.8215472 
10 1:53.254416 2:-1.2779107 3:0.44091825 
10 1:53.228723 2:-1.2781565 3:0.24146952 
10 1:53.202189 2:-1.2704832 3:0.044995451 
10 1:53.175271 2:-1.2540982 3:-0.1440171 
10 1:53.147553 2:-1.2235873 3:-0.32231483 
7.430695559066383 1:53.118606 2:-1.1734893 3:-0.48665703 
-10 1:52.838754 2:0.12095749 3:-1.1049256 
-10 1:52.826872 2:0.20111726 3:-1.1009812 
-10 1:52.814802 2:0.28837483 3:-1.0899876 
-10 1:52.802226 2:0.38749102 3:-1.0687182 
-10 1:52.790148 2:0.49746962 3:-1.0305661 
-10 1:52.78001 2:0.61542791 3:-0.96781678 
-10 1:52.773253 2:0.73848204 3:-0.8727548 
-10 1:52.771281 2:0.86371177 3:-0.73800213 
10 1:52.781717 2:1.1036453 3:-0.36963764 
10 1:52.792234 2:1.2079898 3:-0.16309897 
10 1:52.804979 2:1.2949714 3:0.039906763 
10 1:54.164222 2:0.77413496 3:-0.7130361 
10 1:54.165551 2:0.90275109 3:-0.58896291 
10 1:54.164307 2:1.0305252 3:-0.44173889 
10 1:54.160115 2:1.1489968 3:-0.27683691 
10 1:54.152599 2:1.2497053 3:-0.099729862 
10 1:54.141475 2:1.3252729 3:0.084412313 
10 1:54.126924 2:1.3738868 3:0.27197712 
10 1:54.109276 2:1.3955182 3:0.45985121 
7.361823460132058 1:54.08886 2:1.3901389 3:0.64492142 
-10 1:54.041384 2:1.2982066 3:0.99100051 
-10 1:54.015557 2:1.2115484 3:1.1403759 
-10 1:53.989218 2:1.0976872 3:1.2656744 
-10 1:53.962947 2:0.95644524 3:1.3612712 
-10 1:53.936647 2:0.78658938 3:1.4267777 
-10 1:53.909868 2:0.58634278 3:1.464501 
8.042589089148581 1:53.853236 2:0.088766226 3:1.4656507 
10 1:53.824745 2:-0.19558547 3:1.4301197 
-10 1:53.780661 2:-0.73111595 3:1.2737413 
-10 1:53.770746 2:-0.93774065 3:1.1471088 
-10 1:53.770169 2:-1.0914099 3:0.98942045 
-10 1:53.777304 2:-1.2006964 3:0.80676451 
-10 1:53.790471 2:-1.2745561 3:0.60534053 
-10 1:53.851764 2:-1.348061 3:-0.045415943 
-10 1:53.876448 2:-1.3260482 3:-0.25271742 
-10 1:53.901994 2:-1.2797514 3:-0.44230721 
-10 1:53.927661 2:-1.2106249 3:-0.60879148 
-10 1:53.952723 2:-1.1226925 3:-0.7496671 
-10 1:53.976456 2:-1.0201386 3:-0.86261169 
-10 1:53.998142 2:-0.90716325 3:-0.94536052 
-10 1:54.017326 2:-0.78888752 3:-0.99911057 
-10 1:54.033968 2:-0.67186079 3:-1.0304244 
-10 1:54.04806 2:-0.56275525 3:-1.0463261 
-10 1:54.059601 2:-0.46820065 3:-1.0538214 
10 1:54.094082 2:-0.16122846 3:-1.0502634 
10 1:54.104639 2:-0.059490205 3:-1.0409447 
10 1:54.116096 2:0.05491008 3:-1.0265947 
10 1:54.127607 2:0.17597844 3:-1.0056746 
10 1:54.138326 2:0.29772179 3:-0.9766452 
10 1:54.147555 2:0.41605919 3:-0.93730342 
10 1:54.155051 2:0.53287636 3:-0.88337371 
10 1:54.160658 2:0.65121954 3:-0.81017747 
10 1:54.164222 2:0.77413496 3:-0.7130361 
-10 1:55.176132 2:0.7737992 3:-0.85950166 
-10 1:55.193533 2:0.93412707 3:-0.73516169 
-10 1:55.205325 2:1.0669767 3:-0.59053864 
-10 1:55.212275 2:1.1751684 3:-0.43072768 
-10 1:55.215149 2:1.2615225 3:-0.26082395 
-6.839024636359801 1:55.214691 2:1.3287639 3:-0.08582924 
-10 1:55.204842 2:1.4080535 3:0.26798125 
-10 1:55.195445 2:1.4187332 3:0.44345674 
-10 1:55.183057 2:1.409153 3:0.61578788 
-10 1:55.16752 2:1.3774336 3:0.78275175 
-10 1:55.148231 2:1.3181347 3:0.94035707 
-10 1:55.124498 2:1.2251392 3:1.0842765 
-10 1:55.095633 2:1.0923302 3:1.2101825 
-10 1:55.061077 2:0.91448425 3:1.3138634 
3.948354678193803 1:54.980824 2:0.4573904 3:1.4447624 
10 1:54.939934 2:0.20735231 3:1.4686842 
10 1:54.815848 2:-0.66890339 3:1.2482077 
10 1:54.797667 2:-0.8417462 3:1.1050073 
10 1:54.785043 2:-0.99448948 3:0.9239355 
10 1:54.777914 2:-1.1238969 3:0.7140329 
10 1:54.776083 2:-1.2254343 3:0.48972998 
10 1:54.779353 2:-1.2945539 3:0.26551243 
10 1:54.78752 2:-1.326753 3:0.055815502 
10 1:54.883476 2:-1.0213521 3:-0.70221825 
10 1:54.899632 2:-0.94057016 3:-0.75660065 
10 1:54.916411 2:-0.85094939 3:-0.79879087 
10 1:54.934445 2:-0.75002578 3:-0.83267234 
10 1:54.953634 2:-0.63989762 3:-0.86189454 
10 1:54.97283 2:-0.52918702 3:-0.88977237 
10 1:54.990804 2:-0.42701779 3:-0.91959498 
10 1:55.006326 2:-0.34251377 3:-0.95465153 
10 1:55.018615 2:-0.28140424 3:-0.99684445 
10 1:55.029239 2:-0.23155984 3:-1.0407806 
-10 1:55.054857 2:-0.093736823 3:-1.1027461 
-10 1:55.074451 2:0.029639256 3:-1.1053284 
-10 1:55.099211 2:0.196074 3:-1.0823156 
-10 1:55.126358 2:0.38796998 3:-1.0336019 
-10 1:55.152972 2:0.58674058 3:-0.95929467 
-10 1:55.176132 2:0.7737992 3:-0.85950166 
-10 1:56.020251 2:0.76940699 3:-0.94078121 
-10 1:56.025261 2:0.87998047 3:-0.86738624 
-10 1:56.029936 2:0.97664629 3:-0.77402433 
-10 1:56.034251 2:1.0589641 3:-0.6612444 
-10 1:56.038185 2:1.1264934 3:-0.52959539 
-10 1:56.041715 2:1.1788239 3:-0.3797247 
2.738961563877811 1:56.044823 2:1.2161077 3:-0.21412613 
10 1:56.047491 2:1.2389963 3:-0.036933224 
10 1:56.049703 2:1.2481588 3:0.14766344 
10 1:56.051443 2:1.2442636 3:0.33547315 
10 1:56.052662 2:1.2271858 3:0.52203927 
10 1:56.053207 2:1.1943791 3:0.70209376 
10 1:56.052909 2:1.142837 3:0.87021429 
10 1:56.051596 2:1.0695531 3:1.0209786 
8.663162320263984 1:56.033928 2:0.51509049 3:1.3935646 
10 1:56.02621 2:0.30541583 3:1.4314917 
10 1:56.017269 2:0.069605213 3:1.4482515 
10 1:56.007589 2:-0.17914834 3:1.4412149 
10 1:55.997703 2:-0.42622782 3:1.4073872 
-10 1:55.979422 2:-0.85787496 3:1.2478078 
-10 1:55.971714 2:-1.0243588 3:1.1209321 
-10 1:55.965036 2:-1.1570597 3:0.96678831 
-10 1:55.9594 2:-1.2566213 3:0.78904043 
10 1:55.951287 2:-1.3597793 3:0.37897836 
10 1:55.948767 2:-1.3679093 3:0.15986651 
10 1:55.947219 2:-1.3512866 3:-0.057675625 
10 1:55.946603 2:-1.3131124 3:-0.26535617 
-10 1:55.949782 2:-1.1003433 3:-0.76595421 
-10 1:55.952252 2:-1.0065646 3:-0.88047985 
-10 1:55.955288 2:-0.90624326 3:-0.9638748 
-10 1:55.958816 2:-0.80101017 3:-1.0172578 
-10 1:55.962774 2:-0.69065158 3:-1.0475547 
-10 1:55.967102 2:-0.57481192 3:-1.0621381 
10 1:55.97663 2:-0.32543464 3:-1.072605 
10 1:55.981739 2:-0.19240235 3:-1.0756134 
10 1:55.987038 2:-0.055020942 3:-1.076398 
10 1:55.9925 2:0.085727231 3:-1.0739504 
10 1:55.998095 2:0.22882137 3:-1.0672225 
-10 1:56.009411 2:0.51229573 3:-1.0309133 
-10 1:56.014939 2:0.64586588 3:-0.99434015 
-10 1:56.020251 2:0.76940699 3:-0.94078121 
10 1:57.070103 2:1.036407 3:-0.35964799 
10 1:57.077213 2:1.1110782 3:-0.22759474 
