svm_type epsilon_svr
kernel_type rbf
gamma 0.1
nr_class 2
total_sv 6588
rho 5.80785
SV
10 1:0.906769 2:-0.984381 3:-1.620574 
10 1:0.91583 2:-0.666757 3:-1.74637 
10 1:0.914865 2:-0.453221 3:-1.754192 
10 1:0.906225 2:-0.31708 3:-1.671905 
10 1:0.892263 2:-0.231644 3:-1.527377 
10 1:0.875329 2:-0.17022 3:-1.348475 
6.265275275286289 1:0.857776 2:-0.106116 3:-1.163066 
-10 1:0.841955 2:-0.012642 3:-0.999018 
-10 1:0.829704 2:0.130386 3:-0.878051 
-10 1:0.8048 2:0.412637 3:-0.631404 
-10 1:0.789114 2:0.514494 3:-0.46954 
-10 1:0.774238 2:0.633853 3:-0.317992 
-10 1:0.762534 2:0.788215 3:-0.203941 
-10 1:0.755685 2:0.970378 3:-0.145076 
10 1:0.738529 2:1.303408 3:0.01294 
10 1:0.728027 2:1.471542 3:0.112732 
10 1:0.721424 2:1.671268 3:0.167418 
10 1:0.71075 2:1.793551 3:0.273013 
10 1:0.692734 2:1.776985 3:0.470385 
10 1:0.676126 2:1.688229 3:0.658623 
10 1:0.664311 2:1.559725 3:0.798149 
-3.524130777883101 1:0.656932 2:1.397664 3:0.892307 
-10 1:0.652035 2:1.217865 3:0.96099 
-10 1:0.645385 2:1.050693 3:1.047651 
-10 1:0.634401 2:0.914333 3:1.178814 
9.063017609000816 1:0.613385 2:0.424305 3:1.449428 
10 1:0.619664 2:-0.148517 3:1.430274 
10 1:0.626733 2:-0.336136 3:1.36949 
10 1:0.639073 2:-0.479057 3:1.247536 
-10 1:0.655462 2:-0.560734 3:1.076303 
-10 1:0.671237 2:-0.655327 3:0.912849 
-10 1:0.685806 2:-0.777055 3:0.764839 
-10 1:0.752509 2:-1.005375 3:0.058965 
-10 1:0.769904 2:-1.039461 3:-0.127304 
-5.29012104220732 1:0.821852 2:-1.11844 3:-0.685517 
-10 1:0.839279 2:-1.108853 3:-0.87587 
-10 1:0.856357 2:-1.085765 3:-1.063588 
10 1:1.4648 2:-0.663184 3:-1.616344 
10 1:1.441275 2:-0.490274 3:-1.551482 
10 1:1.4176 2:-0.333932 3:-1.466453 
10 1:1.39383 2:-0.192021 3:-1.364229 
10 1:1.370016 2:-0.062402 3:-1.24778 
10 1:1.346211 2:0.057063 3:-1.120077 
10 1:1.322469 2:0.168511 3:-0.984091 
-10 1:1.275383 2:0.375911 3:-0.699154 
-10 1:1.252145 2:0.476139 3:-0.556144 
-10 1:1.22918 2:0.576903 3:-0.416735 
-10 1:1.206447 2:0.68089 3:-0.28348 
-10 1:1.183315 2:0.794234 3:-0.156322 
-10 1:1.158928 2:0.924405 3:-0.034191 
-10 1:1.13249 2:1.078175 3:0.084049 
-10 1:1.104712 2:1.246291 3:0.200957 
-10 1:1.077805 2:1.403485 3:0.320519 
-10 1:1.022322 2:1.318484 3:1.024721 
-10 1:1.027213 2:1.17331 3:1.133407 
-10 1:1.035064 2:1.021494 3:1.21703 
-10 1:1.045388 2:0.862814 3:1.281193 
-10 1:1.057832 2:0.697311 3:1.329701 
-10 1:1.072175 2:0.525265 3:1.364683 
-10 1:1.088199 2:0.346967 3:1.388205 
10 1:1.124484 2:-0.023214 3:1.403931 
10 1:1.144504 2:-0.202736 3:1.384957 
10 1:1.165667 2:-0.3671 3:1.336477 
10 1:1.18789 2:-0.507869 3:1.249956 
10 1:1.211012 2:-0.624426 3:1.126494 
10 1:1.234766 2:-0.726045 3:0.979378 
10 1:1.258881 2:-0.822632 3:0.822677 
10 1:1.283012 2:-0.920833 3:0.667607 
10 1:1.306525 2:-1.014329 3:0.514054 
10 1:1.328715 2:-1.093586 3:0.359095 
10 1:1.348878 2:-1.149069 3:0.199803 
10 1:1.366407 2:-1.172512 3:0.033576 
10 1:1.381637 2:-1.16754 3:-0.139184 
-7.915142889924251 1:1.408585 2:-1.112953 3:-0.496085 
-10 1:1.421912 2:-1.082851 3:-0.676063 
-10 1:1.435093 2:-1.053247 3:-0.853893 
-10 1:1.447164 2:-1.01707 3:-1.026878 
-10 1:1.457147 2:-0.967148 3:-1.192317 
-10 1:1.464065 2:-0.896308 3:-1.347508 
-10 1:1.667389 2:-0.954628 3:-1.435269 
-10 1:1.659257 2:-0.754177 3:-1.397257 
-10 1:1.654595 2:-0.571917 3:-1.334448 
-10 1:1.652668 2:-0.40375 3:-1.251957 
-10 1:1.652738 2:-0.245582 3:-1.154904 
-10 1:1.65407 2:-0.093314 3:-1.048405 
-10 1:1.655928 2:0.057148 3:-0.937578 
10 1:1.655267 2:0.714434 3:-0.54412 
10 1:1.65472 2:0.880757 3:-0.448486 
10 1:1.658403 2:1.02049 3:-0.325319 
10 1:1.668701 2:1.118757 3:-0.159034 
-10 1:1.682467 2:1.194098 3:0.029136 
-10 1:1.692164 2:1.291577 3:0.188736 
10 1:1.682678 2:1.650772 3:0.309435 
10 1:1.687428 2:1.763276 3:0.427043 
10 1:1.707415 2:1.758022 3:0.630442 
10 1:1.729813 2:1.684868 3:0.817403 
10 1:1.750998 2:1.571426 3:0.967296 
5.149803676129208 1:1.771201 2:1.435208 3:1.093168 
10 1:1.810344 2:1.132144 3:1.313207 
10 1:1.830339 2:0.960497 3:1.415355 
10 1:1.848515 2:0.779413 3:1.492956 
10 1:1.861442 2:0.597835 3:1.515992 
10 1:1.866278 2:0.424392 3:1.460356 
-10 1:1.860601 2:0.123465 3:1.218418 
-10 1:1.856345 2:-0.013027 3:1.091297 
-10 1:1.853903 2:-0.16445 3:0.973847 
-10 1:1.853167 2:-0.331769 3:0.864347 
-10 1:1.848629 2:-0.464411 3:0.736657 
-10 1:1.834991 2:-0.5134 3:0.565854 
-10 1:1.815346 2:-0.506644 3:0.366906 
-10 1:1.796279 2:-0.504877 3:0.1709 
-10 1:1.783425 2:-0.562213 3:0.003114 
-10 1:1.778594 2:-0.695732 3:-0.128136 
-10 1:1.776663 2:-0.854551 3:-0.244815 
-10 1:1.773855 2:-1.000009 3:-0.362424 
10 1:1.779352 2:-1.366532 3:-0.52881 
10 1:1.776082 2:-1.475778 3:-0.629141 
10 1:1.758272 2:-1.44352 3:-0.793585 
10 1:1.73328 2:-1.358309 3:-1.000026 
-10 1:2.559735 2:-1.069765 3:-1.381596 
-10 1:2.527944 2:-0.909074 3:-1.305736 
-10 1:2.496794 2:-0.730035 3:-1.259376 
-10 1:2.466078 2:-0.541338 3:-1.22941 
-1.103773788725489 1:2.43559 2:-0.351674 3:-1.202735 
10 1:2.374473 2:-0.004209 3:-1.106833 
10 1:2.343432 2:0.136209 3:-1.011398 
10 1:2.311844 2:0.249514 3:-0.875947 
10 1:2.182426 2:0.811957 3:-0.448278 
-10 1:2.086761 2:1.152394 3:-0.034557 
-10 1:2.055086 2:1.260965 3:0.10781 
-10 1:2.023884 2:1.36465 3:0.252269 
-10 1:1.993677 2:1.452141 3:0.408831 
-10 1:1.96589 2:1.511609 3:0.580079 
-10 1:1.942823 2:1.530714 3:0.761449 
10 1:1.922075 2:1.292942 3:1.254948 
10 1:1.935871 2:1.137418 3:1.3332 
2.691846452835684 1:1.957879 2:0.960803 3:1.365389 
10 1:2.027925 2:0.415755 3:1.445724 
10 1:2.052809 2:0.240484 3:1.450475 
10 1:2.082629 2:0.067233 3:1.408496 
10 1:2.115308 2:-0.097374 3:1.329777 
10 1:2.148662 2:-0.246014 3:1.224334 
10 1:2.181301 2:-0.371854 3:1.095733 
10 1:2.211906 2:-0.468153 3:0.947035 
-10 1:2.293729 2:-0.638627 3:0.436764 
-10 1:2.322052 2:-0.7051 3:0.269807 
-10 1:2.352025 2:-0.790303 3:0.112368 
10 1:2.416358 2:-1.017679 3:-0.167873 
10 1:2.449195 2:-1.143813 3:-0.297869 
10 1:2.480012 2:-1.248225 3:-0.437951 
10 1:2.507053 2:-1.309911 3:-0.599651 
10 1:2.530186 2:-1.330762 3:-0.779349 
10 1:2.649202 2:-1.605337 3:-1.366452 
6.468067834701432 1:2.675853 2:-1.42067 3:-1.367434 
-10 1:2.726309 2:-1.052448 3:-1.341187 
-10 1:2.750027 2:-0.869693 3:-1.314237 
-10 1:2.772677 2:-0.688376 3:-1.278256 
-10 1:2.794217 2:-0.508896 3:-1.233383 
10 1:2.868386 2:0.182642 3:-0.967766 
10 1:2.883708 2:0.346929 3:-0.880525 
10 1:2.897396 2:0.505908 3:-0.784133 
10 1:2.908513 2:0.655488 3:-0.674939 
10 1:2.916533 2:0.793219 3:-0.551103 
10 1:2.922822 2:0.924314 3:-0.419106 
10 1:2.92919 2:1.055781 3:-0.287383 
10 1:2.936966 2:1.192739 3:-0.162153 
10 1:2.944238 2:1.327607 3:-0.034789 
10 1:2.94777 2:1.447598 3:0.109389 
-10 1:2.782942 2:1.100895 3:1.317187 
-10 1:2.753966 2:0.914714 3:1.340313 
-10 1:2.724836 2:0.726843 3:1.362502 
-10 1:2.695919 2:0.543627 3:1.389477 
-5.390117596111948 1:2.652157 2:0.18256 3:1.303713 
-10 1:2.646845 2:0.052934 3:1.163676 
-10 1:2.658374 2:0.010954 3:0.979126 
-10 1:2.675492 2:0.003314 3:0.787757 
-10 1:2.680087 2:-0.065456 3:0.635582 
-10 1:2.66854 2:-0.217159 3:0.52769 
-10 1:2.656039 2:-0.377917 3:0.416147 
-10 1:2.65365 2:-0.493027 3:0.267335 
-10 1:2.657487 2:-0.578883 3:0.097311 
-10 1:2.661082 2:-0.664154 3:-0.06929 
-10 1:2.657989 2:-0.777418 3:-0.207917 
-10 1:2.645798 2:-0.929869 3:-0.31017 
10 1:2.630941 2:-1.09463 3:-0.403015 
10 1:2.620947 2:-1.240079 3:-0.517777 
10 1:2.619422 2:-1.350311 3:-0.6683 
10 1:2.624161 2:-1.4327 3:-0.842553 
10 1:2.632487 2:-1.496499 3:-1.026411 
10 1:2.641725 2:-1.55096 3:-1.205752 
10 1:3.477671 2:-1.311636 3:-1.640137 
8.868283462766659 1:3.481209 2:-1.115903 3:-1.622784 
10 1:3.471 2:-0.57342 3:-1.453362 
10 1:3.46246 2:-0.404265 3:-1.368059 
10 1:3.452252 2:-0.239331 3:-1.273487 
10 1:3.440919 2:-0.077646 3:-1.172734 
10 1:3.429001 2:0.081758 3:-1.068886 
10 1:3.416977 2:0.239933 3:-0.964644 
10 1:3.405028 2:0.398332 3:-0.860809 
10 1:3.39324 2:0.55853 3:-0.7576 
10 1:3.381471 2:0.72064 3:-0.654116 
10 1:3.368202 2:0.876169 3:-0.542855 
10 1:3.35142 2:1.013484 3:-0.413904 
6.580203608981842 1:3.329613 2:1.123172 3:-0.259963 
-10 1:3.279042 2:1.284795 3:0.078631 
-10 1:3.253667 2:1.353711 3:0.246118 
-10 1:3.225814 2:1.418685 3:0.427839 
-10 1:3.193247 2:1.479511 3:0.637316 
-10 1:3.158489 2:1.519885 3:0.856023 
-9.325679243506853 1:3.126652 2:1.514745 3:1.048 
-10 1:3.089843 2:1.280899 3:1.224777 
-10 1:3.081705 2:1.07628 3:1.233546 
-10 1:3.070755 2:0.871017 3:1.259235 
-10 1:3.052933 2:0.693478 3:1.332081 
-10 1:3.033851 2:0.525445 3:1.414441 
10 1:3.020161 2:0.34378 3:1.461423 
10 1:3.013247 2:0.151374 3:1.465191 
10 1:3.01203 2:-0.037269 3:1.435174 
10 1:3.016911 2:-0.216975 3:1.369964 
10 1:3.02859 2:-0.384387 3:1.26598 
10 1:3.046987 2:-0.528966 3:1.125796 
10 1:3.070986 2:-0.630635 3:0.960161 
10 1:3.099398 2:-0.668729 3:0.78038 
10 1:3.130722 2:-0.643762 3:0.595442 
-10 1:3.162715 2:-0.607015 3:0.40879 
-10 1:3.193604 2:-0.603191 3:0.222301 
-10 1:3.223715 2:-0.626488 3:0.035152 
-10 1:3.253799 2:-0.660203 3:-0.1539 
-10 1:3.282835 2:-0.705316 3:-0.338857 
-10 1:3.307536 2:-0.785472 3:-0.504482 
-10 1:3.32662 2:-0.90926 3:-0.644711 
-10 1:3.342606 2:-1.056096 3:-0.770721 
-10 1:3.777057 2:-0.793728 3:-1.259957 
-10 1:3.776021 2:-0.627608 3:-1.172701 
-10 1:3.774132 2:-0.473992 3:-1.056544 
-10 1:3.771974 2:-0.324629 3:-0.931323 
-10 1:3.770129 2:-0.171271 3:-0.816876 
-10 1:3.769178 2:-0.005668 3:-0.73304 
-10 1:3.769567 2:0.178481 3:-0.694969 
-10 1:3.770521 2:0.370214 3:-0.676277 
-10 1:3.77063 2:0.549559 3:-0.6289 
-10 1:3.769245 2:0.708743 3:-0.530332 
-10 1:3.767708 2:0.87178 3:-0.424861 
10 1:3.765258 2:1.202619 3:-0.236367 
-1.411401221802394 1:3.758201 2:1.387602 3:0.085901 
-10 1:3.754453 2:1.479316 3:0.255179 
10 1:3.750774 2:1.793036 3:0.485634 
10 1:3.748347 2:1.914361 3:0.613058 
10 1:3.743796 2:1.938045 3:0.793416 
10 1:3.738114 2:1.878913 3:0.993136 
10 1:3.732665 2:1.763236 3:1.167709 
10 1:3.728509 2:1.614237 3:1.283401 
10 1:3.725428 2:1.442362 3:1.351519 
-10 1:3.714301 2:0.338104 3:1.458611 
-10 1:3.717004 2:0.202521 3:1.316578 
-10 1:3.720267 2:0.080759 3:1.157159 
-10 1:3.723363 2:-0.033592 3:1.006233 
-10 1:3.726343 2:-0.148478 3:0.859553 
-10 1:3.729242 2:-0.269278 3:0.714313 
-10 1:3.731955 2:-0.39779 3:0.573922 
-10 1:3.734411 2:-0.534379 3:0.441005 
-10 1:3.736911 2:-0.668508 3:0.307136 
10 1:3.7456 2:-1.031591 3:-0.128598 
10 1:3.745933 2:-1.239051 3:-0.2009 
10 1:3.746091 2:-1.434386 3:-0.263026 
10 1:3.748262 2:-1.524705 3:-0.371771 
10 1:3.753349 2:-1.473976 3:-0.551202 
10 1:3.759046 2:-1.387914 3:-0.743774 
10 1:4.257604 2:-0.928957 3:-1.641965 
10 1:4.233984 2:-0.664745 3:-1.664492 
10 1:4.217913 2:-0.458053 3:-1.627229 
10 1:4.207915 2:-0.297453 3:-1.541457 
10 1:4.202519 2:-0.171515 3:-1.418457 
10 1:4.20025 2:-0.06881 3:-1.269511 
-10 1:4.199199 2:0.112623 3:-0.938909 
-10 1:4.197482 2:0.21412 3:-0.779729 
-10 1:4.19392 2:0.330906 3:-0.632772 
-10 1:4.189482 2:0.455327 3:-0.490868 
-10 1:4.185263 2:0.578747 3:-0.345936 
-10 1:4.181095 2:0.701766 3:-0.200606 
-10 1:4.175001 2:0.838259 3:-0.072908 
-10 1:4.165524 2:0.998496 3:0.024042 
-10 1:4.154785 2:1.167831 3:0.109949 
-10 1:4.146096 2:1.323282 3:0.215503 
-10 1:4.142019 2:1.445457 3:0.361262 
-10 1:4.142694 2:1.526547 3:0.535134 
-10 1:4.147731 2:1.562229 3:0.719791 
-10 1:4.15642 2:1.557277 3:0.908341 
10 1:4.181412 2:1.458515 3:1.285531 
10 1:4.19659 2:1.365678 3:1.450367 
10 1:4.213126 2:1.235445 3:1.573123 
10 1:4.23063 2:1.06947 3:1.648117 
10 1:4.248602 2:0.879957 3:1.687781 
10 1:4.266535 2:0.679767 3:1.705683 
10 1:4.283909 2:0.480731 3:1.713118 
10 1:4.300136 2:0.288096 3:1.706863 
10 1:4.314596 2:0.104517 3:1.677993 
10 1:4.32667 2:-0.067356 3:1.617571 
10 1:4.33589 2:-0.224892 3:1.520066 
10 1:4.342279 2:-0.365529 3:1.39098 
-10 1:4.33118 2:-0.684775 3:0.513865 
-10 1:4.320451 2:-0.655881 3:0.325547 
-10 1:4.316544 2:-0.698185 3:0.153738 
-10 1:4.318768 2:-0.80589 3:-0.006014 
-10 1:4.320495 2:-0.910063 3:-0.170191 
-0.4375617679228828 1:4.316435 2:-0.955508 3:-0.351615 
-10 1:4.309126 2:-0.967606 3:-0.542016 
-10 1:4.302722 2:-0.988749 3:-0.729452 
-10 1:4.297513 2:-1.022828 3:-0.914897 
-1.306231266828494 1:4.632034 2:-0.4742 3:-1.149488 
-10 1:4.640774 2:-0.339681 3:-1.08755 
10 1:4.649234 2:0.300157 3:-1.146723 
10 1:4.651341 2:0.524624 3:-1.176677 
10 1:4.655696 2:0.7209 3:-1.176029 
10 1:4.663861 2:0.868713 3:-1.123349 
10 1:4.677279 2:0.949609 3:-0.998899 
10 1:4.6951 2:0.980313 3:-0.815683 
10 1:4.714393 2:1.009414 3:-0.616359 
-10 1:4.800939 2:1.413674 3:0.213786 
-10 1:4.818874 2:1.435979 3:0.40019 
-10 1:4.836271 2:1.443113 3:0.584396 
-10 1:4.853225 2:1.431605 3:0.768214 
-10 1:4.869886 2:1.396972 3:0.954311 
-10 1:4.886325 2:1.335103 3:1.144406 
1.40472977834071 1:4.91453 2:1.133201 3:1.492932 
10 1:4.923393 2:0.999122 3:1.61896 
10 1:4.926825 2:0.846957 3:1.691196 
10 1:4.924341 2:0.679616 3:1.703768 
-10 1:4.90008 2:0.113571 3:1.576878 
10 1:4.885221 2:-0.485073 3:1.558054 
10 1:4.880834 2:-0.670207 3:1.554458 
10 1:4.873913 2:-0.838533 3:1.519857 
10 1:4.862858 2:-0.984529 3:1.435874 
10 1:4.847732 2:-1.106653 3:1.302822 
10 1:4.829927 2:-1.206533 3:1.13594 
10 1:4.81087 2:-1.28589 3:0.950886 
10 1:4.791928 2:-1.346245 3:0.762618 
10 1:4.773661 2:-1.386481 3:0.57686 
10 1:4.756058 2:-1.40362 3:0.392803 
10 1:4.739098 2:-1.394643 3:0.209503 
10 1:4.722793 2:-1.356633 3:0.02642 
10 1:4.707717 2:-1.288229 3:-0.150632 
-10 1:4.677742 2:-0.912987 3:-0.558591 
-10 1:4.669407 2:-0.770152 3:-0.681023 
-10 1:4.659083 2:-0.644672 3:-0.820653 
-10 1:4.646658 2:-0.543668 3:-0.977004 
-10 1:5.295166 2:-0.259189 3:-0.660139 
-10 1:5.282067 2:-0.066509 3:-0.613046 
-10 1:5.267971 2:0.119494 3:-0.536167 
-10 1:5.253343 2:0.30163 3:-0.442983 
-10 1:5.238643 2:0.482711 3:-0.346971 
-10 1:5.224336 2:0.665545 3:-0.261613 
-10 1:5.210884 2:0.852944 3:-0.200387 
-10 1:5.198443 2:1.047 3:-0.169246 
-10 1:5.186105 2:1.24732 3:-0.148019 
10 1:5.172755 2:1.452495 3:-0.11084 
10 1:5.158416 2:1.639907 3:-0.030423 
10 1:5.144664 2:1.760311 3:0.119613 
10 1:5.132982 2:1.798093 3:0.326294 
10 1:5.124705 2:1.763792 3:0.547757 
10 1:5.121164 2:1.668545 3:0.741493 
-10 1:5.128363 2:1.349433 3:0.977568 
-10 1:5.135405 2:1.159561 3:1.058261 
-10 1:5.142007 2:0.972638 3:1.144863 
-10 1:5.146117 2:0.806034 3:1.260479 
-10 1:5.147058 2:0.666485 3:1.411528 
-10 1:5.149516 2:0.519184 3:1.539235 
-10 1:5.15736 2:0.33476 3:1.595861 
-4.020581804363125 1:5.16877 2:0.125498 3:1.605729 
7.973132888757408 1:5.206307 2:-0.480383 3:1.536818 
-10 1:5.260249 2:-0.870313 3:0.847138 
-10 1:5.270682 2:-0.890386 3:0.645767 
-10 1:5.280962 2:-0.910866 3:0.448208 
-10 1:5.292073 2:-0.951934 3:0.25792 
-10 1:5.304512 2:-1.022866 3:0.075576 
10 1:5.378869 2:-1.010341 3:-1.550831 
10 1:5.36877 2:-0.813713 3:-1.573589 
10 1:5.354937 2:-0.615399 3:-1.517519 
10 1:5.340107 2:-0.441218 3:-1.410195 
-10 1:5.302122 2:-0.202649 3:-0.880315 
-10 1:5.917312 2:-0.506939 3:-0.999456 
-10 1:5.900053 2:-0.336295 3:-0.931769 
-10 1:5.883806 2:-0.163047 3:-0.871823 
-10 1:5.86891 2:0.012249 3:-0.821783 
-10 1:5.855703 2:0.189039 3:-0.783813 
-10 1:5.844479 2:0.366942 3:-0.759814 
-10 1:5.835131 2:0.547082 3:-0.749397 
-4.796233248513881 1:5.82735 2:0.731358 3:-0.751 
10 1:5.808954 2:1.092976 3:-0.732629 
10 1:5.788127 2:1.229306 3:-0.630125 
10 1:5.760635 2:1.330807 3:-0.47134 
10 1:5.730357 2:1.40305 3:-0.284641 
10 1:5.700984 2:1.451531 3:-0.097054 
-0.6347928663151816 1:5.498432 2:0.546946 3:1.567181 
-10 1:5.505149 2:0.36647 3:1.574961 
-10 1:5.514048 2:0.183025 3:1.568623 
-10 1:5.524023 2:-0.004447 3:1.556083 
-10 1:5.534849 2:-0.193295 3:1.538105 
-7.079589332343439 1:5.638564 2:-0.885901 3:1.031755 
-2.476923246964251 1:5.825558 2:-1.109222 3:-0.187973 
-10 1:5.851829 2:-1.102683 3:-0.370682 
9.589525713329559 1:6.105604 2:-0.175926 3:-1.197034 
10 1:6.118212 2:0.010619 3:-1.21498 
10 1:6.132534 2:0.189748 3:-1.211912 
10 1:6.149367 2:0.357322 3:-1.177581 
10 1:6.16946 2:0.509499 3:-1.102364 
10 1:6.192021 2:0.652552 3:-0.998009 
10 1:6.256887 2:1.12166 3:-0.739335 
10 1:6.279666 2:1.243433 3:-0.617753 
10 1:6.303453 2:1.324945 3:-0.458141 
-10 1:6.366834 2:1.400482 3:0.068486 
-10 1:6.387547 2:1.417969 3:0.245734 
-1.974496885316554 1:6.408691 2:1.440152 3:0.423585 
10 1:6.464584 2:1.415398 3:0.953358 
10 1:6.477102 2:1.34009 3:1.121917 
10 1:6.483884 2:1.227612 3:1.264514 
10 1:6.482961 2:1.083042 3:1.359482 
10 1:6.474869 2:0.914281 3:1.406079 
-10 1:6.412046 2:0.029087 3:1.463782 
-10 1:6.391305 2:-0.13255 3:1.3894 
-10 1:6.368192 2:-0.284055 3:1.286035 
-10 1:6.344313 2:-0.422403 3:1.16624 
-10 1:6.320698 2:-0.547336 3:1.039259 
-10 1:6.297295 2:-0.663768 3:0.908148 
-10 1:6.273936 2:-0.777133 3:0.775248 
-10 1:6.250477 2:-0.890224 3:0.641228 
-10 1:6.226806 2:-1.002005 3:0.504331 
10 1:6.134005 2:-1.321605 3:-0.117228 
10 1:6.451151 2:-1.472445 3:-0.909507 
8.153120506714027 1:6.46917 2:-1.199558 3:-0.996117 
-10 1:6.532229 2:-0.777733 3:-0.889582 
-10 1:6.571718 2:-0.597941 3:-0.758058 
-10 1:6.61281 2:-0.418325 3:-0.615442 
-10 1:6.652758 2:-0.225047 3:-0.491142 
-10 1:6.688941 2:-0.011924 3:-0.4078 
-10 1:6.718777 2:0.224916 3:-0.386018 
-10 1:6.745087 2:0.463023 3:-0.389284 
-10 1:6.787525 2:0.57279 3:-0.183816 
-10 1:6.799972 2:0.613846 3:-0.130361 
-10 1:6.770243 2:0.647966 3:-0.359593 
-10 1:6.724273 2:0.683156 3:-0.700547 
10 1:6.687419 2:0.72787 3:-0.986566 
10 1:6.667364 2:0.809408 3:-1.186159 
10 1:6.660934 2:0.966846 3:-1.35103 
10 1:6.690458 2:1.184567 3:-1.31669 
10 1:6.737089 2:1.35648 3:-1.130333 
10 1:6.774402 2:1.405663 3:-0.913316 
10 1:6.807192 2:1.392702 3:-0.679448 
10 1:6.84404 2:1.391805 3:-0.427129 
-10 1:6.894755 2:1.294353 3:-0.005942 
-10 1:6.886247 2:1.093981 3:0.089908 
-10 1:6.864198 2:0.843632 3:0.131676 
-10 1:6.851885 2:0.642178 3:0.202373 
-10 1:6.872121 2:0.567203 3:0.398159 
-10 1:6.910282 2:0.565783 3:0.659846 
-10 1:6.94743 2:0.569907 3:0.910351 
-10 1:6.97661 2:0.537638 3:1.134405 
-10 1:7.000851 2:0.461112 3:1.35874 
10 1:7.014623 2:0.332914 3:1.551279 
10 1:7.012782 2:0.148661 3:1.680262 
10 1:6.99797 2:-0.075102 3:1.751029 
10 1:6.975946 2:-0.313456 3:1.783757 
10 1:6.950154 2:-0.546571 3:1.786729 
10 1:6.918721 2:-0.766317 3:1.740909 
10 1:6.880515 2:-0.966325 3:1.633676 
10 1:6.838342 2:-1.140571 3:1.479558 
10 1:6.795622 2:-1.283212 3:1.297418 
10 1:6.754164 2:-1.394954 3:1.10016 
10 1:6.713449 2:-1.485782 3:0.891911 
10 1:6.673606 2:-1.55831 3:0.675554 
10 1:6.635625 2:-1.606741 3:0.453402 
10 1:6.600301 2:-1.626787 3:0.227583 
10 1:6.56743 2:-1.622141 3:-0.000457 
10 1:6.536545 2:-1.598594 3:-0.229452 
10 1:6.507181 2:-1.561935 3:-0.458136 
10 1:6.478872 2:-1.517955 3:-0.685243 
10 1:7.606022 2:-1.100149 3:-1.155764 
10 1:7.580184 2:-0.917976 3:-1.156395 
10 1:7.550132 2:-0.744718 3:-1.125236 
-10 1:7.451541 2:-0.240967 3:-0.969604 
-10 1:7.421479 2:-0.065903 3:-0.939874 
-10 1:7.395417 2:0.11837 3:-0.940941 
-0.03669792867736721 1:7.242713 2:0.910894 3:-0.710035 
-10 1:7.203898 2:1.059678 3:-0.607847 
-10 1:7.095694 2:1.357891 3:-0.226728 
-10 1:7.05929 2:1.385639 3:-0.038563 
-10 1:7.022326 2:1.415043 3:0.151484 
-10 1:6.985422 2:1.455108 3:0.332378 
10 1:6.894459 2:1.478717 3:0.840324 
10 1:6.876311 2:1.409643 3:1.002594 
10 1:6.86493 2:1.304944 3:1.155056 
10 1:6.860137 2:1.173301 3:1.291572 
10 1:6.861842 2:1.022917 3:1.405881 
10 1:6.87031 2:0.860119 3:1.491232 
10 1:6.885889 2:0.690774 3:1.540758 
10 1:6.908822 2:0.520465 3:1.548441 
5.614724761116342 1:6.937752 2:0.350518 3:1.521051 
-10 1:7.172589 2:-0.750018 3:1.068286 
-10 1:7.21312 2:-0.834315 3:0.902888 
-10 1:7.251834 2:-0.908858 3:0.739973 
-10 1:7.288974 2:-0.974917 3:0.579177 
-10 1:7.325203 2:-1.032652 3:0.416793 
-10 1:7.361075 2:-1.082024 3:0.249565 
-10 1:7.396364 2:-1.12154 3:0.077584 
1.670577943031246 1:7.548584 2:-1.123872 3:-0.803124 
10 1:7.576479 2:-1.10651 3:-0.979208 
10 1:7.412073 2:-1.003553 3:-1.353759 
10 1:7.446199 2:-0.856139 3:-1.251602 
10 1:7.478156 2:-0.694894 3:-1.173344 
2.832372598073618 1:7.508956 2:-0.526526 3:-1.107636 
-10 1:7.571142 2:-0.195248 3:-0.968473 
-10 1:7.604492 2:-0.04531 3:-0.87305 
-10 1:7.638983 2:0.097138 3:-0.764893 
-10 1:7.67237 2:0.247977 3:-0.669908 
-10 1:7.704203 2:0.409814 3:-0.592867 
-10 1:7.73525 2:0.576225 3:-0.524151 
-10 1:7.766038 2:0.742692 3:-0.457095 
-10 1:7.796513 2:0.909169 3:-0.391991 
-10 1:7.827118 2:1.075159 3:-0.32572 
-10 1:7.860133 2:1.235638 3:-0.24029 
-10 1:7.895289 2:1.375025 3:-0.125688 
7.037526146357295 1:8.054843 2:1.549601 3:0.737956 
10 1:8.081412 2:1.5334 3:0.915729 
10 1:8.105652 2:1.497683 3:1.093622 
10 1:8.125184 2:1.431975 3:1.264663 
10 1:8.131435 2:1.311765 3:1.393793 
10 1:8.123456 2:1.143007 3:1.470636 
10 1:8.106667 2:0.955525 3:1.506603 
10 1:8.085864 2:0.773139 3:1.513726 
-10 1:8.013524 2:0.234272 3:1.466978 
-10 1:7.986733 2:0.057648 3:1.432449 
-10 1:7.958175 2:-0.112144 3:1.38179 
-10 1:7.927756 2:-0.2803 3:1.318299 
-10 1:7.895661 2:-0.457297 3:1.250989 
-10 1:7.862482 2:-0.626889 3:1.171371 
-10 1:7.828957 2:-0.762889 3:1.064396 
-10 1:7.795785 2:-0.842066 3:0.917005 
-10 1:7.763258 2:-0.873776 3:0.738031 
-10 1:7.731413 2:-0.887431 3:0.549768 
-10 1:7.700061 2:-0.9047 3:0.367284 
-10 1:7.668562 2:-0.931144 3:0.190771 
-10 1:7.636225 2:-0.970407 3:0.018645 
-10 1:7.602358 2:-1.02613 3:-0.150675 
-10 1:7.56717 2:-1.093868 3:-0.319211 
10 1:7.475349 2:-1.142946 3:-0.854771 
10 1:7.451087 2:-1.123282 3:-1.020759 
10 1:7.44209 2:-1.003544 3:-1.166657 
10 1:8.083031 2:-0.995116 3:-1.265603 
10 1:8.073263 2:-0.809724 3:-1.274669 
10 1:8.069342 2:-0.631034 3:-1.250496 
10 1:8.069332 2:-0.456947 3:-1.20412 
10 1:8.071298 2:-0.285362 3:-1.146576 
10 1:8.066393 2:0.412944 3:-0.989706 
10 1:8.062529 2:0.592725 3:-0.964904 
10 1:8.060964 2:0.77209 3:-0.926434 
10 1:8.064619 2:0.939082 3:-0.860004 
10 1:8.076422 2:1.077905 3:-0.75227 
10 1:8.095243 2:1.188832 3:-0.609944 
10 1:8.118262 2:1.278827 3:-0.448051 
-10 1:8.253349 2:1.498359 3:0.419707 
-10 1:8.284139 2:1.472839 3:0.597336 
-10 1:8.314142 2:1.413634 3:0.761275 
-10 1:8.342648 2:1.320146 3:0.907093 
-10 1:8.369908 2:1.200268 3:1.038413 
-10 1:8.396299 2:1.062984 3:1.159887 
-10 1:8.422199 2:0.917278 3:1.276172 
-10 1:8.447207 2:0.76931 3:1.386509 
-10 1:8.487014 2:0.264675 3:1.490364 
-10 1:8.490593 2:0.079522 3:1.462419 
-10 1:8.494617 2:-0.10448 3:1.437448 
-10 1:8.498899 2:-0.283611 3:1.415317 
10 1:8.45707 2:-1.046292 3:0.961328 
10 1:8.436699 2:-1.157723 3:0.809579 
10 1:8.413338 2:-1.24338 3:0.646795 
10 1:8.387255 2:-1.294101 3:0.477022 
10 1:8.358727 2:-1.301117 3:0.304261 
-10 1:8.265952 2:-1.170001 3:-0.216508 
-10 1:8.235217 2:-1.131253 3:-0.390284 
-10 1:8.204768 2:-1.09974 3:-0.564275 
10 1:8.113737 2:-1.02315 3:-1.089145 
-10 1:8.737282 2:-0.808152 3:-0.944586 
-10 1:8.721257 2:-0.626202 3:-0.921382 
-10 1:8.702349 2:-0.442442 3:-0.925253 
-10 1:8.682326 2:-0.25803 3:-0.939652 
-10 1:8.662618 2:-0.073855 3:-0.951134 
-10 1:8.642505 2:0.110846 3:-0.966143 
5.011515038845778 1:8.606369 2:0.476624 3:-0.958804 
10 1:8.591453 2:0.663539 3:-0.919446 
10 1:8.577328 2:0.857689 3:-0.864839 
10 1:8.565133 2:1.049177 3:-0.793574 
10 1:8.55617 2:1.227138 3:-0.703556 
10 1:8.551745 2:1.380703 3:-0.592688 
10 1:8.553162 2:1.499008 3:-0.458876 
10 1:8.561698 2:1.571376 3:-0.300092 
10 1:8.576665 2:1.601529 3:-0.119481 
10 1:8.594079 2:1.617319 3:0.071145 
10 1:8.610811 2:1.639748 3:0.26165 
10 1:8.62738 2:1.661363 3:0.449688 
10 1:8.645006 2:1.669204 3:0.634416 
10 1:8.664914 2:1.65031 3:0.814997 
10 1:8.688299 2:1.591853 3:0.99045 
10 1:8.714704 2:1.48904 3:1.151355 
10 1:8.741101 2:1.34959 3:1.275146 
10 1:8.764462 2:1.182403 3:1.340447 
-1.590185450152468 1:8.784372 2:0.997522 3:1.353232 
-10 1:8.80211 2:0.805732 3:1.337258 
-10 1:8.818968 2:0.616261 3:1.314794 
-10 1:8.836136 2:0.430696 3:1.299394 
-10 1:8.854777 2:0.248296 3:1.301961 
-10 1:8.876027 2:0.068317 3:1.333155 
-10 1:8.899648 2:-0.110217 3:1.389582 
-0.8195456679859608 1:8.923291 2:-0.28864 3:1.44635 
10 1:8.944433 2:-0.468315 3:1.476757 
10 1:8.960684 2:-0.649745 3:1.456343 
10 1:8.971072 2:-0.824571 3:1.383787 
10 1:8.975453 2:-0.979217 3:1.271385 
10 1:8.973872 2:-1.102869 3:1.130518 
10 1:8.96708 2:-1.196065 3:0.968176 
10 1:8.956006 2:-1.262193 3:0.790249 
10 1:8.94158 2:-1.304642 3:0.602628 
10 1:8.924728 2:-1.326801 3:0.411202 
10 1:8.90631 2:-1.331641 3:0.221572 
10 1:8.886486 2:-1.318024 3:0.036498 
-10 1:8.84179 2:-1.223151 3:-0.315901 
-10 1:8.817496 2:-1.14961 3:-0.485232 
-10 1:8.79318 2:-1.076191 3:-0.654902 
-10 1:8.769886 2:-1.017247 3:-0.82895 
10 1:9.099018 2:-0.841667 3:-1.257277 
-10 1:9.097771 2:-0.491093 3:-1.156963 
-10 1:9.093829 2:-0.312698 3:-1.127751 
-10 1:9.089359 2:-0.133425 3:-1.101753 
-5.808258319945652 1:9.085624 2:0.045829 3:-1.070905 
-10 1:9.130523 2:0.938816 3:-0.498021 
-10 1:9.148123 2:1.04081 3:-0.350261 
-10 1:9.165245 2:1.14761 3:-0.204165 
-10 1:9.180187 2:1.274682 3:-0.066185 
-10 1:9.273571 2:1.417995 3:0.594645 
-10 1:9.303108 2:1.400996 3:0.784363 
-10 1:9.331218 2:1.380625 3:0.963619 
-10 1:9.35777 2:1.319126 3:1.119857 
-10 1:9.382697 2:1.200244 3:1.247596 
-10 1:9.406027 2:1.044368 3:1.353341 
-9.743852080005555 1:9.427796 2:0.875276 3:1.444694 
10 1:9.46606 2:0.539573 3:1.59334 
10 1:9.481924 2:0.370314 3:1.645656 
10 1:9.49518 2:0.19749 3:1.679657 
10 1:9.505646 2:0.019574 3:1.69366 
10 1:9.513335 2:-0.164333 3:1.68747 
10 1:9.518231 2:-0.354609 3:1.660876 
10 1:9.519532 2:-0.54278 3:1.611202 
10 1:9.515735 2:-0.71251 3:1.533589 
10 1:9.505315 2:-0.84719 3:1.423098 
10 1:9.487195 2:-0.933876 3:1.276642 
10 1:9.463457 2:-0.985206 3:1.104052 
-10 1:9.412738 2:-1.075147 3:0.741387 
-10 1:9.389911 2:-1.139015 3:0.570927 
-5.400298371291955 1:9.367362 2:-1.198488 3:0.40366 
-10 1:9.154088 2:-1.006897 3:-0.944903 
10 1:9.573044 2:-1.137784 3:-1.343613 
10 1:9.587437 2:-0.959336 3:-1.330649 
10 1:9.602953 2:-0.779279 3:-1.302888 
-10 1:9.636581 2:-0.426119 3:-1.201113 
-10 1:9.654311 2:-0.258907 3:-1.126167 
-10 1:9.672395 2:-0.10187 3:-1.03456 
-10 1:9.690643 2:0.042049 3:-0.925828 
-10 1:9.708907 2:0.171992 3:-0.801184 
-10 1:9.727216 2:0.295324 3:-0.668445 
-10 1:9.745645 2:0.421427 3:-0.537056 
-10 1:9.764165 2:0.557768 3:-0.415786 
-10 1:9.782424 2:0.705544 3:-0.31121 
-10 1:9.800082 2:0.864365 3:-0.227921 
-10 1:9.817638 2:1.030576 3:-0.154419 
-6.35888516683897 1:9.835897 2:1.196506 3:-0.070199 
10 1:9.854254 2:1.33974 3:0.040924 
10 1:9.871551 2:1.43418 3:0.191068 
10 1:9.887271 2:1.482856 3:0.369184 
10 1:9.944925 2:1.424201 3:1.288425 
10 1:9.95126 2:1.351185 3:1.464078 
10 1:9.9523 2:1.244722 3:1.598857 
10 1:9.946209 2:1.099114 3:1.671971 
10 1:9.933998 2:0.922401 3:1.68938 
10 1:9.917824 2:0.72814 3:1.667793 
10 1:9.899845 2:0.529904 3:1.623947 
-10 1:9.847447 2:0.000373 3:1.44211 
-10 1:9.830091 2:-0.147658 3:1.351185 
-10 1:9.812283 2:-0.280566 3:1.236615 
-10 1:9.794028 2:-0.403666 3:1.104413 
-10 1:9.775458 2:-0.524761 3:0.965315 
-10 1:9.756715 2:-0.650998 3:0.829429 
-10 1:9.738039 2:-0.779725 3:0.697313 
-10 1:9.719741 2:-0.900841 3:0.562261 
-10 1:9.702135 2:-1.004059 3:0.417388 
-10 1:9.6855 2:-1.080356 3:0.256691 
-10 1:9.669767 2:-1.132859 3:0.082681 
-10 1:9.654678 2:-1.171474 3:-0.097383 
-10 1:9.639995 2:-1.205192 3:-0.276934 
10 1:9.611808 2:-1.257764 3:-0.635237 
10 1:9.598744 2:-1.268346 3:-0.816756 
10 1:9.587337 2:-1.25793 3:-0.997298 
10 1:9.578474 2:-1.217436 3:-1.173903 
10 1:10.30586 2:-0.722582 3:-1.405146 
10 1:10.283942 2:-0.559871 3:-1.371441 
2.761765536344638 1:10.260432 2:-0.386062 3:-1.338405 
10 1:10.212068 2:-0.025569 3:-1.257808 
10 1:10.188932 2:0.150907 3:-1.201979 
10 1:10.16764 2:0.318063 3:-1.130287 
10 1:10.149051 2:0.470796 3:-1.038597 
10 1:10.134021 2:0.604004 3:-0.922781 
10 1:10.12239 2:0.71836 3:-0.784886 
10 1:10.111237 2:0.830112 3:-0.643672 
-10 1:10.07012 2:1.338803 3:0.291306 
-10 1:10.072408 2:1.364169 3:0.469252 
-10 1:10.076911 2:1.374989 3:0.651903 
-10 1:10.082689 2:1.377446 3:0.837348 
-10 1:10.090436 2:1.364979 3:1.018449 
-10 1:10.104032 2:1.306142 3:1.177894 
-10 1:10.124272 2:1.193704 3:1.30883 
-10 1:10.149239 2:1.041761 3:1.413566 
10 1:10.232726 2:0.494075 3:1.594081 
10 1:10.257855 2:0.318357 3:1.601876 
10 1:10.280078 2:0.152452 3:1.563726 
-10 1:10.32017 2:-0.168357 3:1.402752 
-10 1:10.342069 2:-0.338878 3:1.335005 
10 1:10.389174 2:-0.691943 3:1.248128 
10 1:10.408195 2:-0.844064 3:1.172102 
10 1:10.421231 2:-0.965363 3:1.046978 
10 1:10.430101 2:-1.06464 3:0.890125 
10 1:10.437118 2:-1.153024 3:0.72382 
10 1:10.442713 2:-1.231514 3:0.556872 
10 1:10.445925 2:-1.293592 3:0.388109 
10 1:10.44576 2:-1.332568 3:0.216124 
10 1:10.441289 2:-1.342161 3:0.039693 
10 1:10.432667 2:-1.323025 3:-0.13933 
10 1:10.420945 2:-1.281567 3:-0.316535 
10 1:10.407213 2:-1.224512 3:-0.487733 
5.242022084484406 1:10.36606 2:-1.053055 3:-0.998839 
10 1:10.351138 2:-0.985674 3:-1.161821 
10 1:10.331902 2:-0.882397 3:-1.301614 
-10 1:10.844299 2:-0.756972 3:-1.006486 
-10 1:10.873346 2:-0.593664 3:-1.095152 
-10 1:10.898307 2:-0.424928 3:-1.155492 
-0.2705939190225903 1:10.920139 2:-0.251504 3:-1.19384 
10 1:10.958242 2:0.106445 3:-1.229908 
10 1:10.976426 2:0.289489 3:-1.240298 
10 1:10.993456 2:0.47214 3:-1.243769 
10 1:11.001168 2:0.642862 3:-1.1962 
10 1:10.99717 2:0.792598 3:-1.087844 
10 1:10.984165 2:0.915469 3:-0.938724 
10 1:10.964942 2:1.005646 3:-0.769355 
10 1:10.94226 2:1.063464 3:-0.596637 
10 1:10.918778 2:1.110266 3:-0.425122 
10 1:10.896326 2:1.164378 3:-0.255897 
5.709252404949577 1:10.874849 2:1.22669 3:-0.08813 
1.882265268537195 1:10.680152 2:1.551083 3:1.298459 
10 1:10.647128 2:1.450549 3:1.446798 
10 1:10.620375 2:1.307276 3:1.532447 
10 1:10.600176 2:1.132158 3:1.55974 
-10 1:10.558505 2:0.549384 3:1.492377 
-10 1:10.546894 2:0.367761 3:1.462864 
-10 1:10.537415 2:0.194548 3:1.424849 
-10 1:10.531171 2:0.028662 3:1.370891 
-10 1:10.528618 2:-0.131687 3:1.297172 
-10 1:10.5281 2:-0.290593 3:1.211663 
-10 1:10.52753 2:-0.45262 3:1.124727 
-10 1:10.524825 2:-0.62233 3:1.046728 
-10 1:10.519072 2:-0.80057 3:0.982833 
3.412996510209063 1:10.515187 2:-0.969751 3:0.912429 
10 1:10.519852 2:-1.106693 3:0.807091 
10 1:10.536029 2:-1.199459 3:0.655136 
10 1:10.559918 2:-1.256572 3:0.475342 
10 1:10.587129 2:-1.288228 3:0.289189 
10 1:10.61578 2:-1.29501 3:0.108007 
10 1:10.646246 2:-1.268847 3:-0.06602 
-10 1:10.712076 2:-1.123923 3:-0.392696 
-10 1:10.745359 2:-1.038507 3:-0.551079 
-10 1:10.778296 2:-0.952993 3:-0.707267 
-10 1:10.811178 2:-0.861231 3:-0.859621 
10 1:11.236796 2:-0.347958 3:-1.331716 
10 1:11.208293 2:-0.063901 3:-1.370443 
10 1:11.189788 2:0.141619 3:-1.337778 
10 1:11.179283 2:0.28456 3:-1.247271 
10 1:11.174779 2:0.380879 3:-1.112467 
-10 1:11.175786 2:0.497483 3:-0.76416 
-10 1:11.1773 2:0.549682 3:-0.577752 
-10 1:11.177025 2:0.61748 3:-0.399896 
-10 1:11.17472 2:0.702736 3:-0.232387 
-10 1:11.170873 2:0.801471 3:-0.072156 
-10 1:11.165846 2:0.910583 3:0.082705 
-10 1:11.159246 2:1.03233 3:0.227082 
-10 1:11.150403 2:1.17092 3:0.353312 
-10 1:11.139338 2:1.325722 3:0.460272 
-10 1:11.127942 2:1.48301 3:0.564548 
10 1:11.112969 2:1.741361 3:0.843193 
10 1:11.113152 2:1.811632 3:1.040956 
10 1:11.119078 2:1.825143 3:1.247833 
10 1:11.130661 2:1.769684 3:1.427876 
10 1:11.147644 2:1.63556 3:1.547175 
10 1:11.1673 2:1.449759 3:1.601508 
10 1:11.185798 2:1.258652 3:1.608139 
-10 1:11.233749 2:0.707207 3:1.471724 
-10 1:11.24894 2:0.527586 3:1.415015 
-10 1:11.264595 2:0.348513 3:1.373121 
-10 1:11.281147 2:0.168432 3:1.354169 
-10 1:11.298663 2:-0.016926 3:1.348386 
10 1:11.336134 2:-0.419565 3:1.319273 
10 1:11.354121 2:-0.623884 3:1.275038 
10 1:11.369159 2:-0.807845 3:1.202058 
10 1:11.379336 2:-0.953774 3:1.093943 
10 1:11.382763 2:-1.0442 3:0.944443 
10 1:11.379663 2:-1.079356 3:0.759293 
-10 1:11.36778 2:-1.0952 3:0.375298 
-10 1:11.361509 2:-1.097364 3:0.189611 
-10 1:11.355136 2:-1.097946 3:0.005383 
-10 1:11.348872 2:-1.10025 3:-0.180488 
10 1:11.337235 2:-1.119806 3:-0.567592 
10 1:11.32674 2:-1.072892 3:-0.739863 
-10 1:11.27021 2:-0.598174 3:-1.059544 
10 1:11.67809 2:-0.859767 3:-1.509456 
10 1:11.66549 2:-0.62511 3:-1.507267 
10 1:11.660457 2:-0.44174 3:-1.444342 
10 1:11.661234 2:-0.297819 3:-1.334848 
-10 1:11.673182 2:-0.080968 3:-1.032829 
-10 1:11.680876 2:0.015411 3:-0.868291 
-10 1:11.688105 2:0.11532 3:-0.707222 
-10 1:11.694402 2:0.223154 3:-0.552511 
-10 1:11.699323 2:0.34317 3:-0.406874 
-10 1:11.702699 2:0.476465 3:-0.271689 
-10 1:11.704839 2:0.618702 3:-0.146031 
-10 1:11.706097 2:0.765039 3:-0.028745 
-10 1:11.706686 2:0.91338 3:0.081412 
-10 1:11.706558 2:1.066595 3:0.185838 
-10 1:11.705642 2:1.228074 3:0.285952 
-10 1:11.703864 2:1.401205 3:0.38317 
10 1:11.701305 2:1.74944 3:0.59166 
10 1:11.705433 2:1.87063 3:0.728035 
10 1:11.716539 2:1.918444 3:0.902347 
10 1:11.733637 2:1.886367 3:1.097561 
10 1:11.752447 2:1.788557 3:1.269047 
-10 1:11.808267 2:1.064488 3:1.477679 
-10 1:11.819587 2:0.874517 3:1.490126 
-10 1:11.846352 2:0.32502 3:1.450141 
-10 1:11.852999 2:0.142559 3:1.408376 
-10 1:11.859108 2:-0.042292 3:1.358113 
-10 1:11.865074 2:-0.231158 3:1.303252 
-10 1:11.870869 2:-0.422421 3:1.244549 
-10 1:11.873687 2:-0.593228 3:1.162171 
-10 1:11.869757 2:-0.713119 3:1.029215 
-10 1:11.858812 2:-0.774078 3:0.847842 
-10 1:11.844181 2:-0.791111 3:0.650016 
-10 1:11.828683 2:-0.781028 3:0.45993 
-10 1:11.813154 2:-0.762869 3:0.275036 
-10 1:11.797849 2:-0.75039 3:0.089053 
-10 1:11.782248 2:-0.737346 3:-0.10029 
-10 1:11.765943 2:-0.716856 3:-0.293432 
-10 1:11.750524 2:-0.708908 3:-0.483993 
-10 1:11.73844 2:-0.745048 3:-0.662674 
10 1:11.722984 2:-0.935239 3:-0.990834 
10 1:11.712873 2:-1.004312 3:-1.167216 
10 1:11.697913 2:-0.994799 3:-1.350853 
10 1:12.037343 2:-0.931603 3:-1.028367 
-10 1:12.075582 2:-0.574623 3:-0.991554 
-10 1:12.090259 2:-0.390611 3:-1.014163 
-10 1:12.103493 2:-0.204992 3:-1.049943 
-10 1:12.116424 2:-0.019325 3:-1.088268 
-10 1:12.13019 2:0.164833 3:-1.118509 
10 1:12.213529 2:0.852224 3:-0.967438 
10 1:12.241278 2:0.997836 3:-0.852052 
10 1:12.269516 2:1.125129 3:-0.718306 
10 1:12.297463 2:1.232686 3:-0.571527 
10 1:12.324968 2:1.322174 3:-0.414283 
10 1:12.351912 2:1.395431 3:-0.248984 
10 1:12.378252 2:1.455359 3:-0.078252 
10 1:12.404218 2:1.508698 3:0.094536 
10 1:12.430049 2:1.561819 3:0.266385 
10 1:12.455526 2:1.609732 3:0.439378 
10 1:12.48018 2:1.641309 3:0.618342 
7.123371825449075 1:12.503508 2:1.645436 3:0.807804 
10 1:12.467687 2:0.350301 3:1.524322 
10 1:12.45319 2:0.167271 3:1.547649 
10 1:12.436231 2:-0.024758 3:1.557673 
10 1:12.416822 2:-0.219053 3:1.549225 
10 1:12.395145 2:-0.407161 3:1.517211 
10 1:12.371384 2:-0.58063 3:1.456538 
10 1:12.345722 2:-0.731007 3:1.362112 
10 1:12.31842 2:-0.850168 3:1.229739 
7.580289935165423 1:12.290733 2:-0.934183 3:1.066713 
-10 1:12.264602 2:-0.982017 3:0.888258 
-10 1:12.241263 2:-0.996371 3:0.706688 
-10 1:12.219701 2:-0.991448 3:0.524733 
-10 1:12.198464 2:-0.983694 3:0.343251 
-10 1:12.176101 2:-0.989553 3:0.163106 
-10 1:12.151863 2:-1.017172 3:-0.015517 
-10 1:12.127623 2:-1.043786 3:-0.19494 
-10 1:12.105186 2:-1.048786 3:-0.37637 
-10 1:12.673019 2:0.072112 3:-1.159325 
-10 1:12.690889 2:0.240118 3:-1.149232 
-10 1:12.711118 2:0.413544 3:-1.114295 
-10 1:12.733063 2:0.587381 3:-1.056345 
10 1:12.82512 2:1.186637 3:-0.631042 
10 1:12.845982 2:1.287378 3:-0.4855 
10 1:12.864702 2:1.358538 3:-0.327934 
10 1:12.881114 2:1.399816 3:-0.160194 
-7.758936975049449 1:12.922821 2:1.419676 3:0.385282 
-10 1:12.9363 2:1.416761 3:0.57466 
-10 1:12.949096 2:1.408592 3:0.76202 
-10 1:12.95968 2:1.384138 3:0.941805 
10 1:12.955552 2:0.959182 3:1.480856 
10 1:12.943909 2:0.793228 3:1.55347 
10 1:12.929642 2:0.619464 3:1.600968 
10 1:12.913165 2:0.440212 3:1.625781 
10 1:12.894892 2:0.257796 3:1.630339 
10 1:12.875237 2:0.07454 3:1.617073 
10 1:12.854613 2:-0.107235 3:1.588415 
10 1:12.83342 2:-0.285231 3:1.546642 
10 1:12.811859 2:-0.457547 3:1.491845 
10 1:12.789982 2:-0.622576 3:1.422477 
10 1:12.767835 2:-0.778718 3:1.336951 
10 1:12.745467 2:-0.924372 3:1.233682 
10 1:12.722962 2:-1.057802 3:1.111378 
10 1:12.700762 2:-1.175874 3:0.971752 
10 1:12.679523 2:-1.274645 3:0.818257 
10 1:12.659899 2:-1.350163 3:0.65437 
10 1:12.642546 2:-1.398473 3:0.483564 
10 1:12.627908 2:-1.417348 3:0.3088 
10 1:12.615655 2:-1.410784 3:0.131164 
10 1:12.605286 2:-1.384181 3:-0.048673 
10 1:12.596299 2:-1.342938 3:-0.230045 
10 1:12.588862 2:-1.288478 3:-0.408634 
10 1:12.585386 2:-1.208932 3:-0.56793 
10 1:12.588547 2:-1.090761 3:-0.690159 
-10 1:12.610011 2:-0.767296 3:-0.848609 
-10 1:12.622018 2:-0.597366 3:-0.9218 
-10 1:12.631602 2:-0.440821 3:-1.009528 
-10 1:12.64098 2:-0.287882 3:-1.095041 
-10 1:13.095325 2:-0.430793 3:-0.984008 
-10 1:13.124108 2:-0.416386 3:-0.788792 
-10 1:13.13711 2:-0.310462 3:-0.71891 
-10 1:13.137853 2:-0.133863 3:-0.746314 
-10 1:13.129859 2:0.092567 3:-0.842958 
-10 1:13.11665 2:0.347987 3:-0.980792 
10 1:13.088671 2:0.862427 3:-1.267843 
10 1:13.080946 2:1.079762 3:-1.360964 
10 1:13.082093 2:1.242718 3:-1.383085 
10 1:13.09537 2:1.33182 3:-1.308212 
10 1:13.119591 2:1.350804 3:-1.145204 
10 1:13.149851 2:1.32279 3:-0.932016 
10 1:13.181136 2:1.271487 3:-0.7075 
-10 1:13.233682 2:1.163098 3:-0.326321 
-10 1:13.256096 2:1.104025 3:-0.161353 
-10 1:13.27771 2:1.035957 3:-0.000235 
-10 1:13.299696 2:0.958896 3:0.165098 
-10 1:13.322767 2:0.885568 3:0.337199 
-10 1:13.347551 2:0.831032 3:0.517617 
-10 1:13.374562 2:0.808543 3:0.707449 
-10 1:13.40286 2:0.808161 3:0.90205 
-10 1:13.43049 2:0.803848 3:1.092789 
-10 1:13.45548 2:0.769245 3:1.270955 
10 1:13.488129 2:0.530485 3:1.53936 
10 1:13.488094 2:0.368481 3:1.568947 
10 1:13.478152 2:0.199028 3:1.531801 
-10 1:13.443144 2:-0.164637 3:1.358086 
-10 1:13.425374 2:-0.360057 3:1.271908 
-10 1:13.412009 2:-0.564764 3:1.21772 
-10 1:13.402613 2:-0.771032 3:1.191099 
10 1:13.383048 2:-1.135088 3:1.123629 
10 1:13.366456 2:-1.266116 3:1.033688 
10 1:13.342563 2:-1.350775 3:0.885018 
7.529839076829879 1:13.313991 2:-1.396654 3:0.697045 
10 1:13.153248 2:-1.294537 3:-0.42679 
10 1:13.128568 2:-1.241142 3:-0.606285 
10 1:13.106991 2:-1.165093 3:-0.768618 
10 1:13.090698 2:-1.056212 3:-0.900673 
10 1:13.081868 2:-0.904321 3:-0.989334 
10 1:13.082684 2:-0.69924 3:-1.021484 
10 1:13.834177 2:-0.124705 3:-1.230141 
10 1:13.871783 2:0.111442 3:-1.29382 
10 1:13.899711 2:0.309858 3:-1.302766 
10 1:13.91945 2:0.476778 3:-1.264657 
10 1:13.932485 2:0.618435 3:-1.187173 
-10 1:13.946233 2:0.954166 3:-0.795266 
-10 1:13.947318 2:1.057107 3:-0.637077 
-10 1:13.949088 2:1.165691 3:-0.477808 
-10 1:13.907999 2:1.360551 3:0.345706 
-10 1:13.886733 2:1.317334 3:0.532095 
-10 1:13.867249 2:1.292332 3:0.727147 
-10 1:13.849081 2:1.275575 3:0.919944 
-10 1:13.645687 2:0.11404 3:1.45698 
-10 1:13.622284 2:-0.063584 3:1.445567 
-10 1:13.600662 2:-0.23536 3:1.422256 
-10 1:13.580698 2:-0.403397 3:1.38502 
-10 1:13.562278 2:-0.569424 3:1.332388 
-10 1:13.545299 2:-0.73421 3:1.264306 
-10 1:13.529664 2:-0.898372 3:1.180943 
-2.480528927119362 1:13.515279 2:-1.062486 3:1.082473 
10 1:13.493453 2:-1.365769 3:0.842709 
10 1:13.489467 2:-1.478406 3:0.703613 
10 1:13.492489 2:-1.546697 3:0.553216 
10 1:13.50347 2:-1.562935 3:0.392788 
10 1:13.520907 2:-1.537092 3:0.224 
10 1:13.542849 2:-1.48235 3:0.048597 
10 1:13.616232 2:-1.276228 3:-0.499677 
10 1:13.638685 2:-1.215799 3:-0.671816 
10 1:13.662728 2:-1.117617 3:-0.800438 
10 1:13.689466 2:-0.970306 3:-0.879996 
8.708421494921625 1:13.718098 2:-0.791207 3:-0.929644 
-10 1:13.777566 2:-0.411203 3:-1.019409 
10 1:14.397524 2:-0.059969 3:-1.262778 
10 1:14.430486 2:0.143161 3:-1.271277 
10 1:14.455118 2:0.324737 3:-1.23999 
10 1:14.472591 2:0.487613 3:-1.174735 
-7.013080395676452 1:14.490744 2:0.768681 3:-0.965579 
-10 1:14.493766 2:0.892582 3:-0.83331 
-10 1:14.494313 2:1.009197 3:-0.690332 
-10 1:14.493098 2:1.119466 3:-0.541201 
-3.74954506921702 1:14.489637 2:1.21931 3:-0.387167 
3.068823066240657 1:14.404634 2:1.50788 3:0.661467 
10 1:14.383891 2:1.538603 3:0.867191 
10 1:14.361082 2:1.544673 3:1.058388 
10 1:14.335366 2:1.506327 3:1.216836 
10 1:14.305932 2:1.404243 3:1.324649 
10 1:14.273335 2:1.240603 3:1.380118 
10 1:14.240087 2:1.048384 3:1.404704 
-10 1:14.178978 2:0.680735 3:1.431763 
-10 1:14.150606 2:0.507577 3:1.441207 
-10 1:14.122707 2:0.335506 3:1.448222 
-10 1:14.094542 2:0.15999 3:1.453021 
-10 1:14.065374 2:-0.023496 3:1.455813 
-10 1:14.035539 2:-0.21516 3:1.453645 
-5.24753556391188 1:14.008507 2:-0.402567 3:1.434305 
-10 1:13.988317 2:-0.570987 3:1.383903 
-10 1:13.978935 2:-0.705962 3:1.288812 
-10 1:13.980392 2:-0.807198 3:1.149142 
-10 1:13.986968 2:-0.895126 3:0.985108 
-10 1:13.992487 2:-0.991811 3:0.818514 
-10 1:13.993263 2:-1.108972 3:0.664203 
-10 1:13.992699 2:-1.228876 3:0.517211 
-10 1:13.995448 2:-1.328587 3:0.369073 
-10 1:14.006166 2:-1.385171 3:0.211325 
-10 1:14.028211 2:-1.381741 3:0.038284 
10 1:14.188787 2:-0.988463 3:-0.756693 
10 1:14.224039 2:-0.8519 3:-0.867744 
10 1:14.361826 2:-0.201712 3:-1.154685 
10 1:14.490633 2:0.564812 3:-1.163046 
10 1:14.522013 2:1.269232 3:-0.537266 
10 1:14.533768 2:1.394597 3:-0.389789 
10 1:14.549428 2:1.49655 3:-0.234167 
10 1:14.569881 2:1.567275 3:-0.070097 
10 1:14.595731 2:1.60145 3:0.102606 
10 1:14.626507 2:1.603072 3:0.283695 
10 1:14.661485 2:1.578318 3:0.472821 
10 1:14.699944 2:1.533361 3:0.669629 
6.649414082720354 1:14.859149 2:1.179922 3:1.379294 
10 1:14.890508 2:1.039876 3:1.474871 
-10 1:14.932672 2:0.691955 3:1.503182 
-10 1:14.949149 2:0.499804 3:1.478974 
-10 1:14.968736 2:0.310819 3:1.474951 
-10 1:14.993568 2:0.130445 3:1.507028 
-10 1:15.021134 2:-0.047046 3:1.556902 
10 1:15.072481 2:-0.420566 3:1.622877 
10 1:15.091451 2:-0.620327 3:1.608481 
10 1:15.104406 2:-0.817344 3:1.560614 
10 1:15.110452 2:-1.000842 3:1.480805 
10 1:15.108694 2:-1.16005 3:1.37058 
10 1:15.098237 2:-1.284193 3:1.231471 
10 1:15.078645 2:-1.365026 3:1.066094 
10 1:15.052457 2:-1.410756 3:0.88416 
10 1:15.023397 2:-1.436144 3:0.698189 
10 1:14.993751 2:-1.451088 3:0.515347 
10 1:14.962587 2:-1.454579 3:0.33081 
10 1:14.928694 2:-1.443622 3:0.139376 
10 1:14.89267 2:-1.409483 3:-0.049971 
10 1:14.85626 2:-1.33979 3:-0.219265 
-10 1:14.787857 2:-1.065468 3:-0.447299 
-10 1:14.755382 2:-0.894532 3:-0.530016 
-10 1:14.723061 2:-0.73021 3:-0.615986 
-10 1:14.691199 2:-0.567582 3:-0.700331 
-10 1:14.660231 2:-0.398245 3:-0.775235 
-10 1:14.629944 2:-0.228232 3:-0.845726 
-10 1:14.60015 2:-0.063765 3:-0.916813 
-10 1:14.572125 2:0.118513 3:-0.966374 
-10 1:14.546875 2:0.336011 3:-0.977587 
-10 1:14.521287 2:0.51926 3:-1.01228 
10 1:15.250265 2:-0.077934 3:-1.26356 
10 1:15.25682 2:0.130853 3:-1.234561 
10 1:15.262456 2:0.313103 3:-1.169215 
-10 1:15.271311 2:0.607445 3:-0.950002 
-10 1:15.274703 2:0.724263 3:-0.806393 
-10 1:15.27752 2:0.823998 3:-0.646954 
-10 1:15.279846 2:0.909011 3:-0.476815 
-10 1:15.281769 2:0.981667 3:-0.301105 
-10 1:15.283377 2:1.044508 3:-0.12393 
-10 1:15.284774 2:1.100757 3:0.054507 
-10 1:15.286065 2:1.153801 3:0.23493 
-10 1:15.287401 2:1.208366 3:0.416737 
-10 1:15.289104 2:1.274227 3:0.594304 
-10 1:15.291537 2:1.362349 3:0.760827 
10 1:15.299989 2:1.647609 3:1.033815 
10 1:15.304381 2:1.79343 3:1.139926 
10 1:15.304282 2:1.797592 3:1.246784 
10 1:15.300017 2:1.670453 3:1.355273 
10 1:15.293146 2:1.460914 3:1.460992 
10 1:15.285229 2:1.217872 3:1.559541 
10 1:15.277794 2:0.989266 3:1.646566 
10 1:15.271471 2:0.794756 3:1.719081 
10 1:15.265866 2:0.621796 3:1.775657 
10 1:15.260529 2:0.456087 3:1.81495 
10 1:15.255008 2:0.283332 3:1.835616 
10 1:15.248955 2:0.09243 3:1.836298 
10 1:15.242557 2:-0.11083 3:1.815581 
10 1:15.236176 2:-0.315103 3:1.772024 
10 1:15.230175 2:-0.50904 3:1.704192 
10 1:15.224918 2:-0.681295 3:1.610644 
10 1:15.220766 2:-0.82052 3:1.489945 
-10 1:15.216884 2:-0.965132 3:1.165584 
-10 1:15.216545 2:-0.988824 3:0.975399 
-10 1:15.216352 2:-1.008123 3:0.781839 
-10 1:15.215715 2:-1.040986 3:0.594768 
-10 1:15.214777 2:-1.082997 3:0.412755 
-10 1:15.213953 2:-1.121464 3:0.23022 
-10 1:15.213513 2:-1.148041 3:0.044315 
-10 1:15.213597 2:-1.158326 3:-0.144978 
-10 1:15.214428 2:-1.144994 3:-0.333875 
10 1:15.219442 2:-1.010621 3:-0.682336 
10 1:15.22375 2:-0.88432 3:-0.82283 
10 1:15.228958 2:-0.727202 3:-0.928237 
10 1:15.234632 2:-0.552814 3:-0.995586 
10 1:15.246207 2:-0.196316 3:-1.122403 
10 1:15.744469 2:0.487335 3:-1.254618 
10 1:15.754118 2:0.659251 3:-1.182322 
10 1:15.763825 2:0.823228 3:-1.090986 
10 1:15.773461 2:0.977345 3:-0.982375 
10 1:15.782897 2:1.119679 3:-0.858253 
10 1:15.792004 2:1.248309 3:-0.720387 
10 1:15.800651 2:1.361314 3:-0.570541 
10 1:15.80871 2:1.456771 3:-0.410481 
10 1:15.816071 2:1.533171 3:-0.241956 
10 1:15.822815 2:1.593039 3:-0.066579 
10 1:15.829132 2:1.641189 3:0.114122 
10 1:15.835213 2:1.68246 3:0.298615 
10 1:15.84073 2:1.711831 3:0.482686 
10 1:15.841816 2:1.657301 3:0.643813 
10 1:15.838756 2:1.525576 3:0.780713 
-10 1:15.833232 2:1.349893 3:0.899297 
-10 1:15.826926 2:1.163455 3:1.00547 
-10 1:15.821029 2:0.989415 3:1.104064 
-10 1:15.815531 2:0.826539 3:1.197303 
-10 1:15.810248 2:0.669967 3:1.287023 
-10 1:15.804995 2:0.514839 3:1.375059 
-10 1:15.799586 2:0.356333 3:1.463179 
-10 1:15.793843 2:0.19143 3:1.549711 
-10 1:15.787597 2:0.019742 3:1.62798 
10 1:15.773092 2:-0.342058 3:1.733334 
10 1:15.764694 2:-0.529409 3:1.748484 
10 1:15.755446 2:-0.719087 3:1.730747 
10 1:15.745514 2:-0.905247 3:1.675352 
10 1:15.735645 2:-1.070945 3:1.580403 
10 1:15.726678 2:-1.197505 3:1.444461 
10 1:15.719324 2:-1.271529 3:1.271317 
10 1:15.713946 2:-1.293903 3:1.078906 
-10 1:15.709854 2:-1.203589 3:0.710259 
-10 1:15.70937 2:-1.131096 3:0.538667 
-10 1:15.70758 2:-1.083475 3:0.360609 
-10 1:15.704471 2:-1.060364 3:0.17472 
-10 1:15.702134 2:-1.022413 3:-0.007571 
-10 1:15.699184 2:-0.996031 3:-0.193161 
-10 1:15.693536 2:-1.021522 3:-0.391073 
-10 1:15.690222 2:-1.007701 3:-0.566787 
10 1:15.721805 2:-0.057568 3:-1.132336 
10 1:15.729374 2:0.123344 3:-1.170976 
10 1:15.737801 2:0.312435 3:-1.18845 
10 1:16.434089 2:0.371725 3:-1.175393 
-10 1:16.398723 2:0.868874 3:-0.930161 
-10 1:16.25743 2:1.332767 3:-0.002424 
-10 1:16.228898 2:1.311023 3:0.180974 
-10 1:16.200847 2:1.279774 3:0.36095 
-10 1:16.172839 2:1.239731 3:0.540342 
-10 1:16.144932 2:1.188935 3:0.718714 
-10 1:16.118848 2:1.116434 3:0.884579 
-10 1:16.093637 2:1.026093 3:1.044202 
-10 1:16.064658 2:0.943129 3:1.228395 
-10 1:16.03363 2:0.866713 3:1.426039 
10 1:16.005988 2:0.780522 3:1.601494 
10 1:15.987208 2:0.668067 3:1.718857 
10 1:15.982184 2:0.514623 3:1.746039 
-10 1:15.997062 2:0.13475 3:1.637039 
-10 1:16.003705 2:-0.05108 3:1.587818 
-10 1:16.008841 2:-0.230486 3:1.548544 
-10 1:16.013883 2:-0.40708 3:1.509973 
-10 1:16.020241 2:-0.584453 3:1.462877 
-10 1:16.028957 2:-0.763113 3:1.40052 
-10 1:16.040355 2:-0.937578 3:1.321001 
10 1:16.072158 2:-1.249242 3:1.1051 
10 1:16.093046 2:-1.374099 3:0.96603 
10 1:16.117471 2:-1.470172 3:0.805106 
10 1:16.144389 2:-1.532416 3:0.629257 
10 1:16.172034 2:-1.556623 3:0.450009 
10 1:16.19987 2:-1.55287 3:0.270487 
10 1:16.229422 2:-1.555009 3:0.079691 
10 1:16.261041 2:-1.58159 3:-0.125286 
10 1:16.290552 2:-1.593017 3:-0.31614 
10 1:16.312854 2:-1.537774 3:-0.458183 
10 1:16.3259 2:-1.391985 3:-0.537402 
10 1:16.334879 2:-1.197164 3:-0.588694 
-10 1:16.387282 2:-0.516085 3:-0.903634 
-10 1:16.393101 2:-0.329329 3:-0.934814 
-10 1:16.400019 2:-0.146406 3:-0.973212 
-10 1:16.409995 2:0.029029 3:-1.031598 
10 1:16.615087 2:0.449374 3:-1.241918 
10 1:16.630089 2:0.620878 3:-1.164538 
-10 1:16.688292 2:1.015703 3:-0.790134 
-10 1:16.710488 2:1.109482 3:-0.631786 
-10 1:16.73328 2:1.185377 3:-0.463601 
-10 1:16.756184 2:1.24401 3:-0.289742 
-10 1:16.77889 2:1.288887 3:-0.113766 
10 1:16.847777 2:1.438303 3:0.416503 
10 1:16.869125 2:1.440561 3:0.592906 
10 1:16.888733 2:1.392849 3:0.768581 
10 1:16.907276 2:1.31873 3:0.942662 
10 1:16.924976 2:1.236838 3:1.111888 
10 1:16.939699 2:1.136173 3:1.261566 
10 1:16.949087 2:1.000546 3:1.376594 
10 1:16.95363 2:0.835417 3:1.45953 
-10 1:16.953119 2:0.293283 3:1.60391 
-10 1:16.95101 2:0.116946 3:1.634761 
-10 1:16.946783 2:-0.074215 3:1.652115 
-10 1:16.939521 2:-0.289014 3:1.650782 
-10 1:16.929221 2:-0.511137 3:1.626265 
-10 1:16.916111 2:-0.717949 3:1.574243 
-6.306225672893843 1:16.900416 2:-0.886813 3:1.490394 
-10 1:16.882366 2:-0.995094 3:1.370396 
-10 1:16.862199 2:-1.02212 3:1.210581 
-10 1:16.840527 2:-0.999158 3:1.024579 
-10 1:16.818346 2:-1.012111 3:0.8442 
-10 1:16.796207 2:-1.093613 3:0.682957 
-10 1:16.774043 2:-1.201962 3:0.528867 
-10 1:16.751745 2:-1.290391 3:0.368206 
-10 1:16.729177 2:-1.336223 3:0.193632 
-10 1:16.706136 2:-1.37795 3:0.014009 
10 1:16.682838 2:-1.441892 3:-0.161648 
10 1:16.6614 2:-1.458884 3:-0.334764 
10 1:16.643673 2:-1.385064 3:-0.501997 
10 1:16.630347 2:-1.253079 3:-0.648683 
10 1:16.621916 2:-1.099505 3:-0.76069 
10 1:16.617745 2:-0.936322 3:-0.840014 
10 1:16.616427 2:-0.762487 3:-0.898593 
10 1:16.616346 2:-0.585188 3:-0.947868 
-2.695413427172613 1:16.626884 2:0.156345 3:-1.063767 
-10 1:17.208901 2:0.286236 3:-1.037979 
10 1:17.225302 2:0.786941 3:-1.138719 
10 1:17.235434 2:1.03296 3:-1.14795 
10 1:17.246627 2:1.271776 3:-1.130544 
10 1:17.258118 2:1.475333 3:-1.077825 
10 1:17.269143 2:1.615574 3:-0.981114 
10 1:17.278966 2:1.666067 3:-0.832606 
10 1:17.287408 2:1.636467 3:-0.643851 
10 1:17.294839 2:1.571803 3:-0.445365 
10 1:17.301639 2:1.50728 3:-0.259266 
10 1:17.308147 2:1.44719 3:-0.082526 
10 1:17.3147 2:1.39059 3:0.09214 
-10 1:17.337909 2:1.101581 3:0.784973 
-10 1:17.340799 2:0.987428 3:0.936693 
-10 1:17.343326 2:0.866799 3:1.086793 
-10 1:17.34582 2:0.744659 3:1.237529 
-10 1:17.347753 2:0.617164 3:1.38183 
-10 1:17.348479 2:0.479302 3:1.511389 
10 1:17.312485 2:-0.601652 3:1.717505 
10 1:17.301649 2:-0.783851 3:1.65962 
10 1:17.289954 2:-0.957774 3:1.578112 
10 1:17.277607 2:-1.11874 3:1.473086 
10 1:17.264887 2:-1.259058 3:1.34354 
10 1:17.252082 2:-1.3708 3:1.188388 
10 1:17.239586 2:-1.446553 3:1.009117 
10 1:17.228198 2:-1.48078 3:0.8166 
10 1:17.21881 2:-1.468374 3:0.623852 
-10 1:17.212187 2:-1.405996 3:0.442981 
-10 1:17.207128 2:-1.318652 3:0.271573 
-10 1:17.200846 2:-1.254145 3:0.095537 
-10 1:17.191748 2:-1.239761 3:-0.093225 
-10 1:17.18685 2:-1.155752 3:-0.258703 
-10 1:17.18467 2:-1.028544 3:-0.407573 
-10 1:17.18253 2:-0.905638 3:-0.552064 
-10 1:17.181234 2:-0.775351 3:-0.686354 
-10 1:17.181703 2:-0.625077 3:-0.803084 
-10 1:17.184776 2:-0.45419 3:-0.886505 
-10 1:17.190829 2:-0.269322 3:-0.923751 
-10 1:17.197852 2:-0.080375 3:-0.945574 
-10 1:17.203955 2:0.105233 3:-0.982471 
-10 1:17.84455 2:1.053139 3:-0.916318 
-10 1:17.823996 2:1.181939 3:-0.744797 
-10 1:17.803644 2:1.241669 3:-0.569711 
-10 1:17.783394 2:1.251055 3:-0.391634 
-10 1:17.763147 2:1.228823 3:-0.211136 
-10 1:17.742804 2:1.1937 3:-0.02879 
-10 1:17.722265 2:1.16441 3:0.15483 
-10 1:17.701452 2:1.156861 3:0.339185 
-10 1:17.680453 2:1.164895 3:0.52398 
10 1:17.638569 2:1.161657 3:0.894061 
10 1:17.618332 2:1.122793 3:1.075755 
10 1:17.599499 2:1.049604 3:1.247714 
10 1:17.582906 2:0.940465 3:1.402662 
10 1:17.5695 2:0.802308 3:1.53172 
10 1:17.560236 2:0.643194 3:1.62583 
10 1:17.55548 2:0.469805 3:1.68124 
10 1:17.554378 2:0.285962 3:1.705185 
-10 1:17.559124 2:-0.099217 3:1.693077 
-10 1:17.563064 2:-0.293582 3:1.673323 
-10 1:17.5679 2:-0.484082 3:1.645349 
-10 1:17.574415 2:-0.666612 3:1.601948 
10 1:17.629212 2:-1.239767 3:1.162433 
10 1:17.648626 2:-1.33064 3:0.998034 
10 1:17.66897 2:-1.397727 3:0.823593 
5.741146930491811 1:17.813001 2:-1.331146 3:-0.453324 
10 1:17.829395 2:-1.225569 3:-0.606247 
-10 1:17.866105 2:-0.015548 3:-1.02398 
-10 1:17.862186 2:0.155905 3:-1.002638 
-10 1:17.858228 2:0.323079 3:-0.980619 
-10 1:17.852413 2:0.520115 3:-0.944523 
-10 1:17.843392 2:0.772722 3:-0.884405 
-10 1:17.834761 2:1.019936 3:-0.827317 
-6.777402325248497 1:17.832982 2:1.150649 3:-0.821716 
10 1:18.292276 2:0.445504 3:-1.273119 
10 1:18.312058 2:0.660172 3:-1.333164 
10 1:18.331261 2:0.86945 3:-1.313982 
10 1:18.34868 2:1.060054 3:-1.230827 
10 1:18.363112 2:1.218703 3:-1.098958 
10 1:18.373353 2:1.332113 3:-0.933631 
10 1:18.378199 2:1.387002 3:-0.750103 
-10 1:18.362619 2:1.223707 3:-0.203667 
-10 1:18.354435 2:1.136582 3:-0.033902 
-10 1:18.346882 2:1.056353 3:0.138387 
-10 1:18.339971 2:0.98316 3:0.315688 
-10 1:18.332323 2:0.901905 3:0.488776 
-10 1:18.322664 2:0.798608 3:0.648852 
-10 1:18.311988 2:0.684153 3:0.80241 
-10 1:18.30245 2:0.582182 3:0.963746 
-10 1:18.295635 2:0.510038 3:1.140781 
-10 1:18.292267 2:0.475593 3:1.331918 
10 1:18.291839 2:0.475322 3:1.710438 
10 1:18.280696 2:0.355151 3:1.809425 
10 1:18.261921 2:0.151124 3:1.841636 
10 1:18.23941 2:-0.094132 3:1.825701 
10 1:18.216909 2:-0.339633 3:1.77947 
10 1:18.196242 2:-0.565436 3:1.71079 
10 1:18.177902 2:-0.766148 3:1.620596 
10 1:18.162357 2:-0.936667 3:1.509683 
10 1:18.150075 2:-1.071892 3:1.378845 
10 1:18.141524 2:-1.166721 3:1.228879 
-10 1:18.137092 2:-1.219073 3:0.87572 
-10 1:18.138978 2:-1.200784 3:0.681964 
-10 1:18.139645 2:-1.195754 3:0.489155 
-10 1:18.137111 2:-1.225499 3:0.303192 
-10 1:18.132187 2:-1.281218 3:0.120821 
-10 1:18.12608 2:-1.349826 3:-0.062506 
10 1:18.115929 2:-1.464745 3:-0.44261 
10 1:18.115891 2:-1.467363 3:-0.633008 
10 1:18.122034 2:-1.402608 3:-0.815634 
10 1:18.134544 2:-1.267976 3:-0.95112 
10 1:18.151436 2:-1.084569 3:-0.993756 
10 1:18.169638 2:-0.886391 3:-0.991768 
10 1:18.187412 2:-0.692811 3:-0.985825 
-10 1:18.22193 2:-0.317066 3:-0.989704 
-10 1:18.238938 2:-0.132139 3:-1.01068 
10 1:18.723351 2:0.383298 3:-1.218507 
10 1:18.748273 2:0.573434 3:-1.259522 
10 1:18.781279 2:0.790643 3:-1.239391 
10 1:18.816509 2:0.998747 3:-1.166803 
10 1:18.848106 2:1.161573 3:-1.050449 
10 1:18.870291 2:1.243497 3:-0.899035 
-3.896526332087156 1:18.886522 2:1.183768 3:-0.530736 
-10 1:18.890539 2:1.120754 3:-0.335791 
-10 1:18.897902 2:1.083173 3:-0.146156 
-10 1:18.909633 2:1.078438 3:0.037329 
-10 1:18.92573 2:1.105829 3:0.216165 
-10 1:18.944708 2:1.153139 3:0.394704 
-10 1:18.964584 2:1.204278 3:0.578261 
-10 1:18.983352 2:1.243244 3:0.771651 
10 1:19.007498 2:1.229503 3:1.1579 
10 1:19.007256 2:1.151783 3:1.321581 
10 1:18.99668 2:1.019158 3:1.450761 
10 1:18.979041 2:0.852596 3:1.548631 
10 1:18.958224 2:0.676286 3:1.620533 
10 1:18.935842 2:0.499374 3:1.670611 
10 1:18.911666 2:0.318817 3:1.702042 
10 1:18.885415 2:0.131218 3:1.717972 
10 1:18.856819 2:-0.066704 3:1.721476 
10 1:18.826213 2:-0.272315 3:1.71183 
10 1:18.794817 2:-0.474306 3:1.682733 
10 1:18.763925 2:-0.66067 3:1.627441 
10 1:18.734828 2:-0.819405 3:1.53921 
10 1:18.708818 2:-0.938505 3:1.411295 
-10 1:18.665324 2:-1.075425 3:1.063442 
-10 1:18.643558 2:-1.144055 3:0.889607 
-10 1:18.621098 2:-1.219628 3:0.720471 
-10 1:18.598005 2:-1.300321 3:0.552989 
10 1:18.552355 2:-1.454444 3:0.21032 
10 1:18.534081 2:-1.495226 3:0.028124 
10 1:18.522414 2:-1.487079 3:-0.161746 
10 1:18.5211 2:-1.416001 3:-0.33412 
-10 1:18.545949 2:-1.130829 3:-0.580728 
-10 1:18.563565 2:-0.967337 3:-0.672337 
-10 1:18.582731 2:-0.798796 3:-0.751911 
-10 1:18.602681 2:-0.627611 3:-0.82559 
-10 1:18.622649 2:-0.456188 3:-0.899515 
-10 1:18.642531 2:-0.28513 3:-0.973937 
-10 1:18.666478 2:-0.103223 3:-1.01165 
-6.163093204813835 1:18.691487 2:0.081814 3:-1.040417 
-10 1:19.397058 2:-0.786231 3:-0.795875 
-10 1:19.360618 2:-0.562999 3:-0.778837 
-10 1:19.333189 2:-0.385676 3:-0.825021 
-10 1:19.311723 2:-0.238387 3:-0.91512 
10 1:19.274467 2:0.029586 3:-1.149837 
10 1:19.252575 2:0.182018 3:-1.255841 
10 1:19.225687 2:0.360412 3:-1.330056 
10 1:19.196082 2:0.548621 3:-1.359675 
10 1:19.166872 2:0.725491 3:-1.332907 
10 1:19.140833 2:0.872449 3:-1.241125 
10 1:19.118263 2:0.98998 3:-1.099059 
10 1:19.098346 2:1.087104 3:-0.931892 
10 1:19.080381 2:1.171438 3:-0.760395 
10 1:19.003162 2:1.486279 3:0.279184 
10 1:18.994451 2:1.512198 3:0.457314 
10 1:18.987757 2:1.524238 3:0.644195 
10 1:18.984025 2:1.516166 3:0.842163 
10 1:18.985017 2:1.479588 3:1.035194 
10 1:18.992773 2:1.405368 3:1.200944 
10 1:19.009289 2:1.284618 3:1.317397 
10 1:19.034312 2:1.11995 3:1.377901 
10 1:19.064449 2:0.930057 3:1.397292 
-10 1:19.126487 2:0.548721 3:1.376506 
-10 1:19.155767 2:0.369907 3:1.359324 
-10 1:19.184509 2:0.193521 3:1.347893 
-10 1:19.213304 2:0.014755 3:1.349475 
-10 1:19.242442 2:-0.167823 3:1.361772 
-10 1:19.271752 2:-0.350503 3:1.367919 
-10 1:19.301027 2:-0.529145 3:1.349831 
-1.784158835047308 1:19.329993 2:-0.699503 3:1.291368 
10 1:19.405577 2:-1.107977 3:0.910017 
10 1:19.423288 2:-1.19144 3:0.74298 
-10 1:19.461462 2:-1.314121 3:0.019959 
-1.256565250752143 1:19.469555 2:-1.306746 3:-0.345096 
-10 1:19.462764 2:-1.23773 3:-0.515811 
-10 1:19.447747 2:-1.121805 3:-0.660586 
-10 1:19.425509 2:-0.968221 3:-0.76031 
10 1:19.572917 2:-0.769702 3:-1.310733 
10 1:19.603708 2:-0.559089 3:-1.253754 
10 1:19.632574 2:-0.382714 3:-1.153429 
-10 1:19.659993 2:-0.232337 3:-1.01993 
-10 1:19.686445 2:-0.099713 3:-0.86343 
-10 1:19.712408 2:0.0234 3:-0.694103 
-10 1:19.738459 2:0.146785 3:-0.523881 
-10 1:19.765972 2:0.29282 3:-0.379108 
-10 1:19.795436 2:0.482521 3:-0.298233 
-10 1:19.818451 2:0.677636 3:-0.339549 
-10 1:19.838548 2:0.871917 3:-0.428849 
10 1:19.863836 2:1.07858 3:-0.457043 
10 1:19.893413 2:1.28594 3:-0.413565 
10 1:19.923574 2:1.474638 3:-0.318545 
10 1:19.951943 2:1.633313 3:-0.187299 
10 1:19.978371 2:1.764055 3:-0.027024 
10 1:20.002921 2:1.870244 3:0.155856 
10 1:20.025659 2:1.955261 3:0.354919 
10 1:20.046565 2:2.021868 3:0.563665 
10 1:20.063452 2:2.057129 3:0.773565 
10 1:20.07185 2:2.031548 3:0.973953 
10 1:20.068685 2:1.926389 3:1.154002 
10 1:20.055747 2:1.760347 3:1.302697 
10 1:20.035814 2:1.559684 3:1.408987 
10 1:20.01166 2:1.350659 3:1.461818 
10 1:19.985639 2:1.155367 3:1.4522 
-10 1:19.925038 2:0.772292 3:1.270051 
-10 1:19.888796 2:0.557901 3:1.128383 
-10 1:19.857622 2:0.35797 3:1.041081 
-10 1:19.843709 2:0.220313 3:1.109921 
-10 1:19.846184 2:0.143028 3:1.324239 
-10 1:19.784305 2:-0.353321 3:1.372454 
10 1:19.695387 2:-0.920346 3:1.116209 
10 1:19.66895 2:-1.062267 3:0.980659 
10 1:19.643657 2:-1.177207 3:0.804586 
10 1:19.620668 2:-1.262213 3:0.601215 
10 1:19.601142 2:-1.314333 3:0.383769 
-10 1:19.576615 2:-1.311235 3:-0.042007 
-10 1:19.569633 2:-1.274679 3:-0.242632 
-10 1:19.563176 2:-1.229157 3:-0.454249 
-10 1:19.558326 2:-1.167914 3:-0.673422 
10 1:19.587477 2:-0.748589 3:-1.109073 
-10 1:20.396344 2:0.143698 3:-0.748314 
-10 1:20.383276 2:0.24412 3:-0.58561 
-10 1:20.3733 2:0.353539 3:-0.433657 
-10 1:20.371716 2:0.488498 3:-0.309981 
-10 1:20.379057 2:0.65065 3:-0.216334 
-10 1:20.388705 2:0.819349 3:-0.130855 
-10 1:20.396989 2:0.982992 3:-0.04155 
-10 1:20.408713 2:1.156045 3:0.03527 
10 1:20.431173 2:1.494767 3:0.188537 
10 1:20.423984 2:1.605158 3:0.324733 
1.325210653111961 1:20.315633 2:1.712099 3:1.059402 
-10 1:20.241623 2:1.376252 3:1.215023 
-10 1:20.206165 2:1.186341 3:1.265018 
-10 1:20.172255 2:1.013981 3:1.320674 
-10 1:20.137386 2:0.844964 3:1.384867 
-9.07634260030645 1:20.101843 2:0.671312 3:1.449133 
-10 1:20.0074 2:-0.048393 3:1.401226 
-10 1:19.999546 2:-0.209992 3:1.311098 
-10 1:19.99336 2:-0.371068 3:1.211497 
-10 1:19.985475 2:-0.5398 3:1.115508 
-10 1:19.974994 2:-0.716724 3:1.028024 
10 1:19.9661 2:-1.024575 3:0.82025 
10 1:19.978281 2:-1.118269 3:0.668509 
10 1:20.154934 2:-1.387707 3:-0.609778 
10 1:20.183729 2:-1.399538 3:-0.790975 
10 1:20.218998 2:-1.377041 3:-0.981592 
10 1:20.259335 2:-1.304363 3:-1.159852 
10 1:20.293662 2:-1.16754 3:-1.248074 
10 1:20.320407 2:-0.979676 3:-1.248009 
10 1:20.348309 2:-0.780885 3:-1.245572 
-4.496043983734129 1:20.367335 2:-0.461381 3:-1.088161 
-10 1:20.37207 2:-0.303232 3:-0.982414 
-10 1:20.629228 2:-0.051043 3:-0.856859 
-4.667001878327638 1:20.649526 2:0.570639 3:-0.45782 
-10 1:20.659528 2:0.706464 3:-0.332116 
-10 1:20.669119 2:0.844306 3:-0.20842 
-10 1:20.677298 2:0.988275 3:-0.091943 
-10 1:20.684599 2:1.135914 3:0.019987 
-10 1:20.875348 2:1.236779 3:1.381747 
-10 1:20.888067 2:1.048937 3:1.391618 
-10 1:20.902397 2:0.865264 3:1.414369 
-10 1:20.918969 2:0.686794 3:1.45479 
10 1:20.953004 2:0.327376 3:1.540778 
10 1:20.967515 2:0.138021 3:1.562412 
10 1:20.978218 2:-0.053655 3:1.55674 
10 1:20.983362 2:-0.235761 3:1.516579 
10 1:20.981219 2:-0.396395 3:1.434932 
10 1:20.971626 2:-0.530723 3:1.312681 
10 1:20.956772 2:-0.644539 3:1.162565 
10 1:20.939041 2:-0.744512 3:0.998298 
10 1:20.920581 2:-0.836588 3:0.83227 
5.337538226087539 1:20.901843 2:-0.921493 3:0.667305 
10 1:20.80181 2:-1.280418 3:-0.174133 
10 1:20.784176 2:-1.393353 3:-0.34312 
10 1:20.766084 2:-1.489027 3:-0.508094 
10 1:20.74459 2:-1.510491 3:-0.665744 
10 1:20.718283 2:-1.432404 3:-0.815286 
-10 1:20.626305 2:-0.37893 3:-1.013476 
-10 1:20.63282 2:-0.230269 3:-0.906563 
10 1:21.491312 2:-0.658546 3:-1.435713 
10 1:21.480183 2:-0.492929 3:-1.36607 
10 1:21.466512 2:-0.335197 3:-1.281679 
10 1:21.450702 2:-0.184567 3:-1.184895 
10 1:21.433159 2:-0.040254 3:-1.078074 
10 1:21.414285 2:0.098524 3:-0.963571 
10 1:21.394485 2:0.232552 3:-0.84374 
10 1:21.374162 2:0.362614 3:-0.720936 
10 1:21.353719 2:0.489718 3:-0.597499 
10 1:21.333538 2:0.617701 3:-0.475585 
10 1:21.31399 2:0.752336 3:-0.35722 
10 1:21.295435 2:0.899342 3:-0.244387 
10 1:21.277306 2:1.053567 3:-0.133872 
10 1:21.257224 2:1.188705 3:-0.012354 
-10 1:21.202851 2:1.304253 3:0.310311 
-10 1:21.172922 2:1.315242 3:0.486585 
-10 1:21.143197 2:1.326282 3:0.661662 
-10 1:21.112754 2:1.346465 3:0.841192 
-10 1:21.081259 2:1.376561 3:1.027157 
-10 1:21.050845 2:1.382438 3:1.206157 
-10 1:21.024271 2:1.321646 3:1.360879 
10 1:20.99027 2:1.005879 3:1.552817 
10 1:20.985172 2:0.819943 3:1.578083 
10 1:20.987382 2:0.64039 3:1.560539 
-10 1:21.01381 2:0.121576 3:1.391979 
-10 1:21.021757 2:-0.050981 3:1.340875 
10 1:21.038167 2:-0.393577 3:1.235694 
10 1:21.050886 2:-0.559767 3:1.156692 
10 1:21.068508 2:-0.715768 3:1.049113 
10 1:21.090449 2:-0.847525 3:0.916751 
10 1:21.115928 2:-0.9401 3:0.764578 
10 1:21.144156 2:-0.979657 3:0.597579 
-10 1:21.20512 2:-0.940494 3:0.240076 
-10 1:21.235893 2:-0.907417 3:0.059955 
-10 1:21.266209 2:-0.886982 3:-0.117797 
-10 1:21.296053 2:-0.888825 3:-0.293341 
-10 1:21.325437 2:-0.920559 3:-0.466934 
-10 1:21.354601 2:-0.969197 3:-0.639666 
-10 1:21.383924 2:-1.009538 3:-0.813116 
-10 1:21.413763 2:-1.017669 3:-0.988792 
-10 1:21.44407 2:-0.999217 3:-1.166538 
-10 1:21.734057 2:-0.395285 3:-0.812794 
-10 1:21.761563 2:-0.207652 3:-0.770771 
10 1:21.829768 2:0.302294 3:-0.543623 
10 1:21.848458 2:0.456886 3:-0.440504 
10 1:21.865487 2:0.604913 3:-0.326829 
10 1:21.881075 2:0.747053 3:-0.204486 
-1.817777602663466 1:21.922137 2:1.148268 3:0.191495 
-10 1:21.936034 2:1.281859 3:0.31946 
10 1:21.965991 2:1.761003 3:1.121365 
10 1:21.947347 2:1.707128 3:1.294591 
10 1:21.919198 2:1.584286 3:1.441952 
10 1:21.886961 2:1.420804 3:1.547955 
10 1:21.855376 2:1.242192 3:1.601095 
10 1:21.825241 2:1.056821 3:1.610641 
-10 1:21.741297 2:0.4948 3:1.511584 
-10 1:21.718909 2:0.327563 3:1.437443 
-10 1:21.702175 2:0.183818 3:1.330449 
-10 1:21.690712 2:0.06227 3:1.193653 
-10 1:21.683098 2:-0.042947 3:1.035414 
-10 1:21.677905 2:-0.137735 3:0.864133 
-10 1:21.673704 2:-0.227995 3:0.688211 
-10 1:21.669023 2:-0.319953 3:0.515882 
-10 1:21.662228 2:-0.421105 3:0.354716 
-10 1:21.651642 2:-0.539256 3:0.212127 
-10 1:21.635633 2:-0.682021 3:0.095332 
-10 1:21.615402 2:-0.843973 3:-0.001459 
-10 1:21.59673 2:-0.998622 3:-0.10505 
10 1:21.571429 2:-1.389416 3:-0.744107 
10 1:21.569264 2:-1.464999 3:-0.914755 
10 1:21.579406 2:-1.474652 3:-1.116191 
8.950735504035725 1:21.602792 2:-1.403465 3:-1.323558 
-10 1:21.658149 2:-1.030537 3:-1.251904 
-10 1:21.670059 2:-0.891131 3:-1.073663 
-10 1:21.687037 2:-0.739815 3:-0.950058 
-10 1:21.709308 2:-0.57479 3:-0.879982 
10 1:22.309175 2:-0.358031 3:-1.304464 
10 1:22.315539 2:-0.143656 3:-1.242786 
10 1:22.316402 2:0.011719 3:-1.133548 
10 1:22.313076 2:0.122583 3:-0.987763 
10 1:22.306874 2:0.203424 3:-0.816445 
10 1:22.299107 2:0.268731 3:-0.630609 
-10 1:22.284084 2:0.410161 3:-0.259073 
-10 1:22.278627 2:0.505689 3:-0.088864 
-10 1:22.274664 2:0.618185 3:0.06919 
-10 1:22.272211 2:0.74714 3:0.214405 
-10 1:22.271726 2:0.896801 3:0.342289 
-10 1:22.274798 2:1.072592 3:0.429809 
-10 1:22.283722 2:1.278543 3:0.440692 
10 1:22.294321 2:1.479968 3:0.419116 
10 1:22.295543 2:1.601814 3:0.495406 
-5.400534396564118 1:22.271066 2:1.617795 3:0.929461 
10 1:22.230084 2:1.447543 3:1.498879 
10 1:22.217019 2:1.303317 3:1.608557 
10 1:22.204336 2:1.116853 3:1.677937 
10 1:22.192911 2:0.914552 3:1.713022 
10 1:22.18341 2:0.718531 3:1.719998 
10 1:22.175412 2:0.528413 3:1.705837 
10 1:22.168144 2:0.336641 3:1.677766 
10 1:22.160848 2:0.135779 3:1.642919 
10 1:22.153887 2:-0.068928 3:1.599258 
10 1:22.149678 2:-0.248963 3:1.527916 
10 1:22.150787 2:-0.374173 3:1.408826 
10 1:22.157522 2:-0.440245 3:1.240127 
-10 1:22.167585 2:-0.472724 3:1.040989 
-10 1:22.178531 2:-0.498811 3:0.831755 
-10 1:22.187916 2:-0.545712 3:0.632767 
-10 1:22.194115 2:-0.631273 3:0.457723 
-10 1:22.199555 2:-0.727143 3:0.287533 
-10 1:22.20536 2:-0.819532 3:0.113827 
-10 1:22.210129 2:-0.923242 3:-0.051091 
-0.3770123346961106 1:22.212372 2:-1.054089 3:-0.194199 
10 1:22.214392 2:-1.342169 3:-0.459039 
10 1:22.222205 2:-1.40981 3:-0.647544 
10 1:22.23494 2:-1.376229 3:-0.839905 
-10 1:22.263447 2:-1.082561 3:-1.096036 
-10 1:22.27763 2:-1.002039 3:-1.27585 
10 1:22.309658 2:-0.492029 3:-1.4198 
-10 1:22.734968 2:-0.027637 3:-0.390319 
-10 1:22.768343 2:0.170702 3:-0.342745 
-10 1:22.801715 2:0.36924 3:-0.296511 
10 1:22.901792 2:0.965065 3:-0.160473 
10 1:22.934941 2:1.165079 3:-0.131304 
10 1:22.963319 2:1.317492 3:0.006194 
10 1:22.978397 2:1.378513 3:0.198571 
-10 1:22.995536 2:1.414116 3:0.619126 
-10 1:23.008806 2:1.463038 3:0.817071 
-10 1:23.022628 2:1.515179 3:1.016148 
-8.884518757634645 1:22.968014 2:1.086753 3:1.559401 
-10 1:22.936022 2:0.886367 3:1.575196 
-10 1:22.902867 2:0.683223 3:1.564514 
-10 1:22.869167 2:0.480123 3:1.533413 
-10 1:22.835601 2:0.280386 3:1.487185 
-10 1:22.802439 2:0.085369 3:1.427636 
-10 1:22.769655 2:-0.10496 3:1.35404 
-10 1:22.737422 2:-0.28937 3:1.265391 
-10 1:22.706173 2:-0.464961 3:1.160397 
-10 1:22.59144 2:-0.999416 3:0.11573 
-10 1:22.590365 2:-0.970925 3:-0.094369 
-10 1:22.585695 2:-0.965227 3:-0.301037 
-10 1:22.569505 2:-1.033745 3:-0.489697 
10 1:22.508072 2:-1.36741 3:-0.76505 
10 1:22.484332 2:-1.491528 3:-0.900325 
10 1:22.478724 2:-1.495121 3:-1.086108 
10 1:22.479164 2:-1.45437 3:-1.313487 
10 1:22.475364 2:-1.438198 3:-1.550663 
10 1:22.485546 2:-1.349789 3:-1.702973 
-10 1:22.582737 2:-0.83912 3:-1.164393 
-10 1:22.611911 2:-0.678494 3:-1.046615 
-10 1:22.645529 2:-0.486811 3:-0.950282 
10 1:22.710485 2:-0.099675 3:-0.864433 
10 1:22.734619 2:0.039532 3:-0.804832 
10 1:23.391646 2:-0.311812 3:-1.447158 
10 1:23.40827 2:-0.119762 3:-1.397263 
10 1:23.400377 2:-0.047917 3:-1.264281 
10 1:23.376934 2:-0.051638 3:-1.07794 
-10 1:23.31768 2:-0.113943 3:-0.657787 
-10 1:23.292841 2:-0.112921 3:-0.45558 
-10 1:23.275378 2:-0.064064 3:-0.267158 
-10 1:23.267394 2:0.0442 3:-0.098432 
-10 1:23.268075 2:0.198556 3:0.044389 
-10 1:23.276513 2:0.381771 3:0.152116 
-10 1:23.292986 2:0.5794 3:0.20859 
-10 1:23.317876 2:0.777584 3:0.197419 
-10 1:23.347357 2:0.972433 3:0.145846 
10 1:23.388345 2:1.370709 3:0.196559 
10 1:23.395113 2:1.548451 3:0.312547 
10 1:23.391121 2:1.679711 3:0.471037 
10 1:23.375224 2:1.738169 3:0.655997 
10 1:23.349024 2:1.72394 3:0.854574 
10 1:23.21043 2:1.295819 3:1.565901 
10 1:23.179149 2:1.125344 3:1.655478 
10 1:23.15183 2:0.928583 3:1.687696 
-10 1:23.110062 2:0.518099 3:1.631574 
-10 1:23.09479 2:0.324647 3:1.569375 
-10 1:23.081271 2:0.136176 3:1.497769 
-10 1:23.06781 2:-0.051764 3:1.426202 
-10 1:23.052726 2:-0.243589 3:1.364047 
3.608225337903841 1:23.019342 2:-0.635808 3:1.257556 
10 1:23.006256 2:-0.823793 3:1.182907 
10 1:22.999157 2:-0.997534 3:1.073441 
10 1:22.999132 2:-1.149727 3:0.927377 
10 1:23.006 2:-1.27252 3:0.753736 
10 1:23.01954 2:-1.358047 3:0.561849 
10 1:23.039535 2:-1.398443 3:0.361044 
10 1:23.065278 2:-1.391236 3:0.159419 
10 1:23.094446 2:-1.351842 3:-0.039017 
-10 1:23.183909 2:-1.198723 3:-0.616609 
-10 1:23.213619 2:-1.165655 3:-0.825517 
-10 1:23.243794 2:-1.124942 3:-1.030844 
-10 1:23.275164 2:-1.019553 3:-1.18369 
-10 1:23.307974 2:-0.839922 3:-1.276861 
-10 1:23.8496 2:-0.093892 3:-0.63927 
-10 1:23.814969 2:-0.040622 3:-0.434697 
-10 1:23.777895 2:0.051794 3:-0.246069 
-10 1:23.740708 2:0.18112 3:-0.088311 
-10 1:23.70574 2:0.345118 3:0.023652 
-10 1:23.674923 2:0.537962 3:0.080848 
-10 1:23.648709 2:0.740426 3:0.096526 
-10 1:23.626489 2:0.937488 3:0.087969 
10 1:23.582687 2:1.347161 3:0.052891 
10 1:23.55655 2:1.551336 3:0.066538 
10 1:23.529938 2:1.662145 3:0.163763 
10 1:23.504036 2:1.674787 3:0.340122 
9.416322161045258 1:23.479104 2:1.620992 3:0.566497 
-10 1:23.455401 2:1.532564 3:0.813718 
-10 1:23.433191 2:1.441204 3:1.052662 
-10 1:23.413761 2:1.361771 3:1.261279 
-10 1:23.400541 2:1.273763 3:1.432374 
10 1:23.499738 2:0.128539 3:1.698452 
10 1:23.528481 2:-0.08121 3:1.670758 
10 1:23.557991 2:-0.277694 3:1.626129 
10 1:23.589081 2:-0.460412 3:1.558265 
10 1:23.622529 2:-0.628856 3:1.461104 
10 1:23.658255 2:-0.782369 3:1.334665 
-0.1661740466035348 1:23.985221 2:-1.370319 3:-0.523825 
5.764429431714742 1:24.008114 2:-0.459231 3:-1.471349 
10 1:23.978926 2:-0.273602 3:-1.419728 
10 1:23.943148 2:-0.135342 3:-1.279815 
-10 1:24.269748 2:-0.827314 3:-1.047667 
-10 1:24.270945 2:-0.519271 3:-0.97802 
-10 1:24.268987 2:-0.364049 3:-0.846941 
-10 1:24.264704 2:-0.298865 3:-0.662182 
-10 1:24.258925 2:-0.260939 3:-0.431496 
-10 1:24.25248 2:-0.187487 3:-0.162638 
-10 1:24.246814 2:-0.041346 3:0.104027 
-10 1:24.245634 2:0.120679 3:0.208505 
-10 1:24.251414 2:0.228358 3:0.031905 
-10 1:24.259245 2:0.245978 3:-0.255055 
-10 1:24.264946 2:0.183352 3:-0.492002 
10 1:24.277614 2:0.186538 3:-0.965581 
10 1:24.283093 2:0.354503 3:-1.108484 
10 1:24.284443 2:0.597113 3:-1.068868 
10 1:24.284176 2:0.843437 3:-0.967319 
10 1:24.281903 2:1.008693 3:-0.820679 
10 1:24.276359 2:1.052892 3:-0.596478 
10 1:24.269488 2:1.05465 3:-0.338302 
-10 1:24.259698 2:1.244624 3:0.099207 
-10 1:24.25533 2:1.36569 3:0.307933 
-10 1:24.250083 2:1.437351 3:0.531224 
-10 1:24.244225 2:1.484898 3:0.768421 
-10 1:24.238132 2:1.545451 3:1.019305 
7.009956555665521 1:24.219671 2:1.281962 3:1.613201 
10 1:24.215172 2:1.052308 3:1.696478 
10 1:24.211937 2:0.808847 3:1.727191 
10 1:24.206867 2:-0.596045 3:1.394963 
10 1:24.207155 2:-0.815014 3:1.30276 
10 1:24.208266 2:-1.023644 3:1.183565 
10 1:24.210206 2:-1.224752 3:1.036121 
10 1:24.213033 2:-1.409575 3:0.861446 
10 1:24.216878 2:-1.55451 3:0.663459 
10 1:24.221875 2:-1.634987 3:0.446267 
10 1:24.228027 2:-1.639095 3:0.21418 
10 1:24.234856 2:-1.601458 3:-0.02774 
4.252263333448302 1:24.255126 2:-1.519665 3:-0.757027 
7.328049178620494 1:24.261874 2:-1.438914 3:-0.979908 
10 1:24.706689 2:0.368095 3:-0.70133 
0.05926123766794003 1:24.733793 2:0.524652 3:-0.605746 
-10 1:24.847844 2:1.062608 3:-0.096343 
-10 1:24.875869 2:1.209608 3:0.015687 
10 1:24.957504 2:1.665511 3:0.317445 
2.251667467224959 1:24.984085 2:1.744964 3:0.476919 
5.597707604921081 1:25.070507 2:1.712936 3:1.253039 
10 1:25.077803 2:1.618499 3:1.399954 
10 1:25.07379 2:1.473024 3:1.494314 
-10 1:24.862985 2:-0.151677 3:1.112097 
-10 1:24.835262 2:-0.288768 3:0.993888 
-10 1:24.806974 2:-0.425353 3:0.870344 
-10 1:24.777613 2:-0.577484 3:0.7513 
-10 1:24.747779 2:-0.738141 3:0.635739 
-3.822047680651623 1:24.719717 2:-0.866231 3:0.506611 
-10 1:24.695668 2:-0.920245 3:0.346477 
-10 1:24.67478 2:-0.912277 3:0.158688 
-10 1:24.6531 2:-0.908098 3:-0.032586 
-10 1:24.62727 2:-0.964991 3:-0.205579 
-1.589360454102899 1:24.598298 2:-1.075253 3:-0.358403 
10 1:24.512337 2:-1.421149 3:-0.795194 
10 1:24.488098 2:-1.44641 3:-0.982494 
10 1:24.478455 2:-1.369552 3:-1.134119 
10 1:24.484678 2:-1.20455 3:-1.226681 
0.7689301519322118 1:24.501608 2:-0.993762 3:-1.267243 
10 1:0.897971 2:-0.947484 3:-1.528047 
10 1:0.906761 2:-0.642332 3:-1.649824 
10 1:0.906077 2:-0.4742 3:-1.656813 
10 1:0.900404 2:-0.38878 3:-1.602441 
10 1:0.889204 2:-0.322764 3:-1.486294 
10 1:0.873098 2:-0.264806 3:-1.316096 
10 1:0.85474 2:-0.197343 3:-1.12222 
10 1:0.836728 2:-0.089745 3:-0.935553 
10 1:0.822888 2:0.069883 3:-0.798722 
10 1:0.812235 2:0.223128 3:-0.696012 
10 1:0.79996 2:0.332424 3:-0.571885 
10 1:0.784491 2:0.432671 3:-0.412237 
10 1:0.768229 2:0.564041 3:-0.246646 
10 1:0.754759 2:0.742312 3:-0.11544 
10 1:0.747174 2:0.940687 3:-0.049966 
10 1:0.741486 2:1.106716 3:-0.002342 
10 1:0.731241 2:1.249478 3:0.096836 
10 1:0.719898 2:1.432631 3:0.204492 
10 1:0.713587 2:1.626508 3:0.256498 
10 1:0.708485 2:1.699091 3:0.305759 
10 1:0.695892 2:1.680495 3:0.444314 
10 1:0.681824 2:1.604787 3:0.603807 
10 1:0.671928 2:1.496931 3:0.720696 
10 1:0.665531 2:1.354567 3:0.802481 
10 1:0.660708 2:1.176916 3:0.870172 
10 1:0.653273 2:0.992269 3:0.966877 
10 1:0.641465 2:0.844066 3:1.108013 
10 1:0.630759 2:0.719143 3:1.235165 
10 1:0.62466 2:0.578521 3:1.313568 
10 1:0.622569 2:0.412529 3:1.350549 
10 1:0.623802 2:0.232646 3:1.352571 
10 1:0.626089 2:0.047956 3:1.343545 
10 1:0.628499 2:-0.129305 3:1.332535 
10 1:0.634355 2:-0.287551 3:1.282419 
10 1:0.644003 2:-0.399536 3:1.187102 
10 1:0.65902 2:-0.47217 3:1.030001 
10 1:0.6758 2:-0.573071 3:0.856164 
10 1:0.690706 2:-0.697309 3:0.7047 
10 1:0.705124 2:-0.801526 3:0.556837 
10 1:0.719601 2:-0.871131 3:0.405351 
10 1:0.735079 2:-0.89736 3:0.23926 
10 1:0.752756 2:-0.906007 3:0.047746 
10 1:0.771249 2:-0.942147 3:-0.150284 
10 1:0.788285 2:-0.995212 3:-0.331005 
10 1:0.804227 2:-1.020969 3:-0.502186 
10 1:0.820786 2:-1.018491 3:-0.682493 
10 1:0.837714 2:-1.009224 3:-0.867402 
10 1:0.854392 2:-0.986615 3:-1.050728 
10 1:0.871709 2:-0.959993 3:-1.241352 
10 1:0.889306 2:-0.947851 3:-1.433776 
10 1:1.459935 2:-0.698845 3:-1.523045 
10 1:1.437277 2:-0.532148 3:-1.460759 
10 1:1.415345 2:-0.387348 3:-1.381945 
10 1:1.393139 2:-0.254815 3:-1.286406 
10 1:1.370631 2:-0.132341 3:-1.176308 
10 1:1.347845 2:-0.018013 3:-1.054039 
10 1:1.324836 2:0.089981 3:-0.922225 
10 1:1.301668 2:0.193485 3:-0.783663 
10 1:1.278408 2:0.294446 3:-0.641237 
10 1:1.25511 2:0.394931 3:-0.497865 
10 1:1.231809 2:0.497178 3:-0.356426 
7.483116144625925 1:1.208397 2:0.604298 3:-0.219216 
10 1:1.13117 2:1.019046 3:0.164684 
10 1:1.10336 2:1.18735 3:0.28173 
10 1:1.077744 2:1.33717 3:0.395368 
10 1:1.057333 2:1.441208 3:0.503072 
10 1:1.044785 2:1.482287 3:0.594883 
10 1:1.037631 2:1.461662 3:0.696487 
10 1:1.034542 2:1.376795 3:0.825338 
10 1:1.03576 2:1.25335 3:0.950042 
10 1:1.040267 2:1.119818 3:1.049931 
10 1:1.047535 2:0.979448 3:1.12716 
10 1:1.057201 2:0.830956 3:1.187143 
10 1:1.068984 2:0.674285 3:1.233029 
10 1:1.082701 2:0.509773 3:1.266453 
10 1:1.098173 2:0.337636 3:1.289142 
10 1:1.115088 2:0.159508 3:1.302695 
10 1:1.132976 2:-0.017621 3:1.304449 
10 1:1.151369 2:-0.182742 3:1.287217 
10 1:1.1698 2:-0.326183 3:1.245325 
10 1:1.188495 2:-0.444583 3:1.172531 
10 1:1.208838 2:-0.546783 3:1.063511 
10 1:1.231273 2:-0.642596 3:0.924387 
10 1:1.255134 2:-0.738145 3:0.769312 
10 1:1.27923 2:-0.836209 3:0.614461 
10 1:1.302162 2:-0.927437 3:0.464752 
10 1:1.323037 2:-1.002106 3:0.319106 
10 1:1.341242 2:-1.052375 3:0.175474 
10 1:1.356863 2:-1.07317 3:0.027241 
10 1:1.370886 2:-1.068374 3:-0.132077 
10 1:1.384101 2:-1.045947 3:-0.302239 
10 1:1.397144 2:-1.014892 3:-0.480177 
10 1:1.410499 2:-0.984725 3:-0.660534 
10 1:1.423537 2:-0.955471 3:-0.836391 
10 1:1.43518 2:-0.920672 3:-1.003134 
10 1:1.444534 2:-0.874095 3:-1.157934 
10 1:1.45083 2:-0.810036 3:-1.298702 
10 1:1.453503 2:-0.715898 3:-1.433354 
10 1:1.677916 2:-0.972743 3:-1.337488 
10 1:1.670038 2:-0.779166 3:-1.301032 
10 1:1.665715 2:-0.609802 3:-1.242573 
10 1:1.663912 2:-0.4516 3:-1.164871 
10 1:1.663987 2:-0.300103 3:-1.071832 
10 1:1.665293 2:-0.151341 3:-0.967739 
10 1:1.667144 2:-0.001442 3:-0.85732 
10 1:1.668812 2:0.153597 3:-0.745665 
10 1:1.669526 2:0.317887 3:-0.638224 
10 1:1.668536 2:0.492829 3:-0.54192 
10 1:1.666503 2:0.66791 3:-0.456317 
10 1:1.665945 2:0.822891 3:-0.367705 
10 1:1.669023 2:0.943435 3:-0.262473 
10 1:1.678169 2:1.029102 3:-0.115765 
10 1:1.69197 2:1.104697 3:0.072921 
10 1:1.703188 2:1.223741 3:0.261378 
10 1:1.701507 2:1.423157 3:0.365444 
10 1:1.693898 2:1.606068 3:0.39818 
10 1:1.696004 2:1.668583 3:0.45802 
10 1:1.71124 2:1.660133 3:0.610365 
10 1:1.730273 2:1.597418 3:0.768902 
10 1:1.748899 2:1.497153 3:0.90037 
10 1:1.767673 2:1.370297 3:1.01718 
10 1:1.786444 2:1.230208 3:1.125894 
10 1:1.805395 2:1.07816 3:1.229176 
10 1:1.824459 2:0.914667 3:1.32667 
10 1:1.840844 2:0.752143 3:1.397053 
10 1:1.851346 2:0.606431 3:1.416875 
10 1:1.855058 2:0.469162 3:1.371644 
10 1:1.853599 2:0.327597 3:1.270358 
10 1:1.849568 2:0.190999 3:1.145497 
10 1:1.84523 2:0.051462 3:1.015682 
10 1:1.842677 2:-0.106741 3:0.892955 
10 1:1.841997 2:-0.270011 3:0.786493 
10 1:1.838644 2:-0.379141 3:0.685379 
10 1:1.828111 2:-0.414213 3:0.555144 
-10 1:1.789068 2:-0.406189 3:0.156458 
-10 1:1.773331 2:-0.47808 3:-0.049986 
4.223321875065762 1:1.767477 2:-0.631303 3:-0.203802 
10 1:1.765475 2:-0.793816 3:-0.323467 
10 1:1.762613 2:-0.944138 3:-0.444595 
10 1:1.763357 2:-1.12855 3:-0.549208 
10 1:1.768105 2:-1.31825 3:-0.615657 
10 1:1.767801 2:-1.37991 3:-0.656357 
10 1:1.75561 2:-1.34831 3:-0.763122 
10 1:1.7306 2:-1.263052 3:-0.969711 
10 1:1.705524 2:-1.21194 3:-1.197792 
10 1:1.688421 2:-1.185563 3:-1.358508 
10 1:1.678161 2:-1.11289 3:-1.420301 
10 1:2.593576 2:-1.269576 3:-1.425085 
10 1:2.558429 2:-1.125055 3:-1.298282 
10 1:2.522497 2:-0.943768 3:-1.212106 
10 1:2.48902 2:-0.751548 3:-1.162028 
10 1:2.457414 2:-0.557457 3:-1.131099 
10 1:2.427237 2:-0.369703 3:-1.104729 
10 1:2.398404 2:-0.197376 3:-1.070375 
10 1:2.371146 2:-0.049876 3:-1.017931 
10 1:2.344866 2:0.069106 3:-0.937268 
10 1:2.315822 2:0.172731 3:-0.812004 
10 1:2.281809 2:0.292971 3:-0.663869 
10 1:2.245851 2:0.448965 3:-0.544689 
10 1:2.212543 2:0.610846 3:-0.456811 
10 1:2.182629 2:0.749987 3:-0.369793 
10 1:2.15371 2:0.863243 3:-0.258132 
10 1:2.123362 2:0.967339 3:-0.121827 
10 1:2.091626 2:1.072543 3:0.025445 
10 1:2.059929 2:1.181186 3:0.167909 
10 1:2.029935 2:1.280953 3:0.306659 
10 1:2.002081 2:1.361778 3:0.450829 
10 1:1.977305 2:1.415003 3:0.603252 
10 1:1.95739 2:1.431801 3:0.759443 
10 1:1.943658 2:1.404211 3:0.91791 
10 1:1.937349 2:1.334292 3:1.064882 
10 1:1.939472 2:1.233651 3:1.176322 
10 1:1.950739 2:1.107663 3:1.238894 
10 1:1.97062 2:0.948936 3:1.266917 
10 1:1.995428 2:0.764429 3:1.284307 
10 1:2.019044 2:0.577739 3:1.315192 
10 1:2.040266 2:0.406927 3:1.346882 
10 1:2.062127 2:0.252504 3:1.351638 
10 1:2.088114 2:0.101723 3:1.314793 
10 1:2.117532 2:-0.046358 3:1.243798 
10 1:2.147798 2:-0.181253 3:1.148142 
10 1:2.177117 2:-0.294344 3:1.032687 
10 1:2.20445 2:-0.380309 3:0.899834 
10 1:2.230308 2:-0.44168 3:0.748292 
10 1:2.256404 2:-0.491826 3:0.580071 
10 1:2.283991 2:-0.545136 3:0.402638 
10 1:2.3139 2:-0.615384 3:0.226394 
10 1:2.345849 2:-0.706214 3:0.058601 
10 1:2.379455 2:-0.817608 3:-0.097358 
10 1:2.413581 2:-0.945313 3:-0.236832 
10 1:2.445552 2:-1.068231 3:-0.363246 
10 1:2.472923 2:-1.161418 3:-0.487088 
10 1:2.495889 2:-1.213706 3:-0.62455 
10 1:2.516342 2:-1.231827 3:-0.783841 
10 1:2.534542 2:-1.222269 3:-0.958862 
10 1:2.550389 2:-1.192427 3:-1.139138 
10 1:2.564148 2:-1.150784 3:-1.316042 
10 1:2.639993 2:-1.603479 3:-1.266894 
10 1:2.666283 2:-1.421331 3:-1.267895 
10 1:2.691301 2:-1.241912 3:-1.259656 
10 1:2.715375 2:-1.063062 3:-1.242355 
10 1:2.73846 2:-0.885179 3:-1.216123 
10 1:2.760512 2:-0.70866 3:-1.181093 
10 1:2.781485 2:-0.533902 3:-1.137401 
10 1:2.801336 2:-0.361307 3:-1.085181 
10 1:2.82002 2:-0.191271 3:-1.024572 
10 1:2.837493 2:-0.024196 3:-0.955712 
10 1:2.85371 2:0.139521 3:-0.878742 
10 1:2.868598 2:0.299132 3:-0.793997 
10 1:2.881766 2:0.452016 3:-0.70136 
10 1:2.892322 2:0.593979 3:-0.597774 
10 1:2.89998 2:0.725695 3:-0.479224 
10 1:2.90617 2:0.854838 3:-0.349136 
10 1:2.912626 2:0.988044 3:-0.215709 
10 1:2.920461 2:1.126093 3:-0.08945 
10 1:2.927492 2:1.256055 3:0.033033 
10 1:2.930778 2:1.366381 3:0.165201 
10 1:2.928589 2:1.451727 3:0.317142 
10 1:2.920854 2:1.507862 3:0.483203 
10 1:2.907773 2:1.529388 3:0.653156 
10 1:2.889648 2:1.512054 3:0.817376 
10 1:2.866639 2:1.452356 3:0.968904 
10 1:2.840802 2:1.355608 3:1.094166 
10 1:2.815117 2:1.231786 3:1.17693 
10 1:2.78924 2:1.080081 3:1.21958 
10 1:2.761485 2:0.901571 3:1.241466 
10 1:2.732185 2:0.712616 3:1.263792 
10 1:2.704469 2:0.537264 3:1.290047 
10 1:2.682678 2:0.382 3:1.284389 
10 1:2.667969 2:0.238781 3:1.22254 
10 1:2.663756 2:0.1402 3:1.117863 
10 1:2.673609 2:0.109081 3:0.967335 
-10 1:2.691332 2:0.099904 3:0.767275 
-10 1:2.696959 2:0.009505 3:0.571581 
10 1:2.67064 2:-0.409625 3:0.214842 
10 1:2.674367 2:-0.49087 3:0.052941 
10 1:2.678077 2:-0.581533 3:-0.123003 
10 1:2.674442 2:-0.711691 3:-0.281465 
10 1:2.661172 2:-0.879057 3:-0.394916 
10 1:2.646584 2:-1.040565 3:-0.485673 
10 1:2.637653 2:-1.169452 3:-0.586572 
10 1:2.636396 2:-1.265475 3:-0.718448 
10 1:2.640817 2:-1.341199 3:-0.879298 
10 1:2.648849 2:-1.402464 3:-1.056238 
10 1:2.657992 2:-1.456319 3:-1.233654 
10 1:3.461185 2:-1.32005 3:-1.541865 
10 1:3.464646 2:-1.130101 3:-1.525193 
10 1:3.464363 2:-0.953433 3:-1.488456 
10 1:3.460957 2:-0.782206 3:-1.433867 
10 1:3.454888 2:-0.615291 3:-1.363991 
10 1:3.446627 2:-0.451761 3:-1.281494 
10 1:3.43666 2:-0.290783 3:-1.189169 
10 1:3.425495 2:-0.131534 3:-1.089919 
10 1:3.413657 2:0.026794 3:-0.986767 
10 1:3.401642 2:0.184848 3:-0.882604 
10 1:3.38966 2:0.343686 3:-0.778482 
10 1:3.377835 2:0.504397 3:-0.674942 
10 1:3.36622 2:0.664465 3:-0.572804 
10 1:3.353625 2:0.812536 3:-0.467103 
10 1:3.338361 2:0.937926 3:-0.349713 
10 1:3.31849 2:1.037553 3:-0.209509 
10 1:3.294679 2:1.119759 3:-0.048871 
10 1:3.269783 2:1.19271 3:0.116506 
10 1:3.24492 2:1.260259 3:0.280615 
10 1:3.21785 2:1.323437 3:0.457239 
10 1:3.186446 2:1.382184 3:0.65925 
10 1:3.153944 2:1.420294 3:0.86383 
10 1:3.127489 2:1.417748 3:1.023694 
10 1:3.11382 2:1.377913 3:1.098658 
10 1:3.105396 2:1.264825 3:1.127311 
10 1:3.097629 2:1.067274 3:1.135233 
10 1:3.085666 2:0.845318 3:1.163751 
10 1:3.066388 2:0.651689 3:1.242233 
10 1:3.047936 2:0.489942 3:1.322023 
10 1:3.035824 2:0.329656 3:1.363673 
10 1:3.029695 2:0.157803 3:1.366762 
10 1:3.028587 2:-0.01243 3:1.339733 
10 1:3.032932 2:-0.17311 3:1.281538 
10 1:3.043346 2:-0.322553 3:1.188787 
10 1:3.059628 2:-0.450853 3:1.064652 
10 1:3.079989 2:-0.537844 3:0.923982 
10 1:3.103156 2:-0.568844 3:0.7774 
10 1:3.131231 2:-0.545129 3:0.61191 
10 1:3.164142 2:-0.507638 3:0.419836 
10 1:3.197618 2:-0.503375 3:0.217754 
10 1:3.229271 2:-0.527642 3:0.021061 
10 1:3.260233 2:-0.562355 3:-0.173506 
10 1:3.291258 2:-0.611079 3:-0.371238 
10 1:3.319162 2:-0.702076 3:-0.558427 
10 1:3.34042 2:-0.838897 3:-0.714415 
10 1:3.357016 2:-0.99088 3:-0.845147 
10 1:3.37225 2:-1.132492 3:-0.96557 
10 1:3.388483 2:-1.241132 3:-1.085506 
10 1:3.407534 2:-1.301641 3:-1.212987 
10 1:3.437092 2:-1.302922 3:-1.392422 
10 1:3.771753 2:-1.182659 3:-1.16941 
10 1:3.774023 2:-0.982681 3:-1.198533 
10 1:3.774336 2:-0.827284 3:-1.165795 
10 1:3.773405 2:-0.681284 3:-1.088368 
10 1:3.771613 2:-0.536303 3:-0.978372 
10 1:3.769452 2:-0.386702 3:-0.852962 
10 1:3.767505 2:-0.224065 3:-0.731989 
10 1:3.766455 2:-0.038574 3:-0.638648 
10 1:3.766863 2:0.163564 3:-0.596125 
10 1:3.767809 2:0.3527 3:-0.57786 
10 1:3.767925 2:0.509976 3:-0.537108 
10 1:3.766628 2:0.655245 3:-0.445886 
10 1:3.765058 2:0.822147 3:-0.338087 
10 1:3.764075 2:0.997132 3:-0.250296 
10 1:3.762829 2:1.134318 3:-0.163365 
10 1:3.760292 2:1.223413 3:-0.041012 
10 1:3.756373 2:1.297767 3:0.129792 
10 1:3.752232 2:1.401082 3:0.317424 
10 1:3.749638 2:1.564822 3:0.46339 
10 1:3.748253 2:1.730904 3:0.563948 
10 1:3.746549 2:1.823897 3:0.655639 
10 1:3.74329 2:1.83848 3:0.784116 
10 1:3.738541 2:1.788303 3:0.950831 
10 1:3.733874 2:1.689329 3:1.100358 
10 1:3.730409 2:1.564507 3:1.196663 
10 1:3.727707 2:1.412656 3:1.256061 
10 1:3.725264 2:1.23288 3:1.297589 
10 1:3.722642 2:1.03391 3:1.34044 
10 1:3.719625 2:0.834531 3:1.398222 
10 1:3.717097 2:0.656926 3:1.443595 
10 1:3.716027 2:0.517654 3:1.444389 
10 1:3.716835 2:0.399283 3:1.379549 
10 1:3.719278 2:0.278579 3:1.251694 
10 1:3.722453 2:0.160347 3:1.096652 
10 1:3.725559 2:0.045633 3:0.945253 
0.5590802286628634 1:3.728576 2:-0.070669 3:0.796778 
10 1:3.731532 2:-0.193938 3:0.648597 
10 1:3.73432 2:-0.326008 3:0.50434 
10 1:3.736806 2:-0.464185 3:0.369821 
10 1:3.739209 2:-0.59352 3:0.241018 
10 1:3.74208 2:-0.702448 3:0.100247 
10 1:3.745629 2:-0.811891 3:-0.066579 
10 1:3.748251 2:-0.982204 3:-0.215511 
10 1:3.748658 2:-1.207402 3:-0.295721 
10 1:3.748727 2:-1.383054 3:-0.348805 
10 1:3.749364 2:-1.425637 3:-0.385354 
10 1:3.753151 2:-1.380119 3:-0.516695 
10 1:3.75874 2:-1.295516 3:-0.705531 
10 1:3.76402 2:-1.226778 3:-0.887142 
10 1:3.769001 2:-1.166946 3:-1.059929 
10 1:4.261212 2:-0.920147 3:-1.542419 
10 1:4.238595 2:-0.667481 3:-1.564636 
10 1:4.224742 2:-0.489306 3:-1.532484 
10 1:4.216455 2:-0.355826 3:-1.460712 
10 1:4.211851 2:-0.247593 3:-1.35423 
10 1:4.209796 2:-0.153394 3:-1.217029 
10 1:4.209208 2:-0.065158 3:-1.057988 
10 1:4.20876 2:0.02687 3:-0.888361 
10 1:4.206957 2:0.133142 3:-0.721827 
10 1:4.203259 2:0.25461 3:-0.568804 
10 1:4.198784 2:0.380127 3:-0.42561 
10 1:4.194584 2:0.502981 3:-0.28134 
10 1:4.162863 2:1.117573 3:0.196024 
10 1:4.155047 2:1.256668 3:0.289546 
10 1:4.151555 2:1.361505 3:0.414751 
10 1:4.152152 2:1.431845 3:0.565828 
10 1:4.156581 2:1.462932 3:0.727642 
10 1:4.16441 2:1.458234 3:0.89708 
10 1:4.175026 2:1.424386 3:1.073118 
10 1:4.187436 2:1.367371 3:1.244831 
10 1:4.200638 2:1.286943 3:1.38885 
10 1:4.214226 2:1.180012 3:1.4899 
10 1:4.229102 2:1.038639 3:1.553 
10 1:4.245544 2:0.865075 3:1.588942 
10 1:4.262735 2:0.673103 3:1.605978 
10 1:4.279588 2:0.48006 3:1.613213 
10 1:4.295016 2:0.296965 3:1.607389 
10 1:4.308303 2:0.12839 3:1.581089 
10 1:4.319062 2:-0.024651 3:1.527469 
10 1:4.327265 2:-0.1649 3:1.440527 
10 1:4.333065 2:-0.292719 3:1.323055 
10 1:4.336456 2:-0.404632 3:1.181723 
10 1:4.337465 2:-0.496656 3:1.024895 
10 1:4.336014 2:-0.563174 3:0.861803 
10 1:4.331606 2:-0.595606 3:0.697843 
10 1:4.323158 2:-0.585668 3:0.524521 
10 1:4.311775 2:-0.556314 3:0.322191 
10 1:4.306977 2:-0.607476 3:0.112746 
10 1:4.309244 2:-0.722636 3:-0.060586 
10 1:4.310937 2:-0.818691 3:-0.209684 
10 1:4.307346 2:-0.857051 3:-0.366574 
10 1:4.300256 2:-0.868356 3:-0.550426 
10 1:4.293652 2:-0.890195 3:-0.743765 
10 1:4.288325 2:-0.924953 3:-0.933233 
10 1:4.283455 2:-0.960543 3:-1.113886 
10 1:4.27736 2:-0.974014 3:-1.279275 
10 1:4.267177 2:-0.941072 3:-1.447227 
10 1:4.639573 2:-0.516308 3:-1.059099 
10 1:4.649424 2:-0.360835 3:-0.990196 
10 1:4.654924 2:-0.147537 3:-0.981286 
10 1:4.657345 2:0.08206 3:-1.009084 
10 1:4.658772 2:0.314967 3:-1.048287 
10 1:4.660786 2:0.531397 3:-1.077354 
10 1:4.664564 2:0.70533 3:-1.077647 
10 1:4.669877 2:0.807239 3:-1.044707 
10 1:4.678403 2:0.855571 3:-0.964904 
10 1:4.69439 2:0.881526 3:-0.80017 
10 1:4.714695 2:0.912803 3:-0.590548 
10 1:4.734936 2:0.992622 3:-0.392957 
10 1:4.752662 2:1.10471 3:-0.229778 
10 1:4.768349 2:1.206755 3:-0.086032 
10 1:4.783892 2:1.275415 3:0.063979 
10 1:4.800438 2:1.315248 3:0.23145 
10 1:4.817447 2:1.336313 3:0.408243 
10 1:4.833993 2:1.343144 3:0.583421 
10 1:4.849924 2:1.332392 3:0.756139 
10 1:4.865477 2:1.30011 3:0.929851 
10 1:4.880846 2:1.2423 3:1.107558 
10 1:4.89515 2:1.159622 3:1.279705 
10 1:4.906839 2:1.057064 3:1.428558 
10 1:4.914499 2:0.942151 3:1.537259 
10 1:4.917261 2:0.821393 3:1.594993 
10 1:4.915141 2:0.684593 3:1.604316 
10 1:4.90903 2:0.520873 3:1.577298 
10 1:4.900422 2:0.335058 3:1.52876 
10 1:4.891332 2:0.132315 3:1.479041 
10 1:4.884061 2:-0.080629 3:1.451124 
10 1:4.879423 2:-0.290615 3:1.450658 
10 1:4.875882 2:-0.485989 3:1.458495 
10 1:4.871809 2:-0.659222 3:1.455473 
10 1:4.865976 2:-0.802949 3:1.42674 
10 1:4.857003 2:-0.921375 3:1.358561 
10 1:4.843955 2:-1.026135 3:1.243639 
10 1:4.827649 2:-1.117351 3:1.090759 
10 1:4.80965 2:-1.1922 3:0.915948 
10 1:4.791613 2:-1.249669 3:0.736676 
10 1:4.774381 2:-1.287676 3:0.561461 
10 1:4.75802 2:-1.303668 3:0.390398 
10 1:4.742429 2:-1.295473 3:0.221919 
10 1:4.727505 2:-1.260727 3:0.054348 
10 1:4.713793 2:-1.198616 3:-0.10667 
10 1:4.702313 2:-1.110297 3:-0.249958 
10 1:4.693636 2:-0.99344 3:-0.369976 
10 1:4.686326 2:-0.849654 3:-0.48168 
10 1:4.677584 2:-0.700224 3:-0.610008 
10 1:4.666461 2:-0.565198 3:-0.760407 
10 1:4.653528 2:-0.459621 3:-0.923255 
10 1:5.292044 2:-0.28312 3:-0.563095 
10 1:5.279458 2:-0.097781 3:-0.518097 
10 1:5.266169 2:0.077448 3:-0.445454 
10 1:5.251876 2:0.255345 3:-0.354351 
10 1:5.23705 2:0.438009 3:-0.257533 
10 1:5.222143 2:0.6286 3:-0.168714 
10 1:5.207748 2:0.82922 3:-0.103293 
10 1:5.194632 2:1.033611 3:-0.07022 
10 1:5.182362 2:1.232841 3:-0.049144 
10 1:5.169974 2:1.423631 3:-0.015136 
10 1:5.158121 2:1.579958 3:0.049614 
10 1:5.147961 2:1.669033 3:0.160326 
10 1:5.138594 2:1.698256 3:0.327367 
10 1:5.131472 2:1.668495 3:0.518216 
10 1:5.128443 2:1.587579 3:0.683256 
10 1:5.129995 2:1.465662 3:0.799413 
10 1:5.134979 2:1.305795 3:0.887835 
10 1:5.141903 2:1.119264 3:0.96697 
10 1:5.148808 2:0.923257 3:1.058172 
10 1:5.153302 2:0.740591 3:1.185209 
10 1:5.1543 2:0.597021 3:1.339958 
10 1:5.156285 2:0.470883 3:1.451935 
10 1:5.162835 2:0.318391 3:1.497362 
10 1:5.173469 2:0.123935 3:1.505852 
10 1:5.185462 2:-0.085893 3:1.503787 
10 1:5.196883 2:-0.27829 3:1.492705 
10 1:5.207806 2:-0.43451 3:1.447973 
10 1:5.219614 2:-0.561527 3:1.348198 
10 1:5.232377 2:-0.664435 3:1.198092 
10 1:5.244565 2:-0.73462 3:1.020262 
10 1:5.255341 2:-0.771562 3:0.832165 
10 1:5.265528 2:-0.791058 3:0.635403 
10 1:5.276105 2:-0.81226 3:0.432292 
10 1:5.28799 2:-0.856317 3:0.228923 
10 1:5.301222 2:-0.931633 3:0.034764 
10 1:5.314943 2:-1.023825 3:-0.149262 
10 1:5.328588 2:-1.118476 3:-0.328597 
10 1:5.341683 2:-1.202796 3:-0.508723 
10 1:5.353709 2:-1.265263 3:-0.692542 
10 1:5.363855 2:-1.295392 3:-0.875346 
10 1:5.371358 2:-1.284054 3:-1.051835 
10 1:5.375663 2:-1.222177 3:-1.221124 
10 1:5.376177 2:-1.112717 3:-1.366734 
10 1:5.372609 2:-0.976314 3:-1.457007 
10 1:5.364666 2:-0.822358 3:-1.474048 
10 1:5.352998 2:-0.655686 3:-1.426014 
10 1:5.340144 2:-0.504745 3:-1.332966 
10 1:5.327782 2:-0.389042 3:-1.207269 
10 1:5.31689 2:-0.318806 3:-1.057559 
10 1:5.296945 2:-0.103278 3:-0.890235 
10 1:5.960806 2:-1.042346 3:-1.138507 
10 1:5.942458 2:-0.882091 3:-1.060223 
10 1:5.923981 2:-0.716418 3:-0.982664 
10 1:5.905756 2:-0.54618 3:-0.908206 
10 1:5.888127 2:-0.371861 3:-0.839072 
10 1:5.871441 2:-0.193912 3:-0.777513 
10 1:5.85605 2:-0.012765 3:-0.72582 
10 1:5.842318 2:0.17109 3:-0.686352 
10 1:5.830608 2:0.356677 3:-0.661314 
10 1:5.820884 2:0.54402 3:-0.650464 
10 1:5.81288 2:0.73347 3:-0.652075 
10 1:5.806277 2:0.914076 3:-0.660679 
10 1:5.797408 2:1.05364 3:-0.641418 
10 1:5.781694 2:1.154918 3:-0.563604 
10 1:5.758048 2:1.241325 3:-0.426772 
10 1:5.730041 2:1.307864 3:-0.253989 
10 1:5.702204 2:1.35374 3:-0.07619 
10 1:5.676127 2:1.381489 3:0.094918 
10 1:5.651046 2:1.394429 3:0.263611 
10 1:5.626056 2:1.395957 3:0.43509 
10 1:5.600836 2:1.38857 3:0.610812 
10 1:5.576733 2:1.367362 3:0.782991 
10 1:5.555452 2:1.324799 3:0.942141 
10 1:5.53812 2:1.253612 3:1.082686 
10 1:5.524954 2:1.148828 3:1.204625 
10 1:5.515792 2:1.015569 3:1.307529 
10 1:5.510789 2:0.863134 3:1.387556 
10 1:5.509994 2:0.701685 3:1.441332 
10 1:5.513166 2:0.537035 3:1.46877 
10 1:5.519523 2:0.366695 3:1.476 
10 1:5.528163 2:0.188773 3:1.469791 
10 1:5.537978 2:0.004323 3:1.45745 
10 1:5.548437 2:-0.178393 3:1.440159 
10 1:5.560381 2:-0.345873 3:1.40809 
10 1:5.574711 2:-0.488398 3:1.352142 
10 1:5.592916 2:-0.60601 3:1.262077 
10 1:5.61561 2:-0.707775 3:1.13639 
10 1:5.641605 2:-0.797834 3:0.984479 
10 1:5.668836 2:-0.878377 3:0.821224 
10 1:5.695703 2:-0.947505 3:0.657063 
10 1:5.721634 2:-0.999993 3:0.494357 
10 1:5.746434 2:-1.031741 3:0.333228 
10 1:5.770419 2:-1.03931 3:0.170471 
10 1:5.794711 2:-1.027207 3:-0.00028 
10 1:5.820368 2:-1.00953 3:-0.182093 
10 1:5.848028 2:-1.002825 3:-0.374408 
10 1:5.87715 2:-1.021795 3:-0.569092 
10 1:5.904917 2:-1.051079 3:-0.75137 
10 1:5.928287 2:-1.060906 3:-0.909219 
10 1:5.94837 2:-1.022836 3:-1.058787 
10 1:6.049583 2:-1.094478 3:-1.05315 
10 1:6.066429 2:-0.92354 3:-1.021103 
10 1:6.081297 2:-0.734209 3:-1.020328 
10 1:6.094057 2:-0.542573 3:-1.040527 
10 1:6.105758 2:-0.351444 3:-1.070062 
10 1:6.117268 2:-0.164449 3:-1.098382 
10 1:6.129305 2:0.013843 3:-1.11565 
10 1:6.14242 2:0.178198 3:-1.113075 
10 1:6.157047 2:0.324214 3:-1.083534 
10 1:6.174641 2:0.457057 3:-1.017376 
10 1:6.196583 2:0.595934 3:-0.915708 
10 1:6.22012 2:0.756033 3:-0.814603 
10 1:6.241651 2:0.921935 3:-0.736035 
10 1:6.260857 2:1.06125 3:-0.659743 
10 1:6.279732 2:1.162388 3:-0.559173 
10 1:6.300089 2:1.231673 3:-0.422238 
10 1:6.320467 2:1.27237 3:-0.264653 
10 1:6.340017 2:1.290533 3:-0.098542 
10 1:6.360021 2:1.301093 3:0.07717 
10 1:6.3811 2:1.31888 3:0.257564 
10 1:6.402163 2:1.340988 3:0.434712 
10 1:6.421895 2:1.355467 3:0.605134 
10 1:6.439369 2:1.351799 3:0.767849 
10 1:6.453934 2:1.320502 3:0.923672 
10 1:6.464904 2:1.25478 3:1.071189 
10 1:6.470688 2:1.160171 3:1.191867 
10 1:6.46992 2:1.042533 3:1.26899 
10 1:6.46276 2:0.895435 3:1.308621 
10 1:6.45152 2:0.719949 3:1.331189 
10 1:6.440013 2:0.535097 3:1.358008 
10 1:6.429672 2:0.360884 3:1.387894 
10 1:6.418569 2:0.20531 3:1.397469 
10 1:6.404192 2:0.060678 3:1.369229 
10 1:6.385759 2:-0.082676 3:1.302903 
10 1:6.364373 2:-0.222707 3:1.207156 
10 1:6.341735 2:-0.353792 3:1.093536 
10 1:6.318976 2:-0.474152 3:0.971133 
10 1:6.296041 2:-0.588235 3:0.842626 
10 1:6.272849 2:-0.700789 3:0.710668 
10 1:6.249531 2:-0.8132 3:0.577459 
10 1:6.226155 2:-0.923592 3:0.442274 
10 1:6.20276 2:-1.030032 3:0.304088 
10 1:6.180043 2:-1.125041 3:0.16393 
10 1:6.159343 2:-1.192722 3:0.022704 
10 1:6.140825 2:-1.222211 3:-0.125855 
10 1:6.123906 2:-1.216052 3:-0.285263 
10 1:6.108762 2:-1.183117 3:-0.447561 
10 1:6.094954 2:-1.132406 3:-0.610341 
10 1:6.081339 2:-1.073552 3:-0.777179 
10 1:6.067052 2:-1.018775 3:-0.947266 
10 1:6.46819 2:-1.44366 3:-0.815267 
10 1:6.484896 2:-1.187327 3:-0.898121 
10 1:6.508258 2:-0.999026 3:-0.883261 
10 1:6.53892 2:-0.829382 3:-0.804214 
10 1:6.576384 2:-0.659181 3:-0.679141 
10 1:6.618 2:-0.477195 3:-0.534773 
10 1:6.660442 2:-0.271548 3:-0.402946 
10 1:6.700331 2:-0.036108 3:-0.31144 
10 1:6.732639 2:0.219422 3:-0.287136 
10 1:6.751879 2:0.411886 3:-0.303617 
10 1:6.784202 2:0.522501 3:-0.167877 
10 1:6.757631 2:0.549303 3:-0.369912 
10 1:6.711586 2:0.584564 3:-0.711436 
10 1:6.673179 2:0.63168 3:-1.009905 
10 1:6.650248 2:0.726451 3:-1.23931 
10 1:6.678141 2:0.998271 3:-1.257668 
10 1:6.697435 2:1.134373 3:-1.230482 
10 1:6.734354 2:1.269063 3:-1.081848 
10 1:6.764644 2:1.306593 3:-0.90384 
10 1:6.795838 2:1.293356 3:-0.680653 
10 1:6.832793 2:1.29244 3:-0.427592 
10 1:6.864231 2:1.285538 3:-0.207604 
10 1:6.876708 2:1.225983 3:-0.076651 
10 1:6.869279 2:1.066257 3:-0.004662 
10 1:6.847596 2:0.821003 3:0.035696 
-10 1:6.85894 2:0.469169 3:0.383471 
-10 1:6.899412 2:0.466398 3:0.66197 
10 1:6.962556 2:0.441052 3:1.112644 
10 1:6.984627 2:0.371964 3:1.316439 
10 1:6.99666 2:0.262033 3:1.483065 
10 1:6.994995 2:0.105978 3:1.591595 
10 1:6.981549 2:-0.095411 3:1.6545 
10 1:6.960828 2:-0.319395 3:1.685085 
10 1:6.936963 2:-0.535583 3:1.688213 
10 1:6.909098 2:-0.730814 3:1.64792 
10 1:6.875126 2:-0.908379 3:1.552355 
10 1:6.836548 2:-1.067581 3:1.411226 
10 1:6.796772 2:-1.200278 3:1.241556 
10 1:6.75757 2:-1.305824 3:1.054945 
10 1:6.718525 2:-1.392898 3:0.855213 
10 1:6.680344 2:-1.462442 3:0.647914 
10 1:6.644274 2:-1.50848 3:0.436967 
10 1:6.610753 2:-1.527457 3:0.222642 
10 1:6.579245 2:-1.522942 3:0.004014 
10 1:6.549285 2:-1.500052 3:-0.218166 
10 1:6.520482 2:-1.464064 3:-0.442504 
10 1:6.492371 2:-1.420377 3:-0.66803 
10 1:7.589311 2:-1.102178 3:-1.057191 
10 1:7.564793 2:-0.928832 3:-1.058185 
10 1:7.537183 2:-0.769922 3:-1.029334 
10 1:7.505919 2:-0.608753 3:-0.981162 
10 1:7.472445 2:-0.441833 3:-0.924918 
10 1:7.438458 2:-0.265439 3:-0.873531 
10 1:7.405994 2:-0.076159 3:-0.841614 
10 1:7.378007 2:0.121427 3:-0.842516 
10 1:7.354298 2:0.311341 3:-0.861891 
10 1:7.332045 2:0.476682 3:-0.86941 
10 1:7.309096 2:0.605647 3:-0.842856 
10 1:7.278855 2:0.717458 3:-0.759845 
10 1:7.238635 2:0.846755 3:-0.633421 
10 1:7.19723 2:1.005241 3:-0.524228 
10 1:7.163992 2:1.144091 3:-0.446176 
10 1:7.136479 2:1.218714 3:-0.348273 
10 1:7.105465 2:1.261126 3:-0.203468 
10 1:7.070318 2:1.287703 3:-0.021624 
10 1:7.032694 2:1.317675 3:0.171784 
10 1:6.995313 2:1.358216 3:0.35505 
10 1:6.961645 2:1.392549 3:0.521914 
10 1:6.933787 2:1.405135 3:0.673052 
10 1:6.912327 2:1.38356 3:0.815305 
10 1:6.896546 2:1.323121 3:0.956721 
10 1:6.886325 2:1.228745 3:1.093934 
10 1:6.881949 2:1.108312 3:1.218767 
10 1:6.883498 2:0.970937 3:1.323242 
10 1:6.891087 2:0.824611 3:1.400087 
10 1:6.904677 2:0.676536 3:1.443577 
10 1:6.924638 2:0.528575 3:1.450034 
10 1:6.95109 2:0.373579 3:1.424665 
10 1:6.982527 2:0.20693 3:1.380011 
10 1:7.016393 2:0.027747 3:1.331629 
10 1:7.048943 2:-0.16006 3:1.297996 
10 1:7.077386 2:-0.335247 3:1.277757 
10 1:7.103557 2:-0.470651 3:1.237833 
10 1:7.133282 2:-0.573855 3:1.150713 
10 1:7.169269 2:-0.664361 3:1.01679 
10 1:7.208056 2:-0.744897 3:0.858404 
10 1:7.245925 2:-0.81781 3:0.699042 
10 1:7.282166 2:-0.882277 3:0.542146 
10 1:7.317353 2:-0.938358 3:0.384435 
10 1:7.352079 2:-0.986162 3:0.222558 
10 1:7.386103 2:-1.024274 3:0.056752 
10 1:7.418825 2:-1.05067 3:-0.111187 
10 1:7.449681 2:-1.063412 3:-0.279579 
10 1:7.478409 2:-1.06081 3:-0.448304 
10 1:7.505798 2:-1.045739 3:-0.619562 
10 1:7.533157 2:-1.025405 3:-0.79499 
10 1:7.561184 2:-1.007957 3:-0.971914 
10 1:7.418172 2:-1.061356 3:-1.272386 
10 1:7.453698 2:-0.907652 3:-1.16622 
10 1:7.487703 2:-0.736259 3:-1.082802 
10 1:7.519231 2:-0.563988 3:-1.015489 
10 1:7.5494 2:-0.397841 3:-0.952045 
10 1:7.579184 2:-0.244188 3:-0.881639 
10 1:7.61055 2:-0.103288 3:-0.791799 
10 1:7.645086 2:0.039354 3:-0.683507 
10 1:7.680333 2:0.198657 3:-0.583282 
10 1:7.713647 2:0.367906 3:-0.502564 
10 1:7.745212 2:0.537065 3:-0.432678 
10 1:7.776157 2:0.704385 3:-0.36528 
10 1:7.806659 2:0.871002 3:-0.30012 
10 1:7.836269 2:1.031735 3:-0.236106 
10 1:7.866557 2:1.179253 3:-0.157952 
10 1:7.897098 2:1.30078 3:-0.058722 
10 1:7.926328 2:1.381684 3:0.0628 
10 1:7.955547 2:1.425912 3:0.211767 
10 1:7.985414 2:1.445607 3:0.383168 
10 1:8.014787 2:1.452388 3:0.561185 
10 1:8.042404 2:1.450427 3:0.734808 
10 1:8.067603 2:1.435134 3:0.903358 
10 1:8.090046 2:1.402326 3:1.067862 
10 1:8.106921 2:1.347696 3:1.214031 
10 1:8.111779 2:1.254932 3:1.313895 
10 1:8.10494 2:1.114512 3:1.376588 
10 1:8.089764 2:0.945816 3:1.408521 
10 1:8.070311 2:0.775548 3:1.414972 
10 1:8.048158 2:0.603196 3:1.406155 
10 1:8.024546 2:0.426684 3:1.391361 
10 1:7.999998 2:0.251859 3:1.36947 
10 1:7.974423 2:0.083197 3:1.336554 
10 1:7.947198 2:-0.078622 3:1.288217 
10 1:7.917377 2:-0.243416 3:1.225931 
10 1:7.885929 2:-0.416904 3:1.160029 
10 1:7.855329 2:-0.573777 3:1.086944 
10 1:7.827828 2:-0.686401 3:0.999989 
10 1:7.801787 2:-0.747927 3:0.883812 
10 1:7.772893 2:-0.775212 3:0.724166 
10 1:7.741715 2:-0.788468 3:0.539758 
10 1:7.709726 2:-0.806115 3:0.353588 
10 1:7.677106 2:-0.83353 3:0.17081 
10 1:7.643254 2:-0.874664 3:-0.009352 
10 1:7.607938 2:-0.932724 3:-0.185949 
10 1:7.573915 2:-0.998543 3:-0.348666 
10 1:7.546298 2:-1.027532 3:-0.499072 
10 1:7.519215 2:-1.015926 3:-0.676603 
10 1:7.486629 2:-1.04367 3:-0.858922 
10 1:7.468196 2:-1.032665 3:-0.982082 
10 1:7.461166 2:-0.92709 3:-1.105087 
10 1:8.099225 2:-0.989445 3:-1.167086 
10 1:8.089869 2:-0.813189 3:-1.176118 
10 1:8.086332 2:-0.650177 3:-1.153827 
