svm_type epsilon_svr
kernel_type rbf
gamma 0.1
nr_class 2
total_sv 13451
rho 5.09401
SV
10 1:0.743119 2:-0.500535 3:-1.082401 
-10 1:0.752059 2:0.265658 3:-0.592826 
-10 1:0.75375 2:0.407674 3:-0.476833 
-10 1:0.755444 2:0.550139 3:-0.362777 
-10 1:0.757265 2:0.707717 3:-0.27502 
-10 1:0.759183 2:0.876532 3:-0.204568 
-10 1:0.761039 2:1.037186 3:-0.115682 
-3.150246731859387 1:0.76611 2:1.430917 3:0.485816 
-10 1:0.766521 2:1.445969 3:0.667471 
-10 1:0.766778 2:1.446697 3:0.850137 
-10 1:0.767157 2:1.458609 3:1.033771 
5.146152277960353 1:0.766058 2:1.270086 3:1.718893 
10 1:0.764541 2:1.116164 3:1.825035 
10 1:0.762684 2:0.938466 3:1.870017 
10 1:0.760769 2:0.764613 3:1.841768 
-10 1:0.753431 2:0.136183 3:1.436307 
-10 1:0.747204 2:-0.376866 3:0.931819 
10 1:0.739453 2:-1.012074 3:0.277513 
10 1:0.738142 2:-1.114174 3:0.124171 
10 1:0.736983 2:-1.200996 3:-0.03785 
7.853693514783113 1:0.735972 2:-1.273775 3:-0.202931 
0.194817654131135 1:0.733346 2:-1.424829 3:-0.931791 
10 1:0.733683 2:-1.372945 3:-1.095843 
10 1:0.735318 2:-1.213806 3:-1.156547 
10 1:0.737517 2:-1.012387 3:-1.138072 
4.02140972650828 1:0.739498 2:-0.833711 3:-1.099874 
10 1:0.741449 2:-0.657506 3:-1.0644 
10 1:1.198107 2:-0.725171 3:-1.133854 
1.394238129038632 1:1.188524 2:-0.546481 3:-1.091385 
-10 1:1.170245 2:0.112441 3:-0.754137 
-10 1:1.162935 2:0.286674 3:-0.691195 
-10 1:1.155404 2:0.461424 3:-0.630177 
-10 1:1.148191 2:0.635007 3:-0.566727 
-4.599422969799902 1:1.140618 2:0.810516 3:-0.505542 
10 1:1.165801 2:1.637519 3:0.427449 
10 1:1.177781 2:1.699985 3:0.604655 
10 1:1.190918 2:1.751889 3:0.78561 
10 1:1.205985 2:1.781751 3:0.969259 
10 1:1.223823 2:1.777252 3:1.154565 
10 1:1.245077 2:1.727177 3:1.339331 
10 1:1.268332 2:1.632083 3:1.509027 
10 1:1.290929 2:1.499641 3:1.641665 
10 1:1.310267 2:1.337684 3:1.716004 
-10 1:1.337957 2:0.964011 3:1.70824 
-10 1:1.348598 2:0.773898 3:1.667781 
-10 1:1.358111 2:0.590885 3:1.621094 
-10 1:1.366439 2:0.414637 3:1.567319 
-10 1:1.373489 2:0.244469 3:1.504893 
-10 1:1.37921 2:0.079377 3:1.432485 
-10 1:1.384049 2:-0.085067 3:1.35125 
-10 1:1.388751 2:-0.25537 3:1.263848 
-10 1:1.393209 2:-0.43064 3:1.169862 
-3.774761235266912 1:1.394616 2:-0.586595 3:1.059121 
-10 1:1.376147 2:-0.735098 3:0.743867 
-10 1:1.358328 2:-0.741648 3:0.54986 
-10 1:1.342384 2:-0.763559 3:0.363334 
-10 1:1.334339 2:-0.848919 3:0.209358 
-10 1:1.334073 2:-0.996515 3:0.08764 
-10 1:1.333981 2:-1.145058 3:-0.033014 
-10 1:1.326127 2:-1.230536 3:-0.185061 
-10 1:1.308556 2:-1.232057 3:-0.372392 
-10 1:1.287657 2:-1.189523 3:-0.559479 
-10 1:1.267732 2:-1.147553 3:-0.736696 
-10 1:1.666724 2:-0.424684 3:-0.729 
-10 1:1.651716 2:-0.2305 3:-0.752656 
-10 1:1.631313 2:-0.045813 3:-0.816365 
10 1:1.58393 2:0.312383 3:-0.992462 
10 1:1.561752 2:0.494548 3:-1.069111 
10 1:1.543784 2:0.684529 3:-1.114335 
10 1:1.532754 2:0.883658 3:-1.10927 
10 1:1.535516 2:1.053196 3:-1.023231 
10 1:1.551526 2:1.176392 3:-0.866545 
10 1:1.570049 2:1.287229 3:-0.697876 
10 1:1.587837 2:1.394251 3:-0.535673 
10 1:1.607854 2:1.48443 3:-0.365176 
10 1:1.630924 2:1.553447 3:-0.182575 
10 1:1.656424 2:1.602783 3:0.008535 
10 1:1.68371 2:1.634004 3:0.20445 
-10 1:1.834004 2:1.509733 3:1.16568 
-10 1:1.866989 2:1.408503 3:1.34721 
-2.332326462322127 1:1.89971 2:1.280899 3:1.516471 
10 1:1.979772 2:0.790357 3:1.859654 
10 1:1.994928 2:0.60776 3:1.888915 
10 1:2.003066 2:0.422012 3:1.869724 
10 1:2.015446 2:-0.166611 3:1.718742 
10 1:2.023994 2:-0.374122 3:1.693649 
10 1:2.031808 2:-0.574445 3:1.666478 
10 1:2.034333 2:-0.754714 3:1.611721 
10 1:2.02726 2:-0.902817 3:1.505221 
10 1:2.01114 2:-1.021522 3:1.349581 
10 1:1.990982 2:-1.127251 3:1.171951 
10 1:1.97057 2:-1.231014 3:0.993399 
10 1:1.949774 2:-1.327153 3:0.815296 
10 1:1.92778 2:-1.407104 3:0.635575 
10 1:1.903772 2:-1.462298 3:0.452166 
10 1:1.876937 2:-1.484171 3:0.263004 
10 1:1.846853 2:-1.464316 3:0.068599 
-10 1:1.785008 2:-1.271871 3:-0.270705 
-10 1:1.758464 2:-1.114646 3:-0.386643 
-10 1:1.737478 2:-0.946528 3:-0.460864 
-10 1:1.718585 2:-0.700579 3:-0.490042 
-10 1:1.700484 2:-0.431334 3:-0.504623 
-10 1:1.685835 2:-0.339408 3:-0.566549 
-10 1:2.123258 2:0.474205 3:-0.631775 
-10 1:2.104629 2:0.659484 3:-0.574618 
-10 1:2.09232 2:0.827168 3:-0.478105 
-10 1:2.085739 2:0.974895 3:-0.351116 
-10 1:2.084295 2:1.100324 3:-0.202524 
-10 1:2.086898 2:1.205544 3:-0.040344 
-10 1:2.091424 2:1.301992 3:0.129389 
-10 1:2.098347 2:1.384822 3:0.305028 
-10 1:2.111639 2:1.426732 3:0.490237 
-10 1:2.131466 2:1.424996 3:0.683101 
-10 1:2.155494 2:1.393004 3:0.878032 
-10 1:2.181363 2:1.344303 3:1.069406 
-10 1:2.207823 2:1.285252 3:1.25315 
-10 1:2.235662 2:1.208931 3:1.428055 
-10 1:2.265824 2:1.107284 3:1.592945 
10 1:2.330379 2:0.824394 3:1.861051 
10 1:2.361532 2:0.649569 3:1.940712 
10 1:2.389926 2:0.458768 3:1.972493 
10 1:2.414657 2:0.26286 3:1.961581 
10 1:2.434923 2:0.073787 3:1.915609 
10 1:2.450534 2:-0.101134 3:1.842197 
10 1:2.462895 2:-0.266711 3:1.748932 
10 1:2.47367 2:-0.429714 3:1.643394 
10 1:2.484521 2:-0.596913 3:1.533164 
10 1:2.496683 2:-0.772912 3:1.424404 
10 1:2.508355 2:-0.947049 3:1.313249 
10 1:2.516435 2:-1.102093 3:1.191526 
10 1:2.517816 2:-1.220789 3:1.051045 
10 1:2.509627 2:-1.287172 3:0.884296 
10 1:2.492776 2:-1.305625 3:0.694516 
10 1:2.47118 2:-1.296753 3:0.493503 
-2.948527362438239 1:2.42842 2:-1.275735 3:0.099976 
-10 1:2.410276 2:-1.285062 3:-0.090687 
-10 1:2.394042 2:-1.309738 3:-0.282471 
-10 1:2.37833 2:-1.338488 3:-0.474413 
-10 1:2.361586 2:-1.358239 3:-0.664827 
-10 1:2.342135 2:-1.356572 3:-0.854082 
10 1:2.259653 2:-1.104422 3:-1.33851 
10 1:2.237619 2:-0.911245 3:-1.30461 
10 1:2.221457 2:-0.71775 3:-1.212507 
10 1:2.208642 2:-0.546141 3:-1.11588 
9.45675649000734 1:2.158162 2:-0.01348 3:-0.921276 
-10 1:2.140932 2:0.296506 3:-0.688492 
-10 1:2.790896 2:0.42232 3:-0.445166 
10 1:2.815688 2:0.8156 3:-0.412806 
10 1:2.823899 2:0.992997 3:-0.298318 
10 1:2.831268 2:1.161441 3:-0.175219 
10 1:2.836255 2:1.302959 3:-0.031301 
4.237534374689397 1:2.837776 2:1.406521 3:0.145583 
5.977996040726078 1:2.808694 2:1.516316 3:1.365048 
10 1:2.797917 2:1.449297 3:1.579844 
10 1:2.785735 2:1.337414 3:1.743089 
10 1:2.77235 2:1.163578 3:1.810384 
3.767484710813604 1:2.759061 2:0.95006 3:1.787078 
-10 1:2.747855 2:0.744351 3:1.710904 
-10 1:2.739612 2:0.56947 3:1.603039 
-10 1:2.733936 2:0.420262 3:1.465348 
-10 1:2.730376 2:0.292215 3:1.303141 
-10 1:2.728489 2:0.184033 3:1.1284 
-10 1:2.727821 2:0.092155 3:0.948569 
-10 1:2.727884 2:0.007099 3:0.759174 
-10 1:2.727653 2:-0.085058 3:0.564056 
-10 1:2.722078 2:-0.225123 3:0.443115 
-10 1:2.709515 2:-0.424958 3:0.425519 
-10 1:2.694336 2:-0.649199 3:0.442162 
-10 1:2.680995 2:-0.861849 3:0.422507 
-10 1:2.67075 2:-1.052406 3:0.347429 
10 1:2.655368 2:-1.398099 3:0.103465 
10 1:2.649729 2:-1.55113 3:-0.043848 
10 1:2.646824 2:-1.670942 3:-0.209983 
10 1:2.647833 2:-1.740967 3:-0.398074 
10 1:2.651936 2:-1.771248 3:-0.602683 
10 1:2.656293 2:-1.798318 3:-0.80878 
10 1:2.662119 2:-1.802431 3:-1.013701 
10 1:2.672057 2:-1.743884 3:-1.218938 
10 1:2.684648 2:-1.609199 3:-1.345716 
9.014691202240749 1:2.694284 2:-1.43191 3:-1.279346 
-8.998772290344066 1:2.715975 2:-1.020071 3:-1.101888 
-10 1:2.746724 2:-0.457494 3:-0.897095 
-10 1:2.757064 2:-0.265592 3:-0.822224 
10 1:3.14395 2:0.399943 3:-0.577678 
10 1:3.115984 2:0.586875 3:-0.509332 
10 1:3.095676 2:0.743369 3:-0.403474 
-10 1:3.063729 2:1.096314 3:0.052275 
-10 1:3.057449 2:1.195426 3:0.222406 
-10 1:3.05277 2:1.285811 3:0.393974 
-10 1:3.050542 2:1.362199 3:0.566018 
-10 1:3.051189 2:1.422549 3:0.739639 
-10 1:3.053768 2:1.475152 3:0.92255 
-1.149650719072063 1:3.057067 2:1.530356 3:1.123778 
10 1:3.061589 2:1.584074 3:1.340134 
10 1:3.072847 2:1.590083 3:1.532769 
10 1:3.097004 2:1.496475 3:1.657566 
10 1:3.132602 2:1.308302 3:1.70539 
-10 1:3.201792 2:0.900559 3:1.684572 
-10 1:3.230719 2:0.719241 3:1.646473 
-10 1:3.258772 2:0.538894 3:1.597326 
-10 1:3.286424 2:0.356616 3:1.536652 
-10 1:3.311836 2:0.180372 3:1.457237 
-10 1:3.333043 2:0.018733 3:1.351529 
-10 1:3.349884 2:-0.126653 3:1.221468 
-10 1:3.365902 2:-0.268355 3:1.088487 
-10 1:3.385093 2:-0.420689 3:0.976414 
-10 1:3.410376 2:-0.594292 3:0.902136 
-7.185122476493042 1:3.437472 2:-0.77528 3:0.836255 
10 1:3.475112 2:-1.081375 3:0.596599 
10 1:3.483045 2:-1.188906 3:0.429557 
10 1:3.483254 2:-1.257774 3:0.246261 
-10 1:3.467226 2:-1.307043 3:-0.138279 
-10 1:3.457531 2:-1.321743 3:-0.32996 
-10 1:3.450679 2:-1.35075 3:-0.515868 
-10 1:3.445402 2:-1.38785 3:-0.699047 
-10 1:3.438381 2:-1.416249 3:-0.885961 
10 1:3.378535 2:-1.278481 3:-1.450159 
10 1:3.353825 2:-1.11184 3:-1.385773 
10 1:3.333573 2:-0.944193 3:-1.248826 
-10 1:3.276929 2:-0.490845 3:-0.907922 
-7.774090157211736 1:3.251454 2:-0.315318 3:-0.831446 
-10 1:3.227333 2:-0.143517 3:-0.743864 
10 1:3.678741 2:-0.020453 3:-0.739497 
10 1:3.707147 2:0.14773 3:-0.650973 
10 1:3.735657 2:0.313571 3:-0.558304 
10 1:3.764276 2:0.476279 3:-0.460428 
10 1:3.792986 2:0.635942 3:-0.357647 
10 1:3.821684 2:0.796126 3:-0.255662 
10 1:3.85025 2:0.96117 3:-0.161372 
10 1:3.87871 2:1.129178 3:-0.072028 
10 1:3.907335 2:1.288135 3:0.030745 
10 1:3.936086 2:1.42852 3:0.158809 
10 1:3.96438 2:1.54643 3:0.310937 
10 1:3.990729 2:1.633635 3:0.481726 
10 1:4.011953 2:1.672531 3:0.659699 
10 1:4.029267 2:1.672207 3:0.846207 
10 1:4.080642 2:1.613927 3:1.473478 
10 1:4.082368 2:1.528131 3:1.602604 
-10 1:4.038376 2:1.167006 3:1.595234 
-10 1:4.007577 2:0.952356 3:1.540876 
-10 1:3.980378 2:0.753927 3:1.504305 
-10 1:3.955705 2:0.570289 3:1.475815 
-10 1:3.930514 2:0.392627 3:1.434043 
-10 1:3.903036 2:0.216074 3:1.366284 
-10 1:3.874309 2:0.044406 3:1.278786 
-10 1:3.845542 2:-0.118609 3:1.179713 
-10 1:3.816858 2:-0.275685 3:1.073886 
-10 1:3.788014 2:-0.431574 3:0.964801 
-10 1:3.758995 2:-0.586608 3:0.852734 
-10 1:3.730002 2:-0.736991 3:0.734949 
-10 1:3.701243 2:-0.878768 3:0.608594 
-1.746113988389844 1:3.485581 2:-1.499483 3:-0.909238 
-10 1:3.485784 2:-1.380564 3:-1.060325 
-10 1:3.501187 2:-1.200232 3:-1.127207 
-10 1:3.52422 2:-1.038537 3:-1.08806 
-10 1:3.557238 2:-0.854446 3:-0.970463 
-10 1:3.601854 2:-0.597788 3:-0.821751 
-10 1:3.639223 2:-0.367524 3:-0.716901 
-10 1:3.645769 2:-0.297126 3:-0.737281 
10 1:4.219763 2:0.331873 3:-0.500952 
-10 1:4.346473 2:0.754664 3:-0.094165 
-10 1:4.388818 2:0.881895 3:0.054903 
-10 1:4.430888 2:0.997459 3:0.213116 
-10 1:4.47274 2:1.104734 3:0.377687 
-10 1:4.515958 2:1.268245 3:0.498415 
-10 1:4.556346 2:1.429419 3:0.603428 
-10 1:4.585548 2:1.424601 3:0.792608 
-10 1:4.610317 2:1.369818 3:1.000379 
-10 1:4.633994 2:1.325245 3:1.191721 
-10 1:4.655471 2:1.272349 3:1.376912 
-10 1:4.673322 2:1.19341 3:1.563476 
10 1:4.683636 2:0.935173 3:1.869709 
10 1:4.669397 2:0.755359 3:1.947471 
10 1:4.644862 2:0.554268 3:1.979966 
10 1:4.614601 2:0.345991 3:1.982961 
10 1:4.581566 2:0.141635 3:1.964754 
10 1:4.546016 2:-0.05264 3:1.92123 
10 1:4.507954 2:-0.231144 3:1.847105 
10 1:4.467458 2:-0.388696 3:1.738031 
10 1:4.425234 2:-0.524529 3:1.597755 
10 1:4.382307 2:-0.640129 3:1.434157 
10 1:4.339708 2:-0.737001 3:1.255153 
10 1:4.298465 2:-0.816657 3:1.068655 
10 1:4.258958 2:-0.883947 3:0.881602 
10 1:4.219948 2:-0.952101 3:0.698492 
10 1:4.179951 2:-1.035541 3:0.523409 
10 1:4.138377 2:-1.139077 3:0.357102 
10 1:4.096228 2:-1.250311 3:0.19435 
10 1:4.054676 2:-1.355052 3:0.029309 
10 1:4.014605 2:-1.441797 3:-0.143159 
10 1:3.975824 2:-1.509205 3:-0.325515 
10 1:3.937885 2:-1.558343 3:-0.51959 
10 1:3.832965 2:-1.444432 3:-1.289449 
10 1:3.841057 2:-1.272872 3:-1.398384 
10 1:3.860154 2:-1.076178 3:-1.461173 
10 1:3.891366 2:-0.889936 3:-1.437587 
10 1:3.933014 2:-0.724479 3:-1.328601 
10 1:3.976978 2:-0.566627 3:-1.197875 
10 1:4.018854 2:-0.421225 3:-1.068739 
10 1:4.061152 2:-0.31064 3:-0.904431 
-10 1:4.756249 2:0.08062 3:-0.547377 
10 1:4.795006 2:0.461941 3:-0.451914 
10 1:4.810979 2:0.616802 3:-0.344824 
5.534576802120436 1:4.825649 2:0.757926 3:-0.214404 
10 1:4.911624 2:1.583027 3:0.609307 
10 1:4.923187 2:1.692233 3:0.77181 
10 1:4.932278 2:1.776324 3:0.951684 
10 1:4.936233 2:1.809097 3:1.142023 
10 1:4.932506 2:1.765698 3:1.330829 
10 1:4.922395 2:1.659582 3:1.500872 
10 1:4.908141 2:1.513596 3:1.634674 
10 1:4.891141 2:1.341748 3:1.727781 
10 1:4.87225 2:1.152379 3:1.784097 
6.001712696065622 1:4.852311 2:0.953736 3:1.807661 
-10 1:4.761285 2:0.061295 3:1.490482 
-10 1:4.747901 2:-0.066613 3:1.346472 
-10 1:4.735977 2:-0.179442 3:1.185229 
-10 1:4.725191 2:-0.280599 3:1.012626 
-10 1:4.715219 2:-0.373494 3:0.834536 
-10 1:4.70562 2:-0.462702 3:0.656897 
-10 1:4.695555 2:-0.556763 3:0.485868 
-10 1:4.684099 2:-0.665056 3:0.327657 
-10 1:4.670355 2:-0.796697 3:0.188304 
-10 1:4.654554 2:-0.949341 3:0.066651 
-10 1:4.638469 2:-1.105044 3:-0.04826 
-10 1:4.623782 2:-1.24669 3:-0.168424 
10 1:4.586626 2:-1.597322 3:-0.699475 
10 1:4.579838 2:-1.657286 3:-0.916913 
10 1:4.581717 2:-1.632583 3:-1.095157 
9.419194348525265 1:4.595835 2:-1.489161 3:-1.193143 
-10 1:4.634203 2:-1.111056 3:-1.116477 
-10 1:4.650458 2:-0.953648 3:-1.00225 
-10 1:4.66577 2:-0.805973 3:-0.876869 
-10 1:4.681707 2:-0.651822 3:-0.759402 
-10 1:4.69927 2:-0.480662 3:-0.668068 
-10 1:4.71844 2:-0.292307 3:-0.613182 
-10 1:4.738177 2:-0.097015 3:-0.597032 
10 1:5.208475 2:-0.158271 3:-0.934104 
10 1:5.215591 2:-0.020135 3:-0.829082 
-10 1:5.232557 2:0.205519 3:-0.527249 
-10 1:5.240154 2:0.354881 3:-0.416051 
-10 1:5.24758 2:0.511239 3:-0.312493 
-10 1:5.255271 2:0.658785 3:-0.198098 
-10 1:5.262653 2:0.814213 3:-0.09514 
-10 1:5.269728 2:0.9778 3:-0.003745 
-10 1:5.285488 2:1.243609 3:0.248782 
-10 1:5.294073 2:1.351125 3:0.404825 
-10 1:5.302748 2:1.456448 3:0.564137 
10 1:5.328253 2:1.713176 3:1.058793 
10 1:5.33607 2:1.71016 3:1.250884 
10 1:5.342189 2:1.646415 3:1.43171 
10 1:5.345703 2:1.523968 3:1.578118 
10 1:5.345937 2:1.36119 3:1.664535 
-10 1:5.338494 2:0.983038 3:1.670524 
-10 1:5.333382 2:0.795117 3:1.639033 
-10 1:5.328212 2:0.612695 3:1.603409 
-10 1:5.323082 2:0.430933 3:1.568437 
-10 1:5.318002 2:0.246671 3:1.535929 
10 1:5.306574 2:-0.113171 3:1.435667 
10 1:5.299542 2:-0.277968 3:1.345905 
10 1:5.291782 2:-0.424856 3:1.229509 
10 1:5.283602 2:-0.5492 3:1.091672 
6.256750081210841 1:5.275149 2:-0.65341 3:0.937217 
-10 1:5.257833 2:-0.819443 3:0.597307 
-10 1:5.249174 2:-0.890275 3:0.421275 
-10 1:5.240618 2:-0.960997 3:0.247692 
-10 1:5.232092 2:-1.046985 3:0.082431 
-10 1:5.223509 2:-1.162365 3:-0.069659 
-10 1:5.214974 2:-1.289288 3:-0.214864 
-4.296123723523335 1:5.198839 2:-1.443558 3:-0.531825 
-10 1:5.191292 2:-1.442744 3:-0.716253 
-10 1:5.18371 2:-1.418635 3:-0.913095 
-10 1:5.191569 2:-0.712175 3:-1.071736 
10 1:5.898141 2:0.079332 3:-0.965803 
10 1:5.879446 2:0.232387 3:-0.846593 
10 1:5.854175 2:0.325733 3:-0.683592 
-10 1:5.825937 2:0.390599 3:-0.500808 
-10 1:5.798342 2:0.458211 3:-0.322254 
-10 1:5.774999 2:0.559795 3:-0.171941 
-10 1:5.757997 2:0.712805 3:-0.06375 
-10 1:5.743767 2:0.883778 3:0.02609 
-10 1:5.728936 2:1.047856 3:0.119962 
-10 1:5.711669 2:1.201021 3:0.229875 
-10 1:5.689373 2:1.321773 3:0.373059 
-10 1:5.661439 2:1.375186 3:0.554053 
-10 1:5.632653 2:1.388378 3:0.741253 
-10 1:5.603783 2:1.385063 3:0.929274 
-10 1:5.575068 2:1.373298 3:1.11642 
-10 1:5.546801 2:1.332447 3:1.301129 
-10 1:5.520756 2:1.242655 3:1.472173 
-10 1:5.503594 2:1.09866 3:1.586272 
-10 1:5.497966 2:0.911978 3:1.62597 
-10 1:5.499831 2:0.712292 3:1.617105 
-10 1:5.505542 2:0.522506 3:1.583034 
-10 1:5.513996 2:0.341751 3:1.530955 
-10 1:5.524558 2:0.16478 3:1.465085 
-10 1:5.537237 2:-0.008525 3:1.385379 
-10 1:5.574871 2:-0.294973 3:1.145049 
-10 1:5.597427 2:-0.41863 3:1.000224 
-10 1:5.619056 2:-0.548693 3:0.861533 
-10 1:5.639301 2:-0.686745 3:0.731987 
10 1:5.675441 2:-0.983757 3:0.501559 
10 1:5.693875 2:-1.136795 3:0.384048 
10 1:5.715402 2:-1.276001 3:0.246174 
10 1:5.739869 2:-1.37954 3:0.088576 
10 1:5.767008 2:-1.42667 3:-0.087343 
-10 1:5.825107 2:-1.390263 3:-0.466208 
-10 1:5.853326 2:-1.357438 3:-0.650471 
-10 1:5.880884 2:-1.330142 3:-0.830344 
-10 1:5.908777 2:-1.308024 3:-1.012312 
10 1:5.969225 2:-1.275489 3:-1.406403 
10 1:5.993119 2:-1.190553 3:-1.563362 
10 1:5.994086 2:-0.993903 3:-1.572883 
10 1:5.972351 2:-0.872493 3:-1.433358 
10 1:5.947106 2:-0.773828 3:-1.270616 
10 1:5.932799 2:-0.606414 3:-1.180211 
10 1:6.260505 2:1.485906 3:0.286482 
10 1:6.255138 2:1.60718 3:0.419391 
10 1:6.246125 2:1.658883 3:0.594377 
3.325523760155373 1:6.235008 2:1.675957 3:0.795406 
10 1:6.223558 2:1.696642 3:1.003453 
10 1:6.212729 2:1.712515 3:1.199022 
10 1:6.20253 2:1.661262 3:1.36223 
10 1:6.193159 2:1.519495 3:1.482161 
-10 1:6.173689 2:0.745153 3:1.579122 
-10 1:6.173982 2:0.566279 3:1.517223 
-10 1:6.175241 2:0.389699 3:1.439062 
-10 1:6.176093 2:0.211629 3:1.367588 
-10 1:6.175169 2:0.028293 3:1.325699 
9.951240412302807 1:6.172243 2:-0.161453 3:1.316981 
10 1:6.169671 2:-0.352824 3:1.301548 
10 1:6.169604 2:-0.538854 3:1.243721 
10 1:6.172254 2:-0.707746 3:1.143514 
10 1:6.177407 2:-0.846644 3:1.008781 
10 1:6.184736 2:-0.946834 3:0.848038 
10 1:6.193223 2:-1.025079 3:0.673891 
10 1:6.201591 2:-1.107684 3:0.500434 
10 1:6.20919 2:-1.207068 3:0.335209 
10 1:6.216551 2:-1.309187 3:0.173281 
10 1:6.224343 2:-1.397038 3:0.008317 
10 1:6.23311 2:-1.459151 3:-0.165656 
10 1:6.242936 2:-1.505436 3:-0.353229 
-4.761181960360248 1:6.298287 2:-1.09046 3:-1.195549 
-10 1:6.297833 2:-0.913456 3:-1.131419 
-10 1:6.294919 2:-0.750448 3:-1.028428 
-10 1:6.291931 2:-0.58646 3:-0.923833 
-10 1:6.291879 2:-0.40776 3:-0.866243 
-10 1:6.293661 2:-0.218835 3:-0.837662 
5.392337161892165 1:6.781437 2:-0.288296 3:-1.051691 
10 1:6.783164 2:-0.06938 3:-1.089079 
10 1:6.782426 2:0.110557 3:-1.049367 
10 1:6.779971 2:0.263804 3:-0.955858 
10 1:6.776543 2:0.402645 3:-0.831856 
10 1:6.772889 2:0.539369 3:-0.700667 
10 1:6.769756 2:0.686262 3:-0.585594 
10 1:6.767889 2:0.855584 3:-0.509897 
10 1:6.767406 2:1.047994 3:-0.47742 
10 1:6.766823 2:1.234385 3:-0.442189 
10 1:6.764408 2:1.381034 3:-0.35059 
10 1:6.759553 2:1.468333 3:-0.184469 
10 1:6.753875 2:1.505807 3:0.004213 
10 1:6.74818 2:1.507906 3:0.190405 
-10 1:6.736906 2:1.465783 3:0.554916 
-10 1:6.731218 2:1.440647 3:0.738483 
-10 1:6.725303 2:1.417328 3:0.929646 
-10 1:6.719251 2:1.390102 3:1.124906 
-10 1:6.713462 2:1.342719 3:1.309864 
-9.353446647549426 1:6.708351 2:1.258266 3:1.469433 
10 1:6.701319 2:0.95287 3:1.672556 
10 1:6.699264 2:0.772391 3:1.724003 
10 1:6.698168 2:0.585732 3:1.743557 
10 1:6.698067 2:0.397175 3:1.730489 
10 1:6.699043 2:0.213929 3:1.682722 
10 1:6.701286 2:0.049715 3:1.595186 
10 1:6.704931 2:-0.082267 3:1.464701 
10 1:6.709604 2:-0.178368 3:1.303738 
-7.345819183689308 1:6.714753 2:-0.244396 3:1.129856 
-10 1:6.719934 2:-0.306606 3:0.955267 
-10 1:6.724759 2:-0.39258 3:0.790213 
-10 1:6.729082 2:-0.503543 3:0.639393 
-10 1:6.732869 2:-0.628656 3:0.504868 
-10 1:6.736176 2:-0.763423 3:0.385165 
-10 1:6.739188 2:-0.912384 3:0.273844 
3.781522775024519 1:6.745144 2:-1.256712 3:0.049451 
10 1:6.748591 2:-1.40594 3:-0.076091 
10 1:6.752725 2:-1.490985 3:-0.218477 
-10 1:6.763385 2:-1.408316 3:-0.559435 
-10 1:6.769117 2:-1.318083 3:-0.738792 
-10 1:6.774572 2:-1.244962 3:-0.910565 
-10 1:6.779807 2:-1.158082 3:-1.073991 
10 1:6.783347 2:-0.457422 3:-1.12874 
-10 1:7.282852 2:0.309914 3:-0.5523 
-10 1:7.260197 2:0.451103 3:-0.428194 
-10 1:7.234483 2:0.626756 3:-0.298468 
-10 1:7.213361 2:0.822705 3:-0.229292 
-10 1:7.202984 2:1.024824 3:-0.271889 
10 1:7.191246 2:1.219453 3:-0.295465 
10 1:7.166462 2:1.37885 3:-0.163277 
10 1:7.141638 2:1.467599 3:0.020428 
-10 1:7.074444 2:1.561405 3:0.623615 
-10 1:7.052799 2:1.581773 3:0.825034 
10 1:7.010063 2:1.607936 3:1.232905 
10 1:6.992356 2:1.573883 3:1.434376 
10 1:6.983968 2:1.455701 3:1.603647 
10 1:6.98586 2:1.271648 3:1.717899 
10 1:6.996843 2:1.06595 3:1.757033 
10 1:7.014898 2:0.864649 3:1.72236 
-10 1:7.084365 2:0.337989 3:1.409631 
-10 1:7.108358 2:0.266023 3:1.222086 
-10 1:7.132999 2:0.18524 3:1.034444 
-10 1:7.157973 2:0.053668 3:0.880219 
-10 1:7.182034 2:-0.10499 3:0.754714 
-10 1:7.205755 2:-0.274538 3:0.640477 
-10 1:7.229777 2:-0.440992 3:0.521007 
-10 1:7.253029 2:-0.610599 3:0.411492 
-10 1:7.273933 2:-0.799111 3:0.339118 
10 1:7.312762 2:-1.20713 3:0.24653 
10 1:7.33352 2:-1.390604 3:0.171962 
10 1:7.356787 2:-1.533919 3:0.043278 
10 1:7.382061 2:-1.642335 3:-0.130688 
10 1:7.408342 2:-1.728428 3:-0.330862 
10 1:7.434474 2:-1.800555 3:-0.539661 
10 1:7.458444 2:-1.843883 3:-0.747689 
10 1:7.47794 2:-1.83565 3:-0.948349 
10 1:7.490502 2:-1.753109 3:-1.133519 
10 1:7.487285 2:-1.57998 3:-1.22664 
-10 1:7.423896 2:-1.021126 3:-0.99791 
-10 1:7.404672 2:-0.831999 3:-0.942748 
-10 1:7.384385 2:-0.640394 3:-0.878767 
-10 1:7.361948 2:-0.457703 3:-0.786867 
-10 1:7.344804 2:-0.253346 3:-0.763499 
-10 1:7.327134 2:-0.049941 3:-0.734184 
-10 1:7.303681 2:0.116306 3:-0.620238 
-10 1:7.765582 2:0.527068 3:-0.649388 
-10 1:7.744133 2:0.692284 3:-0.564265 
-10 1:7.723026 2:0.861649 3:-0.486659 
-10 1:7.593258 2:1.500666 3:0.355729 
-10 1:7.576121 2:1.499757 3:0.544421 
-10 1:7.559695 2:1.492051 3:0.731491 
-10 1:7.546011 2:1.456019 3:0.914217 
-10 1:7.534617 2:1.396754 3:1.092934 
-10 1:7.52337 2:1.338633 3:1.269007 
-10 1:7.573783 2:0.493826 3:1.483409 
-10 1:7.598151 2:0.347477 3:1.349155 
-10 1:7.62008 2:0.221712 3:1.222949 
-10 1:7.640222 2:0.179392 3:1.040573 
-10 1:7.660437 2:0.136951 3:0.85749 
-10 1:7.680746 2:0.086849 3:0.680342 
-10 1:7.701675 2:0.034092 3:0.498818 
-10 1:7.723809 2:-0.049119 3:0.331724 
-10 1:7.745673 2:-0.203866 3:0.232541 
-10 1:7.765124 2:-0.387754 3:0.186279 
-10 1:7.784604 2:-0.566979 3:0.135459 
-10 1:7.805817 2:-0.733563 3:0.054164 
-10 1:7.827954 2:-0.893489 3:-0.043305 
-10 1:7.850379 2:-1.055185 3:-0.142325 
-10 1:7.872884 2:-1.20172 3:-0.255996 
10 1:7.982165 2:-1.385441 3:-1.287186 
10 1:7.968504 2:-1.200399 3:-1.30543 
10 1:7.949946 2:-1.022225 3:-1.263767 
10 1:7.917253 2:-0.654264 3:-1.239476 
10 1:7.902385 2:-0.467076 3:-1.246443 
2.744103203843828 1:8.342336 2:0.757864 3:-0.809258 
10 1:8.374023 2:0.958377 3:-0.784926 
10 1:8.401607 2:1.121412 3:-0.705329 
10 1:8.425535 2:1.251925 3:-0.580945 
1.898729526411727 1:8.446253 2:1.354874 3:-0.422253 
10 1:8.525774 2:1.641033 3:0.739499 
10 1:8.532448 2:1.64276 3:0.950058 
10 1:8.534578 2:1.616032 3:1.155573 
10 1:8.529845 2:1.549442 3:1.337742 
10 1:8.516027 2:1.432102 3:1.478777 
10 1:8.493486 2:1.26712 3:1.574763 
2.397480619028419 1:8.46539 2:1.072823 3:1.636871 
10 1:8.316663 2:0.090913 3:1.729405 
10 1:8.285776 2:-0.105749 3:1.711797 
10 1:8.255023 2:-0.295845 3:1.665344 
10 1:8.225637 2:-0.468442 3:1.57502 
10 1:8.199153 2:-0.613263 3:1.439223 
10 1:8.177482 2:-0.720814 3:1.272552 
10 1:8.162032 2:-0.784695 3:1.088851 
10 1:8.151833 2:-0.81238 3:0.894109 
1.340129022943745 1:8.145234 2:-0.815295 3:0.692082 
-10 1:8.134333 2:-0.80587 3:0.286068 
-10 1:8.122964 2:-0.84268 3:0.099199 
-10 1:8.103771 2:-0.934076 3:-0.067972 
-10 1:8.080832 2:-1.05107 3:-0.228418 
-10 1:8.060221 2:-1.15066 3:-0.400613 
-10 1:8.045503 2:-1.208688 3:-0.589971 
-10 1:8.036562 2:-1.228573 3:-0.782897 
-10 1:8.034097 2:-1.206806 3:-0.974294 
10 1:8.056104 2:-0.992816 3:-1.336363 
10 1:8.081128 2:-0.834943 3:-1.314714 
4.205252418398505 1:8.111119 2:-0.667323 3:-1.179276 
-10 1:8.224294 2:-0.013688 3:-0.775228 
-10 1:8.254147 2:0.159465 3:-0.672399 
-10 1:8.283336 2:0.344513 3:-0.651718 
-10 1:8.740033 2:0.435291 3:-0.576922 
-10 1:8.714013 2:0.551754 3:-0.466138 
-10 1:8.683332 2:0.704856 3:-0.36053 
-10 1:8.649363 2:0.882333 3:-0.256235 
-10 1:8.613479 2:1.071917 3:-0.149392 
-10 1:8.577052 2:1.261343 3:-0.036139 
-10 1:8.541456 2:1.438345 3:0.087384 
10 1:8.478245 2:1.706011 3:0.380689 
10 1:8.453375 2:1.772144 3:0.558193 
10 1:8.435208 2:1.777532 3:0.755908 
10 1:8.427398 2:1.716801 3:0.940844 
10 1:8.428933 2:1.603902 3:1.102401 
10 1:8.43519 2:1.46411 3:1.252976 
10 1:8.564956 2:0.22886 3:1.737996 
10 1:8.592318 2:0.033729 3:1.736697 
10 1:8.62328 2:-0.165368 3:1.700815 
10 1:8.657859 2:-0.363057 3:1.621644 
10 1:8.692611 2:-0.538099 3:1.504592 
10 1:8.723773 2:-0.667774 3:1.356386 
10 1:8.747659 2:-0.729922 3:1.183734 
10 1:8.763766 2:-0.724617 3:0.992454 
-10 1:8.787476 2:-0.63001 3:0.573291 
-10 1:8.801995 2:-0.601808 3:0.363749 
-10 1:8.821863 2:-0.62592 3:0.176418 
-10 1:8.849318 2:-0.728481 3:0.027313 
-10 1:8.882484 2:-0.890204 3:-0.09285 
-10 1:8.916698 2:-1.060988 3:-0.210528 
-10 1:8.948835 2:-1.207586 3:-0.342983 
-4.144040023783651 1:8.976824 2:-1.308219 3:-0.50121 
10 1:9.041859 2:-1.282484 3:-1.280351 
10 1:9.024432 2:-1.09988 3:-1.371983 
10 1:8.9955 2:-0.910955 3:-1.343024 
10 1:8.962747 2:-0.750227 3:-1.225975 
-10 1:8.804444 2:0.083778 3:-0.750913 
-10 1:8.771787 2:0.288402 3:-0.704556 
-10 1:9.194142 2:-1.101436 3:-0.891043 
-10 1:9.206688 2:-0.934104 3:-0.957983 
-10 1:9.219492 2:-0.761653 3:-1.020671 
10 1:9.258255 2:-0.229777 3:-1.17788 
10 1:9.270898 2:-0.05301 3:-1.218219 
10 1:9.283372 2:0.123268 3:-1.251738 
10 1:9.29602 2:0.304249 3:-1.27819 
10 1:9.309209 2:0.49553 3:-1.297309 
10 1:9.322698 2:0.695097 3:-1.303691 
10 1:9.334966 2:0.885087 3:-1.281217 
10 1:9.344335 2:1.045652 3:-1.212427 
10 1:9.349383 2:1.159713 3:-1.083471 
10 1:9.350774 2:1.232579 3:-0.909685 
10 1:9.350177 2:1.280378 3:-0.720488 
10 1:9.34881 2:1.315227 3:-0.536109 
-10 1:9.344351 2:1.35651 3:-0.176149 
-10 1:9.341339 2:1.366047 3:0.005723 
-10 1:9.337869 2:1.369343 3:0.189625 
-10 1:9.333991 2:1.366918 3:0.374805 
-10 1:9.329731 2:1.358909 3:0.56036 
-10 1:9.324876 2:1.341364 3:0.743773 
-10 1:9.319063 2:1.307845 3:0.921578 
-10 1:9.311886 2:1.251709 3:1.091966 
-10 1:9.302869 2:1.166067 3:1.255591 
-10 1:9.291537 2:1.044064 3:1.41323 
-10 1:9.246337 2:0.412615 3:1.559018 
-10 1:9.240664 2:0.283013 3:1.409387 
-10 1:9.234246 2:0.145727 3:1.271212 
-10 1:9.224586 2:-0.017369 3:1.208474 
-10 1:9.211988 2:-0.203626 3:1.21484 
10 1:9.190737 2:-0.550311 3:1.117265 
10 1:9.181148 2:-0.718674 3:1.033399 
10 1:9.170428 2:-0.897233 3:0.971924 
10 1:9.160944 2:-1.059949 3:0.901668 
10 1:9.155582 2:-1.176599 3:0.779696 
10 1:9.153964 2:-1.250525 3:0.613688 
10 1:9.155216 2:-1.290183 3:0.41904 
10 1:9.158461 2:-1.304028 3:0.211143 
10 1:9.162825 2:-1.300515 3:0.005391 
-10 1:9.179846 2:-1.209258 3:-0.538341 
-10 1:9.187242 2:-1.151455 3:-0.71404 
9.572907650789833 1:9.779615 2:-0.44365 3:-1.140144 
10 1:9.78308 2:-0.24233 3:-1.103922 
-10 1:9.780812 2:0.054657 3:-0.840412 
-10 1:9.780565 2:0.198192 3:-0.737208 
-10 1:9.785811 2:0.388062 3:-0.759322 
10 1:9.797566 2:0.78738 3:-0.826426 
10 1:9.800379 2:0.981908 3:-0.776156 
10 1:9.798562 2:1.101304 3:-0.644454 
-10 1:9.783213 2:1.075676 3:-0.224732 
-10 1:9.775686 2:1.053225 3:-0.025538 
-10 1:9.770443 2:1.096963 3:0.15301 
-10 1:9.767775 2:1.218014 3:0.310022 
-10 1:9.766861 2:1.374709 3:0.441011 
-10 1:9.763531 2:1.462848 3:0.59484 
-10 1:9.756226 2:1.450335 3:0.794381 
-10 1:9.747301 2:1.390116 3:1.008098 
6.696088297188209 1:9.731276 2:1.280148 3:1.39054 
10 1:9.722779 2:1.204832 3:1.581952 
10 1:9.713629 2:1.094983 3:1.768805 
10 1:9.705197 2:0.953147 3:1.913773 
10 1:9.698886 2:0.782226 3:1.978914 
10 1:9.695613 2:0.59197 3:1.944604 
10 1:9.694955 2:0.411187 3:1.842227 
10 1:9.696324 2:0.265552 3:1.705714 
-10 1:9.703703 2:0.072102 3:1.366065 
-10 1:9.707592 2:-0.019411 3:1.194085 
-10 1:9.709468 2:-0.151307 3:1.052318 
-10 1:9.709879 2:-0.311254 3:0.933457 
-10 1:9.709692 2:-0.478807 3:0.826548 
10 1:9.705999 2:-0.839955 3:0.68973 
10 1:9.703586 2:-1.030175 3:0.63096 
10 1:9.702825 2:-1.211968 3:0.530831 
10 1:9.704058 2:-1.365419 3:0.392956 
10 1:9.707436 2:-1.469477 3:0.2271 
10 1:9.713046 2:-1.506195 3:0.04282 
10 1:9.720322 2:-1.488375 3:-0.15234 
10 1:9.728325 2:-1.44635 3:-0.351991 
-10 1:9.751811 2:-1.289255 3:-0.91525 
-10 1:10.109691 2:-0.272941 3:-0.89119 
-10 1:10.119539 2:-0.094299 3:-0.833204 
-10 1:10.128517 2:0.088286 3:-0.78091 
-10 1:10.137458 2:0.27177 3:-0.728877 
-10 1:10.147196 2:0.453111 3:-0.671678 
-10 1:10.158564 2:0.629266 3:-0.603882 
-10 1:10.172297 2:0.797578 3:-0.520717 
-10 1:10.186865 2:0.964085 3:-0.43214 
10 1:10.210226 2:1.319649 3:-0.292644 
10 1:10.230504 2:1.451992 3:-0.166504 
10 1:10.25713 2:1.547131 3:0.001367 
10 1:10.284148 2:1.626915 3:0.172199 
10 1:10.311841 2:1.682542 3:0.348045 
10 1:10.340735 2:1.706269 3:0.532495 
10 1:10.370583 2:1.697411 3:0.723999 
10 1:10.399983 2:1.651739 3:0.913678 
-10 1:10.43277 2:1.370593 3:1.13181 
-10 1:10.435435 2:1.164601 3:1.154788 
-10 1:10.439558 2:0.977023 3:1.186578 
-10 1:10.45832 2:0.858993 3:1.31017 
-10 1:10.484507 2:0.760107 3:1.480793 
-10 1:10.494999 2:0.60192 3:1.55255 
-10 1:10.478729 2:0.425268 3:1.453361 
-10 1:10.4509 2:0.301479 3:1.278599 
-10 1:10.422465 2:0.232693 3:1.098376 
-10 1:10.39819 2:0.145026 3:0.945351 
-10 1:10.383596 2:-0.019773 3:0.856563 
-10 1:10.385248 2:-0.211852 3:0.872649 
-10 1:10.383358 2:-0.389119 3:0.865617 
-10 1:10.365813 2:-0.54292 3:0.757604 
-10 1:10.342275 2:-0.684801 3:0.610853 
-10 1:10.321003 2:-0.823516 3:0.478529 
7.039834400038763 1:10.253749 2:-1.203888 3:0.058506 
10 1:10.230553 2:-1.333258 3:-0.086417 
10 1:10.206024 2:-1.438609 3:-0.240563 
10 1:10.178976 2:-1.49757 3:-0.412178 
10 1:10.149596 2:-1.503527 3:-0.600259 
3.665753149650154 1:10.120512 2:-1.48192 3:-0.787223 
10 1:10.062694 2:-1.434351 3:-1.159047 
10 1:10.040168 2:-1.325766 3:-1.306488 
10 1:10.04896 2:-1.143319 3:-1.255379 
-10 1:10.08925 2:-0.625883 3:-1.012053 
-10 1:10.105782 2:-0.469189 3:-0.910616 
-10 1:10.76005 2:-0.515751 3:-0.960937 
10 1:10.808596 2:-0.263452 3:-1.047596 
10 1:10.835695 2:-0.074408 3:-1.015924 
10 1:10.848474 2:0.072364 3:-0.905325 
-2.638650897341217 1:10.854064 2:0.197848 3:-0.755201 
-10 1:10.859594 2:0.323027 3:-0.604955 
-10 1:10.872146 2:0.468746 3:-0.49373 
-10 1:10.895015 2:0.644711 3:-0.439731 
10 1:10.958222 2:1.047747 3:-0.4288 
10 1:10.988968 2:1.246665 3:-0.418721 
10 1:11.008679 2:1.413211 3:-0.347474 
10 1:11.0119 2:1.527094 3:-0.191944 
10 1:11.003346 2:1.586063 3:-0.004958 
10 1:10.988155 2:1.605374 3:0.185301 
10 1:10.970336 2:1.608959 3:0.376806 
1.587436973718362 1:10.939179 2:1.643512 3:0.758631 
10 1:10.923498 2:1.660151 3:0.94955 
10 1:10.898688 2:1.620199 3:1.141583 
10 1:10.86583 2:1.519096 3:1.315889 
-10 1:10.765791 2:1.008101 3:1.509265 
-10 1:10.734685 2:0.812124 3:1.507817 
-10 1:10.702209 2:0.619875 3:1.52683 
-10 1:10.671576 2:0.433883 3:1.537038 
-10 1:10.64565 2:0.253286 3:1.507181 
8.868523949053042 1:10.594316 2:-0.120836 3:1.420612 
10 1:10.561328 2:-0.327061 3:1.421742 
10 1:10.540905 2:-0.485834 3:1.370813 
10 1:10.549416 2:-0.543087 3:1.187132 
-10 1:10.587757 2:-0.548493 3:0.778884 
-10 1:10.607777 2:-0.536232 3:0.59076 
-10 1:10.627889 2:-0.528986 3:0.393355 
-10 1:10.638525 2:-0.570715 3:0.213313 
-10 1:10.634173 2:-0.685776 3:0.067611 
-10 1:10.620578 2:-0.846335 3:-0.057395 
-10 1:10.604963 2:-1.017618 3:-0.179157 
-10 1:10.593636 2:-1.168346 3:-0.311454 
-10 1:10.592558 2:-1.268586 3:-0.466656 
-10 1:10.605759 2:-1.297903 3:-0.652794 
-10 1:10.620148 2:-1.320511 3:-0.840171 
-10 1:10.74605 2:-0.670443 3:-1.071977 
-10 1:11.199409 2:0.100718 3:-0.770808 
-10 1:11.215524 2:0.245099 3:-0.658184 
-10 1:11.231404 2:0.421614 3:-0.573001 
-10 1:11.247214 2:0.610903 3:-0.498403 
-10 1:11.312894 2:1.139531 3:0.005659 
-10 1:11.33017 2:1.227956 3:0.176382 
-10 1:11.34753 2:1.337931 3:0.332008 
-10 1:11.364837 2:1.445569 3:0.488687 
-10 1:11.382055 2:1.540318 3:0.653839 
10 1:11.415779 2:1.674901 3:1.015719 
10 1:11.430087 2:1.681125 3:1.207578 
10 1:11.440288 2:1.615049 3:1.397476 
10 1:11.445174 2:1.485268 3:1.562342 
10 1:11.443834 2:1.315615 3:1.671718 
10 1:11.435415 2:1.129827 3:1.695999 
-10 1:11.421671 2:0.942755 3:1.648098 
-10 1:11.408047 2:0.756665 3:1.60112 
-10 1:11.398992 2:0.572084 3:1.615759 
10 1:11.384929 2:0.192697 3:1.70833 
10 1:11.373622 2:-0.003564 3:1.700837 
10 1:11.359431 2:-0.183655 3:1.64154 
10 1:11.343417 2:-0.331513 3:1.53293 
10 1:11.326182 2:-0.453609 3:1.388144 
10 1:11.308211 2:-0.562118 3:1.223012 
10 1:11.289989 2:-0.669212 3:1.053364 
10 1:11.271985 2:-0.780729 3:0.890041 
-10 1:11.222945 2:-0.978371 3:0.365256 
-10 1:11.206633 2:-1.037257 3:0.185532 
-10 1:11.189203 2:-1.132054 3:0.017514 
-10 1:11.171334 2:-1.242809 3:-0.144529 
9.236449182694134 1:11.12169 2:-1.474059 3:-0.652301 
10 1:11.094405 2:-1.433531 3:-1.057631 
10 1:11.090667 2:-1.327131 3:-1.189111 
10 1:11.121521 2:-0.746524 3:-1.202597 
10 1:11.730675 2:0.383523 3:-0.703208 
10 1:11.731921 2:0.58382 3:-0.666887 
10 1:11.73418 2:0.766211 3:-0.593812 
10 1:11.737299 2:0.929542 3:-0.489354 
10 1:11.741126 2:1.072658 3:-0.358887 
10 1:11.745509 2:1.194403 3:-0.207784 
10 1:11.750295 2:1.293621 3:-0.041417 
8.564642201646823 1:11.755339 2:1.370376 3:0.13502 
-10 1:11.793883 2:1.125121 3:1.516713 
-10 1:11.79406 2:0.930817 3:1.530802 
-10 1:11.794746 2:0.742808 3:1.562786 
-10 1:11.795454 2:0.552703 3:1.595599 
-10 1:11.795736 2:0.361901 3:1.613304 
2.780332507214429 1:11.796126 2:0.161986 3:1.635207 
10 1:11.796165 2:-0.037749 3:1.64461 
10 1:11.794436 2:-0.211647 3:1.590036 
10 1:11.790491 2:-0.3502 3:1.455204 
10 1:11.785996 2:-0.478694 3:1.300376 
-10 1:11.771761 2:-0.765072 3:0.805214 
-10 1:11.766497 2:-0.823752 3:0.620194 
-10 1:11.76191 2:-0.927471 3:0.461107 
-10 1:11.757783 2:-1.068211 3:0.319881 
-10 1:11.753609 2:-1.212264 3:0.177094 
1.14641878622408 1:11.749204 2:-1.337015 3:0.02534 
10 1:11.7444 2:-1.420304 3:-0.1423 
10 1:11.712968 2:-1.312968 3:-1.265344 
10 1:11.710672 2:-1.146892 3:-1.35371 
10 1:11.711377 2:-0.948666 3:-1.33659 
10 1:11.713437 2:-0.760008 3:-1.270838 
-10 1:11.721342 2:-0.490206 3:-1.00032 
-10 1:11.723582 2:-0.314358 3:-0.927635 
-10 1:11.724816 2:-0.125492 3:-0.891315 
-10 1:11.730231 2:0.185269 3:-0.711028 
-10 1:12.240277 2:0.360942 3:-0.607157 
-10 1:12.200399 2:0.707792 3:-0.377145 
-10 1:12.185269 2:0.802983 3:-0.202499 
-10 1:12.171112 2:0.881787 3:-0.014461 
-10 1:12.156254 2:0.97103 3:0.167193 
-10 1:12.139092 2:1.096438 3:0.323457 
-10 1:12.120436 2:1.245849 3:0.461913 
-10 1:12.10402 2:1.361274 3:0.622247 
-10 1:12.091454 2:1.419534 3:0.817196 
-10 1:12.080977 2:1.451853 3:1.018765 
-10 1:12.069934 2:1.492025 3:1.216543 
10 1:12.056998 2:1.552578 3:1.415849 
10 1:12.047794 2:1.572302 3:1.613731 
10 1:12.04826 2:1.489055 3:1.801075 
10 1:12.057612 2:1.324154 3:1.947656 
10 1:12.072907 2:1.125692 3:2.016473 
10 1:12.091468 2:0.932636 3:1.985289 
10 1:12.111637 2:0.749344 3:1.887816 
10 1:12.132004 2:0.571977 3:1.770887 
-10 1:12.171079 2:0.220677 3:1.572934 
-10 1:12.190464 2:0.040125 3:1.489792 
-10 1:12.210099 2:-0.145514 3:1.41219 
10 1:12.269044 2:-0.690582 3:1.149892 
10 1:12.288629 2:-0.861856 3:1.039155 
10 1:12.307207 2:-1.012992 3:0.906927 
10 1:12.323922 2:-1.131893 3:0.746962 
10 1:12.338628 2:-1.21876 3:0.563659 
10 1:12.351516 2:-1.279686 3:0.366509 
-10 1:12.373033 2:-1.351077 3:-0.035398 
-10 1:12.383305 2:-1.382438 3:-0.233798 
-10 1:12.394707 2:-1.427303 3:-0.429878 
10 1:12.422534 2:-1.5754 3:-0.815796 
10 1:12.432199 2:-1.600864 3:-1.012172 
10 1:12.432856 2:-1.526294 3:-1.208633 
10 1:12.424919 2:-1.373733 3:-1.3633 
10 1:12.410121 2:-1.183716 3:-1.425083 
10 1:12.390913 2:-0.983634 3:-1.3935 
10 1:12.370783 2:-0.785625 3:-1.332414 
-10 1:12.335718 2:-0.5201 3:-1.035453 
-10 1:12.316791 2:-0.360983 3:-0.913078 
-10 1:12.297637 2:-0.200978 3:-0.786786 
-10 1:12.278514 2:-0.012158 3:-0.730468 
-10 1:12.259453 2:0.179657 3:-0.682979 
10 1:12.622199 2:0.116968 3:-0.954371 
10 1:12.647243 2:0.29811 3:-0.868768 
10 1:12.675325 2:0.427295 3:-0.736033 
-10 1:12.736047 2:0.60198 3:-0.397015 
-10 1:12.766407 2:0.683573 3:-0.224652 
-10 1:12.795248 2:0.785395 3:-0.073 
-10 1:12.821436 2:0.924923 3:0.041314 
-10 1:12.844104 2:1.099898 3:0.113322 
10 1:12.880707 2:1.4673 3:0.187427 
10 1:12.903607 2:1.640572 3:0.26191 
10 1:12.930562 2:1.680866 3:0.430916 
10 1:12.956673 2:1.63832 3:0.63517 
-0.0186783765054977 1:12.998324 2:1.518709 3:0.986703 
-10 1:13.006636 2:1.384383 3:1.111747 
-10 1:13.002529 2:1.202319 3:1.173428 
-10 1:12.996447 2:1.017032 3:1.222856 
-10 1:12.989474 2:0.834993 3:1.26442 
-10 1:12.979228 2:0.64857 3:1.285217 
-10 1:12.967754 2:0.460898 3:1.298014 
-10 1:12.960354 2:0.281755 3:1.335147 
-10 1:12.955599 2:0.096874 3:1.393685 
10 1:12.937588 2:-0.296321 3:1.462778 
10 1:12.915729 2:-0.438418 3:1.380101 
-10 1:12.855449 2:-0.646246 3:1.060656 
10 1:12.810117 2:-0.995063 3:0.916104 
10 1:12.784615 2:-1.149909 3:0.814214 
10 1:12.755832 2:-1.2376 3:0.655943 
10 1:12.725741 2:-1.287322 3:0.469627 
10 1:12.696249 2:-1.336402 3:0.287198 
10 1:12.66756 2:-1.382717 3:0.109028 
-4.892527820918346 1:12.583652 2:-1.460821 3:-0.440592 
-10 1:12.496031 2:-1.300647 3:-1.134659 
-10 1:12.501017 2:-1.123347 3:-1.187803 
-5.01470181502832 1:12.512804 2:-0.931051 3:-1.200709 
10 1:12.541629 2:-0.555919 3:-1.184992 
10 1:12.558495 2:-0.370175 3:-1.159023 
10 1:12.578105 2:-0.18888 3:-1.111597 
10 1:12.603408 2:-0.043011 3:-1.006644 
10 1:13.296385 2:0.219396 3:-0.853181 
10 1:13.299538 2:0.381417 3:-0.750019 
-10 1:13.29909 2:0.74992 3:-0.335785 
-10 1:13.297493 2:0.855495 3:-0.182484 
-10 1:13.296099 2:0.963403 3:-0.031417 
-10 1:13.29544 2:1.079965 3:0.111808 
-10 1:13.295409 2:1.204851 3:0.249347 
-10 1:13.2951 2:1.328215 3:0.39176 
-10 1:13.292646 2:1.42094 3:0.551186 
-10 1:13.286576 2:1.456635 3:0.733382 
-10 1:13.278352 2:1.449801 3:0.919779 
-10 1:13.268962 2:1.412198 3:1.099944 
-10 1:13.258251 2:1.343509 3:1.277203 
-10 1:13.218172 2:0.700918 3:1.51815 
3.585941854867333 1:13.198598 2:0.337976 3:1.582012 
10 1:13.188288 2:0.156975 3:1.626792 
10 1:13.180374 2:-0.023944 3:1.61518 
10 1:13.175656 2:-0.196813 3:1.537029 
10 1:13.173805 2:-0.349434 3:1.413487 
-10 1:13.176442 2:-0.570565 3:1.109076 
-10 1:13.178341 2:-0.670528 3:0.954806 
-10 1:13.178755 2:-0.791265 3:0.812787 
-10 1:13.178306 2:-0.924008 3:0.677975 
-10 1:13.178876 2:-1.04149 3:0.535847 
-10 1:13.182207 2:-1.11852 3:0.372921 
-10 1:13.187936 2:-1.16094 3:0.191391 
-10 1:13.194223 2:-1.196317 3:0.004433 
-10 1:13.199932 2:-1.24102 3:-0.17912 
-10 1:13.205402 2:-1.288042 3:-0.359595 
-10 1:13.211151 2:-1.327577 3:-0.538419 
-10 1:13.217684 2:-1.350104 3:-0.717112 
-10 1:13.22529 2:-1.352957 3:-0.899556 
-8.804751180170879 1:13.234032 2:-1.340564 3:-1.092065 
10 1:13.254793 2:-1.212482 3:-1.441186 
10 1:13.265526 2:-1.033207 3:-1.49783 
10 1:13.270935 2:-0.859192 3:-1.434728 
10 1:13.271533 2:-0.725555 3:-1.30243 
-10 1:13.271539 2:-0.47514 3:-1.028262 
-10 1:13.273657 2:-0.326779 3:-0.915669 
-10 1:13.279878 2:-0.14974 3:-0.868405 
10 1:13.634709 2:0.405807 3:-0.751626 
10 1:13.648597 2:0.568925 3:-0.64592 
-10 1:13.705815 2:0.984347 3:-0.228792 
-5.969730760560614 1:13.722076 2:1.133385 3:-0.10803 
10 1:13.744241 2:1.479699 3:0.066818 
10 1:13.758519 2:1.647699 3:0.175507 
10 1:13.778169 2:1.786005 3:0.318446 
10 1:13.80204 2:1.872923 3:0.486292 
10 1:13.829111 2:1.900339 3:0.671553 
10 1:13.858733 2:1.88469 3:0.871005 
10 1:13.889969 2:1.843068 3:1.079529 
10 1:13.915469 2:1.75477 3:1.245883 
10 1:13.925021 2:1.581368 3:1.298156 
-10 1:13.91835 2:1.169197 3:1.223515 
-10 1:13.913338 2:0.983079 3:1.176267 
-10 1:13.910614 2:0.797294 3:1.144539 
-10 1:13.911278 2:0.603026 3:1.135146 
-10 1:13.911002 2:0.407635 3:1.119304 
-10 1:13.907468 2:0.215679 3:1.081648 
-10 1:13.905808 2:0.019388 3:1.056374 
-10 1:13.909944 2:-0.176027 3:1.070404 
-10 1:13.921292 2:-0.363994 3:1.133802 
10 1:13.865724 2:-1.176716 3:0.699431 
10 1:13.843519 2:-1.288013 3:0.54112 
10 1:13.81981 2:-1.385943 3:0.373581 
10 1:13.794711 2:-1.469085 3:0.197689 
10 1:13.768318 2:-1.535794 3:0.014209 
10 1:13.740789 2:-1.584187 3:-0.175652 
10 1:13.712585 2:-1.611247 3:-0.368555 
10 1:13.684257 2:-1.613617 3:-0.560534 
10 1:13.656193 2:-1.588245 3:-0.748742 
-10 1:13.599749 2:-1.07785 3:-1.094433 
-10 1:13.607501 2:-0.898787 3:-1.029139 
-10 1:13.617069 2:-0.722604 3:-0.951752 
-10 1:13.626867 2:-0.541414 3:-0.872459 
-10 1:13.631205 2:-0.351659 3:-0.829513 
-10 1:13.633687 2:-0.159901 3:-0.798997 
-10 1:13.638755 2:0.030639 3:-0.751054 
10 1:14.147515 2:0.659512 3:-0.693273 
10 1:14.144114 2:0.838283 3:-0.620126 
10 1:14.13949 2:1.037145 3:-0.547757 
10 1:14.137361 2:1.224453 3:-0.455754 
10 1:14.141419 2:1.368753 3:-0.323857 
10 1:14.152921 2:1.457308 3:-0.146415 
10 1:14.232229 2:1.711609 3:0.858738 
10 1:14.251258 2:1.733611 3:1.075996 
10 1:14.271403 2:1.701854 3:1.272264 
10 1:14.291832 2:1.590356 3:1.422694 
10 1:14.310454 2:1.403474 3:1.507578 
10 1:14.323684 2:1.181704 3:1.513326 
8.880222853218267 1:14.329258 2:0.964505 3:1.4399 
10 1:14.375441 2:0.463652 3:1.627489 
10 1:14.392026 2:0.316253 3:1.714749 
10 1:14.391105 2:0.150519 3:1.60331 
10 1:14.384026 2:-0.006018 3:1.431558 
-10 1:14.374466 2:-0.116879 3:1.261235 
-10 1:14.357679 2:-0.144872 3:1.06431 
-10 1:14.355138 2:-0.267232 3:0.962113 
-10 1:14.367641 2:-0.516207 3:0.943403 
-10 1:14.370317 2:-0.709057 3:0.853865 
-10 1:14.36167 2:-0.819146 3:0.693791 
-10 1:14.347798 2:-0.887689 3:0.503228 
-10 1:14.338495 2:-0.999273 3:0.335218 
-10 1:14.331703 2:-1.133938 3:0.179944 
-10 1:14.324008 2:-1.25964 3:0.020495 
-10 1:14.31239 2:-1.348023 3:-0.158085 
-10 1:14.297322 2:-1.403464 3:-0.35342 
10 1:14.225929 2:-1.461976 3:-1.153813 
10 1:14.204546 2:-1.348807 3:-1.313433 
10 1:14.189227 2:-1.1461 3:-1.353247 
10 1:14.182198 2:-0.947167 3:-1.306592 
-10 1:14.18579 2:-0.444331 3:-0.959938 
-10 1:14.186922 2:-0.275204 3:-0.844152 
-10 1:14.18342 2:-0.088578 3:-0.767273 
-10 1:14.172819 2:0.114202 3:-0.75652 
10 1:14.144076 2:0.506639 3:-0.823791 
10 1:14.795656 2:0.55868 3:-1.361535 
10 1:14.775429 2:0.926123 3:-1.428097 
10 1:14.758453 2:1.159374 3:-1.402129 
10 1:14.743781 2:1.290236 3:-1.302665 
10 1:14.730469 2:1.350512 3:-1.148737 
10 1:14.717569 2:1.372006 3:-0.959379 
10 1:14.704136 2:1.386522 3:-0.753623 
10 1:14.689235 2:1.425613 3:-0.550418 
10 1:14.673412 2:1.488147 3:-0.357542 
10 1:14.659977 2:1.511386 3:-0.16125 
-0.2026598462610063 1:14.623159 2:1.509631 3:0.447938 
-10 1:14.612038 2:1.48692 3:0.656093 
-10 1:14.607551 2:1.397363 3:0.827649 
-10 1:14.611092 2:1.237009 3:0.943894 
-10 1:14.618944 2:1.040175 3:1.028746 
-10 1:14.627673 2:0.840404 3:1.102353 
-10 1:14.637821 2:0.647763 3:1.144779 
-10 1:14.651187 2:0.461664 3:1.127013 
-10 1:14.670029 2:0.252554 3:1.043973 
-10 1:14.689019 2:0.036717 3:0.965829 
-10 1:14.688211 2:-0.05619 3:1.080352 
10 1:14.701008 2:-0.5302 3:1.385528 
10 1:14.709276 2:-0.717688 3:1.453364 
10 1:14.719611 2:-0.902136 3:1.483783 
10 1:14.733958 2:-1.093952 3:1.456063 
10 1:14.751041 2:-1.291646 3:1.389606 
10 1:14.769361 2:-1.492843 3:1.306561 
10 1:14.787184 2:-1.673005 3:1.208816 
10 1:14.802403 2:-1.760743 3:1.053349 
10 1:14.814776 2:-1.757787 3:0.846048 
10 1:14.82506 2:-1.70775 3:0.621926 
10 1:14.833013 2:-1.639994 3:0.41695 
10 1:14.834067 2:-1.521055 3:0.270032 
-8.908639803739556 1:14.827064 2:-1.337331 3:0.185438 
-10 1:14.820742 2:-1.154914 3:0.091025 
-10 1:14.818847 2:-1.003347 3:-0.042787 
-10 1:14.820298 2:-0.878584 3:-0.202601 
-10 1:14.825261 2:-0.787 3:-0.384212 
-10 1:14.828723 2:-0.682376 3:-0.555264 
-10 1:14.827464 2:-0.534836 3:-0.695185 
-10 1:14.822923 2:-0.365196 3:-0.805054 
10 1:14.810212 2:-0.007698 3:-0.984763 
10 1:14.813988 2:0.097835 3:-1.161981 
10 1:14.820479 2:0.172445 3:-1.350298 
10 1:14.81099 2:0.361068 3:-1.399225 
-10 1:15.126052 2:0.946319 3:-0.345521 
-10 1:15.114592 2:0.995514 3:-0.148864 
-10 1:15.098553 2:1.081266 3:0.025511 
-10 1:15.075959 2:1.219587 3:0.166506 
-10 1:15.053267 2:1.357621 3:0.313437 
-10 1:15.035647 2:1.454644 3:0.488166 
10 1:15.01006 2:1.503599 3:1.29063 
10 1:15.024752 2:1.377529 3:1.414542 
10 1:15.052164 2:1.173482 3:1.459697 
10 1:15.08132 2:0.963811 3:1.463806 
10 1:15.108645 2:0.769983 3:1.451678 
10 1:15.183967 2:0.211565 3:1.562255 
10 1:15.204515 2:0.045151 3:1.676445 
10 1:15.230171 2:-0.148013 3:1.731772 
10 1:15.258364 2:-0.349085 3:1.725728 
10 1:15.286215 2:-0.538373 3:1.664025 
10 1:15.312551 2:-0.709302 3:1.557539 
-10 1:15.375434 2:-1.080642 3:1.08365 
-10 1:15.390541 2:-1.157995 3:0.899055 
-10 1:15.403275 2:-1.217248 3:0.707925 
-10 1:15.414047 2:-1.261955 3:0.513933 
-10 1:15.424011 2:-1.300817 3:0.31961 
-10 1:15.435132 2:-1.348135 3:0.126242 
-10 1:15.449318 2:-1.417774 3:-0.064991 
10 1:15.493081 2:-1.636708 3:-0.630518 
10 1:15.496743 2:-1.631159 3:-0.820322 
5.884918387947514 1:15.479074 2:-1.444465 3:-1.178732 
10 1:15.459912 2:-1.286754 3:-1.300245 
10 1:15.432636 2:-1.089354 3:-1.311559 
-3.062890714632415 1:15.360053 2:-0.630786 3:-0.943326 
-10 1:15.333235 2:-0.451669 3:-0.865079 
-6.207833716403939 1:15.305875 2:-0.260149 3:-0.837697 
-10 1:15.279911 2:-0.092269 3:-0.728937 
-10 1:15.252063 2:0.101565 3:-0.694475 
-10 1:15.224379 2:0.297532 3:-0.679772 
-10 1:15.677087 2:0.373689 3:-0.593669 
-10 1:15.710969 2:0.506748 3:-0.445825 
-10 1:15.744426 2:0.646564 3:-0.303354 
-10 1:15.777431 2:0.791998 3:-0.165947 
-10 1:15.809955 2:0.941913 3:-0.033292 
-10 1:15.841971 2:1.09517 3:0.09492 
-10 1:15.873452 2:1.250651 3:0.218989 
10 1:15.965577 2:1.745629 3:0.565377 
10 1:16.000765 2:1.842339 3:0.73623 
10 1:16.035355 2:1.847769 3:0.941598 
10 1:16.060095 2:1.757897 3:1.127626 
10 1:16.071052 2:1.600167 3:1.259236 
10 1:16.06765 2:1.409943 3:1.318226 
10 1:16.057765 2:0.46782 3:1.652158 
10 1:16.052637 2:0.293081 3:1.694316 
10 1:16.026178 2:0.111368 3:1.611346 
-8.751931760551653 1:15.986962 2:-0.047939 3:1.442439 
-10 1:15.943939 2:-0.154791 3:1.228786 
-10 1:15.906095 2:-0.210886 3:1.025032 
-10 1:15.881232 2:-0.347712 3:0.932902 
-10 1:15.863678 2:-0.56832 3:0.919621 
-10 1:15.841124 2:-0.783986 3:0.874259 
-10 1:15.811194 2:-0.964856 3:0.770096 
-10 1:15.776529 2:-1.111128 3:0.623068 
-10 1:15.739807 2:-1.223221 3:0.449429 
-10 1:15.703635 2:-1.301967 3:0.265164 
-10 1:15.668622 2:-1.359426 3:0.078973 
-10 1:15.633199 2:-1.419932 3:-0.108401 
10 1:15.55549 2:-1.634976 3:-0.485107 
10 1:15.515551 2:-1.760501 3:-0.672455 
10 1:15.479549 2:-1.835877 3:-0.857102 
10 1:15.451162 2:-1.811973 3:-1.03748 
10 1:15.436315 2:-1.6644 3:-1.188202 
10 1:15.450335 2:-1.487722 3:-1.177798 
-10 1:15.514634 2:-1.133286 3:-0.939774 
-10 1:15.530734 2:-0.938497 3:-0.924444 
-10 1:15.587487 2:-0.401263 3:-0.808027 
-10 1:15.610327 2:-0.207118 3:-0.751967 
-10 1:15.63298 2:-0.014428 3:-0.696421 
-10 1:15.656742 2:0.176224 3:-0.633366 
10 1:16.276776 2:0.195839 3:-0.971944 
-10 1:16.188181 2:0.560381 3:-0.535324 
-10 1:16.157808 2:0.689353 3:-0.396605 
-10 1:16.125488 2:0.835922 3:-0.274609 
-10 1:16.092567 2:0.988605 3:-0.159631 
-10 1:16.062861 2:1.114249 3:-0.022605 
-10 1:16.038014 2:1.198952 3:0.147979 
-10 1:16.01498 2:1.270221 3:0.32603 
-10 1:15.990878 2:1.349449 3:0.499553 
10 1:15.961052 2:1.186001 3:1.432054 
10 1:15.976178 2:1.061851 3:1.527459 
10 1:16.188963 2:-0.234404 3:1.633607 
-6.550279125518672 1:16.382128 2:-1.170218 3:1.06866 
9.36519997500586 1:16.485853 2:-1.539111 3:0.39853 
10 1:16.503986 2:-1.578884 3:0.213544 
10 1:16.518163 2:-1.5927 3:0.021472 
10 1:16.520239 2:-1.161551 3:-1.19567 
10 1:16.388093 2:-0.410143 3:-1.114445 
10 1:16.353022 2:-0.220218 3:-1.066811 
10 1:16.891781 2:0.226373 3:-0.979139 
-10 1:16.842947 2:0.328965 3:-0.732603 
10 1:16.809964 2:0.742053 3:-0.738811 
10 1:16.790678 2:0.925057 3:-0.713025 
10 1:16.756818 2:1.056356 3:-0.572309 
10 1:16.727443 2:1.22677 3:-0.478625 
10 1:16.698295 2:1.394278 3:-0.384858 
10 1:16.66366 2:1.506518 3:-0.229839 
10 1:16.628568 2:1.558558 3:-0.041784 
0.5422451766472899 1:16.597719 2:1.55493 3:0.148338 
-10 1:16.546712 2:1.441362 3:0.516733 
-10 1:16.520278 2:1.38417 3:0.706814 
-10 1:16.492067 2:1.340482 3:0.900961 
-10 1:16.46742 2:1.277711 3:1.082936 
-9.519048396236951 1:16.452232 2:1.160558 3:1.234499 
-10 1:16.452933 2:0.987497 3:1.317165 
-10 1:16.470749 2:0.789505 3:1.307884 
-10 1:16.50071 2:0.591698 3:1.224379 
-10 1:16.514389 2:0.435067 3:1.219573 
-10 1:16.493653 2:0.333504 3:1.397166 
10 1:16.463885 2:0.109219 3:1.691547 
10 1:16.681296 2:-1.312424 3:1.078704 
10 1:16.714934 2:-1.435329 3:0.935122 
10 1:16.751351 2:-1.512411 3:0.751563 
10 1:16.786991 2:-1.548174 3:0.551986 
10 1:16.818916 2:-1.548835 3:0.35745 
10 1:16.849097 2:-1.533822 3:0.165686 
-10 1:16.92694 2:-1.377108 3:-0.388186 
-10 1:16.947413 2:-1.285064 3:-0.559394 
-10 1:16.96925 2:-1.20309 3:-0.733869 
-10 1:16.991096 2:-1.116499 3:-0.910715 
10 1:17.001583 2:-0.638169 3:-1.215027 
10 1:16.981855 2:-0.452917 3:-1.187678 
10 1:16.950752 2:-0.28866 3:-1.080349 
10 1:17.28661 2:0.191003 3:-1.048795 
10 1:17.310085 2:0.439768 3:-1.053163 
10 1:17.327045 2:0.631082 3:-0.995028 
10 1:17.339263 2:0.780846 3:-0.889956 
10 1:17.348511 2:0.904959 3:-0.753516 
10 1:17.356561 2:1.019324 3:-0.601274 
10 1:17.389768 2:1.449097 3:-0.195438 
10 1:17.402153 2:1.603038 3:-0.077645 
10 1:17.408786 2:1.701226 3:0.068688 
10 1:17.408122 2:1.728748 3:0.25167 
-10 1:17.383523 2:1.580668 3:0.851938 
-10 1:17.368968 2:1.446311 3:0.959835 
-10 1:17.350182 2:1.252785 3:0.992707 
-10 1:17.329985 2:1.03991 3:1.002568 
-10 1:17.310573 2:0.838789 3:1.030419 
-10 1:17.292333 2:0.655233 3:1.085294 
-10 1:17.275352 2:0.490868 3:1.17094 
-10 1:17.259371 2:0.342696 3:1.28595 
-10 1:17.243303 2:0.196531 3:1.416449 
10 1:17.207561 2:-0.138158 3:1.656247 
10 1:17.189139 2:-0.321529 3:1.722354 
10 1:17.171943 2:-0.504539 3:1.721444 
10 1:17.156796 2:-0.679822 3:1.646102 
10 1:17.143654 2:-0.842323 3:1.525616 
10 1:17.132471 2:-0.987347 3:1.387412 
10 1:17.123601 2:-1.110304 3:1.235809 
10 1:17.117483 2:-1.206628 3:1.070365 
10 1:17.114463 2:-1.272641 3:0.890999 
4.79391829847356 1:17.113956 2:-1.313877 3:0.701346 
-10 1:17.23683 2:-0.318215 3:-0.942723 
-6.48613479754368 1:17.253797 2:-0.132908 3:-0.916713 
-10 1:17.787174 2:0.21084 3:-0.808484 
-10 1:17.768328 2:0.371335 3:-0.698004 
-10 1:17.749157 2:0.523976 3:-0.573725 
-10 1:17.729951 2:0.677037 3:-0.449378 
-10 1:17.711 2:0.838786 3:-0.33869 
-10 1:17.692576 2:1.016737 3:-0.254242 
-10 1:17.674413 2:1.197661 3:-0.177153 
-10 1:17.655776 2:1.348429 3:-0.058993 
-10 1:17.636961 2:1.46115 3:0.104493 
-10 1:17.618844 2:1.542255 3:0.292645 
-10 1:17.602175 2:1.598627 3:0.486195 
-9.987688331780413 1:17.586736 2:1.63948 3:0.678185 
10 1:17.55697 2:1.702842 3:1.065586 
10 1:17.543096 2:1.694323 3:1.288754 
10 1:17.534924 2:1.630262 3:1.486311 
10 1:17.53761 2:1.493656 3:1.597913 
10 1:17.551522 2:1.294358 3:1.606859 
10 1:17.589813 2:0.712551 3:1.668711 
10 1:17.602516 2:0.518137 3:1.690803 
9.882278563280723 1:17.621349 2:0.334311 3:1.606649 
-10 1:17.638806 2:0.231118 3:1.453385 
-10 1:17.652662 2:0.212114 3:1.261311 
-10 1:17.665336 2:0.229637 3:1.046528 
-10 1:17.679184 2:0.232718 3:0.829848 
-10 1:17.695216 2:0.151423 3:0.674021 
-10 1:17.712788 2:-0.035517 3:0.612767 
-10 1:17.729609 2:-0.249107 3:0.592917 
-10 1:17.745801 2:-0.438624 3:0.555793 
-10 1:17.764332 2:-0.611116 3:0.463596 
-10 1:17.783535 2:-0.765722 3:0.34102 
-10 1:17.802701 2:-0.910604 3:0.208125 
-10 1:17.821978 2:-1.047851 3:0.064976 
-10 1:17.840451 2:-1.157249 3:-0.096975 
-10 1:17.857403 2:-1.225533 3:-0.281541 
-10 1:17.873366 2:-1.277442 3:-0.469213 
-10 1:17.889359 2:-1.333274 3:-0.652962 
10 1:17.906578 2:-1.385814 3:-0.859277 
10 1:17.922997 2:-1.411497 3:-1.083329 
10 1:17.932607 2:-1.370293 3:-1.277446 
10 1:17.929342 2:-1.224388 3:-1.390543 
10 1:17.913958 2:-1.026049 3:-1.375749 
10 1:17.894938 2:-0.859107 3:-1.26981 
10 1:17.876023 2:-0.697014 3:-1.160047 
-10 1:17.83914 2:-0.358283 3:-0.971402 
2.790219451408152 1:18.359628 2:0.016383 3:-0.939322 
10 1:18.372885 2:0.383671 3:-0.807819 
10 1:18.383113 2:0.57353 3:-0.769107 
10 1:18.398262 2:0.770578 3:-0.768224 
10 1:18.408022 2:0.952571 3:-0.730731 
10 1:18.406675 2:1.109566 3:-0.61373 
10 1:18.405308 2:1.269248 3:-0.494749 
10 1:18.406044 2:1.432493 3:-0.391605 
10 1:18.40029 2:1.567296 3:-0.251287 
10 1:18.38641 2:1.648572 3:-0.07644 
10 1:18.366735 2:1.674699 3:0.111646 
10 1:18.259529 2:1.740675 3:1.085219 
10 1:18.234133 2:1.676078 3:1.262028 
10 1:18.207115 2:1.555571 3:1.415381 
10 1:18.181652 2:1.398702 3:1.530869 
10 1:18.158796 2:1.218788 3:1.608289 
10 1:18.139245 2:1.028032 3:1.649783 
10 1:18.108445 2:0.641383 3:1.657374 
10 1:18.09523 2:0.448509 3:1.64253 
10 1:18.085451 2:0.258421 3:1.599768 
-10 1:18.110327 2:-0.084933 3:1.153772 
-10 1:18.128782 2:-0.127054 3:0.965539 
-10 1:18.129761 2:-0.26051 3:0.867512 
-10 1:18.117928 2:-0.466015 3:0.832216 
-10 1:18.109539 2:-0.659815 3:0.774914 
-10 1:18.107307 2:-0.827562 3:0.68172 
-10 1:18.110032 2:-0.974905 3:0.559245 
-10 1:18.114896 2:-1.114466 3:0.42345 
-4.079734002159967 1:18.119409 2:-1.255712 3:0.289566 
-10 1:18.21603 2:-1.364769 3:-0.621156 
-10 1:18.242517 2:-1.269911 3:-0.787123 
-10 1:18.299646 2:-0.850953 3:-1.001263 
-10 1:18.307013 2:-0.669777 3:-0.943567 
-10 1:18.315282 2:-0.492522 3:-0.896333 
-10 1:18.328552 2:-0.296611 3:-0.879921 
10 1:18.615716 2:0.152029 3:-0.888522 
-10 1:18.648192 2:0.481351 3:-0.612465 
-10 1:18.667552 2:0.645106 3:-0.453333 
-10 1:18.678517 2:0.81869 3:-0.3497 
-10 1:18.673936 2:1.009339 3:-0.349027 
10 1:18.669565 2:1.204752 3:-0.346115 
10 1:18.681804 2:1.376382 3:-0.234138 
10 1:18.700735 2:1.508901 3:-0.083156 
10 1:18.72407 2:1.595489 3:0.090128 
3.831328803285619 1:18.897863 2:1.61491 3:1.276195 
-10 1:18.952339 2:1.098783 3:1.560706 
-10 1:18.957084 2:0.894018 3:1.558786 
-10 1:18.96058 2:0.695277 3:1.549371 
10 1:18.98612 2:0.31968 3:1.660433 
10 1:19.001439 2:0.133021 3:1.733501 
10 1:19.007277 2:-0.062597 3:1.740542 
10 1:19.001355 2:-0.254399 3:1.668192 
10 1:18.985776 2:-0.415987 3:1.535159 
10 1:18.963474 2:-0.538594 3:1.362884 
10 1:18.93852 2:-0.640864 3:1.175961 
1.167511197914042 1:18.915082 2:-0.743757 3:0.999253 
10 1:18.889379 2:-1.035036 3:0.775644 
10 1:18.888465 2:-1.233683 3:0.73623 
10 1:18.879224 2:-1.396152 3:0.646186 
10 1:18.858384 2:-1.505102 3:0.486147 
10 1:18.830381 2:-1.57581 3:0.283746 
10 1:18.799734 2:-1.623907 3:0.067127 
10 1:18.770359 2:-1.660747 3:-0.138949 
10 1:18.742065 2:-1.668466 3:-0.332806 
10 1:18.713171 2:-1.618586 3:-0.521122 
-10 1:18.648992 2:-1.160566 3:-0.881381 
-10 1:18.639003 2:-0.962589 3:-0.916287 
-10 1:18.630061 2:-0.766564 3:-0.944384 
-10 1:18.621299 2:-0.567771 3:-0.970801 
-10 1:18.619936 2:-0.373674 3:-0.947643 
-10 1:18.631891 2:-0.190043 3:-0.835593 
-10 1:18.638746 2:0.009283 3:-0.755636 
10 1:19.271534 2:0.377915 3:-0.884509 
10 1:19.291829 2:0.533221 3:-0.796626 
10 1:19.31095 2:0.661107 3:-0.629277 
10 1:19.472834 2:1.682919 3:1.067061 
10 1:19.471506 2:1.62649 3:1.273548 
-10 1:19.435306 2:1.281761 3:1.42745 
-10 1:19.413174 2:1.07658 3:1.495939 
-10 1:19.395205 2:0.897091 3:1.610739 
-3.249544256524578 1:19.327377 2:0.330765 3:1.533981 
-10 1:19.306722 2:0.187428 3:1.376996 
-10 1:19.290889 2:0.089347 3:1.202557 
-10 1:19.276729 2:0.00798 3:1.017459 
-10 1:19.260969 2:-0.086188 3:0.827946 
-10 1:19.240658 2:-0.22055 3:0.643376 
-10 1:19.217898 2:-0.389585 3:0.521283 
-10 1:19.198076 2:-0.565049 3:0.544554 
-10 1:19.179415 2:-0.751662 3:0.664734 
10 1:19.133025 2:-1.177832 3:0.79039 
10 1:19.112891 2:-1.334733 3:0.716208 
10 1:19.09863 2:-1.419981 3:0.544891 
10 1:19.088116 2:-1.461159 3:0.319189 
10 1:19.059396 2:-1.43504 3:-0.933219 
10 1:19.062278 2:-1.368333 3:-1.125557 
10 1:19.082167 2:-1.177674 3:-1.215899 
10 1:19.106085 2:-0.972353 3:-1.214588 
10 1:19.138246 2:-0.715626 3:-1.124071 
-10 1:19.175127 2:-0.428749 3:-0.985735 
-10 1:19.204895 2:-0.199646 3:-0.862838 
-10 1:19.215708 2:-0.116325 3:-0.818667 
-10 1:19.198441 2:-0.245965 3:-0.904874 
10 1:19.612073 2:-0.379441 3:-1.122232 
10 1:19.633356 2:-0.235579 3:-1.012316 
-10 1:19.696243 2:0.232206 3:-0.71917 
-10 1:19.717648 2:0.374361 3:-0.606743 
-10 1:19.7396 2:0.501301 3:-0.477464 
-10 1:19.762176 2:0.618085 3:-0.334307 
-10 1:19.785247 2:0.731556 3:-0.183661 
-10 1:19.807355 2:0.854837 3:-0.050087 
-10 1:19.826808 2:1.003056 3:0.037983 
-10 1:19.845229 2:1.185035 3:0.090521 
-10 1:19.865278 2:1.380656 3:0.14952 
-10 1:19.884565 2:1.441505 3:0.300676 
-10 1:19.901298 2:1.419931 3:0.486941 
-10 1:19.91713 2:1.39549 3:0.666163 
-10 1:19.934126 2:1.383961 3:0.847657 
-10 1:19.952664 2:1.386229 3:1.034619 
-10 1:19.968498 2:1.362312 3:1.213471 
-10 1:19.977583 2:1.276034 3:1.369881 
-10 1:19.980017 2:1.136238 3:1.498294 
-10 1:19.976983 2:0.963534 3:1.595451 
-10 1:19.96942 2:0.776159 3:1.657394 
-10 1:19.900433 2:0.098486 3:1.457778 
-10 1:19.878286 2:-0.044019 3:1.338059 
-10 1:19.858287 2:-0.200191 3:1.25033 
-10 1:19.841724 2:-0.37883 3:1.214213 
10 1:19.826536 2:-0.566371 3:1.198698 
10 1:19.809997 2:-0.744786 3:1.162667 
10 1:19.789929 2:-0.898647 3:1.072518 
10 1:19.767256 2:-1.027177 3:0.937081 
10 1:19.743981 2:-1.134716 3:0.779958 
10 1:19.721426 2:-1.223782 3:0.616477 
-10 1:19.678901 2:-1.343491 3:0.272483 
-10 1:19.658961 2:-1.372316 3:0.090953 
-10 1:19.639965 2:-1.38262 3:-0.094712 
-10 1:19.622001 2:-1.37983 3:-0.279582 
-10 1:19.605159 2:-1.369484 3:-0.458634 
-10 1:19.58929 2:-1.355688 3:-0.630343 
-10 1:19.573231 2:-1.3365 3:-0.807979 
10 1:19.540637 2:-1.248804 3:-1.204665 
10 1:19.547011 2:-1.09121 3:-1.256639 
10 1:19.55926 2:-0.908402 3:-1.267519 
10 1:19.571708 2:-0.732727 3:-1.271081 
10 1:19.588073 2:-0.558351 3:-1.23382 
-10 1:20.264283 2:0.358316 3:-0.64124 
-10 1:20.253468 2:0.533018 3:-0.540363 
-2.894607518614399 1:20.242938 2:0.714652 3:-0.452076 
-10 1:20.208869 2:1.187825 3:-0.067743 
-10 1:20.1979 2:1.269503 3:0.116946 
-10 1:20.187276 2:1.330363 3:0.311567 
-10 1:20.176309 2:1.408132 3:0.499578 
-10 1:20.165785 2:1.4676 3:0.693087 
-10 1:20.155642 2:1.509776 3:0.892617 
-10 1:20.145409 2:1.555421 3:1.091278 
10 1:20.135756 2:1.582367 3:1.292565 
10 1:20.12775 2:1.554646 3:1.502684 
10 1:20.122591 2:1.460569 3:1.703819 
10 1:20.121625 2:1.315554 3:1.85135 
10 1:20.12605 2:1.136193 3:1.903106 
10 1:20.134715 2:0.935328 3:1.874798 
10 1:20.144657 2:0.72291 3:1.826754 
10 1:20.153419 2:0.509104 3:1.807347 
10 1:20.161551 2:0.305632 3:1.793687 
10 1:20.17061 2:0.124675 3:1.739034 
10 1:20.181435 2:-0.027143 3:1.618202 
-10 1:20.206597 2:-0.256685 3:1.230914 
-10 1:20.219464 2:-0.352033 3:1.01387 
-10 1:20.230965 2:-0.460059 3:0.839508 
-10 1:20.239841 2:-0.602265 3:0.755705 
-10 1:20.245752 2:-0.790444 3:0.780506 
10 1:20.260323 2:-1.210975 3:0.804288 
10 1:20.271623 2:-1.392273 3:0.697806 
10 1:20.283426 2:-1.526701 3:0.539208 
10 1:20.294445 2:-1.606304 3:0.351562 
10 1:20.30458 2:-1.642126 3:0.146739 
10 1:20.313833 2:-1.646886 3:-0.064377 
-10 1:20.336116 2:-1.552133 3:-0.664383 
-10 1:20.336656 2:-1.129705 3:-1.041279 
10 1:20.326891 2:-0.743137 3:-1.147538 
10 1:20.319966 2:-0.535323 3:-1.165684 
10 1:20.309959 2:-0.358992 3:-1.085005 
-10 1:20.28685 2:-0.104071 3:-0.767362 
-10 1:20.275628 2:0.062135 3:-0.649673 
10 1:20.755463 2:0.168127 3:-0.815068 
10 1:20.734685 2:0.386032 3:-0.839914 
10 1:20.715664 2:0.566147 3:-0.792037 
10 1:20.697813 2:0.720079 3:-0.692092 
10 1:20.680549 2:0.859437 3:-0.560735 
10 1:20.663286 2:0.995829 3:-0.418621 
10 1:20.645479 2:1.140215 3:-0.285527 
10 1:20.627504 2:1.288682 3:-0.161056 
10 1:20.610654 2:1.422456 3:-0.024657 
10 1:20.595986 2:1.526794 3:0.138175 
10 1:20.583653 2:1.602514 3:0.318891 
10 1:20.573609 2:1.653612 3:0.504558 
10 1:20.565708 2:1.68276 3:0.690907 
10 1:20.559703 2:1.691378 3:0.881862 
10 1:20.555344 2:1.680838 3:1.08167 
10 1:20.55247 2:1.651986 3:1.293243 
10 1:20.552641 2:1.595389 3:1.493228 
10 1:20.558987 2:1.492217 3:1.63427 
10 1:20.573413 2:1.331621 3:1.685427 
-10 1:20.614936 2:0.9189 3:1.652136 
-10 1:20.634869 2:0.716033 3:1.653451 
-10 1:20.652383 2:0.528356 3:1.688938 
10 1:20.688557 2:0.141554 3:1.759263 
10 1:20.708951 2:-0.064714 3:1.755914 
10 1:20.729383 2:-0.261637 3:1.71707 
10 1:20.748432 2:-0.433235 3:1.637114 
10 1:20.764801 2:-0.565065 3:1.511485 
10 1:20.778687 2:-0.661422 3:1.34848 
10 1:20.791292 2:-0.739134 3:1.164999 
-10 1:20.803832 2:-0.81526 3:0.978099 
-10 1:20.817507 2:-0.906555 3:0.804473 
-10 1:20.832864 2:-1.019909 3:0.648982 
-10 1:20.849657 2:-1.150304 3:0.50239 
-10 1:20.867037 2:-1.286803 3:0.356321 
-10 1:20.883387 2:-1.411315 3:0.204708 
-10 1:20.911508 2:-1.550245 3:-0.330223 
-10 1:20.912672 2:-1.507763 3:-0.528152 
-10 1:20.910468 2:-1.431654 3:-0.723938 
-10 1:20.90404 2:-1.32034 3:-0.891632 
-10 1:20.889441 2:-1.152456 3:-0.962936 
-10 1:20.869348 2:-0.954971 3:-0.938712 
-10 1:20.849776 2:-0.771664 3:-0.882088 
-10 1:20.830008 2:-0.582683 3:-0.83889 
-10 1:20.812118 2:-0.39395 3:-0.864342 
-10 1:20.793968 2:-0.201194 3:-0.894807 
-10 1:21.355211 2:0.328334 3:-0.603392 
10 1:21.367364 2:0.578572 3:-0.643442 
10 1:21.359475 2:0.754273 3:-0.570222 
10 1:21.340137 2:0.889393 3:-0.432026 
10 1:21.295782 2:1.37355 3:-0.090708 
10 1:21.286604 2:1.542043 3:-0.010544 
10 1:21.260419 2:1.610189 3:0.160551 
10 1:21.225452 2:1.62338 3:0.378173 
3.138852059719674 1:21.09708 2:1.621678 3:1.170092 
10 1:21.06395 2:1.547865 3:1.364227 
4.797622499389941 1:21.035512 2:1.430651 3:1.523347 
-10 1:21.004217 2:1.073608 3:1.666604 
-10 1:20.995849 2:0.866365 3:1.689302 
-10 1:20.987325 2:0.663861 3:1.713625 
10 1:20.974437 2:0.070636 3:1.710317 
10 1:20.980976 2:-0.118969 3:1.643488 
10 1:20.995589 2:-0.279146 3:1.530946 
-10 1:21.044855 2:-0.497916 3:1.196387 
-10 1:21.075166 2:-0.565222 3:0.999944 
-10 1:21.105019 2:-0.622382 3:0.80774 
-10 1:21.125586 2:-0.736512 3:0.664888 
-10 1:21.137607 2:-0.909589 3:0.566543 
-10 1:21.147123 2:-1.105301 3:0.480493 
-10 1:21.159985 2:-1.28806 3:0.375601 
10 1:21.202846 2:-1.540741 3:0.075827 
10 1:21.231871 2:-1.5957 3:-0.110952 
10 1:21.264092 2:-1.607341 3:-0.31141 
2.958503224199172 1:21.385597 2:-1.292365 3:-1.017212 
10 1:21.40426 2:-1.11146 3:-1.107115 
10 1:21.418233 2:-0.918909 3:-1.166456 
10 1:21.425899 2:-0.722979 3:-1.186399 
10 1:21.43097 2:-0.521819 3:-1.189603 
10 1:21.431017 2:-0.332232 3:-1.16342 
10 1:21.407682 2:-0.207108 3:-1.001948 
-10 1:21.382041 2:-0.116693 3:-0.831098 
-10 1:21.354958 2:0.010859 3:-0.646159 
-10 1:21.338443 2:0.176221 3:-0.521162 
-10 1:21.689312 2:0.223294 3:-0.674876 
-10 1:21.779261 2:0.727167 3:-0.475288 
-10 1:21.813679 2:0.87748 3:-0.358167 
10 1:21.872758 2:1.215326 3:-0.233695 
-10 1:21.940997 2:1.372281 3:0.133809 
-10 1:21.971296 2:1.427791 3:0.310584 
-10 1:22.001681 2:1.486518 3:0.484922 
-10 1:22.03394 2:1.55161 3:0.66739 
-10 1:22.064581 2:1.598699 3:0.85484 
-10 1:22.103726 2:1.386003 3:1.356002 
-10 1:22.091967 2:1.215567 3:1.4302 
-10 1:22.071437 2:1.026935 3:1.455265 
-10 1:22.047892 2:0.832176 3:1.46331 
-10 1:22.027046 2:0.643249 3:1.486261 
-10 1:22.010778 2:0.462757 3:1.535872 
-10 1:21.994125 2:0.276638 3:1.587953 
-10 1:21.972855 2:0.077441 3:1.617536 
-10 1:21.884632 2:-0.417326 3:1.422317 
-10 1:21.850244 2:-0.524642 3:1.264186 
-10 1:21.815418 2:-0.634105 3:1.104794 
-10 1:21.781391 2:-0.769168 3:0.976013 
-10 1:21.748169 2:-0.927798 3:0.875948 
-10 1:21.714673 2:-1.085402 3:0.77282 
10 1:21.611429 2:-1.436024 3:0.325326 
10 1:21.578449 2:-1.510782 3:0.146655 
10 1:21.547446 2:-1.56495 3:-0.036749 
10 1:21.51902 2:-1.599128 3:-0.219766 
10 1:21.492342 2:-1.616802 3:-0.405341 
10 1:21.465845 2:-1.622916 3:-0.600629 
10 1:21.441517 2:-1.608267 3:-0.799368 
10 1:21.428963 2:-1.533367 3:-0.96651 
10 1:21.43469 2:-1.376344 3:-1.07363 
10 1:21.451546 2:-1.189327 3:-1.125038 
-10 1:21.541368 2:-0.660807 3:-0.950052 
-10 1:21.572433 2:-0.48722 3:-0.88071 
-10 1:21.604929 2:-0.321868 3:-0.792609 
-10 1:21.637256 2:-0.157196 3:-0.705131 
-10 1:21.666392 2:0.020091 3:-0.653978 
-10 1:22.151766 2:0.034127 3:-0.613153 
-10 1:22.185488 2:0.224582 3:-0.594047 
-10 1:22.213119 2:0.427257 3:-0.622527 
10 1:22.239438 2:0.632564 3:-0.661253 
10 1:22.269225 2:0.830914 3:-0.672886 
10 1:22.306904 2:1.013077 3:-0.622532 
10 1:22.351858 2:1.174956 3:-0.50996 
10 1:22.399725 2:1.316259 3:-0.360688 
10 1:22.446517 2:1.436626 3:-0.197949 
10 1:22.490971 2:1.534748 3:-0.027983 
10 1:22.532811 2:1.608973 3:0.149154 
10 1:22.571896 2:1.658392 3:0.333479 
10 1:22.707249 2:1.644576 3:1.146887 
10 1:22.734939 2:1.593321 3:1.359137 
10 1:22.754678 2:1.515025 3:1.549967 
10 1:22.762124 2:1.402634 3:1.700384 
10 1:22.753464 2:1.250299 3:1.793384 
10 1:22.7301 2:1.064031 3:1.831557 
10 1:22.696402 2:0.856602 3:1.828662 
10 1:22.656777 2:0.640862 3:1.798588 
10 1:22.615632 2:0.429663 3:1.755225 
10 1:22.576961 2:0.23394 3:1.711838 
1.889679835849649 1:22.501349 2:-0.167183 3:1.644463 
10 1:22.460232 2:-0.394512 3:1.61654 
10 1:22.417918 2:-0.622149 3:1.581823 
10 1:22.375671 2:-0.832637 3:1.531272 
10 1:22.334757 2:-1.008522 3:1.455847 
10 1:22.296442 2:-1.132346 3:1.346509 
10 1:22.261852 2:-1.188246 3:1.194899 
10 1:22.229481 2:-1.190313 3:1.005444 
-10 1:22.155946 2:-1.196592 3:0.576583 
-10 1:22.109754 2:-1.260864 3:0.364298 
-10 1:22.060444 2:-1.352369 3:0.159349 
10 1:21.933717 2:-1.555757 3:-0.397444 
10 1:21.91185 2:-1.521665 3:-0.559013 
-8.294799718078451 1:21.916304 2:-1.080688 3:-0.950115 
-10 1:21.952211 2:-0.895875 3:-0.91275 
-10 1:21.999696 2:-0.704406 3:-0.813221 
-10 1:22.041424 2:-0.516171 3:-0.744676 
-10 1:22.073324 2:-0.320064 3:-0.74169 
-10 1:22.107903 2:-0.119555 3:-0.727034 
10 1:22.895774 2:-0.00935 3:-1.182593 
10 1:22.848033 2:0.249288 3:-1.162834 
10 1:22.811496 2:0.381403 3:-1.053052 
10 1:22.781644 2:0.433236 3:-0.882669 
-10 1:22.753959 2:0.451029 3:-0.681107 
-10 1:22.723921 2:0.481023 3:-0.477789 
-10 1:22.687973 2:0.560599 3:-0.297283 
-10 1:22.649017 2:0.667624 3:-0.131574 
-10 1:22.612299 2:0.757815 3:0.039989 
-10 1:22.577296 2:0.829712 3:0.223782 
-10 1:22.539239 2:0.919315 3:0.407169 
-10 1:22.499594 2:1.062797 3:0.526108 
-10 1:22.458739 2:1.253057 3:0.587701 
-10 1:22.413986 2:1.427497 3:0.704025 
-10 1:22.373956 2:1.539428 3:0.871488 
-10 1:22.349468 2:1.551002 3:1.055765 
10 1:22.337591 2:1.229924 3:1.614953 
10 1:22.345766 2:1.088927 3:1.750647 
10 1:22.366766 2:0.931244 3:1.805112 
10 1:22.40112 2:0.756449 3:1.774616 
-10 1:22.489157 2:0.37037 3:1.607519 
-10 1:22.53195 2:0.166902 3:1.549018 
-10 1:22.569271 2:-0.036894 3:1.535887 
-10 1:22.680827 2:-0.57437 3:1.393549 
-10 1:22.723773 2:-0.740848 3:1.280597 
-10 1:22.768549 2:-0.92905 3:1.183873 
10 1:22.854426 2:-1.306323 3:1.021835 
10 1:22.889208 2:-1.415771 3:0.893851 
10 1:22.916108 2:-1.441443 3:0.710063 
-10 1:22.994681 2:-1.321388 3:-0.107259 
10 1:23.063484 2:-1.291285 3:-0.715059 
10 1:23.08024 2:-1.250701 3:-0.910901 
10 1:23.078219 2:-1.137008 3:-1.057813 
10 1:23.063479 2:-0.967467 3:-1.180699 
10 1:23.048459 2:-0.794193 3:-1.306646 
10 1:23.022927 2:-0.623824 3:-1.342175 
10 1:22.981996 2:-0.460546 3:-1.241157 
10 1:23.306707 2:0.055595 3:-1.14751 
-10 1:23.268859 2:0.270161 3:-0.817193 
-10 1:23.248213 2:0.414545 3:-0.68432 
-10 1:23.227168 2:0.579634 3:-0.579876 
-10 1:23.206285 2:0.762407 3:-0.509042 
10 1:23.166384 2:1.151723 3:-0.443086 
10 1:23.146178 2:1.306831 3:-0.336928 
10 1:23.126154 2:1.427274 3:-0.174131 
-10 1:23.066085 2:1.296166 3:1.166401 
-10 1:23.082537 2:1.098844 3:1.202887 
-10 1:23.099671 2:0.904852 3:1.220975 
-10 1:23.115434 2:0.71752 3:1.252957 
-10 1:23.128251 2:0.539263 3:1.323846 
-10 1:23.138875 2:0.368027 3:1.423225 
10 1:23.159334 2:0.03276 3:1.624183 
10 1:23.171254 2:-0.141223 3:1.704294 
10 1:23.184727 2:-0.329697 3:1.780696 
10 1:23.199828 2:-0.536185 3:1.858109 
10 1:23.216199 2:-0.746574 3:1.918721 
10 1:23.233381 2:-0.942587 3:1.939398 
10 1:23.250918 2:-1.105943 3:1.897004 
10 1:23.268362 2:-1.222715 3:1.775692 
10 1:23.285331 2:-1.299739 3:1.594418 
10 1:23.301457 2:-1.350047 3:1.382516 
10 1:23.316374 2:-1.386585 3:1.1692 
3.324512749015447 1:23.32957 2:-1.413513 3:0.971157 
-3.569888869078378 1:23.352501 2:-1.331936 3:0.404865 
-10 1:23.355065 2:-1.252539 3:0.219911 
-10 1:23.356646 2:-1.16506 3:0.039204 
-10 1:23.360169 2:-1.097232 3:-0.143499 
-10 1:23.368588 2:-1.076482 3:-0.335495 
-10 1:23.377604 2:-1.060112 3:-0.530961 
-10 1:23.38008 2:-0.982294 3:-0.711551 
-10 1:23.375664 2:-0.850671 3:-0.857477 
-10 1:23.364588 2:-0.678279 3:-0.950492 
-10 1:23.346757 2:-0.481211 3:-0.96098 
10 1:23.836179 2:0.423266 3:-0.97728 
10 1:23.823742 2:0.590283 3:-0.879019 
10 1:23.812455 2:0.767994 3:-0.794744 
10 1:23.80163 2:0.950503 3:-0.716189 
10 1:23.790581 2:1.131916 3:-0.635085 
10 1:23.778619 2:1.306338 3:-0.543162 
10 1:23.765057 2:1.467874 3:-0.432154 
10 1:23.74927 2:1.610327 3:-0.294378 
10 1:23.731558 2:1.722951 3:-0.130957 
10 1:23.712933 2:1.791657 3:0.050211 
10 1:23.694149 2:1.811467 3:0.242208 
10 1:23.675542 2:1.791304 3:0.439859 
4.925535824027183 1:23.657414 2:1.741238 3:0.638131 
4.503318819335694 1:23.625151 2:1.575881 3:1.005283 
-10 1:23.619437 2:0.836361 3:1.203502 
-10 1:23.628123 2:0.638905 3:1.150036 
-10 1:23.63645 2:0.450499 3:1.098601 
-10 1:23.641087 2:0.264981 3:1.085085 
-10 1:23.640451 2:0.078857 3:1.126613 
-10 1:23.636225 2:-0.106388 3:1.20538 
-10 1:23.630447 2:-0.288727 3:1.299776 
-10 1:23.625093 2:-0.466951 3:1.388982 
10 1:23.644593 2:-1.405793 3:1.361872 
10 1:23.662089 2:-1.52652 3:1.202214 
10 1:23.681695 2:-1.57772 3:1.007545 
10 1:23.70114 2:-1.560261 3:0.801667 
10 1:23.718038 2:-1.482213 3:0.610976 
-10 1:23.739948 2:-1.204865 3:0.330676 
-10 1:23.751955 2:-1.082166 3:0.182572 
-10 1:23.76691 2:-0.989799 3:0.009435 
-10 1:23.78328 2:-0.912644 3:-0.175595 
-10 1:23.799604 2:-0.836772 3:-0.359908 
-10 1:23.815747 2:-0.76831 3:-0.540941 
-10 1:23.832844 2:-0.72293 3:-0.727588 
-10 1:23.852511 2:-0.701225 3:-0.936566 
5.313185690044358 1:23.874058 2:-0.323823 3:-1.231839 
10 1:23.855306 2:0.053736 3:-1.107274 
10 1:23.84643 2:0.240731 3:-1.049858 
-10 1:24.318912 2:0.271201 3:-0.560699 
-10 1:24.332003 2:0.43252 3:-0.381516 
-10 1:24.354343 2:0.61333 3:-0.321579 
-10 1:24.381911 2:0.805433 3:-0.32834 
-10 1:24.410688 2:1.000632 3:-0.34925 
-10 1:24.452807 2:1.54905 3:0.303716 
-10 1:24.44263 2:1.55186 3:0.498054 
-10 1:24.429431 2:1.532761 3:0.690909 
-10 1:24.41189 2:1.480569 3:0.877445 
10 1:24.364735 2:1.275517 3:1.210443 
10 1:24.337402 2:1.13227 3:1.34001 
10 1:24.309148 2:0.957845 3:1.405363 
10 1:24.280452 2:0.763458 3:1.426898 
10 1:24.251413 2:0.568346 3:1.452866 
10 1:24.222654 2:0.377882 3:1.485762 
10 1:24.195047 2:0.19101 3:1.506838 
10 1:24.168902 2:0.0049 3:1.503044 
4.86850486960113 1:24.142222 2:-0.190399 3:1.485173 
-10 1:24.086346 2:-0.606785 3:1.428538 
-10 1:24.068777 2:-0.764435 3:1.341205 
-10 1:24.066207 2:-0.844476 3:1.180164 
-10 1:24.072313 2:-0.87913 3:0.977791 
-10 1:24.077678 2:-0.916917 3:0.780873 
-10 1:24.08216 2:-0.957738 3:0.592297 
-10 1:24.087786 2:-0.990106 3:0.404679 
-10 1:24.095823 2:-1.00739 3:0.212025 
-10 1:24.09634 2:-1.073288 3:0.031054 
10 1:24.069193 2:-1.372583 3:-0.248834 
10 1:24.060815 2:-1.484029 3:-0.384855 
10 1:24.069125 2:-1.490613 3:-0.554698 
10 1:24.086334 2:-1.447626 3:-0.759092 
10 1:24.101576 2:-1.428705 3:-0.989949 
10 1:24.115211 2:-1.412106 3:-1.197325 
10 1:24.135843 2:-1.306387 3:-1.30139 
10 1:24.164837 2:-1.103523 3:-1.306351 
10 1:24.193287 2:-0.908807 3:-1.322502 
10 1:24.220118 2:-0.719433 3:-1.322828 
2.130276369014632 1:24.247217 2:-0.525401 3:-1.315948 
10 1:24.273345 2:-0.334456 3:-1.299255 
5.580838126966148 1:24.294402 2:-0.154696 3:-1.218473 
-10 1:24.31523 2:0.109552 3:-0.913649 
-10 1:24.314444 2:0.174415 3:-0.730422 
-10 1:24.832287 2:0.240004 3:-0.709588 
-10 1:24.810849 2:0.379744 3:-0.585932 
-10 1:24.793594 2:0.556186 3:-0.505757 
-10 1:24.778715 2:0.748278 3:-0.448715 
-10 1:24.698575 2:1.357723 3:-0.012798 
-10 1:24.67267 2:1.453771 3:0.158665 
-10 1:24.649651 2:1.579782 3:0.298717 
10 1:24.606984 2:1.854009 3:0.546002 
10 1:24.579943 2:1.850583 3:0.756355 
10 1:24.558119 2:1.761648 3:0.9522 
10 1:24.548343 2:1.611939 3:1.07318 
10 1:24.548548 2:1.429858 3:1.126691 
-7.176294627238297 1:24.566255 2:0.650142 3:1.225579 
-10 1:24.569618 2:0.458903 3:1.257419 
-10 1:24.573028 2:0.266974 3:1.289102 
-10 1:24.585574 2:-0.309922 3:1.36656 
-10 1:24.595967 2:-0.503838 3:1.344793 
-10 1:24.609329 2:-0.6904 3:1.29782 
-10 1:24.624799 2:-0.870904 3:1.23269 
-10 1:24.641493 2:-1.054652 3:1.159075 
-10 1:24.659092 2:-1.241276 3:1.079313 
-10 1:24.678731 2:-1.404991 3:0.976842 
10 1:24.727607 2:-1.569567 3:0.648305 
10 1:24.754224 2:-1.579149 3:0.445169 
10 1:24.779275 2:-1.562631 3:0.246256 
10 1:24.802147 2:-1.529792 3:0.059278 
10 1:24.824523 2:-1.480388 3:-0.128883 
10 1:24.846874 2:-1.410134 3:-0.323149 
10 1:24.861925 2:-1.296278 3:-0.474111 
-10 1:24.85519 2:-0.913299 3:-0.537872 
-10 1:24.855495 2:-0.734349 3:-0.594385 
-10 1:24.872583 2:-0.626003 3:-0.759443 
-10 1:24.896399 2:-0.594029 3:-0.953475 
10 1:25.438485 2:0.450521 3:-1.176323 
10 1:25.450419 2:0.635373 3:-1.015215 
10 1:25.443354 2:0.710645 3:-0.83223 
10 1:25.424921 2:0.722282 3:-0.63326 
-10 1:25.402755 2:0.716233 3:-0.4242 
-10 1:25.384482 2:0.738367 3:-0.210981 
-10 1:25.376171 2:0.819321 3:-0.007168 
-10 1:25.380449 2:0.95608 3:0.156822 
-10 1:25.398792 2:1.139575 3:0.252797 
-10 1:25.422236 2:1.337329 3:0.320058 
-10 1:25.436015 2:1.50466 3:0.436599 
-10 1:25.437317 2:1.627937 3:0.60957 
10 1:25.407452 2:1.729426 3:1.056475 
10 1:25.379882 2:1.685517 3:1.261678 
10 1:25.348412 2:1.54047 3:1.352849 
10 1:25.316621 2:1.32196 3:1.336469 
-10 1:25.264518 2:0.881634 3:1.185741 
-10 1:25.244011 2:0.695097 3:1.106471 
-10 1:25.223206 2:0.510138 3:1.032516 
-10 1:25.199212 2:0.312435 3:0.970758 
-10 1:25.170634 2:0.105347 3:0.939966 
-10 1:25.137049 2:-0.102696 3:0.95702 
-10 1:25.100185 2:-0.302778 3:1.018339 
-10 1:25.062291 2:-0.48597 3:1.115262 
-10 1:25.024687 2:-0.653748 3:1.232556 
-10 1:24.986994 2:-0.826708 3:1.342914 
-10 1:24.948684 2:-1.027256 3:1.417772 
10 1:24.884802 2:-1.572371 3:1.225059 
10 1:24.900016 2:-1.613018 3:1.014049 
10 1:24.926141 2:-1.596051 3:0.782478 
10 1:24.955965 2:-1.542506 3:0.569613 
10 1:24.987976 2:-1.455646 3:0.385419 
-10 1:25.060295 2:-1.187582 3:0.077561 
-10 1:25.097571 2:-1.046887 3:-0.077319 
-10 1:25.133206 2:-0.927018 3:-0.247426 
-10 1:25.165983 2:-0.833827 3:-0.429612 
-10 1:25.194534 2:-0.77576 3:-0.623135 
-10 1:25.217029 2:-0.769549 3:-0.835193 
10 1:25.35787 2:-0.156554 3:-1.297694 
10 1:25.388379 2:0.052245 3:-1.283331 
10 1:25.410418 2:0.246517 3:-1.207499 
10 1:25.854258 2:0.378462 3:-0.89554 
10 1:25.888774 2:0.58645 3:-0.872346 
10 1:25.913541 2:0.752936 3:-0.78902 
10 1:25.931297 2:0.889765 3:-0.661737 
10 1:25.944785 2:1.008801 3:-0.5067 
10 1:25.958099 2:1.127582 3:-0.348693 
10 1:25.978483 2:1.27691 3:-0.232554 
10 1:26.00634 2:1.457282 3:-0.165471 
10 1:26.01667 2:1.556822 3:-0.014342 
-10 1:26.005806 2:1.596916 3:0.386442 
-10 1:25.996832 2:1.592932 3:0.574047 
-10 1:25.984624 2:1.573468 3:0.775003 
-10 1:25.968434 2:1.533212 3:0.985645 
-10 1:25.94789 2:1.462656 3:1.177643 
-10 1:25.823941 2:0.802544 3:1.429824 
10 1:25.722467 2:0.260728 3:1.630852 
10 1:25.68953 2:0.085892 3:1.700084 
10 1:25.656976 2:-0.092314 3:1.747644 
10 1:25.624601 2:-0.277778 3:1.763069 
10 1:25.59042 2:-0.475312 3:1.772704 
10 1:25.555127 2:-0.678777 3:1.784561 
10 1:25.522673 2:-0.872277 3:1.770698 
10 1:25.497106 2:-1.039633 3:1.702125 
10 1:25.481886 2:-1.165484 3:1.559912 
0.5841995403968632 1:25.502547 2:-1.388009 3:0.232226 
10 1:25.512201 2:-1.381196 3:0.040163 
10 1:25.526173 2:-1.34861 3:-0.149962 
7.959987699179361 1:25.542481 2:-1.30119 3:-0.335572 
-10 1:25.666636 2:-0.747049 3:-1.002092 
-10 1:25.697003 2:-0.559207 3:-0.962899 
-10 1:25.727803 2:-0.37176 3:-0.935041 
-10 1:25.758484 2:-0.184238 3:-0.904195 
10 1:25.820672 2:0.191181 3:-0.859732 
-10 1:26.240988 2:0.149944 3:-0.144087 
-10 1:26.247477 2:0.356429 3:-0.135697 
-10 1:26.257187 2:0.563398 3:-0.092195 
-10 1:26.268529 2:0.770515 3:-0.030882 
-10 1:26.279912 2:0.977445 3:0.030946 
-10 1:26.289748 2:1.183852 3:0.075989 
-10 1:26.296445 2:1.389404 3:0.086952 
10 1:26.299209 2:1.60049 3:0.053185 
10 1:26.301834 2:1.813908 3:0.017195 
10 1:26.312405 2:1.96947 3:0.085706 
10 1:26.33132 2:2.048636 3:0.268695 
10 1:26.354308 2:2.061138 3:0.516475 
10 1:26.377047 2:2.017028 3:0.778689 
10 1:26.395337 2:1.926265 3:1.006367 
10 1:26.407455 2:1.797002 3:1.178181 
3.352211821148284 1:26.413963 2:1.635724 3:1.298301 
-10 1:26.414525 2:1.245271 3:1.422856 
-10 1:26.412343 2:1.032325 3:1.46355 
-10 1:26.411148 2:0.818525 3:1.515303 
-10 1:26.411342 2:0.608728 3:1.581044 
10 1:26.408126 2:0.200461 3:1.669651 
10 1:26.40064 2:0.001041 3:1.648201 
10 1:26.349251 2:-0.780313 3:1.322766 
10 1:26.333543 2:-0.953389 3:1.20335 
10 1:26.315206 2:-1.101712 3:1.047657 
10 1:26.295227 2:-1.218695 3:0.864495 
10 1:26.274604 2:-1.297761 3:0.662782 
10 1:26.254364 2:-1.331935 3:0.451646 
-10 1:26.220471 2:-1.227099 3:0.048951 
-10 1:26.204755 2:-1.164701 3:-0.141949 
-10 1:26.187515 2:-1.143973 3:-0.336908 
-10 1:26.168682 2:-1.152407 3:-0.540448 
-3.923069365713794 1:26.1482 2:-1.177215 3:-0.757062 
10 1:26.12818 2:-0.361108 3:-1.22362 
-10 1:26.170249 2:-0.25559 3:-0.795249 
-10 1:26.189384 2:-0.206718 3:-0.60066 
-10 1:26.208092 2:-0.146908 3:-0.414065 
-10 1:26.22768 2:-0.06208 3:-0.225428 
-10 1:26.860813 2:-1.125536 3:-0.178412 
-6.088052212015383 1:26.879135 2:-1.310428 3:-0.241307 
10 1:26.907313 2:-1.585302 3:-0.599817 
10 1:26.915634 2:-1.661491 3:-0.843505 
10 1:26.919087 2:-1.687652 3:-1.095533 
10 1:26.916906 2:-1.656888 3:-1.329935 
10 1:26.908322 2:-1.562304 3:-1.52075 
10 1:26.892651 2:-1.397811 3:-1.642527 
10 1:26.871598 2:-1.181213 3:-1.684949 
10 1:26.849596 2:-0.95754 3:-1.654946 
10 1:26.830161 2:-0.762216 3:-1.566265 
10 1:26.811668 2:-0.577106 3:-1.461029 
10 1:26.790976 2:-0.368328 3:-1.389432 
10 1:26.770172 2:-0.157819 3:-1.333751 
10 1:26.759406 2:-0.053867 3:-1.167081 
10 1:26.752087 2:0.01302 3:-0.949274 
-10 1:26.73811 2:0.140549 3:-0.527796 
-10 1:26.725998 2:0.259002 3:-0.381965 
-10 1:26.703974 2:0.482267 3:-0.334288 
-10 1:26.682829 2:0.696783 3:-0.293417 
10 1:26.622132 2:1.310945 3:-0.130859 
10 1:26.607059 2:1.459254 3:0.025796 
-10 1:26.595569 2:1.56175 3:0.43724 
-10 1:26.595684 2:1.553146 3:0.642436 
-10 1:26.59692 2:1.53274 3:0.857547 
-10 1:26.597194 2:1.52129 3:1.096657 
10 1:26.598359 2:1.491769 3:1.583824 
10 1:26.607289 2:1.395013 3:1.736889 
10 1:26.626015 2:1.202197 3:1.778877 
10 1:26.648615 2:0.971612 3:1.771343 
10 1:26.669719 2:0.756048 3:1.770705 
10 1:26.69011 2:0.547863 3:1.76758 
10 1:26.711109 2:0.334098 3:1.746799 
10 1:26.733228 2:0.110088 3:1.692987 
9.625118048063861 1:26.7522 2:-0.079974 3:1.589591 
-10 1:26.762506 2:-0.179179 3:1.421777 
-10 1:26.765436 2:-0.201247 3:1.204417 
-10 1:26.767253 2:-0.211476 3:0.974075 
-10 1:26.774333 2:-0.276341 3:0.767807 
-10 1:26.789309 2:-0.42385 3:0.616258 
-10 1:26.806915 2:-0.599276 3:0.493918 
-10 1:26.823063 2:-0.758929 3:0.3474 
-10 1:26.836275 2:-0.887532 3:0.171512 
10 1:27.138877 2:-0.512298 3:-1.197056 
10 1:27.161391 2:-0.333565 3:-1.121751 
-10 1:27.198469 2:-0.157819 3:-0.733049 
-10 1:27.2156 2:-0.084832 3:-0.535143 
-10 1:27.233503 2:0.028882 3:-0.411863 
-10 1:27.253168 2:0.208675 3:-0.398917 
-10 1:27.273909 2:0.406865 3:-0.40437 
-10 1:27.295478 2:0.584373 3:-0.346234 
-10 1:27.31777 2:0.75196 3:-0.250729 
-10 1:27.340045 2:0.928079 3:-0.174614 
10 1:27.38334 2:1.299752 3:-0.092191 
10 1:27.403653 2:1.428566 3:0.048148 
10 1:27.459471 2:1.743432 3:0.521054 
10 1:27.478673 2:1.855252 3:0.675942 
10 1:27.496607 2:1.946742 3:0.849469 
10 1:27.510628 2:1.992155 3:1.043405 
10 1:27.510657 2:1.920136 3:1.204713 
10 1:27.497396 2:1.746784 3:1.312266 
-10 1:27.462156 2:1.366489 3:1.418724 
-10 1:27.443192 2:1.180238 3:1.434944 
-10 1:27.423368 2:0.992317 3:1.43678 
-10 1:27.403288 2:0.801884 3:1.438833 
-10 1:27.384104 2:0.610357 3:1.462207 
-10 1:27.366713 2:0.419298 3:1.522292 
10 1:27.331962 2:0.046558 3:1.622192 
10 1:27.310819 2:-0.130118 3:1.571154 
10 1:27.289115 2:-0.282525 3:1.45417 
10 1:27.269114 2:-0.406121 3:1.308743 
4.364429871916334 1:27.250068 2:-0.514205 3:1.148829 
-10 1:27.094411 2:-1.315659 3:-0.34087 
-10 1:27.084488 2:-1.322172 3:-0.535303 
-10 1:27.078512 2:-1.29422 3:-0.72353 
-10 1:27.082019 2:-1.189156 3:-0.884111 
-10 1:27.09808 2:-1.009238 3:-0.947336 
-10 1:27.114219 2:-0.830535 3:-1.006223 
-10 1:27.129729 2:-0.656432 3:-1.068091 
10 1:27.894162 2:0.894995 3:-0.416286 
10 1:27.922959 2:1.083653 3:-0.345382 
10 1:27.945101 2:1.2336 3:-0.21475 
10 1:27.958511 2:1.330479 3:-0.04106 
-9.505089011616288 1:27.965921 2:1.390509 3:0.156198 
-10 1:27.970451 2:1.432446 3:0.358466 
-10 1:27.972791 2:1.460289 3:0.559289 
-10 1:27.972321 2:1.470076 3:0.758733 
-10 1:27.968412 2:1.457802 3:0.956932 
-10 1:27.960814 2:1.421856 3:1.153927 
-10 1:27.949879 2:1.364494 3:1.349499 
-10 1:27.934036 2:1.27476 3:1.529717 
-10 1:27.800479 2:0.421858 3:1.545161 
-10 1:27.792036 2:0.354811 3:1.341468 
-10 1:27.782773 2:0.28363 3:1.155098 
-10 1:27.766624 2:0.168992 3:0.977518 
-10 1:27.742376 2:0.005793 3:0.850157 
-10 1:27.713147 2:-0.179702 3:0.871668 
-10 1:27.681658 2:-0.377522 3:0.926357 
10 1:27.624097 2:-0.752404 3:0.819323 
10 1:27.600953 2:-0.908727 3:0.689103 
10 1:27.58077 2:-1.046936 3:0.546145 
10 1:27.561315 2:-1.180844 3:0.397654 
10 1:27.540487 2:-1.323831 3:0.244549 
10 1:27.520603 2:-1.461255 3:0.084055 
10 1:27.506242 2:-1.564142 3:-0.088495 
10 1:27.501981 2:-1.603525 3:-0.277751 
10 1:27.50699 2:-1.584425 3:-0.479263 
-8.871130118239561 1:27.5282 2:-1.486954 3:-1.073763 
10 1:27.589886 2:-1.11732 3:-1.459644 
10 1:27.696537 2:-0.41381 3:-1.122358 
10 1:27.723904 2:-0.233259 3:-1.035324 
10 1:27.754378 2:-0.034914 3:-0.980609 
10 1:27.776316 2:0.112624 3:-0.867166 
10 1:28.341277 2:0.723111 3:-0.467391 
10 1:28.348379 2:1.092372 3:-0.293954 
10 1:28.356875 2:1.296974 3:-0.24543 
10 1:28.349292 2:1.396194 3:-0.099827 
-10 1:28.312083 2:1.461653 3:0.33217 
-10 1:28.297114 2:1.516801 3:0.525269 
-10 1:28.280199 2:1.540848 3:0.717824 
-10 1:28.259892 2:1.52493 3:0.918978 
-10 1:28.238474 2:1.499801 3:1.125535 
-10 1:28.217643 2:1.483118 3:1.331638 
10 1:28.172385 2:1.294075 3:1.676996 
10 1:28.151229 2:1.114112 3:1.777042 
10 1:28.134342 2:0.91351 3:1.818723 
10 1:28.122321 2:0.711539 3:1.808722 
10 1:28.113141 2:0.509534 3:1.769077 
10 1:28.105762 2:0.309505 3:1.711968 
10 1:28.10406 2:0.133693 3:1.61187 
10 1:28.11165 2:0.008289 3:1.448647 
-10 1:28.147504 2:-0.031673 3:1.047873 
-10 1:28.163885 2:-0.075071 3:0.847921 
-10 1:28.172827 2:-0.199057 3:0.671542 
-10 1:28.173392 2:-0.37354 3:0.548697 
-10 1:28.165698 2:-0.568693 3:0.498141 
-10 1:28.161588 2:-0.754812 3:0.416248 
-10 1:28.177269 2:-0.774072 3:0.239775 
-10 1:28.202046 2:-0.720035 3:0.017555 
-10 1:28.218978 2:-0.763276 3:-0.188038 
-10 1:28.221398 2:-0.920391 3:-0.3186 
-10 1:28.213763 2:-1.117357 3:-0.370979 
-10 1:28.207574 2:-1.311141 3:-0.436319 
-10 1:28.209271 2:-1.474321 3:-0.563395 
-1.48258536924007 1:28.218237 2:-1.594202 3:-0.737279 
10 1:28.322891 2:-0.845328 3:-1.326928 
-8.627359680997305 1:28.320281 2:-0.027698 3:-0.751651 
-10 1:28.317978 2:0.127316 3:-0.623715 
-10 1:28.324048 2:0.324593 3:-0.554803 
10 1:28.806529 2:0.588235 3:-0.529159 
10 1:28.845504 2:0.775962 3:-0.461326 
10 1:28.887374 2:0.973064 3:-0.37938 
10 1:28.924299 2:1.114378 3:-0.24255 
-10 1:28.954711 2:1.190784 3:-0.050433 
-10 1:28.989121 2:1.300865 3:0.119998 
-10 1:29.027967 2:1.450734 3:0.261556 
10 1:29.14597 2:1.62217 3:1.2553 
10 1:29.150581 2:1.549927 3:1.450928 
10 1:29.135812 2:1.399765 3:1.582179 
10 1:29.106313 2:1.199428 3:1.646531 
10 1:29.07313 2:0.996249 3:1.674887 
10 1:29.040656 2:0.796794 3:1.703859 
10 1:29.008778 2:0.596356 3:1.741508 
10 1:28.972011 2:0.387408 3:1.740795 
10 1:28.935657 2:0.247385 3:1.607846 
-10 1:28.875758 2:0.183047 3:1.058371 
-10 1:28.85173 2:0.176624 3:0.799448 
-10 1:28.83131 2:0.132387 3:0.656416 
-10 1:28.813984 2:0.010565 3:0.702472 
-10 1:28.790546 2:-0.177004 3:0.810007 
-10 1:28.754976 2:-0.379666 3:0.810337 
10 1:28.675975 2:-0.728425 3:0.609765 
10 1:28.638565 2:-0.865383 3:0.458804 
10 1:28.525163 2:-1.288515 3:0.016987 
10 1:28.48824 2:-1.42018 3:-0.138997 
10 1:28.453409 2:-1.5346 3:-0.305573 
-10 1:28.385658 2:-1.485951 3:-1.168246 
-10 1:28.420677 2:-1.28044 3:-1.180463 
-10 1:28.454792 2:-1.074459 3:-1.203842 
-10 1:28.494255 2:-0.889132 3:-1.125729 
-10 1:28.533649 2:-0.696941 3:-1.062025 
-10 1:28.573364 2:-0.532739 3:-0.939101 
-10 1:28.612254 2:-0.342803 3:-0.87662 
-10 1:28.652455 2:-0.144642 3:-0.815645 
10 1:28.728407 2:0.247897 3:-0.736515 
10 1:28.76852 2:0.441714 3:-0.667911 
10 1:29.187057 2:0.562283 3:-0.666941 
10 1:29.208015 2:0.790448 3:-0.632184 
10 1:29.236555 2:0.937686 3:-0.511133 
10 1:29.269979 2:1.038812 3:-0.337222 
-10 1:29.340745 2:1.240265 3:0.036704 
-10 1:29.374583 2:1.365426 3:0.202506 
-10 1:29.408011 2:1.454865 3:0.381717 
-10 1:29.44202 2:1.499364 3:0.58501 
-10 1:29.477237 2:1.535121 3:0.800178 
-9.51782051352305 1:29.511495 2:1.556971 3:1.015319 
10 1:29.563362 2:1.456742 3:1.401162 
10 1:29.576432 2:1.307829 3:1.554151 
10 1:29.581117 2:1.120514 3:1.669391 
10 1:29.574585 2:0.918618 3:1.717533 
10 1:29.55475 2:0.721607 3:1.676101 
10 1:29.527713 2:0.528463 3:1.585625 
10 1:29.501637 2:0.332404 3:1.502777 
10 1:29.475894 2:0.143644 3:1.418822 
10 1:29.445826 2:-0.019529 3:1.294926 
-10 1:29.377436 2:-0.237125 3:0.943882 
-10 1:29.343072 2:-0.334266 3:0.761995 
-10 1:29.309308 2:-0.460499 3:0.597172 
-10 1:29.276939 2:-0.612075 3:0.45293 
-10 1:29.246786 2:-0.782301 3:0.331654 
-10 1:29.219527 2:-0.966661 3:0.235764 
10 1:29.195582 2:-1.164516 3:0.167722 
10 1:29.173175 2:-1.366431 3:0.111608 
10 1:29.144924 2:-1.538213 3:0.003525 
10 1:29.110411 2:-1.664204 3:-0.166327 
10 1:29.074314 2:-1.743453 3:-0.367667 
10 1:29.04022 2:-1.777751 3:-0.576118 
10 1:29.008769 2:-1.775245 3:-0.783807 
10 1:28.980147 2:-1.744899 3:-0.985474 
10 1:28.95496 2:-1.681808 3:-1.179343 
10 1:28.934613 2:-1.557775 3:-1.368905 
10 1:28.925693 2:-1.380412 3:-1.507466 
10 1:28.942011 2:-1.216289 3:-1.474307 
-10 1:29.014879 2:-0.943028 3:-1.118955 
-10 1:29.04616 2:-0.792615 3:-0.981335 
-10 1:29.075973 2:-0.631712 3:-0.858093 
-10 1:29.107059 2:-0.461916 3:-0.730493 
-10 1:29.135159 2:-0.28042 3:-0.627788 
-10 1:29.153503 2:-0.082932 3:-0.596361 
-10 1:29.163341 2:0.128532 3:-0.627109 
10 1:29.893568 2:0.435248 3:-0.856009 
10 1:29.912395 2:0.61367 3:-0.762051 
10 1:29.924213 2:0.764612 3:-0.6369 
10 1:29.931456 2:0.897721 3:-0.491202 
10 1:29.936557 2:1.022644 3:-0.335602 
10 1:29.941948 2:1.149029 3:-0.180747 
10 1:29.959487 2:1.42937 3:0.10072 
10 1:29.969602 2:1.574978 3:0.235738 
10 1:29.976888 2:1.708809 3:0.382196 
10 1:29.976614 2:1.811035 3:0.558961 
10 1:29.966158 2:1.863746 3:0.764747 
10 1:29.946203 2:1.852395 3:0.967241 
10 1:29.917758 2:1.763725 3:1.132704 
10 1:29.883008 2:1.608648 3:1.255391 
-10 1:29.810771 2:1.229241 3:1.413497 
-10 1:29.786117 2:1.044725 3:1.373958 
-10 1:29.764392 2:0.860381 3:1.302149 
-10 1:29.737454 2:0.665549 3:1.27045 
-10 1:29.710572 2:0.470176 3:1.237213 
-10 1:29.686418 2:0.280089 3:1.182638 
-10 1:29.661224 2:0.090166 3:1.139911 
10 1:29.605479 2:-0.313736 3:1.073095 
10 1:29.589855 2:-0.475664 3:0.971571 
10 1:29.589764 2:-0.579389 3:0.796317 
3.807900423413484 1:29.582688 2:-0.707607 3:0.657066 
10 1:29.557445 2:-0.902414 3:0.606576 
10 1:29.534472 2:-1.090389 3:0.542466 
10 1:29.530627 2:-1.208836 3:0.383916 
10 1:29.53549 2:-1.287063 3:0.196938 
10 1:29.54267 2:-1.350018 3:0.010147 
-5.169337283470258 1:29.577595 2:-1.567554 3:-0.747686 
-10 1:29.723061 2:-0.853838 3:-1.151574 
-10 1:29.730241 2:-0.714395 3:-0.994414 
-10 1:29.740712 2:-0.566217 3:-0.858975 
-10 1:29.754993 2:-0.402117 3:-0.73884 
-10 1:29.772045 2:-0.226663 3:-0.6302 
-10 1:29.795814 2:-0.043222 3:-0.582643 
-10 1:29.828263 2:0.145091 3:-0.62327 
10 1:29.86389 2:0.333875 3:-0.698434 
10 1:30.071006 2:-0.216875 3:-1.16904 
10 1:30.103502 2:-0.069526 3:-1.035051 
10 1:30.134372 2:0.025619 3:-0.875272 
-10 1:30.194218 2:0.137158 3:-0.512687 
-10 1:30.224684 2:0.192484 3:-0.327053 
-10 1:30.256432 2:0.273166 3:-0.150295 
-10 1:30.288453 2:0.39141 3:0.001272 
-10 1:30.318116 2:0.551069 3:0.105353 
-10 1:30.343482 2:0.739643 3:0.15665 
-10 1:30.363414 2:0.93458 3:0.163067 
-10 1:30.384069 2:1.124308 3:0.178624 
-10 1:30.410504 2:1.30973 3:0.240117 
-10 1:30.440635 2:1.463412 3:0.352002 
-10 1:30.471363 2:1.529583 3:0.531721 
-10 1:30.499444 2:1.558156 3:0.71907 
-10 1:30.526843 2:1.573437 3:0.911002 
-3.623404931242238 1:30.55905 2:1.449603 3:1.239366 
-10 1:30.545172 2:1.242606 3:1.286541 
-10 1:30.525921 2:1.036894 3:1.292971 
-10 1:30.506432 2:0.843858 3:1.288455 
-10 1:30.490125 2:0.660374 3:1.300597 
-10 1:30.480114 2:0.483092 3:1.354891 
-10 1:30.473195 2:0.304052 3:1.433367 
1.226697150075754 1:30.461111 2:0.113609 3:1.481833 
10 1:30.441948 2:-0.078207 3:1.478852 
10 1:30.416898 2:-0.257076 3:1.422867 
10 1:30.387558 2:-0.424295 3:1.326656 
10 1:30.355607 2:-0.584407 3:1.205948 
10 1:30.323028 2:-0.730949 3:1.070752 
10 1:30.293057 2:-0.811581 3:0.907123 
10 1:30.266274 2:-0.818768 3:0.713894 
-10 1:30.238061 2:-0.844026 3:0.523161 
-10 1:30.206615 2:-0.926014 3:0.349585 
-10 1:30.172508 2:-1.058791 3:0.193089 
10 1:30.071776 2:-1.491801 3:-0.23947 
-10 1:30.027063 2:-1.473265 3:-0.584191 
-10 1:30.008794 2:-1.408792 3:-0.766268 
-10 1:29.988415 2:-1.36518 3:-0.948866 
-10 1:29.965161 2:-1.330399 3:-1.14636 
1.484786598609855 1:29.944691 2:-1.273051 3:-1.339583 
10 1:29.949658 2:-1.115088 3:-1.417251 
10 1:29.97196 2:-0.910407 3:-1.400333 
10 1:29.997745 2:-0.733769 3:-1.337287 
10 1:30.028293 2:-0.574668 3:-1.226239 
10 1:30.056778 2:-0.407178 3:-1.136558 
-10 1:30.58973 2:-0.874372 3:-1.089329 
10 1:30.590335 2:-0.680822 3:-1.215287 
10 1:30.605742 2:-0.522019 3:-1.161678 
-10 1:30.661378 2:-0.26443 3:-0.752114 
-10 1:30.691818 2:-0.143531 3:-0.514337 
-10 1:30.717479 2:-0.013155 3:-0.333349 
-10 1:30.733465 2:0.137755 3:-0.268239 
-10 1:30.739143 2:0.314207 3:-0.329111 
-10 1:30.747605 2:0.500354 3:-0.367297 
10 1:30.790585 2:1.05805 3:-0.296145 
10 1:30.807258 2:1.23854 3:-0.244029 
10 1:30.826225 2:1.405182 3:-0.158299 
10 1:30.847569 2:1.542269 3:-0.02734 
10 1:30.868993 2:1.629948 3:0.138245 
10 1:30.887856 2:1.655226 3:0.319533 
10 1:30.962065 2:1.699787 3:1.070246 
10 1:30.97493 2:1.639483 3:1.246901 
10 1:30.977545 2:1.506475 3:1.365368 
-10 1:30.969997 2:1.326202 3:1.409157 
-10 1:30.95591 2:1.121612 3:1.400744 
-10 1:30.938953 2:0.91561 3:1.363079 
-10 1:30.92283 2:0.724257 3:1.324176 
-10 1:30.91135 2:0.54371 3:1.326773 
-10 1:30.905785 2:0.366677 3:1.389223 
-10 1:30.895006 2:0.188184 3:1.397788 
-10 1:30.8761 2:0.016473 3:1.316165 
-10 1:30.852659 2:-0.133691 3:1.172067 
-10 1:30.828323 2:-0.247492 3:0.993699 
-10 1:30.806362 2:-0.325526 3:0.815862 
-10 1:30.787627 2:-0.451957 3:0.705082 
-10 1:30.770593 2:-0.637177 3:0.652405 
-10 1:30.752806 2:-0.825281 3:0.59377 
-10 1:30.732595 2:-0.974347 3:0.482927 
-10 1:30.710766 2:-1.088802 3:0.331388 
-10 1:30.688604 2:-1.18205 3:0.161846 
-10 1:30.667295 2:-1.266859 3:-0.00449 
-10 1:30.646767 2:-1.348002 3:-0.165105 
-4.424439442925315 1:30.626092 2:-1.424799 3:-0.330247 
-10 1:30.570841 2:-1.34268 3:-0.968006 
-10 1:30.572253 2:-1.17814 3:-1.06563 
-10 1:31.325267 2:1.486514 3:0.34793 
-10 1:31.332463 2:1.508279 3:0.569603 
-10 1:31.339314 2:1.52717 3:0.783523 
-10 1:31.345696 2:1.536319 3:0.995999 
-10 1:31.351303 2:1.52148 3:1.218483 
10 1:31.355745 2:1.468801 3:1.45882 
10 1:31.357519 2:1.369672 3:1.677046 
10 1:31.354331 2:1.219198 3:1.799289 
10 1:31.344916 2:1.019954 3:1.776607 
-10 1:31.331754 2:0.800919 3:1.651714 
-10 1:31.318345 2:0.591251 3:1.503385 
-10 1:31.30871 2:0.404218 3:1.453763 
-10 1:31.30546 2:0.244187 3:1.58877 
10 1:31.302123 2:0.07823 3:1.72995 
10 1:31.29211 2:-0.126821 3:1.695103 
10 1:31.279589 2:-0.358101 3:1.612137 
10 1:31.268256 2:-0.570213 3:1.541428 
10 1:31.258596 2:-0.694682 3:1.392962 
10 1:31.249602 2:-0.759958 3:1.175491 
10 1:31.228531 2:-1.009667 3:0.817543 
10 1:31.218063 2:-1.130637 3:0.634909 
10 1:31.148658 2:-1.47671 3:-1.289962 
10 1:31.147419 2:-1.389213 3:-1.470955 
10 1:31.152159 2:-1.200445 3:-1.598025 
10 1:31.159446 2:-0.995296 3:-1.660187 
10 1:31.170652 2:-0.799287 3:-1.568745 
10 1:31.182526 2:-0.630609 3:-1.410805 
10 1:31.192922 2:-0.50091 3:-1.244378 
10 1:31.202163 2:-0.404272 3:-1.067248 
-10 1:31.213257 2:-0.294873 3:-0.844214 
-10 1:31.227436 2:-0.14299 3:-0.578074 
-10 1:31.240664 2:0.026204 3:-0.372821 
-10 1:31.248177 2:0.179932 3:-0.346469 
-10 1:31.250792 2:0.332393 3:-0.492192 
-10 1:31.274431 2:0.747251 3:-0.301484 
2.14613802728145 1:31.720252 2:0.52772 3:-0.555217 
10 1:31.686817 2:0.725045 3:-0.543214 
10 1:31.653471 2:0.919352 3:-0.527247 
10 1:31.618745 2:1.098324 3:-0.473054 
10 1:31.582113 2:1.253943 3:-0.362575 
10 1:31.545653 2:1.389908 3:-0.222213 
10 1:31.511827 2:1.500003 3:-0.066193 
10 1:31.481949 2:1.57115 3:0.11355 
-3.611019463203231 1:31.409111 2:1.663772 3:0.68161 
-10 1:31.389128 2:1.661886 3:0.881319 
10 1:31.357681 2:1.49806 3:1.454095 
10 1:31.370143 2:1.354722 3:1.561769 
10 1:31.54174 2:0.193921 3:1.738165 
10 1:31.575336 2:-0.001307 3:1.721212 
10 1:31.610724 2:-0.187945 3:1.672824 
10 1:31.647027 2:-0.356965 3:1.587112 
10 1:31.75784 2:-0.837017 3:1.267853 
10 1:31.794664 2:-1.012267 3:1.187038 
10 1:31.830795 2:-1.171987 3:1.088076 
10 1:31.865773 2:-1.301805 3:0.952416 
10 1:31.899101 2:-1.402646 3:0.786436 
10 1:31.930277 2:-1.477181 3:0.599356 
10 1:31.958802 2:-1.528082 3:0.400397 
10 1:31.984096 2:-1.557487 3:0.198697 
10 1:32.004119 2:-1.557631 3:0.001855 
10 1:32.015541 2:-1.511999 3:-0.183892 
-10 1:32.006303 2:-1.266412 3:-0.487606 
-10 1:31.996516 2:-1.1241 3:-0.619965 
-10 1:31.99973 2:-1.036811 3:-0.791865 
-10 1:32.004579 2:-0.955679 3:-0.969969 
-10 1:31.889856 2:-0.334032 3:-0.839759 
-10 1:31.849676 2:-0.181621 3:-0.6892 
-10 1:31.81565 2:-0.00582 3:-0.6368 
10 1:32.258763 2:0.448858 3:-0.693554 
10 1:32.240765 2:0.62645 3:-0.614774 
-10 1:32.183777 2:1.038455 3:-0.181355 
-10 1:32.164932 2:1.167656 3:-0.02943 
-10 1:32.146337 2:1.336787 3:0.069535 
10 1:32.109921 2:1.687836 3:0.239065 
10 1:32.0924 2:1.781815 3:0.412332 
10 1:32.076117 2:1.82866 3:0.622907 
10 1:32.061963 2:1.8421 3:0.83935 
10 1:32.051258 2:1.817302 3:1.045829 
10 1:32.045394 2:1.746504 3:1.228974 
10 1:32.045719 2:1.622339 3:1.375593 
-10 1:32.078433 2:1.041507 3:1.548215 
-10 1:32.094021 2:0.836875 3:1.542183 
-10 1:32.107658 2:0.641868 3:1.556469 
-10 1:32.116585 2:0.4622 3:1.629493 
10 1:32.130948 2:0.11368 3:1.819721 
10 1:32.14762 2:-0.081904 3:1.784788 
-10 1:32.187367 2:-0.371133 3:1.484785 
-10 1:32.203451 2:-0.426551 3:1.28798 
-10 1:32.218832 2:-0.4791 3:1.099211 
-10 1:32.235931 2:-0.58303 3:0.945074 
-10 1:32.255099 2:-0.744935 3:0.827842 
-10 1:32.275132 2:-0.93549 3:0.731444 
-10 1:32.294986 2:-1.126307 3:0.638315 
4.640135103166148 1:32.331724 2:-1.411147 3:0.382451 
10 1:32.347537 2:-1.468717 3:0.192741 
10 1:32.361174 2:-1.487299 3:-0.00891 
10 1:32.373011 2:-1.486699 3:-0.2044 
0.1890893793532945 1:32.384208 2:-1.476528 3:-0.401087 
10 1:32.395972 2:-1.465731 3:-0.607861 
10 1:32.40728 2:-1.445573 3:-0.818587 
10 1:32.327239 2:-0.21757 3:-1.004582 
-10 1:32.291912 2:0.027595 3:-0.723391 
-10 1:32.83736 2:-0.079268 3:-0.881253 
-10 1:32.862369 2:0.114408 3:-0.840989 
-10 1:32.882042 2:0.29512 3:-0.770979 
-10 1:32.899304 2:0.471955 3:-0.684837 
-10 1:32.916286 2:0.650907 3:-0.593359 
-10 1:32.9262 2:0.803006 3:-0.47555 
-10 1:32.922984 2:0.903635 3:-0.310999 
-10 1:32.91428 2:0.98508 3:-0.123755 
-10 1:32.909533 2:1.085857 3:0.054564 
-10 1:32.918292 2:1.236147 3:0.180158 
-10 1:32.940011 2:1.427877 3:0.246937 
-10 1:32.943551 2:1.548765 3:0.379025 
-10 1:32.928699 2:1.601714 3:0.582213 
-10 1:32.914922 2:1.655771 3:0.777377 
6.421783489281502 1:32.792493 2:1.362269 3:1.465356 
10 1:32.755169 2:1.204434 3:1.582672 
10 1:32.719166 2:1.031535 3:1.667921 
10 1:32.685388 2:0.847959 3:1.719014 
10 1:32.65342 2:0.656595 3:1.743533 
3.95023394700027 1:32.59046 2:0.258884 3:1.763679 
10 1:32.55874 2:0.058047 3:1.773196 
10 1:32.530344 2:-0.136945 3:1.761166 
10 1:32.508967 2:-0.319736 3:1.703436 
-10 1:32.494846 2:-0.611923 3:1.433504 
-10 1:32.501971 2:-0.69897 3:1.252678 
-10 1:32.517392 2:-0.742435 3:1.057271 
-10 1:32.539799 2:-0.744491 3:0.855941 
-10 1:32.567692 2:-0.708701 3:0.657186 
-10 1:32.593393 2:-0.682818 3:0.46445 
-10 1:32.60364 2:-0.75095 3:0.281529 
-10 1:32.595174 2:-0.906722 3:0.145927 
-10 1:32.574734 2:-1.105043 3:0.058899 
-10 1:32.554438 2:-1.296509 3:-0.020137 
10 1:32.560863 2:-1.470272 3:-0.312006 
2.863764939658506 1:32.71719 2:-1.122157 3:-1.226514 
10 1:32.750243 2:-0.969997 3:-1.31366 
-2.367593506404244 1:32.819082 2:-0.25867 3:-0.961857 
-10 1:33.053887 2:1.037135 3:-0.417526 
-10 1:33.035845 2:1.166487 3:-0.271703 
-10 1:33.01972 2:1.286734 3:-0.116221 
-10 1:33.004309 2:1.403552 3:0.04269 
-10 1:32.990204 2:1.513611 3:0.205203 
-10 1:32.979677 2:1.605143 3:0.377435 
-10 1:32.974479 2:1.668762 3:0.562502 
-4.000490992321504 1:32.975777 2:1.697817 3:0.760259 
10 1:33.001095 2:1.631243 3:1.179587 
10 1:33.023859 2:1.536222 3:1.365736 
10 1:33.051695 2:1.403645 3:1.504444 
10 1:33.083341 2:1.236576 3:1.573379 
10 1:33.117485 2:1.044345 3:1.582781 
10 1:33.257117 2:0.265468 3:1.660548 
10 1:33.291405 2:0.078935 3:1.705292 
10 1:33.325713 2:-0.110442 3:1.735231 
10 1:33.360224 2:-0.306956 3:1.732685 
10 1:33.394603 2:-0.511698 3:1.681405 
10 1:33.424244 2:-0.698863 3:1.579446 
-10 1:33.443094 2:-0.867629 3:1.244575 
-10 1:33.431833 2:-0.841974 3:1.036597 
-10 1:33.4248 2:-0.838434 3:0.838935 
-10 1:33.436565 2:-0.934784 3:0.678697 
-10 1:33.446144 2:-1.021052 3:0.5058 
-10 1:33.439996 2:-1.023637 3:0.30216 
-10 1:33.430309 2:-1.005008 3:0.104581 
-10 1:33.429241 2:-1.033143 3:-0.081067 
-10 1:33.438783 2:-1.120872 3:-0.263068 
10 1:33.464944 2:-1.339713 3:-0.644298 
10 1:33.465484 2:-1.376307 3:-0.826294 
10 1:33.447118 2:-1.301564 3:-0.98692 
10 1:33.31239 2:-0.603369 3:-1.351421 
10 1:33.27979 2:-0.425529 3:-1.391306 
10 1:33.251628 2:-0.249999 3:-1.306891 
10 1:33.228188 2:-0.093173 3:-1.178405 
10 1:33.642522 2:0.206192 3:-1.184633 
10 1:33.616542 2:0.4017 3:-1.133286 
10 1:33.593504 2:0.584061 3:-1.066913 
10 1:33.572946 2:0.755748 3:-0.986912 
10 1:33.554408 2:0.919234 3:-0.894679 
10 1:33.53743 2:1.076989 3:-0.791612 
10 1:33.521549 2:1.231488 3:-0.679107 
10 1:33.506305 2:1.385202 3:-0.55856 
10 1:33.491591 2:1.538577 3:-0.430612 
10 1:33.47963 2:1.678663 3:-0.290886 
10 1:33.473592 2:1.787074 3:-0.132973 
10 1:33.476576 2:1.845555 3:0.048771 
10 1:33.490123 2:1.839059 3:0.243278 
10 1:33.513179 2:1.763368 3:0.424472 
-10 1:33.541828 2:1.634343 3:0.568555 
-10 1:33.572308 2:1.470471 3:0.660154 
-10 1:33.603468 2:1.287862 3:0.718857 
-10 1:33.63488 2:1.101974 3:0.773847 
-10 1:33.666117 2:0.928103 3:0.85398 
-10 1:33.696987 2:0.769953 3:0.964896 
-10 1:33.727689 2:0.612175 3:1.074057 
-10 1:33.758454 2:0.437663 3:1.14541 
-10 1:33.789302 2:0.241141 3:1.167031 
-10 1:33.819679 2:0.049214 3:1.192013 
-10 1:33.848961 2:-0.107062 3:1.282694 
10 1:33.93864 2:-0.593702 3:1.541818 
10 1:33.967065 2:-0.787873 3:1.531406 
10 1:33.992081 2:-0.974147 3:1.486545 
7.638842002061716 1:34.013654 2:-1.451451 3:0.713744 
-10 1:33.867423 2:-0.978624 3:-0.452245 
-10 1:33.83585 2:-0.773689 3:-0.465581 
-10 1:33.804922 2:-0.608549 3:-0.561173 
-10 1:33.778893 2:-0.503196 3:-0.719601 
-10 1:33.758048 2:-0.445063 3:-0.907297 
-10 1:33.739643 2:-0.403971 3:-1.096749 
10 1:33.68556 2:-0.148959 3:-1.342196 
10 1:33.660856 2:0.04372 3:-1.277676 
10 1:34.37038 2:0.425718 3:-1.138148 
10 1:34.380849 2:0.599011 3:-1.010783 
-10 1:34.379195 2:0.798884 3:-0.653439 
-10 1:34.375686 2:0.882644 3:-0.460528 
-10 1:34.375717 2:0.990712 3:-0.281497 
-10 1:34.380605 2:1.129897 3:-0.125241 
-10 1:34.39008 2:1.296389 3:0.006066 
-10 1:34.399737 2:1.462834 3:0.13451 
10 1:34.383375 2:1.65616 3:0.706429 
10 1:34.363348 2:1.589576 3:0.902823 
10 1:34.338215 2:1.460047 3:1.072929 
-10 1:34.255785 2:0.844303 3:1.313719 
-10 1:34.23738 2:0.637603 3:1.252516 
-10 1:34.227037 2:0.460809 3:1.117406 
