svm_type epsilon_svr
kernel_type rbf
gamma 0.1
nr_class 2
total_sv 2169
rho 6.3325
SV
10 1:0.625408 2:-0.840874 3:-0.766388 
10 1:0.637304 2:-0.671231 3:-0.854331 
10 1:0.653872 2:-0.482629 3:-0.890852 
-10 1:0.672508 2:-0.286207 3:-0.903596 
-10 1:0.690606 2:-0.093103 3:-0.920207 
-10 1:0.705561 2:0.085541 3:-0.96833 
-10 1:0.715554 2:0.242255 3:-1.067821 
1.601572282590493 1:0.72404 2:0.39418 3:-1.186281 
10 1:0.736302 2:0.566408 3:-1.27216 
10 1:0.75341 2:0.757254 3:-1.302852 
10 1:0.773589 2:0.947064 3:-1.2754 
10 1:0.79515 2:1.120686 3:-1.193443 
10 1:0.81661 2:1.27028 3:-1.070032 
10 1:0.836529 2:1.388832 3:-0.918856 
10 1:0.854289 2:1.47542 3:-0.749626 
6.589406284210672 1:0.870166 2:1.535825 3:-0.567676 
-10 1:0.909738 2:1.621038 3:0.003632 
-10 1:0.921231 2:1.634232 3:0.190397 
-10 1:0.932219 2:1.642221 3:0.377294 
10 1:0.963391 2:1.631958 3:0.966855 
10 1:0.970939 2:1.601134 3:1.160695 
10 1:0.973537 2:1.535046 3:1.327445 
10 1:0.969239 2:1.422082 3:1.45238 
9.365437581933485 1:0.958777 2:1.26764 3:1.539184 
-10 1:0.943751 2:1.082623 3:1.597497 
-10 1:0.925761 2:0.877938 3:1.636963 
-10 1:0.906406 2:0.664492 3:1.667225 
-10 1:0.887241 2:0.453002 3:1.697452 
-10 1:0.868806 2:0.249875 3:1.72597 
-2.061133388285003 1:0.850628 2:0.057218 3:1.740296 
10 1:0.832187 2:-0.123045 3:1.727478 
10 1:0.812967 2:-0.289 3:1.674597 
10 1:0.792726 2:-0.440142 3:1.576296 
-10 1:0.678856 2:-1.07483 3:0.634563 
-10 1:0.666309 2:-1.097219 3:0.445086 
-10 1:0.641258 2:-0.960089 3:-0.261089 
-10 1:0.645588 2:-0.82963 3:-0.416971 
10 1:1.191005 2:-0.763704 3:-0.767556 
-10 1:1.198833 2:-0.536796 3:-0.636537 
-10 1:1.19457 2:-0.351294 3:-0.636091 
-10 1:1.182756 2:-0.190775 3:-0.716992 
-10 1:1.16793 2:-0.038815 3:-0.83001 
-10 1:1.154631 2:0.121009 3:-0.925919 
-10 1:1.146053 2:0.300435 3:-0.970058 
-10 1:1.139733 2:0.491551 3:-0.988884 
-10 1:1.132715 2:0.683286 3:-1.014547 
-10 1:1.126072 2:0.872713 3:-1.03701 
-10 1:1.121901 2:1.058984 3:-1.035466 
10 1:1.128152 2:1.409322 3:-0.891552 
10 1:1.138615 2:1.539951 3:-0.75655 
10 1:1.152673 2:1.613464 3:-0.598844 
10 1:1.169576 2:1.636421 3:-0.424417 
10 1:1.18865 2:1.623325 3:-0.23665 
-10 1:1.20922 2:1.588684 3:-0.038923 
-10 1:1.230611 2:1.547006 3:0.165383 
-10 1:1.252155 2:1.512488 3:0.372876 
-10 1:1.273373 2:1.489096 3:0.5797 
-10 1:1.29402 2:1.468435 3:0.781447 
-10 1:1.313865 2:1.441371 3:0.973672 
10 1:1.350215 2:1.331494 3:1.311788 
10 1:1.366258 2:1.230414 3:1.448792 
10 1:1.380595 2:1.090409 3:1.559696 
10 1:1.393114 2:0.920585 3:1.645477 
10 1:1.403719 2:0.733188 3:1.708044 
10 1:1.412319 2:0.540442 3:1.749303 
10 1:1.418863 2:0.350517 3:1.770646 
10 1:1.423388 2:0.163123 3:1.772382 
10 1:1.425943 2:-0.023089 3:1.754688 
10 1:1.426577 2:-0.209465 3:1.71774 
10 1:1.425338 2:-0.397323 3:1.661711 
10 1:1.422174 2:-0.584458 3:1.586593 
10 1:1.416845 2:-0.762028 3:1.492032 
10 1:1.409087 2:-0.920455 3:1.377635 
10 1:1.398641 2:-1.050161 3:1.243009 
10 1:1.385244 2:-1.141566 3:1.087761 
10 1:1.368872 2:-1.189345 3:0.912881 
10 1:1.35044 2:-1.205072 3:0.724841 
10 1:1.274803 2:-1.205824 3:-0.031973 
10 1:1.255656 2:-1.196203 3:-0.221269 
10 1:1.236106 2:-1.165746 3:-0.409764 
10 1:1.21769 2:-1.096199 3:-0.577839 
10 1:1.202094 2:-0.968529 3:-0.7042 
10 1:1.731817 2:-0.966698 3:-0.572036 
10 1:1.757215 2:-0.789456 3:-0.607302 
-5.541966704018575 1:1.814622 2:-0.43287 3:-0.718336 
-10 1:1.846437 2:-0.269137 3:-0.80397 
10 1:1.915624 2:-0.006984 3:-1.056983 
10 1:1.950767 2:0.108314 3:-1.198207 
10 1:1.982863 2:0.25434 3:-1.298218 
10 1:2.01047 2:0.433915 3:-1.345857 
10 1:2.033019 2:0.629294 3:-1.350125 
10 1:2.049256 2:0.822046 3:-1.316171 
-10 1:2.051784 2:1.12343 3:-1.117877 
-10 1:2.035938 2:1.210329 3:-0.955424 
-10 1:2.014872 2:1.274671 3:-0.775858 
-10 1:1.993037 2:1.332073 3:-0.596337 
-10 1:1.970547 2:1.381894 3:-0.418052 
-10 1:1.946927 2:1.421269 3:-0.240014 
-10 1:1.921699 2:1.447333 3:-0.061232 
-10 1:1.894497 2:1.458041 3:0.119164 
-10 1:1.865682 2:1.456723 3:0.301253 
-10 1:1.835908 2:1.44888 3:0.484798 
-10 1:1.805828 2:1.440018 3:0.669559 
10 1:1.775967 2:1.43413 3:0.85504 
10 1:1.745454 2:1.418824 3:1.037969 
10 1:1.712565 2:1.371714 3:1.213373 
10 1:1.676829 2:1.279182 3:1.374549 
10 1:1.640943 2:1.149872 3:1.510527 
10 1:1.608084 2:0.995846 3:1.609694 
10 1:1.580338 2:0.826954 3:1.66581 
10 1:1.556724 2:0.646845 3:1.687709 
-10 1:1.515826 2:0.26327 3:1.674678 
-10 1:1.495967 2:0.065678 3:1.660288 
-10 1:1.478254 2:-0.126296 3:1.636262 
-10 1:1.466141 2:-0.302106 3:1.588167 
-10 1:1.46307 2:-0.45124 3:1.501602 
-10 1:1.470138 2:-0.570711 3:1.371738 
-10 1:1.48344 2:-0.673542 3:1.214114 
-10 1:1.498429 2:-0.774809 3:1.04688 
-10 1:1.511356 2:-0.88626 3:0.885502 
-10 1:1.522997 2:-1.000704 3:0.730169 
-10 1:1.535726 2:-1.104255 3:0.575668 
-10 1:1.551921 2:-1.183017 3:0.416782 
10 1:1.631213 2:-1.242051 3:-0.128856 
10 1:1.66256 2:-1.200875 3:-0.29868 
10 1:1.696657 2:-1.049591 3:-0.407666 
-10 1:2.376162 2:-0.92362 3:-0.30619 
-10 1:2.37786 2:-0.761008 3:-0.389163 
-10 1:2.371675 2:-0.570457 3:-0.439591 
-10 1:2.363182 2:-0.370877 3:-0.480876 
-10 1:2.357958 2:-0.181176 3:-0.536418 
-10 1:2.361574 2:-0.020255 3:-0.629608 
-10 1:2.376493 2:0.103729 3:-0.770869 
-10 1:2.396015 2:0.214264 3:-0.932418 
10 1:2.425796 2:0.472503 3:-1.219232 
10 1:2.442151 2:0.592195 3:-1.366781 
10 1:2.46027 2:0.705114 3:-1.521371 
10 1:2.467947 2:0.865791 3:-1.637699 
10 1:2.455262 2:1.044873 3:-1.645752 
10 1:2.422467 2:1.179883 3:-1.518827 
10 1:2.380994 2:1.277431 3:-1.325344 
-10 1:2.304412 2:1.400653 3:-0.942436 
-10 1:2.269823 2:1.437514 3:-0.761027 
-10 1:2.236448 2:1.464405 3:-0.582077 
-10 1:2.203346 2:1.486226 3:-0.402406 
-10 1:2.169783 2:1.506319 3:-0.219317 
-9.854186002891403 1:2.135919 2:1.52129 3:-0.032196 
10 1:2.037004 2:1.482869 3:0.551375 
10 1:2.009345 2:1.422042 3:0.737112 
-10 1:1.979581 2:1.184915 3:1.014322 
-10 1:1.978747 2:1.011829 3:1.097068 
-10 1:1.984075 2:0.818598 3:1.153607 
-10 1:1.992825 2:0.618557 3:1.193626 
-10 1:2.001961 2:0.424032 3:1.228955 
-10 1:2.006927 2:0.24214 3:1.282459 
-10 1:2.003839 2:0.076386 3:1.374802 
-10 1:1.99746 2:-0.084217 3:1.483667 
-10 1:1.996386 2:-0.256972 3:1.567635 
10 1:2.022986 2:-0.643978 3:1.589686 
10 1:2.048051 2:-0.833606 3:1.531618 
10 1:2.07862 2:-0.996533 3:1.430008 
10 1:2.112631 2:-1.108588 3:1.285784 
-10 1:2.184542 2:-1.19311 3:0.912182 
-10 1:2.219706 2:-1.200513 3:0.714213 
-10 1:2.253194 2:-1.205298 3:0.524655 
-10 1:2.286437 2:-1.212636 3:0.337657 
-10 1:2.321157 2:-1.225084 3:0.144499 
-10 1:2.351661 2:-1.20077 3:-0.041083 
-10 1:2.367034 2:-1.074195 3:-0.186106 
10 1:2.68998 2:0.019847 3:-0.971707 
-10 1:2.670243 2:0.427944 3:-1.028149 
-10 1:2.65982 2:0.611042 3:-1.079197 
-10 1:2.648916 2:0.796077 3:-1.136861 
-10 1:2.637449 2:0.994975 3:-1.194686 
-8.635921499934286 1:2.625463 2:1.217738 3:-1.245383 
10 1:2.615141 2:1.442199 3:-1.26767 
10 1:2.610432 2:1.619604 3:-1.228697 
10 1:2.6146 2:1.70887 3:-1.101828 
10 1:2.626035 2:1.724857 3:-0.903746 
10 1:2.641151 2:1.705099 3:-0.668693 
10 1:2.656381 2:1.686859 3:-0.430761 
10 1:2.669826 2:1.685375 3:-0.211152 
10 1:2.682245 2:1.680701 3:-0.010464 
10 1:2.694637 2:1.649737 3:0.172551 
10 1:2.707925 2:1.571666 3:0.339417 
10 1:2.722223 2:1.450629 3:0.494697 
10 1:2.737144 2:1.306137 3:0.644828 
10 1:2.796582 2:0.788725 3:1.281002 
10 1:2.811168 2:0.645577 3:1.426521 
10 1:2.825105 2:0.476771 3:1.544568 
10 1:2.837303 2:0.289724 3:1.622146 
10 1:2.846912 2:0.091641 3:1.650023 
10 1:2.854196 2:-0.111817 3:1.636222 
-10 1:2.864107 2:-0.513983 3:1.535339 
-10 1:2.867698 2:-0.704896 3:1.469176 
-10 1:2.87047 2:-0.891236 3:1.392576 
-10 1:2.87231 2:-1.076396 3:1.301441 
10 1:2.861391 2:-1.472622 3:0.862699 
0.5987781971146847 1:2.826024 2:-1.509328 3:0.258411 
10 1:2.812712 2:-1.476506 3:0.061514 
10 1:2.79835 2:-1.421835 3:-0.138296 
10 1:2.782817 2:-1.344028 3:-0.342162 
10 1:2.769237 2:-1.217311 3:-0.481946 
10 1:2.761154 2:-1.020967 3:-0.485909 
-10 1:2.749095 2:-0.606689 3:-0.412329 
-10 1:2.743792 2:-0.399526 3:-0.36361 
-10 1:2.735211 2:-0.225681 3:-0.390496 
-10 1:2.720517 2:-0.1221 3:-0.563708 
-10 1:2.703888 2:-0.053625 3:-0.791672 
10 1:3.195533 2:0.127679 3:-0.969619 
-10 1:3.208346 2:0.532797 3:-1.010188 
-10 1:3.213426 2:0.720091 3:-1.042734 
-10 1:3.218569 2:0.911295 3:-1.076683 
-10 1:3.224482 2:1.116975 3:-1.106957 
-10 1:3.231853 2:1.342465 3:-1.125623 
10 1:3.252701 2:1.657399 3:-0.979104 
10 1:3.265988 2:1.681655 3:-0.776783 
10 1:3.279836 2:1.673459 3:-0.545243 
10 1:3.293221 2:1.672108 3:-0.325493 
10 1:3.305577 2:1.668874 3:-0.121425 
10 1:3.316408 2:1.647384 3:0.068982 
10 1:3.32522 2:1.591264 3:0.247745 
10 1:3.331611 2:1.489479 3:0.415106 
10 1:3.335487 2:1.348778 3:0.565378 
-10 1:3.335585 2:0.992424 3:0.786984 
-10 1:3.332323 2:0.79916 3:0.852963 
-10 1:3.330169 2:0.618431 3:0.92932 
-10 1:3.331336 2:0.461148 3:1.045509 
-10 1:3.334788 2:0.319348 3:1.189505 
-10 1:3.339109 2:0.182869 3:1.344449 
-10 1:3.342887 2:0.041548 3:1.493483 
10 1:3.343891 2:-0.290215 3:1.714728 
10 1:3.340368 2:-0.483923 3:1.776709 
10 1:3.334194 2:-0.693996 3:1.805437 
10 1:3.325517 2:-0.914151 3:1.799457 
10 1:3.31479 2:-1.125951 3:1.754782 
10 1:3.302515 2:-1.308956 3:1.667008 
10 1:3.289193 2:-1.442739 3:1.531739 
10 1:3.275374 2:-1.515851 3:1.350868 
10 1:3.261732 2:-1.542204 3:1.144039 
10 1:3.248954 2:-1.539956 3:0.93366 
-10 1:3.216204 2:-1.450966 3:0.343109 
-10 1:3.206147 2:-1.406294 3:0.151047 
10 1:3.186243 2:-1.289153 3:-0.246796 
10 1:3.183376 2:-1.162524 3:-0.371863 
10 1:3.188505 2:-0.969693 3:-0.407034 
-10 1:3.197426 2:-0.746377 3:-0.399008 
-10 1:3.205819 2:-0.529038 3:-0.395938 
-10 1:3.211452 2:-0.332578 3:-0.425111 
-10 1:3.214514 2:-0.145809 3:-0.490344 
-10 1:3.213913 2:0.032437 3:-0.61022 
-10 1:3.208083 2:0.151245 3:-0.778923 
10 1:3.584754 2:-0.678064 3:-0.54136 
-10 1:3.612897 2:-0.45245 3:-0.52543 
-10 1:3.616925 2:-0.294072 3:-0.610463 
10 1:3.606113 2:-0.176665 3:-0.757909 
10 1:3.589735 2:-0.073963 3:-0.929219 
10 1:3.577067 2:0.0403 3:-1.085845 
10 1:3.576884 2:0.190976 3:-1.191308 
10 1:3.589064 2:0.377704 3:-1.246099 
10 1:3.606041 2:0.57855 3:-1.281321 
10 1:3.625578 2:0.775122 3:-1.297925 
-10 1:3.651226 2:0.953463 3:-1.264521 
-10 1:3.684784 2:1.108394 3:-1.166516 
-10 1:3.72297 2:1.256295 3:-1.035326 
-10 1:3.761833 2:1.409182 3:-0.90345 
-10 1:3.798242 2:1.524166 3:-0.760341 
-10 1:3.830077 2:1.549542 3:-0.583156 
-10 1:3.858838 2:1.516579 3:-0.384382 
-10 1:3.886925 2:1.478319 3:-0.186058 
-10 1:3.914606 2:1.445222 3:0.006199 
5.964601156671702 1:3.989538 2:1.315538 3:0.554412 
10 1:4.009888 2:1.241863 3:0.729924 
10 1:4.02648 2:1.146023 3:0.897792 
10 1:4.037974 2:1.027374 3:1.050275 
-10 1:4.020979 2:0.19324 3:1.523928 
-10 1:4.002799 2:0.004145 3:1.543656 
-10 1:3.979906 2:-0.185919 3:1.535225 
-10 1:3.955426 2:-0.377839 3:1.518368 
-10 1:3.932434 2:-0.572418 3:1.512455 
-10 1:3.908568 2:-0.763714 3:1.49892 
-10 1:3.876949 2:-0.939182 3:1.426998 
-10 1:3.838561 2:-1.083445 3:1.292052 
-10 1:3.799873 2:-1.179376 3:1.121804 
-10 1:3.766169 2:-1.216072 3:0.941029 
-10 1:3.73541 2:-1.218142 3:0.754291 
-10 1:3.702977 2:-1.222699 3:0.559036 
-10 1:3.664622 2:-1.264249 3:0.353168 
-10 1:3.621427 2:-1.339891 3:0.141296 
4.812469787764174 1:3.578446 2:-1.418841 3:-0.066974 
10 1:3.540828 2:-1.46965 3:-0.26192 
10 1:3.513724 2:-1.460866 3:-0.433818 
10 1:3.502284 2:-1.36105 3:-0.572926 
10 1:3.517251 2:-1.187584 3:-0.601485 
10 1:3.554714 2:-1.00964 3:-0.495522 
10 1:4.351997 2:-0.185419 3:-0.802207 
5.416937722448114 1:4.366002 2:0.181358 3:-0.931072 
10 1:4.389857 2:0.338876 3:-1.12828 
10 1:4.412297 2:0.49688 3:-1.314255 
10 1:4.423833 2:0.668671 3:-1.414182 
10 1:4.418779 2:0.865316 3:-1.383376 
10 1:4.415033 2:1.082488 3:-1.363955 
-1.567429909147126 1:4.363518 2:1.492461 3:-0.97388 
10 1:4.284739 2:1.632458 3:-0.354127 
10 1:4.259915 2:1.605703 3:-0.155461 
-10 1:4.215869 2:1.395941 3:0.204794 
-10 1:4.204858 2:1.221492 3:0.300678 
-10 1:4.200802 2:1.015707 3:0.342748 
-10 1:4.200188 2:0.793391 3:0.358239 
-10 1:4.198463 2:0.57756 3:0.382255 
-10 1:4.183643 2:0.453322 3:0.506026 
-10 1:4.156408 2:0.425709 3:0.72391 
-10 1:4.124335 2:0.452627 3:0.977659 
-10 1:4.093835 2:0.49372 3:1.218231 
10 1:4.042691 2:0.488589 3:1.625155 
10 1:4.022831 2:0.381127 3:1.788211 
10 1:4.009927 2:0.203851 3:1.899278 
10 1:4.006758 2:0.00037 3:1.934186 
10 1:4.010903 2:-0.21507 3:1.911502 
10 1:4.019553 2:-0.430617 3:1.853003 
10 1:4.030089 2:-0.634659 3:1.778961 
10 1:4.042916 2:-0.819388 3:1.685776 
10 1:4.060449 2:-0.980041 3:1.554025 
-10 1:4.13327 2:-1.270713 3:0.988839 
-10 1:4.159446 2:-1.291094 3:0.781664 
-10 1:4.185508 2:-1.288737 3:0.574317 
-10 1:4.21177 2:-1.288034 3:0.365458 
-10 1:4.238109 2:-1.295526 3:0.156369 
10 1:4.28936 2:-1.280225 3:-0.251898 
10 1:4.315619 2:-1.236889 3:-0.462766 
10 1:4.320445 2:-1.041424 3:-0.510466 
-10 1:4.304928 2:-0.641407 3:-0.406169 
-10 1:4.31167 2:-0.431314 3:-0.469802 
-10 1:4.328125 2:-0.262655 3:-0.608697 
10 1:4.810993 2:-0.474142 3:-0.702642 
-10 1:4.802293 2:-0.24924 3:-0.648785 
-10 1:4.799918 2:-0.057305 3:-0.672553 
-10 1:4.802076 2:0.111232 3:-0.752044 
-10 1:4.806978 2:0.265939 3:-0.865354 
-10 1:4.743564 2:1.488629 3:-0.349915 
-10 1:4.731763 2:1.422625 3:-0.16747 
-10 1:4.71966 2:1.363216 3:0.017195 
-10 1:4.706083 2:1.326805 3:0.215457 
-10 1:4.691611 2:1.304856 3:0.421799 
-10 1:4.677275 2:1.282483 3:0.626406 
-10 1:4.641114 2:0.904021 3:1.237398 
-10 1:4.639393 2:0.718216 3:1.315944 
-10 1:4.63911 2:0.529138 3:1.37559 
-10 1:4.640173 2:0.340815 3:1.416422 
-10 1:4.642257 2:0.149073 3:1.444158 
-10 1:4.642622 2:-0.040488 3:1.495001 
-10 1:4.639945 2:-0.223 3:1.585771 
-10 1:4.637955 2:-0.40038 3:1.665544 
0.1583531429204149 1:4.720496 2:-1.354933 3:0.8069 
10 1:4.734866 2:-1.428466 3:0.630101 
10 1:4.749526 2:-1.486257 3:0.444657 
10 1:4.764386 2:-1.525333 3:0.250936 
10 1:4.779356 2:-1.542724 3:0.049305 
10 1:4.793939 2:-1.531981 3:-0.155271 
10 1:4.80629 2:-1.47515 3:-0.342615 
10 1:4.814313 2:-1.352666 3:-0.489526 
10 1:4.81686 2:-1.173795 3:-0.57744 
10 1:4.814011 2:-0.981255 3:-0.594844 
10 1:4.806909 2:-0.771366 3:-0.558621 
-10 1:5.258212 2:-0.46439 3:-0.637926 
-10 1:5.288431 2:-0.158797 3:-0.494517 
-10 1:5.324509 2:0.056152 3:-0.508648 
-10 1:5.364539 2:0.204036 3:-0.636359 
-10 1:5.406612 2:0.308436 3:-0.833692 
10 1:5.489256 2:0.481105 3:-1.26138 
10 1:5.526011 2:0.596533 3:-1.403817 
10 1:5.557206 2:0.758865 3:-1.445123 
10 1:5.581229 2:0.951671 3:-1.393101 
10 1:5.59661 2:1.139128 3:-1.280645 
10 1:5.602156 2:1.288561 3:-1.138896 
10 1:5.599142 2:1.397333 3:-0.981023 
10 1:5.590099 2:1.47838 3:-0.810646 
10 1:5.576522 2:1.53887 3:-0.630512 
10 1:5.558986 2:1.580756 3:-0.442672 
10 1:5.538037 2:1.605814 3:-0.249154 
10 1:5.514218 2:1.615819 3:-0.051986 
10 1:5.488074 2:1.612546 3:0.146804 
10 1:5.460149 2:1.597769 3:0.345188 
10 1:5.430983 2:1.573233 3:0.541136 
10 1:5.400698 2:1.537927 3:0.732446 
10 1:5.368672 2:1.485915 3:0.916606 
10 1:5.334206 2:1.410754 3:1.091075 
10 1:5.29674 2:1.306683 3:1.253065 
10 1:5.257203 2:1.175183 3:1.397216 
10 1:5.217413 2:1.022085 3:1.516623 
10 1:5.179202 2:0.853281 3:1.604356 
10 1:5.144014 2:0.674111 3:1.655817 
-10 1:5.079534 2:0.293329 3:1.685252 
-10 1:5.047625 2:0.094582 3:1.687069 
-10 1:5.014918 2:-0.106931 3:1.691658 
-10 1:4.983453 2:-0.305655 3:1.690054 
-2.651752675972848 1:5.065628 2:-1.218502 3:-0.076222 
-10 1:5.105737 2:-1.049164 3:-0.178017 
-10 1:5.142948 2:-0.86735 3:-0.241912 
-10 1:5.180992 2:-0.730308 3:-0.367622 
-10 1:5.219848 2:-0.580054 3:-0.483298 
-10 1:5.641723 2:0.005284 3:-0.897411 
-10 1:5.608598 2:0.200362 3:-0.910964 
-10 1:5.574533 2:0.386067 3:-0.94502 
-10 1:5.538419 2:0.556186 3:-1.017214 
-10 1:5.499973 2:0.735843 3:-1.096027 
10 1:5.395329 2:1.500046 3:-0.939272 
10 1:5.406919 2:1.555337 3:-0.76786 
10 1:5.431723 2:1.551376 3:-0.565993 
-10 1:5.514112 2:1.473346 3:0.017017 
-10 1:5.539699 2:1.453167 3:0.203549 
-3.262636561017159 1:5.56442 2:1.441418 3:0.394218 
10 1:5.613891 2:1.425899 3:0.786558 
10 1:5.640937 2:1.401036 3:0.978957 
10 1:5.671086 2:1.35031 3:1.162387 
10 1:5.705478 2:1.263038 3:1.331965 
10 1:5.743585 2:1.137296 3:1.480676 
10 1:5.782401 2:0.984148 3:1.598344 
10 1:5.81883 2:0.815442 3:1.675073 
10 1:5.852161 2:0.637113 3:1.712942 
10 1:5.884029 2:0.449291 3:1.725789 
10 1:5.986729 2:-0.169041 3:1.749576 
10 1:6.021382 2:-0.376863 3:1.758708 
10 1:6.049455 2:-0.564478 3:1.740124 
10 1:6.066128 2:-0.717613 3:1.672821 
10 1:6.068429 2:-0.827967 3:1.543174 
-10 1:6.050409 2:-0.991782 3:1.171643 
-10 1:6.042921 2:-1.089008 3:0.977924 
-10 1:6.039372 2:-1.20221 3:0.795565 
10 1:6.030349 2:-1.400177 3:0.453115 
10 1:6.017829 2:-1.446043 3:0.286645 
10 1:5.99551 2:-1.43198 3:0.119169 
-10 1:5.817496 2:-0.830978 3:-0.557172 
-10 1:5.781931 2:-0.647004 3:-0.606091 
-10 1:6.407422 2:-0.676559 3:-0.758265 
-10 1:6.379998 2:-0.449585 3:-0.673656 
-10 1:6.367068 2:-0.260132 3:-0.669645 
-10 1:6.364852 2:-0.097004 3:-0.725819 
-10 1:6.369567 2:0.050994 3:-0.821766 
-10 1:6.377435 2:0.195056 3:-0.937075 
-10 1:6.384672 2:0.346378 3:-1.051333 
8.231923276311374 1:6.353421 2:1.073541 3:-1.158826 
10 1:6.327364 2:1.226055 3:-1.050954 
10 1:6.297776 2:1.339468 3:-0.902453 
3.252375254694789 1:6.267535 2:1.40926 3:-0.730599 
-10 1:6.182445 2:1.447072 3:-0.178039 
-10 1:6.156706 2:1.426825 3:0.002891 
-10 1:6.131555 2:1.397919 3:0.183664 
-10 1:6.106467 2:1.36466 3:0.36591 
-10 1:6.080917 2:1.33135 3:0.551261 
-10 1:6.054385 2:1.302284 3:0.741341 
4.184240456830074 1:6.001994 2:1.238355 3:1.119514 
10 1:5.981669 2:1.170985 3:1.284751 
10 1:5.968803 2:1.059287 3:1.419399 
10 1:5.962965 2:0.907455 3:1.524519 
10 1:5.962309 2:0.728714 3:1.606698 
4.812115468061043 1:5.969973 2:0.340237 3:1.724525 
10 1:5.977635 2:0.144873 3:1.758312 
10 1:5.9885 2:-0.045999 3:1.768727 
10 1:6.003089 2:-0.228589 3:1.750631 
10 1:6.021926 2:-0.399109 3:1.698883 
-8.409116521571638 1:6.072556 2:-0.694014 3:1.488658 
-10 1:6.101979 2:-0.820377 3:1.346892 
-10 1:6.13216 2:-0.935131 3:1.19501 
-10 1:6.162133 2:-1.039397 3:1.03995 
-10 1:6.19196 2:-1.132889 3:0.881181 
-10 1:6.22182 2:-1.21516 3:0.717306 
-10 1:6.251894 2:-1.285762 3:0.546927 
-10 1:6.282165 2:-1.342733 3:0.369292 
8.167694441602663 1:6.365942 2:-1.349754 3:-0.187887 
9.893436613360132 1:6.38595 2:-1.265384 3:-0.358404 
-10 1:6.389046 2:-0.930049 3:-0.525055 
-10 1:6.389191 2:-0.762628 3:-0.598889 
-10 1:6.845441 2:-1.119882 3:-0.261481 
-10 1:6.815415 2:-1.092435 3:-0.476226 
10 1:6.784705 2:-1.029686 3:-0.664155 
10 1:6.753777 2:-0.936173 3:-0.825711 
10 1:6.723093 2:-0.816436 3:-0.961335 
10 1:6.693119 2:-0.675015 3:-1.071469 
10 1:6.664318 2:-0.516447 3:-1.156555 
10 1:6.637155 2:-0.345273 3:-1.217033 
10 1:6.612093 2:-0.166031 3:-1.253347 
10 1:6.589598 2:0.01674 3:-1.265938 
10 1:6.570133 2:0.1985 3:-1.255248 
10 1:6.554163 2:0.374709 3:-1.221718 
-10 1:6.533259 2:0.699094 3:-1.092129 
-10 1:6.524029 2:0.865322 3:-1.013881 
-10 1:6.511923 2:1.050282 3:-0.941488 
-10 1:6.500146 2:1.233576 3:-0.867985 
10 1:6.49351 2:1.386106 3:-0.781541 
10 1:6.496816 2:1.47884 3:-0.670353 
10 1:6.512498 2:1.497424 3:-0.5281 
-10 1:6.568635 2:1.391759 3:-0.176298 
-10 1:6.601814 2:1.314132 3:0.017758 
-10 1:6.633648 2:1.250298 3:0.213675 
-10 1:6.662738 2:1.206154 3:0.405686 
-10 1:6.689775 2:1.171394 3:0.589869 
-10 1:6.715533 2:1.135039 3:0.762376 
-10 1:6.740787 2:1.086111 3:0.919362 
-10 1:6.766311 2:1.013631 3:1.056981 
-10 1:6.792757 2:0.908403 3:1.172024 
-10 1:6.82 2:0.7724 3:1.26529 
-10 1:6.847613 2:0.611908 3:1.339124 
-10 1:6.875169 2:0.433222 3:1.395875 
-10 1:6.902242 2:0.242638 3:1.43789 
-10 1:6.928406 2:0.046452 3:1.467519 
-10 1:6.953216 2:-0.149249 3:1.486778 
-10 1:6.976031 2:-0.340707 3:1.493985 
-10 1:6.996089 2:-0.525625 3:1.485138 
-10 1:7.012622 2:-0.701728 3:1.456201 
10 1:7.029614 2:-1.27113 3:1.07136 
10 1:7.020525 2:-1.365703 3:0.912301 
10 1:7.006696 2:-1.434589 3:0.738866 
10 1:6.988507 2:-1.474418 3:0.557165 
10 1:6.966338 2:-1.481825 3:0.373307 
-10 1:6.879738 2:-1.275837 3:-0.1301 
10 1:7.164535 2:-1.045138 3:-0.862685 
10 1:7.192791 2:-0.85676 3:-0.884618 
10 1:7.217025 2:-0.669637 3:-0.853474 
-10 1:7.240573 2:-0.483694 3:-0.815164 
-10 1:7.266684 2:-0.298833 3:-0.81435 
-10 1:7.295971 2:-0.114168 3:-0.857779 
-10 1:7.326033 2:0.07122 3:-0.91048 
-10 1:7.354391 2:0.255871 3:-0.941108 
-10 1:7.378716 2:0.438007 3:-0.920971 
-10 1:7.399948 2:0.618447 3:-0.86145 
-10 1:7.422112 2:0.800433 3:-0.81176 
-10 1:7.445169 2:0.983719 3:-0.771866 
-10 1:7.466183 2:1.165095 3:-0.707509 
-10 1:7.481538 2:1.327807 3:-0.601494 
-10 1:7.486988 2:1.440759 3:-0.455981 
10 1:7.462316 2:1.565064 3:0.127563 
10 1:7.451148 2:1.592817 3:0.335981 
10 1:7.438091 2:1.604376 3:0.53883 
10 1:7.422251 2:1.589876 3:0.729161 
10 1:7.402737 2:1.539454 3:0.900025 
10 1:7.378655 2:1.443249 3:1.04447 
10 1:7.349947 2:1.298207 3:1.157331 
10 1:7.319159 2:1.122504 3:1.238996 
-10 1:7.260802 2:0.75202 3:1.320588 
-10 1:7.233295 2:0.565917 3:1.336618 
-10 1:7.20591 2:0.378871 3:1.349128 
-10 1:7.178012 2:0.191595 3:1.36827 
-10 1:7.149251 2:0.007286 3:1.405132 
-10 1:7.119317 2:-0.170492 3:1.470938 
-10 1:7.088239 2:-0.339628 3:1.569441 
10 1:7.057829 2:-0.505742 3:1.664618 
10 1:7.030494 2:-0.677003 3:1.707295 
10 1:7.008224 2:-0.855241 3:1.666403 
10 1:6.991913 2:-1.025464 3:1.558904 
10 1:6.982275 2:-1.169924 3:1.409632 
10 1:6.979978 2:-1.271462 3:1.242905 
10 1:6.984597 2:-1.326875 3:1.070846 
-10 1:7.008396 2:-1.343838 3:0.70913 
-10 1:7.02441 2:-1.328595 3:0.517842 
-10 1:7.041055 2:-1.313008 3:0.318512 
-10 1:7.056747 2:-1.30868 3:0.110325 
-10 1:7.070041 2:-1.325963 3:-0.10697 
10 1:7.081712 2:-1.35476 3:-0.324383 
10 1:7.094354 2:-1.368317 3:-0.525397 
10 1:7.110608 2:-1.339393 3:-0.693276 
10 1:7.133121 2:-1.240747 3:-0.811284 
10 1:7.637771 2:0.021146 3:-1.083635 
10 1:7.611783 2:0.201329 3:-1.13713 
10 1:7.58772 2:0.39237 3:-1.159402 
10 1:7.563202 2:0.580437 3:-1.189503 
10 1:7.536449 2:0.755924 3:-1.255833 
10 1:7.509129 2:0.933639 3:-1.325255 
10 1:7.484473 2:1.134034 3:-1.342839 
10 1:7.474683 2:1.292424 3:-1.261041 
10 1:7.488198 2:1.336503 3:-1.078033 
10 1:7.507589 2:1.355969 3:-0.864756 
-10 1:7.580659 2:1.530389 3:0.052743 
-10 1:7.604465 2:1.506291 3:0.260515 
-10 1:7.628597 2:1.485565 3:0.475293 
-10 1:7.653433 2:1.441708 3:0.670972 
-10 1:7.67943 2:1.346996 3:0.82083 
-10 1:7.706929 2:1.18372 3:0.908277 
-10 1:7.734911 2:1.048018 3:1.031544 
-10 1:7.76305 2:0.955104 3:1.204566 
-10 1:7.79176 2:0.847651 3:1.366839 
10 1:7.927122 2:-0.048931 3:1.692689 
10 1:7.951995 2:-0.234829 3:1.728745 
10 1:7.976809 2:-0.422741 3:1.761944 
10 1:7.999706 2:-0.617517 3:1.768502 
10 1:8.018244 2:-0.813609 3:1.730568 
10 1:8.028771 2:-0.983877 3:1.642664 
10 1:8.028209 2:-1.10292 3:1.503027 
-0.8617886399234309 1:8.01827 2:-1.174569 3:1.324253 
-10 1:8.002611 2:-1.214505 3:1.124752 
-10 1:7.984893 2:-1.238442 3:0.922953 
-10 1:7.96771 2:-1.258249 3:0.731077 
-10 1:7.950235 2:-1.273484 3:0.541486 
-10 1:7.931015 2:-1.277102 3:0.34775 
-10 1:7.908741 2:-1.250005 3:0.158475 
-10 1:7.883025 2:-1.182803 3:-0.019599 
-10 1:7.858206 2:-1.128928 3:-0.203818 
-10 1:7.832519 2:-1.058493 3:-0.377963 
-10 1:7.775276 2:-0.774002 3:-0.62239 
-10 1:7.751482 2:-0.580282 3:-0.638977 
-10 1:7.726115 2:-0.39785 3:-0.683812 
-10 1:7.696315 2:-0.253539 3:-0.815325 
10 1:8.333405 2:0.077647 3:-0.968793 
8.405070751224354 1:8.21864 2:1.233536 3:-1.009219 
10 1:8.192016 2:1.397138 3:-0.904878 
10 1:8.165191 2:1.518584 3:-0.752554 
-10 1:8.08015 2:1.648182 3:0.008159 
-10 1:8.061603 2:1.644625 3:0.208685 
10 1:8.011321 2:1.598184 3:0.792335 
10 1:8.001116 2:1.530205 3:0.974478 
10 1:7.995514 2:1.428148 3:1.144879 
10 1:7.994442 2:1.297428 3:1.298438 
10 1:7.997822 2:1.143478 3:1.430053 
10 1:8.005573 2:0.971729 3:1.534678 
10 1:8.01745 2:0.787396 3:1.609254 
10 1:8.033004 2:0.595438 3:1.653125 
10 1:8.051778 2:0.400797 3:1.665778 
-10 1:8.095953 2:0.014854 3:1.617191 
-10 1:8.118921 2:-0.177168 3:1.582525 
-10 1:8.140837 2:-0.369549 3:1.559415 
-10 1:8.161821 2:-0.563049 3:1.547391 
-10 1:8.183387 2:-0.758443 3:1.531258 
-10 1:8.206778 2:-0.954036 3:1.495991 
6.100722097302485 1:8.311268 2:-1.512185 3:0.995197 
10 1:8.334114 2:-1.561785 3:0.806914 
10 1:8.354011 2:-1.577137 3:0.612644 
10 1:8.371317 2:-1.564237 3:0.415117 
10 1:8.38639 2:-1.529078 3:0.217061 
10 1:8.39958 2:-1.47761 3:0.021231 
10 1:8.40968 2:-1.405813 3:-0.163958 
10 1:8.412038 2:-1.287661 3:-0.317473 
10 1:8.403791 2:-1.115783 3:-0.416982 
-10 1:8.366417 2:-0.726594 3:-0.444035 
-10 1:8.351627 2:-0.538881 3:-0.491397 
-10 1:8.343172 2:-0.367579 3:-0.588074 
-10 1:8.338775 2:-0.21366 3:-0.708879 
-10 1:8.334644 2:-0.060963 3:-0.83116 
10 1:0.634707 2:-0.795565 3:-0.677728 
10 1:0.645614 2:-0.639116 3:-0.759994 
10 1:0.660467 2:-0.470558 3:-0.791803 
10 1:0.678625 2:-0.27928 3:-0.804024 
10 1:0.697601 2:-0.076594 3:-0.821828 
10 1:0.714445 2:0.125114 3:-0.876924 
10 1:0.725614 2:0.299244 3:-0.986267 
10 1:0.73383 2:0.446801 3:-1.101811 
10 1:0.744433 2:0.59628 3:-1.177073 
10 1:0.758891 2:0.757567 3:-1.203003 
10 1:0.77595 2:0.917997 3:-1.179746 
10 1:0.794488 2:1.067122 3:-1.109001 
10 1:0.813421 2:1.199013 3:-0.999956 
10 1:0.831244 2:1.305016 3:-0.864571 
10 1:0.847388 2:1.383631 3:-0.710545 
10 1:0.862171 2:1.439787 3:-0.540979 
10 1:0.875807 2:1.478152 3:-0.360342 
10 1:0.888508 2:1.503763 3:-0.173847 
10 1:0.900464 2:1.521869 3:0.012548 
10 1:0.911791 2:1.534872 3:0.196597 
10 1:0.922613 2:1.542741 3:0.380675 
10 1:0.933109 2:1.54544 3:0.56808 
10 1:0.943418 2:1.542937 3:0.761461 
10 1:0.953112 2:1.532977 3:0.957008 
10 1:0.96009 2:1.505055 3:1.135178 
10 1:0.962364 2:1.450385 3:1.27541 
10 1:0.958924 2:1.360686 3:1.374123 
10 1:0.949966 2:1.229044 3:1.447354 
10 1:0.936135 2:1.058965 3:1.500635 
10 1:0.918828 2:0.862132 3:1.538464 
10 1:0.862388 2:0.239721 3:1.626694 
10 1:0.84519 2:0.057348 3:1.640444 
10 1:0.828701 2:-0.104047 3:1.629361 
10 1:0.812284 2:-0.245896 3:1.584366 
10 1:0.794542 2:-0.378171 3:1.497834 
10 1:0.775173 2:-0.507015 3:1.375306 
10 1:0.754853 2:-0.632526 3:1.229343 
10 1:0.734581 2:-0.753665 3:1.076381 
10 1:0.715909 2:-0.860219 3:0.926424 
10 1:0.700242 2:-0.936888 3:0.777638 
10 1:0.687481 2:-0.976934 3:0.616072 
10 1:0.675166 2:-0.998782 3:0.429863 
10 1:0.661376 2:-1.03289 3:0.238728 
10 1:0.651034 2:-1.050646 3:0.081281 
10 1:0.649094 2:-0.99632 3:-0.052205 
10 1:0.652279 2:-0.882687 3:-0.19874 
10 1:0.656758 2:-0.745312 3:-0.364382 
10 1:0.654517 2:-0.669368 3:-0.542347 
10 1:1.200767 2:-0.813721 3:-0.681515 
10 1:1.209009 2:-0.56709 3:-0.541781 
-10 1:1.189969 2:-0.137739 3:-0.632521 
10 1:1.162927 2:0.159492 3:-0.833993 
10 1:1.155462 2:0.317481 3:-0.871972 
10 1:1.142286 2:0.696092 3:-0.915834 
10 1:1.135868 2:0.878526 3:-0.937661 
10 1:1.132059 2:1.046316 3:-0.936793 
10 1:1.132359 2:1.203156 3:-0.897356 
10 1:1.137408 2:1.347821 3:-0.813246 
10 1:1.14618 2:1.457868 3:-0.699937 
10 1:1.157645 2:1.517429 3:-0.571413 
10 1:1.172143 2:1.536484 3:-0.421951 
10 1:1.189715 2:1.524102 3:-0.249046 
10 1:1.209633 2:1.490448 3:-0.057615 
10 1:1.231071 2:1.448684 3:0.147143 
3.585676336637257 1:1.274597 2:1.389693 3:0.568857 
10 1:1.295112 2:1.36918 3:0.769311 
10 1:1.314295 2:1.343102 3:0.955149 
10 1:1.331802 2:1.30364 3:1.121114 
10 1:1.347333 2:1.244406 3:1.262724 
10 1:1.361001 2:1.158501 3:1.379503 
10 1:1.373457 2:1.036511 3:1.475768 
10 1:1.384831 2:0.881907 3:1.553632 
10 1:1.394746 2:0.706525 3:1.612082 
10 1:1.402886 2:0.524006 3:1.651115 
10 1:1.409083 2:0.344155 3:1.671329 
10 1:1.413356 2:0.167179 3:1.67297 
10 1:1.415769 2:-0.008739 3:1.656248 
10 1:1.416369 2:-0.185464 3:1.621201 
10 1:1.415189 2:-0.364374 3:1.567842 
10 1:1.412186 2:-0.542294 3:1.496469 
10 1:1.407186 2:-0.709193 3:1.407681 
10 1:1.400064 2:-0.855007 3:1.302567 
10 1:1.390791 2:-0.970586 3:1.182956 
10 1:1.379273 2:-1.049393 3:1.049439 
10 1:1.3649 2:-1.090856 3:0.896027 
10 1:1.34775 2:-1.105177 3:0.721135 
10 1:1.328851 2:-1.104542 3:0.532225 
10 1:1.309637 2:-1.103094 3:0.340352 
10 1:1.291009 2:-1.105731 3:0.153397 
10 1:1.272756 2:-1.105882 3:-0.029237 
10 1:1.254415 2:-1.096782 3:-0.210595 
10 1:1.236565 2:-1.06945 3:-0.382806 
10 1:1.221288 2:-1.012977 3:-0.522511 
10 1:1.207516 2:-0.897953 3:-0.633563 
10 1:1.718928 2:-0.945573 3:-0.475146 
10 1:1.744747 2:-0.76544 3:-0.511033 
10 1:1.773492 2:-0.577711 3:-0.560098 
10 1:1.805034 2:-0.39132 3:-0.627883 
10 1:1.839504 2:-0.214085 3:-0.720776 
10 1:1.87677 2:-0.055649 3:-0.844799 
10 1:1.914244 2:0.070151 3:-0.993357 
10 1:1.946934 2:0.176625 3:-1.125276 
10 1:1.973456 2:0.296882 3:-1.208209 
10 1:1.996786 2:0.449293 3:-1.247999 
10 1:2.016848 2:0.623375 3:-1.251619 
10 1:2.031314 2:0.794672 3:-1.221679 
10 1:2.037503 2:0.939201 3:-1.158194 
10 1:2.033698 2:1.044605 3:-1.059059 
10 1:2.019711 2:1.119448 3:-0.916988 
10 1:1.999595 2:1.180537 3:-0.745768 
10 1:1.978173 2:1.236855 3:-0.569644 
10 1:1.956241 2:1.285465 3:-0.395765 
10 1:1.933447 2:1.323496 3:-0.223928 
10 1:1.909318 2:1.348452 3:-0.052916 
10 1:1.88324 2:1.35868 3:0.119998 
10 1:1.855213 2:1.35736 3:0.297086 
10 1:1.825759 2:1.349587 3:0.478645 
10 1:1.795591 2:1.340702 3:0.663945 
10 1:1.766012 2:1.334898 3:0.8477 
10 1:1.737398 2:1.320879 3:1.019483 
10 1:1.708407 2:1.279731 3:1.174363 
10 1:1.677259 2:1.199001 3:1.314793 
10 1:1.645734 2:1.085396 3:1.434239 
10 1:1.617122 2:0.951314 3:1.520614 
10 1:1.592896 2:0.803554 3:1.5694 
10 1:1.571424 2:0.639442 3:1.589073 
10 1:1.551458 2:0.45977 3:1.588107 
10 1:1.531909 2:0.268312 3:1.576109 
10 1:1.512354 2:0.073793 3:1.561974 
10 1:1.495484 2:-0.108688 3:1.539344 
10 1:1.484612 2:-0.265219 3:1.497072 
10 1:1.482003 2:-0.389462 3:1.42528 
10 1:1.488262 2:-0.492296 3:1.312387 
2.09544540387026 1:1.500924 2:-0.589493 3:1.162831 
10 1:1.540846 2:-0.919577 3:0.674493 
10 1:1.552947 2:-1.018426 3:0.527327 
10 1:1.567455 2:-1.089648 3:0.38452 
10 1:1.586846 2:-1.125323 3:0.235976 
10 1:1.612988 2:-1.134245 3:0.063584 
10 1:1.640657 2:-1.143046 3:-0.118427 
10 1:1.662821 2:-1.118608 3:-0.24183 
10 1:1.690641 2:-0.990356 3:-0.327323 
10 1:2.357369 2:-0.878825 3:-0.218782 
10 1:2.359081 2:-0.726509 3:-0.297199 
10 1:2.353218 2:-0.548625 3:-0.343765 
10 1:2.344679 2:-0.347771 3:-0.385358 
10 1:2.359945 2:0.182603 3:-0.711666 
10 1:2.379584 2:0.293915 3:-0.874232 
10 1:2.395192 2:0.412435 3:-1.016976 
10 1:2.408664 2:0.546942 3:-1.154692 
10 1:2.425629 2:0.671246 3:-1.307806 
10 1:2.442681 2:0.775211 3:-1.452255 
10 1:2.449181 2:0.899314 3:-1.545373 
10 1:2.442073 2:1.008121 3:-1.55369 
10 1:2.41871 2:1.098599 3:-1.4607 
10 1:2.381246 2:1.185723 3:-1.285475 
10 1:2.343219 2:1.253874 3:-1.098481 
10 1:2.307855 2:1.303635 3:-0.918443 
10 1:2.274366 2:1.339295 3:-0.742794 
10 1:2.241708 2:1.365587 3:-0.567679 
10 1:2.208961 2:1.387167 3:-0.389928 
10 1:2.175761 2:1.40705 3:-0.208826 
10 1:2.142642 2:1.421719 3:-0.025835 
10 1:2.110044 2:1.426234 3:0.15875 
10 1:2.07832 2:1.415879 3:0.345023 
10 1:2.048432 2:1.385937 3:0.529614 
10 1:2.023424 2:1.331368 3:0.697361 
10 1:2.006288 2:1.248742 3:0.832678 
10 1:1.998182 2:1.13127 3:0.932004 
10 1:1.997528 2:0.977122 3:1.005184 
-10 1:2.011108 2:0.600916 3:1.096907 
-10 1:2.020421 2:0.402114 3:1.133149 
-10 1:2.025737 2:0.204231 3:1.191855 
-7.415473810942452 1:2.022493 2:0.024435 3:1.291416 
10 1:2.016176 2:-0.133717 3:1.398818 
10 1:2.015091 2:-0.287193 3:1.474164 
10 1:2.02278 2:-0.451785 3:1.504291 
10 1:2.03837 2:-0.62446 3:1.492824 
10 1:2.060364 2:-0.791057 3:1.441963 
10 1:2.086145 2:-0.929096 3:1.356552 
10 1:2.113867 2:-1.020259 3:1.238917 
10 1:2.144708 2:-1.071066 3:1.085245 
10 1:2.178335 2:-1.093731 3:0.902948 
10 1:2.212631 2:-1.10086 3:0.709825 
10 1:2.246132 2:-1.105648 3:0.520195 
10 1:2.279717 2:-1.113067 3:0.331273 
10 1:2.313015 2:-1.125431 3:0.146219 
10 1:2.337619 2:-1.109977 3:-0.001594 
10 1:2.349985 2:-0.99907 3:-0.122344 
10 1:2.695691 2:0.028644 3:-0.872258 
10 1:2.685739 2:0.248794 3:-0.891295 
10 1:2.675235 2:0.451202 3:-0.931019 
10 1:2.664515 2:0.639583 3:-0.983472 
10 1:2.653583 2:0.8251 3:-1.041279 
10 1:2.642336 2:1.020125 3:-1.098024 
10 1:2.630814 2:1.234081 3:-1.146873 
10 1:2.621375 2:1.438291 3:-1.167941 
10 1:2.617697 2:1.566944 3:-1.143996 
10 1:2.620256 2:1.613809 3:-1.071309 
10 1:2.629957 2:1.62494 3:-0.904857 
10 1:2.644627 2:1.605499 3:-0.676917 
10 1:2.660091 2:1.587031 3:-0.435297 
10 1:2.673712 2:1.585466 3:-0.212855 
10 1:2.685642 2:1.581208 3:-0.019925 
10 1:2.696626 2:1.554325 3:0.142671 
10 1:2.708117 2:1.48661 3:0.28683 
10 1:2.721243 2:1.37512 3:0.429143 
10 1:2.735772 2:1.234317 3:0.575257 
10 1:2.751169 2:1.083742 3:0.729222 
10 1:2.766738 2:0.945844 3:0.8943 
10 1:2.781646 2:0.827789 3:1.061542 
10 1:2.795644 2:0.712838 3:1.215884 
10 1:2.8091 2:0.580943 3:1.350244 
10 1:2.821703 2:0.428433 3:1.457093 
10 1:2.832498 2:0.263092 3:1.525877 
10 1:2.840982 2:0.087894 3:1.55027 
10 1:2.847631 2:-0.098341 3:1.537352 
10 1:2.852871 2:-0.291312 3:1.496882 
10 1:2.857105 2:-0.483736 3:1.440281 
10 1:2.860604 2:-0.669697 3:1.375845 
10 1:2.863291 2:-0.850266 3:1.301637 
10 1:2.865057 2:-1.027256 3:1.21465 
10 1:2.865185 2:-1.18745 3:1.111787 
10 1:2.862443 2:-1.30681 3:0.988604 
10 1:2.855775 2:-1.377295 3:0.833017 
10 1:2.845856 2:-1.411163 3:0.6481 
10 1:2.834583 2:-1.42064 3:0.456947 
10 1:2.822747 2:-1.410022 3:0.269704 
10 1:2.810138 2:-1.378923 3:0.083215 
10 1:2.796466 2:-1.326879 3:-0.106994 
10 1:2.782504 2:-1.258107 3:-0.291 
10 1:2.773164 2:-1.17647 3:-0.390751 
10 1:2.767601 2:-1.030846 3:-0.386608 
10 1:2.762012 2:-0.822431 3:-0.34177 
10 1:2.755804 2:-0.62498 3:-0.314245 
5.729092486423468 1:2.750085 2:-0.405007 3:-0.263959 
10 1:2.719256 2:-0.030239 3:-0.524212 
10 1:2.701827 2:0.042086 3:-0.762772 
10 1:3.201872 2:0.134306 3:-0.87004 
10 1:3.209058 2:0.348591 3:-0.884808 
10 1:3.214943 2:0.547776 3:-0.911537 
10 1:3.220082 2:0.737181 3:-0.94443 
10 1:3.225188 2:0.927054 3:-0.978155 
10 1:3.230964 2:1.128032 3:-1.007782 
10 1:3.237869 2:1.340192 3:-1.02583 
10 1:3.24509 2:1.502149 3:-1.007728 
10 1:3.251634 2:1.565456 3:-0.939794 
10 1:3.262457 2:1.581795 3:-0.772865 
10 1:3.275949 2:1.573552 3:-0.547122 
10 1:3.289397 2:1.572185 3:-0.326342 
10 1:3.301445 2:1.56914 3:-0.127433 
10 1:3.311475 2:1.54959 3:0.048685 
10 1:3.319268 2:1.500347 3:0.206529 
10 1:3.324919 2:1.410067 3:0.354699 
10 1:3.328431 2:1.282294 3:0.491014 
10 1:3.329654 2:1.126937 3:0.606944 
10 1:3.328501 2:0.953556 3:0.69512 
10 1:3.325285 2:0.763768 3:0.759701 
10 1:3.323006 2:0.569077 3:0.842643 
5.342519928185792 1:3.324264 2:0.395616 3:0.970305 
10 1:3.327877 2:0.246239 3:1.121628 
10 1:3.332217 2:0.109135 3:1.277249 
10 1:3.335855 2:-0.026313 3:1.42037 
10 1:3.337565 2:-0.16995 3:1.537028 
10 1:3.336806 2:-0.329106 3:1.622873 
10 1:3.333594 2:-0.505636 3:1.67933 
10 1:3.327909 2:-0.699049 3:1.705763 
10 1:3.319904 2:-0.902273 3:1.700324 
10 1:3.310213 2:-1.093939 3:1.660155 
10 1:3.299702 2:-1.251258 3:1.585381 
10 1:3.289005 2:-1.359057 3:1.476991 
10 1:3.277501 2:-1.419046 3:1.325882 
10 1:3.265133 2:-1.442441 3:1.13806 
10 1:3.25302 2:-1.440158 3:0.938538 
10 1:3.241775 2:-1.421876 3:0.743352 
10 1:3.231251 2:-1.391654 3:0.55258 
10 1:3.221175 2:-1.353326 3:0.364127 
10 1:3.211243 2:-1.309206 3:0.174452 
10 1:3.201199 2:-1.259664 3:-0.020405 
10 1:3.192598 2:-1.203342 3:-0.195845 
10 1:3.190516 2:-1.117844 3:-0.282685 
10 1:3.194833 2:-0.96341 3:-0.307432 
10 1:3.203424 2:-0.749125 3:-0.299225 
10 1:3.212139 2:-0.522968 3:-0.296322 
10 1:3.218272 2:-0.308861 3:-0.328204 
10 1:3.221656 2:-0.100734 3:-0.401365 
10 1:3.22091 2:0.102024 3:-0.538745 
10 1:3.21467 2:0.232934 3:-0.721621 
10 1:3.599849 2:-0.686898 3:-0.442902 
10 1:3.630582 2:-0.436455 3:-0.428315 
10 1:3.636335 2:-0.230567 3:-0.535694 
10 1:3.624314 2:-0.095032 3:-0.703092 
10 1:3.607792 2:0.008794 3:-0.876066 
10 1:3.596261 2:0.109788 3:-1.016542 
10 1:3.596119 2:0.232519 3:-1.102402 
10 1:3.607144 2:0.398661 3:-1.150006 
10 1:3.623303 2:0.589726 3:-1.183459 
10 1:3.640986 2:0.768847 3:-1.199318 
10 1:3.661923 2:0.915353 3:-1.172688 
10 1:3.690762 2:1.047257 3:-1.087608 
10 1:3.727643 2:1.189858 3:-0.960732 
10 1:3.765007 2:1.337154 3:-0.834155 
10 1:3.794577 2:1.432926 3:-0.719576 
10 1:3.818799 2:1.45018 3:-0.583343 
10 1:3.845214 2:1.418747 3:-0.399979 
10 1:3.873257 2:1.380544 3:-0.20197 
10 1:3.901013 2:1.347352 3:-0.009182 
10 1:3.927367 2:1.31377 3:0.175293 
10 1:3.951767 2:1.273905 3:0.35217 
10 1:3.97375 2:1.222075 3:0.522545 
10 1:3.992915 2:1.152782 3:0.687774 
10 1:4.008383 2:1.063574 3:0.844176 
10 1:4.019007 2:0.953967 3:0.985071 
10 1:4.024539 2:0.824375 3:1.108653 
10 1:4.02544 2:0.677307 3:1.216009 
10 1:4.022147 2:0.516736 3:1.307058 
10 1:4.014863 2:0.347997 3:1.379347 
10 1:4.003214 2:0.176288 3:1.426989 
10 1:3.986538 2:0.002967 3:1.444994 
10 1:3.964758 2:-0.177521 3:1.436736 
10 1:3.940189 2:-0.370163 3:1.419835 
10 1:3.917094 2:-0.565586 3:1.413875 
10 1:3.895613 2:-0.739358 3:1.4028 
10 1:3.869642 2:-0.883882 3:1.344001 
10 1:3.837393 2:-1.004726 3:1.230393 
10 1:3.804506 2:-1.086251 3:1.085663 
10 1:3.775389 2:-1.117229 3:0.928986 
10 1:3.746088 2:-1.118775 3:0.750801 
10 1:3.712038 2:-1.123956 3:0.546087 
10 1:3.670872 2:-1.168478 3:0.32508 
10 1:3.626222 2:-1.246473 3:0.10594 
10 1:3.584003 2:-1.324125 3:-0.098565 
10 1:3.549895 2:-1.370902 3:-0.274832 
10 1:3.529384 2:-1.367033 3:-0.402994 
10 1:3.521754 2:-1.309939 3:-0.489209 
10 1:3.530381 2:-1.210773 3:-0.505101 
10 1:3.563678 2:-1.056988 3:-0.4079 
10 1:3.596745 2:-0.878913 3:-0.328919 
10 1:4.339538 2:-0.187937 3:-0.703018 
10 1:4.338257 2:0.044343 3:-0.703918 
10 1:4.356829 2:0.252637 3:-0.861536 
10 1:4.381503 2:0.416296 3:-1.06554 
10 1:4.402509 2:0.562643 3:-1.239559 
10 1:4.411461 2:0.687178 3:-1.316691 
10 1:4.406467 2:0.8531 3:-1.284891 
10 1:4.402637 2:1.074832 3:-1.265022 
10 1:4.401611 2:1.231089 3:-1.264314 
10 1:4.386505 2:1.317604 3:-1.148321 
10 1:4.359832 2:1.398417 3:-0.940085 
10 1:4.332999 2:1.468759 3:-0.730073 
10 1:4.308389 2:1.516515 3:-0.536653 
10 1:4.285624 2:1.532488 3:-0.356393 
10 1:4.263698 2:1.509074 3:-0.180928 
10 1:4.242337 2:1.439602 3:-0.007757 
10 1:4.225734 2:1.330935 3:0.129448 
10 1:4.216782 2:1.187212 3:0.207497 
-10 1:4.212668 2:0.784414 3:0.259428 
-10 1:4.210132 2:0.537498 3:0.291377 
-10 1:4.189219 2:0.361831 3:0.466048 
-10 1:4.157017 2:0.325711 3:0.723839 
10 1:4.092717 2:0.394657 3:1.231843 
10 1:4.067246 2:0.416064 3:1.433366 
10 1:4.047662 2:0.39507 3:1.590091 
10 1:4.0322 2:0.311519 3:1.717028 
10 1:4.021781 2:0.16787 3:1.806732 
10 1:4.019247 2:-0.002495 3:1.83501 
10 1:4.02305 2:-0.196348 3:1.814024 
10 1:4.031261 2:-0.400216 3:1.758458 
10 1:4.041299 2:-0.594827 3:1.687924 
10 1:4.05302 2:-0.764472 3:1.602817 
10 1:4.068703 2:-0.908192 3:1.484963 
10 1:4.088538 2:-1.027488 3:1.332932 
10 1:4.111179 2:-1.117427 3:1.157189 
10 1:4.13507 2:-1.17255 3:0.969846 
10 1:4.159394 2:-1.191189 3:0.777314 
10 1:4.184826 2:-1.188742 3:0.574967 
10 1:4.21138 2:-1.188049 3:0.363785 
10 1:4.237775 2:-1.195549 3:0.154259 
10 1:4.262832 2:-1.196668 3:-0.044936 
10 1:4.287009 2:-1.181235 3:-0.237922 
10 1:4.30675 2:-1.163186 3:-0.395764 
10 1:4.308033 2:-1.048046 3:-0.411461 
10 1:4.298127 2:-0.869349 3:-0.341216 
10 1:4.292443 2:-0.633537 3:-0.307264 
10 1:4.300402 2:-0.383924 3:-0.382468 
10 1:4.318143 2:-0.198823 3:-0.53237 
10 1:4.804472 2:-0.497619 3:-0.605656 
10 1:4.795248 2:-0.256608 3:-0.549305 
10 1:4.792391 2:-0.029849 3:-0.576691 
10 1:4.794787 2:0.162439 3:-0.666459 
10 1:4.799982 2:0.327527 3:-0.786881 
10 1:4.805847 2:0.478212 3:-0.912295 
10 1:4.810656 2:0.626084 3:-1.022314 
10 1:4.813536 2:0.781847 3:-1.108001 
10 1:4.814215 2:0.954113 3:-1.16816 
10 1:4.81216 2:1.131098 3:-1.191947 
10 1:4.806851 2:1.274773 3:-1.160971 
10 1:4.797282 2:1.378854 3:-1.059494 
10 1:4.784968 2:1.443172 3:-0.908382 
10 1:4.772331 2:1.461703 3:-0.739299 
10 1:4.759786 2:1.441797 3:-0.560161 
10 1:4.747746 2:1.393217 3:-0.379561 
10 1:4.736102 2:1.327998 3:-0.199514 
10 1:4.723469 2:1.266218 3:-0.006821 
10 1:4.709212 2:1.227848 3:0.2014 
10 1:4.694494 2:1.205453 3:0.41128 
10 1:4.68045 2:1.183622 3:0.611695 
10 1:4.668145 2:1.148749 3:0.791929 
10 1:4.658571 2:1.09036 3:0.94137 
10 1:4.652134 2:0.997072 3:1.057775 
10 1:4.648486 2:0.857033 3:1.149433 
10 1:4.646903 2:0.683691 3:1.222394 
10 1:4.646634 2:0.503498 3:1.279226 
10 1:4.647656 2:0.32317 3:1.318275 
2.24177743351639 1:4.649758 2:0.128992 3:1.346483 
10 1:4.650126 2:-0.075999 3:1.401821 
10 1:4.64738 2:-0.265783 3:1.495691 
10 1:4.645475 2:-0.424554 3:1.568802 
10 1:4.647736 2:-0.555519 3:1.576175 
10 1:4.655295 2:-0.691947 3:1.511993 
10 1:4.667269 2:-0.836175 3:1.389131 
10 1:4.681245 2:-0.970899 3:1.235816 
10 1:4.694939 2:-1.08551 3:1.080464 
10 1:4.708198 2:-1.181453 3:0.925619 
10 1:4.721601 2:-1.264195 3:0.764884 
10 1:4.735325 2:-1.334443 3:0.596052 
10 1:4.749252 2:-1.389374 3:0.419885 
10 1:4.763303 2:-1.426355 3:0.236717 
10 1:4.777352 2:-1.44276 3:0.047524 
10 1:4.790622 2:-1.433452 3:-0.138511 
10 1:4.801009 2:-1.387019 3:-0.295658 
10 1:4.807312 2:-1.291199 3:-0.410959 
10 1:4.809334 2:-1.146597 3:-0.481504 
10 1:4.806901 2:-0.98609 3:-0.495214 
10 1:4.799922 2:-0.780871 3:-0.459319 
10 1:4.79547 2:-0.579076 3:-0.457318 
10 1:5.240221 2:-0.504716 3:-0.548204 
-10 1:5.318547 2:0.093579 3:-0.416108 
10 1:5.415529 2:0.398605 3:-0.791382 
10 1:5.458418 2:0.484575 3:-1.017833 
10 1:5.496209 2:0.566472 3:-1.209765 
10 1:5.524133 2:0.652015 3:-1.320641 
10 1:5.54427 2:0.757884 3:-1.345968 
10 1:5.563522 2:0.914151 3:-1.302114 
10 1:5.577151 2:1.080819 3:-1.201769 
10 1:5.582086 2:1.214434 3:-1.074846 
10 1:5.579316 2:1.31217 3:-0.932503 
10 1:5.570928 2:1.386951 3:-0.774964 
10 1:5.558157 2:1.443777 3:-0.605609 
10 1:5.541512 2:1.483492 3:-0.427362 
10 1:5.521466 2:1.507441 3:-0.242224 
10 1:5.498518 2:1.51706 3:-0.052288 
10 1:5.473188 2:1.513875 3:0.140293 
10 1:5.446012 2:1.499484 3:0.333343 
10 1:5.417634 2:1.47562 3:0.524003 
10 1:5.388509 2:1.441717 3:0.708049 
10 1:5.358334 2:1.39279 3:0.881667 
10 1:5.326499 2:1.323451 3:1.042921 
10 1:5.292157 2:1.228074 3:1.191424 
10 1:5.255886 2:1.10744 3:1.323669 
10 1:5.219539 2:0.96762 3:1.432783 
10 1:5.185016 2:0.815149 3:1.512095 
10 1:5.153129 2:0.652655 3:1.558572 
10 1:5.122455 2:0.477436 3:1.5799 
10 1:5.091671 2:0.289274 3:1.586074 
10 1:5.059842 2:0.091022 3:1.587882 
10 1:5.02727 2:-0.109652 3:1.592461 
10 1:4.996792 2:-0.302057 3:1.591013 
10 1:4.971166 2:-0.477985 3:1.572304 
10 1:4.952572 2:-0.631313 3:1.526971 
10 1:4.941816 2:-0.763817 3:1.446581 
10 1:4.937932 2:-0.882018 3:1.330567 
10 1:4.940217 2:-0.98673 3:1.183363 
10 1:4.94789 2:-1.077206 3:1.011958 
10 1:4.959952 2:-1.153307 3:0.824273 
10 1:4.975273 2:-1.215457 3:0.628564 
10 1:4.992356 2:-1.263164 3:0.437032 
10 1:5.011283 2:-1.281925 3:0.266996 
10 1:5.035323 2:-1.247777 3:0.122704 
10 1:5.066555 2:-1.152172 3:-0.001393 
10 1:5.101071 2:-1.005699 3:-0.088078 
10 1:5.140133 2:-0.81577 3:-0.156288 
10 1:5.18136 2:-0.666039 3:-0.291011 
10 1:5.219377 2:-0.518975 3:-0.40412 
10 1:5.751229 2:-0.511296 3:-0.679497 
10 1:5.71617 2:-0.348785 3:-0.753144 
10 1:5.684552 2:-0.176531 3:-0.784902 
10 1:5.652169 2:0.014034 3:-0.798344 
10 1:5.618134 2:0.214367 3:-0.812409 
10 1:5.581132 2:0.415809 3:-0.849773 
10 1:5.542835 2:0.596576 3:-0.92584 
10 1:5.506624 2:0.765317 3:-1.000701 
10 1:5.47179 2:0.956303 3:-1.034054 
10 1:5.441337 2:1.152698 3:-1.023512 
10 1:5.421143 2:1.317063 3:-0.970475 
10 1:5.415009 2:1.41825 3:-0.885215 
10 1:5.424122 2:1.457534 3:-0.756088 
10 1:5.446539 2:1.452897 3:-0.575071 
10 1:5.474116 2:1.428155 3:-0.378073 
10 1:5.501532 2:1.400944 3:-0.185754 
10 1:5.528272 2:1.375338 3:0.003092 
10 1:5.554356 2:1.354783 3:0.193266 
10 1:5.579586 2:1.34278 3:0.387845 
10 1:5.604011 2:1.337083 3:0.584207 
10 1:5.628487 2:1.327554 3:0.775824 
10 1:5.653999 2:1.304242 3:0.957502 
10 1:5.68141 2:1.258326 3:1.124541 
10 1:5.711992 2:1.180801 3:1.275444 
10 1:5.745986 2:1.068593 3:1.408053 
10 1:5.780577 2:0.932144 3:1.512949 
10 1:5.81276 2:0.783045 3:1.580661 
10 1:5.842852 2:0.621828 3:1.614556 
10 1:5.873068 2:0.443606 3:1.626554 
10 1:5.904896 2:0.248067 3:1.628653 
10 1:5.939555 2:0.037817 3:1.634552 
10 1:5.976099 2:-0.176706 3:1.650438 
10 1:6.009421 2:-0.376387 3:1.659427 
10 1:6.034328 2:-0.542191 3:1.64382 
10 1:6.04728 2:-0.65969 3:1.593513 
10 1:6.048773 2:-0.745119 3:1.490734 
10 1:6.041791 2:-0.821683 3:1.329115 
10 1:6.031158 2:-0.902108 3:1.131794 
10 1:6.023381 2:-1.003179 3:0.930474 
10 1:6.019727 2:-1.11898 3:0.74373 
10 1:6.016781 2:-1.227294 3:0.572999 
10 1:6.011321 2:-1.308632 3:0.417656 
10 1:6.001046 2:-1.347756 3:0.279035 
10 1:5.983111 2:-1.336141 3:0.144881 
10 1:5.955109 2:-1.274014 3:-0.005232 
10 1:5.919207 2:-1.175327 3:-0.172028 
10 1:5.881563 2:-1.067708 3:-0.341317 
10 1:5.852809 2:-0.970363 3:-0.450208 
10 1:5.826095 2:-0.811761 3:-0.459414 
10 1:5.78908 2:-0.620084 3:-0.510048 
10 1:6.39591 2:-0.712474 3:-0.66565 
10 1:6.366958 2:-0.471429 3:-0.576947 
10 1:6.361852 2:0.256167 3:-0.859469 
10 1:6.368795 2:0.400289 3:-0.96862 
10 1:6.37144 2:0.553745 3:-1.0531 
10 1:6.36804 2:0.719202 3:-1.102371 
10 1:6.358516 2:0.882414 3:-1.109713 
10 1:6.342911 2:1.029811 3:-1.06951 
10 1:6.321266 2:1.15612 3:-0.979736 
10 1:6.296048 2:1.252535 3:-0.853061 
10 1:6.269504 2:1.313438 3:-0.702063 
10 1:6.242275 2:1.345144 3:-0.533777 
10 1:6.215533 2:1.354566 3:-0.35905 
10 1:6.189887 2:1.347558 3:-0.184497 
10 1:6.164979 2:1.327926 3:-0.009384 
10 1:6.140296 2:1.299537 3:0.168026 
10 1:6.115336 2:1.266441 3:0.349345 
10 1:6.089592 2:1.232887 3:0.536105 
10 1:6.062761 2:1.203489 3:0.728326 
10 1:6.035927 2:1.177914 3:0.918902 
10 1:6.012315 2:1.142739 3:1.09211 
10 1:5.994692 2:1.085231 3:1.234987 
10 1:5.984022 2:0.992185 3:1.346834 
10 1:5.978971 2:0.858557 3:1.438771 
10 1:5.978398 2:0.692234 3:1.51499 
10 1:5.980976 2:0.507941 3:1.577958 
10 1:5.985757 2:0.31958 3:1.627964 
10 1:5.993011 2:0.134366 3:1.660061 
10 1:6.00309 2:-0.042971 3:1.669843 
10 1:6.016265 2:-0.208156 3:1.653632 
10 1:6.032838 2:-0.358404 3:1.608196 
10 1:6.053585 2:-0.49542 3:1.529086 
10 1:6.078481 2:-0.62326 3:1.418239 
10 1:6.106328 2:-0.742735 3:1.284021 
10 1:6.135462 2:-0.853469 3:1.137387 
10 1:6.164536 2:-0.954612 3:0.986981 
10 1:6.193362 2:-1.044974 3:0.833547 
10 1:6.222114 2:-1.124201 3:0.675758 
10 1:6.250955 2:-1.191928 3:0.512367 
10 1:6.279646 2:-1.246007 3:0.34404 
10 1:6.307183 2:-1.279206 3:0.174341 
10 1:6.332669 2:-1.284248 3:0.006105 
10 1:6.355288 2:-1.254952 3:-0.157902 
10 1:6.371615 2:-1.188601 3:-0.295962 
10 1:6.376536 2:-1.073519 3:-0.378955 
10 1:6.372975 2:-0.895871 3:-0.432461 
10 1:6.373095 2:-0.722791 3:-0.50859 
10 1:6.835903 2:-1.021317 3:-0.24755 
10 1:6.80719 2:-0.995455 3:-0.453262 
10 1:6.779509 2:-0.938863 3:-0.62263 
10 1:6.751832 2:-0.855133 3:-0.767155 
10 1:6.724331 2:-0.747758 3:-0.888659 
10 1:6.697254 2:-0.61995 3:-0.988098 
10 1:6.670973 2:-0.475209 3:-1.065697 
10 1:6.645957 2:-0.317534 3:-1.121362 
10 1:6.622725 2:-0.151349 3:-1.155004 
10 1:6.601801 2:0.018662 3:-1.166704 
10 1:6.583701 2:0.187677 3:-1.156765 
10 1:6.568911 2:0.350843 3:-1.125734 
10 1:6.557764 2:0.505098 3:-1.073748 
10 1:6.549202 2:0.657959 3:-1.002387 
10 1:6.539796 2:0.827204 3:-0.922785 
10 1:6.527526 2:1.014776 3:-0.849315 
10 1:6.516122 2:1.191843 3:-0.778524 
10 1:6.5102 2:1.32438 3:-0.704656 
10 1:6.512075 2:1.387939 3:-0.63157 
10 1:6.522948 2:1.398233 3:-0.535316 
10 1:6.544824 2:1.365421 3:-0.390573 
10 1:6.57463 2:1.299011 3:-0.213202 
10 1:6.608136 2:1.220657 3:-0.017203 
10 1:6.746445 2:0.994149 3:0.880489 
10 1:6.768411 2:0.932058 3:0.999175 
10 1:6.790818 2:0.842811 3:1.096566 
10 1:6.814854 2:0.722647 3:1.178699 
10 1:6.840233 2:0.575033 3:1.246464 
10 1:6.941757 2:-0.157426 3:1.387774 
10 1:6.963719 2:-0.341677 3:1.39475 
10 1:6.982706 2:-0.516653 3:1.386445 
10 1:6.998032 2:-0.67977 3:1.359739 
10 1:7.009121 2:-0.829005 3:1.311879 
10 1:7.015519 2:-0.963722 3:1.239822 
10 1:7.016873 2:-1.084742 3:1.139994 
10 1:7.013276 2:-1.190369 3:1.014696 
10 1:7.004982 2:-1.276632 3:0.869584 
10 1:6.992347 2:-1.339603 3:0.711083 
10 1:6.97581 2:-1.375877 3:0.545833 
10 1:6.955873 2:-1.382628 3:0.380407 
10 1:6.933034 2:-1.357585 3:0.220874 
10 1:6.907675 2:-1.298621 3:0.072215 
10 1:6.87778 2:-1.194748 3:-0.071613 
10 1:7.159106 2:-1.032787 3:-0.763599 
10 1:7.185369 2:-0.858168 3:-0.784904 
10 1:7.207509 2:-0.686677 3:-0.755398 
10 1:7.232067 2:-0.493022 3:-0.715964 
10 1:7.261239 2:-0.286588 3:-0.715252 
10 1:7.292603 2:-0.088534 3:-0.761179 
10 1:7.322171 2:0.093753 3:-0.813128 
10 1:7.347709 2:0.259683 3:-0.841405 
4.679609772017295 1:7.368804 2:0.417845 3:-0.823528 
10 1:7.434519 2:0.95758 3:-0.675932 
10 1:7.453625 2:1.122142 3:-0.618081 
10 1:7.466853 2:1.261742 3:-0.527874 
10 1:7.471284 2:1.353254 3:-0.410196 
10 1:7.466802 2:1.400872 3:-0.255263 
10 1:7.457533 2:1.433349 3:-0.063832 
10 1:7.447453 2:1.467144 3:0.141375 
10 1:7.436575 2:1.494256 3:0.344544 
10 1:7.424201 2:1.505361 3:0.537069 
10 1:7.409814 2:1.492437 3:0.71043 
10 1:7.393152 2:1.44971 3:0.856966 
10 1:7.373407 2:1.370938 3:0.975596 
10 1:7.348828 2:1.246506 3:1.071741 
10 1:7.320976 2:1.087429 3:1.145367 
10 1:7.293116 2:0.915423 3:1.193825 
10 1:7.26615 2:0.739134 3:1.221566 
10 1:7.239298 2:0.557427 3:1.23716 
-10 1:7.182947 2:0.175974 3:1.269621 
-10 1:7.152283 2:-0.020435 3:1.309099 
10 1:7.119792 2:-0.213365 3:1.380596 
10 1:7.087449 2:-0.389542 3:1.482793 
10 1:7.059147 2:-0.543757 3:1.572135 
10 1:7.037505 2:-0.678508 3:1.607552 
10 1:7.020221 2:-0.817472 3:1.574591 
10 1:7.006265 2:-0.963611 3:1.48165 
10 1:6.997695 2:-1.092242 3:1.348576 
10 1:6.99567 2:-1.181809 3:1.201478 
10 1:6.999761 2:-1.230138 3:1.050548 
10 1:7.008867 2:-1.248224 3:0.889493 
10 1:7.021964 2:-1.244942 3:0.715092 
10 1:7.037738 2:-1.229888 3:0.526747 
10 1:7.054627 2:-1.21411 3:0.324422 
10 1:7.070907 2:-1.209709 3:0.108276 
10 1:7.084674 2:-1.227506 3:-0.116566 
10 1:7.096318 2:-1.256254 3:-0.333505 
10 1:7.107983 2:-1.269386 3:-0.520208 
10 1:7.120386 2:-1.249009 3:-0.651619 
10 1:7.139195 2:-1.164737 3:-0.746587 
10 1:7.668864 2:-0.071977 3:-0.881706 
10 1:7.641322 2:0.068278 3:-0.995511 
10 1:7.619277 2:0.222239 3:-1.039628 
10 1:7.596032 2:0.407052 3:-1.060836 
10 1:7.56993 2:0.606902 3:-1.093304 
10 1:7.541699 2:0.79245 3:-1.162891 
10 1:7.516298 2:0.956941 3:-1.228272 
10 1:7.49627 2:1.117637 3:-1.2449 
10 1:7.489731 2:1.213787 3:-1.201127 
10 1:7.500883 2:1.238403 3:-1.063356 
10 1:7.520472 2:1.258287 3:-0.84766 
10 1:7.534776 2:1.318196 3:-0.639026 
10 1:7.544959 2:1.390166 3:-0.457484 
10 1:7.555177 2:1.442621 3:-0.297566 
10 1:7.5697 2:1.454208 3:-0.141203 
10 1:7.590619 2:1.431721 3:0.039886 
10 1:7.614565 2:1.407485 3:0.248888 
10 1:7.63812 2:1.38741 3:0.458713 
10 1:7.660115 2:1.349444 3:0.632989 
10 1:7.679693 2:1.279327 3:0.747204 
10 1:7.70526 2:1.125913 3:0.826695 
10 1:7.76755 2:0.869688 3:1.15276 
10 1:7.793438 2:0.77345 3:1.299821 
10 1:7.818566 2:0.646009 3:1.404233 
10 1:7.844466 2:0.487288 3:1.481035 
10 1:7.870221 2:0.308604 3:1.533916 
10 1:7.894892 2:0.122412 3:1.567649 
10 1:7.919178 2:-0.06646 3:1.594559 
10 1:7.944266 2:-0.253983 3:1.630902 
10 1:7.968077 2:-0.434111 3:1.662977 
10 1:7.988877 2:-0.610703 3:1.669324 
10 1:8.005141 2:-0.782335 3:1.636492 
10 1:8.013927 2:-0.923059 3:1.564685 
10 1:8.013387 2:-1.017861 3:1.452576 
10 1:8.004642 2:-1.079303 3:1.297073 
10 1:7.989936 2:-1.116386 3:1.110189 
10 1:7.97262 2:-1.139692 3:0.913069 
10 1:7.900369 2:-1.153754 3:0.184276 
10 1:7.875563 2:-1.088541 3:0.012944 
10 1:7.850894 2:-1.035028 3:-0.170215 
10 1:7.828178 2:-0.973641 3:-0.325225 
10 1:7.803509 2:-0.867184 3:-0.448749 
10 1:7.781258 2:-0.742361 3:-0.527716 
10 1:7.759485 2:-0.5632 3:-0.540772 
7.196854004545041 1:7.729534 2:-0.349936 3:-0.596105 
10 1:7.696122 2:-0.186203 3:-0.741393 
10 1:8.322146 2:0.097973 3:-0.87153 
10 1:8.306613 2:0.287454 3:-0.912928 
10 1:8.290895 2:0.476404 3:-0.951798 
10 1:8.274394 2:0.662555 3:-0.979321 
10 1:8.256445 2:0.845152 3:-0.987616 
10 1:8.236407 2:1.023772 3:-0.969442 
10 1:8.214433 2:1.191298 3:-0.918675 
10 1:8.191874 2:1.330209 3:-0.830577 
10 1:8.169042 2:1.433245 3:-0.700569 
10 1:8.147312 2:1.500985 3:-0.543849 
10 1:8.127439 2:1.536861 3:-0.372156 
10 1:8.108692 2:1.549553 3:-0.187183 
10 1:8.090368 2:1.548705 3:0.008028 
10 1:8.071842 2:1.545151 3:0.208323 
10 1:8.053444 2:1.543478 3:0.405211 
10 1:8.03689 2:1.53305 3:0.592071 
10 1:8.02356 2:1.502246 3:0.766917 
10 1:8.014315 2:1.440692 3:0.931897 
10 1:8.009215 2:1.347571 3:1.087264 
10 1:8.008232 2:1.227387 3:1.228409 
10 1:8.011344 2:1.085606 3:1.349629 
10 1:8.018469 2:0.927718 3:1.445814 
10 1:8.029382 2:0.758378 3:1.514304 
10 1:8.043676 2:0.581982 3:1.554611 
10 1:8.06098 2:0.402627 3:1.566219 
10 1:8.081096 2:0.220608 3:1.550917 
10 1:8.103355 2:0.032875 3:1.519107 
10 1:8.126598 2:-0.161473 3:1.484063 
1.770152406423993 1:8.149167 2:-0.359595 3:1.460261 
10 1:8.170353 2:-0.554925 3:1.448087 
10 1:8.191273 2:-0.744559 3:1.432541 
10 1:8.213137 2:-0.927558 3:1.39977 
10 1:8.235667 2:-1.093049 3:1.340894 
10 1:8.25862 2:-1.231328 3:1.247936 
10 1:8.282184 2:-1.340567 3:1.116909 
10 1:8.305109 2:-1.41908 3:0.95923 
10 1:8.325712 2:-1.463703 3:0.789322 
10 1:8.343955 2:-1.477656 3:0.611067 
10 1:8.360142 2:-1.465483 3:0.4262 
10 1:8.37449 2:-1.431931 3:0.237573 
10 1:8.387058 2:-1.382992 3:0.051076 
10 1:8.396256 2:-1.319173 3:-0.115862 
10 1:8.398321 2:-1.222701 3:-0.242693 
10 1:8.391648 2:-1.083814 3:-0.323011 
10 1:8.376587 2:-0.915986 3:-0.345862 
10 1:8.355969 2:-0.715622 3:-0.345189 
6.817013957375936 1:8.329766 2:-0.312859 3:-0.505454 
10 1:8.325147 2:-0.152348 3:-0.631065 
10 1:8.321004 2:0.000735 3:-0.753653 
-10 1:0.628994 2:-0.703346 3:-0.948668 
-10 1:0.647278 2:-0.4947 3:-0.989902 
-10 1:0.666391 2:-0.293133 3:-1.003168 
-10 1:0.683611 2:-0.109613 3:-1.018586 
-10 1:0.696677 2:0.045968 3:-1.059735 
-10 1:0.705493 2:0.185266 3:-1.149375 
-10 1:0.71425 2:0.341558 3:-1.270751 
-10 1:0.728172 2:0.536537 3:-1.367247 
-10 1:0.747929 2:0.756942 3:-1.402701 
-10 1:0.771228 2:0.976131 3:-1.371053 
-10 1:0.795813 2:1.174251 3:-1.277884 
-10 1:0.819798 2:1.341548 3:-1.140109 
-10 1:0.841815 2:1.472649 3:-0.973141 
-10 1:0.861189 2:1.567208 3:-0.788706 
-10 1:0.87816 2:1.631864 3:-0.594372 
-10 1:0.893161 2:1.6742 3:-0.395893 
-10 1:0.906629 2:1.701437 3:-0.198275 
-10 1:0.919011 2:1.720207 3:-0.005284 
-10 1:0.930672 2:1.733592 3:0.184196 
-10 1:0.941826 2:1.741701 3:0.373912 
-10 1:0.952635 2:1.744481 3:0.566919 
-10 1:0.963295 2:1.741872 3:0.766917 
-10 1:0.97367 2:1.73094 3:0.976701 
-10 1:0.981788 2:1.697214 3:1.186212 
-10 1:0.979553 2:1.483478 3:1.530637 
-10 1:0.967588 2:1.306235 3:1.631014 
-10 1:0.951367 2:1.106281 3:1.69436 
-10 1:0.932693 2:0.893745 3:1.735462 
-10 1:0.913127 2:0.677955 3:1.766086 
-10 1:0.893957 2:0.466401 3:1.796322 
-10 1:0.875225 2:0.260028 3:1.825246 
-10 1:0.856065 2:0.057088 3:1.840148 
-10 1:0.835673 2:-0.142043 3:1.825595 
-10 1:0.81365 2:-0.332104 3:1.764827 
-10 1:0.79091 2:-0.502114 3:1.654757 
-10 1:0.768515 2:-0.651363 3:1.513578 
-10 1:0.746722 2:-0.786076 3:1.357235 
-10 1:0.725493 2:-0.912923 3:1.197021 
-10 1:0.70489 2:-1.03026 3:1.031136 
-10 1:0.685811 2:-1.123135 3:0.849078 
-10 1:0.67023 2:-1.172726 3:0.653054 
-10 1:0.657452 2:-1.195656 3:0.46031 
-10 1:0.643523 2:-1.230055 3:0.267142 
-10 1:0.630191 2:-1.247799 3:0.054897 
-10 1:0.62673 2:-1.168627 3:-0.15125 
-10 1:0.630237 2:-1.037492 3:-0.323438 
-10 1:0.634419 2:-0.913949 3:-0.469561 
-10 1:0.632286 2:-0.852801 3:-0.618885 
-10 1:1.181242 2:-0.713687 3:-0.853596 
-10 1:1.188657 2:-0.506503 3:-0.731293 
-10 1:1.185417 2:-0.374249 3:-0.73299 
-10 1:1.175543 2:-0.24381 3:-0.801462 
-10 1:1.160974 2:-0.09478 3:-0.91259 
-10 1:1.146335 2:0.082525 3:-1.017844 
-10 1:1.136643 2:0.283389 3:-1.068144 
-10 1:1.130128 2:0.479731 3:-1.087718 
-10 1:1.123145 2:0.670479 3:-1.113261 
-10 1:1.116275 2:0.866899 3:-1.136359 
-10 1:1.111743 2:1.071653 3:-1.134138 
-10 1:1.11221 2:1.279072 3:-1.081287 
-10 1:1.118896 2:1.470823 3:-0.969859 
-10 1:1.131049 2:1.622035 3:-0.813163 
-10 1:1.147701 2:1.7095 3:-0.626274 
-10 1:1.167009 2:1.736357 3:-0.426882 
-10 1:1.187585 2:1.722548 3:-0.224253 
-10 1:1.208808 2:1.686921 3:-0.020231 
-10 1:1.230152 2:1.645327 3:0.183624 
-10 1:1.251248 2:1.611508 3:0.38681 
-10 1:1.272149 2:1.588499 3:0.590543 
-10 1:1.292929 2:1.56769 3:0.793582 
-10 1:1.313434 2:1.539639 3:0.992195 
-10 1:1.333546 2:1.493897 3:1.182753 
-10 1:1.353098 2:1.418583 3:1.360852 
-10 1:1.371515 2:1.302326 3:1.518081 
-10 1:1.387734 2:1.144308 3:1.643625 
-10 1:1.401397 2:0.959262 3:1.737322 
-10 1:1.412693 2:0.759851 3:1.804005 
-10 1:1.421753 2:0.556878 3:1.847491 
-10 1:1.428643 2:0.356879 3:1.869963 
-10 1:1.43342 2:0.159067 3:1.871795 
-10 1:1.436117 2:-0.037439 3:1.853129 
-10 1:1.436785 2:-0.233466 3:1.814279 
-10 1:1.435487 2:-0.430271 3:1.755581 
-10 1:1.432162 2:-0.626621 3:1.676718 
-10 1:1.426503 2:-0.814863 3:1.576384 
-7.946525148585281 1:1.418111 2:-0.985904 3:1.452702 
-10 1:1.391216 2:-1.233738 3:1.126083 
-10 1:1.372844 2:-1.287835 3:0.929734 
-10 1:1.35313 2:-1.304967 3:0.728548 
-10 1:1.333344 2:-1.304486 3:0.530733 
-10 1:1.314296 2:-1.30304 3:0.340516 
-10 1:1.295752 2:-1.305672 3:0.154403 
-10 1:1.27685 2:-1.305765 3:-0.034709 
-10 1:1.256898 2:-1.295624 3:-0.231943 
-10 1:1.235647 2:-1.262043 3:-0.436723 
9.811703684040694 1:1.214092 2:-1.179421 3:-0.633167 
10 1:1.196671 2:-1.039104 3:-0.774838 
-10 1:1.744705 2:-0.987823 3:-0.668926 
-10 1:1.769682 2:-0.813472 3:-0.703571 
-10 1:1.796206 2:-0.640111 3:-0.748752 
-10 1:1.82421 2:-0.474419 3:-0.808789 
-10 1:1.85337 2:-0.32419 3:-0.887163 
-10 1:1.883623 2:-0.195391 3:-0.987715 
-10 1:1.917004 2:-0.084119 3:-1.120609 
-3.926223949105895 1:2.024155 2:0.418538 3:-1.443716 
-10 1:2.04919 2:0.635212 3:-1.448632 
-10 1:2.067197 2:0.84942 3:-1.410663 
-10 1:2.075414 2:1.046915 3:-1.32239 
-10 1:2.06987 2:1.202255 3:-1.176694 
-10 1:2.052165 2:1.301209 3:-0.99386 
-10 1:2.03015 2:1.368805 3:-0.805948 
-10 1:2.007901 2:1.427292 3:-0.623029 
-10 1:1.984853 2:1.478324 3:-0.440339 
-10 1:1.960407 2:1.519042 3:-0.256099 
-10 1:1.93408 2:1.546215 3:-0.069548 
-10 1:1.905754 2:1.557402 3:0.11833 
-10 1:1.876152 2:1.556086 3:0.305421 
-10 1:1.846057 2:1.548173 3:0.490951 
-10 1:1.816065 2:1.539334 3:0.675173 
-10 1:1.785923 2:1.533362 3:0.86238 
-10 1:1.753511 2:1.51677 3:1.056455 
-5.328577319222112 1:1.716723 2:1.463698 3:1.252384 
-6.239232343618916 1:1.636151 2:1.214348 3:1.586816 
-10 1:1.599046 2:1.040378 3:1.698774 
-10 1:1.56778 2:0.850353 3:1.762219 
-10 1:1.542024 2:0.654249 3:1.786345 
-10 1:1.519992 2:0.456416 3:1.785587 
-10 1:1.499743 2:0.258228 3:1.773248 
-10 1:1.479581 2:0.057563 3:1.758602 
-10 1:1.461025 2:-0.143904 3:1.733179 
-10 1:1.447669 2:-0.338993 3:1.679261 
-10 1:1.444137 2:-0.513019 3:1.577924 
-10 1:1.452014 2:-0.649126 3:1.431089 
-10 1:1.465955 2:-0.757592 3:1.265397 
-10 1:1.480845 2:-0.858123 3:1.099317 
-10 1:1.493466 2:-0.967011 3:0.94171 
-10 1:1.505148 2:-1.081832 3:0.785845 
-10 1:1.518505 2:-1.190083 3:0.624009 
-10 1:1.536387 2:-1.276387 3:0.449044 
-10 1:1.560922 2:-1.322089 3:0.260697 
-10 1:1.58979 2:-1.332801 3:0.069715 
-10 1:1.621769 2:-1.341057 3:-0.139285 
-10 1:1.662298 2:-1.283143 3:-0.35553 
-10 1:1.702674 2:-1.108826 3:-0.488009 
-10 1:2.394955 2:-0.968416 3:-0.393598 
-10 1:2.396639 2:-0.795507 3:-0.481126 
-10 1:2.390132 2:-0.59229 3:-0.535417 
-10 1:2.381686 2:-0.393984 3:-0.576394 
-10 1:2.376769 2:-0.219457 3:-0.626865 
-10 1:2.379709 2:-0.083444 3:-0.704962 
-10 1:2.393041 2:0.024855 3:-0.830073 
-10 1:2.412447 2:0.134612 3:-0.990605 
-10 1:2.429535 2:0.264252 3:-1.14683 
-10 1:2.442927 2:0.398065 3:-1.283772 
-10 1:2.458673 2:0.513144 3:-1.425755 
-10 1:2.468452 2:1.081624 3:-1.737814 
-10 1:2.426225 2:1.261167 3:-1.576953 
-10 1:2.380742 2:1.369139 3:-1.365214 
-10 1:2.339091 2:1.443976 3:-1.160483 
-10 1:2.300969 2:1.497671 3:-0.966429 
-10 1:2.265279 2:1.535733 3:-0.77926 
-10 1:2.231187 2:1.563224 3:-0.596474 
-10 1:2.197731 2:1.585286 3:-0.414883 
-10 1:2.163804 2:1.605587 3:-0.229808 
-10 1:2.129195 2:1.620861 3:-0.038558 
-10 1:2.094266 2:1.62561 3:0.159259 
-10 1:2.059469 2:1.614116 3:0.363645 
-10 1:2.025575 2:1.579801 3:0.573137 
-10 1:1.995267 2:1.512715 3:0.776863 
-10 1:1.972352 2:1.400305 3:0.958682 
-10 1:1.960981 2:1.23856 3:1.096639 
-10 1:1.959965 2:1.046536 3:1.188953 
-10 1:1.965583 2:0.841406 3:1.249198 
-10 1:1.974542 2:0.636199 3:1.290345 
-10 1:1.9835 2:0.44595 3:1.324761 
-10 1:1.988117 2:0.280049 3:1.373063 
-10 1:1.985186 2:0.128337 3:1.458188 
-10 1:1.978743 2:-0.034716 3:1.568517 
-10 1:1.97768 2:-0.226752 3:1.661106 
-10 1:1.987727 2:-0.442986 3:1.700999 
-10 1:2.007602 2:-0.663496 3:1.686549 
-10 1:2.035738 2:-0.876155 3:1.621272 
-10 1:2.071096 2:-1.063969 3:1.503463 
-10 1:2.111394 2:-1.196917 3:1.33265 
-10 1:2.152083 2:-1.265694 3:1.130697 
-10 1:2.190749 2:-1.29249 3:0.921416 
-10 1:2.226781 2:-1.300166 3:0.7186 
-10 1:2.260257 2:-1.304949 3:0.529115 
-10 1:2.293156 2:-1.312206 3:0.34404 
-10 1:2.329299 2:-1.324737 3:0.142779 
-10 1:2.365703 2:-1.291563 3:-0.080573 
-10 1:2.384083 2:-1.14932 3:-0.249868 
-10 1:2.68427 2:0.01105 3:-1.071155 
-10 1:2.674799 2:0.220915 3:-1.08904 
-10 1:2.665252 2:0.404686 3:-1.125278 
-10 1:2.655125 2:0.582502 3:-1.174923 
-10 1:2.644249 2:0.767054 3:-1.232442 
-10 1:2.632561 2:0.969825 3:-1.291348 
-10 1:2.620111 2:1.201395 3:-1.343894 
-10 1:2.608906 2:1.446107 3:-1.367399 
-10 1:2.603166 2:1.672264 3:-1.313397 
-10 1:2.608943 2:1.803931 3:-1.132348 
-10 1:2.622112 2:1.824774 3:-0.902636 
-10 1:2.637675 2:1.8047 3:-0.660468 
-10 1:2.652671 2:1.786687 3:-0.426225 
-10 1:2.66594 2:1.785285 3:-0.209449 
-10 1:2.723204 2:1.526138 3:0.560252 
-10 1:2.738516 2:1.377957 3:0.714398 
-10 1:2.753418 2:1.23211 3:0.863318 
-10 1:2.767833 2:1.104423 3:1.016168 
-10 1:2.782338 2:0.989686 3:1.178968 
-10 1:2.797521 2:0.864612 3:1.346119 
-10 1:2.813236 2:0.710212 3:1.502797 
-10 1:2.828506 2:0.525109 3:1.632043 
-10 1:2.842107 2:0.316356 3:1.718415 
-10 1:2.852843 2:0.095387 3:1.749777 
-10 1:2.86076 2:-0.125293 3:1.735093 
-10 1:2.866598 2:-0.339542 3:1.690494 
-10 1:2.871109 2:-0.54423 3:1.630398 
-10 1:2.874792 2:-0.740096 3:1.562507 
-10 1:2.877649 2:-0.932207 3:1.483515 
-10 1:2.879562 2:-1.125537 3:1.388231 
-10 1:2.879636 2:-1.31408 3:1.265916 
-10 1:2.875862 2:-1.472016 3:1.100528 
-10 1:2.867007 2:-1.56795 3:0.892382 
-10 1:2.855177 2:-1.609629 3:0.670994 
-10 1:2.842502 2:-1.620481 3:0.455932 
-10 1:2.829301 2:-1.608635 3:0.247119 
-10 1:2.815286 2:-1.574089 3:0.039813 
-10 1:2.800234 2:-1.516791 3:-0.169599 
-10 1:2.78313 2:-1.429948 3:-0.393324 
-10 1:2.765309 2:-1.258152 3:-0.573142 
-10 1:2.754707 2:-1.011088 3:-0.585211 
-10 1:2.748653 2:-0.787911 3:-0.538315 
-10 1:2.742387 2:-0.588399 3:-0.510412 
-10 1:2.737499 2:-0.394046 3:-0.463261 
-10 1:2.732616 2:-0.284303 3:-0.47147 
-10 1:2.721778 2:-0.213962 3:-0.603204 
-10 1:2.705948 2:-0.149335 3:-0.820572 
-10 1:3.189194 2:0.121052 3:-1.069197 
-10 1:3.196177 2:0.329107 3:-1.083439 
-10 1:3.201748 2:0.517818 3:-1.108839 
-10 1:3.20677 2:0.703 3:-1.141038 
-10 1:3.211949 2:0.895535 3:-1.175211 
-10 1:3.218001 2:1.105917 3:-1.206133 
-10 1:3.225837 2:1.344738 3:-1.225416 
-10 1:3.237222 2:1.586876 3:-1.188724 
-10 1:3.253769 2:1.749343 3:-1.018414 
-10 1:3.269518 2:1.781516 3:-0.7807 
-10 1:3.283722 2:1.773366 3:-0.543363 
-10 1:3.297045 2:1.772031 3:-0.324644 
-10 1:3.309709 2:1.768608 3:-0.115417 
-10 1:3.338302 2:1.56889 3:0.475513 
-10 1:3.342544 2:1.415263 3:0.639743 
-10 1:3.343989 2:1.232285 3:0.776344 
-10 1:3.342669 2:1.031293 3:0.878848 
-10 1:3.339362 2:0.834553 3:0.946225 
-10 1:3.337332 2:0.667785 3:1.015997 
-10 1:3.338408 2:0.52668 3:1.120712 
-10 1:3.341698 2:0.392458 3:1.257381 
-10 1:3.346002 2:0.256602 3:1.411649 
-10 1:3.349919 2:0.109408 3:1.566596 
-10 1:3.351892 2:-0.059241 3:1.702974 
-10 1:3.350975 2:-0.251324 3:1.806583 
-10 1:3.347142 2:-0.46221 3:1.874087 
-10 1:3.340479 2:-0.688942 3:1.905111 
-10 1:3.331131 2:-0.926028 3:1.89859 
10 1:3.305327 2:-1.366655 3:1.748635 
1.723954019515432 1:3.289382 2:-1.52642 3:1.586488 
-10 1:3.258332 2:-1.641967 3:1.150019 
-10 1:3.244888 2:-1.639754 3:0.928783 
-10 1:3.2328 2:-1.620185 3:0.719001 
-10 1:3.221687 2:-1.588337 3:0.517589 
-10 1:3.211233 2:-1.548606 3:0.322092 
-10 1:3.201051 2:-1.503383 3:0.127642 
-10 1:3.190542 2:-1.451391 3:-0.076324 
-10 1:3.179888 2:-1.374965 3:-0.297747 
-10 1:3.176237 2:-1.207204 3:-0.461041 
-10 1:3.182178 2:-0.975976 3:-0.506635 
-10 1:3.191429 2:-0.743629 3:-0.49879 
-10 1:3.199499 2:-0.535108 3:-0.495553 
-10 1:3.204631 2:-0.356296 3:-0.522018 
-10 1:3.207371 2:-0.190885 3:-0.579322 
-10 1:3.206915 2:-0.037151 3:-0.681695 
-10 1:3.201495 2:0.069556 3:-0.836225 
-10 1:3.56966 2:-0.669229 3:-0.639819 
-10 1:3.595211 2:-0.468445 3:-0.622546 
-10 1:3.597514 2:-0.357577 3:-0.685231 
-10 1:3.587912 2:-0.258297 3:-0.812725 
-10 1:3.571679 2:-0.15672 3:-0.982372 
-10 1:3.570984 2:0.356746 3:-1.342192 
-10 1:3.588779 2:0.567374 3:-1.379184 
-10 1:3.61017 2:0.781398 3:-1.396531 
-10 1:3.640529 2:0.991573 3:-1.356353 
-10 1:3.678806 2:1.169531 3:-1.245424 
-10 1:3.718297 2:1.322732 3:-1.109921 
-10 1:3.758659 2:1.48121 3:-0.972746 
-10 1:3.801906 2:1.615407 3:-0.801105 
-10 1:3.841355 2:1.648904 3:-0.582968 
-10 1:3.872461 2:1.614411 3:-0.368785 
-10 1:3.900594 2:1.576094 3:-0.170147 
-10 1:3.928199 2:1.543093 3:0.02158 
-10 1:3.95526 2:1.508562 3:0.211043 
-10 1:3.981193 2:1.466077 3:0.399113 
-10 1:4.005327 2:1.409 3:0.586278 
-10 1:4.026862 2:1.330943 3:0.772074 
-10 1:4.044577 2:1.228472 3:0.951409 
-10 1:4.056942 2:1.100781 3:1.115479 
-10 1:4.063375 2:0.950726 3:1.258744 
-10 1:4.064421 2:0.783468 3:1.380964 
-10 1:4.060721 2:0.602885 3:1.483382 
-10 1:4.052421 2:0.411206 3:1.565342 
-10 1:4.038743 2:0.210192 3:1.620866 
-10 1:4.01906 2:0.005323 3:1.642318 
-10 1:3.995055 2:-0.194318 3:1.633713 
-10 1:3.970664 2:-0.385516 3:1.616902 
-10 1:3.947775 2:-0.579249 3:1.611035 
-10 1:3.921523 2:-0.78807 3:1.595039 
-10 1:3.884257 2:-0.994481 3:1.509995 
-10 1:3.839729 2:-1.162165 3:1.353711 
-10 1:3.795239 2:-1.272501 3:1.157945 
-10 1:3.756949 2:-1.314915 3:0.953072 
-10 1:3.724733 2:-1.317509 3:0.757782 
-10 1:3.693917 2:-1.321442 3:0.571984 
-10 1:3.658373 2:-1.36002 3:0.381255 
-10 1:3.616632 2:-1.433309 3:0.176653 
-10 1:3.572889 2:-1.513557 3:-0.035383 
-10 1:3.531761 2:-1.568397 3:-0.249008 
-10 1:3.498064 2:-1.554699 3:-0.464642 
-10 1:3.545751 2:-0.962291 3:-0.583145 
-10 1:3.57669 2:-0.795316 3:-0.509499 
-10 1:4.364456 2:-0.1829 3:-0.901396 
-10 1:4.36218 2:-0.02229 3:-0.890968 
-10 1:4.375174 2:0.11008 3:-1.000608 
-10 1:4.398212 2:0.261456 3:-1.19102 
-10 1:4.422085 2:0.431117 3:-1.38895 
-10 1:4.436204 2:0.650163 3:-1.511673 
-10 1:4.431091 2:0.877531 3:-1.48186 
-10 1:4.427429 2:1.090145 3:-1.462888 
-10 1:4.42318 2:1.323723 3:-1.44025 
-10 1:4.397729 2:1.49183 3:-1.245888 
-10 1:4.367204 2:1.586505 3:-1.007676 
-10 1:4.338797 2:1.660883 3:-0.785343 
-10 1:4.311316 2:1.713803 3:-0.569346 
-10 1:4.283854 2:1.732429 3:-0.35186 
-10 1:4.256133 2:1.702332 3:-0.129994 
-10 1:4.228827 2:1.612757 3:0.091413 
-10 1:4.206004 2:1.460946 3:0.280139 
-10 1:4.192934 2:1.255772 3:0.393859 
-10 1:4.188357 2:1.029062 3:0.441068 
-10 1:4.187707 2:0.802367 3:0.45705 
-10 1:4.186793 2:0.617621 3:0.473134 
-10 1:4.178066 2:0.544814 3:0.546003 
-10 1:4.155799 2:0.525707 3:0.723981 
-10 1:4.125437 2:0.551706 3:0.964167 
-10 1:4.094952 2:0.592783 3:1.20462 
-10 1:4.065752 2:0.616045 3:1.435699 
-10 1:4.037721 2:0.582108 3:1.660219 
10 1:3.998072 2:0.239832 3:1.991824 
-0.5518150941739025 1:3.998757 2:-0.233792 3:2.00898 
-10 1:4.007846 2:-0.461017 3:1.947548 
-10 1:4.01888 2:-0.674492 3:1.869998 
-10 1:4.032813 2:-0.874305 3:1.768734 
-10 1:4.052195 2:-1.051891 3:1.623087 
-10 1:4.076171 2:-1.196383 3:1.439335 
-10 1:4.103081 2:-1.303348 3:1.230454 
-10 1:4.131471 2:-1.368876 3:1.007833 
-10 1:4.159499 2:-1.391 3:0.786015 
-10 1:4.18619 2:-1.388733 3:0.573668 
-10 1:4.212159 2:-1.388019 3:0.367131 
-10 1:4.238444 2:-1.395503 3:0.158479 
-10 1:4.26494 2:-1.396526 3:-0.052161 
-10 1:4.291712 2:-1.379216 3:-0.265873 
-10 1:4.324487 2:-1.310592 3:-0.529768 
-10 1:4.332856 2:-1.034802 3:-0.609472 
-10 1:4.321958 2:-0.818384 3:-0.533139 
-10 1:4.317413 2:-0.649278 3:-0.505074 
-10 1:4.322937 2:-0.478703 3:-0.557136 
-10 1:4.338107 2:-0.326487 3:-0.685025 
-10 1:4.817514 2:-0.450664 3:-0.799628 
-10 1:4.809339 2:-0.241872 3:-0.748264 
-10 1:4.807445 2:-0.084761 3:-0.768415 
-10 1:4.809366 2:0.060025 3:-0.837629 
-10 1:4.813974 2:0.20435 3:-0.943827 
-10 1:4.819822 2:0.354556 3:-1.068864 
-10 1:4.825104 2:0.518093 3:-1.190032 
-10 1:4.828462 2:0.700969 3:-1.290308 
-10 1:4.829245 2:0.908627 3:-1.362338 
-10 1:4.826403 2:1.139852 3:-1.391247 
-10 1:4.817531 2:1.369963 3:-1.336541 
-10 1:4.801978 2:1.543528 3:-1.172898 
-10 1:4.784579 2:1.636406 3:-0.959964 
-10 1:4.768096 2:1.661657 3:-0.739748 
-10 1:4.752956 2:1.638341 3:-0.523777 
-10 1:4.739381 2:1.584042 3:-0.320268 
-10 1:4.727423 2:1.517253 3:-0.135425 
-10 1:4.715851 2:1.460215 3:0.041212 
-10 1:4.702953 2:1.425763 3:0.229514 
-10 1:4.688728 2:1.40426 3:0.432318 
-10 1:4.6741 2:1.381344 3:0.641116 
-10 1:4.660058 2:1.34085 3:0.84699 
-10 1:4.647668 2:1.263482 3:1.040919 
-10 1:4.638569 2:1.131078 3:1.205621 
-10 1:4.633743 2:0.951008 3:1.325363 
-10 1:4.631883 2:0.752742 3:1.409494 
-10 1:4.631586 2:0.554778 3:1.471954 
-10 1:4.63269 2:0.35846 3:1.514568 
-10 1:4.634756 2:0.169154 3:1.541833 
-10 1:4.635117 2:-0.004976 3:1.588182 
-10 1:4.63251 2:-0.180218 3:1.67585 
-10 1:4.630434 2:-0.376207 3:1.762286 
-10 1:4.634432 2:-0.595442 3:1.771698 
-10 1:4.64549 2:-0.800788 3:1.679497 
-10 1:4.659971 2:-0.976625 3:1.53133 
-10 1:4.675486 2:-1.126575 3:1.361243 
-10 1:4.690362 2:-1.251125 3:1.192495 
-10 1:4.704796 2:-1.355588 3:1.023931 
-10 1:4.71939 2:-1.445671 3:0.848916 
-10 1:4.734408 2:-1.52249 3:0.664151 
-10 1:4.7498 2:-1.583139 3:0.46943 
-10 1:4.765469 2:-1.624311 3:0.265154 
-10 1:4.781361 2:-1.642688 3:0.051087 
-10 1:4.797255 2:-1.630511 3:-0.172032 
-10 1:4.811571 2:-1.563281 3:-0.389573 
-10 1:4.824387 2:-1.200993 3:-0.673375 
-10 1:4.821121 2:-0.976421 3:-0.694473 
-10 1:4.813896 2:-0.761862 3:-0.657923 
-10 1:4.809871 2:-0.577142 3:-0.656789 
-10 1:5.276203 2:-0.424064 3:-0.727649 
-10 1:5.304328 2:-0.136912 3:-0.590789 
-10 1:5.330472 2:0.018724 3:-0.601188 
-10 1:5.360036 2:0.125673 3:-0.698319 
-10 1:5.397695 2:0.218268 3:-0.876002 
-10 1:5.439223 2:0.30129 3:-1.095538 
-10 1:5.482304 2:0.395738 3:-1.312996 
-5.259683123858744 1:5.52789 2:0.541051 3:-1.486993 
-10 1:5.570143 2:0.759846 3:-1.544278 
-10 1:5.598936 2:0.989192 3:-1.484088 
-10 1:5.616069 2:1.197436 3:-1.359522 
-10 1:5.622225 2:1.362688 3:-1.202946 
-10 1:5.618969 2:1.482496 3:-1.029542 
-10 1:5.609269 2:1.569809 3:-0.846328 
-10 1:5.594887 2:1.633962 3:-0.655416 
-10 1:5.576461 2:1.67802 3:-0.457983 
-10 1:5.554608 2:1.704188 3:-0.256084 
-10 1:5.529919 2:1.714579 3:-0.051684 
-10 1:5.50296 2:1.711217 3:0.153315 
-10 1:5.474286 2:1.696053 3:0.357034 
-10 1:5.444331 2:1.670846 3:0.558269 
-10 1:5.412886 2:1.634136 3:0.756843 
-10 1:5.301323 2:1.385292 3:1.314706 
-10 1:5.25852 2:1.242925 3:1.470763 
-10 1:5.215287 2:1.07655 3:1.600462 
-10 1:5.173388 2:0.891413 3:1.696618 
-10 1:5.1349 2:0.695568 3:1.753061 
-10 1:5.100001 2:0.49653 3:1.777717 
-10 1:5.067397 2:0.297384 3:1.784429 
-10 1:5.035408 2:0.098142 3:1.786256 
-10 1:5.002566 2:-0.104211 3:1.790855 
-10 1:4.970115 2:-0.309252 3:1.789095 
-10 1:4.940566 2:-0.512618 3:1.766891 
-10 1:4.917003 2:-0.707859 3:1.708287 
-10 1:4.902749 2:-0.882897 3:1.602446 
-10 1:4.897786 2:-1.03107 3:1.457736 
-10 1:4.900405 2:-1.154261 3:1.28509 
-10 1:4.908978 2:-1.255915 3:1.092883 
-10 1:4.922093 2:-1.33887 3:0.888561 
-10 1:4.93847 2:-1.405399 3:0.679236 
-10 1:4.957372 2:-1.45763 3:0.467997 
-10 1:4.981988 2:-1.479079 3:0.250502 
-10 1:5.018494 2:-1.425807 3:0.033138 
-10 1:5.064702 2:-1.284833 3:-0.151051 
-10 1:5.110402 2:-1.092628 3:-0.267956 
-10 1:5.145764 2:-0.918931 3:-0.327537 
-10 1:5.180624 2:-0.794578 3:-0.444233 
-10 1:5.220319 2:-0.641133 3:-0.562476 
-10 1:5.742932 2:-0.594567 3:-0.861148 
-10 1:5.703434 2:-0.410595 3:-0.942927 
-10 1:5.665589 2:-0.205155 3:-0.981932 
-10 1:5.631278 2:-0.003467 3:-0.996478 
-10 1:5.599063 2:0.186358 3:-1.009518 
-10 1:5.567935 2:0.356324 3:-1.040266 
-10 1:5.534004 2:0.515796 3:-1.108587 
-10 1:5.493322 2:0.706369 3:-1.191353 
-10 1:5.450497 2:0.941176 3:-1.232341 
-10 1:5.412821 2:1.184442 3:-1.218907 
-10 1:5.385458 2:1.409113 3:-1.14441 
-10 1:5.375649 2:1.581842 3:-0.993329 
-10 1:5.389716 2:1.65314 3:-0.779632 
-10 1:5.416906 2:1.649855 3:-0.556916 
-10 1:5.446096 2:1.623899 3:-0.348085 
-10 1:5.473664 2:1.596541 3:-0.154685 
-10 1:5.499952 2:1.571354 3:0.030941 
-10 1:5.525042 2:1.551551 3:0.213831 
-10 1:5.549254 2:1.540056 3:0.40059 
-10 1:5.573541 2:1.534405 3:0.595854 
-10 1:5.599294 2:1.524244 3:0.797292 
-10 1:5.627874 2:1.49783 3:1.000413 
-10 1:5.660762 2:1.442294 3:1.200233 
-10 1:5.698964 2:1.345275 3:1.388486 
-10 1:5.741184 2:1.205999 3:1.553299 
-10 1:5.784226 2:1.036152 3:1.683739 
-10 1:5.8249 2:0.847839 3:1.769485 
-10 1:5.861469 2:0.652398 3:1.811327 
-10 1:5.89499 2:0.454977 3:1.825023 
-10 1:5.927441 2:0.25566 3:1.827234 
-10 1:5.961071 2:0.051618 3:1.832911 
-10 1:5.997358 2:-0.161375 3:1.848714 
-10 1:6.033343 2:-0.377339 3:1.857989 
-10 1:6.064582 2:-0.586765 3:1.836428 
-10 1:6.084975 2:-0.775536 3:1.752129 
-10 1:6.088085 2:-0.910814 3:1.595614 
-10 1:6.080195 2:-1.001959 3:1.40674 
-10 1:6.06966 2:-1.081456 3:1.211492 
-10 1:6.062461 2:-1.174837 3:1.025375 
-10 1:6.059018 2:-1.285439 3:0.8474 
-10 1:6.055931 2:-1.397539 3:0.670385 
-10 1:6.049377 2:-1.491723 3:0.488574 
-10 1:6.034611 2:-1.544331 3:0.294254 
-10 1:6.007909 2:-1.52782 3:0.093458 
-10 1:5.972645 2:-1.450759 3:-0.097177 
-10 1:5.933643 2:-1.343846 3:-0.278765 
-10 1:5.891932 2:-1.224052 3:-0.465611 
-10 1:5.845742 2:-1.059291 3:-0.62921 
-10 1:5.808897 2:-0.850195 3:-0.654931 
-10 1:5.774781 2:-0.673924 3:-0.702133 
-10 1:6.418935 2:-0.640644 3:-0.85088 
-10 1:6.393038 2:-0.427741 3:-0.770366 
-10 1:6.382594 2:-0.273936 3:-0.767463 
-10 1:6.380931 2:-0.140461 3:-0.814436 
-10 1:6.385281 2:-0.00733 3:-0.901462 
-10 1:6.393017 2:0.133945 3:-1.014681 
-10 1:6.40055 2:0.292466 3:-1.134046 
-10 1:6.403628 2:0.477998 3:-1.235381 
-10 1:6.399258 2:0.687602 3:-1.297376 
-10 1:6.386346 2:0.906488 3:-1.306299 
-10 1:6.363931 2:1.11727 3:-1.248141 
-10 1:6.333462 2:1.29599 3:-1.122171 
-10 1:6.299504 2:1.426402 3:-0.951846 
-10 1:6.265566 2:1.505082 3:-0.759135 
-10 1:6.233206 2:1.543292 3:-0.559367 
-10 1:6.203055 2:1.554147 3:-0.362468 
-10 1:6.175002 2:1.546585 3:-0.171581 
-10 1:6.148434 2:1.525723 3:0.015167 
-10 1:6.122814 2:1.496301 3:0.199301 
-10 1:6.097597 2:1.462878 3:0.382475 
-10 1:6.072243 2:1.429814 3:0.566417 
-10 1:6.046009 2:1.401078 3:0.754357 
-10 1:6.018501 2:1.374749 3:0.949762 
-10 1:5.991673 2:1.333972 3:1.146917 
-10 1:5.968646 2:1.25674 3:1.334516 
-10 1:5.953585 2:1.126389 3:1.491965 
-10 1:5.94696 2:0.956353 3:1.610267 
-10 1:5.946221 2:0.765193 3:1.698406 
-10 1:5.949005 2:0.564667 3:1.767061 
-10 1:5.954189 2:0.360893 3:1.821087 
-10 1:5.962259 2:0.155379 3:1.856562 
-10 1:5.97391 2:-0.049027 3:1.867611 
-10 1:5.989914 2:-0.249023 3:1.84763 
-10 1:6.011014 2:-0.439813 3:1.789569 
-10 1:6.037166 2:-0.612983 3:1.69005 
-10 1:6.06663 2:-0.764767 3:1.559077 
-10 1:6.097631 2:-0.89802 3:1.409762 
-10 1:6.128858 2:-1.016793 3:1.252633 
-10 1:6.159731 2:-1.124182 3:1.092919 
-10 1:6.190559 2:-1.220804 3:0.928814 
-10 1:6.221527 2:-1.30612 3:0.758854 
-10 1:6.252833 2:-1.379596 3:0.581487 
-10 1:6.284684 2:-1.439459 3:0.394544 
-10 1:6.316583 2:-1.4776 3:0.197826 
-10 1:6.347579 2:-1.483262 3:-0.006986 
-10 1:6.376596 2:-1.444556 3:-0.217872 
-10 1:6.400284 2:-1.342166 3:-0.420846 
-10 1:6.408686 2:-1.161608 3:-0.555609 
-10 1:6.405117 2:-0.964228 3:-0.617649 
-10 1:6.405287 2:-0.802465 3:-0.689189 
-10 1:6.854978 2:-1.218446 3:-0.275412 
-10 1:6.82364 2:-1.189414 3:-0.499189 
-10 1:6.789902 2:-1.120508 3:-0.70568 
-10 1:6.755722 2:-1.017213 3:-0.884267 
-10 1:6.721855 2:-0.885114 3:-1.034011 
9.962263131591943 1:6.657663 2:-0.557686 3:-1.247412 
9.81538073316193 1:6.628352 2:-0.373011 3:-1.312705 
-10 1:6.577395 2:0.014818 3:-1.365172 
-10 1:6.556565 2:0.209322 3:-1.35373 
-10 1:6.539414 2:0.398576 3:-1.317701 
-10 1:6.526523 2:0.576644 3:-1.257882 
-10 1:6.517315 2:0.740229 3:-1.181872 
-10 1:6.508262 2:0.903439 3:-1.104977 
-10 1:6.496319 2:1.085787 3:-1.033662 
-10 1:6.48417 2:1.275308 3:-0.957445 
-10 1:6.47682 2:1.447832 3:-0.858426 
-10 1:6.481557 2:1.569741 3:-0.709136 
-10 1:6.502049 2:1.596614 3:-0.520885 
-10 1:6.530477 2:1.555832 3:-0.331093 
-10 1:6.56264 2:1.484507 3:-0.139393 
-10 1:6.595492 2:1.407608 3:0.05272 
-10 1:6.626172 2:1.346056 3:0.241503 
-10 1:6.654318 2:1.303417 3:0.427343 
-10 1:6.681212 2:1.268853 3:0.610567 
-10 1:6.707788 2:1.23126 3:0.78848 
-10 1:6.735128 2:1.178072 3:0.958235 
-10 1:6.764211 2:1.095204 3:1.114786 
-10 1:6.794697 2:0.973995 3:1.247482 
-10 1:6.825146 2:0.822154 3:1.351882 
-10 1:6.854992 2:0.648782 3:1.431784 
-10 1:6.884086 2:0.460186 3:1.491757 
-10 1:6.912232 2:0.262088 3:1.53547 
-10 1:6.939168 2:0.060136 3:1.565992 
-10 1:6.964675 2:-0.141071 3:1.585782 
-10 1:6.988344 2:-0.339737 3:1.593219 
-10 1:7.009471 2:-0.534598 3:1.583831 
-10 1:7.027211 2:-0.723686 3:1.552663 
-10 1:7.040609 2:-0.904476 3:1.494396 
-10 1:7.048586 2:-1.073051 3:1.403998 
-10 1:7.050292 2:-1.223728 3:1.279872 
-10 1:7.045951 2:-1.351891 3:1.128024 
-10 1:7.036068 2:-1.454775 3:0.955018 
-10 1:7.021046 2:-1.529574 3:0.766649 
-10 1:7.001205 2:-1.572959 3:0.568496 
-10 1:6.976802 2:-1.581022 3:0.366208 
-10 1:6.948099 2:-1.549299 3:0.165934 
-10 1:6.915473 2:-1.473183 3:-0.025086 
-10 1:6.881697 2:-1.356927 3:-0.188587 
-10 1:7.200214 2:-0.855352 3:-0.984333 
-10 1:7.226542 2:-0.652596 3:-0.951551 
-10 1:7.249079 2:-0.474366 3:-0.914364 
-10 1:7.272128 2:-0.311078 3:-0.913448 
-10 1:7.299339 2:-0.139803 3:-0.954379 
-10 1:7.329895 2:0.048688 3:-1.007831 
-10 1:7.361073 2:0.252059 3:-1.040812 
-10 1:7.388629 2:0.45817 3:-1.018414 
-10 1:7.410761 2:0.645941 3:-0.956986 
-10 1:7.432316 2:0.822935 3:-0.90866 
-10 1:7.455818 2:1.009858 3:-0.8678 
-10 1:7.478741 2:1.208047 3:-0.796937 
-10 1:7.496223 2:1.393872 3:-0.675113 
-10 1:7.502692 2:1.528264 3:-0.501766 
-10 1:7.497306 2:1.593354 3:-0.300212 
-10 1:7.487441 2:1.628611 3:-0.095112 
-10 1:7.477178 2:1.662984 3:0.113752 
-10 1:7.465721 2:1.691379 3:0.327418 
-3.235741411452087 1:7.45198 2:1.703391 3:0.540592 
10 1:7.412323 2:1.629198 3:0.943083 
10 1:7.383903 2:1.51556 3:1.113344 
-10 1:7.317342 2:1.15758 3:1.332625 
-10 1:7.28525 2:0.959586 3:1.38873 
-10 1:7.255454 2:0.764907 3:1.41961 
-10 1:7.227293 2:0.574407 3:1.436076 
-10 1:7.200024 2:0.388145 3:1.448523 
-10 1:7.173078 2:0.207215 3:1.46692 
-10 1:7.146219 2:0.035007 3:1.501165 
-10 1:7.118843 2:-0.12762 3:1.561281 
-10 1:7.089028 2:-0.289715 3:1.65609 
-10 1:7.056512 2:-0.467727 3:1.757101 
10 1:6.996226 2:-0.893011 3:1.758215 
10 1:6.977561 2:-1.087318 3:1.636158 
-5.566157250270739 1:6.964286 2:-1.361115 3:1.284331 
-10 1:6.969432 2:-1.423611 3:1.091143 
-10 1:6.980328 2:-1.446039 3:0.896892 
-10 1:6.994828 2:-1.442733 3:0.703168 
-10 1:7.011082 2:-1.427302 3:0.508937 
-10 1:7.027482 2:-1.411907 3:0.312602 
-10 1:7.042588 2:-1.407652 3:0.112374 
-10 1:7.055408 2:-1.42442 3:-0.097374 
-10 1:7.067107 2:-1.453266 3:-0.31526 
-10 1:7.080724 2:-1.467248 3:-0.530586 
9.923303771452606 1:7.100831 2:-1.429776 3:-0.734933 
10 1:7.127047 2:-1.316756 3:-0.875981 
-10 1:7.667261 2:-0.196717 3:-1.03803 
-10 1:7.63422 2:-0.025986 3:-1.17176 
-10 1:7.604289 2:0.180418 3:-1.234631 
-10 1:7.579407 2:0.377687 3:-1.257968 
-10 1:7.556474 2:0.553972 3:-1.285703 
-10 1:7.5312 2:0.719399 3:-1.348776 
-10 1:7.501961 2:0.910337 3:-1.422238 
-10 1:7.472677 2:1.15043 3:-1.440778 
-10 1:7.475513 2:1.434604 3:-1.09271 
-10 1:7.494707 2:1.453651 3:-0.881852 
-10 1:7.507 2:1.506192 3:-0.701362 
-10 1:7.516974 2:1.57697 3:-0.523219 
-10 1:7.529221 2:1.637523 3:-0.334164 
-10 1:7.547786 2:1.652862 3:-0.133698 
-10 1:7.570699 2:1.629058 3:0.0656 
-10 1:7.594365 2:1.605098 3:0.272142 
-10 1:7.619073 2:1.58372 3:0.491874 
-10 1:7.64675 2:1.533971 3:0.708955 
-10 1:7.679167 2:1.414665 3:0.894456 
-10 1:7.708598 2:1.241527 3:0.989859 
-10 1:7.732128 2:1.126904 3:1.092939 
-10 1:7.75855 2:1.04052 3:1.256372 
-10 1:7.790082 2:0.921852 3:1.433857 
-10 1:7.823227 2:0.754363 3:1.572274 
-10 1:7.854884 2:0.560869 3:1.666716 
-10 1:7.884331 2:0.356851 3:1.727496 
-10 1:7.910919 2:0.156407 3:1.764086 
-10 1:7.935065 2:-0.031402 3:1.79082 
-10 1:7.959724 2:-0.215674 3:1.826589 
-10 1:7.98554 2:-0.411371 3:1.860911 
-1.691305962606128 1:8.031348 2:-0.844883 3:1.824644 
-10 1:8.043616 2:-1.044696 3:1.720643 
-10 1:8.043031 2:-1.187979 3:1.553479 
-10 1:8.031899 2:-1.269834 3:1.351432 
-10 1:8.015287 2:-1.312623 3:1.139315 
-10 1:7.997167 2:-1.337192 3:0.932838 
-10 1:7.979813 2:-1.357191 3:0.739066 
-10 1:7.961944 2:-1.372725 3:0.545246 
-10 1:7.941603 2:-1.376277 3:0.340524 
-10 1:7.917113 2:-1.346255 3:0.132674 
-10 1:7.890486 2:-1.277065 3:-0.052142 
-10 1:7.865519 2:-1.222829 3:-0.237421 
-10 1:7.83686 2:-1.143345 3:-0.430701 
-10 1:7.803024 2:-0.997576 3:-0.600399 
-10 1:7.769293 2:-0.805643 3:-0.717063 
-10 1:7.74348 2:-0.597364 3:-0.737182 
-10 1:7.722696 2:-0.445764 3:-0.771519 
-10 1:7.696509 2:-0.320874 3:-0.889257 
-10 1:8.344663 2:0.05732 3:-1.066056 
-10 1:8.329029 2:0.248019 3:-1.107716 
-10 1:8.312744 2:0.443707 3:-1.147894 
-10 1:8.294842 2:0.645464 3:-1.177538 
-10 1:8.274427 2:0.852857 3:-1.186657 
-10 1:8.250581 2:1.065046 3:-1.164622 
-10 1:8.222846 2:1.275774 3:-1.099763 
-10 1:8.192157 2:1.464066 3:-0.979178 
-10 1:8.161339 2:1.603923 3:-0.804539 
-10 1:8.133737 2:1.69056 3:-0.606117 
-10 1:8.109978 2:1.733941 3:-0.401387 
-10 1:8.089079 2:1.748414 3:-0.195533 
-10 1:8.069933 2:1.747658 3:0.008291 
-10 1:8.051364 2:1.744098 3:0.209046 
-10 1:8.032615 2:1.742338 3:0.409757 
-10 1:8.014623 2:1.73068 3:0.613203 
-10 1:7.999082 2:1.694122 3:0.817753 
-10 1:7.987917 2:1.619718 3:1.01706 
-10 1:7.981814 2:1.508726 3:1.202495 
-10 1:7.980652 2:1.367469 3:1.368468 
-10 1:7.9843 2:1.20135 3:1.510476 
-8.243214267200973 1:7.992677 2:1.01574 3:1.623541 
-10 1:8.005518 2:0.816415 3:1.704205 
-10 1:8.022333 2:0.608894 3:1.75164 
-10 1:8.042576 2:0.398968 3:1.765337 
-10 1:8.065201 2:0.193915 3:1.74849 
-10 1:8.088551 2:-0.003167 3:1.715275 
-10 1:8.111245 2:-0.192863 3:1.680987 
-10 1:8.132506 2:-0.379503 3:1.658569 
-10 1:8.153289 2:-0.571172 3:1.646694 
-10 1:8.175501 2:-0.772327 3:1.629975 
-10 1:8.20042 2:-0.980514 3:1.592212 
-10 1:8.228216 2:-1.184022 3:1.51885 
-10 1:8.258383 2:-1.365432 3:1.396314 
-10 1:8.288904 2:-1.507357 3:1.227071 
-10 1:8.317427 2:-1.605289 3:1.031165 
-10 1:8.342517 2:-1.659866 3:0.824506 
-10 1:8.364068 2:-1.676618 3:0.614222 
-10 1:8.382493 2:-1.66299 3:0.404035 
-10 1:8.398291 2:-1.626226 3:0.196549 
-10 1:8.412101 2:-1.572227 3:-0.008614 
-10 1:8.423104 2:-1.492454 3:-0.212053 
-10 1:8.415933 2:-1.147752 3:-0.510953 
-10 1:8.396542 2:-0.927878 3:-0.544509 
-10 1:8.376865 2:-0.737566 3:-0.542881 
-10 1:8.364057 2:-0.575134 3:-0.583762 
-10 1:8.356577 2:-0.422299 3:-0.670694 
-10 1:8.352404 2:-0.274973 3:-0.786693 
-10 1:8.348283 2:-0.122662 3:-0.908666 
