svm_type epsilon_svr
kernel_type rbf
gamma 0.1
nr_class 2
total_sv 10386
rho 6.29355
SV
-10 1:0.7756 2:-0.32505 3:-0.802046 
-10 1:0.743798 2:-0.13237 3:-0.787672 
-10 1:0.711521 2:0.054133 3:-0.815183 
-10 1:0.679132 2:0.235222 3:-0.871004 
-4.714227546874214 1:0.646991 2:0.41166 3:-0.94156 
10 1:0.583192 2:0.763314 3:-1.074966 
10 1:0.549702 2:0.954522 3:-1.114241 
10 1:0.515495 2:1.15745 3:-1.118904 
10 1:0.486168 2:1.341922 3:-1.074047 
10 1:0.467763 2:1.474913 3:-0.965827 
10 1:0.460783 2:1.552061 3:-0.800542 
6.475012262949404 1:0.461756 2:1.589598 3:-0.598961 
-10 1:0.4735 2:1.611712 3:-0.170463 
9.945770193602391 1:0.565048 2:1.295554 3:0.897517 
10 1:0.809636 2:0.019127 3:1.742603 
10 1:0.843183 2:-0.163134 3:1.825052 
10 1:0.8757 2:-0.345484 3:1.878569 
10 1:0.906146 2:-0.525548 3:1.885258 
10 1:0.933542 2:-0.700487 3:1.831227 
10 1:0.957304 2:-0.864748 3:1.726095 
10 1:0.97699 2:-1.011788 3:1.588022 
10 1:0.992228 2:-1.136257 3:1.431623 
10 1:1.002842 2:-1.236015 3:1.261923 
10 1:1.008685 2:-1.309457 3:1.082355 
-5.221311083849525 1:1.005548 2:-1.371412 3:0.707197 
-10 1:0.997187 2:-1.36254 3:0.51663 
-10 1:0.985701 2:-1.335172 3:0.32542 
-10 1:0.972267 2:-1.29617 3:0.134324 
-10 1:0.958063 2:-1.252391 3:-0.055901 
-10 1:0.943038 2:-1.202927 3:-0.242475 
-10 1:0.923311 2:-1.122702 3:-0.416325 
-0.3576635655208433 1:0.895211 2:-0.986798 3:-0.563371 
-10 1:0.862749 2:-0.80951 3:-0.638891 
-10 1:0.832757 2:-0.623301 3:-0.604419 
-10 1:0.804942 2:-0.454188 3:-0.589079 
-10 1:1.396563 2:0.107538 3:-0.892033 
-10 1:1.400912 2:0.263818 3:-0.853599 
-10 1:1.413763 2:0.44991 3:-0.856919 
-10 1:1.430295 2:0.650721 3:-0.877544 
-10 1:1.420172 2:1.399453 3:-0.49536 
-10 1:1.395149 2:1.466026 3:-0.307055 
-10 1:1.36889 2:1.512984 3:-0.119152 
-10 1:1.222827 2:1.259576 3:0.707836 
-10 1:1.192998 2:1.124878 3:0.841556 
-10 1:1.164574 2:0.982831 3:0.963175 
-10 1:1.13767 2:0.839259 3:1.074424 
-10 1:1.111489 2:0.694117 3:1.180384 
-10 1:1.085159 2:0.546886 3:1.286407 
-10 1:1.057814 2:0.39705 3:1.39782 
-10 1:1.029488 2:0.243914 3:1.51411 
-10 1:1.002333 2:0.086371 3:1.621041 
-10 1:0.978804 2:-0.076745 3:1.702412 
-3.257150973813379 1:0.949451 2:-0.600139 3:1.668303 
-10 1:0.952765 2:-0.770619 3:1.574825 
-10 1:0.960339 2:-0.927241 3:1.459969 
-10 1:0.971342 2:-1.065996 3:1.330758 
10 1:1.070237 2:-1.469619 3:0.52697 
10 1:1.097131 2:-1.492515 3:0.345211 
10 1:1.125721 2:-1.498383 3:0.159821 
10 1:1.155703 2:-1.488443 3:-0.027772 
10 1:1.18675 2:-1.46358 3:-0.215853 
10 1:1.218273 2:-1.420784 3:-0.39937 
10 1:1.24951 2:-1.354537 3:-0.571121 
10 1:1.279699 2:-1.259281 3:-0.723869 
10 1:1.30805 2:-1.130097 3:-0.850473 
10 1:1.333346 2:-0.971987 3:-0.945273 
10 1:1.354097 2:-0.797525 3:-1.004062 
10 1:1.369926 2:-0.615052 3:-1.027968 
10 1:1.381444 2:-0.429006 3:-1.022774 
10 1:1.389293 2:-0.24369 3:-0.994425 
-10 1:1.84689 2:0.385364 3:-0.734222 
-10 1:1.85846 2:0.582598 3:-0.855084 
-10 1:1.827963 2:1.11004 3:-0.766362 
-10 1:1.803753 2:1.247906 3:-0.634296 
-10 1:1.776367 2:1.358535 3:-0.474955 
-10 1:1.748033 2:1.437286 3:-0.302259 
-5.903309248340262 1:1.719731 2:1.484524 3:-0.122862 
10 1:1.634796 2:1.481054 3:0.447385 
10 1:1.606464 2:1.4457 3:0.645107 
10 1:1.579179 2:1.394509 3:0.839291 
10 1:1.554413 2:1.323616 3:1.020902 
10 1:1.533645 2:1.22914 3:1.180889 
10 1:1.51835 2:1.107201 3:1.310202 
10 1:1.509457 2:0.955788 3:1.403064 
10 1:1.505533 2:0.780919 3:1.46775 
10 1:1.504517 2:0.590762 3:1.5163 
-10 1:1.503597 2:0.195972 3:1.609115 
-10 1:1.503091 2:0.000637 3:1.655375 
-10 1:1.504132 2:-0.191076 3:1.690472 
-10 1:1.508023 2:-0.377722 3:1.705346 
-10 1:1.516068 2:-0.557857 3:1.690939 
-10 1:1.529559 2:-0.730022 3:1.638271 
-10 1:1.548801 2:-0.891577 3:1.54471 
-10 1:1.57242 2:-1.037864 3:1.418451 
-10 1:1.598877 2:-1.164031 3:1.268749 
-10 1:1.626633 2:-1.265226 3:1.104855 
-10 1:1.654511 2:-1.338909 3:0.934106 
-10 1:1.682498 2:-1.389995 3:0.757666 
-10 1:1.710816 2:-1.424894 3:0.575458 
-10 1:1.739685 2:-1.450018 3:0.387404 
-10 1:1.769327 2:-1.47178 3:0.193429 
10 1:1.829833 2:-1.507808 3:-0.20435 
10 1:1.858246 2:-1.501296 3:-0.396291 
10 1:1.883597 2:-1.462211 3:-0.574844 
10 1:1.904507 2:-1.378402 3:-0.73344 
10 1:1.919859 2:-1.245076 3:-0.865639 
10 1:1.9292 2:-1.076266 3:-0.965318 
10 1:1.932181 2:-0.888972 3:-1.026408 
10 1:1.928692 2:-0.698443 3:-1.044835 
10 1:1.919876 2:-0.51083 3:-1.0269 
10 1:1.907252 2:-0.328416 3:-0.982289 
-10 1:1.876246 2:0.027146 3:-0.852432 
-10 1:1.860662 2:0.204798 3:-0.786934 
-10 1:2.192295 2:0.228667 3:-0.628457 
-10 1:2.177247 2:0.27473 3:-0.816258 
10 1:2.154088 2:0.411414 3:-0.989294 
10 1:2.126893 2:0.607602 3:-1.129589 
10 1:2.099735 2:0.832173 3:-1.21917 
10 1:2.07669 2:1.054007 3:-1.240059 
10 1:2.061831 2:1.241984 3:-1.174281 
10 1:2.057868 2:1.372146 3:-1.015666 
10 1:2.061923 2:1.449796 3:-0.806275 
10 1:2.10108 2:1.542179 3:0.056606 
10 1:2.113769 2:1.535484 3:0.27164 
10 1:2.130813 2:1.453698 3:0.432148 
-10 1:2.177656 2:1.07029 3:0.593617 
-10 1:2.203283 2:0.849199 3:0.661971 
-10 1:2.227497 2:0.664195 3:0.768673 
-10 1:2.249412 2:0.532255 3:0.927844 
-10 1:2.270032 2:0.433771 3:1.122846 
-10 1:2.290453 2:0.346816 3:1.334602 
-10 1:2.31112 2:0.256338 3:1.544561 
10 1:2.332086 2:0.151474 3:1.734488 
10 1:2.353395 2:0.02142 3:1.886156 
10 1:2.375084 2:-0.144254 3:1.981805 
10 1:2.396854 2:-0.344544 3:2.017874 
10 1:2.418022 2:-0.56522 3:2.007241 
10 1:2.437883 2:-0.791314 3:1.963698 
10 1:2.45559 2:-1.008369 3:1.897587 
10 1:2.469761 2:-1.203853 3:1.806273 
10 1:2.478885 2:-1.365687 3:1.684069 
10 1:2.481679 2:-1.483409 3:1.526477 
10 1:2.47856 2:-1.55874 3:1.337928 
10 1:2.470723 2:-1.598953 3:1.126922 
10 1:2.459363 2:-1.611352 3:0.901981 
10 1:2.445677 2:-1.603238 3:0.671626 
10 1:2.345293 2:-1.294189 3:-0.578083 
10 1:2.323071 2:-1.152833 3:-0.72614 
10 1:2.301199 2:-0.959445 3:-0.77621 
-10 1:2.259351 2:-0.520867 3:-0.751109 
-10 1:2.251245 2:-0.362075 3:-0.616073 
-10 1:2.238416 2:-0.178698 3:-0.522127 
-10 1:2.21382 2:0.049457 3:-0.559598 
-10 1:2.783659 2:0.302108 3:-0.83854 
10 1:2.788901 2:0.319323 3:-1.179853 
10 1:2.797716 2:0.401378 3:-1.378734 
10 1:2.809296 2:0.534067 3:-1.464099 
10 1:2.822833 2:0.703183 3:-1.46486 
10 1:2.837516 2:0.894519 3:-1.409933 
10 1:2.852537 2:1.093868 3:-1.328233 
10 1:2.866953 2:1.286123 3:-1.243186 
10 1:2.878713 2:1.448733 3:-1.132963 
-10 1:2.859096 2:1.366538 3:0.019019 
-10 1:2.845368 2:1.21411 3:0.154604 
-10 1:2.831376 2:1.057646 3:0.284963 
-10 1:2.818393 2:0.915044 3:0.424247 
-10 1:2.807336 2:0.79933 3:0.583275 
-10 1:2.797841 2:0.705736 3:0.760711 
-10 1:2.789246 2:0.625428 3:0.952443 
-10 1:2.780894 2:0.54952 3:1.153814 
10 1:2.762376 2:0.372135 3:1.536232 
10 1:2.750956 2:0.250583 3:1.68608 
10 1:2.737302 2:0.094346 3:1.788241 
10 1:2.721592 2:-0.094466 3:1.841807 
-10 1:2.687484 2:-0.519695 3:1.850042 
-10 1:2.670927 2:-0.730253 3:1.82479 
-10 1:2.656371 2:-0.920483 3:1.766431 
-10 1:2.645185 2:-1.076461 3:1.652401 
-10 1:2.637326 2:-1.197849 3:1.488951 
-10 1:2.631887 2:-1.292596 3:1.299931 
-10 1:2.628 2:-1.368354 3:1.107991 
-10 1:2.625381 2:-1.427872 3:0.918762 
-10 1:2.624127 2:-1.470716 3:0.726829 
-10 1:2.624339 2:-1.4964 3:0.526587 
-10 1:2.626121 2:-1.504436 3:0.312433 
-5.998117584357449 1:2.629692 2:-1.492089 3:0.084277 
-6.629368760564641 1:2.645699 2:-1.345128 3:-0.291247 
-10 1:2.659939 2:-1.178256 3:-0.370029 
-10 1:2.676834 2:-0.971998 3:-0.405036 
-10 1:2.693414 2:-0.773359 3:-0.466036 
-10 1:2.709249 2:-0.584724 3:-0.531941 
-10 1:2.725063 2:-0.388996 3:-0.545778 
-10 1:2.741155 2:-0.185827 3:-0.531726 
-10 1:2.757441 2:0.012901 3:-0.566065 
-10 1:2.772445 2:0.185294 3:-0.673361 
-10 1:3.11401 2:0.406869 3:-0.713422 
-10 1:3.097248 2:0.598144 3:-0.714939 
-10 1:3.067631 2:0.766893 3:-0.821241 
3.082392843466961 1:3.044593 2:1.705678 3:-0.409449 
10 1:3.072601 2:1.704378 3:-0.212003 
10 1:3.103018 2:1.675758 3:-0.014229 
10 1:3.134659 2:1.624064 3:0.178077 
10 1:3.166708 2:1.546905 3:0.357679 
10 1:3.198365 2:1.441627 3:0.517286 
10 1:3.229033 2:1.307713 3:0.65236 
10 1:3.258833 2:1.152152 3:0.768033 
10 1:3.288043 2:0.983581 3:0.871558 
10 1:3.316939 2:0.810634 3:0.970189 
10 1:3.345807 2:0.641625 3:1.071033 
10 1:3.499549 2:-0.101944 3:1.703929 
10 1:3.528149 2:-0.262868 3:1.807822 
10 1:3.552635 2:-0.447265 3:1.868222 
10 1:3.571571 2:-0.647536 3:1.879622 
10 1:3.583608 2:-0.847864 3:1.842152 
10 1:3.587439 2:-1.032517 3:1.756202 
10 1:3.582888 2:-1.189953 3:1.627584 
10 1:3.570995 2:-1.313144 3:1.467964 
10 1:3.552859 2:-1.39529 3:1.289298 
-10 1:3.502899 2:-1.440201 3:0.908171 
-10 1:3.474099 2:-1.429575 3:0.710823 
-10 1:3.44481 2:-1.416719 3:0.511385 
-10 1:3.416341 2:-1.413641 3:0.311761 
-10 1:3.388288 2:-1.411617 3:0.114438 
-10 1:3.359494 2:-1.392787 3:-0.077841 
-1.565736971390794 1:3.265462 2:-1.089714 3:-0.557836 
-10 1:3.240112 2:-0.904703 3:-0.623979 
-10 1:3.222857 2:-0.707385 3:-0.625281 
-10 1:3.207355 2:-0.51314 3:-0.616062 
-10 1:3.184657 2:-0.32979 3:-0.664456 
-10 1:3.153105 2:-0.156047 3:-0.781393 
10 1:3.890449 2:0.231629 3:-1.239144 
10 1:3.929085 2:0.440135 3:-1.41087 
10 1:3.958135 2:0.643897 3:-1.485096 
10 1:3.978225 2:0.835684 3:-1.476996 
10 1:3.989981 2:1.008268 3:-1.401743 
10 1:3.994029 2:1.154421 3:-1.274511 
-10 1:3.981504 2:1.338517 3:-0.924806 
-10 1:3.966199 2:1.362282 3:-0.732528 
-10 1:3.946426 2:1.343508 3:-0.54191 
-10 1:3.924491 2:1.30424 3:-0.351999 
-10 1:3.902682 2:1.266762 3:-0.16134 
-10 1:3.881057 2:1.229434 3:0.027503 
-10 1:3.857385 2:1.165911 3:0.207748 
-10 1:3.830873 2:1.061369 3:0.370607 
-10 1:3.803099 2:0.92043 3:0.504514 
-10 1:3.775578 2:0.752828 3:0.604539 
-10 1:3.748676 2:0.583542 3:0.695961 
-10 1:3.722431 2:0.441259 3:0.811856 
-10 1:3.696654 2:0.335002 3:0.964799 
-10 1:3.670856 2:0.247832 3:1.140286 
-10 1:3.644522 2:0.161031 3:1.321955 
1.337223258174001 1:3.590035 2:-0.068455 3:1.639561 
10 1:3.563144 2:-0.226299 3:1.744217 
-10 1:3.499023 2:-0.817904 3:1.742334 
-10 1:3.489894 2:-0.987463 3:1.642383 
-10 1:3.488335 2:-1.120891 3:1.503257 
-10 1:3.489389 2:-1.242775 3:1.349546 
-2.50639438923186 1:3.490273 2:-1.366547 3:1.195438 
10 1:3.492098 2:-1.484301 3:1.038254 
10 1:3.496233 2:-1.586698 3:0.874188 
10 1:3.504046 2:-1.664396 3:0.69943 
10 1:3.516786 2:-1.708537 3:0.510913 
10 1:3.534401 2:-1.715408 3:0.313533 
10 1:3.556051 2:-1.68442 3:0.117008 
10 1:3.580885 2:-1.615027 3:-0.068873 
10 1:3.608033 2:-1.506877 3:-0.234348 
10 1:3.63618 2:-1.364202 3:-0.370233 
-10 1:3.663565 2:-1.195848 3:-0.467927 
-10 1:3.688448 2:-1.010855 3:-0.519282 
-10 1:3.710735 2:-0.817772 3:-0.533291 
-10 1:3.732509 2:-0.624497 3:-0.541546 
-10 1:3.755987 2:-0.43887 3:-0.577069 
-10 1:3.782257 2:-0.266733 3:-0.658356 
-10 1:3.810185 2:-0.110023 3:-0.775489 
-10 1:3.838381 2:0.029774 3:-0.915256 
10 1:3.865489 2:0.149465 3:-1.066825 
-10 1:4.168548 2:0.455755 3:-0.863601 
10 1:4.186014 2:1.285792 3:-1.192155 
10 1:4.202648 2:1.4368 3:-1.150947 
0.5672406108980231 1:4.223087 2:1.537588 3:-1.053378 
-10 1:4.297626 2:1.614342 3:-0.536528 
-10 1:4.323677 2:1.589958 3:-0.327535 
10 1:4.370756 2:1.497761 3:0.076811 
10 1:4.387502 2:1.41427 3:0.248706 
10 1:4.396524 2:1.290405 3:0.385002 
-10 1:4.395954 2:0.945474 3:0.571724 
-10 1:4.393966 2:0.762889 3:0.657911 
-10 1:4.396028 2:0.599772 3:0.76371 
-10 1:4.403843 2:0.463904 3:0.897591 
-10 1:4.415599 2:0.343969 3:1.052217 
-10 1:4.429162 2:0.226915 3:1.218817 
-10 1:4.442357 2:0.101072 3:1.387522 
10 1:4.457954 2:-0.193191 3:1.667505 
10 1:4.455401 2:-0.366338 3:1.744225 
10 1:4.442968 2:-0.55851 3:1.757337 
-10 1:4.395219 2:-0.933589 3:1.606719 
-10 1:4.36625 2:-1.070101 3:1.464922 
-10 1:4.336924 2:-1.158594 3:1.293853 
-10 1:4.307619 2:-1.215323 3:1.105353 
-10 1:4.2786 2:-1.25812 3:0.911285 
-10 1:4.250033 2:-1.299934 3:0.720067 
-10 1:4.22183 2:-1.341094 3:0.531225 
-10 1:4.193865 2:-1.37992 3:0.342868 
-10 1:4.166009 2:-1.414733 3:0.153107 
10 1:4.110791 2:-1.460931 3:-0.23568 
10 1:4.085136 2:-1.455447 3:-0.431238 
10 1:4.062442 2:-1.416079 3:-0.623336 
10 1:4.043984 2:-1.332905 3:-0.807905 
10 1:4.031236 2:-1.208847 3:-0.972269 
10 1:4.025786 2:-1.054272 3:-1.098758 
10 1:4.029194 2:-0.879593 3:-1.169906 
10 1:4.041475 2:-0.693042 3:-1.18105 
10 1:4.060432 2:-0.499721 3:-1.145845 
10 1:4.083698 2:-0.304497 3:-1.079351 
-10 1:4.133696 2:0.072221 3:-0.91276 
-10 1:4.155094 2:0.252649 3:-0.852093 
-10 1:4.76811 2:0.026818 3:-0.830435 
-10 1:4.770047 2:0.165536 3:-0.778122 
-10 1:4.774194 2:0.348409 3:-0.784662 
-10 1:4.779768 2:0.560972 3:-0.827995 
-10 1:4.785987 2:0.788763 3:-0.88606 
-10 1:4.792068 2:1.017315 3:-0.936798 
10 1:4.79279 2:1.728201 3:-0.232385 
10 1:4.787884 2:1.703627 3:-0.025415 
10 1:4.78251 2:1.64101 3:0.164238 
10 1:4.776819 2:1.540423 3:0.329422 
10 1:4.770959 2:1.403213 3:0.464633 
10 1:4.765014 2:1.241582 3:0.578434 
10 1:4.759043 2:1.073219 3:0.686498 
10 1:4.753099 2:0.915123 3:0.803939 
10 1:4.747183 2:0.771687 3:0.935289 
10 1:4.741251 2:0.636654 3:1.076142 
10 1:4.735257 2:0.503432 3:1.22181 
10 1:4.729155 2:0.365432 3:1.367608 
10 1:4.722921 2:0.216498 3:1.508318 
10 1:4.716743 2:0.054939 3:1.633276 
10 1:4.710933 2:-0.118319 3:1.72863 
10 1:4.705805 2:-0.302316 3:1.7805 
10 1:4.701584 2:-0.49471 3:1.780614 
-10 1:4.698153 2:-1.34943 3:1.05519 
-10 1:4.702655 2:-1.334803 3:0.857011 
-10 1:4.70764 2:-1.302303 3:0.654515 
-10 1:4.712243 2:-1.28244 3:0.456996 
-10 1:4.716283 2:-1.282646 3:0.265311 
-10 1:4.720081 2:-1.293407 3:0.074119 
-10 1:4.723971 2:-1.304817 3:-0.122066 
-10 1:4.728284 2:-1.30697 3:-0.328726 
10 1:4.738772 2:-1.234894 3:-0.75091 
10 1:4.744364 2:-1.125727 3:-0.902534 
10 1:4.749689 2:-0.950053 3:-0.97239 
10 1:4.754469 2:-0.746528 3:-0.987452 
10 1:4.758517 2:-0.561613 3:-0.987171 
-10 1:4.764661 2:-0.166854 3:-0.868213 
-10 1:4.766871 2:0.051226 3:-0.746349 
-10 1:5.100093 2:0.47033 3:-0.763264 
-10 1:5.084677 2:0.60511 3:-0.811197 
-10 1:5.06878 2:0.799359 3:-0.841088 
-10 1:5.054699 2:1.026944 3:-0.847933 
-10 1:5.044731 2:1.261733 3:-0.826727 
10 1:5.062466 2:1.748052 3:-0.544789 
10 1:5.089921 2:1.764112 3:-0.368863 
10 1:5.12457 2:1.714633 3:-0.1715 
10 1:5.161693 2:1.62184 3:0.025889 
10 1:5.1968 2:1.506976 3:0.202972 
10 1:5.228354 2:1.378646 3:0.353258 
10 1:5.256865 2:1.236686 3:0.47986 
-10 1:5.307024 2:0.911536 3:0.67592 
-10 1:5.330115 2:0.734246 3:0.75642 
-10 1:5.353065 2:0.555371 3:0.835482 
-10 1:5.376774 2:0.381362 3:0.92097 
-10 1:5.40179 2:0.215515 3:1.017451 
-10 1:5.428031 2:0.055477 3:1.123587 
-10 1:5.455352 2:-0.101689 3:1.237427 
-10 1:5.483604 2:-0.258921 3:1.357021 
-10 1:5.512231 2:-0.419327 3:1.477821 
-10 1:5.53888 2:-0.586761 3:1.583864 
-10 1:5.560701 2:-0.76528 3:1.656052 
10 1:5.579903 2:-1.157864 3:1.636304 
10 1:5.575599 2:-1.341096 3:1.544823 
10 1:5.561915 2:-1.485271 3:1.408989 
10 1:5.539543 2:-1.576272 3:1.238088 
10 1:5.511064 2:-1.621987 3:1.045322 
10 1:5.479344 2:-1.633678 3:0.844494 
10 1:5.447129 2:-1.622313 3:0.648745 
10 1:5.415372 2:-1.594617 3:0.461617 
-4.573641744382665 1:5.351616 2:-1.50422 3:0.098229 
-10 1:5.318756 2:-1.448398 3:-0.085798 
-10 1:5.284667 2:-1.390078 3:-0.276558 
10 1:5.21273 2:-1.270401 3:-0.680321 
10 1:5.179479 2:-1.18506 3:-0.856334 
10 1:5.152853 2:-1.056844 3:-0.976103 
10 1:5.135514 2:-0.876704 3:-1.019929 
10 1:5.12688 2:-0.670102 3:-1.000411 
-10 1:5.128708 2:-0.287185 3:-0.853676 
-10 1:5.129922 2:-0.11011 3:-0.783535 
-10 1:5.123565 2:0.077336 3:-0.756674 
-10 1:5.111247 2:0.274818 3:-0.763228 
10 1:5.788889 2:0.510615 3:-1.007603 
10 1:5.793159 2:0.713163 3:-1.022012 
-10 1:5.798223 2:1.249327 3:-0.844762 
-10 1:5.7943 2:1.287236 3:-0.684402 
-10 1:5.788383 2:1.274564 3:-0.488374 
-10 1:5.781779 2:1.250909 3:-0.275867 
-10 1:5.775703 2:1.252057 3:-0.065283 
-10 1:5.770335 2:1.272535 3:0.133517 
10 1:5.759919 2:1.248318 3:0.477298 
10 1:5.754086 2:1.152871 3:0.616037 
10 1:5.747829 2:1.012122 3:0.739675 
-10 1:5.734787 2:0.691231 3:0.979302 
-10 1:5.728339 2:0.553893 3:1.11178 
-10 1:5.721973 2:0.431612 3:1.251313 
10 1:5.702962 2:0.02563 3:1.641177 
10 1:5.697177 2:-0.140816 3:1.731626 
0.9624194574883634 1:5.692265 2:-0.319057 3:1.78419 
-10 1:5.684404 2:-0.87539 3:1.690275 
-10 1:5.683985 2:-1.046848 3:1.592136 
-10 1:5.6846 2:-1.200601 3:1.469948 
10 1:5.691823 2:-1.528398 3:1.005235 
10 1:5.695671 2:-1.591306 3:0.831039 
10 1:5.70007 2:-1.630529 3:0.653347 
10 1:5.704979 2:-1.647593 3:0.472642 
10 1:5.710372 2:-1.644628 3:0.288352 
10 1:5.716226 2:-1.623762 3:0.099905 
10 1:5.722517 2:-1.587124 3:-0.093273 
10 1:5.729219 2:-1.536815 3:-0.291689 
10 1:5.736172 2:-1.472167 3:-0.489341 
10 1:5.742968 2:-1.387486 3:-0.668415 
10 1:5.749174 2:-1.276543 3:-0.80984 
10 1:5.754362 2:-1.133256 3:-0.894895 
10 1:5.758472 2:-0.958901 3:-0.922308 
10 1:5.761973 2:-0.765445 3:-0.916161 
10 1:5.765377 2:-0.565694 3:-0.902529 
4.027018748929421 1:5.769168 2:-0.371859 3:-0.906135 
10 1:5.773382 2:-0.186593 3:-0.929975 
10 1:5.777694 2:-0.00484 3:-0.959531 
10 1:5.781771 2:0.178675 3:-0.979783 
-10 1:6.128182 2:-0.105442 3:-0.825075 
10 1:6.176115 2:0.390722 3:-0.985245 
10 1:6.196209 2:0.616188 3:-1.071018 
10 1:6.218406 2:0.843505 3:-1.142578 
10 1:6.242734 2:1.055762 3:-1.181682 
10 1:6.269219 2:1.236046 3:-1.170088 
10 1:6.297885 2:1.36753 3:-1.089678 
1.991806582412042 1:6.32823 2:1.443294 3:-0.936929 
-10 1:6.358744 2:1.475508 3:-0.736445 
-10 1:6.387801 2:1.478516 3:-0.516029 
-10 1:6.413859 2:1.465052 3:-0.301133 
-10 1:6.435974 2:1.43613 3:-0.100093 
-7.840726356645892 1:6.453471 2:1.387576 3:0.086336 
-3.433966398857772 1:6.472496 2:1.087009 3:0.553246 
-10 1:6.470592 2:0.94624 3:0.688696 
-10 1:6.469849 2:0.80929 3:0.829008 
-10 1:6.472558 2:0.686913 3:0.980345 
-10 1:6.477417 2:0.573901 3:1.138244 
10 1:6.486023 2:0.212938 3:1.58937 
10 1:6.480909 2:0.061596 3:1.711394 
10 1:6.469971 2:-0.108072 3:1.808129 
10 1:6.452638 2:-0.293624 3:1.87259 
10 1:6.428531 2:-0.492024 3:1.898618 
10 1:6.398725 2:-0.69567 3:1.88638 
10 1:6.364966 2:-0.894859 3:1.838965 
10 1:6.329003 2:-1.079872 3:1.759474 
10 1:6.292585 2:-1.240995 3:1.651009 
10 1:6.25746 2:-1.368524 3:1.516674 
10 1:6.224839 2:-1.456883 3:1.359842 
0.1920869175610351 1:6.194654 2:-1.510336 3:1.18453 
-10 1:6.140567 2:-1.535311 3:0.794907 
-10 1:6.116154 2:-1.518229 3:0.588817 
-10 1:6.093156 2:-1.489033 3:0.380689 
-10 1:6.071316 2:-1.453419 3:0.174633 
-10 1:6.050477 2:-1.416359 3:-0.025258 
-10 1:6.032096 2:-1.370894 3:-0.215201 
-10 1:6.018947 2:-1.300308 3:-0.391662 
-10 1:6.088942 2:-0.471191 3:-0.73707 
-10 1:6.114683 2:-0.283102 3:-0.739522 
10 1:6.816973 2:-0.282692 3:-0.87027 
-10 1:6.808614 2:-0.174173 3:-0.706079 
-10 1:6.816274 2:-0.011117 3:-0.657334 
-10 1:6.835932 2:0.192066 3:-0.695613 
-10 1:6.863568 2:0.420966 3:-0.792496 
10 1:6.926697 2:0.898266 3:-1.048386 
10 1:6.95415 2:1.117846 3:-1.150551 
10 1:6.973503 2:1.305496 3:-1.197635 
10 1:6.980736 2:1.446806 3:-1.161217 
10 1:6.973168 2:1.531504 3:-1.022848 
-1.34388493944668 1:6.933334 2:1.583995 3:-0.592986 
10 1:6.867492 2:1.507734 3:-0.006196 
10 1:6.844661 2:1.432427 3:0.1602 
10 1:6.820941 2:1.328158 3:0.313316 
10 1:6.695651 2:0.728036 3:1.084632 
10 1:6.670836 2:0.647377 3:1.266387 
10 1:6.646537 2:0.559206 3:1.437391 
10 1:6.622913 2:0.44292 3:1.580452 
10 1:6.600224 2:0.288366 3:1.685314 
10 1:6.578911 2:0.104044 3:1.754113 
10 1:6.559434 2:-0.099609 3:1.790268 
-10 1:6.527893 2:-0.523558 3:1.777365 
-10 1:6.517113 2:-0.725 3:1.730048 
-10 1:6.510714 2:-0.907953 3:1.653861 
-10 1:6.509499 2:-1.063884 3:1.547422 
-10 1:6.514207 2:-1.184767 3:1.409591 
-10 1:6.524392 2:-1.271915 3:1.243727 
-10 1:6.538576 2:-1.334808 3:1.057122 
-10 1:6.555244 2:-1.383203 3:0.857202 
-10 1:6.572901 2:-1.426641 3:0.651355 
-10 1:6.590889 2:-1.465786 3:0.445521 
-10 1:6.609673 2:-1.489398 3:0.243687 
-10 1:6.629794 2:-1.485408 3:0.049709 
-10 1:6.651794 2:-1.441743 3:-0.132561 
-10 1:6.676151 2:-1.346898 3:-0.299064 
-6.139129370775285 1:6.701609 2:-1.204498 3:-0.440264 
-10 1:6.743681 2:-0.856005 3:-0.587738 
-10 1:6.759815 2:-0.666918 3:-0.60221 
-10 1:6.778662 2:-0.45344 3:-0.62474 
-10 1:6.800856 2:-0.264006 3:-0.698288 
-10 1:7.286801 2:-0.265157 3:-0.447837 
-10 1:7.261874 2:-0.045129 3:-0.482989 
-10 1:7.243091 2:0.128657 3:-0.576347 
-10 1:7.22823 2:0.272979 3:-0.7074 
-9.21961064873136 1:7.215072 2:0.404613 3:-0.855638 
10 1:7.201395 2:0.540339 3:-1.00055 
10 1:7.18498 2:0.696932 3:-1.121627 
10 1:7.163658 2:0.890706 3:-1.19834 
10 1:7.139117 2:1.104443 3:-1.208816 
10 1:7.119401 2:1.265625 3:-1.129041 
-5.817571027540356 1:7.10924 2:1.332927 3:-0.955914 
-10 1:7.104167 2:1.350591 3:-0.735985 
-10 1:7.099225 2:1.367206 3:-0.516885 
-10 1:7.094337 2:1.384922 3:-0.31084 
-10 1:7.09119 2:1.389052 3:-0.117243 
-10 1:7.091474 2:1.364885 3:0.064533 
10 1:7.160693 2:0.624724 3:1.243709 
10 1:7.170493 2:0.520102 3:1.409175 
10 1:7.18259 2:0.3981 3:1.553745 
10 1:7.198187 2:0.24929 3:1.668965 
10 1:7.217019 2:0.076033 3:1.754363 
10 1:7.238397 2:-0.115923 3:1.811763 
10 1:7.261632 2:-0.32083 3:1.842987 
10 1:7.335589 2:-0.955779 3:1.797799 
10 1:7.359383 2:-1.154953 3:1.740424 
10 1:7.381666 2:-1.338138 3:1.658782 
10 1:7.401805 2:-1.499434 3:1.549325 
10 1:7.419169 2:-1.632965 3:1.408545 
10 1:7.433303 2:-1.734834 3:1.236818 
10 1:7.444067 2:-1.804709 3:1.041512 
10 1:7.451354 2:-1.842629 3:0.830727 
10 1:7.455057 2:-1.848638 3:0.612565 
10 1:7.45507 2:-1.822776 3:0.395124 
10 1:7.451284 2:-1.765084 3:0.186506 
10 1:7.443594 2:-1.675604 3:-0.005189 
5.063909939499029 1:7.431902 2:-1.554458 3:-0.171926 
-10 1:7.377491 2:-1.046925 3:-0.476848 
-10 1:7.355428 2:-0.85234 3:-0.506604 
-10 1:7.332544 2:-0.654228 3:-0.506376 
-10 1:7.309461 2:-0.457022 3:-0.48413 
10 1:7.696353 2:-0.487042 3:-0.834361 
-10 1:7.709244 2:-0.330752 3:-0.598062 
-10 1:7.702204 2:-0.159661 3:-0.493192 
-10 1:7.680084 2:0.017257 3:-0.492669 
-10 1:7.647733 2:0.191031 3:-0.569409 
-10 1:7.610001 2:0.352689 3:-0.696331 
-10 1:7.571492 2:0.494904 3:-0.846633 
10 1:7.498002 2:0.775957 3:-1.124673 
10 1:7.463392 2:0.959382 3:-1.209038 
10 1:7.432231 2:1.180539 3:-1.233907 
10 1:7.410545 2:1.394265 3:-1.196646 
5.636229296566592 1:7.404923 2:1.548937 3:-1.096446 
-10 1:7.485305 2:1.551671 3:-0.509434 
10 1:7.58983 2:1.415977 3:0.126869 
10 1:7.622489 2:1.340249 3:0.295281 
10 1:7.655936 2:1.220766 3:0.429512 
-10 1:7.69079 2:1.05738 3:0.53393 
-10 1:7.726812 2:0.877956 3:0.63221 
-10 1:7.763681 2:0.712989 3:0.749839 
-10 1:7.801053 2:0.590643 3:0.910003 
-10 1:7.838239 2:0.506316 3:1.103489 
-10 1:7.874294 2:0.431187 3:1.29714 
-7.287752068187544 1:7.939289 2:0.193363 3:1.552833 
-10 1:7.967417 2:0.004611 3:1.585203 
-10 1:7.993312 2:-0.211412 3:1.576461 
-10 1:8.017644 2:-0.435425 3:1.549064 
-10 1:8.04043 2:-0.650599 3:1.518484 
-10 1:8.059234 2:-0.849307 3:1.473974 
-10 1:8.071048 2:-1.026078 3:1.398638 
-10 1:8.073069 2:-1.175679 3:1.276879 
-10 1:8.06573 2:-1.296526 3:1.113279 
-10 1:8.052013 2:-1.389918 3:0.928342 
-10 1:8.034356 2:-1.457439 3:0.738356 
-10 1:8.013297 2:-1.501325 3:0.545196 
-10 1:7.989009 2:-1.523934 3:0.347951 
-10 1:7.96166 2:-1.527626 3:0.14571 
10 1:7.898599 2:-1.486792 3:-0.275605 
10 1:7.864218 2:-1.440282 3:-0.48319 
10 1:7.829549 2:-1.370146 3:-0.671316 
10 1:7.795863 2:-1.271297 3:-0.826107 
10 1:7.76443 2:-1.138648 3:-0.933684 
10 1:7.736521 2:-0.967114 3:-0.98017 
10 1:7.713405 2:-0.751607 3:-0.951688 
-10 1:8.367388 2:-0.465903 3:-0.609477 
-10 1:8.3617 2:-0.249062 3:-0.60349 
-10 1:8.360382 2:-0.055028 3:-0.619531 
-10 1:8.362705 2:0.125273 3:-0.654562 
-10 1:8.36794 2:0.300912 3:-0.705547 
-10 1:8.375358 2:0.480964 3:-0.769449 
-10 1:8.384229 2:0.6745 3:-0.843232 
-10 1:8.393825 2:0.890593 3:-0.92386 
-10 1:8.40294 2:1.132887 3:-1.004934 
-10 1:8.407056 2:1.367294 3:-1.056697 
10 1:8.298582 2:1.601786 3:-0.46974 
10 1:8.258137 2:1.620528 3:-0.242567 
10 1:8.220687 2:1.639418 3:-0.032406 
10 1:8.188192 2:1.632923 3:0.152729 
10 1:8.162608 2:1.575513 3:0.304825 
10 1:8.145031 2:1.449757 3:0.419778 
10 1:8.132857 2:1.273029 3:0.510262 
-10 1:8.110316 2:0.873544 3:0.686553 
-10 1:8.092755 2:0.704199 3:0.806702 
-10 1:8.068001 2:0.578586 3:0.962358 
-10 1:8.038794 2:0.480594 3:1.139923 
-10 1:8.008585 2:0.389329 3:1.322364 
-10 1:7.957749 2:-0.639135 3:1.735403 
-10 1:7.978392 2:-0.812374 3:1.639296 
-10 1:8.004394 2:-0.973247 3:1.51128 
-10 1:8.033662 2:-1.126362 3:1.363803 
-10 1:8.064244 2:-1.275187 3:1.208347 
-10 1:8.095401 2:-1.413758 3:1.048392 
-10 1:8.126989 2:-1.531438 3:0.883453 
10 1:8.35302 2:-1.320928 3:-0.424336 
10 1:8.384607 2:-1.18051 3:-0.620548 
10 1:8.410247 2:-1.023848 3:-0.784995 
10 1:8.424634 2:-0.85122 3:-0.887534 
10 1:8.42246 2:-0.662903 3:-0.898023 
10 1:8.400444 2:-0.481813 3:-0.795072 
-10 1:8.763645 2:-0.510329 3:-0.542828 
-10 1:8.78448 2:-0.276926 3:-0.585134 
-10 1:8.805585 2:-0.097827 3:-0.672519 
-10 1:8.827043 2:0.044359 3:-0.792359 
10 1:8.871348 2:0.287567 3:-1.078915 
10 1:8.894359 2:0.423373 3:-1.220388 
10 1:8.918054 2:0.591838 3:-1.343825 
10 1:8.941505 2:0.798925 3:-1.43464 
10 1:8.959867 2:1.006297 3:-1.470621 
10 1:8.967351 2:1.164918 3:-1.427731 
10 1:8.960835 2:1.245452 3:-1.295258 
-10 1:8.923303 2:1.276354 3:-0.868467 
-10 1:8.902836 2:1.292076 3:-0.636599 
-10 1:8.886634 2:1.337695 3:-0.427292 
-10 1:8.872065 2:1.378777 3:-0.239031 
-10 1:8.833998 2:1.294562 3:0.104081 
-10 1:8.810309 2:1.181641 3:0.270599 
-10 1:8.7856 2:1.058966 3:0.440485 
-10 1:8.761482 2:0.955252 3:0.618759 
-10 1:8.739232 2:0.892278 3:0.808631 
10 1:8.697122 2:0.802313 3:1.190666 
10 1:8.67476 2:0.713151 3:1.361398 
10 1:8.651373 2:0.580003 3:1.50896 
10 1:8.628123 2:0.414641 3:1.630027 
10 1:8.606188 2:0.229104 3:1.721319 
10 1:8.586728 2:0.035311 3:1.779629 
10 1:8.570248 2:-0.159975 3:1.804809 
10 1:8.519972 2:-1.310574 3:1.450643 
10 1:8.522399 2:-1.448779 3:1.317255 
10 1:8.529565 2:-1.55019 3:1.161574 
10 1:8.541442 2:-1.612571 3:0.985661 
10 1:8.557367 2:-1.639312 3:0.793984 
10 1:8.719447 2:-1.089668 3:-0.518496 
-10 1:8.750085 2:-0.704332 3:-0.547998 
10 1:9.353602 2:-0.684057 3:-0.754829 
10 1:9.346928 2:-0.508774 3:-0.802811 
10 1:9.337787 2:-0.322921 3:-0.828613 
-10 1:9.305639 2:0.253854 3:-0.862758 
-10 1:9.296705 2:0.437784 3:-0.889663 
-10 1:9.290035 2:0.612095 3:-0.936975 
-10 1:9.284522 2:0.785508 3:-0.997682 
-10 1:9.278403 2:0.970832 3:-1.059796 
10 1:9.175729 2:1.45132 3:-0.16636 
10 1:9.163143 2:1.418078 3:0.011002 
10 1:9.151619 2:1.373254 3:0.183989 
10 1:9.140762 2:1.315651 3:0.358279 
10 1:9.130691 2:1.243485 3:0.533743 
10 1:9.12219 2:1.154211 3:0.702743 
10 1:9.116085 2:1.045232 3:0.857141 
-5.548183801241568 1:9.112999 2:0.914991 3:0.990511 
-10 1:9.112168 2:0.769001 3:1.108089 
-10 1:9.112248 2:0.615723 3:1.219975 
-10 1:9.111894 2:0.463617 3:1.336267 
-10 1:9.110533 2:0.317017 3:1.460732 
-10 1:9.109497 2:0.170071 3:1.581503 
-10 1:9.110407 2:0.015384 3:1.684346 
-10 1:9.114791 2:-0.153892 3:1.755719 
1.177746199765368 1:9.14875 2:-0.724454 3:1.76329 
10 1:9.165263 2:-0.916784 3:1.704307 
10 1:9.183493 2:-1.100747 3:1.61831 
10 1:9.202893 2:-1.270449 3:1.5076 
10 1:9.222468 2:-1.414454 3:1.375838 
10 1:9.240766 2:-1.515649 3:1.228078 
10 1:9.256606 2:-1.560683 3:1.068829 
10 1:9.27028 2:-1.556365 3:0.899537 
10 1:9.282546 2:-1.515814 3:0.720694 
-10 1:9.294156 2:-1.452151 3:0.532789 
-10 1:9.305866 2:-1.378498 3:0.336314 
-10 1:9.318431 2:-1.307975 3:0.131757 
-10 1:9.332295 2:-1.250993 3:-0.078596 
10 1:9.352007 2:-1.100409 3:-0.428922 
8.207642044864143 1:9.349644 2:-0.947928 3:-0.512476 
10 1:9.792191 2:-0.656556 3:-0.628032 
-10 1:9.810226 2:-0.420158 3:-0.606934 
-10 1:9.831601 2:-0.221179 3:-0.627403 
-10 1:9.855902 2:-0.050328 3:-0.681679 
-10 1:9.882715 2:0.101685 3:-0.762003 
-5.616823966471323 1:9.911625 2:0.244151 3:-0.860615 
10 1:9.974079 2:0.537607 3:-1.081661 
10 1:10.006794 2:0.707178 3:-1.188577 
10 1:10.037298 2:0.895961 3:-1.271086 
10 1:10.051025 2:1.068351 3:-1.25925 
-10 1:10.020856 2:1.304745 3:-0.940704 
-10 1:9.999328 2:1.390487 3:-0.759843 
-10 1:9.881926 2:1.343297 3:-0.061812 
-10 1:9.846107 2:1.255335 3:0.109958 
-10 1:9.810148 2:1.174539 3:0.286609 
-10 1:9.775144 2:1.1166 3:0.470162 
-10 1:9.741058 2:1.075235 3:0.65733 
-10 1:9.707573 2:1.038715 3:0.843508 
10 1:9.641131 2:0.933305 3:1.194473 
10 1:9.607566 2:0.841522 3:1.350193 
10 1:9.573872 2:0.718655 3:1.489302 
10 1:9.540661 2:0.571791 3:1.611989 
10 1:9.50856 2:0.408274 3:1.718507 
10 1:9.478285 2:0.234058 3:1.807757 
10 1:9.450763 2:0.051985 3:1.875627 
10 1:9.426945 2:-0.135519 3:1.917599 
10 1:9.407782 2:-0.326033 3:1.929155 
10 1:9.394228 2:-0.517131 3:1.905777 
10 1:9.387107 2:-0.705262 3:1.844359 
10 1:9.386647 2:-0.881517 3:1.748494 
10 1:9.392895 2:-1.035395 3:1.623765 
10 1:9.405899 2:-1.156397 3:1.475756 
-10 1:9.451326 2:-1.271264 3:1.131107 
-10 1:9.481112 2:-1.279518 3:0.942687 
-10 1:9.513226 2:-1.272692 3:0.748343 
-10 1:9.54587 2:-1.264187 3:0.551669 
-10 1:9.577769 2:-1.261847 3:0.356134 
-10 1:9.609355 2:-1.255445 3:0.164814 
-10 1:9.641401 2:-1.231094 3:-0.019299 
-10 1:9.765432 2:-0.684086 3:-0.478325 
10 1:10.102077 2:-0.904058 3:-0.534564 
-10 1:10.163962 2:-0.515343 3:-0.527293 
-10 1:10.190515 2:-0.345278 3:-0.5918 
-10 1:10.215214 2:-0.185528 3:-0.684074 
10 1:10.26226 2:0.120669 3:-0.898927 
10 1:10.286216 2:0.275937 3:-0.995012 
10 1:10.311482 2:0.438363 3:-1.068786 
10 1:10.338526 2:0.611201 3:-1.126847 
10 1:10.367711 2:0.797351 3:-1.181899 
10 1:10.398454 2:0.993255 3:-1.235999 
10 1:10.426685 2:1.171511 3:-1.251875 
10 1:10.447916 2:1.301869 3:-1.187445 
-10 1:10.472819 2:1.430855 3:-0.618819 
-10 1:10.473815 2:1.426003 3:-0.38966 
-10 1:10.473665 2:1.414818 3:-0.178379 
-10 1:10.472485 2:1.398018 3:0.015082 
-10 1:10.470079 2:1.374122 3:0.195859 
-10 1:10.466249 2:1.341644 3:0.36909 
-9.594659458222361 1:10.4608 2:1.299101 3:0.539914 
-7.855151338930677 1:10.275623 2:0.074282 3:1.790191 
-10 1:10.244534 2:-0.12194 3:1.806041 
10 1:10.120868 2:-0.891561 3:1.643934 
10 1:10.097227 2:-1.035169 3:1.540371 
3.189161903778612 1:10.079645 2:-1.139308 3:1.408457 
-10 1:10.062047 2:-1.233525 3:1.069852 
-10 1:10.058903 2:-1.243847 3:0.875058 
-10 1:10.057353 2:-1.24372 3:0.671416 
-10 1:10.055766 2:-1.243685 3:0.465037 
-10 1:10.053472 2:-1.248251 3:0.261732 
10 1:10.054334 2:-1.224532 3:-0.1156 
10 1:10.061867 2:-1.169212 3:-0.279782 
10 1:10.077052 2:-1.066893 3:-0.421078 
10 1:10.742697 2:-0.28082 3:-0.782528 
-5.051854657491459 1:10.751072 2:-0.10392 3:-0.691319 
-10 1:10.760529 2:0.078434 3:-0.684934 
-10 1:10.770766 2:0.264723 3:-0.739767 
-10 1:10.781483 2:0.45343 3:-0.832212 
10 1:10.838976 2:1.604139 3:-0.559802 
10 1:10.83602 2:1.583418 3:-0.360235 
10 1:10.798609 2:1.135949 3:1.136136 
10 1:10.792311 2:1.047352 3:1.31424 
10 1:10.785214 2:0.941515 3:1.48181 
10 1:10.777336 2:0.816352 3:1.625071 
10 1:10.768698 2:0.669775 3:1.730247 
10 1:10.759359 2:0.501252 3:1.788158 
10 1:10.749509 2:0.315663 3:1.805621 
-10 1:10.729156 2:-0.082476 3:1.760384 
-10 1:10.719092 2:-0.282998 3:1.717784 
-10 1:10.709396 2:-0.477861 3:1.667368 
-10 1:10.700291 2:-0.663473 3:1.60545 
-10 1:10.691999 2:-0.83627 3:1.528183 
-10 1:10.684742 2:-0.992689 3:1.431723 
10 1:10.671017 2:-1.333203 3:1.001119 
10 1:10.669231 2:-1.400393 3:0.818022 
10 1:10.668761 2:-1.444476 3:0.623095 
10 1:10.669586 2:-1.464923 3:0.421744 
10 1:10.671785 2:-1.458885 3:0.221293 
10 1:10.675461 2:-1.422969 3:0.029518 
10 1:10.680719 2:-1.35378 3:-0.145805 
10 1:10.687662 2:-1.247948 3:-0.296924 
10 1:10.696137 2:-1.108073 3:-0.422078 
10 1:10.705413 2:-0.950333 3:-0.533111 
10 1:10.715024 2:-0.780844 3:-0.614627 
10 1:10.72511 2:-0.588026 3:-0.61713 
10 1:11.219788 2:-0.987344 3:-0.792159 
-10 1:11.233029 2:-0.473167 3:-0.353401 
-10 1:11.245056 2:-0.285341 3:-0.26879 
-10 1:11.260358 2:-0.131508 3:-0.256879 
-10 1:11.278691 2:-0.00253 3:-0.304809 
-10 1:11.299808 2:0.110731 3:-0.399722 
-10 1:11.323465 2:0.217411 3:-0.528758 
-10 1:11.349416 2:0.326649 3:-0.679059 
10 1:11.407215 2:0.589346 3:-0.992017 
10 1:11.437972 2:0.756927 3:-1.127304 
10 1:11.466527 2:0.939331 3:-1.222755 
10 1:11.489167 2:1.121717 3:-1.255969 
10 1:11.502325 2:1.289465 3:-1.205842 
10 1:11.47565 2:1.658692 3:-0.509944 
10 1:11.457692 2:1.663676 3:-0.315332 
10 1:11.436883 2:1.640192 3:-0.122734 
10 1:11.413814 2:1.592989 3:0.06699 
10 1:11.389074 2:1.526814 3:0.252978 
-10 1:11.309997 2:1.254249 3:0.778785 
-10 1:11.282859 2:1.142431 3:0.938684 
-10 1:11.255534 2:1.019659 3:1.088229 
-10 1:11.228139 2:0.885584 3:1.225809 
-10 1:11.200788 2:0.739855 3:1.349815 
-10 1:11.173599 2:0.582125 3:1.458634 
-10 1:11.146711 2:0.412182 3:1.55054 
-10 1:11.120589 2:0.231535 3:1.622358 
-10 1:11.095913 2:0.042863 3:1.669929 
-10 1:11.073369 2:-0.151134 3:1.689077 
-10 1:11.053642 2:-0.347758 3:1.675625 
-10 1:11.037446 2:-0.543202 3:1.626328 
-10 1:11.025649 2:-0.728013 3:1.542697 
-10 1:11.019164 2:-0.890943 3:1.427754 
-10 1:11.018907 2:-1.020742 3:1.284523 
-10 1:11.025675 2:-1.107038 3:1.116266 
-10 1:11.038819 2:-1.150364 3:0.929213 
-10 1:11.056711 2:-1.158635 3:0.7316 
-10 1:11.077704 2:-1.139906 3:0.531705 
-10 1:11.100205 2:-1.102296 3:0.337177 
-10 1:11.123167 2:-1.054608 3:0.149128 
-10 1:11.14587 2:-1.006048 3:-0.035219 
-10 1:11.167599 2:-0.965829 3:-0.218693 
10 1:11.205273 2:-0.947265 3:-0.594334 
10 1:11.722868 2:-0.598014 3:-0.717989 
10 1:11.737374 2:-0.405115 3:-0.735569 
-10 1:11.74898 2:-0.21101 3:-0.62371 
-10 1:11.759085 2:-0.024299 3:-0.470318 
-10 1:11.769092 2:0.146417 3:-0.363296 
-10 1:11.780358 2:0.293083 3:-0.386896 
-10 1:11.7932 2:0.420327 3:-0.540214 
-10 1:11.806888 2:0.545554 3:-0.736594 
10 1:11.820821 2:0.685414 3:-0.897228 
10 1:11.83536 2:0.849203 3:-1.008334 
10 1:11.851199 2:1.04366 3:-1.07873 
10 1:11.867471 2:1.258126 3:-1.10451 
10 1:11.877169 2:1.413697 3:-1.032018 
-10 1:11.87287 2:1.486824 3:-0.614403 
-10 1:11.867563 2:1.488098 3:-0.380554 
-10 1:11.862824 2:1.491557 3:-0.164424 
-10 1:11.858258 2:1.493091 3:0.038156 
10 1:11.841497 2:1.443791 3:0.607913 
10 1:11.833538 2:1.39537 3:0.799268 
10 1:11.824015 2:1.3259 3:0.991756 
10 1:11.81306 2:1.234725 3:1.17754 
10 1:11.800815 2:1.121249 3:1.348592 
10 1:11.787422 2:0.984872 3:1.496887 
10 1:11.773041 2:0.825829 3:1.616231 
10 1:11.757908 2:0.64782 3:1.708077 
10 1:11.742281 2:0.455447 3:1.775868 
10 1:11.726416 2:0.253315 3:1.823044 
10 1:11.710571 2:0.046026 3:1.853049 
10 1:11.695006 2:-0.16192 3:1.868865 
10 1:11.680019 2:-0.367305 3:1.867722 
10 1:11.665937 2:-0.567785 3:1.842936 
10 1:11.653086 2:-0.761032 3:1.787745 
10 1:11.641796 2:-0.944607 3:1.695585 
10 1:11.632529 2:-1.112053 3:1.566872 
10 1:11.625913 2:-1.251881 3:1.41077 
10 1:11.622587 2:-1.352284 3:1.236997 
10 1:11.623108 2:-1.402723 3:1.054766 
10 1:11.62704 2:-1.408228 3:0.86707 
-10 1:11.64071 2:-1.346493 3:0.47052 
-10 1:11.648217 2:-1.310573 3:0.259167 
-10 1:11.654683 2:-1.292162 3:0.03743 
10 1:11.659779 2:-1.294155 3:-0.189518 
10 1:11.665955 2:-1.274185 3:-0.393741 
10 1:11.676268 2:-1.180048 3:-0.542367 
10 1:11.691678 2:-0.99478 3:-0.623224 
10 1:11.708603 2:-0.77768 3:-0.668939 
-10 1:12.303305 2:-0.036842 3:-0.55147 
-10 1:12.283169 2:0.087995 3:-0.534309 
-10 1:12.263927 2:0.260325 3:-0.609295 
-5.98644826706747 1:12.244757 2:0.463943 3:-0.739042 
10 1:12.22484 2:0.682645 3:-0.886162 
10 1:12.203355 2:0.900227 3:-1.013269 
10 1:12.179483 2:1.100485 3:-1.082977 
10 1:12.152403 2:1.267215 3:-1.057897 
10 1:12.12208 2:1.388417 3:-0.91694 
-10 1:12.066163 2:1.529398 3:-0.51481 
10 1:11.996473 2:1.534707 3:0.280029 
10 1:11.986067 2:1.489042 3:0.478786 
10 1:11.978458 2:1.426023 3:0.675163 
10 1:11.974235 2:1.3445 3:0.864378 
10 1:11.973985 2:1.243314 3:1.041639 
10 1:11.978297 2:1.121306 3:1.20215 
-10 1:12.020795 2:0.634285 3:1.551178 
-10 1:12.04233 2:0.446402 3:1.626515 
-10 1:12.065865 2:0.254912 3:1.685 
-10 1:12.091151 2:0.06124 3:1.727054 
-10 1:12.118335 2:-0.135314 3:1.752168 
-10 1:12.147571 2:-0.335472 3:1.759825 
10 1:12.247445 2:-0.951475 3:1.669188 
10 1:12.281996 2:-1.138036 3:1.592102 
10 1:12.314877 2:-1.296066 3:1.485096 
10 1:12.344776 2:-1.414839 3:1.344852 
10 1:12.371406 2:-1.494309 3:1.174585 
10 1:12.395069 2:-1.540531 3:0.981242 
10 1:12.416076 2:-1.55963 3:0.771815 
10 1:12.434733 2:-1.557733 3:0.553297 
10 1:12.451352 2:-1.540965 3:0.332678 
10 1:12.461964 2:-0.908912 3:-0.878992 
10 1:12.432887 2:-0.717613 3:-0.873218 
-10 1:12.363824 2:-0.404125 3:-0.61671 
-10 1:12.333222 2:-0.264407 3:-0.504446 
-10 1:12.726419 2:0.546683 3:-0.662808 
-10 1:12.734389 2:0.73982 3:-0.629413 
-10 1:12.742199 2:0.956876 3:-0.610703 
-10 1:12.750208 2:1.175105 3:-0.589328 
10 1:12.778934 2:1.611883 3:-0.338156 
10 1:12.79048 2:1.637473 3:-0.161563 
10 1:12.802222 2:1.615071 3:0.04247 
10 1:12.813491 2:1.55899 3:0.255727 
-10 1:12.839327 2:1.302634 3:0.809078 
-10 1:12.845183 2:1.195727 3:0.959125 
-10 1:12.849934 2:1.07606 3:1.097467 
-10 1:12.853715 2:0.942643 3:1.226821 
-10 1:12.856497 2:0.796116 3:1.346395 
-10 1:12.858203 2:0.637593 3:1.454367 
-10 1:12.858758 2:0.468192 3:1.548916 
-10 1:12.858083 2:0.289029 3:1.628219 
-10 1:12.856103 2:0.101225 3:1.690454 
-10 1:12.852738 2:-0.093108 3:1.733247 
-10 1:12.847902 2:-0.289611 3:1.752982 
-10 1:12.841506 2:-0.48361 3:1.745871 
-10 1:12.812285 2:-1.004087 3:1.528796 
-10 1:12.799815 2:-1.142446 3:1.393905 
-10 1:12.786919 2:-1.256583 3:1.239805 
-10 1:12.774129 2:-1.343832 3:1.073886 
-10 1:12.761498 2:-1.407126 3:0.8985 
-10 1:12.748945 2:-1.450971 3:0.714588 
-10 1:12.73639 2:-1.479871 3:0.52309 
-10 1:12.723751 2:-1.498331 3:0.324949 
-10 1:12.710982 2:-1.510206 3:0.121363 
1.459839798675884 1:12.675555 2:-1.470273 3:-0.480254 
10 1:12.666298 2:-1.412978 3:-0.661102 
10 1:12.659113 2:-1.324273 3:-0.823776 
10 1:12.654479 2:-1.198569 3:-0.963239 
10 1:12.65294 2:-1.037171 3:-1.069919 
10 1:12.655159 2:-0.854543 3:-1.125613 
10 1:12.661313 2:-0.664777 3:-1.120327 
10 1:12.670356 2:-0.477443 3:-1.066406 
10 1:12.681058 2:-0.301384 3:-0.979547 
10 1:12.692243 2:-0.138375 3:-0.878195 
-10 1:12.711748 2:0.198662 3:-0.728054 
-10 1:13.237913 2:0.295849 3:-0.640224 
-10 1:13.231647 2:0.388154 3:-0.57938 
-10 1:13.219789 2:0.578603 3:-0.565845 
-10 1:13.204479 2:0.82925 3:-0.578784 
10 1:13.172047 2:1.359338 3:-0.600749 
10 1:13.1592 2:1.562884 3:-0.568105 
10 1:13.151449 2:1.674832 3:-0.478599 
10 1:13.150103 2:1.672015 3:-0.319987 
9.8029837118217 1:13.152929 2:1.594519 3:-0.116794 
-10 1:13.156758 2:1.499144 3:0.09673 
-10 1:13.159657 2:1.420747 3:0.298081 
-10 1:13.162008 2:1.353229 3:0.486674 
-10 1:13.164446 2:1.286011 3:0.664325 
-10 1:13.167605 2:1.208512 3:0.832848 
-10 1:13.172078 2:1.110816 3:0.993922 
-10 1:13.177982 2:0.991043 3:1.147578 
-10 1:13.185113 2:0.852654 3:1.292755 
-10 1:13.193264 2:0.699209 3:1.428368 
-10 1:13.202224 2:0.534267 3:1.553333 
-10 1:13.211832 2:0.36086 3:1.665115 
3.883988276235809 1:13.222089 2:0.180148 3:1.756024 
10 1:13.233035 2:-0.007117 3:1.817227 
10 1:13.244704 2:-0.200155 3:1.839996 
10 1:13.256969 2:-0.396381 3:1.821032 
10 1:13.269458 2:-0.590514 3:1.765163 
-10 1:13.332956 2:-1.464032 3:0.751594 
-10 1:13.33646 2:-1.490735 3:0.55737 
-10 1:13.339178 2:-1.503517 3:0.355817 
-10 1:13.341503 2:-1.508954 3:0.147975 
-10 1:13.34383 2:-1.513609 3:-0.065113 
-7.225989724556053 1:13.346232 2:-1.51905 3:-0.280858 
10 1:13.345923 2:-1.421384 3:-0.876576 
10 1:13.340409 2:-1.307318 3:-1.034269 
10 1:13.331239 2:-1.139637 3:-1.154973 
10 1:13.319871 2:-0.946502 3:-1.209825 
10 1:13.308024 2:-0.759817 3:-1.173102 
10 1:13.296348 2:-0.586599 3:-1.06769 
10 1:13.285042 2:-0.42332 3:-0.937071 
-10 1:13.262546 2:-0.091574 3:-0.72119 
-10 1:13.250254 2:0.098178 3:-0.657791 
-10 1:13.674094 2:-0.075485 3:-0.665937 
-10 1:13.716102 2:0.101597 3:-0.548997 
-10 1:13.752075 2:0.294397 3:-0.52539 
-10 1:13.783852 2:0.496538 3:-0.563716 
-10 1:13.813273 2:0.701642 3:-0.632581 
10 1:13.842178 2:0.903332 3:-0.700587 
10 1:13.872405 2:1.09523 3:-0.736337 
10 1:13.905794 2:1.270959 3:-0.708433 
10 1:13.942975 2:1.421896 3:-0.59415 
10 1:13.977597 2:1.526465 3:-0.420826 
-8.184515336451208 1:14.017363 2:1.5452 3:-0.033254 
-10 1:14.026973 2:1.494238 3:0.163586 
-10 1:14.034738 2:1.434229 3:0.357663 
-10 1:14.04267 2:1.377643 3:0.547132 
-10 1:14.04997 2:1.31941 3:0.732961 
-10 1:14.055588 2:1.25287 3:0.916372 
-10 1:14.058474 2:1.171361 3:1.09859 
10 1:14.051843 2:0.947183 3:1.445011 
10 1:14.040225 2:0.805222 3:1.58557 
10 1:14.02167 2:0.644628 3:1.687092 
10 1:13.995529 2:0.466723 3:1.74023 
10 1:13.96338 2:0.27482 3:1.755568 
4.225699820412506 1:13.816055 2:-0.545857 3:1.716668 
10 1:13.779346 2:-0.735558 3:1.679483 
10 1:13.743196 2:-0.905792 3:1.612034 
10 1:13.707803 2:-1.050034 3:1.504288 
-10 1:13.640747 2:-1.25881 3:1.180216 
-10 1:13.610031 2:-1.33027 3:0.986815 
-10 1:13.581824 2:-1.384552 3:0.788125 
-10 1:13.55647 2:-1.42485 3:0.593739 
-10 1:13.533706 2:-1.45258 3:0.403505 
-10 1:13.513098 2:-1.468649 3:0.214476 
-10 1:13.494208 2:-1.473964 3:0.023707 
-10 1:13.476601 2:-1.469432 3:-0.171751 
-10 1:13.45984 2:-1.455961 3:-0.374842 
-10 1:13.44352 2:-1.434358 3:-0.588367 
8.322807214121879 1:13.428541 2:-1.313245 3:-0.972692 
10 1:13.446235 2:-1.161838 3:-1.066274 
10 1:13.480564 2:-0.959769 3:-1.077368 
10 1:13.521325 2:-0.754747 3:-1.025627 
-10 1:13.598152 2:-0.414028 3:-0.843103 
-10 1:13.6361 2:-0.233151 3:-0.776346 
-10 1:14.179939 2:0.022991 3:-0.650674 
-10 1:14.173842 2:0.164955 3:-0.533277 
-10 1:14.148192 2:0.363193 3:-0.535481 
-10 1:14.110405 2:0.593954 3:-0.61493 
10 1:14.067893 2:0.833484 3:-0.729271 
10 1:14.028073 2:1.058032 3:-0.836147 
10 1:13.99836 2:1.243845 3:-0.893203 
10 1:13.986164 2:1.367177 3:-0.858097 
10 1:13.995117 2:1.417025 3:-0.709323 
9.754249643026885 1:14.01729 2:1.421302 3:-0.489029 
-10 1:14.04256 2:1.41532 3:-0.251466 
-10 1:14.06358 2:1.424399 3:-0.036385 
-10 1:14.081234 2:1.44424 3:0.159445 
-10 1:14.097926 2:1.465079 3:0.347185 
-10 1:14.116058 2:1.477152 3:0.537995 
10 1:14.163358 2:1.439487 3:0.949751 
10 1:14.191534 2:1.377302 3:1.14561 
10 1:14.221238 2:1.278931 3:1.311284 
10 1:14.251425 2:1.139907 3:1.431101 
10 1:14.281865 2:0.966156 3:1.510195 
10 1:14.312813 2:0.769789 3:1.566091 
10 1:14.409009 2:0.154279 3:1.733456 
10 1:14.438824 2:-0.042433 3:1.777938 
10 1:14.464786 2:-0.232041 3:1.793901 
10 1:14.485219 2:-0.413044 3:1.766955 
10 1:14.499049 2:-0.584202 3:1.688235 
-10 1:14.511473 2:-0.895869 3:1.421185 
-10 1:14.51302 2:-1.036093 3:1.261839 
-10 1:14.512617 2:-1.164534 3:1.098236 
-10 1:14.509898 2:-1.278346 3:0.930365 
-10 1:14.504427 2:-1.374585 3:0.757668 
10 1:14.313203 2:-1.272211 3:-0.96902 
10 1:14.283975 2:-1.105197 3:-1.044738 
10 1:14.257931 2:-0.900335 3:-1.04253 
-5.758534053563521 1:14.224533 2:-0.515332 3:-0.887638 
-10 1:14.209146 2:-0.335275 3:-0.812954 
-10 1:14.189339 2:-0.142153 3:-0.764871 
7.666104802753475 1:14.772782 2:0.476015 3:-0.765851 
10 1:14.777894 2:0.700829 3:-0.776381 
10 1:14.783192 2:0.939068 3:-0.780103 
10 1:14.787994 2:1.168001 3:-0.765751 
10 1:14.791621 2:1.364899 3:-0.722062 
10 1:14.793391 2:1.507031 3:-0.637771 
10 1:14.79277 2:1.576504 3:-0.504194 
-10 1:14.786201 2:1.555937 3:-0.123838 
-10 1:14.781692 2:1.512049 3:0.096586 
-10 1:14.777325 2:1.476541 3:0.319597 
-10 1:14.773613 2:1.464708 3:0.534255 
-10 1:14.770323 2:1.463854 3:0.737677 
10 1:14.767055 2:1.454996 3:0.928789 
10 1:14.763409 2:1.419152 3:1.106518 
10 1:14.75899 2:1.337544 3:1.269734 
10 1:14.753752 2:1.204487 3:1.413531 
10 1:14.748204 2:1.035158 3:1.526996 
10 1:14.742906 2:0.846599 3:1.598674 
10 1:14.738345 2:0.654439 3:1.619574 
-10 1:14.734444 2:0.462988 3:1.600378 
-10 1:14.730855 2:0.271127 3:1.56122 
-10 1:14.727228 2:0.077699 3:1.522292 
-10 1:14.723251 2:-0.118229 3:1.501752 
-10 1:14.718996 2:-0.315296 3:1.496879 
-10 1:14.714765 2:-0.510796 3:1.4927 
-10 1:14.71086 2:-0.702006 3:1.474087 
-10 1:14.707585 2:-0.886201 3:1.425923 
10 1:14.70361 2:-1.219446 3:1.217465 
10 1:14.702911 2:-1.359344 3:1.0697 
10 1:14.703047 2:-1.475189 3:0.902834 
10 1:14.704003 2:-1.562303 3:0.724308 
10 1:14.705753 2:-1.616951 3:0.54072 
10 1:14.708232 2:-1.641107 3:0.353537 
10 1:14.711356 2:-1.638888 3:0.162308 
10 1:14.715042 2:-1.614412 3:-0.033423 
10 1:14.719206 2:-1.571799 3:-0.234112 
10 1:14.723765 2:-1.515101 3:-0.440089 
-10 1:14.746842 2:-0.805677 3:-0.905198 
-10 1:14.751205 2:-0.601165 3:-0.896899 
-10 1:14.761783 2:-0.036249 3:-0.782282 
10 1:15.36518 2:-0.129919 3:-0.986725 
-10 1:15.357658 2:0.163562 3:-0.781027 
-10 1:15.365942 2:0.366006 3:-0.747017 
10 1:15.407072 2:1.04422 3:-0.740217 
10 1:15.417348 2:1.251715 3:-0.719659 
10 1:15.421477 2:1.428822 3:-0.664938 
10 1:15.4168 2:1.562878 3:-0.561043 
10 1:15.401467 2:1.643721 3:-0.398186 
-1.818876842089382 1:15.30348 2:1.600526 3:0.365056 
-10 1:15.276131 2:1.535542 3:0.551847 
-10 1:15.24714 2:1.45841 3:0.745766 
-10 1:15.217865 2:1.36714 3:0.934955 
-10 1:15.165687 2:1.127289 3:1.233903 
-10 1:15.146389 2:0.971287 3:1.311111 
-10 1:15.132708 2:0.790367 3:1.330994 
-10 1:15.122294 2:0.593711 3:1.316913 
-10 1:15.112427 2:0.39165 3:1.295771 
-10 1:15.100387 2:0.194517 3:1.294471 
-10 1:15.083884 2:0.010468 3:1.335402 
-10 1:15.063411 2:-0.166481 3:1.41164 
-10 1:15.040623 2:-0.347585 3:1.504349 
-10 1:15.018448 2:-0.534584 3:1.589237 
10 1:15.001157 2:-0.719094 3:1.636243 
10 1:14.993012 2:-0.892301 3:1.615616 
10 1:14.995426 2:-1.047533 3:1.519342 
10 1:15.006191 2:-1.180842 3:1.367065 
10 1:15.022863 2:-1.28846 3:1.180218 
10 1:15.042999 2:-1.366617 3:0.980237 
10 1:15.064439 2:-1.412842 3:0.785641 
-10 1:15.109815 2:-1.432741 3:0.41242 
-10 1:15.133944 2:-1.422167 3:0.224439 
-10 1:15.159164 2:-1.408415 3:0.029301 
-10 1:15.185562 2:-1.399119 3:-0.177475 
-10 1:15.212795 2:-1.391399 3:-0.391722 
9.748028036969989 1:15.290076 2:-1.201833 3:-0.91661 
10 1:15.310837 2:-1.030437 3:-0.997908 
10 1:15.325376 2:-0.830319 3:-1.015142 
10 1:15.725372 2:-0.308838 3:-0.984035 
-10 1:15.747946 2:0.009565 3:-0.738274 
-10 1:15.759246 2:0.170905 3:-0.651706 
-10 1:15.770743 2:0.336303 3:-0.58668 
-10 1:15.782578 2:0.507731 3:-0.541195 
-10 1:15.794895 2:0.687163 3:-0.513252 
-10 1:15.807833 2:0.876572 3:-0.500851 
-10 1:15.821536 2:1.077933 3:-0.501992 
-10 1:15.835839 2:1.28853 3:-0.510732 
0.1439446774664884 1:15.85933 2:1.630145 3:-0.44615 
10 1:15.865165 2:1.709323 3:-0.324547 
10 1:15.867202 2:1.72989 3:-0.150572 
10 1:15.8663 2:1.705408 3:0.057957 
10 1:15.849363 2:1.411245 3:0.900295 
10 1:15.843682 2:1.318875 3:1.065931 
10 1:15.837174 2:1.215398 3:1.21233 
10 1:15.829625 2:1.097588 3:1.340475 
10 1:15.820823 2:0.962319 3:1.451335 
10 1:15.810745 2:0.809197 3:1.545511 
10 1:15.799569 2:0.640834 3:1.623206 
10 1:15.787485 2:0.459997 3:1.6846 
10 1:15.77468 2:0.269453 3:1.729873 
10 1:15.761344 2:0.071966 3:1.759206 
10 1:15.747667 2:-0.129696 3:1.772781 
10 1:15.73387 2:-0.332241 3:1.770181 
10 1:15.720357 2:-0.529558 3:1.747807 
10 1:15.70759 2:-0.714598 3:1.700994 
10 1:15.696032 2:-0.880307 3:1.625077 
10 1:15.686133 2:-1.019827 3:1.51561 
10 1:15.678037 2:-1.131124 3:1.373697 
10 1:15.671561 2:-1.217255 3:1.206287 
-10 1:15.662675 2:-1.327216 3:0.823895 
-10 1:15.659869 2:-1.357644 3:0.623372 
-10 1:15.657898 2:-1.37598 3:0.42609 
-10 1:15.65676 2:-1.382405 3:0.234771 
-10 1:15.656644 2:-1.374029 3:0.047697 
-10 1:15.657751 2:-1.347825 3:-0.137056 
-10 1:15.660279 2:-1.300761 3:-0.321408 
-10 1:15.66442 2:-1.230022 3:-0.505555 
-10 1:15.670315 2:-1.134067 3:-0.679333 
-10 1:15.678088 2:-1.011827 3:-0.828737 
10 1:15.699654 2:-0.685776 3:-1.000175 
10 1:15.712587 2:-0.495147 3:-1.012017 
10 1:16.222532 2:-0.259008 3:-1.120161 
10 1:16.246589 2:-0.010394 3:-1.122398 
10 1:16.265828 2:0.187424 3:-1.078549 
10 1:16.281351 2:0.346029 3:-0.997915 
10 1:16.294258 2:0.476999 3:-0.889795 
-10 1:16.316629 2:0.70236 3:-0.628292 
-10 1:16.328295 2:0.819912 3:-0.493509 
-10 1:16.341749 2:0.956151 3:-0.368438 
-10 1:16.357563 2:1.117134 3:-0.259015 
-10 1:16.374339 2:1.28824 3:-0.158591 
-10 1:16.390211 2:1.450009 3:-0.057573 
10 1:16.411799 2:1.667702 3:0.184618 
10 1:16.414391 2:1.691015 3:0.341137 
10 1:16.411866 2:1.661059 3:0.515969 
10 1:16.405427 2:1.590465 3:0.699161 
10 1:16.396273 2:1.491862 3:0.880758 
10 1:16.385599 2:1.377809 3:1.050837 
10 1:16.374105 2:1.255708 3:1.201689 
10 1:16.361675 2:1.124453 3:1.32927 
10 1:16.348118 2:0.982138 3:1.429873 
10 1:16.333244 2:0.82691 3:1.499908 
-10 1:16.299824 2:0.480337 3:1.556504 
-10 1:16.2818 2:0.294127 3:1.55578 
-10 1:16.263262 2:0.102834 3:1.544428 
-10 1:16.244486 2:-0.090814 3:1.528406 
-10 1:16.225829 2:-0.283115 3:1.506857 
-10 1:16.207698 2:-0.469737 3:1.474472 
-10 1:16.190502 2:-0.646335 3:1.425869 
-10 1:16.174651 2:-0.808564 3:1.355664 
-10 1:16.160553 2:-0.952081 3:1.258474 
-10 1:16.148589 2:-1.072853 3:1.129909 
-10 1:16.138885 2:-1.169679 3:0.974608 
-10 1:16.131432 2:-1.242866 3:0.802012 
-10 1:16.126219 2:-1.292733 3:0.62161 
-10 1:16.123223 2:-1.319722 3:0.442532 
-10 1:16.122185 2:-1.326568 3:0.267189 
-10 1:16.122633 2:-1.318052 3:0.091991 
-10 1:16.124092 2:-1.299023 3:-0.086859 
-10 1:16.126082 2:-1.274336 3:-0.27316 
-10 1:16.128133 2:-1.24877 3:-0.470621 
-10 1:16.130418 2:-1.220639 3:-0.674733 
10 1:16.141111 2:-1.102409 3:-1.024504 
10 1:16.152404 2:-0.983414 3:-1.128717 
10 1:16.1685 2:-0.81619 3:-1.170067 
10 1:16.187234 2:-0.622678 3:-1.167308 
10 1:16.206086 2:-0.428432 3:-1.143115 
-10 1:16.796646 2:0.044898 3:-0.652049 
-10 1:16.818627 2:0.225985 3:-0.666075 
-10 1:16.845832 2:0.413333 3:-0.750871 
10 1:16.87582 2:0.604909 3:-0.871736 
10 1:16.906151 2:0.798679 3:-0.993967 
10 1:16.934383 2:0.99261 3:-1.082864 
10 1:16.958076 2:1.184669 3:-1.103723 
10 1:16.974772 2:1.36958 3:-1.027535 
10 1:16.981911 2:1.51008 3:-0.882332 
10 1:16.978983 2:1.581154 3:-0.705906 
10 1:16.968105 2:1.59615 3:-0.507153 
-0.6346715708418088 1:16.931626 2:1.520785 3:-0.071037 
-10 1:16.910588 2:1.461863 3:0.15214 
-10 1:16.890519 2:1.408064 3:0.369457 
-10 1:16.871454 2:1.356912 3:0.575813 
-10 1:16.756634 2:0.795243 3:1.35364 
-1.598281668875587 1:16.727453 2:0.618347 3:1.48872 
10 1:16.667742 2:0.250997 3:1.75523 
10 1:16.641103 2:0.069101 3:1.841116 
10 1:16.619291 2:-0.10612 3:1.863233 
10 1:16.603795 2:-0.271788 3:1.803442 
-10 1:16.592664 2:-0.433113 3:1.682895 
-10 1:16.582565 2:-0.598561 3:1.53854 
-10 1:16.570172 2:-0.776562 3:1.407276 
-10 1:16.554206 2:-0.967646 3:1.308272 
-10 1:16.537854 2:-1.155101 3:1.222023 
10 1:16.51864 2:-1.445478 3:0.9921 
10 1:16.519214 2:-1.53188 3:0.824636 
10 1:16.525273 2:-1.586823 3:0.628521 
10 1:16.53547 2:-1.618016 3:0.410781 
10 1:16.548464 2:-1.633166 3:0.178444 
10 1:16.56294 2:-1.63965 3:-0.06135 
10 1:16.578516 2:-1.635039 3:-0.298121 
10 1:16.595866 2:-1.60576 3:-0.51759 
10 1:16.615722 2:-1.537637 3:-0.705276 
10 1:16.638814 2:-1.41649 3:-0.846696 
10 1:16.665362 2:-1.232675 3:-0.927638 
-10 1:16.717064 2:-0.673157 3:-0.715721 
-10 1:16.724914 2:-0.528536 3:-0.574138 
-10 1:16.743434 2:-0.338223 3:-0.51677 
-10 1:16.76999 2:-0.128425 3:-0.550185 
9.8717531233161 1:17.303506 2:-0.479097 3:-0.897858 
-10 1:17.292197 2:-0.377115 3:-0.704116 
-10 1:17.270666 2:-0.228018 3:-0.582963 
-10 1:17.241945 2:-0.047 3:-0.51955 
-10 1:17.209067 2:0.15074 3:-0.499026 
-10 1:17.174983 2:0.350423 3:-0.506917 
-10 1:17.141125 2:0.544969 3:-0.53575 
-10 1:17.107574 2:0.734121 3:-0.584245 
-10 1:17.074339 2:0.91826 3:-0.650055 
0.824963417030058 1:16.976381 2:1.49419 3:-0.661614 
10 1:16.965461 2:1.586171 3:-0.510237 
-10 1:17.048626 2:1.310251 3:0.670401 
-10 1:17.072461 2:1.198188 3:0.827473 
-10 1:17.099158 2:1.067859 3:0.976989 
-10 1:17.127157 2:0.928866 3:1.121117 
-10 1:17.154898 2:0.790808 3:1.262027 
-10 1:17.181717 2:0.657934 3:1.40151 
10 1:17.274891 2:0.182551 3:1.810498 
10 1:17.310883 2:-0.009573 3:1.921833 
10 1:17.34634 2:-0.204857 3:1.99846 
10 1:17.379186 2:-0.393643 3:2.026127 
10 1:17.407346 2:-0.566275 3:1.99058 
10 1:17.42941 2:-0.715818 3:1.884249 
-10 1:17.462204 2:-0.969253 3:1.554897 
-10 1:17.476885 2:-1.086942 3:1.384227 
-10 1:17.490417 2:-1.197192 3:1.217141 
-10 1:17.501868 2:-1.295219 3:1.049756 
-10 1:17.510309 2:-1.376246 3:0.878188 
-10 1:17.515096 2:-1.436999 3:0.699519 
-10 1:17.516273 2:-1.477857 3:0.513159 
-10 1:17.513991 2:-1.49974 3:0.318866 
3.770913911074691 1:17.454236 2:-1.339569 3:-0.738716 
10 1:17.430459 2:-1.226484 3:-0.888313 
10 1:17.400751 2:-1.063659 3:-0.956868 
10 1:17.367278 2:-0.863638 3:-0.9431 
-10 1:17.863686 2:0.232147 3:-0.629701 
-10 1:17.880197 2:0.339965 3:-0.656355 
-10 1:17.912588 2:0.54146 3:-0.717397 
-10 1:17.954146 2:0.801868 3:-0.794071 
10 1:18.066716 2:1.588928 3:-0.930319 
10 1:18.077833 2:1.737347 3:-0.881955 
10 1:18.065383 2:1.775093 3:-0.757752 
10 1:18.032915 2:1.720315 3:-0.567839 
-10 1:17.737925 2:1.046009 3:1.003188 
-10 1:17.699164 2:0.869764 3:1.132976 
-10 1:17.659437 2:0.69242 3:1.268873 
-10 1:17.619438 2:0.53162 3:1.421234 
-10 1:17.580056 2:0.386999 3:1.583222 
10 1:17.507486 2:0.072004 3:1.839314 
10 1:17.475941 2:-0.124075 3:1.898898 
10 1:17.447699 2:-0.34072 3:1.9163 
10 1:17.422681 2:-0.569679 3:1.899326 
10 1:17.40085 2:-0.802636 3:1.85551 
10 1:17.382858 2:-1.030296 3:1.788203 
10 1:17.369905 2:-1.242588 3:1.697429 
10 1:17.363205 2:-1.429417 3:1.583125 
10 1:17.363971 2:-1.580689 3:1.445225 
10 1:17.373407 2:-1.68638 3:1.283677 
10 1:17.391725 2:-1.743256 3:1.099763 
10 1:17.41733 2:-1.760439 3:0.897189 
10 1:17.448435 2:-1.748361 3:0.679919 
10 1:17.483253 2:-1.717455 3:0.451916 
10 1:17.519997 2:-1.678153 3:0.217145 
10 1:17.556957 2:-1.63986 3:-0.020086 
10 1:17.593429 2:-1.598301 3:-0.250895 
10 1:17.629429 2:-1.539492 3:-0.463148 
10 1:17.664983 2:-1.44924 3:-0.644645 
10 1:17.70012 2:-1.313355 3:-0.783185 
10 1:17.734262 2:-1.125578 3:-0.869049 
10 1:17.764793 2:-0.906204 3:-0.900835 
10 1:17.788642 2:-0.681181 3:-0.878741 
-10 1:17.790844 2:-0.358047 3:-0.612282 
-10 1:17.802074 2:-0.168064 3:-0.528398 
-10 1:17.828652 2:0.055573 3:-0.527507 
-10 1:18.225856 2:-0.396004 3:-0.670578 
-10 1:18.250409 2:-0.151257 3:-0.644991 
-10 1:18.271414 2:0.047179 3:-0.668589 
-10 1:18.289931 2:0.212208 3:-0.730526 
10 1:18.341146 2:0.635899 3:-1.037928 
10 1:18.360303 2:0.796345 3:-1.144775 
10 1:18.382258 2:0.987801 3:-1.235703 
10 1:18.40532 2:1.19852 3:-1.291326 
10 1:18.421558 2:1.360749 3:-1.272868 
10 1:18.424489 2:1.418348 3:-1.151856 
-10 1:18.406403 2:1.345702 3:-0.723456 
-10 1:18.39702 2:1.309032 3:-0.496988 
-10 1:18.391056 2:1.300813 3:-0.290322 
-10 1:18.38721 2:1.309491 3:-0.098969 
-10 1:18.384102 2:1.322859 3:0.082062 
-10 1:18.380353 2:1.328711 3:0.257764 
-10 1:18.374582 2:1.314842 3:0.433128 
-10 1:18.36576 2:1.27201 3:0.61137 
-10 1:18.354122 2:1.201735 3:0.789265 
-8.90241170864865 1:18.211005 2:0.040287 3:1.7419 
10 1:18.107606 2:-0.960368 3:1.758969 
-10 1:18.091378 2:-1.22495 3:1.314819 
-10 1:18.093932 2:-1.248864 3:1.112324 
-10 1:18.097747 2:-1.259954 3:0.912193 
-10 1:18.102067 2:-1.264029 3:0.720828 
-10 1:18.106958 2:-1.26142 3:0.534192 
-10 1:18.112515 2:-1.252261 3:0.347877 
-10 1:18.118834 2:-1.236686 3:0.157473 
-10 1:18.126143 2:-1.212961 3:-0.039072 
-10 1:18.135522 2:-1.167501 3:-0.228888 
-10 1:18.148383 2:-1.082094 3:-0.393273 
-10 1:18.165698 2:-0.943476 3:-0.516448 
-10 1:18.185966 2:-0.76646 3:-0.599259 
-10 1:18.20681 2:-0.575736 3:-0.648402 
10 1:18.632347 2:-0.564949 3:-0.840307 
10 1:18.651682 2:-0.409645 3:-0.949979 
10 1:18.673259 2:-0.245547 3:-1.035806 
10 1:18.69679 2:-0.074377 3:-1.098527 
10 1:18.721984 2:0.102139 3:-1.13888 
10 1:18.748553 2:0.282279 3:-1.157604 
10 1:18.776207 2:0.464318 3:-1.155439 
10 1:18.804658 2:0.646534 3:-1.133122 
-10 1:18.89183 2:1.176548 3:-0.952514 
-10 1:18.919566 2:1.335036 3:-0.854807 
-10 1:18.944263 2:1.468017 3:-0.73549 
10 1:18.991861 2:1.659844 3:-0.249842 
10 1:19.000418 2:1.66802 3:-0.058151 
10 1:19.006385 2:1.657152 3:0.141213 
10 1:19.010398 2:1.632547 3:0.343913 
10 1:19.013043 2:1.599166 3:0.545593 
10 1:19.01415 2:1.557039 3:0.74169 
10 1:19.012982 2:1.502489 3:0.927482 
10 1:19.008788 2:1.43175 3:1.098241 
10 1:19.000816 2:1.341054 3:1.249241 
10 1:18.988317 2:1.226635 3:1.375755 
10 1:18.97086 2:1.086442 3:1.474659 
10 1:18.949158 2:0.924532 3:1.548529 
10 1:18.924178 2:0.746325 3:1.601209 
10 1:18.896888 2:0.557239 3:1.636546 
-10 1:18.810358 2:-0.023013 3:1.672042 
-10 1:18.781768 2:-0.208374 3:1.658538 
-10 1:18.753572 2:-0.386053 3:1.624888 
-10 1:18.725881 2:-0.554056 3:1.5661 
-10 1:18.698819 2:-0.710365 3:1.477381 
-10 1:18.672787 2:-0.852428 3:1.359147 
-10 1:18.64849 2:-0.977118 3:1.217416 
-10 1:18.626646 2:-1.081278 3:1.058485 
-10 1:18.607972 2:-1.161751 3:0.888646 
-10 1:18.593173 2:-1.215459 3:0.714111 
-10 1:18.582307 2:-1.242649 3:0.537388 
-10 1:18.574555 2:-1.248096 3:0.355958 
-10 1:18.569034 2:-1.236895 3:0.166945 
-10 1:18.564919 2:-1.213867 3:-0.032162 
-10 1:18.563124 2:-1.175223 3:-0.232461 
-7.751976929183807 1:18.566592 2:-1.107134 3:-0.411731 
10 1:19.341032 2:-0.665482 3:-0.859722 
10 1:19.344111 2:-0.477802 3:-0.797455 
-10 1:19.320573 2:-0.145451 3:-0.505496 
-10 1:19.322285 2:0.029692 3:-0.440109 
-10 1:19.344281 2:0.220922 3:-0.494851 
-10 1:19.375473 2:0.409523 3:-0.608367 
-10 1:19.405401 2:0.581881 3:-0.72102 
-10 1:19.433546 2:0.751191 3:-0.823826 
-10 1:19.46014 2:0.931793 3:-0.912004 
-10 1:19.483283 2:1.130731 3:-0.970583 
-10 1:19.500383 2:1.349917 3:-0.982492 
9.737785223027197 1:19.40908 2:1.643163 3:-0.282847 
10 1:19.373188 2:1.661545 3:-0.049918 
10 1:19.339343 2:1.664017 3:0.163261 
10 1:19.307733 2:1.629326 3:0.346291 
10 1:19.27854 2:1.536239 3:0.488788 
-10 1:19.225008 2:1.180762 3:0.669787 
-10 1:19.197332 2:0.983105 3:0.75733 
-10 1:19.166993 2:0.813407 3:0.873716 
-10 1:19.133962 2:0.672959 3:1.019683 
-10 1:19.098682 2:0.554635 3:1.189363 
-10 1:19.062732 2:0.444551 3:1.366823 
-10 1:19.028728 2:0.322662 3:1.526951 
-2.338201180358355 1:18.999285 2:0.169088 3:1.644734 
6.004713067887031 1:18.917732 2:-1.041255 3:1.629815 
10 1:18.926401 2:-1.211882 3:1.501331 
10 1:18.942826 2:-1.342969 3:1.341422 
10 1:18.966232 2:-1.41738 3:1.162398 
-10 1:19.063144 2:-1.411975 3:0.557391 
-10 1:19.098507 2:-1.4007 3:0.340674 
3.144077807042422 1:19.198316 2:-1.457744 3:-0.309627 
10 1:19.231168 2:-1.44016 3:-0.507872 
10 1:19.264992 2:-1.364724 3:-0.687065 
10 1:19.299431 2:-1.211452 3:-0.836282 
10 1:19.319007 2:-1.013597 3:-0.87298 
10 1:19.315526 2:-0.828713 3:-0.770813 
-10 1:19.720685 2:0.083934 3:-0.378716 
-10 1:19.703026 2:0.212965 3:-0.550723 
-10 1:19.685285 2:0.313266 3:-0.744508 
10 1:19.649648 2:0.496611 3:-1.146732 
10 1:19.631799 2:0.61412 3:-1.329834 
10 1:19.613958 2:0.771829 3:-1.484038 
10 1:19.596441 2:0.983193 3:-1.595012 
10 1:19.584062 2:1.203349 3:-1.622804 
10 1:19.584266 2:1.349535 3:-1.515175 
10 1:19.595497 2:1.417477 3:-1.298473 
-0.4819340189604427 1:19.625489 2:1.47546 3:-0.808096 
-10 1:19.639139 2:1.495954 3:-0.589128 
-10 1:19.652687 2:1.50466 3:-0.380123 
-10 1:19.666943 2:1.495646 3:-0.173204 
-10 1:19.718398 2:1.305781 3:0.461117 
-10 1:19.736408 2:1.172138 3:0.635074 
-10 1:19.753248 2:0.997076 3:0.761889 
-10 1:19.769283 2:0.802275 3:0.862538 
-10 1:19.785998 2:0.629921 3:0.989416 
-10 1:19.803765 2:0.486308 3:1.152611 
-10 1:19.821946 2:0.345524 3:1.324019 
-10 1:19.839915 2:0.18701 3:1.479574 
10 1:19.887878 2:-0.390924 3:1.784017 
10 1:19.900204 2:-0.6077 3:1.813415 
10 1:19.90939 2:-0.828006 3:1.793308 
10 1:19.914757 2:-1.042491 3:1.720199 
10 1:19.916106 2:-1.236395 3:1.601678 
10 1:19.91329 2:-1.39439 3:1.446501 
10 1:19.906219 2:-1.502554 3:1.263299 
10 1:19.895491 2:-1.563325 3:1.059244 
10 1:19.882141 2:-1.58971 3:0.840568 
10 1:19.754568 2:-1.091443 3:-0.712421 
-10 1:19.753811 2:-0.730315 3:-0.465413 
-10 1:19.754731 2:-0.539463 3:-0.315111 
-10 1:19.748103 2:-0.338497 3:-0.270549 
-10 1:19.733087 2:-0.132099 3:-0.347636 
10 1:20.421347 2:0.391618 3:-1.175671 
10 1:20.461405 2:0.535182 3:-1.375111 
10 1:20.500358 2:0.742209 3:-1.471292 
10 1:20.53431 2:0.976491 3:-1.47708 
-10 1:20.523578 2:1.481673 3:-0.635415 
-10 1:20.499392 2:1.46043 3:-0.420111 
-10 1:20.475564 2:1.44264 3:-0.203455 
-10 1:20.322573 2:0.995606 3:0.705087 
-10 1:20.285129 2:0.822454 3:0.835035 
-10 1:20.250215 2:0.703821 3:1.018287 
-10 1:20.217189 2:0.614214 3:1.224405 
10 1:20.14772 2:0.37073 3:1.578238 
10 1:20.109296 2:0.172651 3:1.682012 
10 1:20.073653 2:-0.048173 3:1.724506 
-5.032091895672467 1:20.022085 2:-0.476851 3:1.62768 
-10 1:20.00676 2:-0.664448 3:1.51161 
-10 1:19.99185 2:-0.84968 3:1.394753 
-10 1:19.972314 2:-1.048943 3:1.304624 
-10 1:19.953178 2:-1.248328 3:1.210249 
10 1:19.93531 2:-1.58118 3:0.909453 
10 1:19.938434 2:-1.691339 3:0.717949 
10 1:19.949744 2:-1.752013 3:0.514896 
10 1:19.968191 2:-1.768615 3:0.303125 
10 1:19.992334 2:-1.751409 3:0.082413 
10 1:20.020733 2:-1.710663 3:-0.147468 
10 1:20.051949 2:-1.655682 3:-0.385384 
10 1:20.084641 2:-1.57065 3:-0.594743 
6.329484231882759 1:20.11762 2:-1.414569 3:-0.704002 
6.709231541007362 1:20.151134 2:-1.192513 3:-0.723052 
10 1:20.186639 2:-0.960817 3:-0.748379 
10 1:20.217107 2:-0.7512 3:-0.754472 
-10 1:20.231822 2:-0.423625 3:-0.429248 
-10 1:20.233319 2:-0.287013 3:-0.246404 
-10 1:20.25837 2:-0.110617 3:-0.245554 
-10 1:20.29942 2:0.08229 3:-0.38354 
-10 1:20.335116 2:0.224297 3:-0.540859 
-10 1:20.36614 2:0.300169 3:-0.746526 
-10 1:20.836964 2:0.187269 3:-0.785517 
3.581141001632687 1:20.879458 2:0.328543 3:-1.224133 
10 1:20.872961 2:0.501993 3:-1.371766 
10 1:20.852113 2:0.712267 3:-1.464321 
7.809577455557936 1:20.489395 2:1.518042 3:0.065299 
7.799820689515085 1:20.471253 2:1.445079 3:0.266479 
-10 1:20.462367 2:1.042809 3:0.768469 
-10 1:20.470614 2:0.872313 3:0.901192 
-10 1:20.474212 2:0.717507 3:1.047621 
10 1:20.453726 2:0.498931 3:1.424701 
10 1:20.450215 2:0.371912 3:1.587906 
10 1:20.465965 2:0.188744 3:1.684593 
10 1:20.495982 2:-0.02971 3:1.725061 
10 1:20.532134 2:-0.251976 3:1.72886 
10 1:20.570718 2:-0.460386 3:1.701203 
-6.332988275171339 1:20.65937 2:-0.834616 3:1.522493 
-10 1:20.707031 2:-1.002105 3:1.389318 
-10 1:20.7545 2:-1.155699 3:1.242124 
-10 1:20.800671 2:-1.286683 3:1.078694 
-10 1:20.84459 2:-1.384719 3:0.893999 
-10 1:20.885268 2:-1.445351 3:0.689728 
-10 1:20.921669 2:-1.471786 3:0.476312 
-10 1:20.952772 2:-1.46779 3:0.264696 
-10 1:20.979609 2:-1.442477 3:0.058034 
-10 1:21.007067 2:-1.414992 3:-0.155158 
10 1:21.075806 2:-1.263118 3:-0.780295 
10 1:21.054752 2:-1.05632 3:-0.867649 
10 1:21.015202 2:-0.84004 3:-0.842221 
-10 1:20.925878 2:-0.615831 3:-0.493902 
-10 1:20.878066 2:-0.471197 3:-0.334563 
-10 1:20.844434 2:-0.267778 3:-0.334404 
-10 1:20.830121 2:-0.075676 3:-0.450499 
-10 1:20.830265 2:0.066073 3:-0.607486 
-10 1:21.104783 2:0.254828 3:-0.838613 
-10 1:21.084996 2:0.31566 3:-0.942213 
-10 1:21.056595 2:0.485926 3:-1.057019 
-10 1:21.024421 2:0.728488 3:-1.166781 
-10 1:20.993314 2:1.006209 3:-1.255251 
-10 1:20.968115 2:1.28195 3:-1.306179 
10 1:20.954799 2:1.678943 3:-1.230418 
10 1:20.975901 2:1.728495 3:-1.073181 
10 1:21.011877 2:1.685381 3:-0.857246 
-10 1:21.117312 2:1.488488 3:-0.253228 
10 1:21.223519 2:1.411372 3:0.404746 
10 1:21.258275 2:1.367759 3:0.612561 
10 1:21.287308 2:1.257542 3:0.756002 
-10 1:21.329298 2:0.842728 3:0.859113 
-10 1:21.353179 2:0.645133 3:0.93341 
-10 1:21.385317 2:0.517503 3:1.089904 
10 1:21.481883 2:0.149317 3:1.566358 
10 1:21.502592 2:-0.065858 3:1.612886 
-10 1:21.500136 2:-0.58376 3:1.385335 
-10 1:21.478899 2:-0.690873 3:1.203705 
-10 1:21.47107 2:-0.862415 3:1.082791 
-10 1:21.468424 2:-1.060061 3:0.984855 
-10 1:21.462371 2:-1.243922 3:0.870442 
10 1:21.184901 2:-1.211751 3:-0.917714 
10 1:21.157764 2:-1.022038 3:-1.016367 
10 1:21.15097 2:-0.831507 3:-0.982625 
10 1:21.167083 2:-0.691185 3:-0.820692 
-10 1:21.204541 2:-0.426973 3:-0.469568 
-10 1:21.19703 2:-0.223673 3:-0.435261 
-10 1:21.172558 2:-0.002841 3:-0.503905 
-10 1:21.139137 2:0.176375 3:-0.647642 
10 1:21.838236 2:-0.007307 3:-1.172218 
10 1:21.830907 2:0.13345 3:-1.323111 
10 1:21.816211 2:0.306464 3:-1.432205 
-4.936681643120355 1:21.741317 2:0.92368 3:-1.519582 
-10 1:21.710546 2:1.130354 3:-1.472369 
-10 1:21.679102 2:1.321601 3:-1.388801 
10 1:21.594091 2:1.710601 3:-0.936037 
10 1:21.573198 2:1.75833 3:-0.739948 
10 1:21.557916 2:1.762022 3:-0.541233 
10 1:21.547811 2:1.727525 3:-0.344395 
10 1:21.541809 2:1.663585 3:-0.150515 
10 1:21.538835 2:1.578957 3:0.039341 
10 1:21.537879 2:1.48198 3:0.22397 
10 1:21.538911 2:1.374706 3:0.400129 
7.891924210644134 1:21.54266 2:1.254338 3:0.563002 
-10 1:21.576881 2:0.78913 3:0.927425 
-10 1:21.59554 2:0.603126 3:1.006284 
-10 1:21.616029 2:0.410969 3:1.071465 
-10 1:21.637127 2:0.218459 3:1.129094 
-10 1:21.65766 2:0.028537 3:1.189738 
-10 1:21.676469 2:-0.156884 3:1.265556 
-10 1:21.693004 2:-0.3371 3:1.362694 
-10 1:21.70877 2:-0.515506 3:1.466952 
10 1:21.74575 2:-0.883914 3:1.622855 
10 1:21.770831 2:-1.082387 3:1.637545 
10 1:21.800935 2:-1.28539 3:1.5928 
10 1:21.831574 2:-1.462176 3:1.494421 
10 1:21.857887 2:-1.580557 3:1.350694 
10 1:21.878292 2:-1.634111 3:1.171487 
10 1:21.893512 2:-1.634523 3:0.96778 
10 1:21.90432 2:-1.593855 3:0.750573 
10 1:21.911487 2:-1.524167 3:0.530868 
-6.404684833357106 1:21.913752 2:-1.224678 3:-0.030073 
-10 1:21.901925 2:-1.07109 3:-0.143284 
-10 1:21.882793 2:-0.884484 3:-0.216865 
-10 1:21.86029 2:-0.683657 3:-0.270359 
-10 1:21.838777 2:-0.488165 3:-0.327691 
-10 1:21.823841 2:-0.318817 3:-0.427058 
-10 1:21.819019 2:-0.192525 3:-0.586007 
-10 1:21.823704 2:-0.118771 3:-0.779578 
-10 1:22.030079 2:-1.148261 3:0.659624 
10 1:22.03276 2:-0.969238 3:1.350109 
1.215937919431006 1:22.12659 2:-0.354241 3:1.59816 
10 1:22.160618 2:-0.136686 3:1.664916 
10 1:22.194849 2:0.079601 3:1.721227 
10 1:22.231172 2:0.301622 3:1.749299 
10 1:22.270641 2:0.531777 3:1.732824 
10 1:22.309955 2:0.748457 3:1.663222 
10 1:22.34452 2:0.923108 3:1.534898 
10 1:22.373021 2:1.04956 3:1.354767 
10 1:22.39766 2:1.145678 3:1.143171 
10 1:22.420813 2:1.230509 3:0.921111 
10 1:22.444416 2:1.319759 3:0.70646 
10 1:22.467906 2:1.410107 3:0.499288 
10 1:22.489839 2:1.491521 3:0.293383 
10 1:22.508981 2:1.555331 3:0.083014 
10 1:22.525433 2:1.60151 3:-0.13447 
10 1:22.43342 2:0.699268 3:-1.643972 
10 1:22.397638 2:0.495359 3:-1.608941 
10 1:22.37553 2:0.397521 3:-1.468167 
-10 1:22.363328 2:0.441376 3:-0.976269 
-10 1:22.359893 2:0.480426 3:-0.724765 
-10 1:22.348494 2:0.465084 3:-0.503578 
-10 1:22.321918 2:0.350701 3:-0.320694 
-10 1:22.282961 2:0.14646 3:-0.207373 
-10 1:22.243547 2:-0.088595 3:-0.213025 
-10 1:22.220166 2:-0.260428 3:-0.353509 
-10 1:22.214835 2:-0.343462 3:-0.571166 
10 1:22.121494 2:-0.953952 3:-0.812415 
0.7057031549175339 1:22.08969 2:-1.122318 3:-0.726793 
-10 1:22.037535 2:-1.210578 3:0.208706 
-10 1:22.031532 2:-1.192268 3:0.436886 
-10 1:22.78264 2:-0.453353 3:1.362115 
-10 1:22.785991 2:-0.267898 3:1.322754 
-10 1:22.787066 2:-0.101615 3:1.227658 
-10 1:22.78694 2:0.054633 3:1.103056 
-10 1:22.786686 2:0.209982 3:0.975178 
-10 1:22.787377 2:0.373568 3:0.870254 
-10 1:22.790033 2:0.554055 3:0.813198 
-10 1:22.794276 2:0.747949 3:0.794977 
-10 1:22.798238 2:0.938806 3:0.770419 
-10 1:22.800102 2:1.110248 3:0.695766 
-10 1:22.776098 2:1.510981 3:-0.357932 
-10 1:22.769775 2:1.511254 3:-0.554176 
-10 1:22.76333 2:1.522458 3:-0.762643 
-2.244083150502945 1:22.756809 2:1.536363 3:-0.975573 
10 1:22.719349 2:0.774908 3:-1.5488 
10 1:22.717042 2:0.589044 3:-1.476777 
10 1:22.716657 2:0.431774 3:-1.367235 
10 1:22.700923 2:-0.899139 3:-0.827049 
10 1:22.696238 2:-1.090681 3:-0.824372 
10 1:22.693428 2:-1.279333 3:-0.765762 
10 1:22.693083 2:-1.440868 3:-0.651689 
10 1:22.695532 2:-1.538968 3:-0.500001 
10 1:22.70059 2:-1.563829 3:-0.323992 
10 1:22.707545 2:-1.533234 3:-0.131998 
10 1:22.71566 2:-1.466241 3:0.067876 
10 1:22.724201 2:-1.381905 3:0.267522 
10 1:22.732445 2:-1.298896 3:0.459 
10 1:22.740135 2:-1.223869 3:0.639472 
5.545618915307499 1:23.337587 2:-1.36034 3:-0.804198 
10 1:23.315166 2:-1.113568 3:-0.964565 
10 1:23.298399 2:-0.906349 3:-1.002646 
10 1:23.285872 2:-0.728282 3:-0.947158 
10 1:23.276172 2:-0.568961 3:-0.826823 
-10 1:23.259596 2:-0.264944 3:-0.506485 
-10 1:23.249894 2:-0.09944 3:-0.363922 
-10 1:23.237364 2:0.088934 3:-0.271388 
-10 1:23.221016 2:0.305521 3:-0.256007 
-10 1:23.204448 2:0.500872 3:-0.327607 
-10 1:23.192294 2:0.616548 3:-0.479824 
-10 1:23.183698 2:0.670359 3:-0.688596 
-10 1:23.176723 2:0.695071 3:-0.926441 
1.031145848850052 1:23.159128 2:0.80456 3:-1.356132 
10 1:23.14364 2:0.980581 3:-1.446864 
10 1:23.126313 2:1.210111 3:-1.430622 
10 1:23.113277 2:1.408716 3:-1.324901 
-10 1:23.136561 2:1.451837 3:-0.077579 
-10 1:23.147126 2:1.367771 3:0.114297 
-10 1:23.158659 2:1.269964 3:0.301944 
-10 1:23.171173 2:1.157272 3:0.481861 
-10 1:23.184784 2:1.026379 3:0.647463 
-10 1:23.199327 2:0.879328 3:0.798475 
-10 1:23.214154 2:0.727542 3:0.945689 
-10 1:23.228566 2:0.583388 3:1.101009 
-10 1:23.24193 2:0.458038 3:1.275112 
-10 1:23.254832 2:0.340575 3:1.455983 
-10 1:23.268927 2:0.200632 3:1.611626 
10 1:23.303655 2:-0.214032 3:1.742945 
10 1:23.320136 2:-0.438433 3:1.705584 
10 1:23.332205 2:-0.624932 3:1.598204 
-10 1:23.342531 2:-0.91515 3:1.034676 
-10 1:23.342893 2:-0.975823 3:0.83264 
-10 1:23.342853 2:-1.031919 3:0.628234 
-10 1:23.343157 2:-1.092361 3:0.424315 
-10 1:23.818638 2:-0.701855 3:-0.546298 
-10 1:23.804457 2:-0.537141 3:-0.394748 
-10 1:23.787291 2:-0.367121 3:-0.268943 
-10 1:23.759858 2:-0.176323 3:-0.226677 
-10 1:23.722128 2:0.02484 3:-0.288762 
-10 1:23.683589 2:0.19197 3:-0.427442 
-10 1:23.652153 2:0.293122 3:-0.609593 
-10 1:23.62284 2:0.382043 3:-0.79004 
10 1:23.515307 2:0.832109 3:-1.208901 
10 1:23.4791 2:1.018681 3:-1.281175 
10 1:23.446138 2:1.232729 3:-1.260232 
10 1:23.424372 2:1.418175 3:-1.159844 
10 1:23.419737 2:1.529576 3:-0.997342 
10 1:23.429138 2:1.575599 3:-0.793174 
10 1:23.612795 2:1.281753 3:0.854104 
10 1:23.641753 2:1.201665 3:1.047591 
10 1:23.672502 2:1.102888 3:1.226082 
10 1:23.705067 2:0.980501 3:1.380231 
10 1:23.894599 2:0.084555 3:1.916958 
10 1:23.93213 2:-0.11198 3:1.985719 
10 1:23.962522 2:-0.297026 3:1.990571 
10 1:23.982763 2:-0.463734 3:1.908497 
10 1:23.994222 2:-0.611027 3:1.758183 
-10 1:24.000974 2:-0.849404 3:1.372106 
-10 1:24.000028 2:-0.942496 3:1.177948 
-10 1:23.996903 2:-1.020868 3:0.986288 
-10 1:23.991847 2:-1.086733 3:0.795796 
-10 1:23.985109 2:-1.142305 3:0.605139 
-10 1:23.976941 2:-1.189874 3:0.412873 
-10 1:23.96764 2:-1.23292 3:0.215763 
-10 1:23.957539 2:-1.27587 3:0.00915 
10 1:24.258758 2:-0.183133 3:-0.910387 
-10 1:24.289804 2:0.161978 3:-0.640234 
-10 1:24.310596 2:0.336841 3:-0.657228 
-10 1:24.333093 2:0.513404 3:-0.720086 
-10 1:24.355941 2:0.691789 3:-0.787172 
-9.386689046831865 1:24.377894 2:0.872538 3:-0.818777 
10 1:24.457405 2:1.602485 3:-0.668294 
10 1:24.45754 2:1.647349 3:-0.514614 
10 1:24.448729 2:1.627237 3:-0.317511 
-10 1:24.243179 2:0.43011 3:1.720211 
-10 1:24.220177 2:0.237184 3:1.740847 
-10 1:24.197062 2:0.03993 3:1.749697 
-10 1:24.17429 2:-0.156164 3:1.752201 
-10 1:24.152708 2:-0.346423 3:1.739031 
-10 1:24.133241 2:-0.526333 3:1.698009 
-3.485280465136388 1:24.116724 2:-0.691683 3:1.618501 
-10 1:24.101096 2:-1.311088 3:-0.085108 
-10 1:24.109998 2:-1.28947 3:-0.279675 
10 1:24.171672 2:-0.935248 3:-0.90853 
10 1:24.193061 2:-0.749694 3:-0.906078 
10 1:24.213517 2:-0.556778 3:-0.849368 
10 1:24.234822 2:-0.365071 3:-0.822687 
-10 1:24.656237 2:0.690324 3:-0.533249 
-10 1:24.623323 2:0.903681 3:-0.554432 
-10 1:24.591319 2:1.097251 3:-0.495445 
-10 1:24.56223 2:1.261511 3:-0.374933 
-10 1:24.538064 2:1.386936 3:-0.211536 
-10 1:24.520825 2:1.464002 3:-0.023898 
-10 1:24.512225 2:1.484849 3:0.170533 
10 1:24.526008 2:1.219334 3:1.188889 
10 1:24.532682 2:1.143005 3:1.382657 
10 1:24.542966 2:1.047375 3:1.555285 
10 1:24.558259 2:0.925029 3:1.698134 
10 1:24.579843 2:0.76922 3:1.803117 
10 1:24.607117 2:0.583681 3:1.870755 
10 1:24.637989 2:0.380457 3:1.908402 
-0.2915561548664169 1:24.702469 2:-0.032623 3:1.921842 
-10 1:24.734247 2:-0.231625 3:1.902241 
-10 1:24.765776 2:-0.425555 3:1.862666 
-10 1:24.797172 2:-0.614782 3:1.800984 
-10 1:24.828461 2:-0.799144 3:1.71533 
10 1:24.910996 2:-1.257267 3:1.327873 
10 1:24.930538 2:-1.352916 3:1.16264 
10 1:24.946397 2:-1.42258 3:0.982968 
10 1:24.960225 2:-1.477151 3:0.790948 
10 1:24.973674 2:-1.527519 3:0.588668 
10 1:24.988396 2:-1.584574 3:0.37822 
10 1:25.005161 2:-1.653714 3:0.162476 
10 1:25.021809 2:-1.72214 3:-0.053095 
10 1:25.035577 2:-1.7733 3:-0.26249 
10 1:25.043702 2:-1.790636 3:-0.459705 
0.5919117267850684 1:25.04342 2:-1.757595 3:-0.638737 
10 1:24.981293 2:-1.299559 3:-0.995689 
10 1:24.949073 2:-1.089595 3:-1.022755 
10 1:24.916709 2:-0.889304 3:-0.989147 
10 1:24.886269 2:-0.712402 3:-0.89173 
10 1:24.773361 2:-0.004905 3:-0.824588 
10 1:24.744611 2:0.183975 3:-0.8575 
-10 1:24.682127 2:0.550041 3:-0.674392 
-10 1:25.228095 2:-0.076569 3:-0.47692 
-10 1:25.228349 2:0.176962 3:-0.488505 
-10 1:25.225455 2:0.362833 3:-0.564781 
-10 1:25.220538 2:0.511208 3:-0.683059 
-10 1:25.21472 2:0.652253 3:-0.820647 
10 1:25.204869 2:1.029414 3:-1.063011 
10 1:25.202908 2:1.27238 3:-1.122632 
10 1:25.2041 2:1.493177 3:-1.11137 
10 1:25.209297 2:1.639306 3:-1.006882 
10 1:25.218465 2:1.68572 3:-0.808253 
4.355365350930592 1:25.228521 2:1.702651 3:-0.588084 
10 1:25.247371 2:1.726326 3:-0.174828 
10 1:25.256436 2:1.714316 3:0.025501 
10 1:25.265407 2:1.676207 3:0.22552 
10 1:25.274222 2:1.613633 3:0.42376 
10 1:25.282787 2:1.529987 3:0.617921 
10 1:25.291007 2:1.428664 3:0.805702 
10 1:25.298789 2:1.313059 3:0.984802 
10 1:25.306038 2:1.18655 3:1.152931 
10 1:25.31271 2:1.050812 3:1.30895 
9.226742681934356 1:25.318843 2:0.904334 3:1.45387 
10 1:25.3404 2:-0.014228 3:1.990534 
10 1:25.341035 2:-0.216949 3:2.018247 
10 1:25.318089 2:-1.144969 3:1.576107 
10 1:25.310908 2:-1.291939 3:1.428038 
10 1:25.30306 2:-1.401734 3:1.262739 
10 1:25.294503 2:-1.465862 3:1.078771 
10 1:25.285377 2:-1.490563 3:0.879579 
-10 1:25.256226 2:-1.413628 3:0.232803 
-10 1:25.246469 2:-1.36615 3:0.014858 
-10 1:25.237053 2:-1.317401 3:-0.195676 
-10 1:25.228892 2:-1.235412 3:-0.380848 
-10 1:25.22276 2:-1.089834 3:-0.52568 
-3.288850113651154 1:25.21786 2:-0.914501 3:-0.645395 
-10 1:25.222501 2:-0.396395 3:-0.578364 
-10 1:25.230828 2:-0.277342 3:-0.40316 
-10 1:25.795317 2:0.093804 3:-0.55569 
-10 1:25.823443 2:0.205407 3:-0.831621 
10 1:25.870634 2:0.506971 3:-1.146934 
10 1:25.89191 2:0.696475 3:-1.219932 
10 1:25.913113 2:0.911487 3:-1.2589 
10 1:25.93535 2:1.151781 3:-1.280647 
10 1:25.957981 2:1.406224 3:-1.289995 
10 1:25.971878 2:1.610672 3:-1.233489 
8.485745293390062 1:25.968548 2:1.707253 3:-1.058989 
10 1:25.925555 2:1.832384 3:-0.255229 
10 1:25.911216 2:1.859542 3:-0.005984 
10 1:25.8959 2:1.84431 3:0.2031 
10 1:25.878771 2:1.763464 3:0.354515 
10 1:25.859155 2:1.600327 3:0.436781 
-10 1:25.837304 2:1.375573 3:0.472829 
-10 1:25.8138 2:1.123104 3:0.497776 
-10 1:25.789226 2:0.87668 3:0.546508 
-10 1:25.764352 2:0.660633 3:0.63896 
-10 1:25.740238 2:0.484542 3:0.771675 
-10 1:25.717667 2:0.352917 3:0.938773 
-10 1:25.696012 2:0.252538 3:1.132563 
-10 1:25.674229 2:0.164991 3:1.34482 
-10 1:25.651278 2:0.071862 3:1.567322 
-10 1:25.626165 2:-0.044973 3:1.791504 
10 1:25.599528 2:-0.193758 3:1.99716 
10 1:25.574005 2:-0.370665 3:2.149865 
10 1:25.552353 2:-0.571129 3:2.214326 
10 1:25.536867 2:-0.786076 3:2.167989 
10 1:25.528134 2:-0.989796 3:2.035276 
10 1:25.526348 2:-1.15281 3:1.85139 
10 1:25.531094 2:-1.258811 3:1.643588 
10 1:25.540619 2:-1.320554 3:1.421575 
6.713158087132267 1:25.55299 2:-1.354682 3:1.192712 
-10 1:25.714195 2:-0.841979 3:-0.55278 
-10 1:25.719833 2:-0.660988 3:-0.40321 
-10 1:25.730925 2:-0.45599 3:-0.304092 
-10 1:25.7526 2:-0.24308 3:-0.352822 
-10 1:25.776005 2:-0.01114 3:-0.402792 
-10 1:26.433618 2:-0.861827 3:0.990153 
-10 1:26.438204 2:-0.736133 3:1.078342 
-10 1:26.44556 2:-0.580564 3:1.19996 
-10 1:26.453206 2:-0.404309 3:1.332638 
-10 1:26.458658 2:-0.216558 3:1.454006 
-10 1:26.459434 2:-0.026499 3:1.541695 
-10 1:26.453053 2:0.156678 3:1.573336 
-10 1:26.385121 2:0.617634 3:1.268278 
-10 1:26.355087 2:0.751419 3:1.103225 
-10 1:26.326558 2:0.882526 3:0.948177 
-10 1:26.30001 2:1.015654 3:0.808692 
-10 1:26.274456 2:1.155691 3:0.679556 
-10 1:26.248961 2:1.304401 3:0.5546 
10 1:26.167077 2:1.66991 3:0.104931 
-10 1:26.081951 2:1.733626 3:-0.498875 
-10 1:26.05799 2:1.684589 3:-0.697707 
-10 1:26.038306 2:1.601428 3:-0.879527 
-10 1:26.023881 2:1.485242 3:-1.036587 
10 1:26.011154 2:1.164815 3:-1.269096 
10 1:26.012781 2:0.966868 3:-1.342361 
10 1:26.020185 2:0.758734 3:-1.377183 
10 1:26.034428 2:0.567418 3:-1.354029 
10 1:26.056408 2:0.418299 3:-1.255311 
10 1:26.083982 2:0.300574 3:-1.101579 
-10 1:26.112688 2:0.175831 3:-0.942479 
-10 1:26.138115 2:0.009527 3:-0.825605 
-10 1:26.156917 2:-0.189075 3:-0.771789 
10 1:26.165116 2:-0.556748 3:-0.869483 
10 1:26.160436 2:-0.723154 3:-0.975923 
10 1:26.161963 2:-0.921749 3:-1.050214 
10 1:26.172549 2:-1.139744 3:-1.065685 
10 1:26.189982 2:-1.327912 3:-1.017515 
10 1:26.211963 2:-1.438675 3:-0.90226 
10 1:26.236677 2:-1.464758 3:-0.730233 
10 1:26.262703 2:-1.431331 3:-0.522818 
10 1:26.288633 2:-1.364481 3:-0.301711 
-10 1:26.33526 2:-1.224251 3:0.104517 
-10 1:26.355743 2:-1.163324 3:0.282677 
-10 1:26.375165 2:-1.102018 3:0.453139 
-10 1:26.394183 2:-1.034933 3:0.623084 
-10 1:26.413449 2:-0.95667 3:0.799695 
10 1:26.703301 2:-0.508423 3:-1.17627 
10 1:26.687587 2:-0.369917 3:-1.11883 
10 1:26.666218 2:-0.208784 3:-1.080553 
10 1:26.640575 2:-0.030157 3:-1.056195 
-10 1:26.581985 2:0.359048 3:-1.028261 
-10 1:26.551796 2:0.559359 3:-1.014196 
-10 1:26.522852 2:0.756633 3:-0.993074 
-10 1:26.496531 2:0.945734 3:-0.959651 
-10 1:26.474213 2:1.121531 3:-0.908684 
-10 1:26.457278 2:1.278891 3:-0.834928 
-10 1:26.447105 2:1.412679 3:-0.733138 
-10 1:26.44507 2:1.51776 3:-0.598118 
-10 1:26.451818 2:1.588423 3:-0.43225 
-10 1:26.466455 2:1.617748 3:-0.253939 
-10 1:26.487762 2:1.602071 3:-0.079829 
-10 1:26.514 2:1.551375 3:0.088614 
-10 1:26.543299 2:1.479063 3:0.253722 
10 1:26.634286 2:1.238849 3:0.743555 
10 1:26.664577 2:1.153986 3:0.899455 
10 1:26.695243 2:1.060685 3:1.046487 
10 1:26.726549 2:0.955132 3:1.181485 
10 1:26.758745 2:0.833641 3:1.301386 
10 1:26.791883 2:0.695314 3:1.405352 
10 1:26.825825 2:0.54189 3:1.49465 
10 1:26.860422 2:0.375219 3:1.570616 
10 1:26.895045 2:0.198456 3:1.63204 
10 1:26.928055 2:0.017483 3:1.672384 
-10 1:26.999847 2:-0.488638 3:1.595374 
-10 1:27.010648 2:-0.628663 3:1.490263 
-10 1:27.015872 2:-0.75327 3:1.356142 
-10 1:27.016855 2:-0.863573 3:1.203742 
-10 1:27.014916 2:-0.960663 3:1.043671 
-10 1:27.010684 2:-1.044596 3:0.881642 
-10 1:27.003871 2:-1.114071 3:0.716915 
-10 1:26.994129 2:-1.167691 3:0.548308 
-10 1:26.981109 2:-1.204061 3:0.37464 
10 1:26.863456 2:-1.043568 3:-0.478528 
10 1:26.831839 2:-0.943502 3:-0.62444 
10 1:26.799842 2:-0.839845 3:-0.76861 
10 1:26.768424 2:-0.741034 3:-0.914523 
10 1:26.736749 2:-0.636482 3:-1.054413 
-10 1:27.165142 2:-0.403154 3:-0.59129 
-10 1:27.142405 2:-0.233473 3:-0.699066 
-10 1:27.116841 2:-0.08267 3:-0.827529 
-10 1:27.090136 2:0.060821 3:-0.964292 
10 1:27.019858 2:0.557748 3:-1.302434 
10 1:27.004577 2:0.758293 3:-1.359091 
-10 1:26.998804 2:1.356693 3:-1.285156 
-10 1:27.012448 2:1.524558 3:-1.17129 
-10 1:27.033043 2:1.661911 3:-1.020574 
-10 1:27.059559 2:1.760739 3:-0.840766 
-3.831436157155271 1:27.090233 2:1.817619 3:-0.643235 
10 1:27.155837 2:1.799243 3:-0.246313 
10 1:27.18728 2:1.724103 3:-0.068173 
10 1:27.217411 2:1.615045 3:0.095768 
10 1:27.24652 2:1.482715 3:0.249238 
4.174601149784751 1:27.416972 2:0.673421 3:1.141597 
10 1:27.447395 2:0.556188 3:1.305831 
10 1:27.477156 2:0.433585 3:1.46505 
10 1:27.504601 2:0.297017 3:1.607589 
10 1:27.528084 2:0.138038 3:1.721869 
10 1:27.546395 2:-0.045257 3:1.800153 
10 1:27.558917 2:-0.245794 3:1.839974 
10 1:27.565078 2:-0.455847 3:1.83925 
10 1:27.564521 2:-0.665592 3:1.797587 
10 1:27.557453 2:-0.859657 3:1.719062 
10 1:27.544176 2:-1.021765 3:1.608483 
10 1:27.525013 2:-1.136953 3:1.470554 
10 1:27.367296 2:-1.37685 3:0.46451 
10 1:27.330454 2:-1.444408 3:0.227397 
10 1:27.296805 2:-1.485477 3:0.0146 
10 1:27.269504 2:-1.461326 3:-0.147567 
10 1:27.251404 2:-1.336217 3:-0.235177 
10 1:27.239578 2:-1.131726 3:-0.270028 
-10 1:27.225981 2:-0.920347 3:-0.314432 
-10 1:27.207442 2:-0.737647 3:-0.394219 
-10 1:27.188789 2:-0.557923 3:-0.475243 
-10 1:27.664394 2:-0.398422 3:-0.740467 
-10 1:27.681517 2:-0.227494 3:-0.83109 
-10 1:27.698207 2:-0.059019 3:-0.924289 
-10 1:27.714549 2:0.107777 3:-1.020369 
10 1:27.762302 2:0.605827 3:-1.328951 
10 1:27.778092 2:0.773689 3:-1.43931 
10 1:27.794736 2:0.945538 3:-1.542306 
10 1:27.814045 2:1.126077 3:-1.612527 
10 1:27.83774 2:1.31926 3:-1.624495 
10 1:27.864454 2:1.51112 3:-1.570115 
10 1:27.889978 2:1.671215 3:-1.457418 
10 1:27.911387 2:1.780298 3:-1.296938 
10 1:27.928259 2:1.840328 3:-1.102612 
10 1:27.94043 2:1.855474 3:-0.888735 
10 1:27.94774 2:1.829904 3:-0.669599 
10 1:27.950023 2:1.767786 3:-0.459498 
-10 1:27.928369 2:1.412358 3:0.019479 
-10 1:27.915734 2:1.263485 3:0.145865 
-10 1:27.90304 2:1.113773 3:0.273198 
-10 1:27.891281 2:0.969421 3:0.406 
-10 1:27.881316 2:0.83607 3:0.547381 
-10 1:27.873688 2:0.71721 3:0.699509 
-10 1:27.86751 2:0.606582 3:0.860293 
-10 1:27.861491 2:0.495175 3:1.026424 
-10 1:27.85446 2:0.375814 3:1.192302 
-10 1:27.845547 2:0.245887 3:1.346624 
10 1:27.69376 2:-1.067295 3:1.621276 
9.838099824242077 1:27.680543 2:-1.127142 3:1.502606 
-10 1:27.679105 2:-0.989141 3:1.111557 
-10 1:27.678229 2:-0.916028 3:0.902009 
-10 1:27.672952 2:-0.882011 3:0.703102 
-10 1:27.663656 2:-0.882557 3:0.510909 
-10 1:27.650761 2:-0.91273 3:0.321297 
-10 1:27.634879 2:-0.966151 3:0.130296 
-10 1:27.620431 2:-1.007393 3:-0.062721 
-6.392906329701431 1:27.624888 2:-0.843976 3:-0.397469 
10 1:28.180601 2:-0.697431 3:-0.774692 
10 1:28.193195 2:-0.527664 3:-0.905577 
10 1:28.207511 2:-0.348247 3:-0.969181 
10 1:28.223013 2:-0.162427 3:-0.98481 
-7.959126941678742 1:28.239169 2:0.026551 3:-0.971769 
-10 1:28.255443 2:0.215439 3:-0.949364 
-10 1:28.271304 2:0.401018 3:-0.936796 
-10 1:28.286546 2:0.582451 3:-0.944206 
-10 1:28.301533 2:0.763103 3:-0.965736 
-10 1:28.316684 2:0.94677 3:-0.993897 
-10 1:28.332424 2:1.137246 3:-1.0212 
-10 1:28.349172 2:1.338328 3:-1.040155 
-10 1:28.366983 2:1.549126 3:-1.041171 
10 1:28.39251 2:1.824764 3:-0.876301 
10 1:28.395835 2:1.834616 3:-0.691059 
10 1:28.39455 2:1.785047 3:-0.475107 
10 1:28.390429 2:1.702485 3:-0.262488 
10 1:28.384918 2:1.60774 3:-0.076665 
10 1:28.378577 2:1.506703 3:0.086979 
10 1:28.37182 2:1.402818 3:0.237666 
10 1:28.365063 2:1.29953 3:0.384617 
10 1:28.358722 2:1.200282 3:0.537055 
10 1:28.352991 2:1.106477 3:0.700606 
10 1:28.347336 2:1.012799 3:0.869082 
10 1:28.341077 2:0.912556 3:1.03387 
10 1:28.333532 2:0.799055 3:1.186356 
10 1:28.324022 2:0.665647 3:1.317969 
10 1:28.312302 2:0.510119 3:1.424403 
10 1:28.298919 2:0.338363 3:1.509145 
10 1:28.284501 2:0.157136 3:1.576512 
-10 1:28.239535 2:-0.394018 3:1.698347 
-10 1:28.22304 2:-0.588435 3:1.694196 
-10 1:28.204908 2:-0.796278 3:1.652809 
9.599240880059643 1:28.159282 2:-1.284146 3:1.32795 
-10 1:28.161119 2:-1.179594 3:0.807432 
-10 1:28.164741 2:-1.106146 3:0.615056 
-10 1:28.165028 2:-1.071981 3:0.421664 
-10 1:28.163146 2:-1.06371 3:0.229851 
-10 1:28.161091 2:-1.058072 3:0.041714 
-10 1:28.815593 2:0.378449 3:-0.98209 
-10 1:28.838525 2:0.562452 3:-0.998219 
-10 1:28.866722 2:0.783969 3:-1.047939 
-10 1:28.896731 2:1.019378 3:-1.103081 
-10 1:28.921529 2:1.384436 3:-0.069017 
-10 1:28.903285 2:1.258467 3:0.073035 
-10 1:28.887461 2:1.154561 3:0.230163 
-10 1:28.873895 2:1.071774 3:0.404662 
-10 1:28.861099 2:0.996584 3:0.587661 
-10 1:28.847572 2:0.915384 3:0.770202 
-10 1:28.791972 2:0.529054 3:1.187821 
-10 1:28.768239 2:0.347988 3:1.263758 
-10 1:28.743658 2:0.157634 3:1.32457 
-10 1:28.71927 2:-0.031937 3:1.380406 
-10 1:28.695274 2:-0.219239 3:1.430396 
-10 1:28.671682 2:-0.404703 3:1.471208 
-10 1:28.648439 2:-0.589294 3:1.499636 
-10 1:28.625147 2:-0.776638 3:1.513125 
-10 1:28.601304 2:-0.971195 3:1.509319 
10 1:28.550555 2:-1.394971 3:1.439991 
10 1:28.526676 2:-1.600755 3:1.366978 
10 1:28.508531 2:-1.765016 3:1.261526 
10 1:28.499882 2:-1.857991 3:1.118339 
10 1:28.503136 2:-1.859905 3:0.938618 
10 1:28.516057 2:-1.785246 3:0.745854 
10 1:28.535412 2:-1.655844 3:0.568316 
10 1:28.558 2:-1.493788 3:0.430977 
10 1:28.58097 2:-1.323937 3:0.323345 
-10 1:28.617566 2:-1.066372 3:0.069264 
10 1:28.647275 2:-0.917744 3:-0.519773 
10 1:28.66117 2:-0.831576 3:-0.689857 
10 1:28.681695 2:-0.683234 3:-0.807733 
10 1:28.705829 2:-0.495942 3:-0.864927 
10 1:28.729867 2:-0.303169 3:-0.882489 
10 1:29.048258 2:-0.710106 3:-0.805021 
4.714564474272659 1:29.074371 2:-0.514403 3:-0.769101 
-10 1:29.114689 2:-0.132137 3:-0.766333 
-10 1:29.130964 2:0.056933 3:-0.788083 
-10 1:29.14603 2:0.246299 3:-0.817654 
-10 1:29.160922 2:0.437216 3:-0.849344 
-10 1:29.176434 2:0.630434 3:-0.878638 
-10 1:29.190893 2:0.821548 3:-0.913187 
-10 1:29.201176 2:1.003126 3:-0.967792 
-10 1:29.206805 2:1.175235 3:-1.045517 
10 1:29.234198 2:1.567589 3:-1.130894 
10 1:29.262782 2:1.717981 3:-1.049581 
10 1:29.296352 2:1.760889 3:-0.866122 
10 1:29.326962 2:1.72358 3:-0.648552 
5.072524628694702 1:29.347869 2:1.637233 3:-0.459912 
-10 1:29.366472 2:1.379601 3:-0.173119 
-10 1:29.370794 2:1.232417 3:-0.04904 
-10 1:29.376214 2:1.089053 3:0.079454 
-10 1:29.385454 2:0.959688 3:0.222822 
-10 1:29.398535 2:0.845992 3:0.380105 
-10 1:29.414711 2:0.747213 3:0.547097 
-10 1:29.433236 2:0.66252 3:0.719626 
-10 1:29.453271 2:0.588204 3:0.894857 
-10 1:29.47387 2:0.516952 3:1.071627 
-10 1:29.494079 2:0.441223 3:1.24888 
-10 1:29.512939 2:0.353481 3:1.425529 
-0.2275605020387949 1:29.528681 2:0.246952 3:1.594879 
-10 1:29.473205 2:-0.627205 3:1.820121 
-10 1:29.439507 2:-0.818935 3:1.733759 
-10 1:29.403466 2:-0.9853 3:1.615933 
-10 1:29.368154 2:-1.100269 3:1.468891 
-10 1:29.336348 2:-1.140817 3:1.294998 
-10 1:29.306606 2:-1.133792 3:1.102823 
-10 1:29.274913 2:-1.136441 3:0.904713 
-10 1:29.238733 2:-1.188744 3:0.710972 
10 1:29.142394 2:-1.289214 3:0.169561 
-10 1:29.111469 2:-0.90486 3:-0.278296 
10 1:29.07458 2:-0.745694 3:-0.615624 
-10 1:29.876171 2:-0.543546 3:-0.595614 
10 1:29.873769 2:-0.30513 3:-0.906241 
10 1:29.867248 2:-0.158433 3:-1.042889 
10 1:29.85715 2:0.003326 3:-1.16217 
10 1:29.843455 2:0.177698 3:-1.260389 
10 1:29.82614 2:0.362233 3:-1.333855 
10 1:29.805183 2:0.554484 3:-1.378873 
10 1:29.780563 2:0.752001 3:-1.391752 
10 1:29.752257 2:0.952336 3:-1.368796 
10 1:29.720581 2:1.15054 3:-1.306434 
10 1:29.689092 2:1.31769 3:-1.202244 
-10 1:29.628183 2:1.40311 3:-0.664877 
-10 1:29.614853 2:1.353455 3:-0.450784 
-10 1:29.601265 2:1.309348 3:-0.241732 
-10 1:29.587154 2:1.275005 3:-0.040817 
-10 1:29.573066 2:1.245441 3:0.153105 
-10 1:29.559549 2:1.215635 3:0.341192 
10 1:29.536425 2:1.135236 3:0.704485 
10 1:29.527894 2:1.075154 3:0.881462 
10 1:29.52206 2:0.996529 3:1.055478 
10 1:29.519423 2:0.895609 3:1.226433 
10 1:29.520482 2:0.768645 3:1.394227 
10 1:29.525719 2:0.61208 3:1.558678 
10 1:29.535119 2:0.427727 3:1.717392 
10 1:29.548117 2:0.223333 3:1.865526 
10 1:29.56412 2:0.006958 3:1.998109 
10 1:29.582537 2:-0.213344 3:2.110172 
10 1:29.602773 2:-0.429514 3:2.196745 
10 1:29.624236 2:-0.633496 3:2.252856 
10 1:29.646333 2:-0.817233 3:2.273537 
10 1:29.668472 2:-0.972668 3:2.253817 
10 1:29.690059 2:-1.091744 3:2.188725 
10 1:29.710528 2:-1.166981 3:2.073826 
10 1:29.729745 2:-1.200531 3:1.913597 
10 1:29.747936 2:-1.202511 3:1.719891 
0.6233158542164438 1:29.765336 2:-1.183279 3:1.504781 
-10 1:29.798708 2:-1.122609 3:1.058639 
-10 1:29.814919 2:-1.099058 3:0.850276 
-10 1:29.82933 2:-1.071997 3:0.656398 
-10 1:29.839872 2:-1.023764 3:0.474434 
-10 1:29.845126 2:-0.941371 3:0.301356 
-10 1:29.847479 2:-0.839091 3:0.13155 
-10 1:29.85068 2:-0.740988 3:-0.041519 
-10 1:29.857114 2:-0.662499 3:-0.22183 
-10 1:29.866015 2:-0.59912 3:-0.407449 
-10 1:30.302838 2:-0.312739 3:-0.316718 
-10 1:30.35303 2:-0.316531 3:-0.638195 
-10 1:30.372216 2:0.244021 3:-0.800603 
-10 1:30.37189 2:0.458301 3:-0.81358 
0.4183123416658318 1:30.415344 2:0.697415 3:-1.108952 
10 1:30.434946 2:0.854298 3:-1.245636 
10 1:30.433969 2:1.071079 3:-1.254621 
-10 1:30.356928 2:1.446894 3:-0.787191 
-10 1:30.324989 2:1.516262 3:-0.587327 
10 1:30.232592 2:1.607278 3:-0.001433 
10 1:30.204255 2:1.514968 3:0.186708 
10 1:30.175412 2:1.412649 3:0.378798 
10 1:30.144692 2:1.346542 3:0.58037 
10 1:30.112787 2:1.317224 3:0.786954 
10 1:30.083269 2:1.261341 3:0.980103 
10 1:30.057981 2:1.146025 3:1.150318 
10 1:30.035504 2:0.997494 3:1.304842 
10 1:30.014328 2:0.844374 3:1.451354 
10 1:29.99473 2:0.688635 3:1.587936 
10 1:29.977873 2:0.519143 3:1.707911 
10 1:29.965171 2:0.330525 3:1.802604 
10 1:29.958493 2:0.12849 3:1.859616 
-10 1:29.982007 2:-0.485998 3:1.752094 
-10 1:30.001844 2:-0.662422 3:1.637342 
-10 1:30.026628 2:-0.802277 3:1.488305 
-10 1:30.055457 2:-0.902087 3:1.310518 
-10 1:30.086919 2:-0.973551 3:1.113862 
-10 1:30.119563 2:-1.029464 3:0.908534 
-10 1:30.151956 2:-1.082566 3:0.704618 
-10 1:30.183396 2:-1.143052 3:0.507332 
9.556005558749753 1:30.244671 2:-1.310792 3:0.126335 
10 1:30.275256 2:-1.399898 3:-0.063458 
10 1:30.306322 2:-1.443161 3:-0.25956 
10 1:30.338188 2:-1.416253 3:-0.465721 
10 1:30.368534 2:-1.327139 3:-0.666517 
10 1:30.382935 2:-1.162489 3:-0.77041 
10 1:30.383561 2:-0.945616 3:-0.78967 
-10 1:30.349725 2:-0.607666 3:-0.59654 
-10 1:30.322023 2:-0.496363 3:-0.426786 
10 1:30.548493 2:-1.108824 3:-0.889624 
10 1:30.55588 2:-0.865181 3:-1.268483 
10 1:30.568054 2:-0.685457 3:-1.443261 
10 1:30.584443 2:-0.551558 3:-1.459516 
10 1:30.604477 2:-0.445393 3:-1.362805 
10 1:30.627586 2:-0.34887 3:-1.198688 
10 1:30.653198 2:-0.243896 3:-1.012722 
-1.957970439820667 1:30.709254 2:0.041204 3:-0.717887 
-10 1:30.737275 2:0.178552 3:-0.560045 
-10 1:30.765131 2:0.318236 3:-0.4095 
-10 1:30.793713 2:0.504617 3:-0.342307 
-10 1:30.817247 2:0.705989 3:-0.384091 
-10 1:30.829213 2:0.858324 3:-0.506577 
-10 1:30.836108 2:0.989649 3:-0.665443 
-10 1:30.846352 2:1.141774 3:-0.81431 
-10 1:30.867741 2:1.35196 3:-0.907354 
1.757169034237626 1:30.968859 2:1.475347 3:0.416832 
-10 1:30.938293 2:1.029416 3:0.844869 
-10 1:30.917687 2:0.835382 3:0.917362 
-10 1:30.895983 2:0.63792 3:0.979709 
-10 1:30.877326 2:0.454009 3:1.062036 
-10 1:30.865074 2:0.297306 3:1.188921 
-10 1:30.85615 2:0.154388 3:1.339696 
-10 1:30.844353 2:-0.001333 3:1.471681 
-10 1:30.825813 2:-0.185665 3:1.556671 
-10 1:30.802048 2:-0.389535 3:1.599919 
-10 1:30.775326 2:-0.60041 3:1.611338 
10 1:30.717991 2:-0.988768 3:1.505905 
10 1:30.690302 2:-1.126335 3:1.353675 
1.083699116657242 1:30.66924 2:-1.195327 3:1.165611 
-4.926637284011319 1:30.628132 2:-1.199241 3:0.533545 
-10 1:30.615997 2:-1.190585 3:0.327066 
10 1:30.563839 2:-1.091338 3:-0.686149 
-10 1:31.306011 2:-0.202592 3:-0.448423 
-10 1:31.277507 2:-0.038067 3:-0.31156 
-10 1:31.249026 2:0.164612 3:-0.231744 
-10 1:31.225676 2:0.380994 3:-0.240981 
-10 1:31.217223 2:0.540345 3:-0.364803 
-10 1:31.219865 2:0.649733 3:-0.562831 
3.459596238407478 1:31.192934 2:1.395824 3:-1.311844 
10 1:31.166725 2:1.606479 3:-1.274298 
10 1:31.139197 2:1.766085 3:-1.143186 
10 1:31.116705 2:1.843492 3:-0.957241 
8.783762023313637 1:31.082177 2:1.84293 3:-0.494268 
10 1:31.067258 2:1.814362 3:-0.252096 
10 1:31.053091 2:1.78555 3:-0.019641 
10 1:31.040759 2:1.748731 3:0.200172 
10 1:31.031436 2:1.694933 3:0.404959 
10 1:31.026296 2:1.615185 3:0.592335 
10 1:31.0265 2:1.500636 3:0.759956 
10 1:31.032136 2:1.350334 3:0.908025 
10 1:31.041594 2:1.175904 3:1.040807 
-10 1:31.089884 2:0.435454 3:1.495547 
-10 1:31.103538 2:0.245304 3:1.595562 
10 1:31.213979 2:-0.784245 3:1.648331 
10 1:31.243573 2:-0.975993 3:1.537359 
10 1:31.272274 2:-1.141639 3:1.399538 
10 1:31.297364 2:-1.246015 3:1.218925 
10 1:31.318242 2:-1.290085 3:1.005018 
-10 1:31.382158 2:-1.289295 3:0.148347 
-10 1:31.683286 2:-0.218333 3:-0.353546 
-10 1:31.723048 2:-0.079518 3:-0.157997 
-10 1:31.764689 2:0.111551 3:-0.032962 
-10 1:31.802157 2:0.346072 3:-0.029719 
-10 1:31.821508 2:0.534428 3:-0.14541 
-10 1:31.821219 2:0.647018 3:-0.34512 
10 1:31.968698 2:1.841974 3:-0.806891 
10 1:31.986985 2:1.825243 3:-0.57632 
10 1:32.016848 2:1.610185 3:0.127918 
10 1:32.027056 2:1.548142 3:0.348622 
10 1:32.035963 2:1.479585 3:0.566366 
10 1:32.042162 2:1.394462 3:0.783209 
10 1:32.044723 2:1.289761 3:0.994171 
10 1:32.042825 2:1.164058 3:1.192685 
10 1:32.035646 2:1.015932 3:1.372184 
10 1:32.022613 2:0.844708 3:1.527536 
10 1:32.00386 2:0.651835 3:1.657687 
10 1:31.979645 2:0.439137 3:1.762299 
10 1:31.950232 2:0.210975 3:1.83667 
10 1:31.915906 2:-0.019312 3:1.860638 
-10 1:31.792743 2:-0.606663 3:1.529613 
-10 1:31.751832 2:-0.768206 3:1.361081 
-10 1:31.710438 2:-0.963143 3:1.245514 
10 1:31.667843 2:-1.209082 3:1.205745 
10 1:31.627758 2:-1.439978 3:1.167371 
10 1:31.594449 2:-1.579521 3:1.044143 
10 1:31.569405 2:-1.608353 3:0.818687 
10 1:31.550893 2:-1.573326 3:0.553698 
10 1:31.537013 2:-1.52002 3:0.307816 
10 1:32.319087 2:0.570712 3:-1.006386 
2.901886259954873 1:32.329254 2:0.725106 3:-1.201381 
3.910392495146271 1:32.138002 2:1.657568 3:-0.088996 
-10 1:32.08376 2:0.981128 3:0.853256 
-10 1:32.077338 2:0.819343 3:1.019242 
-10 1:32.070316 2:0.660744 3:1.188534 
-10 1:32.061962 2:0.505622 3:1.367591 
-10 1:32.052836 2:0.350241 3:1.553812 
3.127385785691497 1:32.064329 2:-0.263965 3:1.858776 
-10 1:32.119265 2:-0.616645 3:1.595761 
-10 1:32.150472 2:-0.73398 3:1.391056 
-10 1:32.179463 2:-0.907879 3:1.244122 
-10 1:32.207888 2:-1.111659 3:1.122213 
8.773384834312333 1:32.429563 2:-0.933235 3:-1.005926 
10 1:32.402409 2:-0.711641 3:-0.907409 
-10 1:32.282366 2:-0.089009 3:-0.23408 
-10 1:32.251773 2:0.06044 3:-0.056332 
-10 1:32.226271 2:0.290459 3:0.021602 
-10 1:32.220795 2:0.488085 3:-0.06041 
-10 1:32.238271 2:0.580247 3:-0.280205 
10 1:32.865919 2:0.320088 3:-0.873364 
10 1:32.899471 2:0.315206 3:-1.079439 
10 1:32.925157 2:0.448743 3:-1.302952 
10 1:32.940268 2:0.667112 3:-1.501401 
-10 1:32.740272 2:1.315755 3:-0.56973 
-10 1:32.703957 2:1.299257 3:-0.336247 
-10 1:32.666807 2:1.286004 3:-0.099135 
-10 1:32.632358 2:1.249689 3:0.132252 
-10 1:32.602735 2:1.174409 3:0.352313 
-10 1:32.576246 2:1.072539 3:0.565648 
-10 1:32.550552 2:0.961209 3:0.778574 
-10 1:32.523403 2:0.857045 3:0.997102 
-10 1:32.495586 2:0.75916 3:1.216774 
-10 1:32.471622 2:0.64513 3:1.420247 
10 1:32.450626 2:-0.158879 3:1.935737 
10 1:32.459668 2:-0.411352 3:2.000483 
10 1:32.476489 2:-0.652382 3:2.011434 
10 1:32.503777 2:-0.860743 3:1.941717 
10 1:32.542162 2:-1.022104 3:1.780559 
10 1:32.586048 2:-1.142987 3:1.565848 
-10 1:32.711524 2:-1.389198 3:0.904338 
10 1:32.882706 2:-1.721458 3:0.000122 
-10 1:32.878134 2:-0.736924 3:-0.443004 
-10 1:32.834813 2:-0.58763 3:-0.245405 
-10 1:32.79322 2:-0.429731 3:-0.06266 
-10 1:32.757313 2:-0.24451 3:0.071675 
-10 1:32.730858 2:-0.017024 3:0.127061 
-10 1:32.720856 2:0.209346 3:0.080774 
-10 1:32.741104 2:0.315437 3:-0.09581 
-10 1:33.289603 2:0.40947 3:-0.292689 
10 1:33.24028 2:0.412832 3:-1.089277 
10 1:33.242005 2:0.510658 3:-1.282955 
10 1:33.253244 2:0.663969 3:-1.449941 
8.403569083235354 1:33.303816 2:1.134103 3:-1.704374 
10 1:33.334493 2:1.335651 3:-1.669542 
4.179674942936042 1:33.472065 2:1.034992 3:1.21116 
10 1:33.471772 2:0.933721 3:1.435544 
10 1:33.467212 2:0.802711 3:1.65894 
10 1:33.456584 2:0.636208 3:1.865539 
10 1:33.436185 2:0.443032 3:1.976181 
-10 1:33.364768 2:0.015292 3:1.801285 
-10 1:33.322818 2:-0.206316 3:1.631479 
-10 1:33.282913 2:-0.426144 3:1.490378 
-10 1:33.245743 2:-0.650698 3:1.403723 
-10 1:33.21001 2:-0.89216 3:1.378287 
-10 1:33.174633 2:-1.143123 3:1.380049 
10 1:33.139005 2:-1.360527 3:1.301873 
10 1:33.105245 2:-1.512012 3:1.104479 
10 1:33.079131 2:-1.591081 3:0.8656 
-9.16196687287515 1:33.034174 2:-1.585374 3:0.133546 
-10 1:33.199739 2:-0.21564 3:-0.316233 
-10 1:33.234963 2:-0.042478 3:-0.144463 
-10 1:33.272168 2:0.15954 3:-0.006262 
-10 1:33.301089 2:0.383259 3:-0.049666 
-8.572715343057565 1:33.841103 2:0.224698 3:-0.4818 
10 1:33.916616 2:0.298021 3:-0.963221 
7.612740195444707 1:33.954454 2:0.44583 3:-1.123736 
-3.541215985259621 1:34.039444 2:1.283256 3:-1.116939 
10 1:33.910714 2:1.550008 3:-0.01153 
10 1:33.878773 2:1.56707 3:0.227043 
10 1:33.845548 2:1.556675 3:0.454752 
10 1:33.810023 2:1.491208 3:0.65873 
10 1:33.771763 2:1.358115 3:0.832921 
10 1:33.731997 2:1.187697 3:0.990653 
10 1:33.575908 2:0.661348 3:1.713395 
10 1:33.531321 2:0.494619 3:1.907941 
10 1:33.487004 2:0.284048 3:2.068719 
10 1:33.452825 2:0.067701 3:2.153505 
10 1:33.438728 2:-0.115759 3:2.119997 
-10 1:33.46782 2:-0.361412 3:1.735464 
-10 1:33.485736 2:-0.485848 3:1.518168 
-10 1:33.488059 2:-0.656045 3:1.37802 
-10 1:33.473016 2:-0.876631 3:1.32423 
-10 1:33.455469 2:-1.110798 3:1.278295 
-10 1:33.447892 2:-1.324673 3:1.176512 
10 1:33.464208 2:-1.636774 3:0.834153 
10 1:33.48543 2:-1.717169 3:0.625453 
10 1:33.513208 2:-1.752697 3:0.402939 
10 1:33.545772 2:-1.754743 3:0.17086 
10 1:33.581355 2:-1.734697 3:-0.066535 
10 1:33.618236 2:-1.702784 3:-0.304493 
10 1:33.655755 2:-1.643429 3:-0.527031 
10 1:33.694269 2:-1.516032 3:-0.707162 
10 1:33.730943 2:-1.312833 3:-0.819174 
-10 1:33.785687 2:-0.262824 3:-0.443715 
-10 1:33.770803 2:-0.145983 3:-0.253402 
-10 1:33.802587 2:0.058791 3:-0.329642 
10 1:34.196297 2:0.327964 3:-1.138197 
10 1:34.192293 2:0.459771 3:-1.327745 
10 1:34.347912 2:1.544484 3:-0.014105 
10 1:34.357869 2:1.476841 3:0.203603 
10 1:34.366002 2:1.388882 3:0.413313 
-10 1:34.377769 2:0.842202 3:1.125749 
-10 1:34.382799 2:0.718294 3:1.32323 
9.760762228820722 1:34.393871 2:0.333849 3:1.866861 
10 1:34.323612 2:-0.808512 3:1.910219 
10 1:34.304938 2:-1.014376 3:1.826395 
10 1:34.285233 2:-1.192123 3:1.699457 
10 1:34.264742 2:-1.336219 3:1.527711 
10 1:34.244386 2:-1.446129 3:1.324696 
-10 1:34.176756 2:-1.600975 3:0.445105 
-0.1971735519823422 1:34.160323 2:-1.622677 3:0.215847 
-10 1:34.158441 2:-0.940395 3:-0.478198 
-10 1:34.178884 2:-0.745831 3:-0.356395 
-10 1:34.197914 2:-0.549396 3:-0.257965 
-10 1:34.217269 2:-0.339773 3:-0.167443 
-10 1:34.236302 2:-0.12153 3:-0.090228 
-10 1:34.238701 2:0.034387 3:-0.205721 
-10 1:34.228935 2:0.129916 3:-0.447704 
2.47518657309596 1:34.699085 2:0.698572 3:-1.497592 
-10 1:34.789334 2:1.450092 3:-0.506872 
10 1:34.831671 2:1.479664 3:0.227959 
10 1:34.840432 2:1.428419 3:0.42799 
1.134548123025353 1:34.842388 2:1.287408 3:0.580991 
-10 1:34.840584 2:0.916535 3:0.858744 
-10 1:34.845005 2:0.789793 3:1.044046 
-10 1:34.851565 2:0.684451 3:1.249823 
-10 1:34.857858 2:0.571204 3:1.457413 
-10 1:34.843428 2:-0.199127 3:1.842687 
-10 1:34.831149 2:-0.431423 3:1.816634 
-10 1:34.817432 2:-0.65157 3:1.754616 
-10 1:34.802442 2:-0.852649 3:1.653825 
-10 1:34.786406 2:-1.029635 3:1.514118 
-10 1:34.769824 2:-1.186062 3:1.347429 
-10 1:34.753218 2:-1.325358 3:1.165998 
-10 1:34.736932 2:-1.442706 3:0.971936 
-10 1:34.721264 2:-1.531817 3:0.765345 
-10 1:34.706298 2:-1.593021 3:0.548018 
-10 1:34.691866 2:-1.63444 3:0.323736 
10 1:34.643816 2:-1.58386 3:-0.580603 
10 1:34.640761 2:-1.431883 3:-0.762508 
-10 1:34.698214 2:-0.729119 3:-0.319402 
-10 1:34.713161 2:-0.575414 3:-0.179754 
-10 1:34.72528 2:-0.347954 3:-0.152545 
-10 1:34.73511 2:-0.123728 3:-0.163685 
-10 1:34.745729 2:0.105429 3:-0.16479 
-10 1:34.742772 2:0.246754 3:-0.336015 
-10 1:35.302774 2:0.56179 3:-0.466239 
-10 1:35.377511 2:1.050339 3:-1.13831 
-10 1:35.374017 2:1.30744 3:-1.096135 
10 1:35.210155 2:1.395103 3:0.421908 
10 1:35.186719 2:1.291137 3:0.634542 
10 1:35.163932 2:1.158263 3:0.840072 
10 1:35.04083 2:0.1795 3:1.940377 
10 1:35.024181 2:-0.007827 3:2.087076 
10 1:35.015974 2:-0.219417 3:2.154811 
10 1:35.016978 2:-0.454119 3:2.136517 
10 1:35.024296 2:-0.699557 3:2.059439 
10 1:35.034918 2:-0.942759 3:1.951908 
10 1:35.047539 2:-1.170026 3:1.82652 
10 1:35.062609 2:-1.366911 3:1.679657 
