svm_type epsilon_svr
kernel_type rbf
gamma 0.1
nr_class 2
total_sv 8273
rho 5.65866
SV
10 1:0.753461 2:-1.11696 3:-0.804734 
10 1:0.723757 2:-0.956961 3:-0.880471 
10 1:0.694053 2:-0.796962 3:-0.956207 
10 1:0.664349 2:-0.636963 3:-1.031944 
10 1:0.638737 2:-0.467809 3:-1.074138 
-10 1:0.574665 2:0.066219 3:-1.097566 
-10 1:0.554116 2:0.244518 3:-1.099876 
-10 1:0.533567 2:0.422817 3:-1.102186 
-8.906838376381101 1:0.513762 2:0.600999 3:-1.099715 
10 1:0.478642 2:0.956664 3:-1.065932 
10 1:0.472876 2:1.114041 3:-0.987067 
10 1:0.47032 2:1.26585 3:-0.89133 
10 1:0.481514 2:1.357991 3:-0.749877 
10 1:0.50117 2:1.413408 3:-0.580287 
10 1:0.520825 2:1.468826 3:-0.410698 
-5.019708659524481 1:0.577351 2:1.443854 3:-0.059543 
-10 1:0.606408 2:1.425097 3:0.116587 
-10 1:0.635466 2:1.40634 3:0.292717 
-10 1:0.668159 2:1.33061 3:0.450426 
-10 1:0.701401 2:1.246297 3:0.605359 
-10 1:0.734643 2:1.161983 3:0.760291 
-1.819339883361942 1:0.767806 2:1.059706 3:0.901407 
3.507058057338346 1:0.942688 2:0.138045 3:1.362353 
10 1:0.967688 2:-0.036358 3:1.396654 
10 1:0.992687 2:-0.210762 3:1.430956 
10 1:1.017687 2:-0.385165 3:1.465258 
10 1:1.039511 2:-0.561994 3:1.476992 
10 1:1.059306 2:-0.740373 3:1.474312 
10 1:1.074004 2:-0.903979 3:1.449244 
10 1:1.057206 2:-0.976296 3:1.285824 
6.753758248696824 1:1.040408 2:-1.048613 3:1.122404 
-10 1:0.998305 2:-1.136349 3:0.782077 
-10 1:0.972893 2:-1.151053 3:0.605001 
-10 1:0.94748 2:-1.165756 3:0.427925 
-10 1:0.922068 2:-1.180459 3:0.250848 
-10 1:0.896656 2:-1.195162 3:0.073772 
-10 1:0.871244 2:-1.209865 3:-0.103305 
-10 1:0.842748 2:-1.19679 3:-0.279969 
-10 1:0.813363 2:-1.174264 3:-0.455449 
7.166509458189033 1:0.783412 2:-1.145612 3:-0.630091 
10 1:1.119983 2:0.747287 3:-1.051524 
10 1:1.122349 2:0.942613 3:-1.015679 
10 1:1.131316 2:1.1225 3:-0.924641 
-10 1:1.17363 2:1.248209 3:-0.552919 
-10 1:1.19574 2:1.301914 3:-0.359646 
-10 1:1.217411 2:1.365074 3:-0.169365 
-10 1:1.238805 2:1.434206 3:0.019025 
10 1:1.281593 2:1.57247 3:0.395805 
10 1:1.304795 2:1.589474 3:0.595472 
10 1:1.328017 2:1.60586 3:0.795272 
10 1:1.35124 2:1.622247 3:0.995071 
10 1:1.372157 2:1.59324 3:1.171538 
10 1:1.385738 2:1.419752 3:1.273739 
10 1:1.399318 2:1.246263 3:1.37594 
10 1:1.394388 2:1.062235 3:1.319082 
-10 1:1.378985 2:0.693049 3:1.157896 
-10 1:1.365397 2:0.538058 3:1.029362 
-10 1:1.353362 2:0.383601 3:0.914141 
-10 1:1.371097 2:0.239383 3:1.054193 
-10 1:1.388832 2:0.095166 3:1.194245 
-10 1:1.406567 2:-0.049052 3:1.334297 
10 1:1.42885 2:-0.414857 3:1.4955 
10 1:1.432995 2:-0.595821 3:1.516453 
10 1:1.420555 2:-0.758113 3:1.397144 
10 1:1.408115 2:-0.920404 3:1.277835 
-10 1:1.357975 2:-1.305494 3:0.818481 
-10 1:1.338746 2:-1.404192 3:0.646231 
-10 1:1.31714 2:-1.469091 3:0.456365 
10 1:1.249854 2:-1.569318 3:-0.126764 
10 1:1.226348 2:-1.56148 3:-0.327048 
10 1:1.206956 2:-1.473591 3:-0.485766 
10 1:1.191684 2:-1.311028 3:-0.603298 
-10 1:1.174843 2:-0.923907 3:-0.716278 
-10 1:1.166884 2:-0.72941 3:-0.768756 
-10 1:1.159695 2:-0.533372 3:-0.814523 
-10 1:1.149663 2:-0.350894 3:-0.885673 
10 1:1.912472 2:0.070729 3:-1.1803 
10 1:1.880214 2:0.272587 3:-1.146166 
10 1:1.846562 2:0.470076 3:-1.098417 
10 1:1.809277 2:0.656177 3:-1.015179 
10 1:1.771991 2:0.842278 3:-0.931941 
10 1:1.733946 2:1.023272 3:-0.838757 
10 1:1.695522 2:1.201717 3:-0.740608 
-10 1:1.622546 2:1.327542 3:-0.356599 
-10 1:1.5847 2:1.403775 3:-0.167631 
-10 1:1.546854 2:1.480007 3:0.021336 
10 1:1.44548 2:1.583866 3:0.620546 
10 1:1.413925 2:1.597721 3:0.824193 
10 1:1.390927 2:1.55144 3:1.024896 
10 1:1.386613 2:1.426289 3:1.170552 
10 1:1.394084 2:1.251388 3:1.281485 
10 1:1.423692 2:1.047511 3:1.267401 
-10 1:1.457632 2:0.863751 3:1.204947 
-10 1:1.497895 2:0.71326 3:1.068259 
-10 1:1.538063 2:0.559969 3:0.934815 
-10 1:1.578059 2:0.401554 3:0.807311 
-10 1:1.607328 2:0.199749 3:0.793631 
-10 1:1.614122 2:0.031691 3:0.902866 
-10 1:1.614403 2:-0.12006 3:1.04166 
-10 1:1.604836 2:-0.234978 3:1.213865 
4.162310632834232 1:1.613817 2:-0.54549 3:1.440188 
10 1:1.63502 2:-0.744598 3:1.479351 
10 1:1.675227 2:-0.8972 3:1.345007 
4.291554965150882 1:1.836299 2:-1.47959 3:0.77996 
10 1:1.875472 2:-1.576343 3:0.600916 
10 1:1.914645 2:-1.673096 3:0.421872 
10 1:1.953819 2:-1.769848 3:0.242828 
10 1:1.991936 2:-1.856847 3:0.061984 
10 1:2.017042 2:-1.823658 3:-0.141044 
10 1:2.031795 2:-1.747194 3:-0.313169 
10 1:2.020934 2:-1.56367 3:-0.408841 
-10 1:1.990116 2:-1.178646 3:-0.554443 
-10 1:1.973715 2:-0.984762 3:-0.62171 
-10 1:1.969892 2:-0.8204 3:-0.747895 
-10 1:1.965352 2:-0.653903 3:-0.871143 
10 1:1.962241 2:-0.492465 3:-0.999498 
10 1:1.953725 2:-0.316918 3:-1.103861 
10 1:1.932762 2:-0.118916 3:-1.143644 
10 1:2.051073 2:0.142458 3:-1.127912 
10 1:2.051539 2:0.327715 3:-1.042062 
-10 1:2.052407 2:0.698372 3:-0.870675 
-10 1:2.052288 2:0.884949 3:-0.78773 
10 1:2.036669 2:1.245337 3:-0.719723 
10 1:2.200519 2:1.625182 3:0.432226 
10 1:2.229018 2:1.679035 3:0.627107 
10 1:2.25977 2:1.705868 3:0.823375 
10 1:2.29512 2:1.677573 3:1.022475 
10 1:2.33047 2:1.649277 3:1.221574 
10 1:2.354228 2:1.531033 3:1.310891 
10 1:2.367027 2:1.327765 3:1.296436 
-7.748375498661607 1:2.392626 2:0.921228 3:1.267525 
-10 1:2.410869 2:0.71911 3:1.286198 
-10 1:2.429871 2:0.517151 3:1.30949 
-10 1:2.474535 2:-0.008071 3:1.341591 
-10 1:2.472297 2:-0.189032 3:1.247046 
-10 1:2.480911 2:-0.378236 3:1.213818 
-10 1:2.502491 2:-0.577289 3:1.253858 
10 1:2.542633 2:-1.168233 3:1.229397 
10 1:2.521995 2:-1.276219 3:1.057339 
10 1:2.501358 2:-1.384205 3:0.885281 
10 1:2.48072 2:-1.49219 3:0.713222 
10 1:2.456826 2:-1.573626 3:0.533561 
10 1:2.287922 2:-1.533657 3:-0.460436 
-10 1:2.240381 2:-1.197241 3:-0.594426 
-10 1:2.221379 2:-0.995282 3:-0.617717 
-10 1:2.203588 2:-0.793098 3:-0.633651 
-10 1:2.191063 2:-0.589933 3:-0.617597 
-10 1:2.167839 2:-0.439637 3:-0.689347 
-10 1:2.1311 2:-0.356128 3:-0.872015 
10 1:2.080355 2:-0.021289 3:-1.025904 
-10 1:2.593103 2:0.509767 3:-0.897654 
-10 1:2.582129 2:0.70262 3:-0.847262 
-7.102745370983024 1:2.571154 2:0.895473 3:-0.796871 
-10 1:2.573747 2:1.03765 3:-0.673604 
-10 1:2.583804 2:1.151945 3:-0.51024 
-10 1:2.593862 2:1.26624 3:-0.346877 
10 1:2.847249 2:0.921196 3:1.447155 
10 1:2.87636 2:0.773322 3:1.575337 
10 1:2.905146 2:0.614838 3:1.693262 
10 1:2.929427 2:0.435473 3:1.759838 
10 1:2.949836 2:0.238161 3:1.782283 
10 1:2.970245 2:0.04085 3:1.804727 
10 1:2.990434 2:-0.156202 3:1.825587 
10 1:2.995588 2:-0.335526 3:1.738016 
10 1:3.000742 2:-0.514849 3:1.650446 
10 1:3.004892 2:-0.689764 3:1.557963 
10 1:2.993588 2:-0.796757 3:1.389806 
-10 1:2.961858 2:-1.129836 3:0.894226 
-10 1:2.954824 2:-1.260491 3:0.743455 
-10 1:2.944029 2:-1.368073 3:0.578979 
-10 1:2.927551 2:-1.440796 3:0.393798 
10 1:2.878119 2:-1.658965 3:-0.161744 
10 1:2.854318 2:-1.659665 3:-0.354098 
10 1:2.827355 2:-1.62927 3:-0.54955 
10 1:2.801026 2:-1.559114 3:-0.711264 
10 1:2.776582 2:-1.370743 3:-0.77267 
10 1:2.755991 2:-1.182963 3:-0.803451 
-10 1:2.740831 2:-0.811402 3:-0.65812 
-10 1:2.732141 2:-0.624073 3:-0.593287 
-10 1:2.715234 2:-0.425278 3:-0.58644 
-10 1:2.698326 2:-0.226484 3:-0.579593 
-10 1:2.675349 2:-0.048983 3:-0.637007 
-10 1:2.64643 2:0.107676 3:-0.757313 
-10 1:2.61679 2:0.203914 3:-0.926936 
10 1:2.593877 2:0.350388 3:-1.006169 
10 1:3.33468 2:-0.682745 3:-1.136966 
10 1:3.321979 2:-0.498606 3:-1.122308 
10 1:3.309279 2:-0.314467 3:-1.107649 
10 1:3.296578 2:-0.130328 3:-1.092991 
-10 1:3.269264 2:0.217832 3:-0.970217 
-10 1:3.255596 2:0.391803 3:-0.908323 
-10 1:3.241929 2:0.565773 3:-0.84643 
-10 1:3.228276 2:0.740134 3:-0.785711 
-10 1:3.214707 2:0.916664 3:-0.731521 
-10 1:3.201137 2:1.093193 3:-0.67733 
-10 1:3.187418 2:1.263324 3:-0.606614 
-9.698903992792015 1:3.15404 2:1.460817 3:-0.021875 
-10 1:3.154312 2:1.371614 3:0.140378 
-10 1:3.154585 2:1.282411 3:0.302631 
-10 1:3.153448 2:1.210333 3:0.472836 
-10 1:3.151849 2:1.143864 3:0.645644 
-10 1:3.15025 2:1.077395 3:0.818452 
-10 1:3.14865 2:1.010925 3:0.99126 
10 1:3.144099 2:0.80843 3:1.508487 
10 1:3.1426 2:0.740714 3:1.680811 
10 1:3.141134 2:0.672715 3:1.852682 
10 1:3.154036 2:0.497181 3:1.815828 
10 1:3.167627 2:0.351205 3:1.702737 
10 1:3.181219 2:0.205229 3:1.589646 
-10 1:3.207861 2:-0.07131 3:1.34965 
-10 1:3.219698 2:-0.167288 3:1.191753 
-10 1:3.231535 2:-0.263266 3:1.033855 
-10 1:3.244586 2:-0.395012 3:0.909181 
-10 1:3.258256 2:-0.544944 3:0.801399 
-10 1:3.271879 2:-0.692751 3:0.690884 
-10 1:3.28536 2:-0.83397 3:0.571893 
-10 1:3.298842 2:-0.975189 3:0.452902 
-10 1:3.312161 2:-1.111493 3:0.329207 
-10 1:3.324687 2:-1.223746 3:0.18249 
-10 1:3.337214 2:-1.335999 3:0.035774 
-10 1:3.34974 2:-1.448253 3:-0.110943 
10 1:3.360142 2:-1.337418 3:-0.621896 
10 1:3.361119 2:-1.263867 3:-0.790286 
10 1:3.359063 2:-1.154487 3:-0.939669 
10 1:3.357008 2:-1.045106 3:-1.089051 
10 1:3.346374 2:-0.866965 3:-1.122481 
10 1:3.79516 2:-0.018293 3:-1.120706 
10 1:3.687926 2:0.784442 3:-1.122357 
10 1:3.661588 2:0.984871 3:-1.134239 
10 1:3.635251 2:1.185301 3:-1.14612 
10 1:3.608672 2:1.382769 3:-1.141272 
10 1:3.581018 2:1.567077 3:-1.062072 
10 1:3.55501 2:1.73626 3:-0.973031 
10 1:3.547957 2:1.731333 3:-0.770712 
10 1:3.540905 2:1.726406 3:-0.568394 
10 1:3.539071 2:1.684449 3:-0.373138 
10 1:3.541266 2:1.613906 3:-0.183333 
-10 1:3.565528 2:1.125802 3:0.891859 
-7.438179471891198 1:3.578948 2:0.98428 3:1.036075 
-10 1:3.600964 2:0.802226 3:1.096891 
-10 1:3.626628 2:0.602973 3:1.122319 
-10 1:3.651354 2:0.406405 3:1.162945 
-10 1:3.667767 2:0.253897 3:1.267136 
2.623702641442327 1:3.673985 2:0.156749 3:1.444704 
10 1:3.681153 2:0.054723 3:1.61442 
10 1:3.707518 2:-0.145738 3:1.625709 
10 1:3.732617 2:-0.317761 3:1.570447 
10 1:3.755851 2:-0.447824 3:1.416985 
-10 1:3.79764 2:-0.664465 3:1.080313 
-10 1:3.820812 2:-0.798586 3:0.942704 
-10 1:3.84806 2:-0.975372 3:0.847777 
-10 1:3.870553 2:-1.100326 3:0.695834 
-10 1:3.887823 2:-1.17622 3:0.508888 
-10 1:3.906099 2:-1.260939 3:0.326492 
-10 1:3.926668 2:-1.365772 3:0.154463 
10 1:3.967806 2:-1.575437 3:-0.189594 
10 1:3.988375 2:-1.680269 3:-0.361623 
10 1:3.988239 2:-1.643038 3:-0.488617 
10 1:3.966616 2:-1.458383 3:-0.568877 
-10 1:3.917686 2:-1.068187 3:-0.653489 
-10 1:3.893353 2:-0.872987 3:-0.699631 
-10 1:3.869683 2:-0.679881 3:-0.755813 
-10 1:3.847248 2:-0.491693 3:-0.827141 
-10 1:3.827375 2:-0.317293 3:-0.917349 
10 1:4.241637 2:-0.706821 3:-1.011802 
-10 1:4.242636 2:-0.290381 3:-1.032283 
-10 1:4.243898 2:0.321992 3:-1.09473 
-10 1:4.244864 2:0.519429 3:-1.027278 
-10 1:4.245917 2:0.691551 3:-0.935208 
-10 1:4.247354 2:0.753457 3:-0.735965 
-10 1:4.248667 2:0.833906 3:-0.564187 
-10 1:4.249122 2:1.04185 3:-0.581248 
-10 1:4.249577 2:1.249795 3:-0.598309 
10 1:4.250713 2:1.653719 3:-0.591937 
10 1:4.252037 2:1.71179 3:-0.408856 
10 1:4.253209 2:1.665854 3:-0.205335 
10 1:4.254381 2:1.619918 3:-0.001814 
10 1:4.255553 2:1.573981 3:0.201707 
10 1:4.25667 2:1.517926 3:0.400758 
-10 1:4.258754 2:0.507598 3:1.157927 
-10 1:4.257449 2:0.35145 3:1.019549 
-10 1:4.256144 2:0.195302 3:0.881172 
-10 1:4.254927 2:0.041149 3:0.75575 
-10 1:4.255776 2:-0.066148 3:0.934689 
-10 1:4.256625 2:-0.173445 3:1.113627 
10 1:4.258043 2:-0.426132 3:1.443811 
10 1:4.258673 2:-0.563249 3:1.601071 
10 1:4.257819 2:-0.752333 3:1.547452 
10 1:4.256799 2:-0.945793 3:1.469719 
10 1:4.255661 2:-1.128389 3:1.368775 
10 1:4.254522 2:-1.310985 3:1.267831 
10 1:4.253191 2:-1.345922 3:1.073639 
10 1:4.251829 2:-1.35859 3:0.865385 
10 1:4.250468 2:-1.371259 3:0.657131 
-10 1:4.247787 2:-1.380369 3:0.240212 
-10 1:4.246464 2:-1.378224 3:0.031584 
-10 1:4.24514 2:-1.376078 3:-0.177045 
-10 1:4.243817 2:-1.373933 3:-0.385673 
10 1:4.241553 2:-1.046743 3:-0.88032 
-1.758061278965593 1:4.242166 2:-0.838236 3:-0.872811 
-10 1:4.748481 2:-0.778582 3:-0.913156 
-10 1:4.779839 2:-0.597974 3:-0.991308 
10 1:4.842587 2:-0.237086 3:-1.148308 
10 1:4.874409 2:-0.06122 3:-1.236451 
10 1:4.906232 2:0.114646 3:-1.324594 
10 1:4.934378 2:0.302049 3:-1.364621 
10 1:4.959246 2:0.499745 3:-1.361721 
10 1:4.981366 2:0.693961 3:-1.337267 
10 1:4.998357 2:0.88168 3:-1.272588 
10 1:5.014855 2:1.068268 3:-1.204644 
10 1:5.031062 2:1.254188 3:-1.134777 
10 1:5.032729 2:1.381401 3:-0.998841 
10 1:5.01609 2:1.408093 3:-0.811434 
-6.320716585276958 1:4.972098 2:1.39417 3:-0.416589 
-10 1:4.951256 2:1.396887 3:-0.218425 
-10 1:4.930414 2:1.399604 3:-0.020261 
-10 1:4.910215 2:1.407158 3:0.177642 
10 1:4.856099 2:1.478494 3:0.768724 
10 1:4.829378 2:1.405605 3:0.931814 
-10 1:4.75546 2:0.930328 3:1.057031 
-10 1:4.746247 2:0.765327 3:0.946671 
-10 1:4.737154 2:0.601565 3:0.83666 
-10 1:4.710752 2:0.404417 3:0.848756 
-10 1:4.682859 2:0.258936 3:0.936348 
-10 1:4.653166 2:0.175761 3:1.114984 
10 1:4.527345 2:-0.717391 3:1.227891 
10 1:4.509586 2:-0.871101 3:1.210901 
5.015125220026315 1:4.50928 2:-0.995644 3:1.065423 
-10 1:4.533672 2:-1.121067 3:0.68791 
-10 1:4.543923 2:-1.194861 3:0.504141 
-10 1:4.549176 2:-1.29714 3:0.333197 
-10 1:4.554428 2:-1.399419 3:0.162252 
10 1:4.564932 2:-1.603977 3:-0.179637 
-3.444250086572072 1:4.620944 2:-1.392073 3:-0.451092 
-10 1:4.653466 2:-1.251976 3:-0.588382 
-10 1:4.685798 2:-1.121937 3:-0.735878 
-10 1:4.71714 2:-0.959311 3:-0.835301 
10 1:5.236625 2:0.135622 3:-1.170761 
-0.00875379130051657 1:5.2626 2:1.223545 3:-0.694774 
10 1:5.290164 2:1.575381 3:0.878118 
10 1:5.293167 2:1.587795 3:1.084021 
10 1:5.294028 2:1.515849 3:1.243481 
10 1:5.292128 2:1.335207 3:1.343098 
10 1:5.289167 2:1.152142 3:1.367403 
-10 1:5.275592 2:0.588897 3:1.111502 
-10 1:5.271091 2:0.399139 3:1.030692 
-10 1:5.266934 2:0.200735 3:0.986837 
-10 1:5.263933 2:0.009015 3:1.0197 
-10 1:5.26278 2:-0.152061 3:1.14859 
10 1:5.259313 2:-0.49944 3:1.354043 
10 1:5.256319 2:-0.70056 3:1.399882 
10 1:5.252885 2:-0.897803 3:1.40802 
10 1:5.248357 2:-1.085396 3:1.322304 
10 1:5.243829 2:-1.272989 3:1.236588 
10 1:5.239382 2:-1.440793 3:1.130538 
10 1:5.23525 2:-1.53155 3:0.945321 
10 1:5.231118 2:-1.622306 3:0.760105 
10 1:5.226986 2:-1.713062 3:0.574888 
10 1:5.222854 2:-1.803818 3:0.389671 
10 1:5.22036 2:-1.790299 3:0.187009 
10 1:5.218056 2:-1.764675 3:-0.017679 
10 1:5.215752 2:-1.73905 3:-0.222367 
10 1:5.213448 2:-1.713426 3:-0.427055 
-10 1:5.218343 2:-1.346658 3:-0.55252 
-10 1:5.221125 2:-1.148736 3:-0.609828 
-10 1:5.22375 2:-0.953217 3:-0.675588 
-10 1:5.226375 2:-0.757698 3:-0.741347 
-10 1:5.228854 2:-0.564808 3:-0.814351 
-10 1:5.231292 2:-0.372675 3:-0.889437 
-10 1:5.234196 2:-0.174462 3:-0.938144 
-10 1:5.236393 2:0.003563 3:-1.012308 
-10 1:5.804937 2:0.333697 3:-1.017432 
-10 1:5.784465 2:0.528962 3:-0.962202 
-10 1:5.763994 2:0.724226 3:-0.906972 
-10 1:5.743523 2:0.91949 3:-0.851742 
-10 1:5.720379 2:1.053933 3:-0.701832 
-10 1:5.697127 2:1.185907 3:-0.54808 
-10 1:5.676337 2:1.254099 3:-0.360131 
-10 1:5.656106 2:1.307812 3:-0.164419 
-10 1:5.635875 2:1.361524 3:0.031293 
-10 1:5.617118 2:1.392721 3:0.2316 
-10 1:5.598776 2:1.41756 3:0.433204 
-10 1:5.580435 2:1.442399 3:0.634808 
-10 1:5.56613 2:1.4182 3:0.836205 
10 1:5.525963 2:1.317829 3:1.434561 
10 1:5.524392 2:1.184616 3:1.588995 
10 1:5.52282 2:1.051404 3:1.743428 
10 1:5.528781 2:0.909335 3:1.813693 
10 1:5.551899 2:0.747095 3:1.692279 
10 1:5.575016 2:0.584855 3:1.570865 
10 1:5.597968 2:0.441036 3:1.432824 
-10 1:5.642888 2:0.227398 3:1.093922 
-10 1:5.660803 2:0.024885 3:1.077641 
-10 1:5.678719 2:-0.177628 3:1.061361 
-10 1:5.690222 2:-0.372776 3:1.116892 
-10 1:5.743923 2:-0.932441 3:1.020092 
-10 1:5.765432 2:-1.009908 3:0.832652 
-10 1:5.786941 2:-1.087376 3:0.645212 
-10 1:5.80845 2:-1.164843 3:0.457772 
-10 1:5.830303 2:-1.316161 3:0.340922 
-10 1:5.852307 2:-1.499808 3:0.254973 
-10 1:5.871956 2:-1.565322 3:0.078411 
-10 1:5.890996 2:-1.600226 3:-0.121631 
10 1:5.929075 2:-1.670033 3:-0.521715 
10 1:5.942194 2:-1.644508 3:-0.709787 
10 1:5.94696 2:-1.533734 3:-0.880971 
10 1:5.951725 2:-1.42296 3:-1.052155 
10 1:5.946548 2:-1.274802 3:-1.13829 
10 1:5.927475 2:-1.074396 3:-1.105559 
10 1:5.908402 2:-0.87399 3:-1.072827 
10 1:5.890367 2:-0.671728 3:-1.054803 
-10 1:5.82401 2:0.133291 3:-1.050163 
10 1:6.231856 2:-0.115175 3:-1.150992 
10 1:6.223461 2:0.092487 3:-1.128979 
10 1:6.215067 2:0.300148 3:-1.106967 
10 1:6.206905 2:0.506133 3:-1.076921 
10 1:6.192504 2:0.904209 3:-0.950265 
10 1:6.18606 2:1.09232 3:-0.872384 
-10 1:6.182631 2:1.422424 3:-0.342198 
-10 1:6.183809 2:1.488098 3:-0.143794 
-10 1:6.184987 2:1.553772 3:0.054609 
10 1:6.190491 2:1.709546 3:0.660528 
10 1:6.192929 2:1.748839 3:0.86578 
10 1:6.195496 2:1.784466 3:1.069737 
10 1:6.204972 2:1.625391 3:1.204953 
10 1:6.214447 2:1.466315 3:1.34017 
10 1:6.222316 2:1.304454 3:1.389248 
-10 1:6.231565 2:0.969481 3:1.139406 
-10 1:6.235935 2:0.805783 3:1.009784 
-10 1:6.239882 2:0.648351 3:0.872387 
-10 1:6.248465 2:0.469129 3:0.920235 
-10 1:6.258273 2:0.284151 3:1.017011 
-10 1:6.267623 2:0.129181 3:1.154725 
10 1:6.276865 2:-0.018684 3:1.302131 
10 1:6.286181 2:-0.217645 3:1.344604 
10 1:6.295508 2:-0.424866 3:1.37011 
10 1:6.304788 2:-0.63154 3:1.394462 
10 1:6.305984 2:-0.742875 3:1.217596 
-10 1:6.30718 2:-0.85421 3:1.04073 
-10 1:6.310473 2:-0.998449 3:0.898711 
-10 1:6.316221 2:-1.181192 3:0.797467 
-10 1:6.321458 2:-1.355743 3:0.688128 
-10 1:6.321976 2:-1.454579 3:0.503983 
-10 1:6.322495 2:-1.553415 3:0.319838 
10 1:6.323531 2:-1.751087 3:-0.048453 
-8.671217391049113 1:6.316745 2:-1.646622 3:-0.165424 
-10 1:6.306928 2:-1.457832 3:-0.254532 
-10 1:6.297112 2:-1.269042 3:-0.343641 
-10 1:6.290481 2:-1.191249 3:-0.509524 
-10 1:6.285609 2:-1.174756 3:-0.717809 
-10 1:6.276892 2:-1.041724 3:-0.870519 
10 1:6.267579 2:-0.89064 3:-1.014619 
10 1:6.258817 2:-0.704573 3:-1.056865 
1.87158900285042 1:6.249925 2:-0.496435 3:-1.058657 
-8.91033671416379 1:6.663567 2:0.281886 3:-1.017807 
-10 1:6.651255 2:0.47878 3:-0.950933 
-10 1:6.638943 2:0.675674 3:-0.88406 
-10 1:6.626631 2:0.872568 3:-0.817186 
-10 1:6.616883 2:1.05625 3:-0.726685 
-10 1:6.611872 2:1.215515 3:-0.592519 
-10 1:6.607398 2:1.37045 3:-0.455497 
-10 1:6.614621 2:1.431275 3:-0.256401 
-10 1:6.621843 2:1.4921 3:-0.057305 
-10 1:6.629065 2:1.552925 3:0.141791 
-10 1:6.636368 2:1.612921 3:0.341069 
10 1:6.656754 2:1.673418 3:0.752759 
10 1:6.666946 2:1.703667 3:0.958604 
10 1:6.682244 2:1.664949 3:1.153837 
10 1:6.701234 2:1.576326 3:1.34139 
10 1:6.719403 2:1.477063 3:1.501259 
10 1:6.730428 2:1.285344 3:1.420555 
10 1:6.741453 2:1.093625 3:1.339851 
6.227007455184091 1:6.747896 2:0.927354 3:1.219396 
-10 1:6.751907 2:0.7746 3:1.07783 
-10 1:6.759367 2:0.61011 3:0.976237 
-10 1:6.778589 2:0.405614 3:1.010919 
-10 1:6.798116 2:0.2094 3:1.061732 
10 1:6.840746 2:-0.085937 3:1.35246 
10 1:6.860483 2:-0.279438 3:1.410332 
10 1:6.878808 2:-0.480861 3:1.434659 
10 1:6.886948 2:-0.658542 3:1.326242 
10 1:6.895089 2:-0.836222 3:1.217824 
-6.235487633404634 1:6.908641 2:-1.175762 3:0.978221 
-10 1:6.912942 2:-1.449549 3:0.677762 
-10 1:6.90862 2:-1.537475 3:0.488973 
10 1:6.889151 2:-1.737914 3:-0.097029 
10 1:6.879456 2:-1.77351 3:-0.302041 
10 1:6.869761 2:-1.809106 3:-0.507053 
10 1:6.851141 2:-1.685583 3:-0.641442 
10 1:6.829664 2:-1.511129 3:-0.753226 
10 1:6.808187 2:-1.336675 3:-0.865009 
-10 1:6.772994 2:-0.924453 3:-0.877383 
-10 1:6.754673 2:-0.717711 3:-0.894453 
-10 1:6.736955 2:-0.510996 3:-0.901791 
-10 1:6.720957 2:-0.304323 3:-0.881361 
-10 1:6.703711 2:-0.097758 3:-0.881268 
-10 1:6.683111 2:0.089252 3:-0.96189 
10 1:7.251436 2:-0.016274 3:-1.212089 
10 1:7.246647 2:0.172603 3:-1.181388 
10 1:7.241858 2:0.36148 3:-1.150686 
10 1:7.237069 2:0.550357 3:-1.119984 
10 1:7.232281 2:0.739326 3:-1.092681 
10 1:7.2275 2:0.929579 3:-1.113197 
10 1:7.22297 2:1.107704 3:-1.067439 
10 1:7.218593 2:1.278353 3:-0.980838 
10 1:7.214278 2:1.44645 3:-0.890528 
10 1:7.210594 2:1.58822 3:-0.761968 
10 1:7.20691 2:1.729991 3:-0.633408 
10 1:7.204737 2:1.810349 3:-0.460185 
10 1:7.203029 2:1.872163 3:-0.28431 
10 1:7.204137 2:1.82203 3:-0.099579 
10 1:7.205245 2:1.771897 3:0.085152 
-10 1:7.210723 2:1.53738 3:0.60062 
-10 1:7.213304 2:1.429712 3:0.758863 
-10 1:7.229112 2:0.792119 3:1.078937 
-10 1:7.233901 2:0.603242 3:1.048236 
-10 1:7.23869 2:0.414365 3:1.017534 
-10 1:7.243486 2:0.224741 3:1.000487 
-10 1:7.248297 2:0.033642 3:1.010397 
-10 1:7.252493 2:-0.13505 3:1.078168 
-10 1:7.25612 2:-0.282951 3:1.199626 
-10 1:7.260894 2:-0.472533 3:1.208483 
-10 1:7.265683 2:-0.66141 3:1.177781 
-10 1:7.285043 2:-1.415197 3:0.762601 
-10 1:7.286792 2:-1.478526 3:0.581973 
-10 1:7.288542 2:-1.541855 3:0.401345 
-10 1:7.288748 2:-1.543869 3:0.217689 
-10 1:7.287765 2:-1.498624 3:0.0317 
-10 1:7.286781 2:-1.45338 3:-0.154289 
-10 1:7.285477 2:-1.395583 3:-0.33556 
-10 1:7.283391 2:-1.307176 3:-0.505325 
-10 1:7.281306 2:-1.218769 3:-0.675089 
-10 1:7.277312 2:-1.057241 3:-0.76881 
-10 1:7.272963 2:-0.882241 3:-0.845201 
-10 1:7.268349 2:-0.697566 3:-0.895342 
10 1:7.260277 2:-0.37093 3:-1.090723 
10 1:7.256023 2:-0.199683 3:-1.167433 
10 1:7.759452 2:0.516092 3:-1.160174 
10 1:7.781726 2:0.707515 3:-1.11781 
-10 1:7.847195 2:1.23544 3:-0.899226 
-10 1:7.868177 2:1.382588 3:-0.769454 
-10 1:7.882886 2:1.455347 3:-0.59612 
-10 1:7.894759 2:1.494466 3:-0.403086 
-10 1:7.904049 2:1.508732 3:-0.207782 
-10 1:7.911286 2:1.503258 3:-0.010675 
-10 1:7.918523 2:1.497784 3:0.186432 
-10 1:7.922534 2:1.464729 3:0.376978 
-10 1:7.92053 2:1.380284 3:0.5553 
-10 1:7.918526 2:1.295838 3:0.733621 
-10 1:7.907979 2:1.152622 3:0.855981 
-10 1:7.893146 2:0.979932 3:0.950277 
-10 1:7.819358 2:0.237387 3:1.103657 
-10 1:7.798077 2:0.041278 3:1.098992 
-10 1:7.782319 2:-0.12774 3:1.160032 
10 1:7.773508 2:-0.262682 3:1.303722 
10 1:7.764698 2:-0.397624 3:1.447411 
10 1:7.74358 2:-0.582809 3:1.417286 
10 1:7.721825 2:-0.773324 3:1.385527 
10 1:7.702825 2:-0.965281 3:1.427062 
10 1:7.682423 2:-1.13695 3:1.37833 
10 1:7.660929 2:-1.292808 3:1.259251 
10 1:7.642406 2:-1.408335 3:1.105754 
10 1:7.625657 2:-1.499798 3:0.931721 
10 1:7.608908 2:-1.591261 3:0.757688 
10 1:7.592159 2:-1.682724 3:0.583655 
10 1:7.57541 2:-1.774187 3:0.409622 
10 1:7.561698 2:-1.836064 3:0.231927 
10 1:7.559287 2:-1.787857 3:0.040606 
10 1:7.556876 2:-1.73965 3:-0.150715 
10 1:7.554465 2:-1.691444 3:-0.342036 
10 1:7.55527 2:-1.617943 3:-0.520911 
10 1:7.562203 2:-1.496229 3:-0.676059 
-10 1:7.601224 2:-1.111815 3:-0.734757 
-10 1:7.621184 2:-0.917092 3:-0.759615 
-10 1:7.640504 2:-0.72501 3:-0.793448 
-10 1:7.656035 2:-0.548551 3:-0.880363 
-10 1:7.673079 2:-0.365106 3:-0.948113 
-10 1:7.691933 2:-0.174193 3:-0.990491 
-10 1:7.713214 2:0.021917 3:-0.985826 
-10 1:7.734304 2:0.217647 3:-0.98497 
-10 1:7.753074 2:0.408806 3:-1.030131 
-10 1:8.31616 2:0.406411 3:-1.036157 
-10 1:8.284077 2:0.597835 3:-0.999288 
-10 1:8.251994 2:0.789259 3:-0.962419 
-10 1:8.219911 2:0.980683 3:-0.925549 
-10 1:8.186643 2:1.168203 3:-0.874171 
-10 1:8.152742 2:1.353633 3:-0.815025 
10 1:8.087212 2:1.666061 3:-0.645576 
10 1:7.96172 2:1.723493 3:0.327134 
10 1:7.942958 2:1.694951 3:0.517055 
10 1:7.938212 2:1.588827 3:0.68363 
10 1:7.933465 2:1.482704 3:0.850204 
10 1:7.928719 2:1.376581 3:1.016779 
10 1:7.932907 2:1.24444 3:1.140384 
10 1:7.95863 2:1.049583 3:1.16041 
10 1:7.984354 2:0.854727 3:1.180436 
10 1:8.013787 2:0.660036 3:1.169473 
-10 1:8.073725 2:0.270701 3:1.138599 
-10 1:8.101544 2:0.076308 3:1.140685 
-10 1:8.126155 2:-0.117678 3:1.168894 
10 1:8.148958 2:-0.440604 3:1.36664 
10 1:8.165089 2:-0.60267 3:1.426984 
10 1:8.198433 2:-0.790339 3:1.375151 
10 1:8.229487 2:-0.983708 3:1.349153 
10 1:8.263502 2:-1.089938 3:1.19415 
-10 1:8.29783 2:-1.18695 3:1.025503 
-10 1:8.330793 2:-1.268209 3:0.849305 
-10 1:8.362437 2:-1.334249 3:0.665813 
-10 1:8.393353 2:-1.393837 3:0.480639 
-10 1:8.420449 2:-1.419613 3:0.286646 
-10 1:8.447544 2:-1.445389 3:0.092654 
-10 1:8.47464 2:-1.471165 3:-0.101339 
10 1:8.523197 2:-1.488985 3:-0.482991 
10 1:8.529327 2:-1.389234 3:-0.653414 
10 1:8.535457 2:-1.289482 3:-0.823836 
10 1:8.521087 2:-1.129373 3:-0.896446 
10 1:8.494807 2:-0.934201 3:-0.912235 
10 1:8.466223 2:-0.738895 3:-0.909062 
-10 1:8.43726 2:-0.543566 3:-0.902767 
-10 1:8.408857 2:-0.34806 3:-0.901329 
-10 1:8.380938 2:-0.152537 3:-0.903928 
-10 1:8.355403 2:0.041409 3:-0.924432 
-10 1:8.330495 2:0.233242 3:-0.947605 
10 1:8.70929 2:-0.039568 3:-1.129566 
10 1:8.700339 2:0.160198 3:-1.142619 
10 1:8.691388 2:0.359964 3:-1.155672 
10 1:8.682385 2:0.559484 3:-1.170407 
10 1:8.67246 2:0.754696 3:-1.214575 
10 1:8.662535 2:0.949907 3:-1.258744 
10 1:8.652609 2:1.145119 3:-1.302912 
10 1:8.648313 2:1.29532 3:-1.247862 
10 1:8.650898 2:1.390504 3:-1.071538 
-10 1:8.657373 2:1.559328 3:-0.708457 
-10 1:8.661537 2:1.626542 3:-0.521603 
-10 1:8.668469 2:1.639909 3:-0.321778 
-10 1:8.675402 2:1.653276 3:-0.121953 
-10 1:8.682334 2:1.666644 3:0.077873 
10 1:8.700778 2:1.571609 3:0.462128 
10 1:8.710547 2:1.509547 3:0.652417 
10 1:8.721822 2:1.368547 3:0.793743 
10 1:8.733128 2:1.225939 3:0.934072 
10 1:8.742866 2:1.061863 3:1.008403 
-10 1:8.756521 2:0.670044 3:0.930049 
-10 1:8.762665 2:0.479546 3:0.878763 
-10 1:8.773716 2:0.304546 3:0.975768 
-10 1:8.784285 2:0.165634 3:1.100618 
10 1:8.793652 2:0.116357 3:1.29463 
10 1:8.80289 2:0.020569 3:1.432715 
10 1:8.811638 2:-0.1792 3:1.440353 
10 1:8.819595 2:-0.378982 3:1.426906 
10 1:8.827552 2:-0.578763 3:1.413459 
10 1:8.835863 2:-0.77854 3:1.409452 
10 1:8.842635 2:-0.962433 3:1.38236 
10 1:8.842035 2:-1.086143 3:1.226758 
-10 1:8.839163 2:-1.176693 3:1.048014 
-10 1:8.836291 2:-1.267242 3:0.86927 
-10 1:8.833419 2:-1.357792 3:0.690526 
-10 1:8.830547 2:-1.448341 3:0.511781 
-10 1:8.825584 2:-1.499906 3:0.32133 
-10 1:8.819109 2:-1.523274 3:0.12241 
10 1:8.770608 2:-1.12972 3:-0.72592 
10 1:8.75958 2:-0.953786 3:-0.821224 
-10 1:8.740916 2:-0.562085 3:-0.876516 
-10 1:8.730433 2:-0.373231 3:-0.942706 
-10 1:8.720544 2:-0.183224 3:-0.991777 
10 1:9.554625 2:0.58939 3:-1.276483 
10 1:9.582138 2:0.784699 3:-1.235371 
10 1:9.609651 2:0.980007 3:-1.19426 
10 1:9.637163 2:1.175315 3:-1.153149 
10 1:9.669142 2:1.529526 3:-0.965337 
10 1:9.684592 2:1.70578 3:-0.868962 
10 1:9.670522 2:1.780716 3:-0.697545 
10 1:9.644083 2:1.806175 3:-0.502419 
2.847488146849829 1:9.606182 2:1.764249 3:-0.309033 
-1.452957076234463 1:9.267838 2:0.92844 3:0.909304 
-10 1:9.238171 2:0.731351 3:0.879842 
-10 1:9.224636 2:0.568587 3:0.786214 
-10 1:9.221685 2:0.428345 3:0.650487 
-10 1:9.188146 2:0.248536 3:0.66452 
-10 1:9.142425 2:0.123101 3:0.81541 
-10 1:9.096776 2:-0.005818 3:0.962001 
-10 1:9.052088 2:-0.180197 3:1.052485 
-10 1:9.010221 2:-0.367716 3:1.110666 
-10 1:8.971392 2:-0.561481 3:1.142773 
-10 1:8.938075 2:-0.759312 3:1.135568 
-10 1:8.908409 2:-0.956401 3:1.106106 
-10 1:8.878743 2:-1.153491 3:1.076644 
10 1:8.856313 2:-1.341661 3:1.011261 
10 1:8.861921 2:-1.458491 3:0.847213 
-10 1:8.944687 2:-1.509375 3:0.2681 
-10 1:8.976712 2:-1.506181 3:0.069212 
10 1:9.040762 2:-1.499793 3:-0.328565 
10 1:9.077274 2:-1.462492 3:-0.518273 
10 1:9.121391 2:-1.320582 3:-0.640883 
10 1:9.16608 2:-1.146203 3:-0.731366 
10 1:9.209423 2:-0.963996 3:-0.804731 
10 1:9.252269 2:-0.778889 3:-0.871753 
10 1:9.294916 2:-0.593007 3:-0.936668 
10 1:9.337261 2:-0.40595 3:-0.998385 
10 1:9.379606 2:-0.218894 3:-1.060102 
10 1:9.415311 2:-0.026582 3:-1.074064 
-10 1:9.448186 2:0.170924 3:-1.06442 
-10 1:9.480584 2:0.368368 3:-1.051837 
-10 1:9.51851 2:0.552972 3:-1.088319 
-10 1:9.642296 2:0.522013 3:-1.048288 
-10 1:9.617335 2:0.71281 3:-1.082027 
-10 1:9.592374 2:0.903608 3:-1.115766 
10 1:9.542453 2:1.285203 3:-1.183243 
-10 1:9.522965 2:1.603339 3:-0.702656 
-10 1:9.520629 2:1.681937 3:-0.52382 
4.490456033956592 1:9.553224 2:1.671008 3:0.234068 
10 1:9.610234 2:1.377798 3:0.738313 
10 1:9.630526 2:1.26546 3:0.893902 
10 1:9.654033 2:1.116689 3:1.018319 
10 1:9.677698 2:0.96505 3:1.13795 
10 1:9.702869 2:0.785887 3:1.211653 
10 1:9.72804 2:0.606724 3:1.285356 
10 1:9.753012 2:0.421119 3:1.334927 
10 1:9.777782 2:0.228959 3:1.359945 
10 1:9.802285 2:0.036039 3:1.376215 
10 1:9.826506 2:-0.157686 3:1.383229 
10 1:9.942123 2:-1.121612 3:1.2993 
10 1:9.960211 2:-1.294929 3:1.218717 
10 1:9.96554 2:-1.388278 3:1.068259 
10 1:9.96176 2:-1.421891 3:0.87585 
-10 1:9.946411 2:-1.490874 3:0.296845 
-10 1:9.936844 2:-1.478318 3:0.102409 
-10 1:9.921849 2:-1.418829 3:-0.083067 
-10 1:9.906853 2:-1.35934 3:-0.268542 
10 1:9.876036 2:-1.23242 3:-0.635743 
10 1:9.856565 2:-1.129932 3:-0.800916 
10 1:9.83349 2:-0.944871 3:-0.806115 
-10 1:9.810041 2:-0.751258 3:-0.794745 
-10 1:9.786592 2:-0.557645 3:-0.783376 
-10 1:9.763143 2:-0.364032 3:-0.772006 
-10 1:9.739331 2:-0.173891 3:-0.779837 
-10 1:9.714202 2:0.003647 3:-0.857387 
-10 1:9.691422 2:0.153648 3:-0.960482 
-10 1:9.667214 2:0.345637 3:-0.972371 
10 1:10.177212 2:0.25632 3:-1.18351 
10 1:10.145087 2:0.449239 3:-1.190743 
10 1:10.112963 2:0.642158 3:-1.197977 
10 1:10.080839 2:0.835078 3:-1.205211 
10 1:10.051321 2:1.019466 3:-1.165874 
-10 1:9.970907 2:1.579061 3:-0.688988 
-10 1:9.968034 2:1.682823 3:-0.131212 
10 1:9.980474 2:1.668249 3:0.259738 
-10 1:10.080126 2:1.140694 3:0.739821 
-10 1:10.112313 2:0.947955 3:0.750686 
-10 1:10.142294 2:0.781392 3:0.844477 
-10 1:10.166758 2:0.65602 3:0.98905 
-10 1:10.189436 2:0.543611 3:1.147644 
10 1:10.212984 2:0.425125 3:1.300986 
10 1:10.239138 2:0.288472 3:1.438623 
10 1:10.265292 2:0.151818 3:1.576261 
10 1:10.2927 2:0.003381 3:1.686744 
10 1:10.324839 2:-0.189503 3:1.694799 
10 1:10.355105 2:-0.376467 3:1.667985 
10 1:10.382812 2:-0.555353 3:1.593592 
10 1:10.409259 2:-0.728377 3:1.507895 
-2.909727584098566 1:10.466035 2:-1.133773 3:1.104732 
-10 1:10.479204 2:-1.238813 3:0.940126 
-10 1:10.492372 2:-1.343854 3:0.775519 
-10 1:10.493965 2:-1.382716 3:0.586754 
-10 1:10.492929 2:-1.406553 3:0.392505 
-10 1:10.490553 2:-1.422295 3:0.198248 
-10 1:10.48195 2:-1.400425 3:0.003954 
-10 1:10.473346 2:-1.378555 3:-0.190339 
-10 1:10.463054 2:-1.346051 3:-0.381803 
-10 1:10.357379 2:-0.7714 3:-0.792707 
-10 1:10.325045 2:-0.581055 3:-0.824729 
-10 1:10.292711 2:-0.390709 3:-0.856751 
-10 1:10.260745 2:-0.197736 3:-0.857487 
-10 1:10.232119 2:-0.037337 3:-0.938227 
-5.033243826483069 1:10.202249 2:0.12759 3:-1.038237 
10 1:10.746801 2:1.231418 3:-1.017615 
10 1:10.724807 2:1.439665 3:-0.976279 
10 1:10.702294 2:1.550466 3:-0.846744 
-0.3859605362698511 1:10.65631 2:1.591602 3:-0.424334 
-10 1:10.633318 2:1.612169 3:-0.213129 
-10 1:10.610326 2:1.632737 3:-0.001924 
10 1:10.565662 2:1.656947 3:0.421771 
10 1:10.5483 2:1.621153 3:0.625001 
10 1:10.537088 2:1.527414 3:0.816433 
10 1:10.525875 2:1.433674 3:1.007866 
10 1:10.514663 2:1.339934 3:1.199298 
10 1:10.513774 2:1.206757 3:1.32164 
10 1:10.533505 2:0.994803 3:1.305972 
-10 1:10.586144 2:0.698805 3:1.034561 
-10 1:10.614079 2:0.566489 3:0.869421 
-10 1:10.640956 2:0.409384 3:0.735922 
-10 1:10.654965 2:0.207973 3:0.768202 
-10 1:10.665278 2:0.007403 3:0.836537 
-10 1:10.666359 2:-0.157617 3:0.966419 
-10 1:10.676448 2:-0.35807 3:1.036874 
-10 1:10.679196 2:-0.533231 3:1.158818 
-10 1:10.686432 2:-0.724912 3:1.250187 
10 1:10.715553 2:-1.139851 3:1.314101 
10 1:10.736716 2:-1.317118 3:1.254632 
10 1:10.764415 2:-1.431544 3:1.076591 
10 1:10.792113 2:-1.545971 3:0.89855 
10 1:10.815703 2:-1.584427 3:0.696642 
10 1:10.837511 2:-1.589936 3:0.484385 
-7.51738059199513 1:10.874185 2:-1.526694 3:0.065645 
-10 1:10.89156 2:-1.48479 3:-0.142925 
-7.34596174129512 1:10.907644 2:-1.431156 3:-0.348636 
10 1:10.935572 2:-1.288488 3:-0.748055 
10 1:10.94497 2:-1.181651 3:-0.9326 
10 1:10.945218 2:-1.028189 3:-1.065852 
10 1:10.933908 2:-0.832737 3:-1.119902 
10 1:10.909793 2:-0.632193 3:-1.050909 
10 1:10.888813 2:-0.42497 3:-1.018795 
10 1:10.810522 2:0.60297 3:-1.115956 
10 1:11.462829 2:0.935469 3:-1.025951 
10 1:11.486049 2:1.150222 3:-1.032778 
-10 1:11.460826 2:1.340165 3:-0.630637 
-10 1:11.446657 2:1.424332 3:-0.425744 
-10 1:11.428505 2:1.480887 3:-0.211081 
-10 1:11.410353 2:1.537441 3:0.003581 
-10 1:11.389325 2:1.567392 3:0.219082 
-10 1:11.360962 2:1.52948 3:0.43672 
-10 1:11.332599 2:1.491568 3:0.654358 
10 1:11.275873 2:1.415745 3:1.089634 
10 1:11.246277 2:1.35129 3:1.293522 
10 1:11.212534 2:1.197667 3:1.451223 
10 1:11.178792 2:1.044043 3:1.608923 
10 1:11.159488 2:0.826499 3:1.578216 
10 1:11.140535 2:0.607401 3:1.542933 
10 1:11.13535 2:0.439087 3:1.432201 
-10 1:11.144795 2:0.324734 3:1.241303 
-10 1:11.159179 2:0.241395 3:1.035269 
-10 1:11.168378 2:0.14062 3:0.859223 
-10 1:11.142391 2:-0.07893 3:0.886255 
-10 1:11.116405 2:-0.298479 3:0.913288 
-10 1:11.085613 2:-0.453321 3:1.043537 
-10 1:11.052325 2:-0.574559 3:1.227388 
10 1:10.982157 2:-1.175753 3:1.292567 
10 1:10.962655 2:-1.392511 3:1.264364 
10 1:10.966234 2:-1.538551 3:1.096234 
10 1:10.969812 2:-1.684591 3:0.928105 
10 1:10.986162 2:-1.740545 3:0.730077 
10 1:11.012251 2:-1.727802 3:0.509249 
10 1:11.03834 2:-1.71506 3:0.288421 
10 1:11.064429 2:-1.702317 3:0.067593 
10 1:11.093216 2:-1.657399 3:-0.147295 
10 1:11.123467 2:-1.59502 3:-0.358959 
10 1:11.153719 2:-1.532641 3:-0.570624 
10 1:11.18445 2:-1.449996 3:-0.767661 
10 1:11.214933 2:-1.262699 3:-0.864887 
10 1:11.233886 2:-1.043601 3:-0.829604 
-10 1:11.25284 2:-0.824503 3:-0.79432 
-10 1:11.261262 2:-0.63007 3:-0.688104 
-10 1:11.284765 2:-0.435717 3:-0.716486 
-10 1:11.316643 2:-0.240388 3:-0.818655 
-10 1:11.349034 2:-0.050806 3:-0.930767 
-10 1:11.372641 2:0.13521 3:-0.967849 
-10 1:11.381332 2:0.327917 3:-0.865645 
-10 1:11.404802 2:0.534557 3:-0.882271 
10 1:11.840848 2:0.072391 3:-1.167543 
10 1:11.875948 2:0.290161 3:-1.156826 
10 1:11.909002 2:0.504373 3:-1.124505 
10 1:11.974595 2:0.929866 3:-1.059383 
10 1:12.005596 2:1.137494 3:-1.012721 
10 1:12.031068 2:1.331752 3:-0.91681 
10 1:12.030111 2:1.410696 3:-0.710563 
10 1:12.029153 2:1.48964 3:-0.504316 
10 1:12.028195 2:1.568584 3:-0.298068 
10 1:12.022748 2:1.622704 3:-0.085822 
10 1:12.012201 2:1.648624 3:0.13324 
10 1:12.001654 2:1.674544 3:0.352301 
10 1:11.987927 2:1.681237 3:0.571601 
10 1:11.970472 2:1.665373 3:0.791179 
10 1:11.953016 2:1.649509 3:1.010757 
1.979931494115144 1:11.92562 2:1.525313 3:1.113772 
-3.311601588414138 1:11.900362 2:1.342089 3:1.041542 
-10 1:11.889731 2:1.206085 3:0.867873 
-10 1:11.877282 2:1.062639 3:0.702964 
-10 1:11.853509 2:0.872795 3:0.592668 
-10 1:11.818184 2:0.690973 3:0.672742 
-10 1:11.786056 2:0.565177 3:0.841861 
-10 1:11.757602 2:0.474058 3:1.041006 
-10 1:11.729148 2:0.382938 3:1.24015 
10 1:11.655356 2:0.048836 3:1.51865 
10 1:11.618548 2:-0.116847 3:1.659921 
10 1:11.590701 2:-0.271165 3:1.696326 
10 1:11.580463 2:-0.405345 3:1.521276 
-10 1:11.574398 2:-0.603876 3:1.127932 
-10 1:11.564804 2:-0.735091 3:0.950558 
-10 1:11.549951 2:-0.884452 3:0.806831 
-10 1:11.515372 2:-1.101863 3:0.789289 
-10 1:11.482788 2:-1.313049 3:0.757378 
10 1:11.498771 2:-1.635674 3:-0.26401 
10 1:11.517341 2:-1.597497 3:-0.445772 
-10 1:11.555047 2:-1.382768 3:-0.480999 
-10 1:11.592753 2:-1.168039 3:-0.516226 
-10 1:11.627743 2:-0.985551 3:-0.589734 
-10 1:11.653177 2:-0.916524 3:-0.797963 
-10 1:11.690307 2:-0.723199 3:-0.876748 
-10 1:11.726682 2:-0.509094 3:-0.893803 
10 1:11.802631 2:-0.129803 3:-1.094254 
10 1:12.411224 2:0.240607 3:-1.145616 
10 1:12.204161 2:1.634815 3:0.80647 
10 1:12.176608 2:1.59741 3:1.003303 
10 1:12.148228 2:1.505725 3:1.191038 
-10 1:12.147845 2:1.002497 3:1.051882 
-10 1:12.161834 2:0.852591 3:0.904274 
-10 1:12.171858 2:0.699712 3:0.785671 
-10 1:12.15021 2:0.523083 3:0.898762 
-10 1:12.128493 2:0.346914 3:1.012499 
-10 1:12.105403 2:0.179952 3:1.139174 
9.642815638752188 1:12.053889 2:-0.100033 3:1.447891 
10 1:12.027478 2:-0.233413 3:1.609037 
10 1:12.011207 2:-0.414455 3:1.680407 
10 1:12.004889 2:-0.614097 3:1.671611 
10 1:12.020335 2:-0.755044 3:1.515563 
3.011495611973952 1:12.035782 2:-0.895992 3:1.359514 
-10 1:12.075586 2:-1.096958 3:1.003186 
-10 1:12.099115 2:-1.165905 3:0.806624 
-10 1:12.118702 2:-1.276268 3:0.62804 
-10 1:12.138289 2:-1.386631 3:0.449456 
-10 1:12.157877 2:-1.496994 3:0.270872 
10 1:12.197051 2:-1.717721 3:-0.086296 
10 1:12.22388 2:-1.736324 3:-0.293489 
9.012142169943576 1:12.248575 2:-1.582984 3:-0.436083 
-10 1:12.288916 2:-1.22551 3:-0.638832 
-10 1:12.305812 2:-1.027841 3:-0.710212 
-10 1:12.32285 2:-0.830614 3:-0.782786 
-10 1:12.339888 2:-0.633386 3:-0.855359 
-10 1:12.354284 2:-0.429767 3:-0.906249 
-10 1:12.365863 2:-0.223797 3:-0.935265 
-10 1:12.368877 2:-0.016363 3:-0.8994 
-10 1:12.383441 2:0.170056 3:-0.956406 
-10 1:12.701872 2:0.610085 3:-1.004272 
-10 1:12.739949 2:0.789539 3:-0.906121 
-10 1:12.778026 2:0.968993 3:-0.807971 
-10 1:12.816408 2:1.115207 3:-0.672559 
-10 1:12.855047 2:1.233433 3:-0.505776 
-10 1:12.89256 2:1.335999 3:-0.331008 
-10 1:12.927109 2:1.397356 3:-0.135231 
-10 1:12.961658 2:1.458712 3:0.060547 
10 1:13.093979 2:1.449797 3:1.0669 
10 1:13.107238 2:1.36915 3:1.251617 
10 1:13.106199 2:1.232542 3:1.38747 
-10 1:12.988537 2:0.780547 3:0.97632 
-10 1:12.961478 2:0.62065 3:0.940617 
-10 1:12.948097 2:0.435486 3:1.034546 
-10 1:12.934709 2:0.250305 3:1.128432 
10 1:12.913221 2:-0.247244 3:1.489829 
10 1:12.902995 2:-0.422814 3:1.597432 
10 1:12.889038 2:-0.609367 3:1.688484 
10 1:12.863691 2:-0.75431 3:1.649945 
10 1:12.826038 2:-0.854306 3:1.471422 
-10 1:12.754684 2:-1.003412 3:1.090627 
-10 1:12.719518 2:-1.071385 3:0.897158 
-10 1:12.684352 2:-1.139357 3:0.703689 
-10 1:12.651056 2:-1.257997 3:0.577593 
-5.327052489303677 1:12.619355 2:-1.431356 3:0.521077 
-6.20042800155835 1:12.524028 2:-1.54694 3:-0.075604 
10 1:12.448103 2:-1.507446 3:-0.689197 
10 1:12.447901 2:-1.364846 3:-0.840698 
10 1:12.462384 2:-1.191702 3:-0.913679 
-10 1:12.674931 2:0.418644 3:-1.005911 
10 1:13.07588 2:-0.385704 3:-1.371272 
10 1:13.104467 2:-0.173769 3:-1.350558 
10 1:13.133055 2:0.038166 3:-1.329843 
10 1:13.161761 2:0.22847 3:-1.278077 
-10 1:13.220242 2:0.41444 3:-0.895134 
-10 1:13.249483 2:0.507425 3:-0.703662 
-10 1:13.277658 2:0.587969 3:-0.506712 
-10 1:13.305304 2:0.66233 3:-0.30704 
-10 1:13.330873 2:0.80554 3:-0.224761 
-10 1:13.354722 2:1.016564 3:-0.254547 
-10 1:13.384881 2:1.217344 3:-0.201331 
-10 1:13.417472 2:1.383805 3:-0.074327 
-10 1:13.446765 2:1.481297 3:0.111511 
10 1:13.511287 2:1.534375 3:0.743243 
10 1:13.521952 2:1.472279 3:0.945153 
10 1:13.529268 2:1.387086 3:1.14226 
10 1:13.517414 2:1.211818 3:1.253884 
10 1:13.502108 2:1.020328 3:1.350112 
10 1:13.477435 2:0.830342 3:1.34196 
-10 1:13.412385 2:0.500671 3:1.08494 
-10 1:13.38431 2:0.360354 3:0.971308 
-10 1:13.384786 2:0.236506 3:1.146877 
10 1:13.385739 2:-0.011189 3:1.498013 
10 1:13.370864 2:-0.200529 3:1.595994 
7.832578564500252 1:13.34194 2:-0.38168 3:1.529265 
-10 1:13.275969 2:-0.733304 3:1.292376 
-10 1:13.243441 2:-0.879803 3:1.138615 
-10 1:13.210913 2:-1.026303 3:0.984853 
-10 1:13.178608 2:-1.209518 3:0.88402 
10 1:13.020025 2:-1.630814 3:-0.268582 
10 1:13.000376 2:-1.631294 3:-0.482536 
10 1:12.980727 2:-1.631774 3:-0.69649 
10 1:12.989201 2:-1.471011 3:-0.825083 
10 1:13.01423 2:-1.282624 3:-0.810843 
-10 1:13.072274 2:-0.875291 3:-0.73718 
-10 1:13.087943 2:-0.698841 3:-0.808761 
2.999526072213523 1:13.084474 2:-0.591223 3:-0.994688 
10 1:13.081722 2:-0.479665 3:-1.17821 
10 1:13.879305 2:0.323784 3:-1.165117 
10 1:13.855691 2:0.536922 3:-1.211784 
10 1:13.824198 2:0.75733 3:-1.213189 
10 1:13.789207 2:0.975744 3:-1.189519 
10 1:13.749056 2:1.160147 3:-1.099257 
10 1:13.658185 2:1.453125 3:-0.776457 
10 1:13.616586 2:1.533749 3:-0.577712 
8.489994404773551 1:13.416653 2:1.539484 3:0.741279 
10 1:13.394552 2:1.473238 3:0.950815 
10 1:13.384117 2:1.361608 3:1.126314 
8.231759127209516 1:13.401302 2:1.155532 3:1.208842 
-10 1:13.561638 2:0.253197 3:1.006532 
-10 1:13.588672 2:0.104367 3:0.96927 
-10 1:13.591223 2:-0.060413 3:1.109391 
-10 1:13.580672 2:-0.182291 3:1.295423 
10 1:13.605792 2:-0.71127 3:1.633082 
10 1:13.634359 2:-0.930641 3:1.652879 
10 1:13.663824 2:-1.150847 3:1.667521 
10 1:13.693289 2:-1.371053 3:1.682162 
10 1:13.725631 2:-1.396667 3:1.492322 
10 1:13.75858 2:-1.394735 3:1.272208 
10 1:13.79483 2:-1.417434 3:1.053704 
-10 1:13.902622 2:-1.478259 3:0.397596 
-10 1:13.93641 2:-1.482239 3:0.17756 
-10 1:13.970197 2:-1.486218 3:-0.042476 
10 1:14.025175 2:-1.41654 3:-0.473071 
-10 1:13.987505 2:-1.038839 3:-0.583444 
-10 1:13.945262 2:-0.839688 3:-0.493371 
-10 1:13.902842 2:-0.641488 3:-0.401225 
-10 1:13.888624 2:-0.475871 3:-0.464857 
-10 1:13.886936 2:-0.311815 3:-0.610003 
-10 1:13.8873 2:-0.154534 3:-0.762286 
-10 1:13.881448 2:0.024316 3:-0.893949 
10 1:14.112892 2:0.569726 3:-1.217073 
10 1:14.099354 2:0.770823 3:-1.289147 
10 1:14.088929 2:0.96693 3:-1.330943 
10 1:14.09652 2:1.134162 3:-1.197551 
10 1:14.104112 2:1.301394 3:-1.064158 
10 1:14.116253 2:1.424807 3:-0.898643 
10 1:14.167019 2:1.654382 3:-0.301721 
10 1:14.186264 2:1.691916 3:-0.091867 
10 1:14.205509 2:1.729451 3:0.117987 
10 1:14.224754 2:1.766986 3:0.32784 
10 1:14.245812 2:1.666178 3:0.510347 
10 1:14.267044 2:1.55213 3:0.690237 
-10 1:14.313901 2:1.037563 3:0.999958 
-10 1:14.326171 2:0.831746 3:1.057464 
-10 1:14.33573 2:0.620124 3:1.085229 
-10 1:14.344786 2:0.407425 3:1.107482 
-10 1:14.353842 2:0.194727 3:1.129735 
-10 1:14.369501 2:0.06766 3:1.24814 
-10 1:14.391279 2:0.019968 3:1.455671 
10 1:14.413057 2:-0.027725 3:1.663202 
10 1:14.427774 2:-0.152568 3:1.772695 
10 1:14.43434 2:-0.366486 3:1.768998 
10 1:14.440905 2:-0.580405 3:1.7653 
10 1:14.435162 2:-0.741563 3:1.652882 
-10 1:14.409552 2:-0.988633 3:1.308164 
-10 1:14.39295 2:-1.069977 3:1.110869 
-10 1:14.389183 2:-1.250548 3:1.012268 
10 1:14.387675 2:-1.44858 3:0.931035 
10 1:14.373345 2:-1.527531 3:0.757845 
3.646893196638532 1:14.270508 2:-1.515829 3:-0.293033 
-10 1:14.226681 2:-1.001275 3:-0.571674 
-10 1:14.221302 2:-0.787868 3:-0.555977 
-10 1:14.212741 2:-0.575074 3:-0.573122 
-10 1:14.201 2:-0.369864 3:-0.625395 
-10 1:14.185406 2:-0.184729 3:-0.723864 
-10 1:14.165686 2:-0.036303 3:-0.876831 
-10 1:14.147431 2:0.127731 3:-1.009597 
-10 1:14.141496 2:0.341461 3:-0.999495 
-10 1:14.893671 2:1.534244 3:-0.150564 
-10 1:14.866734 2:1.500125 3:0.044379 
-10 1:14.838107 2:1.437914 3:0.234498 
-10 1:14.809479 2:1.375703 3:0.424617 
-10 1:14.780806 2:1.312152 3:0.614224 
-10 1:14.751615 2:1.233417 3:0.798027 
-10 1:14.722493 2:1.151585 3:0.979235 
-10 1:14.695296 2:0.98365 3:1.088291 
-10 1:14.680481 2:0.800638 3:1.087499 
-10 1:14.672752 2:0.609001 3:1.023858 
-10 1:14.679898 2:0.473538 3:0.877112 
-10 1:14.688346 2:0.342989 3:0.723097 
-10 1:14.674336 2:0.205394 3:0.74568 
-10 1:14.645718 2:0.056311 3:0.878594 
-10 1:14.617566 2:-0.100878 3:1.002424 
-10 1:14.588217 2:-0.231985 3:1.153061 
-10 1:14.558788 2:-0.361356 3:1.305482 
-10 1:14.53423 2:-0.516898 3:1.401396 
-10 1:14.518206 2:-0.718314 3:1.398263 
10 1:14.483352 2:-1.120416 3:1.415124 
10 1:14.477271 2:-1.292408 3:1.351105 
10 1:14.484995 2:-1.424218 3:1.202097 
10 1:14.506966 2:-1.456169 3:1.003775 
10 1:14.528938 2:-1.488121 3:0.805454 
10 1:14.708402 2:-1.387655 3:-0.57678 
10 1:14.736765 2:-1.315679 3:-0.758347 
10 1:14.764391 2:-1.152092 3:-0.87372 
10 1:14.787586 2:-0.96955 3:-0.940874 
10 1:14.806741 2:-0.769723 3:-0.964053 
10 1:14.825613 2:-0.56967 3:-0.9848 
10 1:14.843405 2:-0.368776 3:-0.996284 
10 1:14.928861 2:0.411792 3:-1.172644 
-10 1:15.13411 2:0.113429 3:-0.991443 
4.487783169124885 1:15.120858 2:0.537482 3:-1.159663 
10 1:15.112932 2:0.740399 3:-1.253512 
10 1:15.096931 2:0.863293 3:-1.404707 
10 1:15.108364 2:1.081049 3:-1.337438 
10 1:15.123716 2:1.283749 3:-1.235157 
10 1:15.145914 2:1.403434 3:-1.064115 
10 1:15.172845 2:1.460757 3:-0.844883 
9.598488717660333 1:15.358191 2:1.485193 3:0.713292 
10 1:15.401191 2:1.257033 3:1.105986 
10 1:15.423152 2:1.148439 3:1.305483 
10 1:15.445009 2:1.038565 3:1.504277 
10 1:15.466643 2:0.925938 3:1.70156 
10 1:15.488277 2:0.81331 3:1.898843 
10 1:15.488924 2:0.657325 3:1.925108 
10 1:15.471587 2:0.464184 3:1.804818 
10 1:15.454249 2:0.271043 3:1.684528 
-10 1:15.402868 2:0.084379 3:1.276574 
-10 1:15.37664 2:-0.002531 3:1.067212 
-10 1:15.370818 2:-0.199352 3:1.044426 
-10 1:15.372793 2:-0.419483 3:1.090432 
-10 1:15.383664 2:-0.614719 3:1.208067 
-10 1:15.380043 2:-0.835889 3:1.207064 
10 1:15.379734 2:-1.062407 3:1.234689 
10 1:15.363879 2:-1.233654 3:1.123968 
10 1:15.340931 2:-1.379682 3:0.950121 
10 1:15.314172 2:-1.425077 3:0.730746 
4.646245486484959 1:15.205651 2:-1.542586 3:-0.167801 
10 1:15.179941 2:-1.529224 3:-0.386176 
10 1:15.157188 2:-1.431121 3:-0.590948 
10 1:15.15246 2:-1.23265 3:-0.657264 
-10 1:15.157791 2:-1.007576 3:-0.64238 
-10 1:15.168973 2:-0.791543 3:-0.577002 
-10 1:15.185781 2:-0.595636 3:-0.461539 
-10 1:15.197795 2:-0.380915 3:-0.388973 
-10 1:15.197742 2:-0.183612 3:-0.415744 
-10 1:15.180905 2:-0.025176 3:-0.578727 
-10 1:15.159996 2:0.093038 3:-0.770646 
-10 1:15.979257 2:0.584854 3:-0.927171 
-10 1:16.006234 2:0.775541 3:-0.913118 
-10 1:16.033212 2:0.966228 3:-0.899064 
-10 1:16.044023 2:1.123883 3:-0.811332 
-10 1:16.043825 2:1.259043 3:-0.673424 
-10 1:16.043626 2:1.394203 3:-0.535515 
-10 1:16.035424 2:1.49664 3:-0.377671 
10 1:15.967984 2:1.6078 3:0.18128 
10 1:15.941104 2:1.620452 3:0.372079 
10 1:15.90946 2:1.585987 3:0.546808 
10 1:15.869116 2:1.465473 3:0.692189 
10 1:15.667285 2:0.831873 3:1.388476 
10 1:15.62788 2:0.707926 3:1.524166 
10 1:15.595893 2:0.518602 3:1.544663 
10 1:15.563377 2:0.329906 3:1.569299 
10 1:15.530371 2:0.141792 3:1.597772 
10 1:15.497364 2:-0.046322 3:1.626245 
10 1:15.481852 2:-0.217089 3:1.556394 
-10 1:15.454541 2:-0.704088 3:1.245091 
-10 1:15.442386 2:-0.872859 3:1.155022 
5.733239635030392 1:15.41827 2:-1.209948 3:0.974061 
10 1:15.423394 2:-1.320895 3:0.828005 
10 1:15.596681 2:-1.483488 3:-0.483886 
10 1:15.629439 2:-1.44589 3:-0.662831 
10 1:15.669739 2:-1.317515 3:-0.799975 
10 1:15.710233 2:-1.17755 3:-0.92669 
10 1:15.748915 2:-1.013825 3:-1.017397 
10 1:15.786862 2:-0.840454 3:-1.093485 
10 1:15.806377 2:-0.666729 3:-1.047159 
-3.359833240862351 1:15.819213 2:-0.495561 3:-0.959174 
-10 1:15.829222 2:-0.330809 3:-0.858958 
-10 1:15.852853 2:-0.149786 3:-0.83251 
-10 1:15.889089 2:0.027787 3:-0.893023 
-10 1:15.919045 2:0.210332 3:-0.906919 
-10 1:15.944962 2:0.398912 3:-0.887972 
-10 1:16.295477 2:-0.383359 3:-0.702103 
-10 1:16.336094 2:-0.328879 3:-0.907306 
10 1:16.417334 2:-0.219493 3:-1.317298 
10 1:16.460044 2:-0.016546 3:-1.378248 
10 1:16.495508 2:0.184462 3:-1.394319 
10 1:16.514152 2:0.380969 3:-1.306208 
-10 1:16.538186 2:0.744251 3:-1.075738 
-10 1:16.551254 2:0.927673 3:-0.965422 
-10 1:16.574446 2:1.131918 3:-0.898549 
-10 1:16.545334 2:1.498727 3:-0.320055 
-10 1:16.514072 2:1.509185 3:-0.106421 
-0.1659237426338114 1:16.481205 2:1.509481 3:0.106805 
10 1:16.410013 2:1.47551 3:0.531873 
-10 1:16.283976 2:1.079372 3:0.927253 
-10 1:16.255712 2:0.868944 3:0.886666 
-10 1:16.219654 2:0.656286 3:0.894196 
-10 1:16.174333 2:0.503211 3:1.025069 
-10 1:16.12702 2:0.363676 3:1.183239 
-10 1:16.079707 2:0.224141 3:1.341409 
10 1:16.033194 2:0.103681 3:1.514674 
10 1:15.986723 2:-0.015765 3:1.688741 
10 1:15.944816 2:-0.212598 3:1.750991 
10 1:15.927932 2:-0.394218 3:1.667305 
10 1:15.923892 2:-0.551769 3:1.526005 
10 1:15.940982 2:-0.634715 3:1.327123 
-10 1:15.958073 2:-0.717662 3:1.128241 
-10 1:15.965194 2:-0.840317 3:0.951727 
-10 1:15.970145 2:-0.971621 3:0.780085 
-10 1:15.970511 2:-1.117451 3:0.622699 
-10 1:15.966833 2:-1.275395 3:0.478634 
-10 1:15.978303 2:-1.382048 3:0.290964 
10 1:16.045034 2:-1.550052 3:-0.319907 
10 1:16.078741 2:-1.532029 3:-0.519102 
10 1:16.125682 2:-1.403098 3:-0.686134 
10 1:16.167043 2:-1.269435 3:-0.811987 
-10 1:16.172319 2:-1.105181 3:-0.671563 
-10 1:16.184149 2:-0.924223 3:-0.555847 
-10 1:16.216152 2:-0.749669 3:-0.577614 
-10 1:16.26359 2:-0.58825 3:-0.713333 
-10 1:16.311029 2:-0.426831 3:-0.849053 
10 1:16.76616 2:-0.525392 3:-1.220711 
10 1:16.773546 2:-0.32962 3:-1.249291 
10 1:16.780931 2:-0.133847 3:-1.27787 
10 1:16.788317 2:0.061925 3:-1.306449 
10 1:16.796233 2:0.252019 3:-1.361068 
10 1:16.801037 2:0.435272 3:-1.311751 
-10 1:16.808358 2:0.792398 3:-1.142056 
-10 1:16.811359 2:0.963497 3:-1.042485 
-10 1:16.814115 2:1.131435 3:-0.937933 
-10 1:16.816557 2:1.295343 3:-0.826956 
-10 1:16.816114 2:1.402792 3:-0.680521 
-10 1:16.811924 2:1.438678 3:-0.48586 
-10 1:16.807734 2:1.474563 3:-0.291199 
-10 1:16.803875 2:1.518817 3:-0.098304 
10 1:16.794549 2:1.563206 3:0.291891 
10 1:16.788946 2:1.559792 3:0.489768 
10 1:16.782725 2:1.535311 3:0.684387 
10 1:16.775572 2:1.479154 3:0.874106 
10 1:16.768173 2:1.406801 3:1.053033 
10 1:16.759544 2:1.253493 3:1.178015 
10 1:16.75289 2:1.089674 3:1.219033 
-10 1:16.745443 2:0.730829 3:1.051798 
-10 1:16.742219 2:0.55712 3:0.957106 
-10 1:16.73424 2:0.415 3:1.07224 
-10 1:16.726023 2:0.258783 3:1.178834 
-10 1:16.718216 2:0.080733 3:1.244123 
8.937943609191564 1:16.709612 2:-0.061928 3:1.381134 
10 1:16.701106 2:-0.212198 3:1.50537 
10 1:16.697141 2:-0.376159 3:1.449234 
10 1:16.695798 2:-0.524244 3:1.317829 
10 1:16.69483 2:-0.666381 3:1.18012 
10 1:16.688855 2:-1.261872 3:0.672449 
10 1:16.691059 2:-1.33792 3:0.500646 
-10 1:16.704608 2:-1.418369 3:-0.085597 
-3.32021388237181 1:16.710218 2:-1.413984 3:-0.28257 
-10 1:16.724907 2:-1.257249 3:-0.621893 
-10 1:16.733518 2:-1.110692 3:-0.754453 
10 1:16.758066 2:-0.663198 3:-1.096201 
-10 1:16.762164 2:-0.484542 3:-1.027027 
10 1:17.409138 2:-0.155555 3:-1.335718 
10 1:17.38718 2:0.03093 3:-1.419461 
10 1:17.35787 2:0.214338 3:-1.424828 
10 1:17.319386 2:0.393904 3:-1.332381 
-6.603788753432499 1:17.280943 2:0.574634 3:-1.242239 
-10 1:17.243708 2:0.767573 3:-1.183988 
-10 1:17.209507 2:0.967212 3:-1.166895 
10 1:17.19089 2:1.141013 3:-1.263379 
10 1:17.158945 2:1.326822 3:-1.246347 
10 1:17.121185 2:1.517352 3:-1.178935 
10 1:17.086061 2:1.64299 3:-1.032433 
10 1:17.05713 2:1.704753 3:-0.843997 
10 1:17.034228 2:1.720052 3:-0.640249 
10 1:17.01319 2:1.724115 3:-0.436872 
10 1:16.998625 2:1.689203 3:-0.234781 
10 1:16.984059 2:1.65429 3:-0.03269 
10 1:16.97945 2:1.574408 3:0.143066 
-10 1:16.992454 2:1.41498 3:0.272238 
-10 1:17.014453 2:1.229885 3:0.353313 
-10 1:17.03414 2:1.049451 3:0.449893 
-10 1:17.039185 2:0.922962 3:0.605002 
-10 1:17.043552 2:0.797436 3:0.765303 
-10 1:17.051723 2:0.655967 3:0.913543 
-10 1:17.062855 2:0.503578 3:1.049958 
-10 1:17.075859 2:0.34415 3:1.179131 
-10 1:17.099811 2:0.15599 3:1.245692 
-3.467484525843813 1:17.125657 2:-0.037639 3:1.302228 
-10 1:17.192714 2:-0.360004 3:1.156546 
-10 1:17.229217 2:-0.509824 3:1.035563 
-10 1:17.264384 2:-0.695315 3:0.985842 
10 1:17.374101 2:-1.227752 3:0.755588 
10 1:17.407579 2:-1.326799 3:0.582317 
10 1:17.529467 2:-1.455306 3:-0.425533 
10 1:17.546213 2:-1.433188 3:-0.628608 
10 1:17.558136 2:-1.3838 3:-0.827833 
10 1:17.568692 2:-1.327725 3:-1.024277 
10 1:17.561184 2:-1.200145 3:-1.156573 
10 1:17.525653 2:-0.999744 3:-1.127441 
10 1:17.489416 2:-0.814376 3:-1.066853 
-10 1:17.451483 2:-0.66519 3:-0.930558 
-10 1:17.414934 2:-0.469014 3:-0.88441 
-10 1:17.399057 2:-0.322953 3:-0.963191 
-10 1:17.669602 2:-0.884058 3:-0.819512 
-10 1:17.694869 2:-0.729313 3:-0.926985 
10 1:17.745403 2:-0.419824 3:-1.141932 
-10 1:17.794003 2:-0.046517 3:-1.124293 
-10 1:17.818262 2:0.141513 3:-1.110459 
10 1:17.858293 2:0.347506 3:-1.396905 
10 1:17.883357 2:0.534395 3:-1.4045 
10 1:17.908506 2:0.722744 3:-1.409692 
10 1:17.929111 2:0.898835 3:-1.349367 
10 1:17.948634 2:1.072004 3:-1.273433 
10 1:17.969817 2:1.250738 3:-1.218231 
10 1:17.993483 2:1.43779 3:-1.194016 
10 1:17.996086 2:1.506862 3:-1.047528 
10 1:17.991576 2:1.536096 3:-0.859751 
10 1:17.987067 2:1.565329 3:-0.671975 
3.313696679584596 1:17.940481 2:1.530491 3:0.268944 
10 1:17.926931 2:1.490569 3:0.454302 
10 1:17.91338 2:1.450648 3:0.63966 
-10 1:17.861485 2:1.102904 3:0.771679 
-10 1:17.838258 2:0.973694 3:0.909157 
-10 1:17.81503 2:0.844484 3:1.046634 
-10 1:17.790804 2:0.702608 3:1.168954 
-10 1:17.765339 2:0.544559 3:1.271065 
10 1:17.713564 2:0.211969 3:1.445316 
10 1:17.690119 2:0.049409 3:1.488778 
-10 1:17.653533 2:-0.285326 3:1.31622 
-10 1:17.637782 2:-0.440854 3:1.208064 
-10 1:17.617217 2:-0.614773 3:1.153281 
-8.58584874482065 1:17.597913 2:-0.78304 3:1.086983 
-10 1:17.574137 2:-1.05143 3:0.824032 
-10 1:17.566387 2:-1.162073 3:0.669653 
-10 1:17.561353 2:-1.254702 3:0.507781 
-10 1:17.565613 2:-1.285727 3:0.320287 
-10 1:17.569873 2:-1.316753 3:0.132793 
-10 1:17.581286 2:-1.293213 3:-0.053225 
-10 1:17.5947 2:-1.254409 3:-0.23883 
-10 1:17.609458 2:-1.203818 3:-0.419611 
-10 1:17.629566 2:-1.106436 3:-0.581545 
-10 1:17.652968 2:-0.954311 3:-0.655 
10 1:18.180017 2:0.19785 3:-1.292031 
-10 1:18.172193 2:0.562391 3:-1.157911 
-10 1:18.167182 2:0.749903 3:-1.109407 
-10 1:18.161593 2:0.940171 3:-1.070658 
-10 1:18.156004 2:1.13044 3:-1.031909 
-10 1:18.154181 2:1.295042 3:-0.935869 
10 1:18.153224 2:1.605899 3:-0.702832 
10 1:18.160484 2:1.65066 3:-0.515699 
10 1:18.168958 2:1.669893 3:-0.324103 
10 1:18.178606 2:1.661957 3:-0.130251 
10 1:18.188254 2:1.654021 3:0.063602 
10 1:18.198808 2:1.612672 3:0.249077 
10 1:18.210515 2:1.528765 3:0.423884 
-10 1:18.220634 2:1.365333 3:0.501019 
-10 1:18.230255 2:1.176978 3:0.547544 
-10 1:18.241832 2:1.035738 3:0.673003 
-10 1:18.253851 2:0.905153 3:0.816314 
-10 1:18.265386 2:0.822845 3:0.988837 
-10 1:18.276759 2:0.756648 3:1.17111 
10 1:18.300688 2:0.49224 3:1.452839 
10 1:18.310957 2:0.316379 3:1.522982 
10 1:18.320864 2:0.130086 3:1.577115 
10 1:18.330784 2:-0.056109 3:1.631591 
10 1:18.338197 2:-0.24146 3:1.634713 
10 1:18.342467 2:-0.425751 3:1.57345 
10 1:18.345689 2:-0.603118 3:1.496051 
10 1:18.34798 2:-0.774335 3:1.404322 
10 1:18.34777 2:-0.921983 3:1.279856 
10 1:18.346883 2:-1.063244 3:1.146516 
10 1:18.344784 2:-1.189875 3:0.999927 
10 1:18.341922 2:-1.307003 3:0.845214 
10 1:18.337063 2:-1.395492 3:0.672353 
10 1:18.332205 2:-1.48398 3:0.499492 
10 1:18.324849 2:-1.518847 3:0.318417 
-10 1:18.249183 2:-0.877037 3:-0.730439 
-10 1:18.243746 2:-0.687825 3:-0.689397 
-10 1:18.237522 2:-0.49921 3:-0.665191 
-10 1:18.227272 2:-0.329871 3:-0.74024 
-10 1:18.215245 2:-0.214268 3:-0.895887 
-10 1:18.203246 2:-0.095145 3:-1.048108 
10 1:18.696112 2:-0.323513 3:-1.025298 
-10 1:18.608213 2:0.269853 3:-1.130621 
-10 1:18.585391 2:0.468978 3:-1.094983 
-10 1:18.566778 2:0.660477 3:-1.025233 
-10 1:18.553524 2:0.831418 3:-0.927234 
-10 1:18.551496 2:0.960473 3:-0.768392 
-10 1:18.544534 2:1.110301 3:-0.632999 
-10 1:18.541072 2:1.245001 3:-0.48152 
-10 1:18.533308 2:1.393368 3:-0.356693 
-10 1:18.544546 2:1.446848 3:-0.162418 
-10 1:18.559718 2:1.475949 3:0.039604 
-10 1:18.581312 2:1.455874 3:0.241185 
10 1:18.626513 2:1.40031 3:0.644208 
10 1:18.6502 2:1.362809 3:0.843687 
10 1:18.675308 2:1.312595 3:1.040507 
10 1:18.705711 2:1.201402 3:1.208396 
10 1:18.736593 2:1.084693 3:1.373668 
10 1:18.767183 2:0.949825 3:1.510456 
10 1:18.796737 2:0.750454 3:1.546057 
10 1:18.82413 2:0.54846 3:1.555012 
-10 1:18.856948 2:0.203556 3:1.421886 
-10 1:18.85007 2:0.121754 3:1.2344 
-10 1:18.849359 2:0.016202 3:1.079283 
-10 1:18.874409 2:-0.17783 3:1.074451 
-10 1:18.905979 2:-0.306278 3:1.230637 
-10 1:18.937366 2:-0.45506 3:1.356451 
-10 1:18.966738 2:-0.650573 3:1.395507 
10 1:19.015292 2:-1.054195 3:1.347645 
10 1:19.038262 2:-1.252165 3:1.315188 
10 1:19.044865 2:-1.402017 3:1.175939 
10 1:19.033325 2:-1.455127 3:0.978976 
10 1:19.021588 2:-1.507188 3:0.781386 
10 1:19.009852 2:-1.559249 3:0.583797 
10 1:18.998115 2:-1.61131 3:0.386207 
10 1:18.983063 2:-1.639869 3:0.186221 
10 1:18.963044 2:-1.633202 3:-0.017358 
10 1:18.937206 2:-1.575243 3:-0.211115 
10 1:18.910692 2:-1.51132 3:-0.40373 
10 1:18.884177 2:-1.447396 3:-0.596345 
10 1:18.855295 2:-1.357072 3:-0.777226 
10 1:18.82559 2:-1.19275 3:-0.863427 
10 1:18.811707 2:-1.015829 3:-0.763758 
-10 1:18.760208 2:-0.61807 3:-0.755416 
-10 1:19.232897 2:-0.581232 3:-0.747936 
10 1:19.204755 2:-0.258431 3:-1.003846 
10 1:19.190755 2:-0.094637 3:-1.128717 
10 1:19.176771 2:0.069699 3:-1.252889 
10 1:19.164743 2:0.255495 3:-1.325821 
10 1:19.154384 2:0.459603 3:-1.355031 
10 1:19.144618 2:0.664644 3:-1.372963 
10 1:19.135599 2:0.870861 3:-1.37667 
10 1:19.128836 2:1.074186 3:-1.342357 
10 1:19.12295 2:1.273674 3:-1.295304 
10 1:19.126866 2:1.382558 3:-1.142494 
10 1:19.136008 2:1.431515 3:-0.942144 
-10 1:19.15568 2:1.503498 3:-0.536464 
-10 1:19.165851 2:1.533215 3:-0.33242 
-10 1:19.176488 2:1.552487 3:-0.128034 
-10 1:19.188666 2:1.537164 3:0.077484 
10 1:19.213023 2:1.506519 3:0.488519 
-10 1:19.241234 2:1.220107 3:0.773396 
-10 1:19.255489 2:1.066478 3:0.910565 
-10 1:19.269728 2:0.91206 3:1.046847 
-10 1:19.283952 2:0.77144 3:1.193359 
10 1:19.31227 2:0.600475 3:1.568127 
10 1:19.32643 2:0.514993 3:1.755512 
10 1:19.335454 2:0.34511 3:1.787 
10 1:19.342407 2:0.141182 3:1.755606 
10 1:19.349627 2:-0.063166 3:1.728658 
0.9847341456793848 1:19.357974 2:-0.269282 3:1.720465 
10 1:19.364533 2:-0.464582 3:1.688618 
-10 1:19.359647 2:-0.746305 3:1.386805 
-10 1:19.357019 2:-0.884852 3:1.234364 
-10 1:19.350089 2:-0.969561 3:1.046223 
-10 1:19.351455 2:-1.141579 3:0.939496 
-10 1:19.326721 2:-1.317593 3:0.364252 
-10 1:19.31265 2:-1.156192 3:0.236297 
-10 1:19.299586 2:-0.975155 3:0.141267 
-10 1:19.287628 2:-0.781968 3:0.075203 
-10 1:19.273114 2:-0.66096 3:-0.091431 
-10 1:19.2586 2:-0.539951 3:-0.258065 
-10 1:19.246283 2:-0.494262 3:-0.442929 
-10 1:19.236577 2:-0.532924 3:-0.645491 
-10 1:19.727571 2:0.595704 3:-1.102718 
-10 1:19.736335 2:0.787554 3:-1.088494 
-10 1:19.745099 2:0.979404 3:-1.07427 
-10 1:19.755438 2:1.147691 3:-1.000514 
-10 1:19.767015 2:1.297487 3:-0.880046 
-10 1:19.778592 2:1.447284 3:-0.759578 
10 1:19.810754 2:1.676378 3:-0.241315 
10 1:19.820879 2:1.729929 3:-0.059943 
10 1:19.826475 2:1.673983 3:0.124242 
10 1:19.832071 2:1.618037 3:0.308428 
10 1:19.837668 2:1.562091 3:0.492614 
10 1:19.836921 2:1.418068 3:0.616682 
-10 1:19.834372 2:1.115363 3:0.854812 
-10 1:19.83479 2:0.983394 3:0.993972 
-10 1:19.835866 2:0.85895 3:1.140935 
-10 1:19.835213 2:0.7179 3:1.264262 
-10 1:19.830473 2:0.537573 3:1.331682 
-10 1:19.825732 2:0.357247 3:1.399103 
-10 1:19.822481 2:0.187955 3:1.490101 
10 1:19.811464 2:-0.324958 3:1.738881 
10 1:19.80391 2:-0.51689 3:1.752691 
10 1:19.796356 2:-0.708822 3:1.766501 
10 1:19.786174 2:-0.88097 3:1.700177 
10 1:19.774856 2:-1.044567 3:1.599213 
10 1:19.763537 2:-1.208163 3:1.498249 
10 1:19.75337 2:-1.29124 3:1.344868 
10 1:19.74402 2:-1.317149 3:1.154272 
10 1:19.734669 2:-1.343058 3:0.963676 
-10 1:19.716794 2:-1.373143 3:0.580224 
-10 1:19.707928 2:-1.386301 3:0.388303 
-10 1:19.699051 2:-1.399742 3:0.196403 
0.1568803831968467 1:19.681089 2:-1.431946 3:-0.18698 
-10 1:19.691442 2:-0.660928 3:-0.704341 
-10 1:19.695425 2:-0.485743 3:-0.784215 
-10 1:19.69867 2:-0.316251 3:-0.875573 
-10 1:19.705063 2:-0.127914 3:-0.912664 
-10 1:19.711122 2:0.05949 3:-0.956582 
-10 1:19.714823 2:0.228668 3:-1.037069 
10 1:20.198187 2:0.516409 3:-1.326656 
10 1:20.200024 2:0.700375 3:-1.251707 
6.657408367477735 1:20.20186 2:0.88434 3:-1.176758 
-10 1:20.208278 2:1.211352 3:-0.958475 
-10 1:20.212184 2:1.364464 3:-0.831963 
-10 1:20.216163 2:1.514898 3:-0.70386 
-10 1:20.223189 2:1.553052 3:-0.509029 
-10 1:20.230215 2:1.591205 3:-0.314199 
10 1:20.259614 2:1.543659 3:0.472432 
10 1:20.266786 2:1.46625 3:0.655244 
10 1:20.273353 2:1.364299 3:0.818346 
10 1:20.27844 2:1.202319 3:0.933239 
2.605916047119596 1:20.283695 2:1.044112 3:1.053207 
-10 1:20.28997 2:0.691194 3:1.173776 
-10 1:20.290663 2:0.49273 3:1.165084 
-10 1:20.290771 2:0.295727 3:1.140829 
-10 1:20.295451 2:0.174189 3:1.250304 
-10 1:20.30256 2:0.091247 3:1.430675 
10 1:20.30967 2:0.008305 3:1.611047 
10 1:20.315901 2:-0.079123 3:1.767093 
10 1:20.311474 2:-0.220955 3:1.628069 
-10 1:20.305305 2:-0.551139 3:1.416069 
-10 1:20.302525 2:-0.718553 3:1.317968 
-10 1:20.296414 2:-0.808051 3:1.140721 
-10 1:20.290302 2:-0.897549 3:0.963474 
-10 1:20.284461 2:-0.997581 3:0.792069 
-10 1:20.278701 2:-1.10081 3:0.622439 
-10 1:20.274363 2:-1.242894 3:0.485777 
-10 1:20.27001 2:-1.384896 3:0.348749 
10 1:20.258865 2:-1.604384 3:0.017756 
10 1:20.252802 2:-1.648032 3:-0.15185 
10 1:20.24576 2:-1.559728 3:-0.329661 
10 1:20.242439 2:-1.414585 3:-0.399238 
10 1:20.213904 2:-0.18445 3:-0.999336 
10 1:20.209626 2:-0.007937 3:-1.09038 
10 1:20.20622 2:0.179185 3:-1.156448 
10 1:20.202942 2:0.367456 3:-1.218913 
-10 1:20.572367 2:0.672417 3:-1.071199 
-10 1:20.58585 2:0.868167 3:-0.999304 
-10 1:20.599333 2:1.063916 3:-0.927409 
-10 1:20.612817 2:1.259666 3:-0.855514 
-10 1:20.62776 2:1.451872 3:-0.774891 
10 1:20.642743 2:1.643981 3:-0.694033 
9.461869235824512 1:20.674581 2:1.687876 3:-0.50831 
10 1:20.744579 2:1.720073 3:-0.097532 
10 1:20.778947 2:1.697168 3:0.105631 
10 1:20.813031 2:1.656696 3:0.307792 
10 1:20.847114 2:1.616225 3:0.509953 
10 1:20.881198 2:1.575753 3:0.712114 
10 1:20.903671 2:1.438594 3:0.849622 
10 1:20.92152 2:1.262922 3:0.961379 
10 1:20.940309 2:1.090907 3:1.078535 
10 1:20.959117 2:0.918965 3:1.195799 
-10 1:20.945386 2:0.530829 3:1.129787 
-10 1:20.96014 2:0.415827 3:1.221014 
10 1:20.993437 2:0.358482 3:1.419185 
10 1:21.01755 2:0.248382 3:1.565316 
10 1:21.025834 2:0.047346 3:1.621748 
10 1:21.029837 2:-0.156868 3:1.653098 
10 1:21.027546 2:-0.365753 3:1.64758 
10 1:21.015027 2:-0.510886 3:1.579435 
-10 1:20.94816 2:-0.549666 3:1.187337 
-10 1:20.933754 2:-0.743234 3:1.109926 
-10 1:20.919348 2:-0.936802 3:1.032515 
-10 1:20.907671 2:-1.136227 3:0.971396 
10 1:20.870165 2:-1.491826 3:0.764201 
10 1:20.839752 2:-1.580047 3:0.588556 
10 1:20.805586 2:-1.633712 3:0.389505 
10 1:20.77142 2:-1.687377 3:0.190454 
10 1:20.737254 2:-1.741042 3:-0.008598 
10 1:20.704921 2:-1.686387 3:-0.200994 
10 1:20.672996 2:-1.607645 3:-0.391911 
10 1:20.643829 2:-1.506211 3:-0.567457 
10 1:20.620887 2:-1.353562 3:-0.708314 
10 1:20.617452 2:-1.150129 3:-0.736297 
10 1:20.61583 2:-0.941899 3:-0.753786 
-10 1:20.614118 2:-0.525299 3:-0.779756 
-10 1:20.61274 2:-0.317731 3:-0.79579 
-10 1:20.608164 2:-0.111775 3:-0.830579 
-10 1:20.597958 2:0.084008 3:-0.898121 
-10 1:20.591702 2:0.28286 3:-0.942527 
-10 1:20.583988 2:0.480863 3:-0.995489 
-10 1:21.119778 2:0.27524 3:-1.030415 
10 1:21.171109 2:0.696943 3:-1.156723 
10 1:21.206399 2:0.912174 3:-1.168544 
10 1:21.246903 2:1.130182 3:-1.15297 
10 1:21.287407 2:1.34819 3:-1.137395 
10 1:21.33486 2:1.551731 3:-1.06706 
10 1:21.383983 2:1.751792 3:-0.983554 
10 1:21.425449 2:1.808752 3:-0.800672 
10 1:21.461287 2:1.798436 3:-0.582803 
10 1:21.490802 2:1.753775 3:-0.36706 
-10 1:21.531862 2:1.478332 3:0.147309 
-10 1:21.504881 2:1.265359 3:0.204974 
-10 1:21.501879 2:1.143337 3:0.31014 
-10 1:21.549527 2:1.213422 3:0.515636 
-10 1:21.597175 2:1.283507 3:0.721131 
10 1:21.63303 2:1.29082 3:0.921391 
10 1:21.642605 2:1.169084 3:1.099089 
-10 1:21.568429 2:0.733228 3:1.107337 
-10 1:21.534081 2:0.555836 3:1.086614 
10 1:21.598627 2:0.502253 3:1.514153 
10 1:21.607071 2:0.377545 3:1.688286 
10 1:21.574215 2:0.159579 3:1.716953 
10 1:21.541359 2:-0.058388 3:1.74562 
10 1:21.493261 2:-0.187598 3:1.596897 
-10 1:21.389212 2:-0.442059 3:1.250002 
-10 1:21.336446 2:-0.58599 3:1.089035 
-10 1:21.287405 2:-0.746602 3:0.966385 
-10 1:21.248886 2:-0.963221 3:0.960909 
-10 1:21.202258 2:-1.172039 3:0.900647 
-10 1:21.113751 2:-1.398837 3:0.615963 
-10 1:21.072848 2:-1.419224 3:0.399608 
-10 1:21.045157 2:-1.365802 3:0.185622 
-10 1:21.036846 2:-1.24406 3:0.015236 
-10 1:21.062509 2:-1.0361 3:-0.045024 
-10 1:21.052752 2:-0.910202 3:-0.227959 
-10 1:21.018706 2:-0.899342 3:-0.435993 
-10 1:20.976501 2:-0.927125 3:-0.652459 
10 1:20.934296 2:-0.954909 3:-0.868924 
10 1:20.942749 2:-0.795626 3:-0.97995 
10 1:20.9734 2:-0.580287 3:-1.018745 
10 1:21.01218 2:-0.370875 3:-1.004517 
10 1:21.644478 2:-0.400369 3:-0.97409 
10 1:21.675212 2:0.250986 3:-1.053961 
10 1:21.742493 2:1.361065 3:-1.014082 
10 1:21.761014 2:1.565548 3:-0.934359 
10 1:21.781636 2:1.666267 3:-0.759286 
10 1:21.801382 2:1.687593 3:-0.540568 
-10 1:21.817601 2:1.646567 3:-0.321108 
-10 1:21.833175 2:1.599147 3:-0.104919 
-10 1:21.837837 2:1.44354 3:0.055934 
-10 1:21.842498 2:1.287933 3:0.216787 
-10 1:21.845748 2:1.122851 3:0.367412 
-10 1:21.848632 2:0.957179 3:0.51412 
-10 1:21.864175 2:0.907106 3:0.731744 
-10 1:21.879718 2:0.857033 3:0.949367 
-10 1:21.892308 2:0.772403 3:1.155604 
10 1:21.910986 2:0.576754 3:1.509236 
-10 1:21.867125 2:0.237726 3:1.221711 
-10 1:21.844496 2:0.090829 3:1.054325 
-10 1:21.846147 2:-0.00109 3:1.136323 
-10 1:21.860688 2:-0.063821 3:1.350711 
10 1:21.874184 2:-0.133949 3:1.557797 
10 1:21.867358 2:-0.348058 3:1.622755 
10 1:21.848875 2:-0.509153 3:1.513984 
-10 1:21.826175 2:-0.65107 3:1.342365 
-10 1:21.803477 2:-0.792817 3:1.170661 
-10 1:21.782116 2:-0.846214 3:0.954679 
-10 1:21.761148 2:-1.008965 3:0.817687 
-10 1:21.754323 2:-1.223074 3:0.882646 
10 1:21.716385 2:-1.572759 3:0.672335 
10 1:21.693872 2:-1.667132 3:0.470603 
10 1:21.671359 2:-1.761504 3:0.268871 
10 1:21.648965 2:-1.854037 3:0.067285 
10 1:21.640704 2:-1.726868 3:-0.116749 
-10 1:21.649662 2:-1.525554 3:-0.147825 
-10 1:21.663655 2:-1.302559 3:-0.134175 
-10 1:21.669166 2:-1.116085 3:-0.195866 
-10 1:21.658697 2:-1.010106 3:-0.391571 
-10 1:21.64648 2:-0.920907 3:-0.596517 
3.332583266553383 1:21.634263 2:-0.831707 3:-0.801463 
10 1:21.622045 2:-0.742507 3:-1.006409 
10 1:21.622924 2:-0.579087 3:-1.107147 
-9.311311491650416 1:22.234824 2:1.024982 3:-0.926855 
-10 1:22.22726 2:1.177341 3:-0.827485 
-10 1:22.219679 2:1.290264 3:-0.66567 
-10 1:22.212099 2:1.403186 3:-0.503854 
-10 1:22.205899 2:1.464351 3:-0.322674 
-10 1:22.200778 2:1.485078 3:-0.126365 
-10 1:22.195657 2:1.505805 3:0.069945 
-10 1:22.19177 2:1.493531 3:0.262764 
-10 1:22.189729 2:1.431936 3:0.450368 
-10 1:22.187688 2:1.370341 3:0.637971 
-10 1:22.185647 2:1.308745 3:0.825575 
-10 1:22.184807 2:1.222133 3:0.998723 
7.783726129757237 1:22.187462 2:0.958532 3:1.292799 
10 1:22.190401 2:0.814933 3:1.386341 
-10 1:22.198497 2:0.63357 3:1.308656 
-10 1:22.206593 2:0.452207 3:1.23097 
-10 1:22.21058 2:0.299347 3:1.292208 
-10 1:22.212145 2:0.163284 3:1.435307 
10 1:22.21371 2:0.02722 3:1.578407 
10 1:22.217657 2:-0.13569 3:1.657154 
10 1:22.224656 2:-0.332998 3:1.653446 
10 1:22.231654 2:-0.530306 3:1.649738 
10 1:22.238814 2:-0.723296 3:1.632088 
10 1:22.247018 2:-0.888206 3:1.52378 
10 1:22.255223 2:-1.053116 3:1.415472 
10 1:22.263428 2:-1.218025 3:1.307163 
10 1:22.271493 2:-1.370949 3:1.18633 
10 1:22.27912 2:-1.486311 3:1.026247 
10 1:22.286747 2:-1.601674 3:0.866164 
10 1:22.294374 2:-1.717037 3:0.706081 
10 1:22.298063 2:-1.697595 3:0.510837 
-10 1:22.308143 2:-1.6118 3:-0.073705 
10 1:22.312262 2:-1.489495 3:-0.449201 
10 1:22.309322 2:-1.333028 3:-0.562823 
10 1:22.305836 2:-1.166166 3:-0.668359 
10 1:22.30235 2:-0.999303 3:-0.773896 
-10 1:22.28777 2:-0.618888 3:-0.718219 
-10 1:22.280069 2:-0.426153 3:-0.675943 
-10 1:22.276404 2:-0.26792 3:-0.759982 
-6.95718229439427 1:22.273761 2:-0.114491 3:-0.882151 
10 1:22.269515 2:0.061954 3:-0.968706 
-10 1:22.255491 2:0.44477 3:-0.941601 
8.131572821600647 1:22.71759 2:0.648148 3:-0.982368 
10 1:22.744378 2:0.854707 3:-1.02176 
10 1:22.780443 2:1.03614 3:-0.963926 
10 1:23.051973 2:1.741693 3:0.228998 
10 1:23.084665 2:1.771053 3:0.436376 
10 1:23.108893 2:1.744761 3:0.645178 
10 1:23.132961 2:1.717422 3:0.854007 
10 1:23.15703 2:1.690084 3:1.062836 
10 1:23.181099 2:1.662745 3:1.271664 
10 1:23.168299 2:1.502422 3:1.361164 
10 1:23.143249 2:1.297914 3:1.411015 
10 1:23.118198 2:1.093406 3:1.460866 
-3.053930322353261 1:23.081849 2:0.908006 3:1.405481 
-10 1:23.039467 2:0.732805 3:1.293925 
-10 1:23.000521 2:0.554023 3:1.211802 
-10 1:22.979739 2:0.356298 3:1.285348 
-10 1:22.974118 2:0.208596 3:1.413304 
-1.990157536545052 1:22.986382 2:0.119913 3:1.605452 
10 1:22.978339 2:-0.023903 3:1.711091 
10 1:22.9461 2:-0.233403 3:1.713663 
10 1:22.913862 2:-0.442903 3:1.716235 
2.83238004883871 1:22.872463 2:-0.624434 3:1.619187 
10 1:22.747297 2:-1.171775 3:1.324032 
10 1:22.707316 2:-1.367869 3:1.254141 
10 1:22.669987 2:-1.488125 3:1.116815 
10 1:22.635286 2:-1.533155 3:0.912598 
-10 1:22.508451 2:-1.628542 3:0.086765 
-4.979834339460925 1:22.479921 2:-1.488016 3:-0.284777 
-10 1:22.499798 2:-1.151481 3:-0.524197 
-10 1:22.521916 2:-0.951882 3:-0.590041 
-10 1:22.546966 2:-0.747374 3:-0.639892 
-10 1:22.558382 2:-0.577654 3:-0.750377 
-10 1:22.58807 2:-0.368781 3:-0.771034 
-10 1:22.617758 2:-0.159907 3:-0.79169 
-10 1:22.647447 2:0.048966 3:-0.812346 
-10 1:22.668735 2:0.245865 3:-0.881212 
10 1:23.17337 2:1.247166 3:-0.838708 
10 1:23.008838 2:1.726968 3:-0.196099 
10 1:22.979095 2:1.746179 3:-0.004874 
6.192838311062526 1:22.953487 2:1.728835 3:0.197444 
10 1:22.927878 2:1.711491 3:0.399762 
10 1:22.905033 2:1.678665 3:0.599537 
10 1:22.886319 2:1.622695 3:0.795513 
10 1:22.867605 2:1.566725 3:0.991488 
10 1:22.848891 2:1.510756 3:1.187464 
10 1:22.840003 2:1.414707 3:1.357763 
10 1:22.846019 2:1.257866 3:1.489118 
10 1:22.852034 2:1.101026 3:1.620473 
10 1:22.85805 2:0.944186 3:1.751828 
10 1:22.875325 2:0.785852 3:1.80437 
10 1:22.917035 2:0.624278 3:1.685865 
-10 1:23.000455 2:0.30113 3:1.448857 
-10 1:23.039861 2:0.202867 3:1.276434 
-10 1:23.073351 2:0.057045 3:1.199174 
-10 1:23.101314 2:-0.144286 3:1.223117 
-10 1:23.129267 2:-0.345609 3:1.24713 
-10 1:23.157049 2:-0.546822 3:1.272241 
-10 1:23.188358 2:-0.74705 3:1.271046 
-10 1:23.223749 2:-0.946136 3:1.239403 
-10 1:23.26285 2:-1.079756 3:1.108469 
-10 1:23.303357 2:-1.188582 3:0.93993 
-10 1:23.343837 2:-1.297065 3:0.771197 
-10 1:23.382447 2:-1.381048 3:0.58859 
-10 1:23.421058 2:-1.46503 3:0.405983 
1.332130663949957 1:23.509229 2:-1.497292 3:-0.188349 
10 1:23.527326 2:-1.438815 3:-0.382706 
10 1:23.544123 2:-1.373104 3:-0.575809 
10 1:23.555807 2:-1.288046 3:-0.753874 
10 1:23.544553 2:-1.1162 3:-0.86447 
10 1:23.52189 2:-0.92848 3:-0.911166 
10 1:23.489118 2:-0.726696 3:-0.901248 
10 1:23.457733 2:-0.524735 3:-0.901433 
10 1:23.425519 2:-0.323889 3:-0.89446 
-10 1:23.360072 2:0.079297 3:-0.874885 
-10 1:23.330956 2:0.280994 3:-0.890995 
-10 1:23.303086 2:0.473903 3:-0.906243 
10 1:23.690306 2:0.330673 3:-0.99532 
10 1:23.657998 2:0.541753 3:-1.033134 
10 1:23.625689 2:0.752834 3:-1.070947 
10 1:23.59338 2:0.963914 3:-1.10876 
10 1:23.565229 2:1.15418 3:-1.042729 
10 1:23.539177 2:1.333932 3:-0.924242 
10 1:23.529329 2:1.411527 3:-0.728934 
-10 1:23.51074 2:1.574632 3:-0.100774 
10 1:23.505467 2:1.650893 3:0.545301 
10 1:23.511647 2:1.623772 3:0.759327 
10 1:23.519086 2:1.588319 3:0.97314 
10 1:23.526525 2:1.552865 3:1.186954 
10 1:23.540032 2:1.47387 3:1.34711 
10 1:23.572401 2:1.259541 3:1.340486 
-10 1:23.636435 2:0.833934 3:1.302172 
-10 1:23.667676 2:0.624488 3:1.255429 
-10 1:23.697849 2:0.425186 3:1.256794 
-10 1:23.725196 2:0.252708 3:1.385371 
-10 1:23.752544 2:0.08023 3:1.513948 
10 1:23.796775 2:-0.190571 3:1.849237 
10 1:23.825692 2:-0.380601 3:1.865751 
10 1:23.8572 2:-0.591383 3:1.825668 
10 1:23.888708 2:-0.802165 3:1.785585 
10 1:23.920216 2:-1.012948 3:1.745503 
10 1:23.941418 2:-1.162472 3:1.598613 
10 1:23.960835 2:-1.301384 3:1.433219 
10 1:23.980251 2:-1.440295 3:1.267825 
10 1:23.982199 2:-1.466538 3:1.059184 
10 1:23.980851 2:-1.471526 3:0.842385 
10 1:23.979502 2:-1.476514 3:0.625586 
10 1:23.971578 2:-1.479723 3:-0.241503 
10 1:23.967191 2:-1.464599 3:-0.457791 
10 1:23.949474 2:-1.355574 3:-0.58345 
-10 1:23.88965 2:-0.953865 3:-0.483955 
-10 1:23.860838 2:-0.758205 3:-0.401828 
-10 1:23.828374 2:-0.545297 3:-0.427224 
-10 1:23.799069 2:-0.357904 3:-0.524869 
-10 1:23.772738 2:-0.192572 3:-0.660121 
-10 1:23.746726 2:-0.028612 3:-0.783879 
-10 1:23.715533 2:0.172987 3:-0.854677 
-10 1:24.294787 2:-0.990387 3:-0.570635 
-10 1:24.315837 2:-0.845105 3:-0.679261 
-10 1:24.336887 2:-0.699823 3:-0.787886 
3.39514890369802 1:24.40234 2:-0.035283 3:-1.070046 
10 1:24.415678 2:0.140705 3:-1.116947 
10 1:24.429016 2:0.316693 3:-1.163848 
10 1:24.447316 2:0.837624 3:-1.155174 
0.1374295796924436 1:24.442138 2:0.985105 3:-1.08059 
-10 1:24.413445 2:1.227663 3:-0.81741 
-10 1:24.391686 2:1.288178 3:-0.650078 
-10 1:24.366707 2:1.309844 3:-0.470478 
-10 1:24.341729 2:1.33151 3:-0.290878 
-10 1:24.316751 2:1.353176 3:-0.111278 
-10 1:24.291772 2:1.374842 3:0.068321 
-10 1:24.266377 2:1.386522 3:0.248213 
-10 1:24.240119 2:1.37753 3:0.42871 
-10 1:24.213862 2:1.368538 3:0.609207 
-10 1:24.18819 2:1.295007 3:0.768765 
-10 1:24.16275 2:1.195895 3:0.920023 
-10 1:24.13731 2:1.096783 3:1.071282 
-10 1:24.113888 2:0.971335 3:1.201603 
-10 1:24.090609 2:0.84403 3:1.330447 
-8.934168493709249 1:24.00995 2:-0.760879 3:1.472812 
-10 1:24.071597 2:-1.194659 3:0.93019 
-10 1:24.093447 2:-1.259852 3:0.761009 
-10 1:24.115659 2:-1.319195 3:0.590828 
-10 1:24.1417 2:-1.316884 3:0.41009 
-10 1:24.167742 2:-1.314573 3:0.229353 
-10 1:24.193783 2:-1.312261 3:0.048616 
-10 1:24.219228 2:-1.284296 3:-0.121267 
-10 1:24.243451 2:-1.176311 3:-0.261729 
-10 1:24.269282 2:-1.088311 3:-0.418616 
-10 1:24.698464 2:0.362999 3:-1.106445 
-10 1:24.70397 2:0.56021 3:-1.101284 
-10 1:24.709754 2:0.755532 3:-1.090188 
-10 1:24.720126 2:0.919689 3:-0.981127 
-10 1:24.730499 2:1.083845 3:-0.872066 
-10 1:24.733867 2:1.232682 3:-0.882411 
-10 1:24.769847 2:1.431689 3:-0.32668 
-2.508519947162861 1:24.780871 2:1.43691 3:-0.129702 
0.8873666030749053 1:24.833073 2:1.099759 3:0.976419 
10 1:24.839279 2:0.99085 3:1.140885 
10 1:24.843784 2:0.861667 3:1.284297 
10 1:24.84497 2:0.692899 3:1.386596 
10 1:24.84618 2:0.524351 3:1.489239 
10 1:24.847956 2:0.36082 3:1.599708 
10 1:24.849732 2:0.197288 3:1.710177 
10 1:24.851508 2:0.033756 3:1.820646 
10 1:24.848479 2:-0.155055 3:1.856275 
10 1:24.843899 2:-0.352023 3:1.867756 
10 1:24.83226 2:-0.446946 3:1.702619 
-10 1:24.808149 2:-0.62849 3:1.353289 
-10 1:24.796218 2:-0.739609 3:1.190626 
-10 1:24.784287 2:-0.850727 3:1.027962 
-10 1:24.775806 2:-1.002131 3:0.947016 
10 1:24.771226 2:-1.199099 3:0.958496 
10 1:24.76174 2:-1.327455 3:0.848328 
10 1:24.74968 2:-1.419814 3:0.674335 
10 1:24.73766 2:-1.50781 3:0.498981 
10 1:24.726242 2:-1.530565 3:0.303274 
10 1:24.714825 2:-1.55332 3:0.107568 
10 1:24.70465 2:-1.54365 3:-0.081179 
10 1:24.698004 2:-1.441926 3:-0.250168 
-10 1:24.69169 2:-1.150038 3:-0.504245 
-10 1:24.690894 2:-0.978045 3:-0.601028 
-10 1:24.690099 2:-0.806052 3:-0.697811 
-10 1:24.690392 2:-0.626282 3:-0.778626 
-10 1:24.691031 2:-0.444037 3:-0.854359 
-10 1:24.69167 2:-0.261792 3:-0.930092 
-10 1:24.694604 2:-0.069272 3:-0.969221 
-10 1:24.699647 2:0.127664 3:-0.972306 
-10 1:24.704961 2:0.324941 3:-0.970647 
-10 1:25.145801 2:0.027601 3:1.134549 
-10 1:25.126167 2:0.185279 3:1.260815 
-10 1:25.137494 2:1.159084 3:0.57681 
-10 1:25.148348 2:1.258028 3:0.400188 
10 1:25.200508 2:1.559963 3:-0.34898 
10 1:25.21555 2:1.611587 3:-0.544684 
10 1:25.232574 2:1.631411 3:-0.744013 
10 1:25.251094 2:1.627234 3:-0.946079 
10 1:25.27033 2:1.571325 3:-1.126356 
10 1:25.290746 2:1.430131 3:-1.270713 
10 1:25.311162 2:1.288938 3:-1.415069 
10 1:25.328725 2:1.128851 3:-1.517089 
10 1:25.33988 2:0.92632 3:-1.523996 
10 1:25.351035 2:0.723788 3:-1.530903 
10 1:25.36036 2:0.5218 3:-1.51792 
10 1:25.36906 2:0.319998 3:-1.498139 
10 1:25.37776 2:0.118195 3:-1.478358 
10 1:25.384488 2:-0.080259 3:-1.438727 
10 1:25.390294 2:-0.277148 3:-1.389818 
10 1:25.3961 2:-0.474037 3:-1.340908 
10 1:25.402159 2:-0.671492 3:-1.29446 
10 1:25.408557 2:-0.869707 3:-1.251322 
10 1:25.415062 2:-1.068116 3:-1.209258 
10 1:25.422777 2:-1.2687 3:-1.1793 
10 1:25.413055 2:-1.349329 3:-1.025686 
10 1:25.396937 2:-1.385957 3:-0.826715 
10 1:25.379806 2:-1.406597 3:-0.62574 
-10 1:25.23033 2:-1.013631 3:0.798966 
-10 1:25.225751 2:-0.819986 3:0.738371 
-10 1:25.221172 2:-0.626341 3:0.677775 
-10 1:25.222292 2:-0.485317 3:0.584466 
-10 1:25.204984 2:-0.367843 3:0.708129 
-10 1:25.185262 2:-0.271468 3:0.870552 
-10 1:25.166419 2:-0.107374 3:0.984389 
-8.755236787136909 1:25.818894 2:0.612546 3:0.960972 
-10 1:25.723888 2:1.387587 3:0.00241 
-10 1:25.708052 2:1.43308 3:-0.176314 
-10 1:25.692214 2:1.474141 3:-0.356063 
10 1:25.645034 2:1.552846 3:-0.901397 
10 1:25.629552 2:1.554376 3:-1.085844 
10 1:25.616923 2:1.510324 3:-1.246561 
10 1:25.611112 2:1.357305 3:-1.350552 
10 1:25.605301 2:1.204286 3:-1.454544 
10 1:25.60907 2:1.020003 3:-1.451277 
10 1:25.633307 2:0.099486 3:-1.370344 
10 1:25.6884 2:-1.136382 3:-0.992482 
10 1:25.694852 2:-1.317849 3:-0.956553 
10 1:25.706912 2:-1.458103 3:-0.844349 
10 1:25.721773 2:-1.433768 3:-0.661456 
-10 1:25.766356 2:-1.360761 3:-0.112778 
-10 1:25.794117 2:-1.270075 3:0.239103 
-10 1:25.80588 2:-1.179387 3:0.400038 
-10 1:25.817644 2:-1.088699 3:0.560973 
-10 1:25.829407 2:-0.998011 3:0.721908 
-6.710991869062608 1:25.842614 2:-0.934581 3:0.893911 
-10 1:25.846896 2:-0.793009 3:0.977058 
-10 1:25.847196 2:-0.613279 3:1.021328 
-10 1:25.847706 2:-0.434159 3:1.067957 
-10 1:25.848141 2:-0.254837 3:1.113734 
-10 1:25.84813 2:-0.074318 3:1.154461 
-10 1:26.381135 2:0.570349 3:0.856227 
10 1:26.378598 2:0.296915 3:1.387258 
10 1:26.377753 2:0.20577 3:1.564268 
10 1:26.376907 2:0.114625 3:1.741278 
10 1:26.364786 2:-0.034522 3:1.863369 
10 1:26.348606 2:-0.20455 3:1.96569 
10 1:26.332425 2:-0.374577 3:2.068011 
7.851251480452202 1:26.307143 2:-0.556031 3:2.05213 
9.529831549220233 1:26.249104 2:-0.928322 3:1.923313 
10 1:26.2218 2:-1.087487 3:1.829377 
10 1:26.199569 2:-1.166894 3:1.648156 
10 1:26.177338 2:-1.246301 3:1.466935 
10 1:26.155107 2:-1.325708 3:1.285714 
10 1:26.132876 2:-1.405115 3:1.104493 
10 1:26.11405 2:-1.455129 3:0.915073 
10 1:26.098492 2:-1.476939 3:0.717784 
10 1:26.082933 2:-1.49875 3:0.520495 
10 1:26.067374 2:-1.52056 3:0.323206 
10 1:26.052261 2:-1.538989 3:0.125807 
10 1:26.04122 2:-1.526484 3:-0.072592 
10 1:26.030179 2:-1.513979 3:-0.270992 
-10 1:26.038587 2:-1.297667 3:-0.59119 
-10 1:26.060722 2:-1.108306 3:-0.640938 
-10 1:26.083692 2:-0.915478 3:-0.684874 
-10 1:26.106663 2:-0.72265 3:-0.728811 
-10 1:26.127021 2:-0.537865 3:-0.796731 
-10 1:26.144522 2:-0.362844 3:-0.888858 
-10 1:26.159931 2:-0.196231 3:-0.996092 
-10 1:26.178811 2:-0.016868 3:-1.075758 
-10 1:26.202731 2:0.177964 3:-1.109058 
-10 1:26.228685 2:0.374521 3:-1.114215 
-10 1:26.255418 2:0.571738 3:-1.108596 
-10 1:26.282151 2:0.768955 3:-1.102978 
-10 1:26.308883 2:0.966172 3:-1.097359 
-10 1:26.334525 2:1.15297 3:-1.087035 
-10 1:26.363606 2:1.321964 3:-0.985861 
-10 1:26.380758 2:1.360665 3:-0.798952 
-10 1:26.39649 2:1.383851 3:-0.601834 
-10 1:26.405531 2:1.362424 3:-0.416034 
-10 1:26.400409 2:1.246573 3:-0.254192 
-10 1:26.395288 2:1.130722 3:-0.092349 
-10 1:26.38657 2:0.995875 3:0.05301 
-10 1:26.376449 2:0.853619 3:0.19194 
-10 1:26.366328 2:0.711363 3:0.33087 
-10 1:26.357496 2:0.583936 3:0.458962 
-10 1:26.369316 2:0.577142 3:0.657594 
-10 1:26.938893 2:-0.931187 3:0.991022 
-10 1:26.940938 2:-0.777925 3:1.130944 
-10 1:26.869721 2:-0.167404 3:0.962508 
-10 1:26.842108 2:-0.088033 3:0.772747 
-10 1:26.826374 2:0.110208 3:0.785649 
-10 1:26.815889 2:0.30383 3:0.842902 
-10 1:26.813768 2:0.475598 3:0.959363 
10 1:26.802917 2:0.842298 3:1.150153 
10 1:26.795668 2:1.032036 3:1.23393 
10 1:26.779845 2:1.231543 3:1.247013 
10 1:26.759296 2:1.436434 3:1.221141 
10 1:26.73676 2:1.579566 3:1.128244 
10 1:26.711008 2:1.622768 3:0.926894 
10 1:26.685255 2:1.665969 3:0.725543 
10 1:26.659503 2:1.709171 3:0.524192 
10 1:26.635231 2:1.732525 3:0.320683 
10 1:26.612884 2:1.730062 3:0.114367 
10 1:26.590538 2:1.7276 3:-0.091948 
10 1:26.568592 2:1.721111 3:-0.297794 
10 1:26.550879 2:1.671971 3:-0.49865 
-10 1:26.597326 2:0.31067 3:-1.15057 
-10 1:26.621232 2:0.150775 3:-1.058403 
-10 1:26.64178 2:-0.054116 3:-1.032532 
10 1:26.660399 2:-0.44124 3:-1.168436 
10 1:26.678673 2:-0.643837 3:-1.161559 
10 1:26.70272 2:-0.833817 3:-1.091897 
10 1:26.729337 2:-1.012053 3:-0.989442 
-10 1:26.780803 2:-1.150946 3:-0.628608 
-10 1:26.804228 2:-1.161418 3:-0.422663 
-10 1:26.826569 2:-1.159866 3:-0.217113 
-10 1:26.846542 2:-1.132017 3:-0.012425 
-10 1:26.866514 2:-1.104169 3:0.192264 
-10 1:26.886487 2:-1.07632 3:0.396952 
-10 1:26.901099 2:-1.004524 3:0.587372 
-10 1:26.91892 2:-0.959036 3:0.786334 
10 1:27.284708 2:0.315406 3:-1.247902 
10 1:27.304623 2:0.457638 3:-1.417685 
10 1:27.334778 2:0.658558 3:-1.471169 
10 1:27.368119 2:0.877744 3:-1.488458 
10 1:27.39747 2:1.065356 3:-1.428349 
10 1:27.421248 2:1.208873 3:-1.260152 
-2.486983775623402 1:27.455607 2:1.406269 3:-0.876493 
-10 1:27.466168 2:1.460024 3:-0.660967 
-10 1:27.476729 2:1.51378 3:-0.44544 
8.463030135674421 1:27.488663 2:1.51382 3:0.653904 
-10 1:27.41226 2:0.995243 3:0.92334 
-10 1:27.37892 2:0.780007 3:0.885056 
-10 1:27.347593 2:0.575486 3:0.881251 
-10 1:27.324213 2:0.412075 3:1.030258 
10 1:27.295194 2:0.195826 3:1.404552 
10 1:27.282315 2:0.098578 3:1.588605 
10 1:27.249541 2:-0.118282 3:1.625354 
10 1:27.216767 2:-0.335142 3:1.662102 
10 1:27.007825 2:-1.557694 3:-0.359034 
10 1:27.021611 2:-1.454479 3:-0.543572 
10 1:27.043777 2:-1.299539 3:-0.685131 
-1.555279234054453 1:27.110395 2:-0.861387 3:-0.722489 
-10 1:27.141743 2:-0.661309 3:-0.65413 
-10 1:27.172159 2:-0.470245 3:-0.544485 
-10 1:27.201896 2:-0.28422 3:-0.426483 
-10 1:27.231356 2:-0.100243 3:-0.305085 
-10 1:27.250567 2:0.035556 3:-0.449011 
-10 1:27.266266 2:0.151298 3:-0.633899 
-10 1:27.26553 2:0.162236 3:-0.856009 
-10 1:27.808655 2:0.35421 3:-0.949515 
-10 1:27.826499 2:0.555919 3:-1.023824 
10 1:27.877835 2:1.1829 3:-1.130957 
0.4121555728011964 1:27.889934 2:1.472719 3:-0.831818 
10 1:27.89484 2:1.609953 3:-0.665475 
10 1:27.887579 2:1.607323 3:-0.453823 
-4.461329593524177 1:27.85139 2:1.506077 3:0.399891 
10 1:27.767129 2:0.798988 3:1.311174 
-10 1:27.749096 2:0.450937 3:1.056923 
-10 1:27.739552 2:0.27371 3:0.938319 
-10 1:27.723911 2:0.05953 3:0.918081 
-10 1:27.707732 2:-0.119274 3:0.994762 
-10 1:27.691129 2:-0.270114 3:1.148055 
10 1:27.598531 2:-1.340251 3:1.480159 
10 1:27.586729 2:-1.535234 3:1.388672 
10 1:27.593288 2:-1.540392 3:1.180258 
10 1:27.600956 2:-1.534091 3:0.964785 
-10 1:27.635337 2:-1.456714 3:0.110751 
-10 1:27.646551 2:-1.400575 3:-0.097215 
-4.543106838978808 1:27.657764 2:-1.344437 3:-0.305181 
10 1:27.680663 2:-1.225049 3:-0.719023 
10 1:27.695132 2:-1.096344 3:-0.858859 
10 1:27.711419 2:-0.890049 3:-0.876011 
10 1:27.725156 2:-0.683371 3:-0.815823 
-10 1:27.752502 2:-0.27068 3:-0.693174 
-10 1:27.766386 2:-0.063544 3:-0.636348 
-10 1:27.782026 2:0.150635 3:-0.616111 
-10 1:27.795741 2:0.27179 3:-0.750599 
10 1:28.362802 2:0.566061 3:-1.188129 
10 1:28.392755 2:0.738033 3:-1.341374 
10 1:28.4234 2:0.940282 3:-1.301154 
10 1:28.454234 2:1.150818 3:-1.207989 
10 1:28.485068 2:1.361353 3:-1.114824 
10 1:28.500779 2:1.485601 3:-0.940246 
10 1:28.49776 2:1.497183 3:-0.708271 
-10 1:28.481808 2:1.455752 3:-0.251017 
-10 1:28.468352 2:1.399339 3:-0.02609 
-10 1:28.454897 2:1.342925 3:0.198836 
-10 1:28.44287 2:1.295932 3:0.42553 
-10 1:28.434081 2:1.270268 3:0.656224 
-10 1:28.425267 2:1.244439 3:0.886892 
10 1:28.399978 2:1.139114 3:1.31484 
-10 1:28.298932 2:0.4715 3:1.176796 
-10 1:28.271978 2:0.28096 3:1.046706 
-10 1:28.249961 2:0.117715 3:0.883469 
-10 1:28.228409 2:-0.042962 3:0.717114 
-10 1:28.210594 2:-0.13356 3:0.895739 
-10 1:28.193188 2:-0.216512 3:1.112007 
-10 1:28.160522 2:-0.411855 3:1.220736 
-9.776110231909994 1:28.126544 2:-0.616221 3:1.325049 
10 1:27.999263 2:-1.422711 3:1.409245 
10 1:27.981014 2:-1.564407 3:1.226092 
10 1:27.981281 2:-1.592487 3:1.002959 
10 1:28.018468 2:-1.539264 3:-0.387682 
10 1:28.026856 2:-1.516185 3:-0.618453 
10 1:28.045513 2:-1.42101 3:-0.803349 
10 1:28.080782 2:-1.204632 3:-0.879787 
10 1:28.112739 2:-0.988709 3:-0.800342 
10 1:28.144697 2:-0.772786 3:-0.720897 
-10 1:28.21477 2:-0.31891 3:-0.693278 
-10 1:28.248742 2:-0.112334 3:-0.780752 
-10 1:28.314009 2:0.292419 3:-0.889827 
-10 1:28.349765 2:0.521929 3:-0.891341 
-10 1:28.683795 2:0.299125 3:-0.890299 
-10 1:28.713 2:0.828094 3:-0.996035 
-10 1:28.737891 2:1.006221 3:-0.880484 
-10 1:28.762129 2:1.185276 3:-0.77219 
10 1:28.792123 2:1.511585 3:-0.717161 
10 1:28.816557 2:1.573889 3:-0.518834 
10 1:28.838877 2:1.58991 3:-0.306829 
10 1:28.861197 2:1.605931 3:-0.094825 
10 1:28.963549 2:1.328137 3:1.142295 
10 1:28.978144 2:1.256207 3:1.343078 
10 1:28.992739 2:1.184276 3:1.543861 
10 1:28.990003 2:1.0165 3:1.642931 
10 1:28.97739 2:0.813482 3:1.669421 
10 1:28.954485 2:0.617433 3:1.587317 
10 1:28.931579 2:0.421384 3:1.505214 
10 1:28.9086 2:0.225878 3:1.421957 
-10 1:28.860952 2:-0.152748 3:1.229149 
-10 1:28.845769 2:-0.340987 3:1.218683 
10 1:28.855897 2:-0.796615 3:1.664016 
10 1:28.853594 2:-0.944355 3:1.752321 
10 1:28.827522 2:-1.099496 3:1.607571 
-10 1:28.726647 2:-1.479295 3:0.881249 
-10 1:28.701955 2:-1.537044 3:0.676906 
-10 1:28.679862 2:-1.550537 3:0.465267 
-10 1:28.658076 2:-1.558779 3:0.252762 
-10 1:28.636291 2:-1.567021 3:0.040257 
10 1:28.596807 2:-1.328141 3:-0.536326 
10 1:28.599624 2:-1.144838 3:-0.646294 
10 1:28.611205 2:-0.942602 3:-0.682554 
-10 1:28.644119 2:-0.51697 3:-0.673119 
-10 1:28.662036 2:-0.113185 3:-0.797785 
-10 1:28.672443 2:0.091443 3:-0.847634 
-10 1:29.144678 2:0.917451 3:-1.055679 
-10 1:29.160681 2:1.418867 3:-0.542616 
-10 1:29.172301 2:1.471444 3:-0.341507 
-8.726200906646152 1:29.183896 2:1.52449 3:-0.140515 
10 1:29.238963 2:1.539208 3:0.683506 
10 1:29.253952 2:1.508927 3:0.888943 
10 1:29.269024 2:1.447818 3:1.078631 
10 1:29.284328 2:1.299162 3:1.223591 
10 1:29.2952 2:1.107099 3:1.278986 
-10 1:29.314957 2:0.492851 3:1.233691 
-10 1:29.320092 2:0.288011 3:1.197055 
-10 1:29.32585 2:0.082555 3:1.16931 
-10 1:29.335322 2:-0.122764 3:1.196657 
10 1:29.367271 2:-0.306294 3:1.569055 
10 1:29.3793 2:-0.487868 3:1.647366 
10 1:29.390509 2:-0.688112 3:1.703249 
10 1:29.401717 2:-0.888356 3:1.759131 
10 1:29.405809 2:-1.081772 3:1.71332 
10 1:29.398497 2:-1.191869 3:1.544389 
-0.4981901861027502 1:29.371591 2:-1.476507 3:0.989076 
-10 1:29.358963 2:-1.508977 3:0.784105 
-10 1:29.346235 2:-1.539721 3:0.578584 
-10 1:29.333506 2:-1.570465 3:0.373063 
-10 1:29.320777 2:-1.601208 3:0.167542 
3.640440054249698 1:29.293807 2:-1.623224 3:-0.244186 
10 1:29.279037 2:-1.600686 3:-0.450632 
10 1:29.266362 2:-1.429875 3:-0.544449 
10 1:29.25398 2:-1.236967 3:-0.621756 
10 1:29.242141 2:-1.042449 3:-0.690117 
-10 1:29.227758 2:-0.630227 3:-0.676388 
-10 1:29.220371 2:-0.424093 3:-0.672398 
-10 1:29.208449 2:-0.233098 3:-0.743946 
-10 1:29.194201 2:-0.061711 3:-0.860735 
-1.96474417550158 1:29.181385 2:0.117475 3:-0.952031 
10 1:29.684457 2:0.251949 3:-1.32706 
10 1:29.682882 2:0.467909 3:-1.355246 
10 1:29.683636 2:0.680803 3:-1.336155 
10 1:29.6862 2:0.891315 3:-1.280355 
10 1:29.691164 2:1.080699 3:-1.176157 
7.673940826354189 1:29.696994 2:1.257677 3:-1.054591 
-10 1:29.707202 2:1.319934 3:-0.846131 
-10 1:29.717482 2:1.37648 3:-0.636294 
-10 1:29.727975 2:1.416263 3:-0.422418 
-10 1:29.738468 2:1.456045 3:-0.208543 
-10 1:29.748962 2:1.495827 3:0.005333 
-10 1:29.759582 2:1.517067 3:0.221461 
10 1:29.780939 2:1.542194 3:0.655766 
10 1:29.791454 2:1.497133 3:0.868591 
10 1:29.801969 2:1.452072 3:1.081416 
10 1:29.810601 2:1.350387 3:1.254965 
10 1:29.813597 2:1.156754 3:1.312411 
-10 1:29.806932 2:0.752087 3:1.169872 
-10 1:29.800693 2:0.577334 3:1.040034 
-10 1:29.80244 2:0.370818 3:1.071867 
-10 1:29.809332 2:0.213601 3:1.209112 
-10 1:29.811619 2:-0.255712 3:1.24728 
-10 1:29.80277 2:-0.375188 3:1.065393 
-10 1:29.798782 2:-0.572921 3:0.980893 
-10 1:29.794511 2:-0.770589 3:0.890618 
-10 1:29.789628 2:-0.962656 3:0.788042 
-10 1:29.790391 2:-1.179659 3:0.799706 
-10 1:29.79124 2:-1.397042 3:0.81311 
10 1:29.775468 2:-1.820185 3:0.485224 
10 1:29.765512 2:-1.884952 3:0.281816 
10 1:29.754849 2:-1.860821 3:0.065622 
10 1:29.744186 2:-1.836689 3:-0.150571 
10 1:29.733523 2:-1.812558 3:-0.366765 
10 1:29.725083 2:-1.67726 3:-0.535832 
10 1:29.725159 2:-1.500177 3:-0.53115 
-10 1:29.728253 2:-1.108474 3:-0.461378 
-10 1:29.722521 2:-0.924487 3:-0.574572 
-10 1:29.710477 2:-0.347352 3:-0.809044 
-10 1:29.707877 2:-0.141803 3:-0.858237 
10 1:29.694774 2:0.204021 3:-1.118304 
10 1:30.216087 2:0.350453 3:-1.359491 
10 1:30.202062 2:0.567093 3:-1.357173 
10 1:30.188037 2:0.783734 3:-1.354855 
10 1:30.174571 2:0.995427 3:-1.323531 
10 1:30.161853 2:1.200503 3:-1.253408 
10 1:30.155864 2:1.312862 3:-1.096138 
-3.730174370555956 1:30.152232 2:1.422209 3:-0.676306 
-10 1:30.152842 2:1.440279 3:-0.459954 
-10 1:30.153452 2:1.458348 3:-0.243602 
-10 1:30.1545 2:1.469698 3:-0.02696 
-10 1:30.156237 2:1.470478 3:0.190138 
-10 1:30.157974 2:1.471259 3:0.407236 
-10 1:30.191808 2:1.02596 3:1.010478 
-10 1:30.20417 2:0.825817 3:0.935986 
-10 1:30.216322 2:0.627313 3:0.848901 
-10 1:30.229093 2:0.421888 3:0.782639 
-10 1:30.242634 2:0.213357 3:0.785258 
-10 1:30.254459 2:0.043435 3:0.883522 
-10 1:30.258177 2:0.01338 3:1.098506 
-10 1:30.264393 2:-0.05647 3:1.303498 
10 1:30.270898 2:-0.130923 3:1.507335 
10 1:30.283088 2:-0.307463 3:1.597826 
10 1:30.29714 2:-0.517439 3:1.651193 
10 1:30.31125 2:-0.729828 3:1.692676 
10 1:30.325403 2:-0.943958 3:1.725591 
10 1:30.337044 2:-1.130949 3:1.66719 
10 1:30.346301 2:-1.292172 3:1.522081 
10 1:30.355559 2:-1.453395 3:1.376973 
10 1:30.360822 2:-1.557483 3:1.196625 
7.065474138657935 1:30.362774 2:-1.614215 3:0.987072 
-10 1:30.350102 2:-1.506746 3:0.294161 
-10 1:30.337905 2:-1.335478 3:0.161295 
-10 1:30.328417 2:-1.209466 3:0.001068 
-10 1:30.324235 2:-1.172116 3:-0.212761 
-10 1:30.320053 2:-1.134766 3:-0.426589 
-3.289325123088939 1:30.300165 2:-0.862096 3:-0.695136 
-10 1:30.286203 2:-0.654631 3:-0.757309 
-10 1:30.272354 2:-0.450062 3:-0.828689 
-10 1:30.258504 2:-0.245493 3:-0.900068 
-10 1:30.874202 2:0.455113 3:-0.986209 
-10 1:30.850665 2:0.671717 3:-0.98064 
-10 1:30.827127 2:0.88832 3:-0.975071 
-10 1:30.805707 2:1.105038 3:-0.981739 
10 1:30.784731 2:1.321779 3:-0.990971 
10 1:30.757775 2:1.50814 3:-0.947651 
10 1:30.715549 2:1.591571 3:-0.754951 
10 1:30.677374 2:1.599834 3:-0.540529 
10 1:30.639199 2:1.608096 3:-0.326108 
10 1:30.601678 2:1.610286 3:-0.111806 
0.4065797218144299 1:30.567032 2:1.585755 3:0.101969 
10 1:30.497741 2:1.536694 3:0.52952 
10 1:30.433094 2:1.213824 3:1.094323 
10 1:30.415168 2:1.090629 3:1.271096 
10 1:30.404342 2:0.936983 3:1.425296 
10 1:30.393517 2:0.783337 3:1.579497 
10 1:30.426271 2:0.588665 3:1.507837 
10 1:30.461736 2:0.391439 3:1.422125 
-10 1:30.542244 2:0.055097 3:1.160867 
-10 1:30.584999 2:-0.063247 3:0.986035 
-10 1:30.617059 2:-0.243243 3:0.909573 
-10 1:30.623686 2:-0.414031 3:0.973746 
-10 1:30.603013 2:-0.526003 3:1.159588 
6.9531754768208 1:30.619065 2:-1.071807 3:1.394132 
-10 1:30.893874 2:-1.650166 3:0.161244 
-5.590781572277494 1:30.926995 2:-1.613504 3:-0.051032 
10 1:30.992149 2:-1.532046 3:-0.47421 
10 1:31.024352 2:-1.488515 3:-0.685326 
10 1:31.047257 2:-1.410712 3:-0.86353 
10 1:31.0338 2:-1.198884 3:-0.913028 
10 1:31.015251 2:-0.985998 3:-0.933896 
10 1:30.988269 2:-0.771359 3:-0.90736 
6.459663156586364 1:30.961288 2:-0.55672 3:-0.880824 
-10 1:30.934306 2:-0.342081 3:-0.854288 
-10 1:30.907325 2:-0.127442 3:-0.827752 
-10 1:30.880343 2:0.087197 3:-0.801216 
-10 1:30.868302 2:0.284803 3:-0.850336 
10 1:0.762157 2:-1.073023 3:-0.715325 
10 1:0.732452 2:-0.913024 3:-0.791062 
10 1:0.702748 2:-0.753025 3:-0.866799 
10 1:0.67461 2:-0.601889 3:-0.938861 
10 1:0.651811 2:-0.451266 3:-0.976386 
10 1:0.631281 2:-0.282521 3:-0.985645 
10 1:0.609814 2:-0.106651 3:-0.99576 
10 1:0.589421 2:0.069399 3:-0.998712 
10 1:0.568895 2:0.247502 3:-1.001019 
10 1:0.548499 2:0.424462 3:-1.003321 
10 1:0.529281 2:0.597259 3:-1.000997 
10 1:0.512132 2:0.771057 3:-0.984407 
10 1:0.496104 2:0.930744 3:-0.970941 
10 1:0.491423 2:1.066101 3:-0.90129 
10 1:0.488841 2:1.197009 3:-0.821202 
10 1:0.49794 2:1.268248 3:-0.708932 
10 1:0.516321 2:1.318947 3:-0.551176 
10 1:0.533845 2:1.370439 3:-0.398431 
10 1:0.5582 2:1.363479 3:-0.244318 
10 1:0.586699 2:1.345026 3:-0.071611 
10 1:0.615757 2:1.326269 3:0.10452 
10 1:0.641979 2:1.310646 3:0.264428 
10 1:0.671167 2:1.241895 3:0.404377 
10 1:0.70395 2:1.15872 3:0.557153 
10 1:0.736022 2:1.077532 3:0.706755 
10 1:0.76627 2:0.984428 3:0.835598 
10 1:0.797626 2:0.862362 3:0.950235 
10 1:0.828476 2:0.743199 3:1.063712 
10 1:0.853942 2:0.614711 3:1.135076 
10 1:0.878468 2:0.454442 3:1.176747 
10 1:0.904821 2:0.283039 3:1.222118 
10 1:0.930639 2:0.114294 3:1.265964 
10 1:0.955218 2:-0.057224 3:1.299654 
10 1:0.980218 2:-0.231627 3:1.333955 
10 1:1.004355 2:-0.39979 3:1.367236 
10 1:1.024877 2:-0.566227 3:1.378159 
10 1:1.043513 2:-0.73397 3:1.375775 
10 1:1.055323 2:-0.842558 3:1.372573 
10 1:1.041023 2:-0.885451 3:1.247286 
10 1:1.024225 2:-0.957768 3:1.083866 
10 1:1.009188 2:-1.024692 3:0.935958 
10 1:0.986068 2:-1.037326 3:0.775404 
10 1:0.960685 2:-1.052012 3:0.598529 
10 1:0.935273 2:-1.066715 3:0.421453 
7.010641032940878 1:0.884448 2:-1.096121 3:0.0673 
10 1:0.860175 2:-1.110487 3:-0.102075 
10 1:0.833314 2:-1.097908 3:-0.268421 
10 1:0.804647 2:-1.075914 3:-0.439596 
10 1:0.774984 2:-1.047523 3:-0.612554 
10 1:1.139943 2:-0.229521 3:-0.959039 
10 1:1.134174 2:-0.030576 3:-0.992438 
10 1:1.128639 2:0.158132 3:-1.024654 
10 1:1.127832 2:0.337251 3:-1.017226 
10 1:1.130842 2:0.531181 3:-0.975988 
10 1:1.131613 2:0.732702 3:-0.953279 
10 1:1.133649 2:0.910478 3:-0.92166 
10 1:1.139903 2:1.049252 3:-0.857105 
10 1:1.156097 2:1.099716 3:-0.714659 
10 1:1.177613 2:1.151819 3:-0.526591 
10 1:1.199991 2:1.206208 3:-0.33097 
10 1:1.222094 2:1.270608 3:-0.136895 
10 1:1.243653 2:1.340261 3:0.052949 
10 1:1.265047 2:1.409393 3:0.241339 
10 1:1.284997 2:1.47482 3:0.417089 
10 1:1.306676 2:1.489821 3:0.603583 
10 1:1.329881 2:1.506195 3:0.803229 
10 1:1.351775 2:1.522307 3:0.991657 
10 1:1.366109 2:1.512136 3:1.113353 
10 1:1.376219 2:1.368673 3:1.188297 
10 1:1.387911 2:1.233492 3:1.277417 
10 1:1.383168 2:1.096883 3:1.22595 
10 1:1.375854 2:0.916887 3:1.149044 
10 1:1.368641 2:0.746045 3:1.073726 
10 1:1.355714 2:0.60014 3:0.951566 
-10 1:1.341861 2:0.375153 3:0.815165 
10 1:1.381173 2:0.02522 3:1.123189 
10 1:1.397649 2:-0.107192 3:1.253425 
10 1:1.408316 2:-0.267607 3:1.331762 
10 1:1.417827 2:-0.439781 3:1.399286 
10 1:1.421572 2:-0.568201 3:1.421024 
10 1:1.410661 2:-0.69868 3:1.317332 
10 1:1.398641 2:-0.855892 3:1.202017 
10 1:1.384973 2:-0.98916 3:1.074538 
10 1:1.367974 2:-1.104691 3:0.919998 
10 1:1.350839 2:-1.22183 3:0.764173 
10 1:1.333145 2:-1.312968 3:0.60565 
10 1:1.312529 2:-1.374407 3:0.424526 
10 1:1.291507 2:-1.437709 3:0.239783 
10 1:1.271408 2:-1.477555 3:0.0648 
10 1:1.249383 2:-1.469397 3:-0.122799 
10 1:1.22843 2:-1.464816 3:-0.301522 
10 1:1.214042 2:-1.399251 3:-0.419258 
10 1:1.201698 2:-1.266808 3:-0.514168 
10 1:1.194148 2:-1.089182 3:-0.564491 
10 1:1.18577 2:-0.896607 3:-0.620699 
10 1:1.177918 2:-0.704761 3:-0.672471 
10 1:1.170513 2:-0.503584 3:-0.719677 
10 1:1.160138 2:-0.314267 3:-0.793214 
10 1:1.900732 2:0.05235 3:-1.082707 
10 1:1.869018 2:0.250857 3:-1.0492 
10 1:1.837456 2:0.43639 3:-1.004703 
10 1:1.801764 2:0.614212 3:-0.924722 
10 1:1.764968 2:0.797901 3:-0.842603 
10 1:1.727666 2:0.975338 3:-0.751219 
10 1:1.696287 2:1.125832 3:-0.675485 
10 1:1.66699 2:1.174404 3:-0.519521 
10 1:1.630184 2:1.23395 3:-0.322218 
10 1:1.591528 2:1.311735 3:-0.129133 
10 1:1.554116 2:1.387117 3:0.05765 
10 1:1.519745 2:1.449734 3:0.235399 
10 1:1.489468 2:1.466548 3:0.427534 
10 1:1.457415 2:1.48506 3:0.630285 
10 1:1.428154 2:1.498921 3:0.81819 
10 1:1.409104 2:1.462748 3:0.982431 
10 1:1.406093 2:1.362661 3:1.095906 
10 1:1.411141 2:1.22855 3:1.185634 
10 1:1.435004 2:1.068539 3:1.170293 
10 1:1.463031 2:0.915741 3:1.119695 
10 1:1.499733 2:0.77997 3:0.993785 
-10 1:1.586398 2:0.439304 3:0.715086 
-10 1:1.62441 2:0.176667 3:0.697842 
-10 1:1.633539 2:-0.028159 3:0.825142 
10 1:1.623777 2:-0.317135 3:1.160092 
10 1:1.614624 2:-0.407318 3:1.306521 
10 1:1.630697 2:-0.566546 3:1.343898 
10 1:1.645213 2:-0.716957 3:1.383789 
10 1:1.67716 2:-0.830848 3:1.270216 
10 1:1.717174 2:-0.982724 3:1.136517 
10 1:1.756785 2:-1.130108 3:1.001422 
10 1:1.796352 2:-1.270303 3:0.859962 
10 1:1.833843 2:-1.398446 3:0.721568 
10 1:1.870694 2:-1.488908 3:0.552622 
10 1:1.909867 2:-1.585661 3:0.373578 
10 1:1.948607 2:-1.681364 3:0.196531 
10 1:1.980937 2:-1.758681 3:0.046412 
10 1:2.000393 2:-1.728552 3:-0.115015 
10 1:2.012326 2:-1.676676 3:-0.244991 
10 1:2.002298 2:-1.521464 3:-0.320121 
10 1:1.990093 2:-1.342724 3:-0.402133 
10 1:1.972487 2:-1.149654 3:-0.460376 
10 1:1.954861 2:-0.938926 3:-0.534856 
10 1:1.950501 2:-0.761657 3:-0.669325 
10 1:1.945944 2:-0.594474 3:-0.793094 
10 1:1.942952 2:-0.437158 3:-0.918448 
10 1:1.935664 2:-0.282753 3:-1.01163 
10 1:1.916224 2:-0.101174 3:-1.04663 
10 1:2.069066 2:0.101061 3:-1.038679 
10 1:2.069531 2:0.286318 3:-0.952829 
10 1:2.069997 2:0.471654 3:-0.866943 
10 1:2.0704 2:0.657776 3:-0.781075 
10 1:2.070143 2:0.85636 3:-0.693582 
10 1:2.060989 2:1.061059 3:-0.656644 
10 1:2.053638 2:1.177028 3:-0.648689 
10 1:2.075579 2:1.222391 3:-0.4969 
10 1:2.10197 2:1.292989 3:-0.307136 
10 1:2.128015 2:1.362705 3:-0.11984 
10 1:2.155112 2:1.421754 3:0.068976 
10 1:2.183378 2:1.475151 3:0.262262 
10 1:2.211876 2:1.529004 3:0.457143 
10 1:2.239431 2:1.581329 3:0.645685 
10 1:2.266971 2:1.60614 3:0.821803 
10 1:2.300023 2:1.578812 3:1.007569 
10 1:2.32961 2:1.560057 3:1.176419 
10 1:2.339993 2:1.507054 3:1.214858 
10 1:2.35016 2:1.3337 3:1.198047 
10 1:2.36296 2:1.130432 3:1.183592 
10 1:2.376332 2:0.918954 3:1.168888 
10 1:2.395363 2:0.707492 3:1.188093 
10 1:2.416881 2:0.483056 3:1.216383 
10 1:2.447569 2:0.311055 3:1.323118 
10 1:2.459211 2:0.192321 3:1.339626 
10 1:2.456575 2:0.037657 3:1.254491 
10 1:2.454377 2:-0.157208 3:1.153954 
10 1:2.464672 2:-0.381229 3:1.11519 
10 1:2.487404 2:-0.59328 3:1.156304 
10 1:2.504635 2:-0.782626 3:1.174642 
10 1:2.51772 2:-0.971843 3:1.168196 
10 1:2.524994 2:-1.110755 3:1.149489 
10 1:2.507108 2:-1.191668 3:1.006059 
10 1:2.486471 2:-1.299654 3:0.834001 
10 1:2.466541 2:-1.404298 3:0.667683 
10 1:2.446109 2:-1.476359 3:0.512961 
10 1:2.41592 2:-1.479492 3:0.330691 
10 1:2.382721 2:-1.48505 3:0.129302 
10 1:2.349522 2:-1.490608 3:-0.072088 
10 1:2.319181 2:-1.49714 3:-0.256791 
10 1:2.290745 2:-1.449852 3:-0.40595 
10 1:2.271806 2:-1.360974 3:-0.479568 
10 1:2.255781 2:-1.184492 3:-0.496445 
10 1:2.236946 2:-0.984336 3:-0.519545 
10 1:2.219964 2:-0.791902 3:-0.535009 
2.009133023182403 1:2.173445 2:-0.365467 3:-0.622508 
10 1:2.135011 2:-0.27581 3:-0.81257 
10 1:2.11409 2:-0.176293 3:-0.893292 
10 1:2.094749 2:0.001273 3:-0.929552 
10 1:2.607179 2:0.485488 3:-0.801672 
10 1:2.596205 2:0.678342 3:-0.751281 
10 1:2.586101 2:0.850266 3:-0.708934 
10 1:2.588496 2:0.96362 3:-0.608014 
10 1:2.598051 2:1.070434 3:-0.454089 
10 1:2.608946 2:1.203735 3:-0.270289 
10 1:2.602315 2:1.384208 3:-0.193798 
10 1:2.60738 2:1.437514 3:-0.114596 
10 1:2.629114 2:1.433269 3:0.057539 
10 1:2.653771 2:1.432359 3:0.255638 
10 1:2.677043 2:1.432083 3:0.443022 
10 1:2.699395 2:1.397462 3:0.59827 
10 1:2.726762 2:1.29314 3:0.743753 
10 1:2.756927 2:1.179701 3:0.905227 
10 1:2.787092 2:1.066262 3:1.066701 
10 1:2.817257 2:0.952824 3:1.228175 
10 1:2.845609 2:0.846789 3:1.380364 
10 1:2.872372 2:0.710287 3:1.497808 
10 1:2.898676 2:0.566228 3:1.606112 
10 1:2.919588 2:0.411481 3:1.663259 
10 1:2.938707 2:0.225794 3:1.683676 
10 1:2.959077 2:0.028868 3:1.706078 
10 1:2.976847 2:-0.139799 3:1.727881 
10 1:2.980698 2:-0.29248 3:1.648992 
10 1:2.985813 2:-0.470358 3:1.562142 
10 1:2.989896 2:-0.62244 3:1.485557 
10 1:2.979577 2:-0.712795 3:1.337326 
10 1:2.968273 2:-0.819789 3:1.169169 
10 1:2.956763 2:-0.928878 3:0.997851 
10 1:2.947301 2:-1.052421 3:0.832623 
10 1:2.940401 2:-1.181154 3:0.684315 
10 1:2.930593 2:-1.279577 3:0.534393 
10 1:2.914893 2:-1.348087 3:0.358517 
10 1:2.898416 2:-1.42081 3:0.173336 
10 1:2.881938 2:-1.493533 3:-0.011845 
10 1:2.86717 2:-1.561182 3:-0.179593 
10 1:2.846516 2:-1.560344 3:-0.345472 
10 1:2.822232 2:-1.53334 3:-0.521779 
10 1:2.804503 2:-1.493427 3:-0.635943 
10 1:2.786326 2:-1.345954 3:-0.676282 
10 1:2.769125 2:-1.19303 3:-0.70483 
10 1:2.763038 2:-1.032699 3:-0.638456 
