svm_type epsilon_svr
kernel_type rbf
gamma 0.1
nr_class 2
total_sv 5228
rho 5.35726
SV
10 1:0.926132 2:-1.367137 3:-0.899675 
10 1:0.914745 2:-1.17831 3:-0.9062 
-10 1:0.903789 2:-0.989679 3:-0.916962 
-10 1:0.893073 2:-0.801155 3:-0.93007 
-10 1:0.887326 2:-0.627854 3:-0.983603 
-10 1:0.889191 2:-0.47787 3:-1.099055 
10 1:0.866521 2:0.05992 3:-1.216309 
-10 1:0.826039 2:0.373233 3:-1.008939 
-10 1:0.809049 2:0.553326 3:-0.953209 
-6.942130466812887 1:0.793952 2:0.738505 3:-0.919893 
6.706354793734613 1:0.739347 2:1.254109 3:-0.700073 
10 1:0.721442 2:1.428458 3:-0.6314 
10 1:0.702853 2:1.465468 3:-0.467355 
-10 1:0.667504 2:1.437958 3:-0.092346 
-10 1:0.651562 2:1.400978 3:0.092603 
-10 1:0.63562 2:1.363998 3:0.277552 
-10 1:0.619678 2:1.327017 3:0.462501 
1.702815943378164 1:0.583366 2:1.104712 3:0.972694 
10 1:0.577657 2:0.502496 3:1.418277 
10 1:0.573869 2:0.363141 3:1.546315 
10 1:0.570081 2:0.223786 3:1.674353 
10 1:0.591189 2:0.09422 3:1.544462 
-1.74079042454572 1:0.612935 2:-0.035095 3:1.40796 
-10 1:0.629713 2:-0.19108 3:1.33885 
-10 1:0.639355 2:-0.378149 3:1.361875 
-8.846619860118512 1:0.749041 2:-1.196585 3:0.780393 
-10 1:0.768484 2:-1.210134 3:0.5926 
-10 1:0.787927 2:-1.223684 3:0.404807 
-10 1:0.807755 2:-1.244946 3:0.218097 
-10 1:0.828354 2:-1.281676 3:0.033559 
-10 1:0.848952 2:-1.318405 3:-0.15098 
10 1:0.888826 2:-1.364277 3:-0.524449 
10 1:0.908371 2:-1.380284 3:-0.711687 
-10 1:1.12931 2:-0.948796 3:-0.923724 
-10 1:1.11867 2:-0.798358 3:-1.060402 
10 1:1.10803 2:-0.64792 3:-1.197081 
10 1:1.099297 2:-0.490555 3:-1.317262 
10 1:1.103181 2:-0.287357 3:-1.328282 
10 1:1.113606 2:-0.113373 3:-1.270208 
-10 1:1.132884 2:0.021072 3:-1.118621 
-10 1:1.152163 2:0.155517 3:-0.967033 
-10 1:1.158906 2:0.345946 3:-0.947853 
-10 1:1.16279 2:0.549144 3:-0.958873 
10 1:1.167386 2:0.75236 3:-0.963124 
10 1:1.173365 2:0.955611 3:-0.954237 
10 1:1.179407 2:1.158797 3:-0.944741 
10 1:1.187863 2:1.35945 3:-0.91168 
10 1:1.19632 2:1.560102 3:-0.878619 
10 1:1.216893 2:1.584402 3:-0.688729 
10 1:1.23841 2:1.594951 3:-0.486611 
10 1:1.259538 2:1.591399 3:-0.284871 
-10 1:1.354593 2:1.221337 3:0.706342 
-10 1:1.343729 2:1.026335 3:0.649053 
-10 1:1.33308 2:0.831461 3:0.593781 
-10 1:1.343077 2:0.700524 3:0.719741 
-10 1:1.363008 2:0.661446 3:0.918491 
-10 1:1.381451 2:0.601079 3:1.108109 
-10 1:1.396565 2:0.143967 3:1.35971 
-10 1:1.389168 2:-0.056378 3:1.336648 
-10 1:1.389108 2:-0.254598 3:1.382853 
-10 1:1.391068 2:-0.447546 3:1.447028 
10 1:1.387539 2:-0.817275 3:1.50073 
6.493377311873389 1:1.370176 2:-0.973899 3:1.372588 
10 1:1.309268 2:-1.323966 3:0.876023 
10 1:1.244054 2:-1.438898 3:0.28303 
-10 1:1.923076 2:-0.176421 3:-1.052874 
-10 1:1.893416 2:0.02472 3:-0.998465 
-10 1:1.860543 2:0.205421 3:-0.907015 
-10 1:1.823738 2:0.361129 3:-0.770274 
-10 1:1.787538 2:0.52394 3:-0.642895 
-10 1:1.752447 2:0.699805 3:-0.532722 
-10 1:1.717355 2:0.875669 3:-0.422549 
-10 1:1.687799 2:1.070323 3:-0.364065 
-10 1:1.654896 2:1.251691 3:-0.272905 
-10 1:1.619333 2:1.423319 3:-0.156386 
10 1:1.492562 2:1.565095 3:0.605543 
10 1:1.466449 2:1.529705 3:0.810116 
10 1:1.444551 2:1.463412 3:1.00867 
10 1:1.422653 2:1.39712 3:1.207223 
10 1:1.400754 2:1.330828 3:1.405777 
10 1:1.416127 2:1.133984 3:1.445852 
10 1:1.434672 2:0.926024 3:1.472434 
10 1:1.453218 2:0.718065 3:1.499016 
10 1:1.487958 2:0.608022 3:1.342705 
-10 1:1.525149 2:0.512789 3:1.158734 
-10 1:1.562339 2:0.417556 3:0.974764 
-10 1:1.596296 2:0.235301 3:0.877057 
-10 1:1.59942 2:0.097718 3:0.95715 
-10 1:1.585402 2:-0.013732 3:1.135139 
-10 1:1.571384 2:-0.125182 3:1.313128 
-10 1:1.565444 2:-0.268518 3:1.459413 
10 1:1.568477 2:-0.447267 3:1.570488 
10 1:1.571509 2:-0.626015 3:1.681563 
10 1:1.600517 2:-0.793732 3:1.606961 
10 1:1.636714 2:-0.958396 3:1.480972 
10 1:1.672911 2:-1.12306 3:1.354984 
10 1:1.710489 2:-1.237057 3:1.182196 
10 1:1.748077 2:-1.350681 3:1.009065 
10 1:1.785665 2:-1.464305 3:0.835934 
10 1:1.816467 2:-1.473681 3:0.632319 
10 1:1.846237 2:-1.467194 3:0.424066 
4.134046344086542 1:1.876006 2:-1.460706 3:0.215812 
10 1:1.959531 2:-1.392914 3:-0.405058 
10 1:1.984258 2:-1.348049 3:-0.607152 
10 1:1.998756 2:-1.23905 3:-0.786615 
10 1:2.012209 2:-1.126093 3:-0.961851 
10 1:2.006041 2:-0.938847 3:-1.05776 
10 1:1.997278 2:-0.746424 3:-1.13975 
10 1:1.983128 2:-0.543252 3:-1.192841 
10 1:1.957495 2:-0.335636 3:-1.170727 
10 1:2.413527 2:-0.439665 3:-1.304736 
10 1:2.413711 2:-0.27831 3:-1.216849 
10 1:2.413896 2:-0.116955 3:-1.128961 
-10 1:2.422735 2:1.17611 3:-0.472457 
-10 1:2.414197 2:1.307602 3:-0.344409 
-10 1:2.403052 2:1.426326 3:-0.206482 
-10 1:2.386874 2:1.520396 3:-0.049483 
-10 1:2.337917 2:1.555876 3:0.288049 
-10 1:2.249656 2:1.255768 3:0.695551 
-10 1:2.221924 2:1.100886 3:0.790138 
-10 1:2.194928 2:0.941752 3:0.877602 
-10 1:2.168893 2:0.780046 3:0.957399 
-10 1:2.138741 2:0.645675 3:1.079033 
-10 1:2.108588 2:0.511304 3:1.200667 
10 1:1.936988 2:-1.032168 3:1.462929 
10 1:1.940121 2:-1.18363 3:1.358962 
10 1:1.950274 2:-1.293436 3:1.232399 
10 1:1.977499 2:-1.30195 3:1.050888 
-10 1:2.03195 2:-1.318978 3:0.687868 
-10 1:2.059626 2:-1.32175 3:0.506605 
-10 1:2.089057 2:-1.302123 3:0.326305 
-10 1:2.118488 2:-1.282496 3:0.146004 
-10 1:2.148215 2:-1.257979 3:-0.033517 
-10 1:2.178507 2:-1.224123 3:-0.21155 
-10 1:2.208799 2:-1.190267 3:-0.389583 
-10 1:2.239091 2:-1.156411 3:-0.567616 
-10 1:2.270539 2:-1.091416 3:-0.735966 
10 1:2.357571 2:-0.745094 3:-1.10997 
10 1:2.384545 2:-0.585719 3:-1.197156 
-10 1:2.675475 2:-0.259087 3:-1.000678 
-10 1:2.665049 2:-0.084641 3:-0.902492 
-10 1:2.654622 2:0.089804 3:-0.804305 
-10 1:2.633076 2:0.28609 3:-0.787037 
-10 1:2.607908 2:0.484187 3:-0.802122 
7.987463857579828 1:2.582363 2:0.682061 3:-0.821039 
10 1:2.553793 2:0.872324 3:-0.87729 
10 1:2.528051 2:1.066972 3:-0.901715 
10 1:2.505121 2:1.265977 3:-0.894521 
10 1:2.497363 2:1.42496 3:-0.78847 
10 1:2.49431 2:1.571534 3:-0.651769 
10 1:2.504934 2:1.635787 3:-0.478233 
7.327328643897517 1:2.525132 2:1.642413 3:-0.278913 
10 1:2.636159 2:1.587062 3:0.712962 
10 1:2.664371 2:1.468828 3:0.847244 
10 1:2.695203 2:1.297091 3:0.945917 
10 1:2.726035 2:1.125354 3:1.04459 
10 1:2.756867 2:0.953618 3:1.143263 
3.847234505274395 1:2.780441 2:0.769998 3:1.159572 
-10 1:2.798146 2:0.576768 3:1.109278 
-10 1:2.817696 2:0.3815 3:1.074202 
-10 1:2.843027 2:0.213567 3:1.124939 
-10 1:2.873221 2:0.10856 3:1.292993 
10 1:2.934615 2:-0.170108 3:1.561039 
10 1:2.965681 2:-0.336924 3:1.667494 
10 1:2.988611 2:-0.535929 3:1.6603 
10 1:3.011542 2:-0.734934 3:1.653106 
10 1:3.034472 2:-0.933939 3:1.645912 
10 1:3.038914 2:-1.076184 3:1.527289 
10 1:3.036581 2:-1.197632 3:1.367835 
10 1:3.034247 2:-1.31908 3:1.208381 
10 1:3.017604 2:-1.352725 3:1.012279 
10 1:3.000473 2:-1.383376 3:0.814928 
10 1:2.96621 2:-1.444679 3:0.420225 
10 1:2.946539 2:-1.453788 3:0.223107 
-10 1:2.868885 2:-1.306379 3:-0.347756 
-10 1:2.839529 2:-1.215787 3:-0.524141 
-10 1:2.808769 2:-1.096634 3:-0.681583 
-10 1:2.777918 2:-0.954859 3:-0.814308 
-10 1:2.747512 2:-0.77745 3:-0.902525 
-10 1:2.716696 2:-0.605726 3:-1.001056 
10 1:3.054761 2:-0.661259 3:-1.17552 
-10 1:3.123161 2:-0.255644 3:-1.020294 
-10 1:3.157501 2:-0.05443 3:-0.938774 
-10 1:3.191942 2:0.145655 3:-0.854488 
-10 1:3.224295 2:0.265526 3:-0.674884 
-10 1:3.256338 2:0.379142 3:-0.489455 
-10 1:3.289176 2:0.577231 3:-0.419887 
-10 1:3.313604 2:0.78694 3:-0.460103 
-10 1:3.333168 2:0.989383 3:-0.543196 
10 1:3.352405 2:1.191 3:-0.628666 
10 1:3.371804 2:1.392994 3:-0.712911 
10 1:3.395949 2:1.606081 3:-0.761236 
10 1:3.421362 2:1.664155 3:-0.566926 
10 1:3.446875 2:1.709982 3:-0.353447 
-0.526621346401615 1:3.49666 2:1.511534 3:0.487776 
10 1:3.497632 2:1.14648 3:1.036982 
10 1:3.497067 2:1.020252 3:1.216956 
10 1:3.496294 2:0.892988 3:1.396169 
10 1:3.494249 2:0.759383 3:1.570725 
10 1:3.47371 2:0.609418 3:1.56566 
10 1:3.438888 2:0.446821 3:1.421876 
-10 1:3.404232 2:0.286731 3:1.276224 
-10 1:3.374323 2:0.19826 3:1.07722 
-10 1:3.35626 2:0.112215 3:1.005141 
-10 1:3.363991 2:0.031455 3:1.209451 
-10 1:3.37077 2:-0.054167 3:1.410439 
5.726887014268794 1:3.343709 2:-0.403416 3:1.627493 
-10 1:3.24562 2:-0.963873 3:1.373573 
-10 1:3.210971 2:-1.121381 3:1.224191 
-9.474816406017933 1:3.082565 2:-1.400298 3:0.22097 
-10 1:3.063866 2:-1.391588 3:0.002113 
10 1:3.013769 2:-1.323256 3:-0.65061 
10 1:3.013454 2:-1.201521 3:-0.833653 
10 1:3.02078 2:-1.044708 3:-0.984262 
10 1:3.034513 2:-0.861347 3:-1.103442 
10 1:3.913813 2:-0.475855 3:-1.193658 
10 1:3.898684 2:-0.287989 3:-1.173697 
10 1:3.883556 2:-0.100123 3:-1.153737 
10 1:3.864915 2:0.07583 3:-1.094308 
10 1:3.844054 2:0.244252 3:-1.009931 
10 1:3.823192 2:0.412675 3:-0.925555 
10 1:3.802331 2:0.581098 3:-0.841178 
-10 1:3.734954 2:1.043653 3:-0.517596 
10 1:3.568312 2:1.680609 3:0.600778 
10 1:3.551353 2:1.634898 3:0.783928 
10 1:3.534394 2:1.589187 3:0.967077 
10 1:3.517435 2:1.543476 3:1.150227 
10 1:3.508466 2:1.444806 3:1.293816 
10 1:3.509385 2:1.280596 3:1.388448 
10 1:3.524413 2:1.101617 3:1.363828 
10 1:3.542386 2:0.919555 3:1.314318 
10 1:3.562189 2:0.74602 3:1.242787 
-10 1:3.582964 2:0.577009 3:1.159572 
-10 1:3.594927 2:0.423873 3:1.146658 
-10 1:3.58841 2:0.300275 3:1.283543 
-10 1:3.598566 2:0.112699 3:1.308699 
-10 1:3.612058 2:-0.075072 3:1.303584 
-10 1:3.627186 2:-0.262938 3:1.283624 
-10 1:3.644448 2:-0.440614 3:1.237838 
-10 1:3.667097 2:-0.592561 3:1.126843 
-10 1:3.689277 2:-0.749434 3:1.023213 
-10 1:3.710975 2:-0.911363 3:0.927145 
-10 1:3.732919 2:-1.07021 3:0.826895 
-10 1:3.756295 2:-1.211186 3:0.702396 
10 1:3.847413 2:-1.441625 3:0.01696 
10 1:3.867317 2:-1.437325 3:-0.16704 
10 1:3.884011 2:-1.388855 3:-0.349503 
10 1:3.900526 2:-1.338851 3:-0.531303 
8.879655362159339 1:3.926577 2:-0.998343 3:-0.982186 
10 1:3.925408 2:-0.834614 3:-1.074237 
10 1:3.918773 2:-0.653362 3:-1.127492 
10 1:4.311509 2:-0.767412 3:-1.207849 
10 1:4.301125 2:-0.57259 3:-1.159277 
10 1:4.290741 2:-0.377767 3:-1.110704 
10 1:4.280356 2:-0.182944 3:-1.062132 
10 1:4.270449 2:0.01678 3:-1.048789 
10 1:4.260639 2:0.2175 3:-1.042606 
10 1:4.251879 2:0.342075 3:-0.906935 
-10 1:4.243417 2:0.444985 3:-0.734422 
-10 1:4.235378 2:0.536498 3:-0.555671 
-10 1:4.227419 2:0.625857 3:-0.375742 
-10 1:4.218136 2:0.774637 3:-0.271908 
-10 1:4.207956 2:0.971451 3:-0.238138 
-10 1:4.199207 2:1.164298 3:-0.265563 
10 1:4.189793 2:1.464634 3:-0.516002 
10 1:4.183329 2:1.554877 3:-0.411949 
-10 1:4.168492 2:1.546261 3:0.340536 
-10 1:4.170366 2:1.436622 3:0.509055 
-10 1:4.176476 2:1.268159 3:0.608651 
-10 1:4.183659 2:1.084779 3:0.690768 
-10 1:4.18894 2:0.92575 3:0.808781 
-10 1:4.193032 2:0.781933 3:0.949219 
-10 1:4.196928 2:0.641032 3:1.092436 
-10 1:4.200291 2:0.508007 3:1.243154 
10 1:4.207017 2:0.241958 3:1.544592 
10 1:4.211561 2:0.091916 3:1.677599 
10 1:4.216492 2:-0.063723 3:1.80478 
10 1:4.22536 2:-0.254368 3:1.821064 
10 1:4.235314 2:-0.454667 3:1.806766 
-10 1:4.27229 2:-1.033521 3:1.360439 
-10 1:4.280132 2:-1.119838 3:1.179026 
-10 1:4.287478 2:-1.1938 3:0.992672 
-10 1:4.294346 2:-1.255852 3:0.801556 
-5.655761214725614 1:4.320724 2:-1.30864 3:-0.374127 
-10 1:4.321356 2:-1.242056 3:-0.563835 
-10 1:4.320088 2:-1.14329 3:-0.736357 
10 1:4.314502 2:-0.894777 3:-1.052311 
-10 1:4.650843 2:-0.517322 3:-0.889497 
-10 1:4.658878 2:-0.352541 3:-0.758279 
-10 1:4.67686 2:-0.230056 3:-0.583165 
-10 1:4.684196 2:-0.07118 3:-0.459304 
-10 1:4.673763 2:0.138968 3:-0.425542 
-10 1:4.645897 2:0.330366 3:-0.513401 
-10 1:4.619822 2:0.522926 3:-0.589138 
-10 1:4.605348 2:0.736673 3:-0.579743 
-10 1:4.598264 2:0.943836 3:-0.525777 
2.045310327115862 1:4.572583 2:1.368189 3:-0.487395 
-10 1:4.669567 2:1.602421 3:0.251801 
1.034298274391853 1:4.843177 2:1.170179 3:1.165124 
10 1:4.877543 2:1.02097 3:1.315279 
-10 1:4.907817 2:0.597638 3:1.307057 
-10 1:4.922309 2:0.383875 3:1.297767 
10 1:5.030217 2:0.061659 3:1.83967 
10 1:5.063741 2:-0.085234 3:1.985503 
10 1:5.095471 2:-0.259321 3:2.106655 
10 1:5.118609 2:-0.453182 3:2.162796 
10 1:5.133101 2:-0.666945 3:2.153507 
10 1:5.147593 2:-0.880708 3:2.144218 
10 1:5.153642 2:-1.069999 3:2.092168 
10 1:5.134635 2:-1.186678 3:1.913239 
10 1:5.115629 2:-1.303357 3:1.73431 
10 1:5.089737 2:-1.368647 3:1.53564 
10 1:5.060293 2:-1.407431 3:1.326786 
10 1:5.03085 2:-1.446214 3:1.117933 
10 1:5.001406 2:-1.484998 3:0.90908 
10 1:4.970772 2:-1.509668 3:0.699335 
10 1:4.937474 2:-1.502725 3:0.487595 
10 1:4.904176 2:-1.495781 3:0.275855 
10 1:4.870877 2:-1.488837 3:0.064115 
10 1:4.836236 2:-1.459005 3:-0.145281 
10 1:4.801458 2:-1.426848 3:-0.35444 
10 1:4.76583 2:-1.361664 3:-0.553195 
10 1:4.730021 2:-1.258416 3:-0.734793 
-10 1:5.017539 2:-0.723563 3:-0.828803 
-10 1:5.056982 2:-0.544466 3:-0.744602 
-10 1:5.093532 2:-0.36063 3:-0.684479 
-10 1:5.120724 2:-0.161466 3:-0.702252 
-10 1:5.147917 2:0.037697 3:-0.720025 
-10 1:5.175109 2:0.236861 3:-0.737798 
-3.147712072062549 1:5.195553 2:0.428652 3:-0.793288 
10 1:5.214045 2:0.61831 3:-0.859691 
10 1:5.241149 2:0.817378 3:-0.877958 
10 1:5.270739 2:1.01679 3:-0.879954 
10 1:5.301052 2:1.216276 3:-0.877196 
10 1:5.332664 2:1.415072 3:-0.86506 
10 1:5.366154 2:1.553959 3:-0.780364 
10 1:5.401416 2:1.595194 3:-0.585999 
10 1:5.436678 2:1.636429 3:-0.391634 
-10 1:5.489609 2:1.598551 3:6.8e-05 
-10 1:5.511572 2:1.551156 3:0.194329 
-10 1:5.527447 2:1.472318 3:0.379407 
-10 1:5.543323 2:1.393479 3:0.564485 
-10 1:5.525936 2:1.208141 3:0.633942 
-10 1:5.506736 2:1.017371 3:0.696722 
-10 1:5.484729 2:0.822611 3:0.74474 
-10 1:5.474386 2:0.653733 3:0.844787 
-10 1:5.473319 2:0.509353 3:0.982289 
-10 1:5.489481 2:0.431874 3:1.167916 
-10 1:5.505642 2:0.354396 3:1.353543 
8.291188690130621 1:5.50477 2:-0.199778 3:1.90285 
10 1:5.240161 2:-1.186362 3:1.122671 
-10 1:5.142119 2:-1.247235 3:0.528399 
-10 1:5.109742 2:-1.265227 3:0.330032 
-10 1:5.077365 2:-1.283218 3:0.131665 
-10 1:5.044988 2:-1.301209 3:-0.066702 
10 1:4.96122 2:-1.265253 3:-0.662575 
10 1:4.938847 2:-1.219579 3:-0.857856 
10 1:4.945246 2:-1.063668 3:-0.971268 
10 1:5.789322 2:-1.0709 3:-0.966673 
-10 1:5.858991 2:-0.32954 3:-0.944948 
-10 1:5.868614 2:-0.149135 3:-0.890671 
-10 1:5.87932 2:0.032935 3:-0.842541 
-10 1:5.890121 2:0.215151 3:-0.794951 
-10 1:5.911026 2:0.386414 3:-0.822078 
10 1:5.938598 2:0.553928 3:-0.896219 
10 1:5.958856 2:0.741067 3:-0.908588 
10 1:5.962533 2:0.900516 3:-0.828354 
10 1:5.960612 2:1.051964 3:-0.715971 
10 1:5.854034 2:1.784367 3:0.477651 
0.3928361998497555 1:5.790787 2:1.671995 3:0.826438 
10 1:5.758201 2:1.589028 3:0.989664 
3.445702077869618 1:5.72544 2:1.461554 3:1.124799 
10 1:5.69268 2:1.334081 3:1.259935 
10 1:5.659919 2:1.206608 3:1.395071 
10 1:5.627942 2:1.075892 3:1.522846 
10 1:5.60973 2:0.888143 3:1.52114 
-10 1:5.558581 2:0.325687 3:1.493242 
-10 1:5.543273 2:0.139247 3:1.472994 
-10 1:5.535721 2:-0.037432 3:1.40733 
-10 1:5.52959 2:-0.210684 3:1.334422 
-10 1:5.528072 2:-0.372809 3:1.237999 
-10 1:5.526924 2:-0.53387 3:1.139806 
-10 1:5.525813 2:-0.694824 3:1.041434 
-10 1:5.509319 2:-0.881165 3:1.029177 
-10 1:5.499092 2:-1.044226 3:0.990338 
-10 1:5.521015 2:-1.095505 3:0.810132 
-10 1:5.542938 2:-1.146783 3:0.629926 
-10 1:5.564861 2:-1.198061 3:0.449719 
-10 1:5.588292 2:-1.236896 3:0.267615 
-10 1:5.615148 2:-1.24747 3:0.081198 
-10 1:5.642004 2:-1.258044 3:-0.105219 
-10 1:5.66886 2:-1.268618 3:-0.291636 
10 1:5.759446 2:-1.18534 3:-0.842245 
10 1:6.286005 2:-1.15947 3:-0.876321 
10 1:6.286907 2:-1.078824 3:-1.068658 
10 1:6.283599 2:-0.88259 3:-1.127481 
10 1:6.27943 2:-0.676562 3:-1.137448 
10 1:6.274922 2:-0.468386 3:-1.125576 
10 1:6.270303 2:-0.262001 3:-1.102717 
1.430188186174442 1:6.265247 2:-0.067781 3:-1.028419 
-10 1:6.260075 2:0.101205 3:-0.90629 
10 1:6.251531 2:0.513431 3:-0.911286 
10 1:6.247445 2:0.719935 3:-0.928179 
10 1:6.242644 2:0.924801 3:-0.889378 
10 1:6.237894 2:1.119149 3:-0.838054 
10 1:6.233733 2:1.192746 3:-0.642953 
-10 1:6.229522 2:1.269536 3:-0.449108 
-10 1:6.224943 2:1.373267 3:-0.269749 
-10 1:6.220135 2:1.493983 3:-0.09974 
-10 1:6.215327 2:1.6147 3:0.070268 
10 1:6.204077 2:1.771556 3:0.663119 
10 1:6.201255 2:1.772415 3:0.871661 
10 1:6.198432 2:1.773274 3:1.080203 
10 1:6.197308 2:1.708956 3:1.263702 
10 1:6.198164 2:1.568635 3:1.417999 
10 1:6.199019 2:1.428313 3:1.572296 
10 1:6.199875 2:1.287992 3:1.726593 
10 1:6.203609 2:1.083995 3:1.7658 
10 1:6.207398 2:0.878775 3:1.802794 
10 1:6.211187 2:0.673554 3:1.839787 
10 1:6.2158 2:0.521596 3:1.732799 
-10 1:6.225255 2:0.287533 3:1.39332 
-10 1:6.229305 2:0.220858 3:1.195743 
-10 1:6.233355 2:0.154183 3:0.998166 
-10 1:6.238236 2:0.021566 3:0.841216 
-10 1:6.241968 2:-0.133753 3:0.804947 
-10 1:6.243816 2:-0.301777 3:0.928491 
-10 1:6.246412 2:-0.486755 3:1.022799 
-10 1:6.24938 2:-0.677229 3:1.097946 
-10 1:6.254521 2:-0.864937 3:1.007183 
6.235545186131897 1:6.268322 2:-1.236728 3:0.558432 
-3.147709189351863 1:6.280387 2:-1.281401 3:-0.269239 
-10 1:6.836574 2:-0.879422 3:-0.892964 
-10 1:6.838539 2:-0.686293 3:-0.85698 
-10 1:6.840505 2:-0.493164 3:-0.820996 
-10 1:6.85706 2:-0.322166 3:-0.902218 
-10 1:6.874184 2:-0.145952 3:-0.9864 
-5.17342720908812 1:6.880565 2:0.049477 3:-0.983518 
10 1:6.898621 2:0.438249 3:-1.018699 
10 1:6.896971 2:0.612926 3:-0.959993 
10 1:6.888394 2:0.776405 3:-0.851372 
-10 1:6.852258 2:1.203693 3:-0.462749 
-10 1:6.83647 2:1.324772 3:-0.310277 
-10 1:6.822056 2:1.456635 3:-0.165445 
10 1:6.798111 2:1.749121 3:0.094537 
10 1:6.774086 2:1.769474 3:0.283289 
10 1:6.748878 2:1.777978 3:0.477942 
-2.09820839196002 1:6.654388 2:1.337608 3:1.082911 
-10 1:6.634451 2:1.185063 3:1.194809 
-10 1:6.620471 2:0.997642 3:1.252041 
-10 1:6.601689 2:0.847272 3:1.355707 
10 1:6.552798 2:0.621627 3:1.66931 
10 1:6.533502 2:0.465392 3:1.775348 
10 1:6.523328 2:0.270968 3:1.801681 
10 1:6.520949 2:0.091134 3:1.772364 
-10 1:6.561061 2:-0.305213 3:1.361563 
-10 1:6.582066 2:-0.380558 3:1.181342 
-10 1:6.576308 2:-0.54826 3:1.181019 
7.156389321847292 1:6.563067 2:-0.925089 3:1.182609 
10 1:6.572701 2:-1.083776 3:1.067183 
10 1:6.586536 2:-1.21064 3:0.928088 
10 1:6.608202 2:-1.278196 3:0.744882 
10 1:6.629868 2:-1.345752 3:0.561676 
10 1:6.652608 2:-1.39291 3:0.375653 
10 1:6.678513 2:-1.380007 3:0.181334 
-1.913393199715486 1:6.830722 2:-1.075668 3:-0.900102 
10 1:7.443049 2:-0.895936 3:-1.292371 
10 1:7.452724 2:-0.731552 3:-1.389008 
10 1:7.45754 2:-0.546031 3:-1.452894 
10 1:7.455881 2:-0.37411 3:-1.466796 
10 1:7.433391 2:-0.24595 3:-1.319855 
-10 1:7.38841 2:0.010371 3:-1.025973 
-10 1:7.36592 2:0.138531 3:-0.879033 
-10 1:7.344462 2:0.271316 3:-0.74044 
-10 1:7.335571 2:0.462926 3:-0.703804 
-10 1:7.321505 2:0.643054 3:-0.627132 
-10 1:7.309767 2:0.827767 3:-0.568376 
-10 1:7.303474 2:1.023216 3:-0.551565 
10 1:7.273301 2:1.572828 3:-0.411932 
10 1:7.263098 2:1.636517 3:-0.346113 
10 1:7.23764 2:1.608821 3:-0.153481 
-10 1:7.166921 2:1.460977 3:0.392433 
-10 1:7.151184 2:1.321947 3:0.530076 
-10 1:7.135446 2:1.182918 3:0.667719 
-10 1:7.124647 2:1.022871 3:0.772019 
-10 1:7.115552 2:0.859671 3:0.864175 
-10 1:7.095685 2:0.752671 3:1.027511 
-10 1:7.075817 2:0.64567 3:1.190847 
-10 1:7.067287 2:0.47853 3:1.279424 
-10 1:7.061998 2:0.2942 3:1.346633 
8.676734933707344 1:7.032418 2:-0.186902 3:1.638814 
10 1:7.038954 2:-0.382177 3:1.620172 
10 1:7.047485 2:-0.573841 3:1.586213 
10 1:7.060467 2:-0.757452 3:1.518088 
10 1:7.076955 2:-0.907288 3:1.418875 
10 1:7.103294 2:-0.962205 3:1.232293 
10 1:7.129634 2:-1.017121 3:1.045711 
10 1:7.155974 2:-1.072038 3:0.859129 
-10 1:7.235529 2:-1.194991 3:0.289046 
-10 1:7.262073 2:-1.234015 3:0.098533 
-10 1:7.288601 2:-1.255444 3:-0.094539 
-10 1:7.315124 2:-1.272269 3:-0.288281 
-10 1:7.341612 2:-1.285994 3:-0.482234 
-10 1:7.368048 2:-1.29505 3:-0.676506 
4.8778564348968 1:7.603888 2:-1.387546 3:-0.88336 
-5.411342318477431 1:7.725502 2:-1.374344 3:-0.105667 
-10 1:7.83483 2:-1.071678 3:0.582649 
-10 1:7.845746 2:-0.893552 3:0.645881 
-10 1:7.837039 2:-0.706142 3:0.583197 
-10 1:7.828143 2:-0.519149 3:0.519321 
-10 1:7.832008 2:-0.348835 3:0.537719 
-10 1:7.852961 2:-0.199956 3:0.666262 
-10 1:7.875092 2:-0.058542 3:0.802619 
-10 1:7.899878 2:0.061723 3:0.956743 
-10 1:7.925146 2:0.17688 3:1.11415 
-10 1:7.93087 2:0.714395 3:1.130798 
10 1:7.973959 2:1.38165 3:1.381706 
10 1:7.953404 2:1.508854 3:1.24545 
10 1:7.923471 2:1.541697 3:1.052699 
10 1:7.893499 2:1.573053 3:0.859744 
10 1:7.71204 2:1.510983 3:-0.299067 
-10 1:7.664084 2:1.020663 3:-0.587704 
-10 1:7.654233 2:0.834767 3:-0.643824 
-10 1:7.637043 2:0.667246 3:-0.747596 
-10 1:7.626564 2:0.481312 3:-0.807736 
-10 1:7.625719 2:0.292384 3:-0.806117 
-10 1:7.636227 2:0.10926 3:-0.732074 
-10 1:7.626806 2:-0.045424 3:-0.786604 
-10 1:7.603748 2:-0.180645 3:-0.929121 
-10 1:7.581841 2:-0.323478 3:-1.06399 
10 1:7.555659 2:-1.244201 3:-1.197301 
10 1:7.573467 2:-1.375786 3:-1.078459 
-10 1:8.185106 2:0.791282 3:0.844257 
-10 1:8.185908 2:0.985731 3:0.80143 
-7.898847356342128 1:8.197321 2:1.262825 3:0.586933 
10 1:8.258011 2:1.533477 3:-0.362913 
10 1:8.27107 2:1.550959 3:-0.560824 
10 1:8.283889 2:1.525553 3:-0.748362 
10 1:8.296258 2:1.419418 3:-0.916372 
10 1:8.308628 2:1.313283 3:-1.084382 
10 1:8.320997 2:1.207148 3:-1.252393 
10 1:8.329263 2:1.033933 3:-1.348436 
10 1:8.33738 2:0.858302 3:-1.441887 
10 1:8.340217 2:0.662898 3:-1.453286 
10 1:8.342076 2:0.463832 3:-1.449492 
10 1:8.343934 2:0.264766 3:-1.445699 
10 1:8.345793 2:0.0657 3:-1.441905 
10 1:8.347443 2:-0.13309 3:-1.435039 
10 1:8.354041 2:-0.723357 3:-1.44002 
10 1:8.356993 2:-0.918277 3:-1.453212 
10 1:8.353749 2:-1.101636 3:-1.375662 
10 1:8.350505 2:-1.284995 3:-1.298112 
10 1:8.341378 2:-1.405871 3:-1.142549 
10 1:8.33181 2:-1.522065 3:-0.981141 
10 1:8.319242 2:-1.554133 3:-0.788236 
10 1:8.30621 2:-1.573222 3:-0.590471 
10 1:8.293121 2:-1.587569 3:-0.392604 
10 1:8.279736 2:-1.577305 3:-0.194209 
10 1:8.266351 2:-1.567041 3:0.004186 
10 1:8.253002 2:-1.551925 3:0.201259 
10 1:8.240241 2:-1.459914 3:0.377373 
10 1:8.227728 2:-1.360502 3:0.548582 
10 1:8.216144 2:-1.233593 3:0.701569 
-1.653390192658107 1:8.17686 2:-0.319355 3:1.143613 
-10 1:8.187527 2:-0.224076 3:0.969104 
-10 1:8.194936 2:-0.078966 3:0.835376 
-10 1:8.201275 2:0.079647 3:0.715489 
-10 1:8.195261 2:0.246298 3:0.778934 
-10 1:8.187015 2:0.419627 3:0.87467 
-10 1:8.181862 2:0.607923 3:0.921807 
-10 1:8.817379 2:0.161439 3:-0.802862 
-10 1:8.781302 2:0.361992 3:-0.783057 
-10 1:8.745225 2:0.562545 3:-0.763251 
-10 1:8.70565 2:0.752199 3:-0.698166 
-10 1:8.665532 2:0.925897 3:-0.605665 
-10 1:8.624818 2:1.070582 3:-0.466654 
-10 1:8.584139 2:1.21455 3:-0.326915 
5.849937263282802 1:8.469674 2:1.563146 3:0.147039 
10 1:8.422813 2:1.557003 3:0.553766 
10 1:8.399383 2:1.553932 3:0.757129 
10 1:8.379344 2:1.532971 3:0.957247 
10 1:8.369491 2:1.458297 3:1.147621 
9.031720092265275 1:8.359638 2:1.383624 3:1.337994 
10 1:8.429223 2:0.583391 3:1.890493 
10 1:8.461652 2:0.381654 3:1.903356 
10 1:8.494081 2:0.179916 3:1.916219 
10 1:8.530151 2:-0.020639 3:1.896474 
10 1:8.566228 2:-0.221191 3:1.876668 
10 1:8.602588 2:-0.400192 3:1.823663 
10 1:8.639986 2:-0.500206 3:1.648981 
3.989735028374691 1:8.677384 2:-0.60022 3:1.474299 
-10 1:8.769931 2:-0.755574 3:0.910353 
-10 1:8.797953 2:-0.79634 3:0.730636 
-10 1:8.839139 2:-0.961236 3:0.616496 
-10 1:8.880325 2:-1.126133 3:0.502355 
10 1:9.001388 2:-1.545872 3:0.074025 
10 1:9.030356 2:-1.59307 3:-0.10454 
10 1:9.050225 2:-1.569508 3:-0.306939 
8.223443079362255 1:9.089964 2:-1.522383 3:-0.711736 
-10 1:9.056895 2:-1.09271 3:-1.04486 
-10 1:9.020616 2:-0.893868 3:-1.020893 
-10 1:8.979488 2:-0.736007 3:-0.897185 
-10 1:8.938849 2:-0.570284 3:-0.788869 
-10 1:8.901377 2:-0.377589 3:-0.745991 
-10 1:8.88294 2:-0.199122 3:-0.844427 
-10 1:8.857136 2:-0.008013 3:-0.898359 
9.499036430916153 1:9.319375 2:-1.143537 3:0.950208 
10 1:9.324411 2:-1.058815 3:1.156809 
10 1:9.329448 2:-0.974093 3:1.363411 
10 1:9.328081 2:-0.784751 3:1.481544 
10 1:9.326687 2:-0.594967 3:1.599304 
10 1:9.321432 2:-0.432705 3:1.589402 
-10 1:9.279217 2:0.065224 3:0.848808 
-10 1:9.268733 2:0.179856 3:0.657473 
-10 1:9.258592 2:0.298108 3:0.478459 
-10 1:9.254168 2:0.514083 3:0.535229 
6.770702928355732 1:9.229436 2:1.523688 3:0.690337 
-10 1:9.19875 2:0.647198 3:-0.864059 
-10 1:9.205777 2:0.429053 3:-0.851751 
-10 1:9.21116 2:0.214468 3:-0.881286 
-10 1:9.207673 2:0.097943 3:-1.071804 
4.336315568619607 1:9.209511 2:-0.422704 3:-1.448914 
10 1:9.215626 2:-0.645383 3:-1.465163 
-10 1:9.234582 2:-0.944028 3:-1.19418 
-10 1:9.24454 2:-1.024317 3:-0.988999 
-10 1:9.254291 2:-1.086684 3:-0.77475 
-10 1:9.264042 2:-1.14905 3:-0.560501 
-10 1:9.273811 2:-1.212426 3:-0.346559 
-10 1:9.283223 2:-1.259671 3:-0.129122 
-10 1:9.292341 2:-1.293267 3:0.091503 
-10 1:9.776179 2:0.217029 3:0.692708 
-10 1:9.795499 2:0.340974 3:0.545641 
-10 1:9.810744 2:0.43702 3:0.39763 
-10 1:9.837726 2:0.624346 3:0.450712 
-10 1:9.865328 2:0.815026 3:0.48773 
2.994675536741047 1:10.01548 2:1.789296 3:-0.455956 
10 1:10.017343 2:1.791218 3:-0.652417 
10 1:10.019057 2:1.792118 3:-0.848969 
10 1:10.007731 2:1.707074 3:-0.987844 
10 1:9.931505 2:1.17304 3:-1.225477 
10 1:9.906543 2:0.997748 3:-1.310836 
10 1:9.880848 2:0.818023 3:-1.385652 
10 1:9.854716 2:0.635659 3:-1.454188 
10 1:9.828585 2:0.453296 3:-1.522724 
10 1:9.80244 2:0.270861 3:-1.590979 
10 1:9.774504 2:0.078372 3:-1.619338 
10 1:9.746567 2:-0.114117 3:-1.647696 
10 1:9.718265 2:-0.307353 3:-1.644278 
10 1:9.690281 2:-0.497098 3:-1.616904 
10 1:9.668225 2:-0.640546 3:-1.484342 
-10 1:9.627776 2:-0.900954 3:-1.192883 
-10 1:9.610485 2:-1.010208 3:-1.030764 
-10 1:9.597801 2:-1.087087 3:-0.852493 
-10 1:9.588346 2:-1.141322 3:-0.663798 
-10 1:9.579126 2:-1.19393 3:-0.474745 
-10 1:9.573488 2:-1.221766 3:-0.280246 
-10 1:9.568754 2:-1.243396 3:-0.085454 
-10 1:9.568674 2:-1.233147 3:0.110841 
-10 1:9.568593 2:-1.222897 3:0.307135 
-8.212109657435631 1:9.568939 2:-1.20976 3:0.502939 
10 1:10.382804 2:-0.955052 3:1.332139 
10 1:10.349099 2:-1.097184 3:1.17569 
10 1:10.316177 2:-1.247498 3:1.028293 
10 1:10.285377 2:-1.419999 3:0.905461 
10 1:10.250861 2:-1.546346 3:0.736173 
10 1:10.217676 2:-1.597592 3:0.540237 
10 1:10.185265 2:-1.605147 3:0.328799 
10 1:10.152855 2:-1.612702 3:0.117361 
10 1:10.120444 2:-1.620257 3:-0.094077 
10 1:10.088327 2:-1.624483 3:-0.305139 
10 1:10.061849 2:-1.564808 3:-0.508981 
10 1:10.03537 2:-1.505134 3:-0.712822 
10 1:10.009201 2:-1.444554 3:-0.915039 
-10 1:10.0324 2:-1.239569 3:-0.857972 
-10 1:10.029784 2:-1.083816 3:-0.948903 
10 1:9.990459 2:-0.868096 3:-1.311678 
10 1:9.987472 2:-0.690663 3:-1.415308 
-10 1:10.052997 2:-0.402675 3:-1.116664 
-10 1:10.087061 2:-0.266673 3:-0.954934 
-10 1:10.108181 2:-0.091599 3:-0.897531 
-10 1:10.120329 2:0.120368 3:-0.917071 
-7.362358238725928 1:10.127826 2:0.327325 3:-0.965097 
-10 1:10.248087 2:1.434123 3:-0.690139 
-10 1:10.282004 2:1.475487 3:-0.484681 
-10 1:10.315115 2:1.494678 3:-0.274089 
-0.349092338750666 1:10.348227 2:1.513869 3:-0.063497 
-10 1:10.40944 2:0.9148 3:0.625564 
-10 1:10.37899 2:0.74045 3:0.505921 
-10 1:10.367261 2:0.54114 3:0.522263 
-10 1:10.374774 2:0.390188 3:0.643409 
10 1:10.408298 2:-0.7563 3:1.40738 
-10 1:10.752201 2:-1.368751 3:-0.122605 
-7.611515755443356 1:10.790045 2:-1.376983 3:-0.339904 
10 1:10.902079 2:-1.287246 3:-0.974016 
10 1:10.938836 2:-1.21249 3:-1.178417 
10 1:10.968016 2:-1.085051 3:-1.335216 
10 1:10.979956 2:-0.883223 3:-1.38734 
10 1:10.969694 2:-0.676028 3:-1.311946 
10 1:10.957008 2:-0.476423 3:-1.223281 
-10 1:10.891893 2:0.27987 3:-0.789758 
-10 1:10.898397 2:0.499629 3:-0.809323 
5.341507880473807 1:10.943411 2:0.86453 3:-1.037676 
10 1:10.973908 2:1.00862 3:-1.200668 
10 1:10.989206 2:1.211874 3:-1.271908 
10 1:10.994783 2:1.432069 3:-1.286133 
10 1:10.963923 2:1.532889 3:-1.101376 
10 1:10.625337 2:1.494076 3:0.8337 
10 1:10.587929 2:1.435159 3:1.0431 
10 1:10.565451 2:1.273257 3:1.158763 
4.463187889752274 1:10.549536 2:1.066078 3:1.233212 
4.153188055236389 1:10.537145 2:0.852603 3:1.286985 
10 1:10.525507 2:0.637784 3:1.336345 
-10 1:10.618067 2:0.080491 3:0.761706 
-10 1:10.619499 2:-0.126429 3:0.736879 
-10 1:10.591934 2:-0.290925 3:0.881448 
-10 1:10.563478 2:-0.450076 3:1.031553 
10 1:10.541855 2:-1.064933 3:1.105913 
-2.278053711437411 1:11.20283 2:-1.29497 3:-0.614137 
-10 1:11.211726 2:-1.332006 3:-0.402816 
-10 1:11.221197 2:-1.342818 3:-0.187541 
-8.599229926454742 1:11.230669 2:-1.353629 3:0.027734 
5.896301209523577 1:11.259989 2:-1.321271 3:0.671791 
10 1:11.269886 2:-1.252298 3:0.869466 
10 1:11.279742 2:-1.133593 3:1.04936 
-10 1:11.284599 2:-0.712413 3:1.01486 
-10 1:11.281568 2:-0.548768 3:0.891593 
-10 1:11.276609 2:-0.404049 3:0.73165 
-10 1:11.271649 2:-0.25933 3:0.571707 
-10 1:11.278925 2:-0.129181 3:0.690075 
-10 1:11.288586 2:0.001017 3:0.8617 
-10 1:11.298037 2:0.141571 3:1.025117 
10 1:11.326389 2:0.563232 3:1.515371 
10 1:11.332669 2:0.747347 3:1.593153 
10 1:11.336697 2:0.962395 3:1.610125 
10 1:11.341467 2:1.175218 3:1.644428 
10 1:11.340206 2:1.365624 3:1.551616 
10 1:11.338354 2:1.553917 3:1.446297 
10 1:11.331096 2:1.638181 3:1.255542 
10 1:11.322942 2:1.705199 3:1.050622 
10 1:11.314095 2:1.740135 3:0.841105 
10 1:11.304355 2:1.733729 3:0.625666 
10 1:11.294614 2:1.727322 3:0.410227 
10 1:11.284696 2:1.698192 3:0.19855 
-10 1:11.264918 2:1.500159 3:-0.176081 
-10 1:11.25531 2:1.366902 3:-0.345493 
-10 1:11.245701 2:1.233646 3:-0.514905 
-10 1:11.23743 2:1.05879 3:-0.640337 
-10 1:11.231127 2:0.867806 3:-0.716303 
-10 1:11.228142 2:0.652172 3:-0.709756 
-10 1:11.225983 2:0.438435 3:-0.685429 
-10 1:11.224519 2:0.2263 3:-0.646104 
-10 1:11.222814 2:0.014501 3:-0.612296 
-10 1:11.214844 2:-0.136084 3:-0.739217 
-10 1:11.204708 2:-0.225497 3:-0.93531 
4.89958563182778 1:11.185205 2:-0.809121 3:-1.172848 
-10 1:11.703331 2:-0.547963 3:1.259179 
-10 1:11.679656 2:-0.721167 3:1.170551 
-10 1:11.655982 2:-0.894371 3:1.081922 
-10 1:11.622037 2:-1.120651 3:0.801691 
-10 1:11.611119 2:-1.179532 3:0.615066 
-10 1:11.600201 2:-1.238413 3:0.428441 
-10 1:11.589283 2:-1.297295 3:0.241815 
10 1:11.553775 2:-1.437156 3:-0.723612 
10 1:11.549447 2:-1.443554 3:-0.915203 
10 1:11.561216 2:-1.328335 3:-1.073321 
10 1:11.572984 2:-1.213117 3:-1.231439 
10 1:11.591776 2:-1.055919 3:-1.29796 
10 1:11.616714 2:-0.861992 3:-1.284335 
10 1:11.639668 2:-0.693353 3:-1.20332 
-10 1:11.684285 2:-0.374038 3:-0.986995 
-10 1:11.709093 2:-0.18661 3:-0.935318 
-10 1:11.733901 2:0.000818 3:-0.883641 
-10 1:11.758367 2:0.192194 3:-0.878038 
-10 1:11.782647 2:0.385713 3:-0.897433 
10 1:11.827916 2:0.757018 3:-1.006467 
10 1:11.849963 2:0.939861 3:-1.073533 
10 1:11.87201 2:1.122703 3:-1.140599 
10 1:11.895454 2:1.312225 3:-1.177841 
10 1:11.913988 2:1.44903 3:-1.11689 
10 1:11.92326 2:1.494434 3:-0.926449 
10 1:11.932532 2:1.539837 3:-0.736008 
10 1:11.962405 2:1.635039 3:0.232186 
-10 1:11.918295 2:1.231183 3:0.630438 
-10 1:11.901591 2:1.081841 3:0.756268 
-10 1:11.879154 2:0.899075 3:0.80157 
-10 1:11.854874 2:0.705556 3:0.820965 
-10 1:11.830594 2:0.512037 3:0.84036 
-10 1:11.809628 2:0.337493 3:0.908748 
-10 1:11.79205 2:0.182348 3:1.027222 
-10 1:11.770717 2:0.004595 3:1.09789 
-10 1:11.747554 2:-0.184178 3:1.145255 
-10 1:11.726411 2:-0.361088 3:1.220443 
-0.8804291354005651 1:12.302971 2:-0.853514 3:-1.022267 
-10 1:12.325407 2:-0.665533 3:-1.055021 
-10 1:12.354595 2:-0.303814 3:-1.012286 
-10 1:12.353032 2:-0.160502 3:-0.89608 
-10 1:12.340986 2:-0.060741 3:-0.732324 
-10 1:12.352613 2:0.123036 3:-0.686396 
-10 1:12.368472 2:0.302945 3:-0.675287 
-10 1:12.39844 2:0.450864 3:-0.794178 
-10 1:12.426019 2:0.611488 3:-0.885751 
-10 1:12.445979 2:0.798296 3:-0.900634 
-10 1:12.455365 2:0.980093 3:-0.839193 
-10 1:12.462289 2:1.155288 3:-0.763952 
-10 1:12.458729 2:1.292046 3:-0.637419 
-10 1:12.444768 2:1.380479 3:-0.467425 
-10 1:12.427249 2:1.445451 3:-0.287612 
-10 1:12.409448 2:1.508568 3:-0.107023 
7.730253247323708 1:12.308258 2:1.464729 3:0.626292 
-10 1:12.222705 2:1.013814 3:0.944854 
-10 1:12.196566 2:0.847222 3:1.021189 
-10 1:12.165671 2:0.722186 3:1.163754 
7.366361373875171 1:12.074882 2:0.305383 3:1.546762 
10 1:12.047086 2:0.137373 3:1.634595 
10 1:12.024649 2:-0.050608 3:1.667349 
10 1:12.002321 2:-0.238407 3:1.69942 
-10 1:12.008364 2:-0.681204 3:1.331201 
-3.366650701024652 1:12.007236 2:-0.840459 3:1.223732 
5.274990601693246 1:12.060877 2:-1.356205 3:0.442418 
10 1:12.077505 2:-1.426309 3:0.265606 
10 1:12.097759 2:-1.471034 3:0.079857 
10 1:12.119804 2:-1.499495 3:-0.107587 
10 1:12.145035 2:-1.499017 3:-0.298051 
10 1:12.170267 2:-1.498539 3:-0.488514 
10 1:12.199017 2:-1.436346 3:-0.660636 
10 1:12.229728 2:-1.322489 3:-0.80996 
-10 1:12.889499 2:-0.989516 3:-0.615927 
-10 1:12.898079 2:-0.846351 3:-0.755737 
-10 1:12.906658 2:-0.703185 3:-0.895548 
-10 1:12.915411 2:-0.560982 3:-1.036256 
-10 1:12.904885 2:-0.266928 3:-1.099387 
-10 1:12.881415 2:-0.096054 3:-0.997958 
-10 1:12.859258 2:0.079499 3:-0.909311 
-10 1:12.856107 2:0.267548 3:-0.978177 
10 1:12.844643 2:0.652389 3:-1.079207 
10 1:12.788249 2:1.210704 3:-0.909291 
10 1:12.775392 2:1.408061 3:-0.905559 
10 1:12.751409 2:1.489529 3:-0.755378 
10 1:12.618722 2:1.657301 3:0.216868 
10 1:12.601687 2:1.596182 3:0.382987 
-10 1:12.589386 2:1.286042 3:0.635837 
-10 1:12.579997 2:1.147224 3:0.779915 
-10 1:12.570609 2:1.008406 3:0.923993 
-10 1:12.562261 2:0.864098 3:1.062526 
-10 1:12.554433 2:0.717052 3:1.198296 
10 1:12.527917 2:0.488306 3:1.523619 
10 1:12.513192 2:0.383068 3:1.693399 
10 1:12.50192 2:0.263041 3:1.843072 
10 1:12.507958 2:0.068911 3:1.892003 
10 1:12.513996 2:-0.125218 3:1.940935 
10 1:12.533963 2:-0.306802 3:1.872732 
10 1:12.556003 2:-0.486519 3:1.787099 
10 1:12.578044 2:-0.666236 3:1.701466 
10 1:12.603526 2:-0.819034 3:1.574984 
10 1:12.629185 2:-0.970455 3:1.446414 
10 1:12.654844 2:-1.121877 3:1.317844 
10 1:12.680502 2:-1.273298 3:1.189274 
10 1:12.706001 2:-1.377652 3:1.038465 
10 1:12.731155 2:-1.380688 3:0.839781 
10 1:12.755777 2:-1.376105 3:0.641519 
10 1:12.778747 2:-1.34782 3:0.444569 
-10 1:12.81325 2:-1.196237 3:0.094223 
-10 1:12.820381 2:-1.04572 3:-0.037727 
-10 1:12.839358 2:-0.976524 3:-0.223339 
-10 1:12.862884 2:-0.957745 3:-0.419969 
-10 1:13.445292 2:-1.182712 3:-0.160489 
-10 1:13.42756 2:-1.123368 3:-0.348578 
-10 1:13.409828 2:-1.064024 3:-0.536666 
-10 1:13.390406 2:-0.99365 3:-0.720005 
-10 1:13.367875 2:-0.902978 3:-0.894603 
-10 1:13.345344 2:-0.812306 3:-1.069202 
10 1:13.320363 2:-0.703942 3:-1.229748 
10 1:13.290298 2:-0.55887 3:-1.36114 
10 1:13.260233 2:-0.413798 3:-1.492531 
10 1:13.227419 2:-0.226692 3:-1.514577 
10 1:13.195909 2:-0.037116 3:-1.493955 
10 1:13.171171 2:0.131709 3:-1.393459 
10 1:13.146432 2:0.300535 3:-1.292962 
10 1:13.122852 2:0.464448 3:-1.184532 
8.691497590890398 1:13.099706 2:0.626522 3:-1.073133 
10 1:13.042357 2:0.983677 3:-0.984482 
10 1:13.01048 2:1.177123 3:-0.95662 
10 1:12.980782 2:1.362761 3:-0.907822 
10 1:12.957518 2:1.525341 3:-0.797187 
10 1:12.937021 2:1.673395 3:-0.679446 
10 1:12.94746 2:1.658964 3:-0.482225 
3.240418070601051 1:12.958253 2:1.642395 3:-0.285245 
0.495161633152732 1:13.029714 2:1.451601 3:0.676792 
10 1:13.050366 2:1.373405 3:0.857547 
10 1:13.071018 2:1.295208 3:1.038302 
10 1:13.09167 2:1.217012 3:1.219057 
10 1:13.125336 2:1.032506 3:1.273157 
10 1:13.159529 2:0.843708 3:1.322144 
-10 1:13.21922 2:0.475109 3:1.243128 
-10 1:13.245182 2:0.301965 3:1.154667 
-10 1:13.266885 2:0.146226 3:1.0343 
-10 1:13.297069 2:-0.007414 3:1.132504 
-10 1:13.328149 2:-0.160832 3:1.25379 
-10 1:13.36211 2:-0.348081 3:1.3036 
-10 1:13.39631 2:-0.538123 3:1.347508 
10 1:13.430509 2:-0.728166 3:1.391416 
10 1:13.452088 2:-0.873422 3:1.312235 
10 1:13.465376 2:-0.989248 3:1.152169 
-10 1:13.452045 2:-1.004486 3:0.758287 
-10 1:13.444898 2:-1.009491 3:0.560455 
-10 1:13.43775 2:-1.014497 3:0.362623 
-10 1:13.429772 2:-1.014632 3:0.164796 
-10 1:13.442541 2:-1.121915 3:0.027951 
10 1:13.950593 2:-0.975841 3:-1.147851 
10 1:13.95373 2:-0.836227 3:-1.278439 
10 1:13.956867 2:-0.696614 3:-1.409027 
10 1:13.954716 2:-0.54606 3:-1.498601 
10 1:13.935628 2:-0.360467 3:-1.456816 
10 1:13.91654 2:-0.174874 3:-1.415032 
10 1:13.891348 2:-0.055989 3:-1.268215 
-10 1:13.84299 2:0.216221 3:-1.018372 
-10 1:13.821108 2:0.390267 3:-0.942317 
-10 1:13.801271 2:0.573018 3:-0.891535 
-10 1:13.78196 2:0.758006 3:-0.847244 
-10 1:13.768268 2:0.944296 3:-0.85594 
10 1:13.757195 2:1.131535 3:-0.889577 
10 1:13.740414 2:1.321188 3:-0.872107 
10 1:13.717896 2:1.426022 3:-0.739826 
10 1:13.582688 2:1.620658 3:0.370689 
-10 1:13.572199 2:1.364901 3:0.653833 
-10 1:13.574655 2:1.206132 3:0.746554 
-10 1:13.583396 2:1.022522 3:0.799148 
-10 1:13.585636 2:0.862992 3:0.894427 
-10 1:13.582499 2:0.723378 3:1.025015 
-10 1:13.579362 2:0.583764 3:1.155603 
-10 1:13.577248 2:0.439013 3:1.28046 
-10 1:13.577666 2:0.283378 3:1.389778 
10 1:13.584103 2:-0.051714 3:1.573875 
10 1:13.59953 2:-0.241094 3:1.568745 
10 1:13.616228 2:-0.428218 3:1.550215 
10 1:13.640053 2:-0.585264 3:1.443801 
-10 1:13.73908 2:-1.03085 3:0.850838 
-10 1:13.763159 2:-1.089357 3:0.670416 
-10 1:13.787237 2:-1.147863 3:0.489993 
-10 1:13.81013 2:-1.18401 3:0.304283 
-10 1:13.832495 2:-1.210192 3:0.116215 
-10 1:13.854729 2:-1.23441 3:-0.07206 
-10 1:13.876072 2:-1.245351 3:-0.261744 
10 1:14.034466 2:-0.72075 3:-1.278546 
10 1:14.056879 2:-0.522607 3:-1.243481 
10 1:14.079293 2:-0.324464 3:-1.208415 
-10 1:14.134042 2:-0.061422 3:-0.947176 
-10 1:14.163416 2:0.057024 3:-0.788995 
-10 1:14.192426 2:0.214227 3:-0.664744 
-10 1:14.221435 2:0.37143 3:-0.540492 
-10 1:14.235608 2:0.543163 3:-0.555221 
-10 1:14.243487 2:0.72755 3:-0.634065 
-10 1:14.258066 2:0.926764 3:-0.667141 
-10 1:14.275277 2:1.125618 3:-0.677325 
10 1:14.313612 2:1.49926 3:-0.644954 
-10 1:14.365548 2:1.561335 3:-0.248192 
-10 1:14.390298 2:1.576996 3:-0.048055 
-10 1:14.414641 2:1.587528 3:0.152666 
10 1:14.481363 2:1.347434 3:0.916532 
10 1:14.49506 2:1.264165 3:1.100344 
10 1:14.508257 2:1.177273 3:1.28274 
10 1:14.516663 2:1.062953 3:1.445785 
10 1:14.51978 2:0.918345 3:1.587459 
10 1:14.491506 2:0.76551 3:1.466058 
10 1:14.462296 2:0.612428 3:1.336807 
-10 1:14.43289 2:0.466264 3:1.200379 
-10 1:14.403186 2:0.330636 3:1.053018 
-10 1:14.38215 2:0.158569 3:1.009059 
-10 1:14.371553 2:-0.030712 3:1.068443 
-10 1:14.368492 2:-0.201194 3:1.177618 
-10 1:14.362188 2:-0.375552 3:1.262021 
-10 1:14.338491 2:-0.570698 3:1.213551 
10 1:14.259255 2:-1.11216 3:0.96323 
10 1:14.230392 2:-1.201685 3:0.786454 
10 1:14.201455 2:-1.285279 3:0.604334 
10 1:14.174058 2:-1.342497 3:0.414485 
10 1:14.148542 2:-1.367509 3:0.215196 
10 1:14.123026 2:-1.39252 3:0.015907 
10 1:14.097509 2:-1.417531 3:-0.183382 
10 1:14.072876 2:-1.431643 3:-0.38375 
10 1:14.055371 2:-1.381453 3:-0.573982 
10 1:14.04283 2:-1.290295 3:-0.754136 
10 1:14.033268 2:-1.180597 3:-0.923432 
-10 1:14.615513 2:-0.174663 3:-1.041368 
-10 1:14.644948 2:-0.036753 3:-0.894693 
-10 1:14.673998 2:0.114607 3:-0.762371 
-10 1:14.693386 2:0.277578 3:-0.724567 
-10 1:14.702083 2:0.463672 3:-0.799701 
-9.000105777262405 1:14.711146 2:0.651907 3:-0.873366 
10 1:14.719873 2:0.8376 3:-0.947905 
10 1:14.740336 2:1.039435 3:-0.932313 
10 1:14.768523 2:1.199464 3:-0.814656 
10 1:14.79768 2:1.348186 3:-0.679248 
10 1:14.970924 2:1.08114 3:1.063291 
10 1:14.97467 2:0.940927 3:1.210556 
10 1:14.979457 2:0.805935 3:1.362718 
10 1:14.984243 2:0.670943 3:1.51488 
10 1:14.971707 2:0.577664 3:1.480569 
-10 1:14.916532 2:0.39544 3:1.143462 
-10 1:14.892659 2:0.208735 3:1.08552 
-10 1:14.884455 2:0.027811 3:1.16078 
-10 1:14.880318 2:-0.146175 3:1.266189 
-10 1:14.867223 2:-0.343944 3:1.31213 
10 1:14.844263 2:-0.733153 3:1.427288 
10 1:14.820663 2:-0.928561 3:1.378845 
10 1:14.793767 2:-1.088739 3:1.272667 
10 1:14.764747 2:-1.188513 3:1.098571 
10 1:14.736811 2:-1.263526 3:0.913825 
10 1:14.7112 2:-1.295593 3:0.714539 
10 1:14.685589 2:-1.327659 3:0.515254 
10 1:14.660996 2:-1.347374 3:0.314858 
7.463682721552947 1:14.53964 2:-1.189079 3:-0.88233 
10 1:14.527654 2:-1.09761 3:-1.062385 
10 1:14.533542 2:-0.94196 3:-1.137432 
10 1:15.44269 2:-0.881312 3:-1.126495 
-10 1:15.411915 2:-0.723495 3:-1.015858 
-10 1:15.38114 2:-0.565678 3:-0.90522 
-10 1:15.349827 2:-0.399207 3:-0.816593 
-10 1:15.317029 2:-0.20883 3:-0.788755 
-10 1:15.286777 2:-0.02174 3:-0.809749 
-10 1:15.258469 2:0.16262 3:-0.867154 
10 1:15.200068 2:0.535914 3:-0.956895 
10 1:15.167368 2:0.722775 3:-0.917192 
10 1:15.134607 2:0.90898 3:-0.873321 
10 1:15.106931 2:1.091213 3:-0.937501 
10 1:15.076534 2:1.281322 3:-0.967225 
10 1:15.051124 2:1.416604 3:-0.896077 
10 1:15.035604 2:1.46343 3:-0.707237 
4.28465488322777 1:15.020084 2:1.510256 3:-0.518398 
-10 1:14.997978 2:1.547852 3:-0.131286 
-10 1:14.987466 2:1.563219 3:0.062999 
-10 1:14.976902 2:1.578908 3:0.257257 
1.279659926638211 1:15.027028 2:1.081913 3:1.051384 
10 1:15.042496 2:0.953005 3:1.197113 
10 1:15.057965 2:0.824096 3:1.342843 
10 1:15.080315 2:0.664746 3:1.444158 
10 1:15.109494 2:0.502242 3:1.391526 
-10 1:15.137525 2:0.367381 3:1.254652 
-10 1:15.164296 2:0.241051 3:1.113951 
-10 1:15.185149 2:0.086687 3:1.231555 
-10 1:15.209414 2:-0.081993 3:1.32399 
-10 1:15.240917 2:-0.265965 3:1.301783 
-10 1:15.270351 2:-0.44806 3:1.322463 
-10 1:15.381328 2:-1.02805 3:0.967711 
-10 1:15.401255 2:-1.103983 3:0.789463 
-10 1:15.41835 2:-1.161006 3:0.603587 
-10 1:15.435444 2:-1.218029 3:0.417711 
-10 1:15.446866 2:-1.239061 3:0.224223 
-10 1:15.457945 2:-1.257923 3:0.030276 
-10 1:15.469024 2:-1.276786 3:-0.16367 
-10 1:15.479588 2:-1.292486 3:-0.357856 
-10 1:15.487996 2:-1.295132 3:-0.552427 
10 1:16.012561 2:-0.563259 3:-1.125516 
-10 1:15.941587 2:-0.215578 3:-0.951369 
-10 1:15.9061 2:-0.041737 3:-0.864295 
-10 1:15.875727 2:0.145769 3:-0.815543 
-10 1:15.847189 2:0.338181 3:-0.780545 
-10 1:15.817346 2:0.528544 3:-0.73672 
-10 1:15.787706 2:0.719218 3:-0.69427 
10 1:15.673069 2:1.478165 3:-0.544377 
-10 1:15.565311 2:1.579333 3:0.004093 
10 1:15.460596 2:1.602278 3:0.587242 
10 1:15.45507 2:1.467887 3:0.708287 
-10 1:15.482598 2:0.923922 3:0.913087 
-10 1:15.505183 2:0.729199 3:0.913646 
-10 1:15.531056 2:0.534085 3:0.895677 
-10 1:15.55526 2:0.339169 3:0.887113 
-10 1:15.565405 2:0.163317 3:0.9462 
-10 1:15.54625 2:0.068697 3:1.118658 
-10 1:15.527094 2:-0.025923 3:1.291116 
10 1:15.512131 2:-0.30568 3:1.562863 
10 1:15.518741 2:-0.485436 3:1.644751 
10 1:15.540667 2:-0.662055 3:1.637023 
10 1:15.576154 2:-0.835895 3:1.54995 
10 1:15.613356 2:-0.978381 3:1.432204 
10 1:15.653682 2:-1.063725 3:1.258561 
10 1:15.694008 2:-1.149068 3:1.084918 
-6.123990403378636 1:15.811516 2:-1.346255 3:0.544657 
-10 1:15.848585 2:-1.3764 3:0.352879 
-10 1:15.885655 2:-1.406544 3:0.161101 
-10 1:15.922725 2:-1.436689 3:-0.030677 
10 1:15.995691 2:-1.483872 3:-0.416256 
10 1:16.03209 2:-1.506518 3:-0.609191 
10 1:16.053772 2:-1.44553 3:-0.773696 
10 1:16.061121 2:-1.303094 3:-0.910516 
-10 1:16.028005 2:-0.915655 3:-0.979184 
10 1:16.262937 2:-0.680063 3:-1.168827 
10 1:16.258534 2:-0.507679 3:-1.080277 
-10 1:16.249727 2:-0.16291 3:-0.903176 
10 1:16.23923 2:0.192668 3:-0.981909 
10 1:16.233745 2:0.386437 3:-0.981318 
10 1:16.228272 2:0.58019 3:-0.978765 
10 1:16.223223 2:0.765433 3:-0.942179 
10 1:16.218836 2:0.937402 3:-0.852823 
10 1:16.213964 2:1.120295 3:-0.795911 
10 1:16.209437 2:1.290887 3:-0.739524 
10 1:16.208765 2:1.349876 3:-0.554871 
-10 1:16.208998 2:1.378089 3:-0.364235 
-10 1:16.209633 2:1.392582 3:-0.17093 
-10 1:16.210269 2:1.407074 3:0.022374 
-10 1:16.210389 2:1.439313 3:0.213331 
10 1:16.211987 2:1.455584 3:0.593898 
10 1:16.213714 2:1.43125 3:0.785616 
10 1:16.217418 2:1.327139 3:0.925276 
10 1:16.222566 2:1.165927 3:1.032798 
10 1:16.226716 2:1.048221 3:1.183654 
10 1:16.230615 2:0.941447 3:1.345398 
10 1:16.234959 2:0.775274 3:1.278363 
-10 1:16.244657 2:0.410532 3:1.161435 
-10 1:16.249886 2:0.219584 3:1.128444 
-10 1:16.255422 2:0.034739 3:1.183992 
-10 1:16.260894 2:-0.144451 3:1.257262 
-10 1:16.26643 2:-0.329076 3:1.314011 
-10 1:16.272005 2:-0.521401 3:1.337605 
-10 1:16.277441 2:-0.713173 3:1.338434 
-10 1:16.282671 2:-0.904121 3:1.305443 
-10 1:16.288093 2:-1.143173 3:1.056223 
-10 1:16.289357 2:-1.221674 3:0.878986 
-10 1:16.290622 2:-1.300175 3:0.701749 
-10 1:16.291886 2:-1.378675 3:0.524512 
10 1:16.2941 2:-1.525375 3:0.165785 
10 1:16.294503 2:-1.575098 3:-0.02012 
10 1:16.29413 2:-1.598713 3:-0.212524 
10 1:16.293758 2:-1.622328 3:-0.404928 
10 1:16.293386 2:-1.645942 3:-0.597331 
10 1:16.288747 2:-1.506342 3:-0.723996 
10 1:16.283825 2:-1.35587 3:-0.846045 
-10 1:16.272852 2:-0.990133 3:-0.959457 
10 1:16.838936 2:-0.483383 3:-1.340278 
10 1:16.833271 2:-0.337208 3:-1.206985 
10 1:16.827606 2:-0.191033 3:-1.073691 
-10 1:16.815652 2:0.095423 3:-0.801549 
-10 1:16.80776 2:0.220591 3:-0.648457 
-10 1:16.805515 2:0.375445 3:-0.555369 
-10 1:16.812185 2:0.571962 3:-0.559225 
-10 1:16.822306 2:0.763103 3:-0.609513 
10 1:16.837758 2:1.351024 3:-0.563327 
10 1:16.839838 2:1.519514 3:-0.519998 
-10 1:16.777793 2:1.40546 3:0.227608 
-10 1:16.761597 2:1.288874 3:0.386705 
-10 1:16.747735 2:1.124987 3:0.496241 
-10 1:16.733932 2:0.959922 3:0.604544 
-10 1:16.717629 2:0.871293 3:0.776622 
-10 1:16.700965 2:0.793726 3:0.957928 
8.359800573469135 1:16.669489 2:0.572256 3:1.269235 
-10 1:16.65434 2:0.181828 3:1.301187 
-10 1:16.645895 2:-0.001988 3:1.333049 
10 1:16.613694 2:-0.242498 3:1.645752 
10 1:16.603281 2:-0.395573 3:1.71559 
10 1:16.600496 2:-0.588058 3:1.671339 
10 1:16.599755 2:-0.77401 3:1.603605 
10 1:16.599014 2:-0.959961 3:1.535871 
10 1:16.598273 2:-1.145913 3:1.468136 
10 1:16.607266 2:-1.257737 3:1.306465 
10 1:16.616559 2:-1.367281 3:1.141904 
10 1:16.625856 2:-1.476757 3:0.977318 
10 1:16.640264 2:-1.503215 3:0.78172 
10 1:16.654672 2:-1.529673 3:0.586121 
10 1:16.670093 2:-1.527272 3:0.389536 
10 1:16.68585 2:-1.515287 3:0.192624 
-8.954937307892946 1:16.73376 2:-1.438719 3:-0.389446 
-10 1:16.750415 2:-1.369762 3:-0.5742 
-10 1:16.76626 2:-1.248892 3:-0.727014 
-10 1:16.781896 2:-1.1147 3:-0.871633 
10 1:16.810901 2:-0.803333 3:-1.113946 
10 1:16.824482 2:-0.636372 3:-1.218613 
10 1:17.514885 2:-0.649385 3:-1.255761 
10 1:17.47733 2:-0.484034 3:-1.158566 
-10 1:17.402221 2:-0.153331 3:-0.964177 
-10 1:17.364301 2:-0.023542 3:-0.825025 
-10 1:17.326313 2:0.099764 3:-0.678223 
-10 1:17.288169 2:0.235896 3:-0.54441 
-10 1:17.249883 2:0.383776 3:-0.422492 
-10 1:17.218153 2:0.547992 3:-0.367411 
-10 1:17.196292 2:0.7368 3:-0.412931 
-10 1:17.171004 2:0.928783 3:-0.436443 
-10 1:17.144712 2:1.121696 3:-0.45351 
7.614406984675833 1:17.086083 2:1.507956 3:-0.443104 
10 1:17.049733 2:1.664053 3:-0.344665 
10 1:17.018581 2:1.737507 3:-0.193763 
10 1:16.998314 2:1.70118 3:-0.002798 
10 1:16.978047 2:1.664852 3:0.188168 
10 1:16.972674 2:1.55758 3:0.346509 
-10 1:17.004677 2:0.947405 3:0.781359 
-10 1:17.02413 2:0.762237 3:0.840791 
-10 1:17.043584 2:0.577068 3:0.900223 
-10 1:17.028349 2:0.513888 3:1.083346 
10 1:17.092184 2:-0.419491 3:1.637738 
10 1:17.118651 2:-0.610913 3:1.651858 
0.9922933257235789 1:17.156858 2:-0.762814 3:1.534963 
10 1:17.233054 2:-1.061229 3:1.296867 
-10 1:17.363476 2:-1.280222 3:0.567424 
-10 1:17.39243 2:-1.301483 3:0.37531 
-10 1:17.421384 2:-1.322745 3:0.183196 
-10 1:17.449537 2:-1.338587 3:-0.008936 
-10 1:17.471286 2:-1.311079 3:-0.201207 
-10 1:17.493035 2:-1.283571 3:-0.393479 
-10 1:17.514784 2:-1.256063 3:-0.585751 
-10 1:17.533551 2:-1.212931 3:-0.773059 
1.645566121950655 1:17.54332 2:-0.997209 3:-1.083761 
10 1:17.52645 2:-0.816846 3:-1.157128 
10 1:17.885281 2:-0.503066 3:-1.199125 
-10 1:17.859314 2:-0.162626 3:-0.951274 
-10 1:17.84731 2:0.011146 3:-0.835507 
-10 1:17.844572 2:0.218525 3:-0.796936 
-10 1:17.841423 2:0.425211 3:-0.754888 
-10 1:17.838134 2:0.631658 3:-0.711646 
-10 1:17.840366 2:0.841513 3:-0.715611 
10 1:17.842988 2:1.259524 3:-0.707832 
10 1:17.838908 2:1.464444 3:-0.65791 
10 1:17.831801 2:1.651317 3:-0.583276 
10 1:17.811121 2:1.735208 3:-0.399464 
10 1:17.786734 2:1.705674 3:-0.192017 
4.747098165998625 1:17.762347 2:1.67614 3:0.01543 
10 1:17.73796 2:1.646607 3:0.222877 
10 1:17.713556 2:1.638057 3:0.431991 
10 1:17.689149 2:1.634434 3:0.641495 
10 1:17.664741 2:1.630812 3:0.851 
10 1:17.65731 2:1.426426 3:0.900046 
10 1:17.649947 2:1.221232 3:0.948446 
1.848502026928446 1:17.642584 2:1.016039 3:0.996847 
-10 1:17.643448 2:0.811837 3:0.974608 
-10 1:17.648192 2:0.608626 3:0.919102 
-10 1:17.662245 2:0.44518 3:0.786478 
-10 1:17.658362 2:0.326209 3:0.811224 
-10 1:17.634784 2:0.256074 3:1.008775 
-10 1:17.611206 2:0.185939 3:1.206325 
10 1:17.564913 2:0.115492 3:1.599072 
10 1:17.553759 2:-0.078642 3:1.680855 
10 1:17.546609 2:-0.273759 3:1.728157 
10 1:17.55321 2:-0.47225 3:1.657032 
10 1:17.563354 2:-0.650806 3:1.556897 
-10 1:17.845193 2:-0.985168 3:-0.889561 
-10 1:17.85469 2:-0.786507 3:-0.956769 
-10 1:17.86246 2:-0.592614 3:-1.00949 
10 1:18.445717 2:-0.966091 3:-1.339168 
10 1:18.424419 2:-0.763548 3:-1.348312 
10 1:18.403121 2:-0.561005 3:-1.357455 
10 1:18.381823 2:-0.358462 3:-1.366598 
10 1:18.359192 2:-0.156194 3:-1.355711 
10 1:18.336501 2:0.046062 3:-1.343942 
10 1:18.314573 2:0.212457 3:-1.286358 
10 1:18.294914 2:0.272114 3:-1.092411 
-10 1:18.272661 2:0.373625 3:-0.9269 
-10 1:18.247065 2:0.536279 3:-0.809471 
-10 1:18.221716 2:0.725463 3:-0.737863 
-10 1:18.195976 2:0.903365 3:-0.642589 
-10 1:18.17014 2:1.078444 3:-0.541393 
-10 1:18.144415 2:1.258798 3:-0.450226 
-3.288856337420882 1:18.119477 2:1.42786 3:-0.35266 
-10 1:18.105099 2:1.439408 3:-0.15981 
-10 1:18.104752 2:1.333175 3:0.014187 
-10 1:18.104607 2:1.225681 3:0.187208 
-10 1:18.109943 2:1.084147 3:0.333839 
-10 1:18.107074 2:0.996738 3:0.514948 
-10 1:18.102026 2:0.923702 3:0.705214 
-10 1:18.101269 2:0.820364 3:0.880631 
-10 1:18.090164 2:0.815851 3:1.050931 
10 1:18.066313 2:0.931879 3:1.216851 
10 1:18.048199 2:0.995178 3:1.382309 
10 1:18.050173 2:0.87388 3:1.546151 
10 1:18.054341 2:0.739334 3:1.698824 
10 1:18.059454 2:0.599082 3:1.84669 
10 1:18.073161 2:0.43635 3:1.904048 
10 1:18.098236 2:0.243883 3:1.841691 
10 1:18.123311 2:0.051416 3:1.779334 
10 1:18.14825 2:-0.094009 3:1.644178 
10 1:18.172873 2:-0.225774 3:1.49194 
-10 1:18.192152 2:-0.281092 3:1.296674 
-10 1:18.211432 2:-0.33641 3:1.101407 
-10 1:18.230711 2:-0.391727 3:0.90614 
-10 1:18.25635 2:-0.572098 3:0.816262 
-10 1:18.282058 2:-0.753831 3:0.727533 
-10 1:18.307047 2:-0.943245 3:0.661582 
-10 1:18.331154 2:-1.142076 3:0.623556 
10 1:18.355047 2:-1.334713 3:0.578827 
10 1:18.374111 2:-1.387617 3:0.382871 
10 1:18.392509 2:-1.434154 3:0.186599 
-10 1:18.418981 2:-1.305698 3:-0.406498 
-10 1:18.417975 2:-1.190575 3:-0.574744 
-10 1:18.418247 2:-1.08385 3:-0.748423 
-10 1:18.424054 2:-1.017044 3:-0.939942 
10 1:18.43783 2:-1.017245 3:-1.141983 
-10 1:18.94908 2:-0.123091 3:1.193564 
-10 1:18.946825 2:0.049968 3:1.27736 
-10 1:18.944571 2:0.223027 3:1.361156 
-10 1:18.926434 2:0.399521 3:1.346111 
-10 1:18.899953 2:0.577818 3:1.27914 
-10 1:18.872241 2:0.749228 3:1.200448 
-10 1:18.840333 2:0.897182 3:1.08184 
-10 1:18.808426 2:1.045136 3:0.963232 
-10 1:18.775446 2:1.180011 3:0.830399 
-10 1:18.742314 2:1.31305 3:0.695568 
-10 1:18.708489 2:1.416754 3:0.539705 
-10 1:18.674247 2:1.502808 3:0.371186 
-7.460273257960908 1:18.640669 2:1.576392 3:0.19982 
-0.1786408900954386 1:18.611423 2:1.568788 3:0.009917 
10 1:18.526346 2:1.519613 3:-0.557847 
10 1:18.49896 2:1.493586 3:-0.746392 
10 1:18.471574 2:1.467558 3:-0.934936 
10 1:18.464176 2:1.350961 3:-1.047978 
10 1:18.47152 2:1.167571 3:-1.105339 
10 1:18.478863 2:0.98418 3:-1.162699 
10 1:18.493452 2:0.793461 3:-1.178231 
10 1:18.508622 2:0.602156 3:-1.190413 
10 1:18.523792 2:0.41085 3:-1.202594 
10 1:18.550295 2:0.239581 3:-1.131496 
-10 1:18.580448 2:0.078803 3:-1.031291 
-10 1:18.612058 2:-0.071917 3:-0.916136 
-10 1:18.643668 2:-0.222637 3:-0.800981 
-10 1:18.640778 2:-0.369099 3:-0.902344 
-10 1:18.636775 2:-0.521396 3:-1.014084 
-10 1:18.648059 2:-0.710074 3:-1.049434 
10 1:18.678393 2:-1.085416 3:-1.06971 
10 1:18.702039 2:-1.270888 3:-1.024796 
10 1:18.732003 2:-1.424006 3:-0.921445 
10 1:18.76495 2:-1.549251 3:-0.783367 
10 1:18.798885 2:-1.618164 3:-0.607084 
10 1:18.825387 2:-1.600599 3:-0.428948 
10 1:18.847714 2:-1.534464 3:-0.249772 
10 1:18.870041 2:-1.468329 3:-0.070596 
10 1:18.892368 2:-1.402194 3:0.10858 
-10 1:18.921443 2:-1.18414 3:0.416695 
-10 1:18.932459 2:-1.055723 3:0.559398 
-10 1:18.943474 2:-0.927306 3:0.7021 
-10 1:18.951234 2:-0.786047 3:0.831421 
-10 1:18.956807 2:-0.636161 3:0.951752 
-10 1:18.96238 2:-0.486276 3:1.072083 
-10 1:18.956423 2:-0.306482 3:1.136203 
-10 1:19.385288 2:-0.319456 3:-1.031428 
-10 1:19.365511 2:-0.128362 3:-1.007164 
-10 1:19.3495 2:0.064203 3:-1.020697 
-10 1:19.332299 2:0.256813 3:-1.022724 
-7.142201126348857 1:19.265462 2:0.799512 3:-0.850386 
-10 1:19.240602 2:0.96684 3:-0.756026 
10 1:19.013989 2:1.625248 3:0.863626 
10 1:18.996491 2:1.600474 3:1.054939 
10 1:18.978993 2:1.575699 3:1.246252 
10 1:18.962503 2:1.543899 3:1.43395 
10 1:18.96201 2:1.4006 3:1.564279 
10 1:18.969427 2:1.239464 3:1.633575 
10 1:18.989748 2:1.049227 3:1.603288 
10 1:19.010069 2:0.85899 3:1.573 
10 1:19.032655 2:0.686194 3:1.505471 
-10 1:19.058703 2:0.540046 3:1.381041 
-10 1:19.084751 2:0.393898 3:1.256611 
-10 1:19.094232 2:0.221047 3:1.316166 
-10 1:19.107488 2:0.032818 3:1.352594 
10 1:19.1368 2:-0.350034 3:1.403928 
10 1:19.151208 2:-0.541185 3:1.43175 
10 1:19.169369 2:-0.73379 3:1.424473 
10 1:19.190878 2:-0.868265 3:1.333819 
10 1:19.2158 2:-0.941119 3:1.156078 
10 1:19.240723 2:-1.013972 3:0.978338 
-10 1:19.313921 2:-1.203217 3:0.43465 
-10 1:19.336048 2:-1.231462 3:0.24492 
-10 1:19.357564 2:-1.250902 3:0.053401 
-10 1:19.378369 2:-1.26257 3:-0.13803 
-10 1:19.395599 2:-1.235209 3:-0.329014 
-10 1:19.412829 2:-1.207848 3:-0.519998 
-10 1:19.42262 2:-0.998394 3:-0.798417 
-10 1:19.411732 2:-0.813558 3:-0.85483 
-10 1:19.402751 2:-0.634283 3:-0.92485 
10 1:19.873941 2:-0.152791 3:-1.163231 
10 1:19.893656 2:0.038673 3:-1.146957 
10 1:19.91337 2:0.230138 3:-1.130682 
10 1:19.926499 2:0.401579 3:-1.078849 
-10 1:19.918088 2:0.642947 3:-0.784401 
-10 1:19.926885 2:0.814754 3:-0.696555 
-8.411562146967343 1:19.935682 2:0.986562 3:-0.608709 
10 1:19.949976 2:1.319813 3:-0.415512 
5.500045209344803 1:19.934889 2:1.532173 3:-0.093139 
-10 1:19.855861 2:1.63558 3:0.654147 
3.905656444541589 1:19.781599 2:1.594501 3:1.227389 
10 1:19.754108 2:1.533317 3:1.396695 
10 1:19.722471 2:1.400152 3:1.532998 
10 1:19.697606 2:1.243534 3:1.591647 
-10 1:19.649766 2:0.681033 3:1.46083 
-10 1:19.63556 2:0.496773 3:1.405912 
-10 1:19.623107 2:0.315776 3:1.339603 
-10 1:19.610653 2:0.134778 3:1.273294 
-10 1:19.593488 2:-0.053011 3:1.23945 
-10 1:19.571968 2:-0.238854 3:1.243287 
10 1:19.523833 2:-0.565441 3:1.334998 
10 1:19.513227 2:-0.742079 3:1.257548 
10 1:19.50262 2:-0.918718 3:1.180099 
10 1:19.496656 2:-1.08144 3:1.077404 
10 1:19.492062 2:-1.240053 3:0.967254 
10 1:19.502023 2:-1.315709 3:0.81464 
10 1:19.525395 2:-1.314925 3:0.622897 
3.12011078305017 1:19.548767 2:-1.31414 3:0.431155 
-10 1:19.597054 2:-1.298162 3:0.048408 
-10 1:19.621808 2:-1.284469 3:-0.142673 
10 1:19.736222 2:-1.030114 3:-0.847593 
-9.83581350773413 1:19.786729 2:-0.665579 3:-0.923436 
10 1:19.843758 2:-0.317586 3:-1.068412 
10 1:0.916112 2:-1.364305 3:-0.800219 
10 1:0.904657 2:-1.174355 3:-0.806788 
10 1:0.8936 2:-0.983978 3:-0.817646 
10 1:0.882274 2:-0.783623 3:-0.832213 
10 1:0.875687 2:-0.581954 3:-0.895525 
10 1:0.877508 2:-0.426489 3:-1.014063 
10 1:0.874831 2:-0.280865 3:-1.080804 
10 1:0.867265 2:-0.114328 3:-1.111597 
10 1:0.85891 2:0.031147 3:-1.120841 
10 1:0.841463 2:0.15999 3:-1.027487 
10 1:0.819834 2:0.330541 3:-0.918724 
10 1:0.80103 2:0.529053 3:-0.856532 
10 1:0.786177 2:0.711506 3:-0.823921 
10 1:0.77013 2:0.870603 3:-0.7642 
10 1:0.750756 2:1.03659 3:-0.675285 
10 1:0.732476 2:1.217717 3:-0.607184 
10 1:0.719534 2:1.354296 3:-0.564344 
10 1:0.708285 2:1.366035 3:-0.458215 
10 1:0.691647 2:1.359301 3:-0.285709 
10 1:0.675239 2:1.339342 3:-0.107009 
10 1:0.659665 2:1.303109 3:0.073733 
10 1:0.643723 2:1.266129 3:0.258682 
10 1:0.628114 2:1.230016 3:0.439707 
10 1:0.614327 2:1.181397 3:0.610367 
10 1:0.602761 2:1.112697 3:0.77152 
10 1:0.594695 2:1.031924 3:0.905066 
10 1:0.593805 2:0.901978 3:0.997762 
10 1:0.597236 2:0.724486 3:1.077404 
10 1:0.593073 2:0.573185 3:1.216932 
10 1:0.589166 2:0.434902 3:1.345485 
10 1:0.585384 2:0.295764 3:1.473323 
10 1:0.579843 2:0.225101 3:1.574839 
10 1:0.593483 2:0.1661 3:1.474978 
10 1:0.617181 2:0.023696 3:1.327179 
10 1:0.638583 2:-0.177148 3:1.240224 
10 1:0.650037 2:-0.393176 3:1.26359 
10 1:0.656329 2:-0.546637 3:1.298836 
10 1:0.672508 2:-0.683669 3:1.223572 
10 1:0.690694 2:-0.84392 3:1.142974 
10 1:0.70735 2:-0.965024 3:1.05263 
10 1:0.726238 2:-1.041243 3:0.910814 
10 1:0.744964 2:-1.099036 3:0.758766 
10 1:0.762908 2:-1.110592 3:0.584841 
10 1:0.782564 2:-1.12431 3:0.395008 
10 1:0.803046 2:-1.146333 3:0.20218 
10 1:0.82409 2:-1.183781 3:0.013598 
10 1:0.84436 2:-1.219966 3:-0.167968 
10 1:0.863951 2:-1.244723 3:-0.350032 
10 1:0.883509 2:-1.264945 3:-0.534692 
10 1:0.902932 2:-1.280844 3:-0.720756 
10 1:1.138695 2:-0.881485 3:-0.850367 
10 1:1.128055 2:-0.731047 3:-0.987046 
10 1:1.117627 2:-0.583789 3:-1.120955 
10 1:1.109965 2:-0.456429 3:-1.223873 
10 1:1.113244 2:-0.300049 3:-1.229602 
10 1:1.120843 2:-0.169919 3:-1.188049 
10 1:1.137953 2:-0.053965 3:-1.052714 
10 1:1.160249 2:0.108635 3:-0.879075 
10 1:1.169304 2:0.343604 3:-0.848423 
10 1:1.173328 2:0.552658 3:-0.859492 
10 1:1.17781 2:0.750955 3:-0.863678 
10 1:1.183694 2:0.950812 3:-0.854888 
10 1:1.18954 2:1.148011 3:-0.845842 
10 1:1.19777 2:1.342866 3:-0.813563 
10 1:1.201985 2:1.489453 3:-0.808073 
10 1:1.215369 2:1.484821 3:-0.679712 
10 1:1.236137 2:1.494997 3:-0.484639 
10 1:1.256417 2:1.491636 3:-0.290999 
10 1:1.276546 2:1.469536 3:-0.094382 
10 1:1.29715 2:1.447028 3:0.106851 
10 1:1.316743 2:1.42616 3:0.298088 
10 1:1.334 2:1.367372 3:0.476059 
10 1:1.34809 2:1.321116 3:0.620952 
10 1:1.344572 2:1.23511 3:0.607804 
10 1:1.334381 2:1.054427 3:0.553536 
10 1:1.358047 2:0.564574 3:0.894177 
10 1:1.374546 2:0.511842 3:1.06351 
10 1:1.386971 2:0.407602 3:1.206257 
10 1:1.394282 2:0.319765 3:1.296506 
10 1:1.386561 2:0.158146 3:1.261227 
10 1:1.378589 2:-0.061945 3:1.237365 
10 1:1.378375 2:-0.281646 3:1.287181 
10 1:1.380378 2:-0.479944 3:1.353027 
10 1:1.382752 2:-0.653578 3:1.416571 
10 1:1.378903 2:-0.777747 3:1.409281 
10 1:1.364883 2:-0.900463 3:1.304919 
10 1:1.345886 2:-1.008692 3:1.14982 
10 1:1.325583 2:-1.125381 3:0.984299 
10 1:1.307183 2:-1.23292 3:0.834717 
10 1:1.287998 2:-1.273394 3:0.66184 
10 1:1.266558 2:-1.30653 3:0.465781 
10 1:1.245974 2:-1.339057 3:0.277731 
10 1:1.226562 2:-1.325942 3:0.090044 
10 1:1.20625 2:-1.305323 3:-0.10797 
10 1:1.18747 2:-1.281322 3:-0.292211 
10 1:1.171368 2:-1.203046 3:-0.463795 
10 1:1.154031 2:-1.120113 3:-0.648223 
10 1:1.13685 2:-1.035067 3:-0.831664 
10 1:1.912063 2:-0.203884 3:-0.957351 
10 1:1.883868 2:-0.012162 3:-0.906006 
10 1:1.854674 2:0.148552 3:-0.824969 
9.480107970427136 1:1.819498 2:0.296782 3:-0.693845 
10 1:1.708759 2:0.833155 3:-0.332446 
10 1:1.67846 2:1.032173 3:-0.272101 
10 1:1.647967 2:1.20011 3:-0.187516 
10 1:1.61585 2:1.355745 3:-0.082754 
10 1:1.585143 2:1.46459 3:0.046871 
10 1:1.558399 2:1.505302 3:0.19964 
10 1:1.532635 2:1.485765 3:0.39014 
10 1:1.504883 2:1.466531 3:0.594004 
10 1:1.480171 2:1.433283 3:0.787429 
10 1:1.459098 2:1.369098 3:0.978784 
10 1:1.4372 2:1.302805 3:1.177338 
10 1:1.418545 2:1.264481 3:1.333102 
10 1:1.432001 2:1.119238 3:1.348227 
10 1:1.450236 2:0.914867 3:1.374284 
10 1:1.462427 2:0.756996 3:1.407366 
10 1:1.489585 2:0.52256 3:1.394605 
10 1:1.527913 2:0.424246 3:1.205128 
10 1:1.564839 2:0.489087 3:0.904928 
-10 1:1.609993 2:0.242331 3:0.778249 
-10 1:1.617045 2:0.026513 3:0.889185 
10 1:1.588603 2:-0.203151 3:1.252926 
10 1:1.583315 2:-0.330036 3:1.382626 
10 1:1.586303 2:-0.498983 3:1.486776 
10 1:1.586871 2:-0.634954 3:1.583155 
10 1:1.607263 2:-0.741213 3:1.52213 
10 1:1.641622 2:-0.897025 3:1.402172 
10 1:1.674934 2:-1.049697 3:1.287059 
10 1:1.70955 2:-1.153617 3:1.127087 
10 1:1.747117 2:-1.267177 3:0.954054 
10 1:1.780125 2:-1.36969 3:0.804038 
10 1:1.806066 2:-1.374248 3:0.630092 
10 1:1.835291 2:-1.367806 3:0.425597 
10 1:1.86506 2:-1.361319 3:0.217344 
10 1:1.894123 2:-1.355117 3:0.014128 
10 1:1.920494 2:-1.328149 3:-0.186002 
10 1:1.946489 2:-1.29526 3:-0.387923 
10 1:1.9691 2:-1.255847 3:-0.57153 
10 1:1.98216 2:-1.154872 3:-0.735247 
10 1:1.994415 2:-1.059897 3:-0.889039 
10 1:1.988514 2:-0.89764 3:-0.968347 
10 1:1.980251 2:-0.715466 3:-1.046199 
10 1:1.968046 2:-0.537271 3:-1.094166 
10 1:1.944403 2:-0.347733 3:-1.072329 
10 1:2.396204 2:-0.48676 3:-1.218237 
10 1:2.396388 2:-0.325405 3:-1.13035 
10 1:2.396578 2:-0.162388 3:-1.041577 
10 1:2.398043 2:0.008694 3:-0.956636 
10 1:2.403219 2:0.186751 3:-0.891947 
10 1:2.408266 2:0.359434 3:-0.82938 
10 1:2.413233 2:0.529118 3:-0.767954 
10 1:2.416182 2:0.694087 3:-0.696027 
10 1:2.418837 2:0.850746 3:-0.62678 
10 1:2.414346 2:0.979493 3:-0.52653 
10 1:2.406047 2:1.106768 3:-0.402363 
10 1:2.397731 2:1.235156 3:-0.277473 
10 1:2.387432 2:1.345546 3:-0.149645 
10 1:2.372468 2:1.432192 3:-0.004622 
10 1:2.358588 2:1.494232 3:0.119768 
10 1:2.332931 2:1.458336 3:0.266577 
10 1:2.306678 2:1.428871 3:0.420803 
10 1:2.284046 2:1.338547 3:0.517914 
10 1:2.257709 2:1.20039 3:0.612676 
10 1:2.230745 2:1.04978 3:0.704638 
10 1:2.204404 2:0.894505 3:0.789978 
10 1:2.176628 2:0.722965 3:0.875656 
10 1:2.144288 2:0.577987 3:1.005633 
10 1:2.114136 2:0.443616 3:1.127267 
10 1:2.085452 2:0.316172 3:1.243188 
10 1:2.061718 2:0.184266 3:1.324498 
10 1:2.04063 2:0.02141 3:1.371536 
10 1:2.019579 2:-0.138717 3:1.419837 
10 1:2.006117 2:-0.304497 3:1.415739 
10 1:1.99193 2:-0.486141 3:1.407583 
10 1:1.977637 2:-0.669138 3:1.399376 
10 1:1.963735 2:-0.846844 3:1.391547 
10 1:1.954172 2:-0.996018 3:1.371289 
10 1:1.95702 2:-1.117937 3:1.285485 
10 1:1.963443 2:-1.200373 3:1.198254 
10 1:1.986474 2:-1.202409 3:1.047565 
10 1:2.013699 2:-1.210923 3:0.866055 
10 1:2.040691 2:-1.219376 3:0.686092 
10 1:2.06719 2:-1.222207 3:0.51244 
10 1:2.095653 2:-1.203048 3:0.338166 
10 1:2.242925 2:-1.060504 3:-0.539562 
10 1:2.272561 2:-0.998916 3:-0.698023 
10 1:2.30135 2:-0.935366 3:-0.849906 
10 1:2.324463 2:-0.847833 3:-0.95168 
10 1:2.348028 2:-0.698257 3:-1.022134 
10 1:2.375359 2:-0.536737 3:-1.110458 
10 1:2.700709 2:-0.481367 3:-1.012306 
10 1:2.690283 2:-0.306922 3:-0.914119 
10 1:2.679857 2:-0.132476 3:-0.815932 
10 1:2.668001 2:0.061391 3:-0.709365 
10 1:2.643467 2:0.28677 3:-0.687581 
10 1:2.617188 2:0.493885 3:-0.703027 
10 1:2.590263 2:0.702075 3:-0.723381 
10 1:2.561486 2:0.893816 3:-0.77993 
10 1:2.537852 2:1.072534 3:-0.802352 
10 1:2.518536 2:1.237137 3:-0.799715 
10 1:2.512812 2:1.363838 3:-0.710847 
10 1:2.509875 2:1.489657 3:-0.596508 
10 1:2.51838 2:1.538241 3:-0.460802 
10 1:2.537165 2:1.543162 3:-0.276833 
10 1:2.557364 2:1.549788 3:-0.077512 
10 1:2.576782 2:1.556442 3:0.114434 
10 1:2.599481 2:1.534167 3:0.304828 
10 1:2.623025 2:1.51129 3:0.502566 
10 1:2.642842 2:1.495614 3:0.673055 
10 1:2.663636 2:1.406109 3:0.76936 
10 1:2.692081 2:1.246876 3:0.859495 
10 1:2.722912 2:1.07514 3:0.958168 
10 1:2.750657 2:0.922032 3:1.048585 
10 1:2.769095 2:0.777688 3:1.060516 
10 1:2.785521 2:0.596902 3:1.012143 
10 1:2.807887 2:0.376003 3:0.974836 
10 1:2.842276 2:0.15093 3:1.04699 
10 1:2.877267 2:0.025477 3:1.237487 
10 1:2.904165 2:-0.072667 3:1.381995 
10 1:2.93222 2:-0.224299 3:1.477029 
10 1:2.958793 2:-0.363995 3:1.571475 
10 1:2.977866 2:-0.533574 3:1.560907 
10 1:3.000796 2:-0.732579 3:1.553713 
10 1:3.020688 2:-0.900651 3:1.552628 
10 1:3.023229 2:-1.004579 3:1.459269 
10 1:3.020929 2:-1.118949 3:1.308135 
10 1:3.019332 2:-1.228156 3:1.169516 
10 1:3.004373 2:-1.254727 3:0.997401 
10 1:2.987309 2:-1.285254 3:0.800831 
10 1:2.970177 2:-1.315905 3:0.60348 
10 1:2.953525 2:-1.345876 3:0.41145 
10 1:2.935421 2:-1.354622 3:0.229615 
10 1:2.912277 2:-1.32559 3:0.04263 
10 1:2.889939 2:-1.298958 3:-0.139407 
10 1:2.863117 2:-1.217574 3:-0.302145 
10 1:2.835158 2:-1.131551 3:-0.470428 
10 1:2.807002 2:-1.022474 3:-0.614521 
10 1:2.779754 2:-0.897715 3:-0.732265 
10 1:2.751094 2:-0.729827 3:-0.814666 
10 1:2.719828 2:-0.555561 3:-0.914606 
10 1:3.058361 2:-0.697506 3:-1.08239 
10 1:3.092561 2:-0.494699 3:-1.004777 
10 1:3.126611 2:-0.292775 3:-0.927507 
10 1:3.160696 2:-0.093064 3:-0.846593 
10 1:3.190464 2:0.082218 3:-0.777199 
10 1:3.218056 2:0.181952 3:-0.620327 
-10 1:3.254922 2:0.316007 3:-0.411919 
10 1:3.325913 2:0.814177 3:-0.364674 
10 1:3.346474 2:1.026451 3:-0.451278 
10 1:3.365737 2:1.228328 3:-0.536857 
10 1:3.384299 2:1.421989 3:-0.618025 
10 1:3.397553 2:1.558457 3:-0.67332 
10 1:3.410843 2:1.568111 3:-0.541141 
10 1:3.434158 2:1.610973 3:-0.347501 
10 1:3.448642 2:1.586565 3:-0.151922 
10 1:3.462672 2:1.547281 3:0.060592 
10 1:3.476191 2:1.510714 3:0.263472 
10 1:3.480743 2:1.425596 3:0.439184 
10 1:3.481099 2:1.307914 3:0.616698 
10 1:3.481504 2:1.186842 3:0.799761 
10 1:3.481664 2:1.065094 3:0.981113 
10 1:3.481101 2:0.939626 3:1.159996 
10 1:3.480338 2:0.813596 3:1.337498 
10 1:3.47981 2:0.709465 3:1.485286 
10 1:3.471333 2:0.652745 3:1.475564 
10 1:3.441016 2:0.513322 3:1.347224 
10 1:3.409649 2:0.367236 3:1.217151 
10 1:3.380518 2:0.281679 3:1.022421 
10 1:3.34837 2:-0.060113 3:1.17242 
10 1:3.354804 2:-0.134885 3:1.353607 
10 1:3.348239 2:-0.26651 3:1.475442 
10 1:3.333294 2:-0.414179 3:1.528621 
10 1:3.307724 2:-0.594475 3:1.512876 
10 1:3.280358 2:-0.749794 3:1.440495 
10 1:3.248181 2:-0.895379 3:1.300759 
10 1:3.213634 2:-1.05243 3:1.151813 
10 1:3.183012 2:-1.191921 3:1.020219 
10 1:3.158712 2:-1.247287 3:0.834178 
10 1:3.132816 2:-1.309331 3:0.640402 
10 1:3.114571 2:-1.309898 3:0.440225 
10 1:3.096079 2:-1.301255 3:0.223757 
10 1:3.07739 2:-1.292549 3:0.005013 
10 1:3.05913 2:-1.28363 3:-0.20932 
10 1:3.043561 2:-1.255879 3:-0.421776 
10 1:3.029303 2:-1.230766 3:-0.615908 
10 1:3.029341 2:-1.125895 3:-0.770183 
10 1:3.035996 2:-0.983872 3:-0.906367 
10 1:3.0492 2:-0.808216 3:-1.020007 
10 1:3.90374 2:-0.487168 3:-1.094811 
10 1:3.888612 2:-0.299302 3:-1.074851 
10 1:3.874412 2:-0.122163 3:-1.056626 
10 1:3.857541 2:0.036682 3:-1.002585 
10 1:3.837419 2:0.198904 3:-0.921052 
10 1:3.816558 2:0.367327 3:-0.836676 
10 1:3.796527 2:0.529313 3:-0.755829 
10 1:3.774901 2:0.677106 3:-0.651542 
10 1:3.752401 2:0.83148 3:-0.543428 
10 1:3.729044 2:0.99266 3:-0.431778 
10 1:3.707385 2:1.169951 3:-0.345696 
10 1:3.687373 2:1.344399 3:-0.272836 
10 1:3.670132 2:1.491823 3:-0.208269 
10 1:3.656077 2:1.549369 3:-0.116336 
10 1:3.637025 2:1.561474 3:0.049613 
10 1:3.6153 2:1.577948 3:0.23717 
10 1:3.594456 2:1.594046 3:0.416939 
10 1:3.576734 2:1.582087 3:0.585864 
10 1:3.560578 2:1.538091 3:0.76062 
10 1:3.543619 2:1.49238 3:0.94377 
10 1:3.528054 2:1.452217 3:1.110743 
10 1:3.521116 2:1.377983 3:1.220504 
10 1:3.521405 2:1.261289 3:1.291069 
10 1:3.533668 2:1.122454 3:1.266462 
10 1:3.550451 2:0.95244 3:1.220224 
10 1:3.569258 2:0.78778 3:1.1522 
10 1:3.591404 2:0.606288 3:1.064327 
10 1:3.607653 2:0.383532 3:1.056046 
10 1:3.60122 2:0.254587 3:1.195517 
10 1:3.60978 2:0.108105 3:1.209436 
10 1:3.622436 2:-0.06766 3:1.2044 
10 1:3.636657 2:-0.244503 3:1.185795 
10 1:3.651306 2:-0.397087 3:1.14807 
10 1:3.737501 2:-1.00985 3:0.747297 
10 1:3.759586 2:-1.142788 3:0.62952 
10 1:3.778613 2:-1.254616 3:0.526349 
10 1:3.797418 2:-1.277724 3:0.369551 
10 1:3.82002 2:-1.310549 3:0.18426 
10 1:3.841482 2:-1.342152 3:0.008593 
10 1:3.859046 2:-1.338572 3:-0.153645 
10 1:3.874614 2:-1.292535 3:-0.324321 
10 1:3.889876 2:-1.247764 3:-0.491431 
10 1:3.899255 2:-1.153355 3:-0.636078 
10 1:3.908559 2:-1.052659 3:-0.783993 
10 1:3.913787 2:-0.93762 3:-0.90377 
10 1:3.912726 2:-0.796354 3:-0.98272 
10 1:3.906409 2:-0.625805 3:-1.032162 
10 1:4.310712 2:-0.791643 3:-1.110832 
10 1:4.300328 2:-0.59682 3:-1.06226 
10 1:4.289943 2:-0.401997 3:-1.013687 
10 1:4.279105 2:-0.198509 3:-0.963358 
10 1:4.268664 2:0.011822 3:-0.948928 
10 1:4.26071 2:0.177531 3:-0.950941 
10 1:4.25455 2:0.26172 3:-0.847472 
10 1:4.246649 2:0.357603 3:-0.685904 
10 1:4.238766 2:0.44732 3:-0.51055 
0.2261030984659319 1:4.229806 2:0.54935 3:-0.311391 
10 1:4.218038 2:0.73764 3:-0.179004 
10 1:4.206013 2:0.969729 3:-0.138172 
10 1:4.203353 2:1.114844 3:-0.35238 
10 1:4.200854 2:1.227776 3:-0.497892 
10 1:4.187939 2:1.461069 3:-0.416082 
10 1:4.186912 2:1.463567 3:-0.371332 
10 1:4.181554 2:1.500181 3:-0.194169 
10 1:4.175695 2:1.541868 3:-0.004341 
10 1:4.171792 2:1.559293 3:0.146715 
10 1:4.173635 2:1.462577 3:0.286034 
10 1:4.175167 2:1.367367 3:0.437078 
10 1:4.180483 2:1.222428 3:0.51981 
10 1:4.187836 2:1.034476 3:0.604443 
10 1:4.193606 2:0.860989 3:0.732727 
10 1:4.197866 2:0.711505 3:0.878392 
10 1:4.201832 2:0.568024 3:1.024276 
10 1:4.205242 2:0.43318 3:1.177001 
10 1:4.208605 2:0.300155 3:1.327719 
10 1:4.211857 2:0.171316 3:1.473978 
10 1:4.216224 2:0.027254 3:1.601461 
10 1:4.220204 2:-0.101845 3:1.712406 
10 1:4.227407 2:-0.254778 3:1.721085 
10 1:4.236988 2:-0.447465 3:1.70704 
10 1:4.245805 2:-0.625897 3:1.696788 
10 1:4.254004 2:-0.762565 3:1.617633 
10 1:4.261417 2:-0.862249 3:1.489187 
10 1:4.268812 2:-0.943334 3:1.317377 
10 1:4.276526 2:-1.02828 3:1.138974 
10 1:4.283634 2:-1.099837 3:0.958669 
10 1:4.29039 2:-1.160856 3:0.77057 
10 1:4.297258 2:-1.222907 3:0.579454 
10 1:4.303628 2:-1.28123 3:0.404041 
10 1:4.307201 2:-1.278166 3:0.220478 
10 1:4.311014 2:-1.273106 3:0.020307 
10 1:4.314627 2:-1.269318 3:-0.166968 
10 1:4.315514 2:-1.213813 3:-0.342813 
10 1:4.316133 2:-1.151213 3:-0.522358 
10 1:4.314952 2:-1.059987 3:-0.681273 
10 1:4.312456 2:-0.943686 3:-0.834974 
10 1:4.309492 2:-0.817552 3:-0.988977 
10 1:4.663696 2:-0.751709 3:-0.919297 
10 1:4.667538 2:-0.574524 3:-0.80919 
10 1:4.674642 2:-0.425238 3:-0.691446 
-10 1:4.692636 2:-0.302631 3:-0.516202 
-10 1:4.701113 2:-0.109774 3:-0.368616 
-10 1:4.687841 2:0.153504 3:-0.327611 
10 1:4.656963 2:0.370635 3:-0.422538 
10 1:4.63363 2:0.540227 3:-0.491619 
10 1:4.621508 2:0.722793 3:-0.482039 
10 1:4.614424 2:0.929981 3:-0.428068 
10 1:4.599601 2:1.149655 3:-0.418068 
10 1:4.589502 2:1.329284 3:-0.39684 
10 1:4.596114 2:1.441188 3:-0.300261 
10 1:4.61338 2:1.518962 3:-0.1513 
10 1:4.643026 2:1.509688 3:0.035729 
10 1:4.676199 2:1.502773 3:0.246672 
10 1:4.70777 2:1.493578 3:0.44617 
10 1:4.741315 2:1.439494 3:0.63681 
10 1:4.772689 2:1.383412 3:0.812466 
10 1:4.803337 2:1.247937 3:0.945221 
10 1:4.837703 2:1.098728 3:1.095376 
10 1:4.866427 2:0.981056 3:1.224267 
10 1:4.877967 2:0.812221 3:1.217536 
10 1:4.89229 2:0.600876 3:1.208322 
10 1:4.912218 2:0.33699 3:1.210018 
10 1:4.956253 2:0.18828 3:1.42287 
10 1:4.99271 2:0.08132 3:1.606866 
10 1:5.026772 2:-0.017866 3:1.77914 
10 1:5.056792 2:-0.149859 3:1.909508 
10 1:5.085007 2:-0.303753 3:2.017681 
10 1:5.10435 2:-0.465783 3:2.064623 
10 1:5.117574 2:-0.663707 3:2.054773 
10 1:5.131424 2:-0.866667 3:2.046538 
10 1:5.137048 2:-1.010138 3:2.013802 
10 1:5.120206 2:-1.103097 3:1.860269 
10 1:5.102464 2:-1.213453 3:1.69255 
10 1:5.078939 2:-1.271982 3:1.512419 
10 1:5.050381 2:-1.309354 3:1.309971 
10 1:5.020938 2:-1.348138 3:1.101118 
10 1:4.991952 2:-1.386378 3:0.895487 
10 1:4.962883 2:-1.410025 3:0.696341 
10 1:4.930716 2:-1.403047 3:0.491927 
10 1:4.897418 2:-1.396103 3:0.280187 
10 1:4.864964 2:-1.389477 3:0.073746 
10 1:4.831272 2:-1.360328 3:-0.129844 
10 1:4.797906 2:-1.329781 3:-0.330663 
10 1:4.7653 2:-1.270266 3:-0.512621 
10 1:4.734111 2:-1.181302 3:-0.671258 
10 1:4.705554 2:-1.040897 3:-0.788127 
10 1:4.678744 2:-0.860864 3:-0.874645 
10 1:5.024412 2:-0.767245 3:-0.73911 
10 1:5.065015 2:-0.582745 3:-0.652569 
10 1:5.136463 2:-0.154822 3:-0.603722 
10 1:5.163655 2:0.044341 3:-0.621495 
10 1:5.192076 2:0.253012 3:-0.640581 
10 1:5.213873 2:0.456874 3:-0.699119 
10 1:5.231354 2:0.637329 3:-0.763054 
10 1:5.256359 2:0.820237 3:-0.779163 
10 1:5.285187 2:1.014431 3:-0.781031 
10 1:5.314964 2:1.210417 3:-0.778342 
10 1:5.342525 2:1.385889 3:-0.769922 
10 1:5.361863 2:1.470503 3:-0.72544 
10 1:5.390284 2:1.498408 3:-0.563446 
10 1:5.423903 2:1.538117 3:-0.378532 
10 1:5.450384 2:1.540248 3:-0.203685 
10 1:5.472211 2:1.502049 3:-0.019542 
10 1:5.493119 2:1.457364 3:0.164958 
10 1:5.50828 2:1.381441 3:0.34234 
10 1:5.522608 2:1.325661 3:0.493975 
10 1:5.507341 2:1.177166 3:0.540696 
10 1:5.488712 2:0.991986 3:0.601691 
10 1:5.465706 2:0.787044 3:0.653235 
10 1:5.453871 2:0.59507 3:0.766443 
10 1:5.452961 2:0.428199 3:0.927521 
10 1:5.470372 2:0.340711 3:1.131529 
10 1:5.486072 2:0.2658 3:1.311499 
10 1:5.496328 2:0.175103 3:1.4709 
10 1:5.499508 2:0.053696 3:1.613768 
10 1:5.499194 2:-0.071672 3:1.737261 
10 1:5.486381 2:-0.228677 3:1.808899 
10 1:5.471048 2:-0.3618 3:1.839781 
10 1:5.436949 2:-0.506076 3:1.75641 
10 1:5.400285 2:-0.666373 3:1.671948 
10 1:5.363132 2:-0.782339 3:1.539805 
10 1:5.322202 2:-0.902913 3:1.38704 
10 1:5.282817 2:-1.019358 3:1.240463 
10 1:5.250146 2:-1.091092 3:1.093968 
10 1:5.220243 2:-1.109034 3:0.912088 
10 1:5.187555 2:-1.130017 3:0.714643 
10 1:5.155196 2:-1.148737 3:0.517126 
10 1:5.122851 2:-1.16671 3:0.318957 
10 1:5.090474 2:-1.184701 3:0.12059 
10 1:5.058539 2:-1.202482 3:-0.075033 
10 1:5.029115 2:-1.209166 3:-0.26499 
10 1:5.002985 2:-1.192718 3:-0.456105 
10 1:4.978142 2:-1.16794 3:-0.646958 
10 1:4.959109 2:-1.13711 3:-0.805051 
10 1:4.962319 2:-1.046646 3:-0.874218 
10 1:4.990798 2:-0.901507 3:-0.829271 
10 1:5.775344 2:-1.062864 3:-0.867981 
10 1:5.795602 2:-0.875725 3:-0.880351 
10 1:5.815731 2:-0.689789 3:-0.892648 
10 1:5.833589 2:-0.521109 3:-0.901112 
10 1:5.842119 2:-0.357111 3:-0.850317 
10 1:5.851831 2:-0.175065 3:-0.795561 
10 1:5.86264 2:0.0088 3:-0.746941 
10 1:5.874917 2:0.210799 3:-0.696209 
10 1:5.899791 2:0.416345 3:-0.727326 
10 1:5.926683 2:0.578971 3:-0.800141 
10 1:5.942577 2:0.723191 3:-0.811555 
10 1:5.944912 2:0.848745 3:-0.744632 
10 1:5.943006 2:0.99383 3:-0.636532 
10 1:5.941635 2:1.147467 3:-0.526386 
10 1:5.939992 2:1.299172 3:-0.415688 
10 1:5.938186 2:1.445153 3:-0.307668 
10 1:5.934123 2:1.550924 3:-0.210993 
10 1:5.913412 2:1.577419 3:-0.055177 
10 1:5.889531 2:1.613855 3:0.128361 
10 1:5.86565 2:1.650292 3:0.3119 
10 1:5.844829 2:1.684868 3:0.473762 
10 1:5.818681 2:1.644119 3:0.621716 
10 1:5.78798 2:1.580887 3:0.78531 
10 1:5.75877 2:1.507252 3:0.93211 
10 1:5.728458 2:1.38848 3:1.0566 
10 1:5.695698 2:1.261007 3:1.191736 
10 1:5.663281 2:1.134887 3:1.325466 
10 1:5.637967 2:1.037908 3:1.430885 
10 1:5.624478 2:0.887611 3:1.422235 
10 1:5.606468 2:0.701978 3:1.420572 
10 1:5.58983 2:0.518471 3:1.411136 
10 1:5.574136 2:0.334082 3:1.394816 
10 1:5.559805 2:0.160967 3:1.376791 
10 1:5.552969 2:-0.00175 3:1.315519 
10 1:5.547099 2:-0.166628 3:1.246374 
10 1:5.545685 2:-0.322135 3:1.153607 
10 1:5.544541 2:-0.482673 3:1.055732 
10 1:5.542767 2:-0.665693 3:0.947285 
10 1:5.525249 2:-0.868074 3:0.931326 
10 1:5.516302 2:-0.973361 3:0.921914 
10 1:5.534268 2:-0.999758 3:0.784499 
10 1:5.556191 2:-1.051037 3:0.604293 
10 1:5.577717 2:-1.101458 3:0.427302 
10 1:5.599741 2:-1.138241 3:0.25595 
10 1:5.625542 2:-1.148098 3:0.077058 
10 1:5.652398 2:-1.158672 3:-0.109359 
10 1:5.678134 2:-1.169108 3:-0.288206 
10 1:5.70629 2:-1.151525 3:-0.464801 
10 1:5.735036 2:-1.130578 3:-0.643131 
10 1:5.765346 2:-1.088498 3:-0.818018 
10 1:6.282657 2:-1.147919 3:-0.645336 
10 1:6.283559 2:-1.067272 3:-0.837674 
10 1:6.284508 2:-1.011668 3:-0.994602 
10 1:6.281922 2:-0.865766 3:-1.02892 
10 1:6.278095 2:-0.677049 3:-1.037459 
10 1:6.273756 2:-0.476759 3:-1.025934 
10 1:6.269489 2:-0.285589 3:-1.005542 
10 1:6.265058 2:-0.115355 3:-0.94046 
10 1:6.259497 2:0.068093 3:-0.811933 
10 1:6.254315 2:0.306866 3:-0.797438 
10 1:6.250036 2:0.520805 3:-0.811569 
10 1:6.246214 2:0.714591 3:-0.828329 
10 1:6.241793 2:0.902761 3:-0.791841 
10 1:6.238318 2:1.051464 3:-0.764443 
10 1:6.235196 2:1.099496 3:-0.606866 
10 1:6.230816 2:1.179534 3:-0.405543 
10 1:6.225973 2:1.28915 3:-0.215681 
10 1:6.221059 2:1.412463 3:-0.04183 
10 1:6.216407 2:1.529406 3:0.122458 
10 1:6.212482 2:1.613881 3:0.283086 
10 1:6.20929 2:1.645048 3:0.472035 
10 1:6.206068 2:1.671814 3:0.67001 
10 1:6.203337 2:1.672438 3:0.872101 
10 1:6.200708 2:1.674581 3:1.06425 
10 1:6.19979 2:1.623452 3:1.211905 
10 1:6.200613 2:1.494682 3:1.350731 
10 1:6.201469 2:1.354361 3:1.505028 
10 1:6.20207 2:1.239034 3:1.639425 
10 1:6.205313 2:1.065722 3:1.667498 
10 1:6.209092 2:0.861067 3:1.704388 
10 1:6.212105 2:0.692805 3:1.741662 
10 1:6.215341 2:0.590335 3:1.660172 
10 1:6.21977 2:0.472152 3:1.51442 
10 1:6.223903 2:0.378703 3:1.352256 
10 1:6.227757 2:0.315587 3:1.163744 
10 1:6.232194 2:0.241336 3:0.949145 
10 1:6.238189 2:0.077287 3:0.758179 
2.570128888363368 1:6.24381 2:-0.159778 3:0.708411 
10 1:6.246057 2:-0.354262 3:0.843401 
10 1:6.248496 2:-0.527858 3:0.93166 
10 1:6.250636 2:-0.673077 3:0.99804 
10 1:6.254822 2:-0.821399 3:0.917159 
10 1:6.259324 2:-0.987553 3:0.840506 
10 1:6.262893 2:-1.072545 3:0.707143 
10 1:6.266678 2:-1.140507 3:0.531251 
10 1:6.269863 2:-1.173887 3:0.34624 
10 1:6.27265 2:-1.178127 3:0.145665 
10 1:6.275521 2:-1.182171 3:-0.06152 
10 1:6.278253 2:-1.181485 3:-0.26573 
10 1:6.280718 2:-1.167653 3:-0.470539 
10 1:6.823184 2:-0.897442 3:-0.795516 
10 1:6.825149 2:-0.704313 3:-0.759533 
10 1:6.828059 2:-0.480308 3:-0.72261 
10 1:6.846852 2:-0.278578 3:-0.812798 
10 1:6.862256 2:-0.124015 3:-0.889567 
10 1:6.867586 2:0.049799 3:-0.884364 
10 1:6.875031 2:0.254437 3:-0.887167 
10 1:6.885434 2:0.431618 3:-0.919795 
10 1:6.88382 2:0.568642 3:-0.871303 
10 1:6.875855 2:0.718203 3:-0.771028 
10 1:6.865792 2:0.870292 3:-0.654067 
10 1:6.855851 2:1.015142 3:-0.539953 
10 1:6.841516 2:1.125447 3:-0.401412 
10 1:6.82548 2:1.248521 3:-0.24652 
10 1:6.810616 2:1.384458 3:-0.097184 
10 1:6.796924 2:1.529508 3:0.04562 
10 1:6.788843 2:1.661701 3:0.1422 
10 1:6.769729 2:1.66981 3:0.290231 
10 1:6.746658 2:1.67844 3:0.468604 
10 1:6.727555 2:1.647956 3:0.606368 
10 1:6.707305 2:1.529423 3:0.729644 
10 1:6.683985 2:1.396692 3:0.8726 
10 1:6.661739 2:1.270548 3:1.009094 
10 1:6.644509 2:1.139945 3:1.106135 
10 1:6.630679 2:0.954058 3:1.162619 
10 1:6.607918 2:0.773351 3:1.288647 
10 1:6.581062 2:0.666445 3:1.465409 
10 1:6.560156 2:0.554606 3:1.595458 
10 1:6.544404 2:0.429485 3:1.682655 
10 1:6.53633 2:0.271322 3:1.702531 
10 1:6.534211 2:0.131235 3:1.681721 
10 1:6.543447 2:-0.004998 3:1.57526 
10 1:6.551982 2:-0.144443 3:1.473299 
10 1:6.569449 2:-0.213913 3:1.321638 
10 1:6.594516 2:-0.320888 3:1.102067 
10 1:6.588973 2:-0.556523 3:1.082169 
10 1:6.578843 2:-0.742761 3:1.110323 
10 1:6.576367 2:-0.88678 3:1.091201 
10 1:6.58465 2:-1.017169 3:0.993558 
10 1:6.596134 2:-1.124944 3:0.877451 
10 1:6.615862 2:-1.184357 3:0.711185 
10 1:6.636946 2:-1.250257 3:0.532859 
10 1:6.65715 2:-1.293366 3:0.367269 
10 1:6.68105 2:-1.280282 3:0.188294 
10 1:6.706755 2:-1.267489 3:-0.004532 
10 1:6.732253 2:-1.249083 3:-0.194292 
10 1:6.758144 2:-1.221013 3:-0.384504 
10 1:6.782526 2:-1.195517 3:-0.563877 
10 1:6.804075 2:-1.129928 3:-0.711038 
10 1:6.823832 2:-1.005659 3:-0.82903 
10 1:7.383744 2:-1.232062 3:-0.802264 
10 1:7.399932 2:-1.096005 3:-0.942795 
10 1:7.416121 2:-0.959948 3:-1.083326 
10 1:7.431305 2:-0.833783 3:-1.214917 
10 1:7.439716 2:-0.689764 3:-1.299094 
10 1:7.444026 2:-0.524848 3:-1.356102 
10 1:7.4445 2:-0.41514 3:-1.376314 
10 1:7.426176 2:-0.32166 3:-1.254925 
10 1:7.403685 2:-0.1935 3:-1.107984 
10 1:7.381195 2:-0.06534 3:-0.961044 
10 1:7.358442 2:0.06435 3:-0.81239 
10 1:7.333689 2:0.223288 3:-0.653393 
10 1:7.323381 2:0.433299 3:-0.609075 
10 1:7.309691 2:0.607764 3:-0.534315 
10 1:7.297048 2:0.807849 3:-0.471209 
10 1:7.29035 2:1.013341 3:-0.452923 
10 1:7.284351 2:1.190811 3:-0.43555 
10 1:7.270019 2:1.363352 3:-0.355744 
10 1:7.261837 2:1.532848 3:-0.320992 
10 1:7.263269 2:1.537476 3:-0.332297 
10 1:7.24153 2:1.509843 3:-0.167198 
10 1:7.216072 2:1.482146 3:0.025435 
10 1:7.19292 2:1.458696 3:0.20036 
10 1:7.176696 2:1.381792 3:0.332148 
10 1:7.162096 2:1.251391 3:0.460057 
10 1:7.147108 2:1.11983 3:0.591012 
10 1:7.137128 2:0.970781 3:0.687574 
10 1:7.126646 2:0.790765 3:0.792559 
10 1:7.104679 2:0.668863 3:0.973703 
10 1:7.087021 2:0.577807 3:1.118259 
10 1:7.080343 2:0.437926 3:1.188975 
10 1:7.074883 2:0.249604 3:1.25806 
10 1:7.06309 2:0.072161 3:1.372363 
10 1:7.049612 2:-0.067509 3:1.493376 
10 1:7.045949 2:-0.19803 3:1.540361 
10 1:7.051935 2:-0.368324 3:1.52199 
10 1:7.059849 2:-0.547134 3:1.490641 
10 1:7.071483 2:-0.712096 3:1.429649 
10 1:7.083049 2:-0.825718 3:1.361349 
10 1:7.105102 2:-0.86622 3:1.204297 
10 1:7.131442 2:-0.921137 3:1.017715 
10 1:7.157428 2:-0.975352 3:0.83364 
10 1:7.183334 2:-1.019281 3:0.648601 
10 1:7.209669 2:-1.057986 3:0.459584 
10 1:7.236213 2:-1.097009 3:0.269071 
10 1:7.262143 2:-1.135233 3:0.082975 
10 1:7.287896 2:-1.155941 3:-0.104476 
10 1:7.314153 2:-1.172594 3:-0.296268 
10 1:7.340373 2:-1.186183 3:-0.48826 
10 1:7.366648 2:-1.195178 3:-0.681352 
10 1:7.605496 2:-1.287775 3:-0.876782 
10 1:7.635893 2:-1.301121 3:-0.681781 
10 1:7.66526 2:-1.314239 3:-0.49338 
10 1:7.694092 2:-1.301669 3:-0.309355 
10 1:7.723971 2:-1.275268 3:-0.119147 
10 1:7.752873 2:-1.250279 3:0.064863 
10 1:7.779524 2:-1.190619 3:0.233176 
10 1:7.804834 2:-1.116051 3:0.392363 
10 1:7.822245 2:-1.016695 3:0.500075 
10 1:7.830307 2:-0.893311 3:0.54708 
10 1:7.822243 2:-0.738437 3:0.489719 
10 1:7.812755 2:-0.531838 3:0.42133 
10 1:7.818257 2:-0.306535 3:0.448156 
10 1:7.842008 2:-0.132073 3:0.593654 
10 1:7.865255 2:0.016181 3:0.736894 
10 1:7.891098 2:0.14187 3:0.897587 
10 1:7.914039 2:0.24371 3:1.040595 
10 1:7.926348 2:0.374064 3:1.114508 
10 1:7.927594 2:0.514126 3:1.117276 
10 1:7.915517 2:0.699548 3:1.033106 
10 1:7.92277 2:0.943078 3:1.070462 
10 1:7.945366 2:1.103653 3:1.20908 
10 1:7.959334 2:1.223373 3:1.294009 
10 1:7.959713 2:1.339565 3:1.292119 
10 1:7.946201 2:1.418732 3:1.202715 
10 1:7.920406 2:1.443024 3:1.036752 
10 1:7.890852 2:1.47397 3:0.846492 
10 1:7.861286 2:1.495517 3:0.656501 
10 1:7.831852 2:1.509489 3:0.467638 
10 1:7.801924 2:1.508378 3:0.276178 
10 1:7.77323 2:1.507635 3:0.092601 
10 1:7.745135 2:1.461892 3:-0.085473 
10 1:7.71943 2:1.424979 3:-0.248582 
10 1:7.702046 2:1.300675 3:-0.355198 
10 1:7.684054 2:1.173625 3:-0.465605 
10 1:7.67898 2:0.997679 3:-0.491528 
10 1:7.668031 2:0.793067 3:-0.553987 
10 1:7.650774 2:0.624691 3:-0.65815 
10 1:7.641724 2:0.465619 3:-0.710145 
10 1:7.640959 2:0.31246 3:-0.709346 
10 1:7.651675 2:0.115007 3:-0.633441 
10 1:7.6392 2:-0.102151 3:-0.705189 
10 1:7.614206 2:-0.251726 3:-0.859564 
10 1:7.592752 2:-0.391644 3:-0.991641 
10 1:7.574067 2:-0.514412 3:-1.106641 
10 1:7.569723 2:-0.664023 3:-1.128873 
10 1:7.569915 2:-0.848931 3:-1.120768 
10 1:7.571209 2:-1.04645 3:-1.10515 
10 1:7.570246 2:-1.207788 3:-1.105315 
10 1:7.585251 2:-1.308353 3:-1.005561 
10 1:8.191854 2:0.769795 3:0.746826 
10 1:8.192656 2:0.964244 3:0.703999 
10 1:8.192635 2:1.118922 3:0.679783 
10 1:8.200914 2:1.170858 3:0.547831 
10 1:8.2123 2:1.239165 3:0.366853 
10 1:8.224041 2:1.3049 3:0.180977 
10 1:8.235726 2:1.368125 3:-0.003666 
10 1:8.24717 2:1.41757 3:-0.182534 
10 1:8.25965 2:1.433869 3:-0.371603 
10 1:8.271989 2:1.450985 3:-0.558707 
10 1:8.282568 2:1.431744 3:-0.713749 
10 1:8.293593 2:1.334816 3:-0.863124 
10 1:8.305962 2:1.228681 3:-1.031134 
10 1:8.316878 2:1.138353 3:-1.179934 
10 1:8.323906 2:0.986074 3:-1.260795 
10 1:8.331246 2:0.830992 3:-1.345885 
10 1:8.333562 2:0.660895 3:-1.353528 
10 1:8.33538 2:0.46567 3:-1.349734 
10 1:8.337239 2:0.266604 3:-1.34594 
10 1:8.339091 2:0.068313 3:-1.342164 
10 1:8.340695 2:-0.123365 3:-1.335742 
10 1:8.340662 2:-0.32357 3:-1.303491 
10 1:8.34346 2:-0.535847 3:-1.311638 
10 1:8.347518 2:-0.734165 3:-1.34082 
10 1:8.350233 2:-0.901538 3:-1.354855 
10 1:8.347188 2:-1.062668 3:-1.283801 
10 1:8.344565 2:-1.224129 3:-1.218992 
10 1:8.336537 2:-1.325748 3:-1.082909 
10 1:8.328262 2:-1.429795 3:-0.942752 
10 1:8.317329 2:-1.454982 3:-0.775377 
10 1:8.304596 2:-1.473581 3:-0.582156 
10 1:8.291996 2:-1.48758 3:-0.391649 
10 1:8.279025 2:-1.477444 3:-0.199423 
10 1:8.265723 2:-1.467251 3:-0.00226 
10 1:8.253825 2:-1.455795 3:0.173721 
10 1:8.242531 2:-1.372287 3:0.329245 
10 1:8.230676 2:-1.278438 3:0.491513 
10 1:8.219586 2:-1.156545 3:0.637916 
10 1:8.208122 2:-1.030988 3:0.789308 
10 1:8.197051 2:-0.90031 3:0.934021 
10 1:8.187168 2:-0.779669 3:1.06258 
10 1:8.182173 2:-0.639691 3:1.115027 
10 1:8.179462 2:-0.48284 3:1.130654 
10 1:8.182159 2:-0.392928 3:1.076094 
10 1:8.192462 2:-0.302975 3:0.907862 
10 1:8.200736 2:-0.143107 3:0.758876 
10 1:8.208034 2:0.062582 3:0.617188 
10 1:8.200854 2:0.288827 3:0.688601 
10 1:8.192832 2:0.456496 3:0.781897 
10 1:8.188079 2:0.63232 3:0.825028 
10 1:8.807674 2:0.14993 3:-0.704002 
10 1:8.771597 2:0.350483 3:-0.684196 
10 1:8.737593 2:0.539938 3:-0.666139 
10 1:8.701705 2:0.711713 3:-0.606813 
10 1:8.665888 2:0.867146 3:-0.524744 
10 1:8.627907 2:1.001601 3:-0.394321 
10 1:8.587598 2:1.144268 3:-0.255862 
10 1:8.548393 2:1.279366 3:-0.115964 
10 1:8.511751 2:1.395369 3:0.029448 
10 1:8.48319 2:1.466758 3:0.169988 
10 1:8.462788 2:1.461453 3:0.350819 
10 1:8.439358 2:1.458382 3:0.554182 
10 1:8.416423 2:1.455477 3:0.753101 
10 1:8.398045 2:1.437233 3:0.935232 
10 1:8.389024 2:1.366656 3:1.112686 
10 1:8.379265 2:1.292747 3:1.301168 
10 1:8.371503 2:1.230151 3:1.456525 
10 1:8.387622 2:1.077928 3:1.537148 
10 1:8.405592 2:0.900611 3:1.637901 
10 1:8.422705 2:0.731234 3:1.734597 
10 1:8.443644 2:0.565836 3:1.793108 
10 1:8.474054 2:0.377327 3:1.804222 
10 1:8.505173 2:0.183504 3:1.8169 
10 1:8.539859 2:-0.009145 3:1.797612 
10 1:8.57431 2:-0.200928 3:1.779077 
10 1:8.601134 2:-0.337205 3:1.746006 
10 1:8.631558 2:-0.414521 3:1.598118 
10 1:8.668956 2:-0.514535 3:1.423436 
10 1:8.704526 2:-0.609993 3:1.257766 
10 1:8.732105 2:-0.661931 3:1.097775 
10 1:8.754761 2:-0.657398 3:0.898899 
10 1:8.791189 2:-0.715354 3:0.672363 
10 1:8.839241 2:-0.904305 3:0.534284 
10 1:8.879403 2:-1.065179 3:0.423086 
10 1:8.917845 2:-1.207908 3:0.300576 
10 1:8.956772 2:-1.337927 3:0.15578 
10 1:8.992702 2:-1.459502 3:0.024377 
10 1:9.014748 2:-1.494629 3:-0.112649 
10 1:9.032604 2:-1.471549 3:-0.297265 
10 1:9.052473 2:-1.447987 3:-0.499664 
10 1:9.070645 2:-1.429321 3:-0.680653 
10 1:9.071926 2:-1.340445 3:-0.818525 
10 1:9.068917 2:-1.236928 3:-0.940884 
10 1:9.045879 2:-1.096737 3:-0.945551 
10 1:9.016348 2:-0.932874 3:-0.928913 
10 1:8.979713 2:-0.794241 3:-0.815891 
10 1:8.934709 2:-0.609882 3:-0.697137 
10 1:8.887681 2:-0.364945 3:-0.647743 
10 1:8.866097 2:-0.163281 3:-0.752602 
10 1:8.841688 2:0.016884 3:-0.802748 
10 1:9.305125 2:-1.220503 3:0.499185 
10 1:9.310162 2:-1.135781 3:0.705786 
10 1:9.315198 2:-1.051059 3:0.912387 
10 1:9.320235 2:-0.966337 3:1.118988 
10 1:9.32478 2:-0.89773 3:1.299015 
10 1:9.323375 2:-0.732005 3:1.396716 
10 1:9.322297 2:-0.565778 3:1.50376 
10 1:9.320093 2:-0.488994 3:1.50676 
10 1:9.311329 2:-0.391197 3:1.348441 
10 1:9.300775 2:-0.266715 3:1.163293 
10 1:9.290221 2:-0.142233 3:0.978144 
10 1:9.27979 2:-0.019174 3:0.795173 
10 1:9.269327 2:0.095218 3:0.604217 
10 1:9.256182 2:0.263676 3:0.384605 
10 1:9.249456 2:0.56774 3:0.450975 
10 1:9.260839 2:0.578103 3:0.769322 
10 1:9.263035 2:0.719384 3:0.945031 
10 1:9.264614 2:0.868993 3:1.110742 
10 1:9.266794 2:1.008975 3:1.284921 
10 1:9.259169 2:1.270851 3:1.292234 
10 1:9.257066 2:1.319718 3:1.27509 
10 1:9.24995 2:1.354413 3:1.109836 
10 1:9.240989 2:1.389254 3:0.894496 
10 1:9.232099 2:1.424148 3:0.681138 
10 1:9.22422 2:1.428378 3:0.470146 
10 1:9.216637 2:1.415837 3:0.253448 
10 1:9.209353 2:1.393546 3:0.036899 
10 1:9.202442 2:1.357911 3:-0.180466 
10 1:9.195436 2:1.321839 3:-0.400777 
10 1:9.189111 2:1.293136 3:-0.596486 
10 1:9.187647 2:1.179046 3:-0.72994 
10 1:9.187597 2:1.040904 3:-0.844648 
10 1:9.192533 2:0.871153 3:-0.849534 
10 1:9.201662 2:0.669386 3:-0.766595 
10 1:9.209562 2:0.425186 3:-0.751898 
10 1:9.215882 2:0.159198 3:-0.798082 
10 1:9.212197 2:0.014178 3:-1.017371 
10 1:9.209531 2:-0.095183 3:-1.179668 
10 1:9.211128 2:-0.265084 3:-1.275593 
10 1:9.213773 2:-0.445529 3:-1.351647 
10 1:9.218709 2:-0.627755 3:-1.366777 
10 1:9.224716 2:-0.751085 3:-1.304454 
10 1:9.233638 2:-0.855656 3:-1.147387 
10 1:9.242873 2:-0.929681 3:-0.956733 
10 1:9.252428 2:-0.990708 3:-0.746727 
10 1:9.262189 2:-1.053141 3:-0.532252 
10 1:9.271809 2:-1.115601 3:-0.321641 
10 1:9.280931 2:-1.161374 3:-0.110885 
10 1:9.289768 2:-1.193957 3:0.102947 
10 1:9.2983 2:-1.210588 3:0.321542 
10 1:9.700827 2:-0.280133 3:1.016563 
10 1:9.722884 2:-0.136685 3:0.884001 
10 1:9.74494 2:0.006763 3:0.751439 
10 1:9.766322 2:0.145839 3:0.623175 
10 1:9.784417 2:0.261923 3:0.485408 
10 1:9.806938 2:0.405788 3:0.302709 
10 1:9.841817 2:0.646953 3:0.353387 
10 1:9.869189 2:0.836038 3:0.390038 
10 1:9.896752 2:1.027017 3:0.437321 
10 1:9.922821 2:1.207652 3:0.482253 
10 1:9.943935 2:1.352891 3:0.499271 
10 1:9.960673 2:1.462466 3:0.411747 
10 1:9.972755 2:1.537247 3:0.270119 
10 1:9.982498 2:1.594491 3:0.100275 
10 1:9.988582 2:1.625837 3:-0.08568 
10 1:9.994966 2:1.65881 3:-0.279352 
10 1:10.001134 2:1.690751 3:-0.465073 
10 1:10.002872 2:1.692274 3:-0.653259 
10 1:10.004826 2:1.696208 3:-0.824502 
10 1:9.998063 2:1.645292 3:-0.909808 
10 1:9.975705 2:1.489122 3:-0.970989 
10 1:9.949769 2:1.30757 3:-1.049048 
10 1:9.924507 2:1.130173 3:-1.135402 
10 1:9.899919 2:0.957499 3:-1.219534 
10 1:9.874831 2:0.782025 3:-1.29255 
10 1:9.848929 2:0.601266 3:-1.360467 
10 1:9.822808 2:0.418971 3:-1.428977 
10 1:9.798099 2:0.246518 3:-1.494084 
10 1:9.771635 2:0.06421 3:-1.520387 
10 1:9.744856 2:-0.12032 3:-1.547903 
10 1:9.718628 2:-0.299392 3:-1.544596 
10 1:9.695778 2:-0.454562 3:-1.526569 
10 1:9.677817 2:-0.571068 3:-1.413063 
10 1:9.657788 2:-0.700321 3:-1.274388 
10 1:9.638765 2:-0.822492 3:-1.131866 
10 1:9.622768 2:-0.923593 3:-0.982319 
10 1:9.611144 2:-0.994017 3:-0.818435 
10 1:9.602044 2:-1.046184 3:-0.636212 
10 1:9.593122 2:-1.097133 3:-0.453902 
10 1:9.587744 2:-1.123625 3:-0.267396 
10 1:9.583201 2:-1.144493 3:-0.082398 
10 1:9.583173 2:-1.134338 3:0.105687 
10 1:9.583093 2:-1.12413 3:0.301234 
10 1:9.583216 2:-1.113441 3:0.48016 
10 1:9.591684 2:-1.046824 3:0.639109 
10 1:9.604294 2:-0.951759 3:0.800539 
10 1:9.61596 2:-0.864026 3:0.946021 
10 1:9.62966 2:-0.767842 3:0.992483 
10 1:9.654878 2:-0.596122 3:0.981064 
10 1:9.683692 2:-0.398154 3:0.999958 
10 1:10.378064 2:-0.880613 3:1.265533 
10 1:10.343913 2:-1.024666 3:1.10703 
10 1:10.309361 2:-1.182671 3:0.952458 
10 1:10.279723 2:-1.34958 3:0.834685 
10 1:10.250678 2:-1.456401 3:0.69247 
10 1:10.222444 2:-1.498842 3:0.525216 
10 1:10.191679 2:-1.505457 3:0.324254 
10 1:10.159268 2:-1.513012 3:0.112816 
10 1:10.126975 2:-1.520542 3:-0.097855 
10 1:10.097172 2:-1.525596 3:-0.293173 
10 1:10.072683 2:-1.469031 3:-0.482349 
10 1:10.046243 2:-1.409444 3:-0.685893 
10 1:10.025616 2:-1.397103 3:-0.828559 
10 1:10.047836 2:-1.231209 3:-0.759525 
10 1:10.045482 2:-1.016664 3:-0.876486 
10 1:10.027029 2:-0.868423 3:-1.06892 
10 1:10.005551 2:-0.793522 3:-1.246787 
10 1:10.001386 2:-0.703212 3:-1.317079 
10 1:10.02442 2:-0.615847 3:-1.205544 
10 1:10.057371 2:-0.478634 3:-1.051771 
10 1:10.095088 2:-0.325024 3:-0.874121 
10 1:10.122244 2:-0.102435 3:-0.79912 
10 1:10.13611 2:0.13537 3:-0.81947 
10 1:10.144121 2:0.356871 3:-0.870962 
10 1:10.145999 2:0.552602 3:-0.950961 
10 1:10.151882 2:0.704681 3:-0.983772 
10 1:10.175227 2:0.883328 3:-0.913296 
10 1:10.196002 2:1.077064 3:-0.866992 
10 1:10.222213 2:1.222419 3:-0.761776 
10 1:10.248867 2:1.345803 3:-0.643246 
10 1:10.277255 2:1.376753 3:-0.469545 
10 1:10.309538 2:1.395329 3:-0.264158 
10 1:10.342018 2:1.414235 3:-0.057622 
10 1:10.373263 2:1.415754 3:0.148936 
10 1:10.403067 2:1.414661 3:0.34716 
10 1:10.427996 2:1.361948 3:0.53744 
10 1:10.450556 2:1.309265 3:0.711983 
10 1:10.457742 2:1.253979 3:0.785767 
10 1:10.448274 2:1.020404 3:0.833297 
10 1:10.417235 2:0.855157 3:0.705451 
10 1:10.366603 2:0.768188 3:0.410646 
10 1:10.350854 2:0.505267 3:0.430372 
10 1:10.360301 2:0.310175 3:0.585198 
10 1:10.384788 2:0.218536 3:0.790929 
10 1:10.400448 2:0.106793 3:0.947597 
10 1:10.410794 2:-0.038446 3:1.084835 
10 1:10.419119 2:-0.180412 3:1.207129 
10 1:10.412306 2:-0.351611 3:1.2428 
10 1:10.400618 2:-0.563672 3:1.26544 
10 1:10.392302 2:-0.776322 3:1.31072 
10 1:10.716359 2:-1.260598 3:0.091259 
10 1:10.754204 2:-1.26883 3:-0.126041 
10 1:10.792049 2:-1.277062 3:-0.343341 
10 1:10.828661 2:-1.285284 3:-0.553585 
10 1:10.86277 2:-1.264586 3:-0.747173 
10 1:10.897532 2:-1.193166 3:-0.940426 
10 1:10.931727 2:-1.124905 3:-1.130686 
10 1:10.954304 2:-1.030766 3:-1.25236 
10 1:10.962698 2:-0.888747 3:-1.288995 
10 1:10.953241 2:-0.713718 3:-1.220794 
10 1:10.941388 2:-0.526008 3:-1.137857 
10 1:10.921986 2:-0.346564 3:-1.012365 
10 1:10.909104 2:-0.14047 3:-0.922063 
10 1:10.893313 2:0.044102 3:-0.816832 
10 1:10.874814 2:0.257575 3:-0.693783 
10 1:10.882192 2:0.526585 3:-0.714398 
10 1:10.903846 2:0.749935 3:-0.8204 
10 1:10.931991 2:0.934059 3:-0.966715 
10 1:10.960494 2:1.065234 3:-1.119337 
10 1:10.972632 2:1.232169 3:-1.175402 
10 1:10.978976 2:1.384776 3:-1.199452 
10 1:10.957292 2:1.437827 3:-1.071058 
10 1:10.923626 2:1.464617 3:-0.876189 
10 1:10.886497 2:1.485207 3:-0.661996 
10 1:10.849466 2:1.505814 3:-0.448356 
10 1:10.812502 2:1.51357 3:-0.236138 
10 1:10.77485 2:1.512744 3:-0.020669 
10 1:10.736856 2:1.51193 3:0.196759 
10 1:10.701128 2:1.512027 3:0.401284 
10 1:10.665995 2:1.456584 3:0.597947 
10 1:10.628618 2:1.397715 3:0.807174 
10 1:10.596357 2:1.352019 3:0.988175 
10 1:10.580052 2:1.22676 3:1.071443 
10 1:10.565559 2:1.036313 3:1.139099 
10 1:10.553526 2:0.828641 3:1.191291 
10 1:10.542748 2:0.640701 3:1.237886 
10 1:10.548548 2:0.503763 3:1.193675 
10 1:10.571843 2:0.3872 3:1.050961 
10 1:10.60236 2:0.281083 3:0.867739 
10 1:10.633665 2:0.130318 3:0.676419 
10 1:10.635415 2:-0.157735 3:0.643248 
10 1:10.603631 2:-0.358886 3:0.809029 
10 1:10.576242 2:-0.511345 3:0.953557 
10 1:10.559339 2:-0.64704 3:1.039415 
10 1:10.559629 2:-0.838156 3:1.022393 
10 1:10.556749 2:-1.007731 3:1.025252 
10 1:10.578658 2:-1.035395 3:0.897609 
10 1:10.61494 2:-1.073883 3:0.686825 
10 1:10.652258 2:-1.135044 3:0.46829 
10 1:10.685954 2:-1.214204 3:0.269035 
10 1:11.190473 2:-0.802355 3:-1.057469 
10 1:11.188706 2:-0.998493 3:-1.030339 
10 1:11.189566 2:-1.10596 3:-0.974639 
10 1:11.196874 2:-1.144583 3:-0.798252 
10 1:11.205254 2:-1.197223 3:-0.593169 
10 1:11.213731 2:-1.23264 3:-0.391757 
10 1:11.222936 2:-1.242955 3:-0.182602 
10 1:11.232408 2:-1.253766 3:0.032673 
10 1:11.241552 2:-1.26448 3:0.240599 
10 1:11.251117 2:-1.244055 3:0.447354 
10 1:11.260504 2:-1.223643 3:0.650148 
10 1:11.269256 2:-1.16274 3:0.824982 
10 1:11.276487 2:-1.087121 3:0.960874 
10 1:11.277888 2:-0.934789 3:0.940446 
10 1:11.279882 2:-0.748937 3:0.921888 
10 1:11.277249 2:-0.616409 3:0.818067 
10 1:11.280733 2:-0.329897 3:0.798616 
10 1:11.267001 2:-0.274231 3:0.472933 
10 1:11.27707 2:-0.054729 3:0.623342 
10 1:11.286958 2:0.078831 3:0.798911 
10 1:11.296274 2:0.217425 3:0.959978 
10 1:11.305725 2:0.357979 3:1.123396 
10 1:11.315176 2:0.498532 3:1.286814 
10 1:11.323708 2:0.622929 3:1.43519 
10 1:11.328671 2:0.770523 3:1.495958 
10 1:11.332439 2:0.97437 3:1.510936 
10 1:11.336824 2:1.160914 3:1.545566 
10 1:11.335541 2:1.319286 3:1.463123 
10 1:11.33421 2:1.480345 3:1.378696 
10 1:11.328083 2:1.544779 3:1.219948 
10 1:11.320402 2:1.608101 3:1.026839 
10 1:11.312283 2:1.64037 3:0.834487 
10 1:11.302971 2:1.633784 3:0.628701 
10 1:11.293473 2:1.627678 3:0.41857 
10 1:11.284198 2:1.600643 3:0.220547 
10 1:11.275273 2:1.544993 3:0.040032 
10 1:11.266487 2:1.421526 3:-0.114319 
10 1:11.256879 2:1.28827 3:-0.283732 
10 1:11.24788 2:1.164459 3:-0.442736 
10 1:11.240612 2:1.010491 3:-0.552832 
10 1:11.235277 2:0.8509 3:-0.61783 
10 1:11.232711 2:0.659282 3:-0.610114 
10 1:11.230629 2:0.453163 3:-0.586629 
10 1:11.229183 2:0.243248 3:-0.547661 
10 1:11.226765 2:-0.010465 3:-0.515543 
10 1:11.21629 2:-0.216383 3:-0.679636 
10 1:11.206585 2:-0.299614 3:-0.868205 
10 1:11.200951 2:-0.444813 3:-0.944766 
10 1:11.195416 2:-0.641148 3:-1.001756 
10 1:11.188838 2:-0.844898 3:-1.079537 
10 1:11.707434 2:-0.502894 3:1.170006 
10 1:11.683759 2:-0.676098 3:1.081377 
10 1:11.660303 2:-0.847701 3:0.993586 
10 1:11.641598 2:-0.984773 3:0.925096 
10 1:11.633513 2:-1.02611 3:0.771191 
10 1:11.622595 2:-1.084991 3:0.584566 
10 1:11.611677 2:-1.143872 3:0.397941 
10 1:11.600759 2:-1.202753 3:0.211316 
10 1:11.590296 2:-1.259315 3:0.033384 
10 1:11.584021 2:-1.282191 3:-0.150004 
10 1:11.5781 2:-1.30083 3:-0.343501 
10 1:11.572132 2:-1.319625 3:-0.538504 
10 1:11.566252 2:-1.338169 3:-0.730395 
10 1:11.562041 2:-1.348907 3:-0.885483 
10 1:11.572471 2:-1.24843 3:-1.014258 
10 1:11.582385 2:-1.150408 3:-1.154114 
10 1:11.595428 2:-1.041478 3:-1.199075 
10 1:11.615296 2:-0.887071 3:-1.187541 
10 1:11.634618 2:-0.745311 3:-1.118027 
10 1:11.655979 2:-0.594259 3:-1.001776 
10 1:11.681051 2:-0.412718 3:-0.894835 
10 1:11.707503 2:-0.212991 3:-0.838873 
10 1:11.733812 2:-0.014122 3:-0.784764 
10 1:11.760618 2:0.195489 3:-0.778118 
10 1:11.786417 2:0.401106 3:-0.798697 
10 1:11.811136 2:0.601721 3:-0.843414 
10 1:11.833933 2:0.790752 3:-0.912521 
10 1:11.85598 2:0.973594 3:-0.979587 
10 1:11.877132 2:1.149061 3:-1.044271 
10 1:11.896346 2:1.304865 3:-1.078116 
10 1:11.904868 2:1.368881 3:-1.057789 
10 1:11.911413 2:1.397977 3:-0.902876 
10 1:11.920685 2:1.44338 3:-0.712435 
10 1:11.929957 2:1.488784 3:-0.521994 
10 1:11.938796 2:1.532282 3:-0.341932 
10 1:11.942652 2:1.536123 3:-0.158346 
10 1:11.946204 2:1.535978 3:0.036381 
10 1:11.949804 2:1.54029 3:0.202795 
10 1:11.941264 2:1.45772 3:0.310325 
10 1:11.925508 2:1.317004 3:0.427959 
10 1:11.908803 2:1.167663 3:0.553789 
10 1:11.894231 2:1.036847 3:0.667266 
10 1:11.875252 2:0.882614 3:0.703011 
10 1:11.851829 2:0.695967 3:0.721472 
10 1:11.825929 2:0.489406 3:0.743066 
10 1:11.80186 2:0.289023 3:0.821626 
10 1:11.784271 2:0.133786 3:0.940151 
10 1:11.765152 2:-0.025398 3:1.002656 
10 1:11.741854 2:-0.215282 3:1.050386 
10 1:11.719838 2:-0.399452 3:1.128329 
10 1:12.269387 2:-1.023147 3:-0.891845 
10 1:12.291823 2:-0.835166 3:-0.924599 
10 1:12.31426 2:-0.647184 3:-0.957353 
10 1:12.333814 2:-0.488051 3:-0.989322 
10 1:12.338511 2:-0.354687 3:-0.92771 
10 1:12.337309 2:-0.235451 3:-0.831771 
10 1:12.324842 2:-0.119437 3:-0.652988 
10 1:12.338288 2:0.108759 3:-0.588462 
10 1:12.359126 2:0.335218 3:-0.581101 
10 1:12.393079 2:0.507814 3:-0.712154 
10 1:12.416409 2:0.641849 3:-0.790957 
10 1:12.431885 2:0.786995 3:-0.80228 
10 1:12.439793 2:0.945394 3:-0.746708 
10 1:12.44617 2:1.10181 3:-0.681004 
10 1:12.443284 2:1.212926 3:-0.578245 
10 1:12.430869 2:1.289333 3:-0.428705 
10 1:12.413979 2:1.351655 3:-0.255577 
10 1:12.396596 2:1.413395 3:-0.079151 
10 1:12.379295 2:1.457751 3:0.083996 
10 1:12.355124 2:1.446244 3:0.258409 
10 1:12.331212 2:1.437261 3:0.432698 
10 1:12.306339 2:1.377565 3:0.577315 
10 1:12.281427 2:1.289576 3:0.701627 
10 1:12.257363 2:1.141154 3:0.775503 
10 1:12.230482 2:0.970971 3:0.854832 
10 1:12.20124 2:0.786673 3:0.941741 
10 1:12.16756 2:0.648707 3:1.095951 
10 1:12.137419 2:0.518127 3:1.228785 
10 1:12.10789 2:0.388653 3:1.357787 
10 1:12.080725 2:0.251059 3:1.463007 
10 1:12.056314 2:0.104261 3:1.540688 
10 1:12.035817 2:-0.068792 3:1.569652 
10 1:12.017419 2:-0.212688 3:1.603971 
10 1:12.020912 2:-0.31978 3:1.499555 
10 1:12.023437 2:-0.467376 3:1.372952 
10 1:12.024508 2:-0.62321 3:1.251351 
10 1:12.02337 2:-0.785334 3:1.141873 
10 1:12.022002 2:-0.928324 3:1.048067 
10 1:12.032395 2:-1.011523 3:0.908867 
10 1:12.04645 2:-1.095416 3:0.741472 
10 1:12.060817 2:-1.181343 3:0.570232 
10 1:12.074842 2:-1.265391 3:0.40295 
10 1:12.090446 2:-1.331406 3:0.236865 
10 1:12.109525 2:-1.373341 3:0.062033 
10 1:12.130167 2:-1.400218 3:-0.113642 
